GenomeStart 59006
Neuron 1 1 0.00000000 1 0.00000000 0.00000000 0.00000000 0.00000000
Neuron 2 1 0.00000000 1 0.00000000 0.00000000 0.00000000 0.00000000
Neuron 3 1 0.00000000 1 0.00000000 0.00000000 0.00000000 0.00000000
Neuron 4 1 0.00000000 1 0.00000000 0.00000000 0.00000000 0.00000000
Neuron 5 1 0.00000000 1 0.00000000 0.00000000 0.00000000 0.00000000
Neuron 6 1 0.00000000 1 0.00000000 0.00000000 0.00000000 0.00000000
Neuron 7 1 0.00000000 1 0.00000000 0.00000000 0.00000000 0.00000000
Neuron 8 1 0.00000000 1 0.00000000 0.00000000 0.00000000 0.00000000
Neuron 9 2 0.00000000 1 0.00000000 0.00000000 0.00000000 0.00000000
Neuron 10 4 1.00000000 0 1.00000000 0.00000000 0.00000000 0.00000000
Neuron 11 4 1.00000000 0 1.00000000 0.00000000 0.00000000 0.00000000
Neuron 12 4 1.00000000 0 1.00000000 0.00000000 0.00000000 0.00000000
Neuron 13 4 1.00000000 0 1.00000000 0.00000000 0.00000000 0.00000000
Neuron 14 4 1.00000000 0 1.00000000 0.00000000 0.00000000 0.00000000
Neuron 15 4 1.00000000 0 1.00000000 0.00000000 0.00000000 0.00000000
Neuron 16 4 1.00000000 0 1.00000000 0.00000000 0.00000000 0.00000000
Neuron 17 3 0.50000000 1 1.00000000 0.00000000 0.00000000 0.00000000
Neuron 18 3 0.50000000 1 1.00000000 0.00000000 0.00000000 0.00000000
Neuron 22 3 0.50000000 1 1.00000000 0.00000000 0.00000000 0.00000000
Neuron 24 3 0.50000000 1 1.00000000 0.00000000 0.00000000 0.00000000
Neuron 28 3 0.50000000 1 1.00000000 0.00000000 0.00000000 0.00000000
Neuron 35 3 0.50000000 1 1.00000000 0.00000000 0.00000000 0.00000000
Neuron 36 3 0.50000000 1 1.00000000 0.00000000 0.00000000 0.00000000
Neuron 38 3 0.50000000 1 1.00000000 0.00000000 0.00000000 0.00000000
Neuron 40 3 0.50000000 1 1.00000000 0.00000000 0.00000000 0.00000000
Neuron 41 3 0.50000000 1 1.00000000 0.00000000 0.00000000 0.00000000
Neuron 42 3 0.50000000 1 1.00000000 0.00000000 0.00000000 0.00000000
Neuron 48 3 0.50000000 1 1.00000000 0.00000000 0.00000000 0.00000000
Neuron 50 3 0.50000000 1 1.00000000 0.00000000 0.00000000 0.00000000
Neuron 54 3 0.50000000 1 1.00000000 0.00000000 0.00000000 0.00000000
Neuron 58 3 0.50000000 1 1.00000000 0.00000000 0.00000000 0.00000000
Neuron 60 3 0.50000000 1 1.00000000 0.00000000 0.00000000 0.00000000
Neuron 63 3 0.50000000 1 1.00000000 0.00000000 0.00000000 0.00000000
Neuron 67 3 0.50000000 1 1.00000000 0.00000000 0.00000000 0.00000000
Neuron 68 3 0.25000000 1 1.00000000 0.00000000 0.00000000 0.00000000
Neuron 70 3 0.75000000 1 1.00000000 0.00000000 0.00000000 0.00000000
Neuron 86 3 0.50000000 1 1.00000000 0.00000000 0.00000000 0.00000000
Neuron 96 3 0.75000000 1 1.00000000 0.00000000 0.00000000 0.00000000
Neuron 111 3 0.75000000 1 1.00000000 0.00000000 0.00000000 0.00000000
Neuron 130 3 0.75000000 1 1.00000000 0.00000000 0.00000000 0.00000000
Neuron 146 3 0.75000000 1 1.00000000 0.00000000 0.00000000 0.00000000
Neuron 172 3 0.75000000 1 1.00000000 0.00000000 0.00000000 0.00000000
Neuron 183 3 0.25000000 1 1.00000000 0.00000000 0.00000000 0.00000000
Neuron 187 3 0.75000000 1 1.00000000 0.00000000 0.00000000 0.00000000
Neuron 211 3 0.25000000 1 1.00000000 0.00000000 0.00000000 0.00000000
Neuron 244 3 0.50000000 1 1.00000000 0.00000000 0.00000000 0.00000000
Neuron 285 3 0.25000000 1 1.00000000 0.00000000 0.00000000 0.00000000
Neuron 296 3 0.75000000 1 1.00000000 0.00000000 0.00000000 0.00000000
Neuron 318 3 0.75000000 1 1.00000000 0.00000000 0.00000000 0.00000000
Neuron 323 3 0.75000000 1 1.00000000 0.00000000 0.00000000 0.00000000
Neuron 328 3 0.25000000 1 1.00000000 0.00000000 0.00000000 0.00000000
Neuron 367 3 0.87500000 1 1.00000000 0.00000000 0.00000000 0.00000000
Neuron 411 3 0.50000000 1 1.00000000 0.00000000 0.00000000 0.00000000
Neuron 436 3 1.00000000 1 1.00000000 0.00000000 0.00000000 0.00000000
Neuron 525 3 0.87500000 1 1.00000000 0.00000000 0.00000000 0.00000000
Neuron 540 3 0.75000000 1 1.00000000 0.00000000 0.00000000 0.00000000
Neuron 575 3 0.50000000 1 1.00000000 0.00000000 0.00000000 0.00000000
Neuron 634 3 0.25000000 1 1.00000000 0.00000000 0.00000000 0.00000000
Neuron 645 3 0.62500000 1 1.00000000 0.00000000 0.00000000 0.00000000
Neuron 658 3 0.50000000 1 1.00000000 0.00000000 0.00000000 0.00000000
Neuron 669 3 0.37500000 1 1.00000000 0.00000000 0.00000000 0.00000000
Neuron 716 3 0.62500000 1 1.00000000 0.00000000 0.00000000 0.00000000
Neuron 727 3 0.62500000 1 1.00000000 0.00000000 0.00000000 0.00000000
Neuron 729 3 0.93750000 1 1.00000000 0.00000000 0.00000000 0.00000000
Neuron 739 3 0.75000000 1 1.00000000 0.00000000 0.00000000 0.00000000
Neuron 752 3 0.87500000 1 1.00000000 0.00000000 0.00000000 0.00000000
Neuron 762 3 0.37500000 1 1.00000000 0.00000000 0.00000000 0.00000000
Neuron 771 3 0.68750000 1 1.00000000 0.00000000 0.00000000 0.00000000
Neuron 793 3 0.25000000 1 1.00000000 0.00000000 0.00000000 0.00000000
Neuron 826 3 0.56250000 1 1.00000000 0.00000000 0.00000000 0.00000000
Neuron 891 3 0.62500000 1 1.00000000 0.00000000 0.00000000 0.00000000
Neuron 939 3 0.87500000 1 1.00000000 0.00000000 0.00000000 0.00000000
Neuron 940 3 0.87500000 1 1.00000000 0.00000000 0.00000000 0.00000000
Neuron 985 3 0.62500000 1 1.00000000 0.00000000 0.00000000 0.00000000
Neuron 987 3 0.25000000 1 1.00000000 0.00000000 0.00000000 0.00000000
Neuron 1010 3 0.56250000 1 1.00000000 0.00000000 0.00000000 0.00000000
Neuron 1043 3 0.12500000 1 1.00000000 0.00000000 0.00000000 0.00000000
Neuron 1049 3 0.37500000 1 1.00000000 0.00000000 0.00000000 0.00000000
Neuron 1096 3 0.90625000 1 1.00000000 0.00000000 0.00000000 0.00000000
Neuron 1150 3 1.00000000 1 1.00000000 0.00000000 0.00000000 0.00000000
Neuron 1222 3 0.37500000 1 1.00000000 0.00000000 0.00000000 0.00000000
Link 1 10 1 0 1.93358071
Link 2 10 2 0 -3.32973287
Link 3 10 3 0 -5.63821718
Link 4 10 4 0 -1.07935898
Link 6 10 6 0 -0.34964578
Link 7 10 7 0 1.12609551
Link 8 10 8 0 3.62954906
Link 9 10 9 0 -1.45418779
Link 1 11 10 0 3.04377670
Link 2 11 11 0 0.25875980
Link 6 11 15 0 0.59750119
Link 7 11 16 0 -3.95635448
Link 9 11 18 0 0.00959526
Link 1 12 19 0 5.72004724
Link 2 12 20 0 1.09400213
Link 6 12 24 0 -3.22321248
Link 8 12 26 0 4.66093970
Link 9 12 27 0 -1.08653031
Link 1 13 28 0 0.78427252
Link 2 13 29 0 0.16180074
Link 3 13 30 0 -1.70136733
Link 4 13 31 0 -4.42367626
Link 6 13 33 0 0.90311158
Link 7 13 34 0 -2.62380639
Link 8 13 35 0 2.18646160
Link 9 13 36 0 3.40690908
Link 2 14 38 0 -1.11423187
Link 3 14 39 0 -2.13701962
Link 4 14 40 0 -5.42593930
Link 9 14 45 0 0.75936529
Link 1 15 46 0 -0.05398403
Link 3 15 48 0 -0.46240729
Link 5 15 50 0 -3.11900048
Link 6 15 51 0 -2.83671642
Link 8 15 53 0 1.79919609
Link 1 16 55 0 -0.54075456
Link 4 16 58 0 -2.69844557
Link 7 16 61 0 2.83220495
Link 8 16 62 0 -1.06628785
Link 9 16 63 0 -1.51771949
Link 6 17 65 0 1.06311837
Link 17 16 66 0 0.78965325
Link 5 18 68 0 -4.71956487
Link 8 22 80 0 -0.64382646
Link 22 11 81 0 -0.60215332
Link 4 24 86 0 1.57508385
Link 24 12 87 0 -2.49495878
Link 7 35 120 0 2.30047312
Link 36 14 124 0 -0.17745290
Link 4 38 129 0 1.37440423
Link 38 11 130 0 2.18625126
Link 40 12 137 0 1.03277738
Link 8 41 139 0 3.88160555
Link 41 14 140 0 -1.81377530
Link 2 42 142 0 -1.06669525
Link 7 50 166 0 0.97247822
Link 50 14 167 0 0.52426663
Link 54 16 186 0 -2.61815539
Link 1 58 199 0 -1.59412121
Link 58 14 200 0 0.49307829
Link 2 60 209 0 1.28273403
Link 60 16 210 0 -3.31769700
Link 5 63 225 0 2.24613607
Link 6 41 232 0 0.40162876
Link 2 40 265 0 2.21911654
Link 18 15 271 0 3.74820291
Link 12 12 278 1 -0.92235257
Link 5 67 292 0 -0.80306702
Link 3 68 303 0 0.15126214
Link 68 54 304 0 0.27686968
Link 48 70 311 0 -0.60920946
Link 70 13 312 0 -2.62379109
Link 16 16 417 1 -4.12983535
Link 2 67 426 0 -0.23729413
Link 35 16 515 0 1.48347392
Link 28 18 530 0 -0.35205116
Link 10 58 546 1 -0.67982918
Link 63 96 572 0 0.52090228
Link 96 13 573 0 -0.19969559
Link 111 11 676 0 -0.70776612
Link 67 130 818 0 1.20075635
Link 130 10 819 0 0.20657190
Link 58 15 878 0 4.32202427
Link 16 146 952 1 1.06266550
Link 146 41 953 1 5.20601539
Link 172 15 1146 0 -0.10220961
Link 5 183 1219 0 1.21276856
Link 183 40 1220 0 2.60119840
Link 4 211 1419 0 0.46677443
Link 211 86 1420 0 1.45793560
Link 67 111 1493 0 3.51220192
Link 41 41 1632 1 -1.83927897
Link 18 244 1645 0 1.00000000
Link 244 28 1646 0 0.92548286
Link 41 12 1727 0 0.11715139
Link 54 36 1880 0 -1.80074861
Link 6 67 1883 0 4.07740487
Link 5 285 1916 0 0.12400235
Link 285 36 1917 0 2.83896159
Link 187 16 1991 0 0.03336740
Link 12 296 1993 1 2.64228067
Link 296 28 1994 1 1.11187973
Link 42 318 2117 0 1.64661757
Link 318 15 2118 0 -1.27420979
Link 16 22 2137 1 -2.32736399
Link 323 15 2152 0 -3.22028295
Link 4 328 2194 0 3.42077307
Link 328 28 2195 0 5.46553258
Link 70 48 2221 1 -3.43813818
Link 70 16 2320 0 2.17963554
Link 15 367 2480 1 0.39695575
Link 367 187 2481 1 -4.19963819
Link 24 411 2812 0 1.10474370
Link 411 28 2813 0 1.99325072
Link 436 13 3037 1 0.06563600
Link 187 12 3089 0 -0.74627260
Link 28 48 3532 0 -1.11129146
Link 42 22 3571 0 -1.56222837
Link 111 525 3665 0 0.71974837
Link 38 111 3701 0 -1.28536365
Link 11 540 3764 1 -0.76258437
Link 540 22 3765 1 1.27061671
Link 24 575 4004 0 0.60241323
Link 575 41 4005 0 -2.00790331
Link 38 58 4008 0 0.32263408
Link 1 86 4108 0 0.09634535
Link 1 634 4453 0 0.79198016
Link 634 40 4454 0 1.08667870
Link 540 111 4544 0 2.01618615
Link 22 658 4645 1 -0.25850525
Link 658 22 4646 1 -0.27444039
Link 2 669 4722 0 0.60041944
Link 669 70 4723 0 -0.12992904
Link 40 187 4828 0 -1.49569400
Link 111 645 5112 1 -0.76178213
Link 35 716 5126 0 1.47222427
Link 716 111 5127 0 2.72414389
Link 8 187 5174 0 -4.56862724
Link 187 187 5195 1 4.82664780
Link 35 727 5198 0 2.31428652
Link 727 323 5199 0 1.22445836
Link 729 12 5213 0 1.86867660
Link 86 187 5274 0 -1.07963081
Link 10 739 5289 1 1.11761110
Link 739 86 5290 1 -5.05725618
Link 10 752 5397 1 1.29048845
Link 752 111 5398 1 -1.76006358
Link 8 762 5472 0 1.77129439
Link 762 318 5473 0 -3.48378408
Link 187 771 5534 1 0.83614682
Link 771 645 5535 1 0.25113085
Link 28 752 5575 0 2.12937669
Link 296 411 5623 1 -1.04898714
Link 1 793 5688 0 1.35140886
Link 793 48 5689 0 -3.20057798
Link 318 13 5725 0 -0.79711996
Link 645 826 5929 1 0.41833974
Link 826 28 5930 1 -4.05627854
Link 48 58 6416 0 5.06326105
Link 328 762 6491 0 -2.86575658
Link 70 891 6515 1 1.78829386
Link 891 40 6516 1 2.04935480
Link 6 540 6517 0 -3.03163929
Link 16 187 6718 1 2.07119878
Link 318 939 6919 0 -1.06399334
Link 939 11 6920 0 0.25344907
Link 187 940 6923 0 1.30632112
Link 940 11 6924 0 0.77855254
Link 172 16 7010 0 2.79925462
Link 296 323 7104 0 -1.55094857
Link 939 323 7192 1 0.51429983
Link 3 22 7212 0 1.60571447
Link 60 130 7236 0 -0.99959483
Link 86 985 7324 0 1.25357777
Link 985 172 7325 0 1.62469523
Link 68 211 7383 0 2.90240773
Link 762 1010 7566 0 0.77683971
Link 1010 296 7567 0 -1.76528614
Link 172 752 7770 0 -1.99781473
Link 63 367 7839 0 -1.99031517
Link 1 1043 7896 0 0.36300429
Link 1043 987 7897 0 -0.01393330
Link 891 296 7909 0 3.34189200
Link 987 1049 7949 0 1.64393967
Link 1049 411 7950 0 2.79744077
Link 285 323 8009 0 -0.20891399
Link 752 752 8152 1 0.64945381
Link 525 1096 8402 0 -0.58172931
Link 1096 729 8403 0 1.28734568
Link 38 367 8544 0 -0.10172697
Link 13 1150 9000 1 1.43525981
Link 1150 436 9001 1 0.10646923
Link 634 1096 9127 0 -2.99974914
Link 658 752 9188 0 -1.09750493
Link 285 1043 9358 1 0.96684754
Link 771 771 9418 1 3.37423375
Link 716 436 9480 0 -1.20925393
Link 4 436 9565 0 -0.68822445
Link 211 1222 9673 0 1.00000000
Link 1222 48 9674 0 1.06592611
GenomeEnd

