GenomeStart 112037
Neuron 1 1 0.00000000 1 0.00000000 0.00000000 0.00000000 0.00000000
Neuron 2 1 0.00000000 1 0.00000000 0.00000000 0.00000000 0.00000000
Neuron 3 1 0.00000000 1 0.00000000 0.00000000 0.00000000 0.00000000
Neuron 4 1 0.00000000 1 0.00000000 0.00000000 0.00000000 0.00000000
Neuron 5 1 0.00000000 1 0.00000000 0.00000000 0.00000000 0.00000000
Neuron 6 1 0.00000000 1 0.00000000 0.00000000 0.00000000 0.00000000
Neuron 7 1 0.00000000 1 0.00000000 0.00000000 0.00000000 0.00000000
Neuron 8 1 0.00000000 1 0.00000000 0.00000000 0.00000000 0.00000000
Neuron 9 2 0.00000000 1 0.00000000 0.00000000 0.00000000 0.00000000
Neuron 10 4 1.00000000 0 1.00000000 0.00000000 0.00000000 0.00000000
Neuron 11 4 1.00000000 0 1.00000000 0.00000000 0.00000000 0.00000000
Neuron 12 4 1.00000000 0 1.00000000 0.00000000 0.00000000 0.00000000
Neuron 13 4 1.00000000 0 1.00000000 0.00000000 0.00000000 0.00000000
Neuron 14 4 1.00000000 0 1.00000000 0.00000000 0.00000000 0.00000000
Neuron 15 4 1.00000000 0 1.00000000 0.00000000 0.00000000 0.00000000
Neuron 16 4 1.00000000 0 1.00000000 0.00000000 0.00000000 0.00000000
Neuron 17 3 0.50000000 1 1.00000000 0.00000000 0.00000000 0.00000000
Neuron 18 3 0.50000000 1 1.00000000 0.00000000 0.00000000 0.00000000
Neuron 20 3 0.50000000 1 1.00000000 0.00000000 0.00000000 0.00000000
Neuron 22 3 0.50000000 1 1.00000000 0.00000000 0.00000000 0.00000000
Neuron 24 3 0.50000000 1 1.00000000 0.00000000 0.00000000 0.00000000
Neuron 25 3 0.50000000 1 1.00000000 0.00000000 0.00000000 0.00000000
Neuron 28 3 0.50000000 1 1.00000000 0.00000000 0.00000000 0.00000000
Neuron 30 3 0.50000000 1 1.00000000 0.00000000 0.00000000 0.00000000
Neuron 35 3 0.50000000 1 1.00000000 0.00000000 0.00000000 0.00000000
Neuron 36 3 0.50000000 1 1.00000000 0.00000000 0.00000000 0.00000000
Neuron 38 3 0.50000000 1 1.00000000 0.00000000 0.00000000 0.00000000
Neuron 40 3 0.50000000 1 1.00000000 0.00000000 0.00000000 0.00000000
Neuron 41 3 0.50000000 1 1.00000000 0.00000000 0.00000000 0.00000000
Neuron 42 3 0.50000000 1 1.00000000 0.00000000 0.00000000 0.00000000
Neuron 48 3 0.50000000 1 1.00000000 0.00000000 0.00000000 0.00000000
Neuron 50 3 0.50000000 1 1.00000000 0.00000000 0.00000000 0.00000000
Neuron 51 3 0.50000000 1 1.00000000 0.00000000 0.00000000 0.00000000
Neuron 54 3 0.50000000 1 1.00000000 0.00000000 0.00000000 0.00000000
Neuron 58 3 0.50000000 1 1.00000000 0.00000000 0.00000000 0.00000000
Neuron 60 3 0.50000000 1 1.00000000 0.00000000 0.00000000 0.00000000
Neuron 63 3 0.50000000 1 1.00000000 0.00000000 0.00000000 0.00000000
Neuron 67 3 0.50000000 1 1.00000000 0.00000000 0.00000000 0.00000000
Neuron 68 3 0.25000000 1 1.00000000 0.00000000 0.00000000 0.00000000
Neuron 70 3 0.75000000 1 1.00000000 0.00000000 0.00000000 0.00000000
Neuron 75 3 0.75000000 1 1.00000000 0.00000000 0.00000000 0.00000000
Neuron 86 3 0.50000000 1 1.00000000 0.00000000 0.00000000 0.00000000
Neuron 96 3 0.75000000 1 1.00000000 0.00000000 0.00000000 0.00000000
Neuron 98 3 0.75000000 1 1.00000000 0.00000000 0.00000000 0.00000000
Neuron 105 3 0.75000000 1 1.00000000 0.00000000 0.00000000 0.00000000
Neuron 111 3 0.75000000 1 1.00000000 0.00000000 0.00000000 0.00000000
Neuron 116 3 0.75000000 1 1.00000000 0.00000000 0.00000000 0.00000000
Neuron 130 3 0.75000000 1 1.00000000 0.00000000 0.00000000 0.00000000
Neuron 146 3 0.75000000 1 1.00000000 0.00000000 0.00000000 0.00000000
Neuron 161 3 0.75000000 1 1.00000000 0.00000000 0.00000000 0.00000000
Neuron 172 3 0.75000000 1 1.00000000 0.00000000 0.00000000 0.00000000
Neuron 183 3 0.25000000 1 1.00000000 0.00000000 0.00000000 0.00000000
Neuron 186 3 0.25000000 1 1.00000000 0.00000000 0.00000000 0.00000000
Neuron 187 3 0.75000000 1 1.00000000 0.00000000 0.00000000 0.00000000
Neuron 211 3 0.25000000 1 1.00000000 0.00000000 0.00000000 0.00000000
Neuron 249 3 0.87500000 1 1.00000000 0.00000000 0.00000000 0.00000000
Neuron 255 3 0.25000000 1 1.00000000 0.00000000 0.00000000 0.00000000
Neuron 285 3 0.25000000 1 1.00000000 0.00000000 0.00000000 0.00000000
Neuron 286 3 0.25000000 1 1.00000000 0.00000000 0.00000000 0.00000000
Neuron 296 3 0.75000000 1 1.00000000 0.00000000 0.00000000 0.00000000
Neuron 317 3 0.75000000 1 1.00000000 0.00000000 0.00000000 0.00000000
Neuron 318 3 0.75000000 1 1.00000000 0.00000000 0.00000000 0.00000000
Neuron 323 3 0.75000000 1 1.00000000 0.00000000 0.00000000 0.00000000
Neuron 328 3 0.25000000 1 1.00000000 0.00000000 0.00000000 0.00000000
Neuron 359 3 0.12500000 1 1.00000000 0.00000000 0.00000000 0.00000000
Neuron 367 3 0.87500000 1 1.00000000 0.00000000 0.00000000 0.00000000
Neuron 411 3 0.50000000 1 1.00000000 0.00000000 0.00000000 0.00000000
Neuron 436 3 1.00000000 1 1.00000000 0.00000000 0.00000000 0.00000000
Neuron 525 3 0.87500000 1 1.00000000 0.00000000 0.00000000 0.00000000
Neuron 540 3 0.75000000 1 1.00000000 0.00000000 0.00000000 0.00000000
Neuron 575 3 0.50000000 1 1.00000000 0.00000000 0.00000000 0.00000000
Neuron 601 3 0.62500000 1 1.00000000 0.00000000 0.00000000 0.00000000
Neuron 623 3 0.50000000 1 1.00000000 0.00000000 0.00000000 0.00000000
Neuron 634 3 0.25000000 1 1.00000000 0.00000000 0.00000000 0.00000000
Neuron 645 3 0.62500000 1 1.00000000 0.00000000 0.00000000 0.00000000
Neuron 648 3 0.25000000 1 1.00000000 0.00000000 0.00000000 0.00000000
Neuron 658 3 0.50000000 1 1.00000000 0.00000000 0.00000000 0.00000000
Neuron 669 3 0.37500000 1 1.00000000 0.00000000 0.00000000 0.00000000
Neuron 716 3 0.62500000 1 1.00000000 0.00000000 0.00000000 0.00000000
Neuron 727 3 0.62500000 1 1.00000000 0.00000000 0.00000000 0.00000000
Neuron 729 3 0.93750000 1 1.00000000 0.00000000 0.00000000 0.00000000
Neuron 739 3 0.75000000 1 1.00000000 0.00000000 0.00000000 0.00000000
Neuron 752 3 0.87500000 1 1.00000000 0.00000000 0.00000000 0.00000000
Neuron 756 3 0.81250000 1 1.00000000 0.00000000 0.00000000 0.00000000
Neuron 762 3 0.37500000 1 1.00000000 0.00000000 0.00000000 0.00000000
Neuron 771 3 0.68750000 1 1.00000000 0.00000000 0.00000000 0.00000000
Neuron 793 3 0.25000000 1 1.00000000 0.00000000 0.00000000 0.00000000
Neuron 804 3 0.37500000 1 1.00000000 0.00000000 0.00000000 0.00000000
Neuron 821 3 0.12500000 1 1.00000000 0.00000000 0.00000000 0.00000000
Neuron 826 3 0.56250000 1 1.00000000 0.00000000 0.00000000 0.00000000
Neuron 867 3 0.93750000 1 1.00000000 0.00000000 0.00000000 0.00000000
Neuron 881 3 0.87500000 1 1.00000000 0.00000000 0.00000000 0.00000000
Neuron 891 3 0.62500000 1 1.00000000 0.00000000 0.00000000 0.00000000
Neuron 899 3 0.87500000 1 1.00000000 0.00000000 0.00000000 0.00000000
Neuron 939 3 0.87500000 1 1.00000000 0.00000000 0.00000000 0.00000000
Neuron 940 3 0.87500000 1 1.00000000 0.00000000 0.00000000 0.00000000
Neuron 962 3 0.62500000 1 1.00000000 0.00000000 0.00000000 0.00000000
Neuron 968 3 0.81250000 1 1.00000000 0.00000000 0.00000000 0.00000000
Neuron 984 3 0.31250000 1 1.00000000 0.00000000 0.00000000 0.00000000
Neuron 985 3 0.62500000 1 1.00000000 0.00000000 0.00000000 0.00000000
Neuron 987 3 0.25000000 1 1.00000000 0.00000000 0.00000000 0.00000000
Neuron 1005 3 0.87500000 1 1.00000000 0.00000000 0.00000000 0.00000000
Neuron 1010 3 0.56250000 1 1.00000000 0.00000000 0.00000000 0.00000000
Neuron 1014 3 0.68750000 1 1.00000000 0.00000000 0.00000000 0.00000000
Neuron 1043 3 0.12500000 1 1.00000000 0.00000000 0.00000000 0.00000000
Neuron 1049 3 0.37500000 1 1.00000000 0.00000000 0.00000000 0.00000000
Neuron 1096 3 0.90625000 1 1.00000000 0.00000000 0.00000000 0.00000000
Neuron 1116 3 0.92187500 1 1.00000000 0.00000000 0.00000000 0.00000000
Neuron 1122 3 0.81250000 1 1.00000000 0.00000000 0.00000000 0.00000000
Neuron 1126 3 0.62500000 1 1.00000000 0.00000000 0.00000000 0.00000000
Neuron 1127 3 0.31250000 1 1.00000000 0.00000000 0.00000000 0.00000000
Neuron 1131 3 0.68750000 1 1.00000000 0.00000000 0.00000000 0.00000000
Neuron 1136 3 0.12500000 1 1.00000000 0.00000000 0.00000000 0.00000000
Neuron 1150 3 1.00000000 1 1.00000000 0.00000000 0.00000000 0.00000000
Neuron 1165 3 0.12500000 1 1.00000000 0.00000000 0.00000000 0.00000000
Neuron 1177 3 0.18750000 1 1.00000000 0.00000000 0.00000000 0.00000000
Neuron 1194 3 0.06250000 1 1.00000000 0.00000000 0.00000000 0.00000000
Neuron 1195 3 0.89062500 1 1.00000000 0.00000000 0.00000000 0.00000000
Neuron 1199 3 0.12500000 1 1.00000000 0.00000000 0.00000000 0.00000000
Neuron 1222 3 0.37500000 1 1.00000000 0.00000000 0.00000000 0.00000000
Neuron 1264 3 0.65625000 1 1.00000000 0.00000000 0.00000000 0.00000000
Neuron 1270 3 0.65625000 1 1.00000000 0.00000000 0.00000000 0.00000000
Neuron 1271 3 0.53125000 1 1.00000000 0.00000000 0.00000000 0.00000000
Neuron 1289 3 0.56250000 1 1.00000000 0.00000000 0.00000000 0.00000000
Neuron 1291 3 0.90625000 1 1.00000000 0.00000000 0.00000000 0.00000000
Neuron 1303 3 0.64062500 1 1.00000000 0.00000000 0.00000000 0.00000000
Neuron 1310 3 0.56250000 1 1.00000000 0.00000000 0.00000000 0.00000000
Neuron 1311 3 0.50000000 1 1.00000000 0.00000000 0.00000000 0.00000000
Neuron 1371 3 0.50000000 1 1.00000000 0.00000000 0.00000000 0.00000000
Neuron 1391 3 0.37500000 1 1.00000000 0.00000000 0.00000000 0.00000000
Neuron 1409 3 0.56250000 1 1.00000000 0.00000000 0.00000000 0.00000000
Neuron 1432 3 0.43750000 1 1.00000000 0.00000000 0.00000000 0.00000000
Neuron 1437 3 0.12500000 1 1.00000000 0.00000000 0.00000000 0.00000000
Neuron 1444 3 0.65625000 1 1.00000000 0.00000000 0.00000000 0.00000000
Neuron 1480 3 0.18750000 1 1.00000000 0.00000000 0.00000000 0.00000000
Neuron 1556 3 0.53125000 1 1.00000000 0.00000000 0.00000000 0.00000000
Neuron 1574 3 0.88281250 1 1.00000000 0.00000000 0.00000000 0.00000000
Neuron 1593 3 0.62500000 1 1.00000000 0.00000000 0.00000000 0.00000000
Neuron 1595 3 0.70312500 1 1.00000000 0.00000000 0.00000000 0.00000000
Neuron 1661 3 0.88671875 1 1.00000000 0.00000000 0.00000000 0.00000000
Neuron 1706 3 0.57812500 1 1.00000000 0.00000000 0.00000000 0.00000000
Neuron 1734 3 0.09375000 1 1.00000000 0.00000000 0.00000000 0.00000000
Neuron 1740 3 0.50000000 1 1.00000000 0.00000000 0.00000000 0.00000000
Neuron 1743 3 0.78125000 1 1.00000000 0.00000000 0.00000000 0.00000000
Neuron 1755 3 0.40625000 1 1.00000000 0.00000000 0.00000000 0.00000000
Neuron 1770 3 0.55468750 1 1.00000000 0.00000000 0.00000000 0.00000000
Neuron 1817 3 0.60937500 1 1.00000000 0.00000000 0.00000000 0.00000000
Neuron 1823 3 0.48437500 1 1.00000000 0.00000000 0.00000000 0.00000000
Neuron 1831 3 0.79687500 1 1.00000000 0.00000000 0.00000000 0.00000000
Neuron 1864 3 0.62500000 1 1.00000000 0.00000000 0.00000000 0.00000000
Neuron 1906 3 0.53125000 1 1.00000000 0.00000000 0.00000000 0.00000000
Neuron 1924 3 0.62500000 1 1.00000000 0.00000000 0.00000000 0.00000000
Neuron 1959 3 0.06250000 1 1.00000000 0.00000000 0.00000000 0.00000000
Neuron 1980 3 0.50000000 1 1.00000000 0.00000000 0.00000000 0.00000000
Neuron 1987 3 0.37500000 1 1.00000000 0.00000000 0.00000000 0.00000000
Neuron 1991 3 0.92968750 1 1.00000000 0.00000000 0.00000000 0.00000000
Neuron 2000 3 0.67968750 1 1.00000000 0.00000000 0.00000000 0.00000000
Neuron 2001 3 0.76562500 1 1.00000000 0.00000000 0.00000000 0.00000000
Neuron 2016 3 0.75000000 1 1.00000000 0.00000000 0.00000000 0.00000000
Neuron 2112 3 0.50000000 1 1.00000000 0.00000000 0.00000000 0.00000000
Neuron 2171 3 0.71875000 1 1.00000000 0.00000000 0.00000000 0.00000000
Neuron 2181 3 0.62500000 1 1.00000000 0.00000000 0.00000000 0.00000000
Link 1 10 1 0 2.09397573
Link 2 10 2 0 -3.57540675
Link 3 10 3 0 -8.33300881
Link 4 10 4 0 0.17396993
Link 7 10 7 0 -0.79903940
Link 8 10 8 0 3.71080302
Link 9 10 9 0 -1.36816284
Link 1 11 10 0 2.85452725
Link 2 11 11 0 -0.23957172
Link 7 11 16 0 -3.63783777
Link 9 11 18 0 -0.76919475
Link 1 12 19 0 5.74304631
Link 2 12 20 0 0.79790151
Link 6 12 24 0 -3.85274187
Link 8 12 26 0 2.75753797
Link 9 12 27 0 -2.03046768
Link 3 13 30 0 -1.05549073
Link 4 13 31 0 -5.19067523
Link 6 13 33 0 1.08068096
Link 7 13 34 0 -1.52678203
Link 9 13 36 0 2.02554126
Link 2 14 38 0 -1.54517288
Link 3 14 39 0 -3.30670765
Link 4 14 40 0 -5.90203858
Link 9 14 45 0 0.06942630
Link 3 15 48 0 -0.69412451
Link 6 15 51 0 -1.79330680
Link 8 15 53 0 0.56787515
Link 1 16 55 0 -0.96559658
Link 4 16 58 0 -2.30672001
Link 7 16 61 0 1.72338694
Link 8 16 62 0 -1.04804945
Link 9 16 63 0 -1.53095096
Link 5 18 68 0 -6.69637431
Link 1 20 74 0 0.86681575
Link 20 15 75 0 -0.64003999
Link 8 22 80 0 0.20359079
Link 4 24 86 0 5.35404208
Link 24 12 87 0 -1.21884742
Link 1 25 89 0 2.01848229
Link 25 13 90 0 0.84043337
Link 5 30 105 0 1.00000000
Link 30 15 106 0 -1.22994146
Link 7 35 120 0 2.15582729
Link 4 38 129 0 1.58863530
Link 40 12 137 0 1.71746870
Link 8 41 139 0 2.62670282
Link 2 42 142 0 1.29184896
Link 7 50 166 0 2.00827374
Link 6 51 169 0 1.04297460
Link 51 11 170 0 -1.30545818
Link 54 16 186 0 -1.67376383
Link 1 58 199 0 -1.78491984
Link 58 14 200 0 0.91227978
Link 1 48 201 0 1.97775427
Link 2 60 209 0 2.26141261
Link 5 63 225 0 1.77549537
Link 18 15 271 0 3.21966115
Link 12 12 278 1 -2.51379208
Link 68 54 304 0 0.74895562
Link 48 70 311 0 -1.28049204
Link 70 13 312 0 -0.87232450
Link 41 75 353 0 1.26837028
Link 75 14 354 0 -2.47839947
Link 16 16 417 1 -5.68479479
Link 35 16 515 0 2.35831132
Link 28 18 530 0 -0.57823377
Link 10 58 546 1 0.40081991
Link 63 96 572 0 -1.03753326
Link 96 13 573 0 -1.34676110
Link 58 12 588 0 -0.37917915
Link 50 98 593 0 0.23809689
Link 98 14 594 0 0.29718335
Link 22 105 630 0 0.96466633
Link 105 11 631 0 -0.27233744
Link 111 11 676 0 -0.43606449
Link 17 116 703 0 0.97234551
Link 116 16 704 0 2.10887373
Link 67 130 818 0 0.95673399
Link 58 15 878 0 4.05213733
Link 16 146 952 1 1.21564741
Link 146 41 953 1 5.15701304
Link 38 161 1063 0 1.16928632
Link 161 11 1064 0 2.12600289
Link 172 15 1146 0 1.22461935
Link 183 40 1220 0 3.26295637
Link 2 186 1244 0 0.11323663
Link 186 40 1245 0 2.34505135
Link 4 211 1419 0 -1.04844619
Link 211 86 1420 0 0.44895793
Link 18 28 1474 0 0.86705483
Link 67 111 1493 0 2.35580626
Link 41 41 1632 1 -1.89071272
Link 130 249 1673 0 -0.27695958
Link 249 10 1674 0 0.41212690
Link 5 255 1712 0 1.00000000
Link 255 67 1713 0 -1.34850053
Link 41 12 1727 0 1.44221849
Link 6 67 1883 0 2.10028789
Link 5 285 1916 0 2.27369443
Link 285 36 1917 0 2.17369181
Link 286 67 1923 0 1.60874959
Link 6 111 1959 0 4.81698412
Link 296 28 1994 1 -0.41157511
Link 317 14 2115 0 0.99737428
Link 42 318 2117 0 1.27275908
Link 318 15 2118 0 -1.07456622
Link 16 22 2137 1 -1.87524417
Link 323 15 2152 0 -3.74288023
Link 328 28 2195 0 6.26972610
Link 70 16 2320 0 1.38603515
Link 3 359 2437 0 0.33547408
Link 15 367 2480 1 -0.67893225
Link 367 187 2481 1 -6.53687785
Link 24 411 2812 0 0.26338284
Link 411 28 2813 0 5.06468547
Link 48 22 2865 0 1.22736932
Link 436 13 3037 1 -0.73516649
Link 187 12 3089 0 -0.91637972
Link 42 42 3169 1 1.07093369
Link 28 48 3532 0 -2.26430386
Link 11 540 3764 1 -2.36979439
Link 540 22 3765 1 -0.13240753
Link 575 41 4005 0 -2.52439431
Link 38 58 4008 0 1.07863961
Link 1 86 4108 0 2.39632492
Link 38 601 4218 0 1.19391358
Link 601 111 4219 0 -1.50794417
Link 42 623 4383 0 1.23584571
Link 623 22 4384 0 -1.56347589
Link 634 40 4454 0 2.03762101
Link 540 111 4544 0 3.33224047
Link 6 648 4569 0 0.97520646
Link 648 41 4570 0 -1.84654243
Link 22 658 4645 1 -0.01247975
Link 1 17 4712 0 2.01867723
Link 2 669 4722 0 1.77203710
Link 669 70 4723 0 0.37447958
Link 40 187 4828 0 -1.80530354
Link 35 716 5126 0 1.37874219
Link 716 111 5127 0 3.46174174
Link 187 187 5195 1 5.89486269
Link 727 323 5199 0 -0.39394366
Link 729 12 5213 0 1.13760068
Link 86 187 5274 0 -0.67685516
Link 739 86 5290 1 -6.55728683
Link 752 111 5398 1 -0.72364446
Link 111 756 5429 0 0.83999393
Link 756 525 5430 0 2.83489851
Link 8 762 5472 0 1.73232834
Link 762 318 5473 0 -2.16802679
Link 187 771 5534 1 -1.09704222
Link 28 752 5575 0 2.97752247
Link 793 48 5689 0 -4.47304136
Link 318 13 5725 0 -0.95259666
Link 8 804 5744 0 1.37034218
Link 804 187 5745 0 -3.75136109
Link 4 821 5901 0 -1.53375400
Link 821 328 5902 0 3.54278031
Link 645 826 5929 1 -0.95107083
Link 10 867 6263 1 1.02450148
Link 48 58 6416 0 4.15400380
Link 187 881 6418 0 0.99922043
Link 881 16 6419 0 -1.04574088
Link 70 891 6515 1 1.18352367
Link 891 40 6516 1 2.30203224
Link 6 540 6517 0 -3.52683413
Link 10 899 6575 1 0.99975529
Link 899 739 6576 1 1.16797214
Link 16 187 6718 1 1.00372617
Link 939 11 6920 0 0.49927916
Link 187 940 6923 0 2.48266433
Link 940 11 6924 0 -0.51174609
Link 172 16 7010 0 1.00649202
Link 296 323 7104 0 -1.37743219
Link 296 962 7125 1 2.67459851
Link 962 411 7126 1 -0.63567625
Link 318 968 7194 0 0.88904212
Link 968 939 7195 0 -0.22272724
Link 3 22 7212 0 1.54267506
Link 328 984 7320 0 1.58180032
Link 984 762 7321 0 -1.02043568
Link 985 172 7325 0 0.49361927
Link 68 211 7383 0 2.95826868
Link 111 172 7419 0 0.52135470
Link 12 1005 7520 1 -0.15441028
Link 1005 296 7521 1 3.56705610
Link 762 1010 7566 0 0.15593349
Link 111 1014 7604 1 1.55959286
Link 1014 645 7605 1 -2.37823682
Link 172 752 7770 0 -1.69402492
Link 1043 987 7897 0 -0.19074605
Link 891 296 7909 0 3.64194661
Link 1049 411 7950 0 4.16980247
Link 752 752 8152 1 0.87876574
Link 987 86 8164 0 -5.09878923
Link 1049 762 8170 0 -1.13614081
Link 18 63 8396 0 -2.93180856
Link 1096 1116 8610 0 1.04607420
Link 939 1122 8717 1 1.37161986
Link 1126 130 8752 0 -1.03783448
Link 987 1127 8768 0 1.00000000
Link 1127 1049 8769 0 1.54838369
Link 63 1131 8809 0 1.24153924
Link 1131 367 8810 0 -1.08814910
Link 1 1136 8857 0 0.77568592
Link 318 54 8950 1 -0.23911187
Link 13 1150 9000 1 1.78541140
Link 1150 436 9001 1 -0.38132532
Link 1165 286 9119 0 -0.68704691
Link 634 1096 9127 0 -2.72526708
Link 68 939 9143 0 3.12875993
Link 658 752 9188 0 -1.80961059
Link 359 1177 9234 0 0.75762776
Link 1177 68 9235 0 -0.84231686
Link 285 1043 9358 1 1.59951182
Link 771 771 9418 1 5.68885981
Link 1 1194 9420 0 1.11724310
Link 1195 1096 9438 0 -1.14114870
Link 716 436 9480 0 0.38372107
Link 5 1199 9483 0 1.27912413
Link 1199 183 9484 0 -0.56592327
Link 4 436 9565 0 -0.80002811
Link 211 1222 9673 0 -0.35288357
Link 1222 48 9674 0 -1.29673255
Link 985 634 9816 1 1.71772567
Link 54 40 9834 0 -2.23438994
Link 1264 296 10072 0 -2.14456094
Link 771 1270 10097 1 -0.10980757
Link 24 1271 10100 0 1.83288704
Link 1271 826 10101 0 -1.19169761
Link 985 669 10130 1 1.05554209
Link 35 1289 10244 0 1.07449747
Link 1289 727 10245 0 -0.52762594
Link 867 1291 10253 1 0.82653194
Link 1291 752 10254 1 0.26461318
Link 96 436 10270 0 0.98969183
Link 1270 1303 10371 1 0.73950173
Link 1303 645 10372 1 0.64072670
Link 1270 985 10410 1 -3.71935784
Link 60 1310 10429 0 1.23650269
Link 1310 1126 10430 0 1.86197707
Link 1311 323 10434 0 1.16253394
Link 540 1270 10638 1 -0.43030945
Link 645 729 10931 0 0.03682082
Link 24 1371 10973 0 0.54020384
Link 1371 575 10974 0 0.54163880
Link 16 111 11101 1 0.29895947
Link 285 1391 11168 0 0.63413604
Link 1391 1311 11169 0 1.92764454
Link 436 1270 11203 1 1.47906744
Link 1409 985 11335 0 0.83600959
Link 7 1432 11501 0 1.28214059
Link 1432 367 11502 0 -1.58618120
Link 1 1437 11526 0 -0.74277049
Link 1437 793 11527 0 1.04034062
Link 5 367 11529 0 0.57363758
Link 826 1444 11597 0 0.38033713
Link 411 111 11659 0 -3.82918281
Link 105 525 11682 0 4.27170023
Link 1136 1480 12061 0 1.15043483
Link 1480 634 12062 0 -0.71755789
Link 15 286 12200 1 0.06403023
Link 1049 70 12216 0 -0.56423728
Link 48 1310 12248 0 1.35644134
Link 7 249 12368 0 -2.51700789
Link 86 1556 12722 0 1.14029087
Link 1556 1409 12723 0 1.07080602
Link 328 1271 12764 0 0.68907842
Link 525 1574 12898 0 -0.68872218
Link 12 716 13038 1 -0.14011051
Link 323 1593 13087 1 -0.23976883
Link 1593 18 13088 1 -2.81864850
Link 1595 323 13096 0 1.20004107
Link 762 575 13408 0 -4.08042251
Link 1574 1661 13648 0 1.81466426
Link 1661 1195 13649 0 0.67216481
Link 18 1593 13650 0 -0.33474988
Link 17 1371 13817 0 0.10695031
Link 1222 1432 13820 0 -2.34685888
Link 804 891 13833 0 -1.21004432
Link 1096 987 13856 1 0.77904534
Link 804 17 13936 0 2.32099652
Link 1706 891 14080 0 -0.60305705
Link 6 328 14205 0 -0.50774309
Link 634 1437 14281 1 -2.23394791
Link 939 1010 14323 1 0.20805908
Link 1706 146 14327 0 -0.16993311
Link 1194 1734 14383 0 1.28728267
Link 1734 1043 14384 0 0.79967481
Link 1271 172 14408 0 1.84954817
Link 1740 22 14424 0 1.10360198
Link 28 762 14513 1 1.93729286
Link 183 1755 14554 0 1.99642700
Link 1310 161 14653 0 -1.23237856
Link 1271 1770 14656 0 1.16519547
Link 1770 1706 14657 0 1.35846878
Link 727 987 14741 1 -0.83108204
Link 1165 1049 15059 0 3.32462621
Link 1010 1817 15088 0 1.19946161
Link 1817 1264 15089 0 1.14173239
Link 1755 1823 15134 0 0.98036038
Link 1823 826 15135 0 -2.52537437
Link 1122 1831 15219 1 1.00000000
Link 1831 1743 15220 1 0.83336191
Link 1222 940 15256 0 -0.33207413
Link 317 756 15269 0 -2.06944106
Link 1043 1706 15489 0 -0.72520338
Link 36 1864 15516 0 0.54582098
Link 1864 317 15517 0 1.64113665
Link 634 1906 15927 0 0.36984874
Link 1906 756 15928 0 -0.27680850
Link 575 1014 15978 0 -2.77503303
Link 54 1924 16046 0 0.93507342
Link 1924 318 16047 0 -3.82266910
Link 1303 20 16054 1 2.18158988
Link 984 1706 16074 0 0.31230342
Link 40 729 16103 0 -0.18042742
Link 367 1371 16319 1 2.07268826
Link 2 1959 16377 0 1.17191745
Link 1959 1165 16378 0 1.18825862
Link 17 60 16386 0 -2.03021047
Link 1371 1980 16538 0 0.96502311
Link 2 1987 16584 0 0.37784330
Link 1987 172 16585 0 -1.11226541
Link 1116 1991 16606 0 0.45740330
Link 1991 729 16607 0 0.56505028
Link 1444 2000 16675 0 1.12460094
Link 2000 1595 16676 0 0.85602705
Link 1743 2001 16680 1 1.00000000
Link 2001 323 16681 1 1.49265987
Link 1264 1264 16811 1 -1.59797456
Link 2016 1150 16832 0 0.15017377
Link 50 211 16843 1 -1.49578677
Link 987 328 17297 0 -2.12614383
Link 1980 2112 17870 0 0.78590757
Link 2112 1740 17871 0 -0.55312522
Link 8 968 17931 0 -2.37053254
Link 60 1096 18142 0 -1.25501909
Link 762 116 18213 0 1.11352178
Link 867 2171 18418 1 0.96161089
Link 2171 63 18419 1 2.48537179
Link 58 2181 18527 0 1.20653538
Link 2181 2016 18528 0 2.31924834
Link 286 985 18598 0 -1.97247084
Link 1480 739 18747 0 -0.10415105
Link 9 183 18834 0 2.40761813
Link 1311 42 18846 0 -0.79691609
Link 762 1131 18953 0 -1.00879510
Link 1271 12 19185 0 -0.02369461
Link 296 1661 19305 0 -0.36253592
Link 1043 18 19342 0 1.56019766
GenomeEnd

