GenomeStart 79202
Neuron 1 1 0.00000000 1 0.00000000 0.00000000 0.00000000 0.00000000
Neuron 2 1 0.00000000 1 0.00000000 0.00000000 0.00000000 0.00000000
Neuron 3 1 0.00000000 1 0.00000000 0.00000000 0.00000000 0.00000000
Neuron 4 1 0.00000000 1 0.00000000 0.00000000 0.00000000 0.00000000
Neuron 5 1 0.00000000 1 0.00000000 0.00000000 0.00000000 0.00000000
Neuron 6 1 0.00000000 1 0.00000000 0.00000000 0.00000000 0.00000000
Neuron 7 1 0.00000000 1 0.00000000 0.00000000 0.00000000 0.00000000
Neuron 8 1 0.00000000 1 0.00000000 0.00000000 0.00000000 0.00000000
Neuron 9 2 0.00000000 1 0.00000000 0.00000000 0.00000000 0.00000000
Neuron 10 4 1.00000000 0 1.00000000 0.00000000 0.00000000 0.00000000
Neuron 11 4 1.00000000 0 1.00000000 0.00000000 0.00000000 0.00000000
Neuron 12 4 1.00000000 0 1.00000000 0.00000000 0.00000000 0.00000000
Neuron 13 4 1.00000000 0 1.00000000 0.00000000 0.00000000 0.00000000
Neuron 14 4 1.00000000 0 1.00000000 0.00000000 0.00000000 0.00000000
Neuron 15 4 1.00000000 0 1.00000000 0.00000000 0.00000000 0.00000000
Neuron 16 4 1.00000000 0 1.00000000 0.00000000 0.00000000 0.00000000
Neuron 18 3 0.50000000 1 1.00000000 0.00000000 0.00000000 0.00000000
Neuron 23 3 0.50000000 1 1.00000000 0.00000000 0.00000000 0.00000000
Neuron 27 3 0.50000000 1 1.00000000 0.00000000 0.00000000 0.00000000
Neuron 28 3 0.50000000 1 1.00000000 0.00000000 0.00000000 0.00000000
Neuron 33 3 0.50000000 1 1.00000000 0.00000000 0.00000000 0.00000000
Neuron 37 3 0.50000000 1 1.00000000 0.00000000 0.00000000 0.00000000
Neuron 38 3 0.50000000 1 1.00000000 0.00000000 0.00000000 0.00000000
Neuron 40 3 0.50000000 1 1.00000000 0.00000000 0.00000000 0.00000000
Neuron 41 3 0.50000000 1 1.00000000 0.00000000 0.00000000 0.00000000
Neuron 43 3 0.50000000 1 1.00000000 0.00000000 0.00000000 0.00000000
Neuron 44 3 0.50000000 1 1.00000000 0.00000000 0.00000000 0.00000000
Neuron 47 3 0.50000000 1 1.00000000 0.00000000 0.00000000 0.00000000
Neuron 51 3 0.50000000 1 1.00000000 0.00000000 0.00000000 0.00000000
Neuron 54 3 0.50000000 1 1.00000000 0.00000000 0.00000000 0.00000000
Neuron 55 3 0.50000000 1 1.00000000 0.00000000 0.00000000 0.00000000
Neuron 57 3 0.50000000 1 1.00000000 0.00000000 0.00000000 0.00000000
Neuron 59 3 0.50000000 1 1.00000000 0.00000000 0.00000000 0.00000000
Neuron 60 3 0.50000000 1 1.00000000 0.00000000 0.00000000 0.00000000
Neuron 66 3 0.50000000 1 1.00000000 0.00000000 0.00000000 0.00000000
Neuron 70 3 0.75000000 1 1.00000000 0.00000000 0.00000000 0.00000000
Neuron 72 3 0.50000000 1 1.00000000 0.00000000 0.00000000 0.00000000
Neuron 78 3 0.50000000 1 1.00000000 0.00000000 0.00000000 0.00000000
Neuron 80 3 0.75000000 1 1.00000000 0.00000000 0.00000000 0.00000000
Neuron 99 3 0.75000000 1 1.00000000 0.00000000 0.00000000 0.00000000
Neuron 106 3 0.75000000 1 1.00000000 0.00000000 0.00000000 0.00000000
Neuron 107 3 0.25000000 1 1.00000000 0.00000000 0.00000000 0.00000000
Neuron 109 3 0.75000000 1 1.00000000 0.00000000 0.00000000 0.00000000
Neuron 114 3 0.75000000 1 1.00000000 0.00000000 0.00000000 0.00000000
Neuron 118 3 0.75000000 1 1.00000000 0.00000000 0.00000000 0.00000000
Neuron 147 3 0.62500000 1 1.00000000 0.00000000 0.00000000 0.00000000
Neuron 165 3 0.25000000 1 1.00000000 0.00000000 0.00000000 0.00000000
Neuron 174 3 0.62500000 1 1.00000000 0.00000000 0.00000000 0.00000000
Neuron 176 3 0.75000000 1 1.00000000 0.00000000 0.00000000 0.00000000
Neuron 192 3 0.37500000 1 1.00000000 0.00000000 0.00000000 0.00000000
Neuron 202 3 0.25000000 1 1.00000000 0.00000000 0.00000000 0.00000000
Neuron 221 3 0.25000000 1 1.00000000 0.00000000 0.00000000 0.00000000
Neuron 229 3 0.25000000 1 1.00000000 0.00000000 0.00000000 0.00000000
Neuron 244 3 0.25000000 1 1.00000000 0.00000000 0.00000000 0.00000000
Neuron 258 3 0.62500000 1 1.00000000 0.00000000 0.00000000 0.00000000
Neuron 272 3 0.75000000 1 1.00000000 0.00000000 0.00000000 0.00000000
Neuron 290 3 0.12500000 1 1.00000000 0.00000000 0.00000000 0.00000000
Neuron 313 3 0.87500000 1 1.00000000 0.00000000 0.00000000 0.00000000
Neuron 318 3 0.56250000 1 1.00000000 0.00000000 0.00000000 0.00000000
Neuron 334 3 0.62500000 1 1.00000000 0.00000000 0.00000000 0.00000000
Neuron 343 3 0.25000000 1 1.00000000 0.00000000 0.00000000 0.00000000
Neuron 359 3 0.87500000 1 1.00000000 0.00000000 0.00000000 0.00000000
Neuron 366 3 0.25000000 1 1.00000000 0.00000000 0.00000000 0.00000000
Neuron 439 3 0.37500000 1 1.00000000 0.00000000 0.00000000 0.00000000
Neuron 440 3 0.62500000 1 1.00000000 0.00000000 0.00000000 0.00000000
Neuron 449 3 0.62500000 1 1.00000000 0.00000000 0.00000000 0.00000000
Neuron 455 3 0.62500000 1 1.00000000 0.00000000 0.00000000 0.00000000
Neuron 481 3 0.87500000 1 1.00000000 0.00000000 0.00000000 0.00000000
Neuron 485 3 0.12500000 1 1.00000000 0.00000000 0.00000000 0.00000000
Neuron 488 3 0.75000000 1 1.00000000 0.00000000 0.00000000 0.00000000
Neuron 508 3 0.31250000 1 1.00000000 0.00000000 0.00000000 0.00000000
Neuron 515 3 0.50000000 1 1.00000000 0.00000000 0.00000000 0.00000000
Neuron 522 3 0.53125000 1 1.00000000 0.00000000 0.00000000 0.00000000
Neuron 552 3 0.68750000 1 1.00000000 0.00000000 0.00000000 0.00000000
Neuron 563 3 0.50000000 1 1.00000000 0.00000000 0.00000000 0.00000000
Neuron 573 3 0.81250000 1 1.00000000 0.00000000 0.00000000 0.00000000
Neuron 582 3 0.18750000 1 1.00000000 0.00000000 0.00000000 0.00000000
Neuron 583 3 0.62500000 1 1.00000000 0.00000000 0.00000000 0.00000000
Neuron 585 3 0.50000000 1 1.00000000 0.00000000 0.00000000 0.00000000
Neuron 591 3 0.56250000 1 1.00000000 0.00000000 0.00000000 0.00000000
Neuron 628 3 0.28125000 1 1.00000000 0.00000000 0.00000000 0.00000000
Neuron 638 3 0.81250000 1 1.00000000 0.00000000 0.00000000 0.00000000
Neuron 657 3 0.12500000 1 1.00000000 0.00000000 0.00000000 0.00000000
Neuron 715 3 0.59375000 1 1.00000000 0.00000000 0.00000000 0.00000000
Neuron 733 3 0.37500000 1 1.00000000 0.00000000 0.00000000 0.00000000
Neuron 742 3 0.68750000 1 1.00000000 0.00000000 0.00000000 0.00000000
Neuron 749 3 0.56250000 1 1.00000000 0.00000000 0.00000000 0.00000000
Neuron 751 3 0.25000000 1 1.00000000 0.00000000 0.00000000 0.00000000
Neuron 789 3 0.84375000 1 1.00000000 0.00000000 0.00000000 0.00000000
Neuron 796 3 0.62500000 1 1.00000000 0.00000000 0.00000000 0.00000000
Neuron 798 3 0.78125000 1 1.00000000 0.00000000 0.00000000 0.00000000
Neuron 820 3 0.37500000 1 1.00000000 0.00000000 0.00000000 0.00000000
Neuron 837 3 0.68750000 1 1.00000000 0.00000000 0.00000000 0.00000000
Neuron 847 3 0.62500000 1 1.00000000 0.00000000 0.00000000 0.00000000
Neuron 848 3 0.78125000 1 1.00000000 0.00000000 0.00000000 0.00000000
Neuron 855 3 0.43750000 1 1.00000000 0.00000000 0.00000000 0.00000000
Neuron 872 3 0.50000000 1 1.00000000 0.00000000 0.00000000 0.00000000
Neuron 908 3 0.56250000 1 1.00000000 0.00000000 0.00000000 0.00000000
Neuron 916 3 0.81250000 1 1.00000000 0.00000000 0.00000000 0.00000000
Neuron 1014 3 0.68750000 1 1.00000000 0.00000000 0.00000000 0.00000000
Neuron 1024 3 0.82812500 1 1.00000000 0.00000000 0.00000000 0.00000000
Neuron 1050 3 0.62500000 1 1.00000000 0.00000000 0.00000000 0.00000000
Neuron 1054 3 0.90625000 1 1.00000000 0.00000000 0.00000000 0.00000000
Neuron 1099 3 0.37500000 1 1.00000000 0.00000000 0.00000000 0.00000000
Neuron 1142 3 0.43750000 1 1.00000000 0.00000000 0.00000000 0.00000000
Neuron 1151 3 0.75000000 1 1.00000000 0.00000000 0.00000000 0.00000000
Neuron 1208 3 0.56250000 1 1.00000000 0.00000000 0.00000000 0.00000000
Neuron 1248 3 0.53125000 1 1.00000000 0.00000000 0.00000000 0.00000000
Neuron 1300 3 0.50000000 1 1.00000000 0.00000000 0.00000000 0.00000000
Neuron 1376 3 0.43750000 1 1.00000000 0.00000000 0.00000000 0.00000000
Neuron 1434 3 0.59375000 1 1.00000000 0.00000000 0.00000000 0.00000000
Neuron 1498 3 0.68750000 1 1.00000000 0.00000000 0.00000000 0.00000000
Link 1 10 1 0 2.18803136
Link 2 10 2 0 2.18415777
Link 4 10 4 0 4.15916892
Link 5 10 5 0 1.24233298
Link 7 10 7 0 -1.31183103
Link 8 10 8 0 3.44022136
Link 9 10 9 0 0.66562907
Link 1 11 10 0 1.61830460
Link 2 11 11 0 1.75017431
Link 3 11 12 0 0.88161347
Link 9 11 18 0 1.53318760
Link 1 12 19 0 1.63310286
Link 2 12 20 0 -2.35439246
Link 4 12 22 0 2.07519080
Link 5 12 23 0 -1.33848339
Link 6 12 24 0 0.20995965
Link 9 12 27 0 0.94582919
Link 1 13 28 0 0.73172277
Link 4 13 31 0 1.70464591
Link 6 13 33 0 -2.91939049
Link 8 13 35 0 0.75614415
Link 9 13 36 0 1.20647174
Link 2 14 38 0 1.04633019
Link 4 14 40 0 -0.34876534
Link 5 14 41 0 -0.72430480
Link 7 14 43 0 -0.06147779
Link 9 14 45 0 -1.31121097
Link 6 15 51 0 0.93041746
Link 9 15 54 0 0.38958196
Link 1 16 55 0 2.21053838
Link 3 16 57 0 0.11991262
Link 4 16 58 0 -0.34920035
Link 6 16 60 0 -0.91512477
Link 7 16 61 0 -0.08814261
Link 23 15 84 0 -2.62028745
Link 28 16 99 0 2.26154115
Link 7 33 113 0 0.52848857
Link 8 37 125 0 0.70333925
Link 37 16 126 0 -0.21653892
Link 1 38 129 0 0.56589226
Link 7 40 137 0 0.14887256
Link 40 13 138 0 0.29796164
Link 2 41 140 0 0.36671587
Link 8 43 146 0 0.50315678
Link 43 11 147 0 -2.41983345
Link 8 44 149 0 0.23525988
Link 4 47 162 0 -1.00584191
Link 47 11 163 0 1.13439697
Link 7 51 175 0 0.52529773
Link 51 15 176 0 -1.70406797
Link 54 11 189 0 -0.41270706
Link 6 55 192 0 0.10752555
Link 5 57 212 0 -2.58937386
Link 6 59 219 0 -0.56156018
Link 59 14 220 0 1.28981037
Link 5 60 222 0 -0.26352848
Link 60 15 223 0 -1.48555544
Link 3 66 250 0 0.72244525
Link 33 70 269 0 3.84569524
Link 70 12 270 0 -1.73302454
Link 1 72 281 0 0.90466761
Link 72 14 282 0 0.02948775
Link 43 13 289 0 0.07638714
Link 80 16 327 0 -1.49823272
Link 11 27 393 1 0.26820279
Link 18 99 505 0 0.23867215
Link 2 107 564 0 1.36345230
Link 107 18 565 0 0.94538710
Link 109 10 573 0 0.89867930
Link 16 27 634 1 3.48855808
Link 44 118 648 0 0.99626447
Link 118 14 649 0 -0.46058512
Link 13 13 724 1 2.97062326
Link 147 80 896 0 -1.88166761
Link 27 174 1061 0 -1.17456150
Link 174 99 1062 0 0.79832326
Link 78 176 1075 0 -0.72694446
Link 176 12 1076 0 -0.82476799
Link 165 192 1206 0 0.95688720
Link 192 27 1207 0 1.20237023
Link 5 202 1264 0 0.92950615
Link 202 54 1265 0 -1.36319659
Link 2 221 1360 0 -0.44894462
Link 221 66 1361 0 -0.20053847
Link 229 23 1416 0 2.90623943
Link 5 244 1506 0 -0.31867302
Link 114 114 1531 1 -1.03348471
Link 258 109 1600 0 -2.34062672
Link 13 272 1686 1 -0.10865890
Link 37 27 1768 0 -2.12527753
Link 3 290 1834 0 0.64847626
Link 290 165 1835 0 -1.56272138
Link 55 106 1920 0 1.03805972
Link 313 13 1992 0 0.23014508
Link 318 258 2043 0 0.74594104
Link 47 23 2081 0 -1.73072937
Link 8 343 2209 0 -0.15582776
Link 343 78 2210 0 -0.55445741
Link 359 15 2327 0 4.20115184
Link 66 16 2350 0 -1.79981875
Link 366 18 2368 0 1.06364872
Link 44 106 2850 0 -0.60671107
Link 439 55 2896 0 0.65267115
Link 80 440 2898 1 2.26186017
Link 10 37 2906 1 -2.19257172
Link 272 272 2964 1 -3.41399046
Link 57 449 2966 0 1.53015638
Link 455 55 3033 1 -1.59111625
Link 481 15 3217 0 2.11876702
Link 8 485 3252 0 -0.79931955
Link 41 488 3272 0 1.00337374
Link 488 13 3273 0 -1.32685559
Link 107 508 3413 0 -0.74409516
Link 508 439 3414 0 2.26686042
Link 55 522 3551 0 -3.53921702
Link 522 318 3552 0 -0.63685081
Link 165 10 3554 0 1.76098453
Link 16 80 3659 1 1.00694076
Link 23 10 3703 0 -1.70122721
Link 515 563 3865 0 2.87417736
Link 563 55 3866 0 -0.64543046
Link 107 515 3989 0 -0.10868612
Link 485 582 4060 0 1.15775715
Link 582 229 4061 0 1.42835940
Link 114 583 4064 1 2.12594214
Link 27 585 4100 0 -2.39855276
Link 585 515 4101 0 0.57646938
Link 11 591 4141 1 1.38904337
Link 591 290 4142 1 -0.84752450
Link 221 54 4383 0 -6.43230031
Link 23 51 4512 0 1.56657953
Link 359 78 4531 1 -2.44355634
Link 5 628 4540 0 0.40684330
Link 628 318 4541 0 0.15627086
Link 106 638 4603 0 -2.92970323
Link 638 313 4604 0 -0.43242927
Link 1 657 4755 0 0.99632101
Link 657 366 4756 0 -0.41649582
Link 99 147 4840 1 -1.91017050
Link 221 37 5201 0 -0.20582491
Link 552 38 5217 1 -0.35389254
Link 43 715 5259 0 0.48467134
Link 715 552 5260 0 -0.47619653
Link 13 192 5279 1 2.83223826
Link 244 733 5443 0 -0.45929793
Link 733 28 5444 0 -2.12363236
Link 439 37 5520 0 0.48164288
Link 449 742 5539 0 1.66528562
Link 742 106 5540 0 -0.30143973
Link 38 749 5587 0 0.94566251
Link 749 334 5588 0 -1.95518778
Link 6 751 5606 0 2.66484372
Link 751 54 5607 0 0.27963793
Link 366 366 5729 1 0.34913498
Link 789 359 5905 0 -0.07373273
Link 440 481 5974 0 0.88285201
Link 796 14 5978 0 0.31723994
Link 552 798 5991 0 1.41253190
Link 798 359 5992 0 -0.12802042
Link 107 313 6027 0 1.00206284
Link 114 16 6035 0 1.48457766
Link 60 515 6040 0 0.98856026
Link 43 60 6105 0 -0.31746541
Link 107 820 6175 0 0.57585653
Link 820 54 6176 0 -0.70186891
Link 334 837 6293 0 0.07839778
Link 837 114 6294 0 -0.00744412
Link 165 847 6367 0 -1.60560226
Link 847 15 6368 0 0.56392471
Link 99 848 6383 0 -2.74492829
Link 848 573 6384 0 3.02235186
Link 439 855 6434 0 -0.95766838
Link 855 18 6435 0 2.32358018
Link 165 872 6556 0 0.72527629
Link 165 449 6663 0 -4.87951559
Link 290 290 6809 1 1.05922739
Link 290 44 6853 0 -1.42489799
Link 57 908 6892 0 -0.03764756
Link 114 916 6955 0 1.63166703
Link 916 481 6956 0 1.16513825
Link 6 552 7045 0 2.56033903
Link 221 334 7415 0 0.04198534
Link 4 290 7435 0 -0.09639685
Link 44 573 7519 0 2.14019565
Link 272 1014 7782 1 1.32570076
Link 1014 455 7783 1 2.24138887
Link 107 229 7818 0 0.91529042
Link 573 1024 7858 0 -1.26537574
Link 1024 789 7859 0 -0.53065287
Link 147 229 8032 1 0.19865642
Link 872 1050 8082 0 -1.70642468
Link 13 1054 8111 1 -2.71184512
Link 1054 638 8112 1 -0.52901822
Link 439 33 8143 0 2.40953825
Link 366 114 8162 0 2.32730706
Link 27 313 8266 0 -2.28206201
Link 33 176 8332 0 -1.78720664
Link 221 1099 8559 0 -2.54880343
Link 1099 43 8560 0 0.59224563
Link 318 552 8579 0 0.47891338
Link 440 1024 8703 0 0.51183536
Link 343 54 8956 0 -3.19568576
Link 165 1142 8991 0 -2.05398909
Link 55 1151 9063 0 1.00000000
Link 1151 10 9064 0 -1.84288262
Link 796 798 9437 0 -2.52348605
Link 12 455 9461 1 0.85242284
Link 733 66 9475 0 0.25709302
Link 583 1208 9564 1 1.84722232
Link 1208 78 9565 1 -1.77159269
Link 109 37 9664 1 -1.18052271
Link 628 106 9717 0 0.29344325
Link 366 66 9773 0 0.88749061
Link 1142 1248 9889 0 2.19017674
Link 1248 796 9890 0 0.56588116
Link 23 1300 10304 0 -2.40092494
Link 1300 47 10305 0 0.19789094
Link 192 43 10350 0 0.70247483
Link 57 583 10472 0 -0.24740519
Link 43 908 10537 0 0.21494497
Link 439 789 10615 0 -2.18633865
Link 192 916 10874 0 -1.94375797
Link 455 1376 10993 1 0.68818726
Link 1376 221 10994 1 -0.96119415
Link 60 313 11148 0 1.14143363
Link 657 733 11305 0 1.65835439
Link 798 751 11376 1 4.26834982
Link 908 1434 11458 0 0.96497641
Link 1434 258 11459 0 -0.53938475
Link 440 16 11877 0 1.81321277
Link 174 16 12024 0 3.16107270
Link 176 715 12057 1 -2.78432149
Link 1050 1498 12089 0 0.27084419
Link 1498 114 12090 0 1.32617425
Link 57 47 12943 0 2.46151762
Link 742 563 13028 1 0.02487848
GenomeEnd

