GenomeStart 29177
Neuron 1 1 0.00000000 1 0.00000000 0.00000000 0.00000000 0.00000000
Neuron 2 1 0.00000000 1 0.00000000 0.00000000 0.00000000 0.00000000
Neuron 3 1 0.00000000 1 0.00000000 0.00000000 0.00000000 0.00000000
Neuron 4 1 0.00000000 1 0.00000000 0.00000000 0.00000000 0.00000000
Neuron 5 1 0.00000000 1 0.00000000 0.00000000 0.00000000 0.00000000
Neuron 6 1 0.00000000 1 0.00000000 0.00000000 0.00000000 0.00000000
Neuron 7 1 0.00000000 1 0.00000000 0.00000000 0.00000000 0.00000000
Neuron 8 1 0.00000000 1 0.00000000 0.00000000 0.00000000 0.00000000
Neuron 9 2 0.00000000 1 0.00000000 0.00000000 0.00000000 0.00000000
Neuron 10 4 1.00000000 0 1.00000000 0.00000000 0.00000000 0.00000000
Neuron 11 4 1.00000000 0 1.00000000 0.00000000 0.00000000 0.00000000
Neuron 12 4 1.00000000 0 1.00000000 0.00000000 0.00000000 0.00000000
Neuron 13 4 1.00000000 0 1.00000000 0.00000000 0.00000000 0.00000000
Neuron 14 4 1.00000000 0 1.00000000 0.00000000 0.00000000 0.00000000
Neuron 15 4 1.00000000 0 1.00000000 0.00000000 0.00000000 0.00000000
Neuron 16 4 1.00000000 0 1.00000000 0.00000000 0.00000000 0.00000000
Neuron 18 3 0.50000000 1 1.00000000 0.00000000 0.00000000 0.00000000
Neuron 19 3 0.50000000 1 1.00000000 0.00000000 0.00000000 0.00000000
Neuron 20 3 0.50000000 1 1.00000000 0.00000000 0.00000000 0.00000000
Neuron 22 3 0.50000000 1 1.00000000 0.00000000 0.00000000 0.00000000
Neuron 27 3 0.50000000 1 1.00000000 0.00000000 0.00000000 0.00000000
Neuron 28 3 0.50000000 1 1.00000000 0.00000000 0.00000000 0.00000000
Neuron 30 3 0.50000000 1 1.00000000 0.00000000 0.00000000 0.00000000
Neuron 35 3 0.50000000 1 1.00000000 0.00000000 0.00000000 0.00000000
Neuron 38 3 0.50000000 1 1.00000000 0.00000000 0.00000000 0.00000000
Neuron 44 3 0.50000000 1 1.00000000 0.00000000 0.00000000 0.00000000
Neuron 52 3 0.50000000 1 1.00000000 0.00000000 0.00000000 0.00000000
Neuron 56 3 0.50000000 1 1.00000000 0.00000000 0.00000000 0.00000000
Neuron 60 3 0.50000000 1 1.00000000 0.00000000 0.00000000 0.00000000
Neuron 64 3 0.25000000 1 1.00000000 0.00000000 0.00000000 0.00000000
Neuron 65 3 0.50000000 1 1.00000000 0.00000000 0.00000000 0.00000000
Neuron 72 3 0.50000000 1 1.00000000 0.00000000 0.00000000 0.00000000
Neuron 74 3 0.50000000 1 1.00000000 0.00000000 0.00000000 0.00000000
Neuron 75 3 0.25000000 1 1.00000000 0.00000000 0.00000000 0.00000000
Neuron 82 3 0.50000000 1 1.00000000 0.00000000 0.00000000 0.00000000
Neuron 85 3 0.50000000 1 1.00000000 0.00000000 0.00000000 0.00000000
Neuron 99 3 0.75000000 1 1.00000000 0.00000000 0.00000000 0.00000000
Neuron 108 3 0.25000000 1 1.00000000 0.00000000 0.00000000 0.00000000
Neuron 121 3 0.75000000 1 1.00000000 0.00000000 0.00000000 0.00000000
Neuron 156 3 0.75000000 1 1.00000000 0.00000000 0.00000000 0.00000000
Neuron 222 3 0.75000000 1 1.00000000 0.00000000 0.00000000 0.00000000
Neuron 283 3 0.25000000 1 1.00000000 0.00000000 0.00000000 0.00000000
Neuron 367 3 0.75000000 1 1.00000000 0.00000000 0.00000000 0.00000000
Neuron 405 3 0.12500000 1 1.00000000 0.00000000 0.00000000 0.00000000
Link 1 10 1 0 1.58520206
Link 3 10 3 0 -0.61200368
Link 5 10 5 0 0.09970650
Link 6 10 6 0 -0.82406548
Link 7 10 7 0 0.46773707
Link 8 10 8 0 0.47346155
Link 9 10 9 0 -1.20965997
Link 1 11 10 0 -1.77679372
Link 2 11 11 0 1.78335781
Link 3 11 12 0 0.59750195
Link 4 11 13 0 -0.34321843
Link 5 11 14 0 0.03913551
Link 7 11 16 0 2.13117529
Link 8 11 17 0 0.27725459
Link 9 11 18 0 -0.16279413
Link 1 12 19 0 -1.36431054
Link 2 12 20 0 0.57982005
Link 3 12 21 0 -1.32806522
Link 4 12 22 0 -0.20959289
Link 5 12 23 0 -0.28217877
Link 7 12 25 0 0.16119423
Link 8 12 26 0 -1.80345028
Link 9 12 27 0 1.15962314
Link 1 13 28 0 -0.55509793
Link 2 13 29 0 -1.27928797
Link 3 13 30 0 0.59916136
Link 5 13 32 0 -1.37768523
Link 6 13 33 0 1.64973256
Link 7 13 34 0 -3.16517457
Link 9 13 36 0 0.20549972
Link 3 14 39 0 -0.50837385
Link 5 14 41 0 0.55094460
Link 6 14 42 0 -2.07482447
Link 3 15 48 0 0.91162972
Link 4 15 49 0 -0.50182700
Link 7 15 52 0 -1.25041497
Link 8 15 53 0 -3.14387159
Link 9 15 54 0 3.15359176
Link 1 16 55 0 -0.54805249
Link 7 16 61 0 -0.84268814
Link 8 16 62 0 1.33200046
Link 9 16 63 0 0.07978487
Link 2 18 68 0 -0.20768998
Link 6 19 71 0 -0.79845210
Link 19 11 72 0 0.81357596
Link 4 20 74 0 1.66153983
Link 20 10 75 0 -0.35546544
Link 22 16 81 0 0.84669027
Link 2 27 95 0 -0.47436061
Link 27 16 96 0 -0.35069555
Link 5 28 98 0 1.00000000
Link 28 16 99 0 2.09565822
Link 6 30 104 0 -0.91773339
Link 30 15 105 0 0.03620962
Link 35 13 120 0 -0.15911998
Link 1 38 129 0 -3.74213597
Link 38 15 130 0 -0.84082365
Link 8 44 149 0 -0.06265605
Link 44 14 150 0 -1.24849436
Link 52 13 179 0 -0.81781192
Link 7 56 203 0 0.94642889
Link 56 14 204 0 -0.77129267
Link 5 60 222 0 -0.70806167
Link 64 35 241 0 1.69985951
Link 65 16 248 0 -0.21619835
Link 1 72 281 0 2.03209673
Link 72 14 282 0 -2.43766564
Link 4 74 295 0 0.90745013
Link 74 16 296 0 -0.78009596
Link 8 75 306 0 -0.36434337
Link 75 52 307 0 1.41510645
Link 16 16 308 1 -3.23329472
Link 20 20 309 1 2.73663571
Link 3 35 334 0 -0.26471665
Link 6 82 349 0 -0.52338686
Link 82 12 350 0 -1.35621128
Link 2 85 382 0 0.38273931
Link 18 99 505 0 1.00000000
Link 99 15 506 0 -0.73693117
Link 16 72 536 1 -0.80840267
Link 1 20 552 0 -2.03247699
Link 6 108 569 0 -1.51452778
Link 108 22 570 0 2.40827299
Link 72 12 574 0 -0.56263287
Link 3 27 656 0 0.66800485
Link 60 121 678 0 0.07989855
Link 121 15 679 0 -0.62827612
Link 27 10 886 0 -1.88274081
Link 85 156 964 0 -1.47977868
Link 156 14 965 0 1.10646853
Link 27 72 985 0 1.42554323
Link 6 60 1181 0 0.57305910
Link 12 44 1324 1 -0.38299378
Link 14 222 1366 1 -1.97992928
Link 222 44 1367 1 2.08020895
Link 38 12 1454 0 1.11441188
Link 2 72 1581 0 -1.15574821
Link 6 74 1757 0 1.34533571
Link 2 283 1786 0 2.75893389
Link 283 52 1787 0 2.17079351
Link 10 65 2046 1 -0.92363722
Link 85 72 2230 0 -1.38162563
Link 85 222 2252 0 -0.34676652
Link 27 367 2374 0 -0.45716266
Link 367 13 2375 0 0.43201854
Link 56 56 2536 1 0.50611598
Link 74 75 2616 1 -1.05933224
Link 4 405 2652 0 1.00000000
Link 405 64 2653 0 1.29675114
Link 2 75 2960 0 0.09044631
Link 8 60 3135 0 1.95403533
Link 74 82 3702 0 2.87666265
Link 367 56 3750 1 0.71503297
Link 56 74 4102 0 -0.80016331
Link 14 75 4189 1 -0.31853923
GenomeEnd

