GenomeStart 71540
Neuron 1 1 0.00000000 1 0.00000000 0.00000000 0.00000000 0.00000000
Neuron 2 1 0.00000000 1 0.00000000 0.00000000 0.00000000 0.00000000
Neuron 3 1 0.00000000 1 0.00000000 0.00000000 0.00000000 0.00000000
Neuron 4 1 0.00000000 1 0.00000000 0.00000000 0.00000000 0.00000000
Neuron 5 1 0.00000000 1 0.00000000 0.00000000 0.00000000 0.00000000
Neuron 6 1 0.00000000 1 0.00000000 0.00000000 0.00000000 0.00000000
Neuron 7 1 0.00000000 1 0.00000000 0.00000000 0.00000000 0.00000000
Neuron 8 1 0.00000000 1 0.00000000 0.00000000 0.00000000 0.00000000
Neuron 9 2 0.00000000 1 0.00000000 0.00000000 0.00000000 0.00000000
Neuron 10 4 1.00000000 0 1.00000000 0.00000000 0.00000000 0.00000000
Neuron 11 4 1.00000000 0 1.00000000 0.00000000 0.00000000 0.00000000
Neuron 12 4 1.00000000 0 1.00000000 0.00000000 0.00000000 0.00000000
Neuron 13 4 1.00000000 0 1.00000000 0.00000000 0.00000000 0.00000000
Neuron 14 4 1.00000000 0 1.00000000 0.00000000 0.00000000 0.00000000
Neuron 15 4 1.00000000 0 1.00000000 0.00000000 0.00000000 0.00000000
Neuron 16 4 1.00000000 0 1.00000000 0.00000000 0.00000000 0.00000000
Neuron 18 3 0.50000000 1 1.00000000 0.00000000 0.00000000 0.00000000
Neuron 20 3 0.50000000 1 1.00000000 0.00000000 0.00000000 0.00000000
Neuron 23 3 0.50000000 1 1.00000000 0.00000000 0.00000000 0.00000000
Neuron 26 3 0.50000000 1 1.00000000 0.00000000 0.00000000 0.00000000
Neuron 27 3 0.50000000 1 1.00000000 0.00000000 0.00000000 0.00000000
Neuron 28 3 0.50000000 1 1.00000000 0.00000000 0.00000000 0.00000000
Neuron 30 3 0.50000000 1 1.00000000 0.00000000 0.00000000 0.00000000
Neuron 34 3 0.50000000 1 1.00000000 0.00000000 0.00000000 0.00000000
Neuron 37 3 0.50000000 1 1.00000000 0.00000000 0.00000000 0.00000000
Neuron 38 3 0.50000000 1 1.00000000 0.00000000 0.00000000 0.00000000
Neuron 40 3 0.50000000 1 1.00000000 0.00000000 0.00000000 0.00000000
Neuron 41 3 0.50000000 1 1.00000000 0.00000000 0.00000000 0.00000000
Neuron 43 3 0.50000000 1 1.00000000 0.00000000 0.00000000 0.00000000
Neuron 44 3 0.50000000 1 1.00000000 0.00000000 0.00000000 0.00000000
Neuron 46 3 0.75000000 1 1.00000000 0.00000000 0.00000000 0.00000000
Neuron 54 3 0.50000000 1 1.00000000 0.00000000 0.00000000 0.00000000
Neuron 55 3 0.50000000 1 1.00000000 0.00000000 0.00000000 0.00000000
Neuron 56 3 0.50000000 1 1.00000000 0.00000000 0.00000000 0.00000000
Neuron 57 3 0.50000000 1 1.00000000 0.00000000 0.00000000 0.00000000
Neuron 60 3 0.50000000 1 1.00000000 0.00000000 0.00000000 0.00000000
Neuron 66 3 0.50000000 1 1.00000000 0.00000000 0.00000000 0.00000000
Neuron 74 3 0.50000000 1 1.00000000 0.00000000 0.00000000 0.00000000
Neuron 78 3 0.50000000 1 1.00000000 0.00000000 0.00000000 0.00000000
Neuron 80 3 0.75000000 1 1.00000000 0.00000000 0.00000000 0.00000000
Neuron 85 3 0.50000000 1 1.00000000 0.00000000 0.00000000 0.00000000
Neuron 99 3 0.75000000 1 1.00000000 0.00000000 0.00000000 0.00000000
Neuron 106 3 0.75000000 1 1.00000000 0.00000000 0.00000000 0.00000000
Neuron 107 3 0.25000000 1 1.00000000 0.00000000 0.00000000 0.00000000
Neuron 109 3 0.75000000 1 1.00000000 0.00000000 0.00000000 0.00000000
Neuron 114 3 0.75000000 1 1.00000000 0.00000000 0.00000000 0.00000000
Neuron 118 3 0.75000000 1 1.00000000 0.00000000 0.00000000 0.00000000
Neuron 147 3 0.62500000 1 1.00000000 0.00000000 0.00000000 0.00000000
Neuron 165 3 0.25000000 1 1.00000000 0.00000000 0.00000000 0.00000000
Neuron 176 3 0.75000000 1 1.00000000 0.00000000 0.00000000 0.00000000
Neuron 192 3 0.37500000 1 1.00000000 0.00000000 0.00000000 0.00000000
Neuron 206 3 0.75000000 1 1.00000000 0.00000000 0.00000000 0.00000000
Neuron 221 3 0.25000000 1 1.00000000 0.00000000 0.00000000 0.00000000
Neuron 229 3 0.25000000 1 1.00000000 0.00000000 0.00000000 0.00000000
Neuron 241 3 0.37500000 1 1.00000000 0.00000000 0.00000000 0.00000000
Neuron 244 3 0.25000000 1 1.00000000 0.00000000 0.00000000 0.00000000
Neuron 255 3 0.87500000 1 1.00000000 0.00000000 0.00000000 0.00000000
Neuron 258 3 0.62500000 1 1.00000000 0.00000000 0.00000000 0.00000000
Neuron 267 3 0.25000000 1 1.00000000 0.00000000 0.00000000 0.00000000
Neuron 272 3 0.75000000 1 1.00000000 0.00000000 0.00000000 0.00000000
Neuron 290 3 0.12500000 1 1.00000000 0.00000000 0.00000000 0.00000000
Neuron 313 3 0.87500000 1 1.00000000 0.00000000 0.00000000 0.00000000
Neuron 318 3 0.56250000 1 1.00000000 0.00000000 0.00000000 0.00000000
Neuron 334 3 0.62500000 1 1.00000000 0.00000000 0.00000000 0.00000000
Neuron 343 3 0.25000000 1 1.00000000 0.00000000 0.00000000 0.00000000
Neuron 359 3 0.87500000 1 1.00000000 0.00000000 0.00000000 0.00000000
Neuron 366 3 0.25000000 1 1.00000000 0.00000000 0.00000000 0.00000000
Neuron 439 3 0.37500000 1 1.00000000 0.00000000 0.00000000 0.00000000
Neuron 440 3 0.62500000 1 1.00000000 0.00000000 0.00000000 0.00000000
Neuron 449 3 0.62500000 1 1.00000000 0.00000000 0.00000000 0.00000000
Neuron 455 3 0.62500000 1 1.00000000 0.00000000 0.00000000 0.00000000
Neuron 479 3 0.59375000 1 1.00000000 0.00000000 0.00000000 0.00000000
Neuron 481 3 0.87500000 1 1.00000000 0.00000000 0.00000000 0.00000000
Neuron 485 3 0.12500000 1 1.00000000 0.00000000 0.00000000 0.00000000
Neuron 508 3 0.31250000 1 1.00000000 0.00000000 0.00000000 0.00000000
Neuron 515 3 0.50000000 1 1.00000000 0.00000000 0.00000000 0.00000000
Neuron 552 3 0.68750000 1 1.00000000 0.00000000 0.00000000 0.00000000
Neuron 573 3 0.81250000 1 1.00000000 0.00000000 0.00000000 0.00000000
Neuron 585 3 0.50000000 1 1.00000000 0.00000000 0.00000000 0.00000000
Neuron 628 3 0.28125000 1 1.00000000 0.00000000 0.00000000 0.00000000
Neuron 638 3 0.81250000 1 1.00000000 0.00000000 0.00000000 0.00000000
Neuron 642 3 0.75000000 1 1.00000000 0.00000000 0.00000000 0.00000000
Neuron 656 3 0.62500000 1 1.00000000 0.00000000 0.00000000 0.00000000
Neuron 715 3 0.59375000 1 1.00000000 0.00000000 0.00000000 0.00000000
Neuron 723 3 0.37500000 1 1.00000000 0.00000000 0.00000000 0.00000000
Neuron 820 3 0.37500000 1 1.00000000 0.00000000 0.00000000 0.00000000
Neuron 837 3 0.68750000 1 1.00000000 0.00000000 0.00000000 0.00000000
Neuron 847 3 0.62500000 1 1.00000000 0.00000000 0.00000000 0.00000000
Neuron 848 3 0.78125000 1 1.00000000 0.00000000 0.00000000 0.00000000
Neuron 872 3 0.50000000 1 1.00000000 0.00000000 0.00000000 0.00000000
Neuron 884 3 0.56250000 1 1.00000000 0.00000000 0.00000000 0.00000000
Neuron 887 3 0.62500000 1 1.00000000 0.00000000 0.00000000 0.00000000
Neuron 905 3 0.25000000 1 1.00000000 0.00000000 0.00000000 0.00000000
Neuron 1081 3 0.78125000 1 1.00000000 0.00000000 0.00000000 0.00000000
Neuron 1110 3 0.62500000 1 1.00000000 0.00000000 0.00000000 0.00000000
Neuron 1113 3 0.79687500 1 1.00000000 0.00000000 0.00000000 0.00000000
Neuron 1138 3 0.87500000 1 1.00000000 0.00000000 0.00000000 0.00000000
Neuron 1161 3 0.62500000 1 1.00000000 0.00000000 0.00000000 0.00000000
Neuron 1176 3 0.68750000 1 1.00000000 0.00000000 0.00000000 0.00000000
Neuron 1231 3 0.14062500 1 1.00000000 0.00000000 0.00000000 0.00000000
Neuron 1258 3 0.68750000 1 1.00000000 0.00000000 0.00000000 0.00000000
Neuron 1303 3 0.71875000 1 1.00000000 0.00000000 0.00000000 0.00000000
Neuron 1335 3 0.68750000 1 1.00000000 0.00000000 0.00000000 0.00000000
Neuron 1348 3 0.56250000 1 1.00000000 0.00000000 0.00000000 0.00000000
Link 1 10 1 0 1.33532193
Link 2 10 2 0 3.10097458
Link 5 10 5 0 -0.12048266
Link 7 10 7 0 0.58874582
Link 8 10 8 0 1.97075512
Link 9 10 9 0 -0.58541071
Link 1 11 10 0 2.27520084
Link 2 11 11 0 0.42223690
Link 3 11 12 0 1.63251787
Link 4 11 13 0 1.42548334
Link 9 11 18 0 -0.51106234
Link 1 12 19 0 0.33571687
Link 2 12 20 0 2.59856356
Link 4 12 22 0 -0.52102444
Link 5 12 23 0 1.95698332
Link 6 12 24 0 1.57295998
Link 7 12 25 0 0.23292365
Link 9 12 27 0 -1.31839260
Link 1 13 28 0 4.01005299
Link 2 13 29 0 -3.67289189
Link 4 13 31 0 0.73849657
Link 6 13 33 0 -0.28135355
Link 8 13 35 0 -1.84461360
Link 9 13 36 0 -0.07811503
Link 1 14 37 0 1.45436735
Link 3 14 39 0 0.76903254
Link 4 14 40 0 0.84501100
Link 6 14 42 0 2.12338006
Link 9 14 45 0 0.13212581
Link 3 15 48 0 1.14210474
Link 5 15 50 0 1.50467049
Link 7 15 52 0 -0.53506386
Link 9 15 54 0 2.02750955
Link 1 16 55 0 -0.93129232
Link 3 16 57 0 0.09288430
Link 6 16 60 0 -0.24241086
Link 7 16 61 0 1.70501910
Link 9 16 63 0 -0.52154346
Link 4 20 74 0 1.12209082
Link 20 10 75 0 -0.30201147
Link 23 15 84 0 -0.01071093
Link 5 26 92 0 0.18348832
Link 26 14 93 0 -1.04451577
Link 28 16 99 0 1.43906126
Link 6 30 104 0 1.62264449
Link 30 15 105 0 2.23408071
Link 4 34 116 0 0.52413335
Link 34 15 117 0 -0.29327834
Link 8 37 125 0 -2.33472325
Link 1 38 129 0 -0.78595122
Link 7 40 137 0 1.23668303
Link 40 13 138 0 -2.66877805
Link 2 41 140 0 0.03359749
Link 41 13 141 0 -2.49216652
Link 8 43 146 0 -0.37345227
Link 43 11 147 0 -1.20827759
Link 8 44 149 0 0.85404752
Link 37 46 157 0 0.92297299
Link 5 54 188 0 -1.48441440
Link 54 11 189 0 0.17156773
Link 7 56 203 0 1.00000000
Link 56 14 204 0 -2.25044417
Link 5 57 212 0 2.54022107
Link 60 15 223 0 -4.38214518
Link 4 74 295 0 -1.45642914
Link 2 85 382 0 -0.63795521
Link 85 14 383 0 3.34019646
Link 11 27 393 1 -0.18646318
Link 18 99 505 0 -0.78466530
Link 2 107 564 0 0.89761055
Link 109 10 573 0 1.11637366
Link 16 27 634 1 -3.29876314
Link 44 118 648 0 -3.26213173
Link 118 14 649 0 -0.06369647
Link 13 13 724 1 0.84898143
Link 147 80 896 0 -1.14567078
Link 27 99 987 0 -3.05721886
Link 165 27 1015 0 -1.33280213
Link 176 12 1076 0 1.29967142
Link 165 192 1206 0 2.03399640
Link 192 27 1207 0 0.42547759
Link 206 16 1293 0 4.06038510
Link 2 221 1360 0 -2.91685129
Link 221 66 1361 0 0.35802547
Link 229 23 1416 0 -2.07314703
Link 107 241 1492 0 0.22842667
Link 241 18 1493 0 -1.75981078
Link 5 244 1506 0 -1.19088647
Link 244 28 1507 0 -4.96177113
Link 114 114 1531 1 0.56568257
Link 80 255 1576 0 -0.39070065
Link 255 16 1577 0 -1.92919521
Link 258 109 1600 0 -1.86513731
Link 3 267 1649 0 -0.63053809
Link 267 66 1650 0 0.57450662
Link 13 272 1686 1 -0.20309751
Link 3 290 1834 0 2.44211162
Link 290 165 1835 0 2.45339051
Link 55 106 1920 0 0.32487180
Link 313 13 1992 0 0.75894890
Link 55 318 2042 0 -0.69690730
Link 38 334 2133 0 0.58465022
Link 8 85 2184 0 1.20352050
Link 8 343 2209 0 0.84147643
Link 359 15 2327 0 1.43198756
Link 66 16 2350 0 -1.86098320
Link 1 366 2367 0 -1.76497858
Link 366 18 2368 0 0.68399513
Link 11 23 2450 1 -3.37030660
Link 114 78 2665 1 0.10457423
Link 439 55 2896 0 1.84617686
Link 80 440 2898 1 0.38228840
Link 272 272 2964 1 1.93623722
Link 57 449 2966 0 -0.52687935
Link 449 106 2967 0 -2.17465173
Link 272 455 3032 1 -0.72543617
Link 455 55 3033 1 1.62287927
Link 41 18 3043 0 -1.76991253
Link 318 479 3194 0 2.93831745
Link 479 258 3195 0 2.22917257
Link 114 481 3216 0 -0.81384208
Link 481 15 3217 0 -0.38725750
Link 8 485 3252 0 -1.85335398
Link 485 229 3253 0 -0.67239081
Link 107 508 3413 0 0.66857799
Link 508 439 3414 0 -2.15500329
Link 6 54 3421 0 -0.44496427
Link 515 55 3477 0 -1.94393023
Link 439 439 3620 1 0.43818145
Link 16 80 3659 1 -0.15101962
Link 552 359 3807 0 1.39802604
Link 11 290 3867 1 -2.26661145
Link 573 359 3971 0 -1.61136462
Link 107 515 3989 0 2.74419219
Link 27 585 4100 0 0.80616921
Link 585 515 4101 0 1.74477107
Link 221 54 4383 0 -0.89101951
Link 628 318 4541 0 1.29436040
Link 638 313 4604 0 -2.66106641
Link 642 10 4630 0 -0.94421802
Link 78 656 4752 0 1.41852231
Link 656 176 4753 0 1.36505212
Link 439 109 4788 0 0.61843037
Link 99 147 4840 1 0.33061613
Link 221 37 5201 0 -1.38841487
Link 552 38 5217 1 -0.88505730
Link 165 14 5243 0 3.43560856
Link 43 715 5259 0 -4.25763437
Link 715 552 5260 0 0.08425160
Link 343 723 5321 0 0.91235247
Link 723 78 5322 0 -2.20497653
Link 318 165 5479 1 0.46872424
Link 439 37 5520 0 0.28208829
Link 118 40 5806 1 -0.31748761
Link 440 481 5974 0 -3.40077445
Link 107 313 6027 0 0.30219901
Link 114 16 6035 0 3.13960069
Link 165 41 6091 0 -3.17594327
Link 43 60 6105 0 -2.37772202
Link 57 258 6122 0 -0.10653645
Link 107 820 6175 0 -0.48460804
Link 820 54 6176 0 1.53675037
Link 439 18 6224 0 0.09277968
Link 334 837 6293 0 0.80991270
Link 837 114 6294 0 -0.93152672
Link 165 847 6367 0 -0.97748401
Link 847 15 6368 0 -1.68777618
Link 99 848 6383 0 2.00030817
Link 848 573 6384 0 1.09512194
Link 165 872 6556 0 -1.61308986
Link 872 114 6557 0 -0.40199507
Link 27 884 6661 0 1.81785809
Link 884 147 6662 0 -2.21741182
Link 165 887 6685 0 1.47062908
Link 887 10 6686 0 1.49147785
Link 290 290 6809 1 -2.41322441
Link 290 44 6853 0 -1.63249333
Link 366 905 6855 1 0.09974779
Link 905 366 6856 1 3.00983109
Link 13 638 6953 1 -0.88931088
Link 6 552 7045 0 -1.93358326
Link 229 366 7392 0 1.71140293
Link 5 847 7733 0 -1.28293729
Link 192 481 8039 0 0.08344927
Link 290 848 8226 0 -2.13346635
Link 106 1081 8396 0 -0.21782662
Link 114 267 8730 1 0.21879362
Link 1081 1113 8774 0 1.76088337
Link 1113 638 8775 0 -0.33679239
Link 118 272 8798 0 1.97257509
Link 46 1138 8973 0 1.06213199
Link 1138 16 8974 0 -1.20705653
Link 23 1161 9166 0 2.28182642
Link 1161 1176 9289 0 -2.17574818
Link 1176 642 9290 0 -3.92615955
Link 38 638 9467 0 0.56515958
Link 118 55 9533 1 0.14414453
Link 41 272 9680 0 3.38703030
Link 5 1231 9783 0 0.98018175
Link 1231 628 9784 0 0.09386358
Link 74 1258 9982 0 1.13231501
Link 1258 481 9983 0 -0.95675187
Link 41 99 10122 0 -1.27875626
Link 1176 1303 10320 0 1.00000000
Link 1303 118 10321 0 -3.48456269
Link 118 515 10378 1 -0.55518567
Link 1110 1335 10646 0 -0.71940554
Link 1335 206 10647 0 -1.82451628
Link 74 1348 10777 0 0.21099238
Link 1348 1110 10778 0 1.47680122
Link 905 905 10843 1 1.90795483
Link 3 905 10864 0 -2.01759566
Link 343 366 10929 0 1.51797104
Link 485 485 11315 1 1.89505959
Link 10 455 11513 1 -2.55094347
GenomeEnd

