GenomeStart 6380
Neuron 1 1 0.00000000 1 0.00000000 0.00000000 0.00000000 0.00000000
Neuron 2 1 0.00000000 1 0.00000000 0.00000000 0.00000000 0.00000000
Neuron 3 1 0.00000000 1 0.00000000 0.00000000 0.00000000 0.00000000
Neuron 4 1 0.00000000 1 0.00000000 0.00000000 0.00000000 0.00000000
Neuron 5 1 0.00000000 1 0.00000000 0.00000000 0.00000000 0.00000000
Neuron 6 1 0.00000000 1 0.00000000 0.00000000 0.00000000 0.00000000
Neuron 7 1 0.00000000 1 0.00000000 0.00000000 0.00000000 0.00000000
Neuron 8 1 0.00000000 1 0.00000000 0.00000000 0.00000000 0.00000000
Neuron 9 2 0.00000000 1 0.00000000 0.00000000 0.00000000 0.00000000
Neuron 10 4 1.00000000 0 1.00000000 0.00000000 0.00000000 0.00000000
Neuron 11 4 1.00000000 0 1.00000000 0.00000000 0.00000000 0.00000000
Neuron 12 4 1.00000000 0 1.00000000 0.00000000 0.00000000 0.00000000
Neuron 13 4 1.00000000 0 1.00000000 0.00000000 0.00000000 0.00000000
Neuron 14 4 1.00000000 0 1.00000000 0.00000000 0.00000000 0.00000000
Neuron 15 4 1.00000000 0 1.00000000 0.00000000 0.00000000 0.00000000
Neuron 16 4 1.00000000 0 1.00000000 0.00000000 0.00000000 0.00000000
Neuron 18 3 0.50000000 1 1.00000000 0.00000000 0.00000000 0.00000000
Neuron 20 3 0.50000000 1 1.00000000 0.00000000 0.00000000 0.00000000
Neuron 55 3 0.50000000 1 1.00000000 0.00000000 0.00000000 0.00000000
Neuron 84 3 0.50000000 1 1.00000000 0.00000000 0.00000000 0.00000000
Link 1 10 1 0 2.19146485
Link 3 10 3 0 0.02577367
Link 5 10 5 0 -0.45870313
Link 7 10 7 0 1.91379683
Link 8 10 8 0 -1.85078441
Link 9 10 9 0 -4.57358417
Link 1 11 10 0 0.27904027
Link 2 11 11 0 2.29891868
Link 3 11 12 0 3.25353293
Link 4 11 13 0 -1.96304161
Link 5 11 14 0 0.79209240
Link 6 11 15 0 2.11709974
Link 7 11 16 0 0.71937216
Link 8 11 17 0 2.58222680
Link 9 11 18 0 -0.55900831
Link 1 12 19 0 2.66796856
Link 2 12 20 0 -0.60090626
Link 3 12 21 0 3.86124184
Link 4 12 22 0 1.29493395
Link 5 12 23 0 -1.72644513
Link 6 12 24 0 2.01068489
Link 7 12 25 0 0.47553874
Link 8 12 26 0 -0.39608142
Link 9 12 27 0 1.10935087
Link 1 13 28 0 -2.51605560
Link 2 13 29 0 1.05515164
Link 3 13 30 0 0.55402482
Link 4 13 31 0 2.43068678
Link 5 13 32 0 -0.34136022
Link 6 13 33 0 0.04297091
Link 7 13 34 0 -0.90278744
Link 8 13 35 0 -0.58262965
Link 9 13 36 0 0.22346696
Link 1 14 37 0 2.03961419
Link 2 14 38 0 -1.75122558
Link 3 14 39 0 -3.61376724
Link 4 14 40 0 0.72554892
Link 5 14 41 0 0.86826508
Link 6 14 42 0 -0.61966035
Link 7 14 43 0 2.39652822
Link 8 14 44 0 2.33709388
Link 9 14 45 0 1.45688003
Link 1 15 46 0 2.29012290
Link 2 15 47 0 3.01304026
Link 3 15 48 0 0.42734995
Link 4 15 49 0 1.12002778
Link 6 15 51 0 1.63804818
Link 7 15 52 0 2.79224318
Link 8 15 53 0 -0.72658967
Link 9 15 54 0 -0.86783324
Link 1 16 55 0 3.49368266
Link 2 16 56 0 -0.43172631
Link 3 16 57 0 0.72747413
Link 4 16 58 0 -0.83307613
Link 5 16 59 0 -0.79818293
Link 6 16 60 0 -0.41982888
Link 7 16 61 0 2.32503277
Link 8 16 62 0 1.31470406
Link 9 16 63 0 0.41679303
Link 2 18 68 0 -2.57985815
Link 18 15 69 0 1.65685856
Link 4 20 74 0 0.63998907
Link 20 10 75 0 -0.14591508
Link 6 55 192 0 0.29970081
Link 55 10 193 0 2.35803314
Link 15 18 271 1 0.52426408
Link 12 55 297 1 -0.12707964
Link 2 84 369 0 1.00000000
Link 84 10 370 0 0.59760199
Link 13 18 429 1 -1.50869366
GenomeEnd

