GenomeStart 48113
Neuron 1 1 0.00000000 1 0.00000000 0.00000000 0.00000000 0.00000000
Neuron 2 1 0.00000000 1 0.00000000 0.00000000 0.00000000 0.00000000
Neuron 3 1 0.00000000 1 0.00000000 0.00000000 0.00000000 0.00000000
Neuron 4 1 0.00000000 1 0.00000000 0.00000000 0.00000000 0.00000000
Neuron 5 1 0.00000000 1 0.00000000 0.00000000 0.00000000 0.00000000
Neuron 6 1 0.00000000 1 0.00000000 0.00000000 0.00000000 0.00000000
Neuron 7 1 0.00000000 1 0.00000000 0.00000000 0.00000000 0.00000000
Neuron 8 1 0.00000000 1 0.00000000 0.00000000 0.00000000 0.00000000
Neuron 9 2 0.00000000 1 0.00000000 0.00000000 0.00000000 0.00000000
Neuron 10 4 1.00000000 0 1.00000000 0.00000000 0.00000000 0.00000000
Neuron 11 4 1.00000000 0 1.00000000 0.00000000 0.00000000 0.00000000
Neuron 12 4 1.00000000 0 1.00000000 0.00000000 0.00000000 0.00000000
Neuron 13 4 1.00000000 0 1.00000000 0.00000000 0.00000000 0.00000000
Neuron 14 4 1.00000000 0 1.00000000 0.00000000 0.00000000 0.00000000
Neuron 15 4 1.00000000 0 1.00000000 0.00000000 0.00000000 0.00000000
Neuron 16 4 1.00000000 0 1.00000000 0.00000000 0.00000000 0.00000000
Neuron 20 3 0.50000000 1 1.00000000 0.00000000 0.00000000 0.00000000
Neuron 23 3 0.50000000 1 1.00000000 0.00000000 0.00000000 0.00000000
Neuron 25 3 0.50000000 1 1.00000000 0.00000000 0.00000000 0.00000000
Neuron 28 3 0.50000000 1 1.00000000 0.00000000 0.00000000 0.00000000
Neuron 33 3 0.50000000 1 1.00000000 0.00000000 0.00000000 0.00000000
Neuron 35 3 0.50000000 1 1.00000000 0.00000000 0.00000000 0.00000000
Neuron 38 3 0.50000000 1 1.00000000 0.00000000 0.00000000 0.00000000
Neuron 39 3 0.50000000 1 1.00000000 0.00000000 0.00000000 0.00000000
Neuron 43 3 0.50000000 1 1.00000000 0.00000000 0.00000000 0.00000000
Neuron 49 3 0.50000000 1 1.00000000 0.00000000 0.00000000 0.00000000
Neuron 54 3 0.50000000 1 1.00000000 0.00000000 0.00000000 0.00000000
Neuron 59 3 0.50000000 1 1.00000000 0.00000000 0.00000000 0.00000000
Neuron 178 3 0.75000000 1 1.00000000 0.00000000 0.00000000 0.00000000
Neuron 193 3 0.87500000 1 1.00000000 0.00000000 0.00000000 0.00000000
Neuron 203 3 0.25000000 1 1.00000000 0.00000000 0.00000000 0.00000000
Neuron 416 3 0.50000000 1 1.00000000 0.00000000 0.00000000 0.00000000
Neuron 464 3 0.50000000 1 1.00000000 0.00000000 0.00000000 0.00000000
Neuron 469 3 0.50000000 1 1.00000000 0.00000000 0.00000000 0.00000000
Neuron 552 3 0.50000000 1 1.00000000 0.00000000 0.00000000 0.00000000
Neuron 589 3 0.50000000 1 1.00000000 0.00000000 0.00000000 0.00000000
Neuron 628 3 0.50000000 1 1.00000000 0.00000000 0.00000000 0.00000000
Link 1 10 1 0 -1.32615655
Link 3 10 3 0 -1.25660569
Link 4 10 4 0 1.35931461
Link 5 10 5 0 -2.06466658
Link 6 10 6 0 -1.17618035
Link 7 10 7 0 1.70673392
Link 8 10 8 0 -0.59997055
Link 9 10 9 0 -1.36628430
Link 1 11 10 0 -2.96727741
Link 2 11 11 0 3.18378633
Link 3 11 12 0 -0.15800449
Link 6 11 15 0 1.02275205
Link 7 11 16 0 3.96317591
Link 8 11 17 0 2.19195575
Link 9 11 18 0 -0.15225843
Link 1 12 19 0 0.81219867
Link 2 12 20 0 1.58377241
Link 3 12 21 0 0.24644744
Link 5 12 23 0 3.02212996
Link 7 12 25 0 -3.93735047
Link 9 12 27 0 -0.20801107
Link 1 13 28 0 -0.17711740
Link 2 13 29 0 -0.30560434
Link 3 13 30 0 0.67752287
Link 4 13 31 0 4.59488138
Link 5 13 32 0 0.42669059
Link 6 13 33 0 -0.34507270
Link 7 13 34 0 2.15721445
Link 8 13 35 0 2.52244382
Link 9 13 36 0 -1.76766063
Link 1 14 37 0 1.60323028
Link 4 14 40 0 -1.62474845
Link 5 14 41 0 -2.28432297
Link 7 14 43 0 -6.63622919
Link 8 14 44 0 -1.10225748
Link 9 14 45 0 -2.72272589
Link 1 15 46 0 -3.54526889
Link 3 15 48 0 -1.64308618
Link 4 15 49 0 -0.52172913
Link 5 15 50 0 0.48288744
Link 6 15 51 0 -0.67792815
Link 7 15 52 0 1.35733726
Link 8 15 53 0 4.15536700
Link 9 15 54 0 -1.48598773
Link 1 16 55 0 -1.37694821
Link 2 16 56 0 -2.24099060
Link 3 16 57 0 2.35946535
Link 5 16 59 0 -3.16892799
Link 7 16 61 0 -1.96146399
Link 9 16 63 0 -2.71764074
Link 8 20 74 0 0.95437228
Link 20 12 75 0 -0.74698021
Link 23 11 84 0 -0.26754007
Link 25 12 90 0 0.55827274
Link 2 28 98 0 2.20487560
Link 28 16 99 0 -1.09467716
Link 2 33 113 0 1.00000000
Link 33 15 114 0 1.00950873
Link 4 35 119 0 1.02565440
Link 35 16 120 0 0.71559316
Link 38 14 129 0 -3.04986992
Link 6 39 131 0 -0.52815510
Link 39 13 132 0 2.69210062
Link 1 43 145 0 -1.27941119
Link 43 10 146 0 2.06675568
Link 3 49 163 0 0.84339811
Link 49 11 164 0 -2.66632630
Link 5 54 178 0 -0.47380614
Link 54 11 179 0 3.25595200
Link 59 11 205 0 -3.74792410
Link 12 59 270 1 1.27576910
Link 4 54 287 0 -2.98466488
Link 13 25 333 1 -3.84281597
Link 25 54 540 0 1.76641719
Link 54 16 582 0 1.72538461
Link 15 54 606 1 0.94467320
Link 49 54 649 0 0.67598639
Link 43 178 1219 0 0.81196683
Link 178 193 1310 0 1.01168047
Link 193 16 1311 0 1.41640279
Link 203 38 1369 0 -1.72723642
Link 23 16 1404 0 -0.22460738
Link 8 23 1488 0 -5.33822693
Link 6 25 1508 0 -3.29847237
Link 49 39 1948 0 0.69211392
Link 5 178 2212 0 -1.25002126
Link 2 203 2318 0 -1.61859426
Link 14 28 2319 1 2.22258974
Link 7 203 2943 0 0.62714614
Link 39 416 3075 0 1.02188097
Link 1 178 3238 0 0.34715880
Link 464 23 3601 0 -1.62572381
Link 203 39 3639 0 -0.28341855
Link 178 469 3648 1 1.00089733
Link 469 203 3649 1 -3.11471657
Link 25 20 4319 0 -0.02161826
Link 552 464 4422 0 0.99468197
Link 43 469 4433 0 -0.04741527
Link 416 589 4861 0 1.00000000
Link 589 25 4862 0 2.17008349
Link 59 628 5317 0 0.97851897
Link 628 552 5318 0 1.00000000
Link 8 464 5364 0 -0.97390655
GenomeEnd

