GenomeStart 100608
Neuron 1 1 0.00000000 1 0.00000000 0.00000000 0.00000000 0.00000000
Neuron 2 1 0.00000000 1 0.00000000 0.00000000 0.00000000 0.00000000
Neuron 3 1 0.00000000 1 0.00000000 0.00000000 0.00000000 0.00000000
Neuron 4 1 0.00000000 1 0.00000000 0.00000000 0.00000000 0.00000000
Neuron 5 1 0.00000000 1 0.00000000 0.00000000 0.00000000 0.00000000
Neuron 6 1 0.00000000 1 0.00000000 0.00000000 0.00000000 0.00000000
Neuron 7 1 0.00000000 1 0.00000000 0.00000000 0.00000000 0.00000000
Neuron 8 1 0.00000000 1 0.00000000 0.00000000 0.00000000 0.00000000
Neuron 9 2 0.00000000 1 0.00000000 0.00000000 0.00000000 0.00000000
Neuron 10 4 1.00000000 0 1.00000000 0.00000000 0.00000000 0.00000000
Neuron 11 4 1.00000000 0 1.00000000 0.00000000 0.00000000 0.00000000
Neuron 12 4 1.00000000 0 1.00000000 0.00000000 0.00000000 0.00000000
Neuron 13 4 1.00000000 0 1.00000000 0.00000000 0.00000000 0.00000000
Neuron 14 4 1.00000000 0 1.00000000 0.00000000 0.00000000 0.00000000
Neuron 15 4 1.00000000 0 1.00000000 0.00000000 0.00000000 0.00000000
Neuron 16 4 1.00000000 0 1.00000000 0.00000000 0.00000000 0.00000000
Neuron 17 3 0.50000000 1 1.00000000 0.00000000 0.00000000 0.00000000
Neuron 18 3 0.50000000 1 1.00000000 0.00000000 0.00000000 0.00000000
Neuron 20 3 0.50000000 1 1.00000000 0.00000000 0.00000000 0.00000000
Neuron 21 3 0.50000000 1 1.00000000 0.00000000 0.00000000 0.00000000
Neuron 22 3 0.50000000 1 1.00000000 0.00000000 0.00000000 0.00000000
Neuron 23 3 0.50000000 1 1.00000000 0.00000000 0.00000000 0.00000000
Neuron 24 3 0.50000000 1 1.00000000 0.00000000 0.00000000 0.00000000
Neuron 26 3 0.50000000 1 1.00000000 0.00000000 0.00000000 0.00000000
Neuron 27 3 0.50000000 1 1.00000000 0.00000000 0.00000000 0.00000000
Neuron 28 3 0.50000000 1 1.00000000 0.00000000 0.00000000 0.00000000
Neuron 29 3 0.50000000 1 1.00000000 0.00000000 0.00000000 0.00000000
Neuron 30 3 0.50000000 1 1.00000000 0.00000000 0.00000000 0.00000000
Neuron 32 3 0.50000000 1 1.00000000 0.00000000 0.00000000 0.00000000
Neuron 34 3 0.50000000 1 1.00000000 0.00000000 0.00000000 0.00000000
Neuron 38 3 0.50000000 1 1.00000000 0.00000000 0.00000000 0.00000000
Neuron 41 3 0.50000000 1 1.00000000 0.00000000 0.00000000 0.00000000
Neuron 42 3 0.50000000 1 1.00000000 0.00000000 0.00000000 0.00000000
Neuron 45 3 0.50000000 1 1.00000000 0.00000000 0.00000000 0.00000000
Neuron 49 3 0.50000000 1 1.00000000 0.00000000 0.00000000 0.00000000
Neuron 50 3 0.50000000 1 1.00000000 0.00000000 0.00000000 0.00000000
Neuron 51 3 0.50000000 1 1.00000000 0.00000000 0.00000000 0.00000000
Neuron 52 3 0.50000000 1 1.00000000 0.00000000 0.00000000 0.00000000
Neuron 57 3 0.50000000 1 1.00000000 0.00000000 0.00000000 0.00000000
Neuron 58 3 0.50000000 1 1.00000000 0.00000000 0.00000000 0.00000000
Neuron 60 3 0.50000000 1 1.00000000 0.00000000 0.00000000 0.00000000
Neuron 62 3 0.50000000 1 1.00000000 0.00000000 0.00000000 0.00000000
Neuron 65 3 0.50000000 1 1.00000000 0.00000000 0.00000000 0.00000000
Neuron 69 3 0.50000000 1 1.00000000 0.00000000 0.00000000 0.00000000
Neuron 71 3 0.50000000 1 1.00000000 0.00000000 0.00000000 0.00000000
Neuron 72 3 0.75000000 1 1.00000000 0.00000000 0.00000000 0.00000000
Neuron 74 3 0.50000000 1 1.00000000 0.00000000 0.00000000 0.00000000
Neuron 75 3 0.50000000 1 1.00000000 0.00000000 0.00000000 0.00000000
Neuron 79 3 0.75000000 1 1.00000000 0.00000000 0.00000000 0.00000000
Neuron 80 3 0.25000000 1 1.00000000 0.00000000 0.00000000 0.00000000
Neuron 83 3 0.25000000 1 1.00000000 0.00000000 0.00000000 0.00000000
Neuron 92 3 0.25000000 1 1.00000000 0.00000000 0.00000000 0.00000000
Neuron 97 3 0.25000000 1 1.00000000 0.00000000 0.00000000 0.00000000
Neuron 100 3 0.25000000 1 1.00000000 0.00000000 0.00000000 0.00000000
Neuron 104 3 0.25000000 1 1.00000000 0.00000000 0.00000000 0.00000000
Neuron 111 3 0.75000000 1 1.00000000 0.00000000 0.00000000 0.00000000
Neuron 123 3 0.37500000 1 1.00000000 0.00000000 0.00000000 0.00000000
Neuron 138 3 0.75000000 1 1.00000000 0.00000000 0.00000000 0.00000000
Neuron 144 3 0.25000000 1 1.00000000 0.00000000 0.00000000 0.00000000
Neuron 155 3 0.25000000 1 1.00000000 0.00000000 0.00000000 0.00000000
Neuron 167 3 0.75000000 1 1.00000000 0.00000000 0.00000000 0.00000000
Neuron 170 3 0.25000000 1 1.00000000 0.00000000 0.00000000 0.00000000
Neuron 181 3 0.75000000 1 1.00000000 0.00000000 0.00000000 0.00000000
Neuron 185 3 0.62500000 1 1.00000000 0.00000000 0.00000000 0.00000000
Neuron 193 3 0.50000000 1 1.00000000 0.00000000 0.00000000 0.00000000
Neuron 194 3 0.31250000 1 1.00000000 0.00000000 0.00000000 0.00000000
Neuron 197 3 0.75000000 1 1.00000000 0.00000000 0.00000000 0.00000000
Neuron 204 3 0.25000000 1 1.00000000 0.00000000 0.00000000 0.00000000
Neuron 211 3 0.37500000 1 1.00000000 0.00000000 0.00000000 0.00000000
Neuron 213 3 0.75000000 1 1.00000000 0.00000000 0.00000000 0.00000000
Neuron 224 3 0.25000000 1 1.00000000 0.00000000 0.00000000 0.00000000
Neuron 227 3 0.75000000 1 1.00000000 0.00000000 0.00000000 0.00000000
Neuron 241 3 0.12500000 1 1.00000000 0.00000000 0.00000000 0.00000000
Neuron 247 3 0.87500000 1 1.00000000 0.00000000 0.00000000 0.00000000
Neuron 250 3 0.62500000 1 1.00000000 0.00000000 0.00000000 0.00000000
Neuron 251 3 0.75000000 1 1.00000000 0.00000000 0.00000000 0.00000000
Neuron 253 3 0.75000000 1 1.00000000 0.00000000 0.00000000 0.00000000
Neuron 259 3 0.12500000 1 1.00000000 0.00000000 0.00000000 0.00000000
Neuron 268 3 0.50000000 1 1.00000000 0.00000000 0.00000000 0.00000000
Neuron 272 3 0.25000000 1 1.00000000 0.00000000 0.00000000 0.00000000
Neuron 280 3 0.25000000 1 1.00000000 0.00000000 0.00000000 0.00000000
Neuron 287 3 0.50000000 1 1.00000000 0.00000000 0.00000000 0.00000000
Neuron 305 3 0.25000000 1 1.00000000 0.00000000 0.00000000 0.00000000
Neuron 312 3 0.25000000 1 1.00000000 0.00000000 0.00000000 0.00000000
Neuron 323 3 0.12500000 1 1.00000000 0.00000000 0.00000000 0.00000000
Neuron 330 3 0.37500000 1 1.00000000 0.00000000 0.00000000 0.00000000
Neuron 331 3 0.50000000 1 1.00000000 0.00000000 0.00000000 0.00000000
Neuron 364 3 0.87500000 1 1.00000000 0.00000000 0.00000000 0.00000000
Neuron 369 3 0.37500000 1 1.00000000 0.00000000 0.00000000 0.00000000
Neuron 376 3 0.75000000 1 1.00000000 0.00000000 0.00000000 0.00000000
Neuron 383 3 0.50000000 1 1.00000000 0.00000000 0.00000000 0.00000000
Neuron 385 3 0.25000000 1 1.00000000 0.00000000 0.00000000 0.00000000
Neuron 433 3 0.50000000 1 1.00000000 0.00000000 0.00000000 0.00000000
Neuron 450 3 0.50000000 1 1.00000000 0.00000000 0.00000000 0.00000000
Neuron 457 3 0.37500000 1 1.00000000 0.00000000 0.00000000 0.00000000
Neuron 466 3 0.62500000 1 1.00000000 0.00000000 0.00000000 0.00000000
Neuron 488 3 0.25000000 1 1.00000000 0.00000000 0.00000000 0.00000000
Neuron 511 3 0.50000000 1 1.00000000 0.00000000 0.00000000 0.00000000
Neuron 515 3 0.37500000 1 1.00000000 0.00000000 0.00000000 0.00000000
Neuron 517 3 0.50000000 1 1.00000000 0.00000000 0.00000000 0.00000000
Neuron 527 3 0.75000000 1 1.00000000 0.00000000 0.00000000 0.00000000
Neuron 531 3 0.50000000 1 1.00000000 0.00000000 0.00000000 0.00000000
Neuron 537 3 0.50000000 1 1.00000000 0.00000000 0.00000000 0.00000000
Neuron 542 3 0.12500000 1 1.00000000 0.00000000 0.00000000 0.00000000
Neuron 552 3 0.75000000 1 1.00000000 0.00000000 0.00000000 0.00000000
Neuron 566 3 0.50000000 1 1.00000000 0.00000000 0.00000000 0.00000000
Neuron 579 3 0.37500000 1 1.00000000 0.00000000 0.00000000 0.00000000
Neuron 580 3 0.37500000 1 1.00000000 0.00000000 0.00000000 0.00000000
Neuron 588 3 0.50000000 1 1.00000000 0.00000000 0.00000000 0.00000000
Neuron 607 3 0.50000000 1 1.00000000 0.00000000 0.00000000 0.00000000
Neuron 611 3 0.12500000 1 1.00000000 0.00000000 0.00000000 0.00000000
Neuron 635 3 0.31250000 1 1.00000000 0.00000000 0.00000000 0.00000000
Neuron 647 3 0.50000000 1 1.00000000 0.00000000 0.00000000 0.00000000
Neuron 650 3 0.75000000 1 1.00000000 0.00000000 0.00000000 0.00000000
Neuron 681 3 0.50000000 1 1.00000000 0.00000000 0.00000000 0.00000000
Neuron 689 3 0.12500000 1 1.00000000 0.00000000 0.00000000 0.00000000
Neuron 690 3 0.87500000 1 1.00000000 0.00000000 0.00000000 0.00000000
Neuron 697 3 0.75000000 1 1.00000000 0.00000000 0.00000000 0.00000000
Neuron 719 3 0.50000000 1 1.00000000 0.00000000 0.00000000 0.00000000
Neuron 723 3 0.50000000 1 1.00000000 0.00000000 0.00000000 0.00000000
Neuron 733 3 0.12500000 1 1.00000000 0.00000000 0.00000000 0.00000000
Neuron 738 3 0.25000000 1 1.00000000 0.00000000 0.00000000 0.00000000
Neuron 745 3 0.43750000 1 1.00000000 0.00000000 0.00000000 0.00000000
Neuron 750 3 0.43750000 1 1.00000000 0.00000000 0.00000000 0.00000000
Neuron 756 3 0.12500000 1 1.00000000 0.00000000 0.00000000 0.00000000
Neuron 758 3 0.28125000 1 1.00000000 0.00000000 0.00000000 0.00000000
Neuron 764 3 0.50000000 1 1.00000000 0.00000000 0.00000000 0.00000000
Neuron 771 3 0.62500000 1 1.00000000 0.00000000 0.00000000 0.00000000
Neuron 778 3 0.50000000 1 1.00000000 0.00000000 0.00000000 0.00000000
Neuron 810 3 0.68750000 1 1.00000000 0.00000000 0.00000000 0.00000000
Neuron 811 3 0.50000000 1 1.00000000 0.00000000 0.00000000 0.00000000
Neuron 823 3 0.62500000 1 1.00000000 0.00000000 0.00000000 0.00000000
Neuron 826 3 0.37500000 1 1.00000000 0.00000000 0.00000000 0.00000000
Neuron 827 3 0.25000000 1 1.00000000 0.00000000 0.00000000 0.00000000
Neuron 842 3 0.50000000 1 1.00000000 0.00000000 0.00000000 0.00000000
Neuron 850 3 0.50000000 1 1.00000000 0.00000000 0.00000000 0.00000000
Neuron 862 3 0.62500000 1 1.00000000 0.00000000 0.00000000 0.00000000
Neuron 863 3 0.43750000 1 1.00000000 0.00000000 0.00000000 0.00000000
Neuron 864 3 0.50000000 1 1.00000000 0.00000000 0.00000000 0.00000000
Neuron 874 3 0.50000000 1 1.00000000 0.00000000 0.00000000 0.00000000
Neuron 878 3 0.87500000 1 1.00000000 0.00000000 0.00000000 0.00000000
Neuron 885 3 0.25000000 1 1.00000000 0.00000000 0.00000000 0.00000000
Neuron 913 3 0.34375000 1 1.00000000 0.00000000 0.00000000 0.00000000
Neuron 916 3 0.43750000 1 1.00000000 0.00000000 0.00000000 0.00000000
Neuron 925 3 0.56250000 1 1.00000000 0.00000000 0.00000000 0.00000000
Neuron 928 3 0.75000000 1 1.00000000 0.00000000 0.00000000 0.00000000
Neuron 930 3 0.81250000 1 1.00000000 0.00000000 0.00000000 0.00000000
Neuron 940 3 0.62500000 1 1.00000000 0.00000000 0.00000000 0.00000000
Neuron 943 3 0.50000000 1 1.00000000 0.00000000 0.00000000 0.00000000
Neuron 945 3 0.37500000 1 1.00000000 0.00000000 0.00000000 0.00000000
Neuron 952 3 0.62500000 1 1.00000000 0.00000000 0.00000000 0.00000000
Neuron 958 3 0.62500000 1 1.00000000 0.00000000 0.00000000 0.00000000
Neuron 962 3 0.43750000 1 1.00000000 0.00000000 0.00000000 0.00000000
Neuron 965 3 0.56250000 1 1.00000000 0.00000000 0.00000000 0.00000000
Neuron 968 3 0.81250000 1 1.00000000 0.00000000 0.00000000 0.00000000
Neuron 972 3 0.59375000 1 1.00000000 0.00000000 0.00000000 0.00000000
Neuron 975 3 0.43750000 1 1.00000000 0.00000000 0.00000000 0.00000000
Neuron 978 3 0.40625000 1 1.00000000 0.00000000 0.00000000 0.00000000
Neuron 980 3 0.12500000 1 1.00000000 0.00000000 0.00000000 0.00000000
Neuron 986 3 0.50000000 1 1.00000000 0.00000000 0.00000000 0.00000000
Neuron 998 3 0.56250000 1 1.00000000 0.00000000 0.00000000 0.00000000
Neuron 999 3 0.31250000 1 1.00000000 0.00000000 0.00000000 0.00000000
Neuron 1001 3 0.37500000 1 1.00000000 0.00000000 0.00000000 0.00000000
Neuron 1020 3 0.31250000 1 1.00000000 0.00000000 0.00000000 0.00000000
Neuron 1024 3 0.25000000 1 1.00000000 0.00000000 0.00000000 0.00000000
Neuron 1027 3 0.56250000 1 1.00000000 0.00000000 0.00000000 0.00000000
Neuron 1032 3 0.62500000 1 1.00000000 0.00000000 0.00000000 0.00000000
Neuron 1038 3 0.50000000 1 1.00000000 0.00000000 0.00000000 0.00000000
Neuron 1051 3 0.50000000 1 1.00000000 0.00000000 0.00000000 0.00000000
Neuron 1058 3 0.87500000 1 1.00000000 0.00000000 0.00000000 0.00000000
Neuron 1069 3 0.56250000 1 1.00000000 0.00000000 0.00000000 0.00000000
Neuron 1070 3 0.75000000 1 1.00000000 0.00000000 0.00000000 0.00000000
Neuron 1071 3 0.25000000 1 1.00000000 0.00000000 0.00000000 0.00000000
Neuron 1093 3 0.43750000 1 1.00000000 0.00000000 0.00000000 0.00000000
Neuron 1096 3 0.25000000 1 1.00000000 0.00000000 0.00000000 0.00000000
Neuron 1115 3 0.37500000 1 1.00000000 0.00000000 0.00000000 0.00000000
Neuron 1116 3 0.40625000 1 1.00000000 0.00000000 0.00000000 0.00000000
Neuron 1122 3 0.50000000 1 1.00000000 0.00000000 0.00000000 0.00000000
Neuron 1149 3 0.50000000 1 1.00000000 0.00000000 0.00000000 0.00000000
Neuron 1165 3 0.75000000 1 1.00000000 0.00000000 0.00000000 0.00000000
Neuron 1262 3 0.50000000 1 1.00000000 0.00000000 0.00000000 0.00000000
Neuron 1268 3 0.50000000 1 1.00000000 0.00000000 0.00000000 0.00000000
Neuron 1274 3 0.25000000 1 1.00000000 0.00000000 0.00000000 0.00000000
Neuron 1307 3 0.50000000 1 1.00000000 0.00000000 0.00000000 0.00000000
Neuron 1334 3 0.50000000 1 1.00000000 0.00000000 0.00000000 0.00000000
Neuron 1342 3 0.62500000 1 1.00000000 0.00000000 0.00000000 0.00000000
Neuron 1365 3 0.43750000 1 1.00000000 0.00000000 0.00000000 0.00000000
Neuron 1381 3 0.50000000 1 1.00000000 0.00000000 0.00000000 0.00000000
Neuron 1384 3 0.62500000 1 1.00000000 0.00000000 0.00000000 0.00000000
Neuron 1404 3 0.50000000 1 1.00000000 0.00000000 0.00000000 0.00000000
Neuron 1433 3 0.40625000 1 1.00000000 0.00000000 0.00000000 0.00000000
Neuron 1452 3 0.50000000 1 1.00000000 0.00000000 0.00000000 0.00000000
Neuron 1456 3 0.75000000 1 1.00000000 0.00000000 0.00000000 0.00000000
Neuron 1478 3 0.81250000 1 1.00000000 0.00000000 0.00000000 0.00000000
Neuron 1578 3 0.43750000 1 1.00000000 0.00000000 0.00000000 0.00000000
Neuron 1586 3 0.93750000 1 1.00000000 0.00000000 0.00000000 0.00000000
Neuron 1596 3 0.62500000 1 1.00000000 0.00000000 0.00000000 0.00000000
Neuron 1653 3 0.50000000 1 1.00000000 0.00000000 0.00000000 0.00000000
Neuron 1657 3 0.50000000 1 1.00000000 0.00000000 0.00000000 0.00000000
Neuron 1688 3 0.50000000 1 1.00000000 0.00000000 0.00000000 0.00000000
Neuron 1700 3 0.50000000 1 1.00000000 0.00000000 0.00000000 0.00000000
Neuron 1720 3 0.37500000 1 1.00000000 0.00000000 0.00000000 0.00000000
Neuron 1724 3 0.12500000 1 1.00000000 0.00000000 0.00000000 0.00000000
Neuron 1748 3 0.59375000 1 1.00000000 0.00000000 0.00000000 0.00000000
Neuron 1779 3 0.68750000 1 1.00000000 0.00000000 0.00000000 0.00000000
Neuron 1831 3 0.32812500 1 1.00000000 0.00000000 0.00000000 0.00000000
Neuron 1890 3 0.60937500 1 1.00000000 0.00000000 0.00000000 0.00000000
Neuron 1905 3 0.62500000 1 1.00000000 0.00000000 0.00000000 0.00000000
Neuron 1914 3 0.28125000 1 1.00000000 0.00000000 0.00000000 0.00000000
Neuron 2008 3 0.43750000 1 1.00000000 0.00000000 0.00000000 0.00000000
Link 1 10 1 0 -1.72032656
Link 3 10 3 0 0.52779795
Link 4 10 4 0 -1.78818827
Link 5 10 5 0 -0.17448966
Link 6 10 6 0 0.88930428
Link 7 10 7 0 -2.56489578
Link 9 10 9 0 0.27942201
Link 1 11 10 0 -5.07207827
Link 2 11 11 0 -1.51393730
Link 3 11 12 0 5.65123699
Link 5 11 14 0 0.90681840
Link 6 11 15 0 0.39663225
Link 8 11 17 0 1.78984926
Link 9 11 18 0 2.25368671
Link 1 12 19 0 -3.10728841
Link 6 12 24 0 -4.44163514
Link 7 12 25 0 3.45039726
Link 8 12 26 0 0.79210830
Link 9 12 27 0 0.21597105
Link 3 13 30 0 0.50770340
Link 4 13 31 0 -0.58239545
Link 5 13 32 0 3.08991701
Link 7 13 34 0 -3.27746428
Link 8 13 35 0 2.24989656
Link 9 13 36 0 0.51333078
Link 2 14 38 0 -4.67897004
Link 5 14 41 0 3.68561813
Link 9 14 45 0 -0.68762094
Link 1 15 46 0 -6.38320993
Link 2 15 47 0 -2.40348310
Link 7 15 52 0 -0.64864562
Link 9 15 54 0 1.15030292
Link 1 16 55 0 -1.56636393
Link 2 16 56 0 1.85116687
Link 3 16 57 0 1.40103283
Link 4 16 58 0 3.21983029
Link 5 16 59 0 4.62379128
Link 7 16 61 0 -1.81178558
Link 8 16 62 0 0.73925859
Link 9 16 63 0 -0.32856219
Link 17 14 66 0 1.15267809
Link 18 16 69 0 2.08024229
Link 4 20 74 0 0.21919474
Link 20 12 75 0 -1.97453155
Link 5 21 77 0 3.46224549
Link 21 16 78 0 0.68594981
Link 1 22 80 0 -0.00735468
Link 1 23 83 0 -0.00819461
Link 23 10 84 0 2.23183844
Link 8 26 92 0 1.10697087
Link 26 10 93 0 -2.32134572
Link 6 27 95 0 3.17388821
Link 6 29 101 0 0.38603838
Link 29 15 102 0 0.16284065
Link 1 30 104 0 -0.54264292
Link 30 13 105 0 -3.28951863
Link 3 32 110 0 0.35206384
Link 38 12 131 0 2.85842841
Link 41 15 141 0 -0.09566795
Link 42 16 145 0 -1.17455354
Link 2 45 153 0 4.10166509
Link 49 12 168 0 3.33833724
Link 7 50 170 0 0.23245606
Link 50 13 171 0 0.07048870
Link 6 32 177 0 0.47848398
Link 4 51 183 0 -0.45259180
Link 51 15 184 0 -1.27103867
Link 6 52 186 0 -1.44265232
Link 52 13 187 0 -0.39129277
Link 8 57 213 0 1.02051006
Link 57 15 214 0 -0.26844030
Link 8 58 216 0 1.17648123
Link 58 13 217 0 2.85942391
Link 4 60 226 0 -0.64848358
Link 60 11 227 0 -2.09163562
Link 3 65 250 0 -1.15554227
Link 65 16 251 0 0.83742862
Link 2 69 283 0 4.02795831
Link 69 10 284 0 1.87501630
Link 9 23 300 0 3.87811954
Link 22 72 306 0 -1.62345465
Link 2 74 318 0 3.24590032
Link 74 13 319 0 -1.38317653
Link 23 12 323 0 -0.16321735
Link 79 14 355 0 -1.13844751
Link 6 23 377 0 -0.55926343
Link 3 83 392 0 0.23003098
Link 83 32 393 0 -0.09519133
Link 14 75 411 1 -3.22832435
Link 2 92 461 0 1.90775311
Link 9 22 483 0 5.06638195
Link 2 97 486 0 -6.05440008
Link 12 12 499 1 2.49331478
Link 2 100 522 0 -0.20439291
Link 100 38 523 0 3.23938804
Link 22 22 530 1 -0.49817896
Link 5 104 561 0 2.04408330
Link 7 75 585 0 -1.86028303
Link 34 16 590 0 -1.99499357
Link 111 14 602 0 -3.55793703
Link 16 49 674 1 2.32648255
Link 4 41 731 0 1.20044932
Link 97 123 743 0 -2.04942130
Link 123 18 744 0 1.06314151
Link 45 32 772 0 -3.09234148
Link 71 138 852 0 0.23534862
Link 138 11 853 0 -2.76920050
Link 45 10 867 0 -1.41968915
Link 2 144 883 0 -0.42782536
Link 14 22 976 1 -0.00851252
Link 155 34 980 0 -0.46766897
Link 28 167 1065 0 -3.50981005
Link 167 11 1066 0 -1.60530985
Link 181 16 1153 0 -0.47779160
Link 24 16 1183 0 -0.76984803
Link 62 185 1188 0 1.70453631
Link 185 111 1189 0 -0.04601167
Link 7 193 1248 0 2.79018364
Link 193 14 1249 0 -2.37107284
Link 24 24 1252 1 5.39160732
Link 97 194 1257 0 -3.27304466
Link 194 123 1258 0 -3.77238176
Link 5 62 1262 0 1.44222029
Link 45 197 1283 0 3.95940383
Link 197 14 1284 0 2.56180509
Link 3 204 1327 0 3.83480276
Link 92 211 1385 0 -2.75961719
Link 75 213 1392 0 2.46102308
Link 213 10 1393 0 -1.21810287
Link 224 23 1448 0 3.44673512
Link 32 227 1465 0 0.42081380
Link 227 10 1466 0 -1.00663078
Link 155 155 1471 1 0.84998077
Link 4 28 1485 0 1.74955208
Link 9 62 1561 0 -0.57267358
Link 7 241 1584 0 -2.60788821
Link 241 155 1585 0 -2.10068720
Link 79 247 1611 0 -0.05040667
Link 24 250 1631 0 -1.14366960
Link 250 79 1632 0 -1.47910607
Link 251 11 1641 0 1.03479626
Link 253 11 1662 0 0.04829625
Link 60 45 1678 0 3.27825766
Link 6 259 1726 0 -0.84196980
Link 259 224 1727 0 -2.16813381
Link 1 268 1780 0 1.53690034
Link 268 14 1781 0 -3.77738391
Link 7 272 1794 0 -0.48944177
Link 272 71 1795 0 -1.86761321
Link 4 280 1837 0 -0.57607028
Link 287 12 1878 0 -0.40734805
Link 305 62 1987 0 -1.68076591
Link 2 323 2119 0 -1.08245770
Link 323 92 2120 0 -2.30526079
Link 155 330 2151 0 -1.36205100
Link 330 34 2152 0 -0.60874668
Link 2 331 2161 0 4.13059752
Link 331 13 2162 0 1.88815333
Link 50 23 2181 0 1.12445124
Link 49 75 2215 0 1.63789393
Link 268 23 2275 0 -2.60272829
Link 13 49 2329 1 -1.82326862
Link 364 14 2390 0 2.21658579
Link 144 369 2419 0 1.85339758
Link 369 41 2420 0 -0.13299841
Link 287 376 2461 0 -0.83771447
Link 376 12 2462 0 -2.38379730
Link 60 383 2521 0 -1.77156607
Link 383 75 2522 0 2.06151223
Link 155 24 2525 0 -0.96824121
Link 4 385 2531 0 1.90333395
Link 385 17 2532 0 3.54538031
Link 7 52 2569 0 -5.13345530
Link 4 144 2710 0 -0.13500427
Link 75 433 2861 0 0.67895857
Link 9 27 2900 0 1.80660442
Link 24 197 2932 0 -4.89701832
Link 18 450 2977 1 -2.27528616
Link 450 18 2978 1 -0.69161267
Link 28 18 3010 0 0.99042844
Link 170 457 3039 0 4.65093208
Link 457 28 3040 0 0.57509966
Link 45 466 3099 0 0.65106287
Link 12 305 3101 1 0.88337265
Link 23 287 3180 0 -0.61307834
Link 27 27 3210 1 2.19292899
Link 488 27 3276 0 2.14540523
Link 450 450 3414 1 1.19204167
Link 41 511 3449 0 1.03199708
Link 511 24 3450 0 -3.66071015
Link 450 517 3494 1 1.50702443
Link 517 18 3495 1 4.27425796
Link 51 42 3537 0 -1.77677574
Link 27 527 3565 0 1.00000000
Link 527 14 3566 0 -0.50637179
Link 24 537 3633 0 0.07297868
Link 537 32 3634 0 3.03792307
Link 7 542 3654 0 -1.67054104
Link 542 170 3655 0 -0.52328233
Link 287 75 3656 0 2.35133665
Link 75 92 3700 1 0.70747557
Link 62 552 3711 0 -1.02837210
Link 552 14 3712 0 2.45628951
Link 369 49 3779 0 -0.76016714
Link 32 253 3799 0 -6.21297314
Link 287 566 3827 0 0.77826110
Link 566 75 3828 0 -1.28959958
Link 144 144 3836 1 1.14298685
Link 3 450 3942 0 1.38444987
Link 27 16 3943 0 0.02787037
Link 97 579 3979 0 0.29253534
Link 580 24 3995 0 -0.31597954
Link 588 22 4046 1 -2.50700224
Link 580 23 4150 0 -0.27815637
Link 123 14 4167 0 0.07926435
Link 34 607 4212 0 5.29624203
Link 607 75 4213 0 -0.15088524
Link 8 611 4239 0 1.95093283
Link 611 305 4240 0 0.07417602
Link 155 287 4312 0 -2.45721702
Link 72 305 4397 1 2.23535034
Link 18 647 4485 1 0.85550375
Link 647 450 4486 1 -1.22254278
Link 18 80 4501 1 -2.71899879
Link 650 14 4512 0 -0.13890882
Link 45 681 4758 0 2.22613229
Link 681 71 4759 0 -3.93693215
Link 3 689 4809 0 -1.94867710
Link 689 80 4810 0 -2.04749349
Link 253 690 4816 0 1.88548489
Link 690 11 4817 0 -1.97977228
Link 18 305 4841 1 1.15544115
Link 697 75 4883 1 -1.27351310
Link 376 45 5030 1 0.18225208
Link 32 719 5047 0 -1.89017290
Link 531 723 5078 0 1.47189797
Link 16 42 5139 1 2.74631902
Link 733 488 5177 0 0.91315812
Link 738 450 5218 0 -0.87362082
Link 580 745 5265 0 0.79605351
Link 745 23 5266 0 0.18184590
Link 211 213 5280 0 -3.66664637
Link 450 22 5284 0 1.81234514
Link 457 750 5319 0 0.92990482
Link 750 52 5320 0 -1.45527036
Link 6 756 5358 0 -0.30648139
Link 756 312 5359 0 -1.59647385
Link 80 758 5366 0 0.02434689
Link 758 635 5367 0 -0.75817339
Link 42 764 5419 0 -4.31265041
Link 764 18 5420 0 -0.87065836
Link 369 71 5443 0 1.55285565
Link 75 771 5494 0 -1.28691597
Link 771 253 5495 0 2.59105130
Link 24 778 5543 1 0.09140821
Link 778 24 5544 1 3.97821863
Link 537 287 5558 0 -3.44828363
Link 62 531 5569 0 1.78692418
Link 9 123 5597 0 -0.65533322
Link 170 18 5618 0 2.84545468
Link 41 28 5777 0 -0.35873286
Link 466 810 5832 0 -0.00773415
Link 810 197 5833 0 -0.13266555
Link 3 466 5834 0 -0.03115550
Link 60 823 5913 0 0.23880423
Link 49 826 5941 1 1.00000000
Link 826 144 5942 1 -2.38402868
Link 2 827 5947 0 1.01167702
Link 827 588 5948 0 1.27633113
Link 18 213 6013 0 -0.39658661
Link 6 57 6075 0 1.77638323
Link 144 14 6076 0 1.68895420
Link 450 842 6080 0 0.51339025
Link 842 22 6081 0 2.88879452
Link 60 213 6121 0 0.76612634
Link 588 850 6141 1 0.77273837
Link 23 580 6211 1 3.08363184
Link 376 862 6241 1 1.67853703
Link 211 863 6245 0 -0.71294676
Link 863 75 6246 0 2.46392776
Link 62 864 6251 0 2.00109885
Link 450 874 6330 1 2.07176210
Link 874 450 6331 1 3.40358831
Link 14 878 6357 1 0.90986699
Link 885 23 6395 0 -0.97460190
Link 155 588 6396 0 -1.15728564
Link 2 259 6423 0 -0.84361807
Link 5 450 6479 0 -2.26798269
Link 45 771 6541 0 -0.60974897
Link 635 913 6626 0 1.62341904
Link 913 580 6627 0 0.71791423
Link 457 916 6648 0 0.76924159
Link 916 28 6649 0 -1.42560591
Link 181 531 6678 1 -1.83578150
Link 75 925 6704 0 -0.77641702
Link 75 450 6742 0 0.96780087
Link 71 928 6746 0 1.79965655
Link 928 10 6747 0 0.44352500
Link 878 930 6760 1 1.07126323
Link 930 697 6761 1 1.63180187
Link 42 940 6863 0 0.78535857
Link 940 181 6864 0 1.30394005
Link 75 943 6882 0 1.55722061
Link 312 945 6903 0 1.74660473
Link 8 764 6905 0 -2.77843483
Link 60 224 6947 1 1.31465975
Link 181 952 6965 1 -0.69715914
Link 952 531 6966 1 -2.07501311
Link 60 958 7024 0 -0.48841553
Link 958 213 7025 0 1.33844181
Link 330 962 7070 0 -1.65986221
Link 962 52 7071 0 -3.67757512
Link 123 965 7111 0 -0.19266094
Link 965 181 7112 0 -0.77540751
Link 72 968 7126 0 0.34046377
Link 968 364 7127 0 2.97322927
Link 925 972 7166 0 0.85136458
Link 972 771 7167 0 2.61973375
Link 975 41 7207 0 1.57430676
Link 330 978 7241 0 1.25614098
Link 978 962 7242 0 -2.64776419
Link 3 980 7269 0 1.32850342
Link 980 738 7270 0 5.78084954
Link 723 986 7311 0 1.90480292
Link 170 170 7366 1 1.52617381
Link 45 998 7412 0 0.13003067
Link 998 771 7413 0 -0.96679435
Link 280 999 7415 0 0.46493519
Link 999 515 7416 0 -1.51713718
Link 104 1001 7435 0 -0.62326298
Link 1001 28 7436 0 -2.32112913
Link 253 376 7504 0 2.12414017
Link 52 79 7529 0 -1.55252375
Link 3 1020 7602 0 -1.58215763
Link 1020 466 7603 0 -4.60216193
Link 756 466 7616 0 0.43254270
Link 8 1024 7628 0 1.28660041
Link 1024 52 7629 0 0.09970470
Link 75 1027 7639 0 1.14237190
Link 1027 771 7640 0 -2.63576362
Link 28 1032 7689 0 0.94062357
Link 1032 167 7690 0 -2.61020046
Link 60 1038 7739 0 -1.22489251
Link 170 1051 7839 0 1.81866633
Link 1051 197 7840 0 -4.11747384
Link 253 1058 7912 0 1.11734258
Link 1058 11 7913 0 -0.80349928
Link 280 376 7942 0 -0.81715365
Link 862 1069 8003 1 2.86686696
Link 1069 287 8004 1 0.64156693
Link 28 1070 8006 0 -0.38148503
Link 1070 11 8007 0 -2.59824954
Link 6 1071 8010 0 4.35766995
Link 1071 42 8011 0 1.25492831
Link 579 1093 8164 0 -0.65256228
Link 1093 23 8165 0 -0.06921150
Link 5 1096 8181 0 -0.46545694
Link 1096 28 8182 0 -3.28777004
Link 287 22 8218 0 -0.48514487
Link 204 1115 8337 0 2.22537690
Link 1115 49 8338 0 1.79144535
Link 515 1116 8340 0 0.60831505
Link 1116 975 8341 0 0.65559547
Link 943 1122 8381 0 1.47217085
Link 1122 450 8382 0 -0.91720568
Link 27 383 8571 0 -0.90788984
Link 719 1149 8605 0 0.57444840
Link 1149 531 8606 0 -3.38998328
Link 450 62 8640 0 1.96021509
Link 52 466 8656 0 -1.76541537
Link 330 376 8709 0 0.06653163
Link 42 1165 8739 0 -0.56726757
Link 1165 16 8740 0 0.91580001
Link 27 197 8766 0 2.72978923
Link 537 65 8795 0 2.00382764
Link 194 193 9084 0 -0.22459314
Link 72 635 9214 1 -1.19895096
Link 1038 1262 9606 0 -1.43634704
Link 1268 28 9679 0 0.89902179
Link 975 155 9703 1 -1.13985301
Link 2 1274 9716 0 -0.28046498
Link 1274 28 9717 0 -1.83270108
Link 74 975 9908 1 2.68532525
Link 986 1307 10012 0 1.91816758
Link 1307 28 10013 0 0.38433576
Link 22 1334 10221 1 3.42553005
Link 1334 811 10222 1 1.42265768
Link 24 1342 10313 0 1.46922158
Link 1342 650 10314 0 2.67107491
Link 32 74 10453 0 -1.44067370
Link 323 170 10476 0 0.19952327
Link 1365 18 10479 0 -0.93879087
Link 80 50 10556 0 -1.29110088
Link 811 1381 10628 1 1.65504910
Link 1381 588 10629 1 -2.43644749
Link 213 1384 10658 1 -2.13943828
Link 1384 723 10659 1 0.71895515
Link 433 1404 10804 0 5.28933189
Link 1404 1268 10805 0 3.66243557
Link 980 213 10991 0 0.16134719
Link 330 1433 11043 0 1.25899087
Link 1433 1365 11044 0 1.13817795
Link 862 253 11104 0 2.40876520
Link 650 20 11169 1 2.82422858
Link 850 1452 11171 1 0.79135569
Link 1452 22 11172 1 -2.18675330
Link 827 28 11173 0 1.64608725
Link 1268 250 11192 0 2.33071741
Link 27 1456 11250 0 1.68308808
Link 1456 16 11251 0 -1.69254665
Link 369 27 11347 0 -0.99786234
Link 104 60 11397 0 -2.33395132
Link 928 1478 11440 0 0.43163849
Link 1478 364 11441 0 0.51525765
Link 92 204 11443 0 -1.56294446
Link 863 272 11665 1 2.27014035
Link 758 27 11854 0 2.90021604
Link 689 211 11861 0 3.26195244
Link 885 433 11913 0 0.50038564
Link 72 733 11926 1 1.94402999
Link 280 383 12066 0 2.65660142
Link 1268 11 12130 0 0.96137012
Link 580 52 12354 0 0.33033320
Link 241 1069 12369 0 0.22176771
Link 211 1578 12458 0 1.78084997
Link 1578 75 12459 0 0.01996205
Link 247 1586 12516 0 1.77705578
Link 1586 14 12517 0 -0.07832139
Link 1384 1596 12607 1 0.99292886
Link 1596 1384 12608 1 0.42673235
Link 885 697 12838 0 -0.72414094
Link 1038 1653 13176 0 -0.09569319
Link 1653 75 13177 0 -2.14738863
Link 45 1657 13221 0 2.60422304
Link 1657 71 13222 0 -1.12924885
Link 980 756 13293 0 -4.01290203
Link 312 488 13380 0 -2.49680109
Link 1262 1688 13554 0 1.96862301
Link 1688 75 13555 0 1.67704815
Link 204 204 13635 1 0.79116697
Link 104 1700 13682 0 4.99676832
Link 1700 928 13683 0 -0.56626810
Link 517 287 13739 0 -1.29161520
Link 287 1720 13895 1 3.00711958
Link 1720 738 13896 1 3.90516943
Link 719 1032 13923 0 4.55316340
Link 2 1724 13940 0 1.88786103
Link 1724 885 13941 0 -3.21273873
Link 1069 1027 13953 0 -0.44794478
Link 681 227 14048 0 -0.61954894
Link 925 1748 14149 0 3.73825417
Link 1384 280 14209 1 0.34359921
Link 864 975 14224 1 -1.28325321
Link 647 268 14249 0 -0.24427864
Link 517 517 14365 1 -0.42723184
Link 842 312 14413 1 -0.69801373
Link 733 57 14427 0 -0.77251145
Link 823 1779 14495 0 0.40276685
Link 1779 251 14496 0 -0.60437441
Link 998 272 14709 1 -1.42755918
Link 542 211 14813 0 -1.32421764
Link 22 1268 14867 0 2.05489265
Link 1116 1831 14919 1 0.82797248
Link 1831 80 14920 1 -3.22056378
Link 4 531 14989 0 -4.78895174
Link 1342 940 15175 0 1.28890560
Link 211 1748 15271 0 -1.60301580
Link 1365 60 15354 0 -3.02128609
Link 1748 1890 15448 0 0.53970193
Link 1890 771 15449 0 3.33450811
Link 689 972 15496 0 4.31297478
Link 850 864 15598 0 3.45846037
Link 681 1905 15654 0 2.38924875
Link 1905 79 15655 0 0.94488204
Link 647 738 15676 1 1.79462545
Link 4 1914 15755 0 1.87388449
Link 1914 1027 15756 0 -2.00014330
Link 272 1586 15909 0 1.06284728
Link 6 1334 16051 0 -0.00653853
Link 1307 864 16065 0 2.93346709
Link 272 138 16156 0 -1.16404151
Link 940 251 16202 0 -1.69971060
Link 1586 1586 16222 1 0.65675988
Link 1384 1058 16517 0 0.77757566
Link 756 810 16668 0 4.43350827
Link 945 2008 16688 0 2.17924000
Link 2008 42 16689 0 -1.42062702
Link 364 65 16734 1 4.84225615
Link 738 1262 16796 0 0.83822928
Link 1700 250 17065 0 1.71982783
Link 850 1381 17229 0 -1.39274892
Link 51 998 17262 0 1.96504891
Link 241 1262 17297 0 -2.21433843
Link 1149 16 17504 0 -0.51160340
Link 738 250 17529 0 3.17645052
Link 170 531 17893 0 1.87150694
Link 330 1334 17958 0 -2.24194321
GenomeEnd

