GenomeStart 115251
Neuron 1 1 0.00000000 1 0.00000000 0.00000000 0.00000000 0.00000000
Neuron 2 1 0.00000000 1 0.00000000 0.00000000 0.00000000 0.00000000
Neuron 3 1 0.00000000 1 0.00000000 0.00000000 0.00000000 0.00000000
Neuron 4 1 0.00000000 1 0.00000000 0.00000000 0.00000000 0.00000000
Neuron 5 1 0.00000000 1 0.00000000 0.00000000 0.00000000 0.00000000
Neuron 6 1 0.00000000 1 0.00000000 0.00000000 0.00000000 0.00000000
Neuron 7 1 0.00000000 1 0.00000000 0.00000000 0.00000000 0.00000000
Neuron 8 1 0.00000000 1 0.00000000 0.00000000 0.00000000 0.00000000
Neuron 9 2 0.00000000 1 0.00000000 0.00000000 0.00000000 0.00000000
Neuron 10 4 1.00000000 0 1.00000000 0.00000000 0.00000000 0.00000000
Neuron 11 4 1.00000000 0 1.00000000 0.00000000 0.00000000 0.00000000
Neuron 12 4 1.00000000 0 1.00000000 0.00000000 0.00000000 0.00000000
Neuron 13 4 1.00000000 0 1.00000000 0.00000000 0.00000000 0.00000000
Neuron 14 4 1.00000000 0 1.00000000 0.00000000 0.00000000 0.00000000
Neuron 15 4 1.00000000 0 1.00000000 0.00000000 0.00000000 0.00000000
Neuron 16 4 1.00000000 0 1.00000000 0.00000000 0.00000000 0.00000000
Neuron 17 3 0.50000000 1 1.00000000 0.00000000 0.00000000 0.00000000
Neuron 18 3 0.50000000 1 1.00000000 0.00000000 0.00000000 0.00000000
Neuron 20 3 0.50000000 1 1.00000000 0.00000000 0.00000000 0.00000000
Neuron 21 3 0.50000000 1 1.00000000 0.00000000 0.00000000 0.00000000
Neuron 22 3 0.50000000 1 1.00000000 0.00000000 0.00000000 0.00000000
Neuron 23 3 0.50000000 1 1.00000000 0.00000000 0.00000000 0.00000000
Neuron 24 3 0.50000000 1 1.00000000 0.00000000 0.00000000 0.00000000
Neuron 27 3 0.50000000 1 1.00000000 0.00000000 0.00000000 0.00000000
Neuron 28 3 0.50000000 1 1.00000000 0.00000000 0.00000000 0.00000000
Neuron 30 3 0.50000000 1 1.00000000 0.00000000 0.00000000 0.00000000
Neuron 32 3 0.50000000 1 1.00000000 0.00000000 0.00000000 0.00000000
Neuron 33 3 0.50000000 1 1.00000000 0.00000000 0.00000000 0.00000000
Neuron 34 3 0.50000000 1 1.00000000 0.00000000 0.00000000 0.00000000
Neuron 38 3 0.50000000 1 1.00000000 0.00000000 0.00000000 0.00000000
Neuron 39 3 0.50000000 1 1.00000000 0.00000000 0.00000000 0.00000000
Neuron 41 3 0.50000000 1 1.00000000 0.00000000 0.00000000 0.00000000
Neuron 42 3 0.50000000 1 1.00000000 0.00000000 0.00000000 0.00000000
Neuron 45 3 0.50000000 1 1.00000000 0.00000000 0.00000000 0.00000000
Neuron 49 3 0.50000000 1 1.00000000 0.00000000 0.00000000 0.00000000
Neuron 50 3 0.50000000 1 1.00000000 0.00000000 0.00000000 0.00000000
Neuron 51 3 0.50000000 1 1.00000000 0.00000000 0.00000000 0.00000000
Neuron 52 3 0.50000000 1 1.00000000 0.00000000 0.00000000 0.00000000
Neuron 53 3 0.25000000 1 1.00000000 0.00000000 0.00000000 0.00000000
Neuron 57 3 0.50000000 1 1.00000000 0.00000000 0.00000000 0.00000000
Neuron 58 3 0.50000000 1 1.00000000 0.00000000 0.00000000 0.00000000
Neuron 60 3 0.50000000 1 1.00000000 0.00000000 0.00000000 0.00000000
Neuron 62 3 0.50000000 1 1.00000000 0.00000000 0.00000000 0.00000000
Neuron 65 3 0.50000000 1 1.00000000 0.00000000 0.00000000 0.00000000
Neuron 71 3 0.50000000 1 1.00000000 0.00000000 0.00000000 0.00000000
Neuron 72 3 0.75000000 1 1.00000000 0.00000000 0.00000000 0.00000000
Neuron 74 3 0.50000000 1 1.00000000 0.00000000 0.00000000 0.00000000
Neuron 75 3 0.50000000 1 1.00000000 0.00000000 0.00000000 0.00000000
Neuron 78 3 0.25000000 1 1.00000000 0.00000000 0.00000000 0.00000000
Neuron 79 3 0.75000000 1 1.00000000 0.00000000 0.00000000 0.00000000
Neuron 80 3 0.25000000 1 1.00000000 0.00000000 0.00000000 0.00000000
Neuron 92 3 0.25000000 1 1.00000000 0.00000000 0.00000000 0.00000000
Neuron 94 3 0.25000000 1 1.00000000 0.00000000 0.00000000 0.00000000
Neuron 97 3 0.25000000 1 1.00000000 0.00000000 0.00000000 0.00000000
Neuron 104 3 0.25000000 1 1.00000000 0.00000000 0.00000000 0.00000000
Neuron 111 3 0.75000000 1 1.00000000 0.00000000 0.00000000 0.00000000
Neuron 123 3 0.37500000 1 1.00000000 0.00000000 0.00000000 0.00000000
Neuron 136 3 0.75000000 1 1.00000000 0.00000000 0.00000000 0.00000000
Neuron 137 3 0.75000000 1 1.00000000 0.00000000 0.00000000 0.00000000
Neuron 144 3 0.25000000 1 1.00000000 0.00000000 0.00000000 0.00000000
Neuron 155 3 0.25000000 1 1.00000000 0.00000000 0.00000000 0.00000000
Neuron 167 3 0.75000000 1 1.00000000 0.00000000 0.00000000 0.00000000
Neuron 170 3 0.25000000 1 1.00000000 0.00000000 0.00000000 0.00000000
Neuron 181 3 0.75000000 1 1.00000000 0.00000000 0.00000000 0.00000000
Neuron 183 3 0.75000000 1 1.00000000 0.00000000 0.00000000 0.00000000
Neuron 185 3 0.62500000 1 1.00000000 0.00000000 0.00000000 0.00000000
Neuron 193 3 0.50000000 1 1.00000000 0.00000000 0.00000000 0.00000000
Neuron 194 3 0.31250000 1 1.00000000 0.00000000 0.00000000 0.00000000
Neuron 195 3 0.50000000 1 1.00000000 0.00000000 0.00000000 0.00000000
Neuron 197 3 0.75000000 1 1.00000000 0.00000000 0.00000000 0.00000000
Neuron 204 3 0.25000000 1 1.00000000 0.00000000 0.00000000 0.00000000
Neuron 211 3 0.37500000 1 1.00000000 0.00000000 0.00000000 0.00000000
Neuron 213 3 0.75000000 1 1.00000000 0.00000000 0.00000000 0.00000000
Neuron 224 3 0.25000000 1 1.00000000 0.00000000 0.00000000 0.00000000
Neuron 241 3 0.12500000 1 1.00000000 0.00000000 0.00000000 0.00000000
Neuron 247 3 0.87500000 1 1.00000000 0.00000000 0.00000000 0.00000000
Neuron 250 3 0.62500000 1 1.00000000 0.00000000 0.00000000 0.00000000
Neuron 251 3 0.75000000 1 1.00000000 0.00000000 0.00000000 0.00000000
Neuron 252 3 0.75000000 1 1.00000000 0.00000000 0.00000000 0.00000000
Neuron 253 3 0.75000000 1 1.00000000 0.00000000 0.00000000 0.00000000
Neuron 259 3 0.12500000 1 1.00000000 0.00000000 0.00000000 0.00000000
Neuron 268 3 0.50000000 1 1.00000000 0.00000000 0.00000000 0.00000000
Neuron 272 3 0.25000000 1 1.00000000 0.00000000 0.00000000 0.00000000
Neuron 280 3 0.25000000 1 1.00000000 0.00000000 0.00000000 0.00000000
Neuron 287 3 0.50000000 1 1.00000000 0.00000000 0.00000000 0.00000000
Neuron 305 3 0.25000000 1 1.00000000 0.00000000 0.00000000 0.00000000
Neuron 312 3 0.25000000 1 1.00000000 0.00000000 0.00000000 0.00000000
Neuron 323 3 0.12500000 1 1.00000000 0.00000000 0.00000000 0.00000000
Neuron 330 3 0.37500000 1 1.00000000 0.00000000 0.00000000 0.00000000
Neuron 331 3 0.50000000 1 1.00000000 0.00000000 0.00000000 0.00000000
Neuron 341 3 0.50000000 1 1.00000000 0.00000000 0.00000000 0.00000000
Neuron 344 3 0.75000000 1 1.00000000 0.00000000 0.00000000 0.00000000
Neuron 364 3 0.87500000 1 1.00000000 0.00000000 0.00000000 0.00000000
Neuron 368 3 0.50000000 1 1.00000000 0.00000000 0.00000000 0.00000000
Neuron 369 3 0.37500000 1 1.00000000 0.00000000 0.00000000 0.00000000
Neuron 373 3 0.25000000 1 1.00000000 0.00000000 0.00000000 0.00000000
Neuron 376 3 0.75000000 1 1.00000000 0.00000000 0.00000000 0.00000000
Neuron 383 3 0.50000000 1 1.00000000 0.00000000 0.00000000 0.00000000
Neuron 433 3 0.50000000 1 1.00000000 0.00000000 0.00000000 0.00000000
Neuron 445 3 0.75000000 1 1.00000000 0.00000000 0.00000000 0.00000000
Neuron 450 3 0.50000000 1 1.00000000 0.00000000 0.00000000 0.00000000
Neuron 452 3 0.50000000 1 1.00000000 0.00000000 0.00000000 0.00000000
Neuron 457 3 0.37500000 1 1.00000000 0.00000000 0.00000000 0.00000000
Neuron 466 3 0.62500000 1 1.00000000 0.00000000 0.00000000 0.00000000
Neuron 488 3 0.25000000 1 1.00000000 0.00000000 0.00000000 0.00000000
Neuron 511 3 0.50000000 1 1.00000000 0.00000000 0.00000000 0.00000000
Neuron 515 3 0.37500000 1 1.00000000 0.00000000 0.00000000 0.00000000
Neuron 517 3 0.50000000 1 1.00000000 0.00000000 0.00000000 0.00000000
Neuron 531 3 0.50000000 1 1.00000000 0.00000000 0.00000000 0.00000000
Neuron 537 3 0.50000000 1 1.00000000 0.00000000 0.00000000 0.00000000
Neuron 552 3 0.75000000 1 1.00000000 0.00000000 0.00000000 0.00000000
Neuron 566 3 0.50000000 1 1.00000000 0.00000000 0.00000000 0.00000000
Neuron 576 3 0.87500000 1 1.00000000 0.00000000 0.00000000 0.00000000
Neuron 579 3 0.37500000 1 1.00000000 0.00000000 0.00000000 0.00000000
Neuron 580 3 0.37500000 1 1.00000000 0.00000000 0.00000000 0.00000000
Neuron 588 3 0.50000000 1 1.00000000 0.00000000 0.00000000 0.00000000
Neuron 607 3 0.50000000 1 1.00000000 0.00000000 0.00000000 0.00000000
Neuron 635 3 0.31250000 1 1.00000000 0.00000000 0.00000000 0.00000000
Neuron 647 3 0.50000000 1 1.00000000 0.00000000 0.00000000 0.00000000
Neuron 650 3 0.75000000 1 1.00000000 0.00000000 0.00000000 0.00000000
Neuron 689 3 0.12500000 1 1.00000000 0.00000000 0.00000000 0.00000000
Neuron 690 3 0.87500000 1 1.00000000 0.00000000 0.00000000 0.00000000
Neuron 697 3 0.75000000 1 1.00000000 0.00000000 0.00000000 0.00000000
Neuron 719 3 0.50000000 1 1.00000000 0.00000000 0.00000000 0.00000000
Neuron 723 3 0.50000000 1 1.00000000 0.00000000 0.00000000 0.00000000
Neuron 733 3 0.12500000 1 1.00000000 0.00000000 0.00000000 0.00000000
Neuron 738 3 0.25000000 1 1.00000000 0.00000000 0.00000000 0.00000000
Neuron 746 3 0.34375000 1 1.00000000 0.00000000 0.00000000 0.00000000
Neuron 756 3 0.12500000 1 1.00000000 0.00000000 0.00000000 0.00000000
Neuron 758 3 0.28125000 1 1.00000000 0.00000000 0.00000000 0.00000000
Neuron 764 3 0.50000000 1 1.00000000 0.00000000 0.00000000 0.00000000
Neuron 771 3 0.62500000 1 1.00000000 0.00000000 0.00000000 0.00000000
Neuron 778 3 0.50000000 1 1.00000000 0.00000000 0.00000000 0.00000000
Neuron 796 3 0.50000000 1 1.00000000 0.00000000 0.00000000 0.00000000
Neuron 811 3 0.50000000 1 1.00000000 0.00000000 0.00000000 0.00000000
Neuron 823 3 0.62500000 1 1.00000000 0.00000000 0.00000000 0.00000000
Neuron 827 3 0.25000000 1 1.00000000 0.00000000 0.00000000 0.00000000
Neuron 840 3 0.75000000 1 1.00000000 0.00000000 0.00000000 0.00000000
Neuron 862 3 0.62500000 1 1.00000000 0.00000000 0.00000000 0.00000000
Neuron 863 3 0.43750000 1 1.00000000 0.00000000 0.00000000 0.00000000
Neuron 864 3 0.50000000 1 1.00000000 0.00000000 0.00000000 0.00000000
Neuron 874 3 0.50000000 1 1.00000000 0.00000000 0.00000000 0.00000000
Neuron 878 3 0.87500000 1 1.00000000 0.00000000 0.00000000 0.00000000
Neuron 884 3 0.18750000 1 1.00000000 0.00000000 0.00000000 0.00000000
Neuron 885 3 0.25000000 1 1.00000000 0.00000000 0.00000000 0.00000000
Neuron 925 3 0.56250000 1 1.00000000 0.00000000 0.00000000 0.00000000
Neuron 928 3 0.75000000 1 1.00000000 0.00000000 0.00000000 0.00000000
Neuron 940 3 0.62500000 1 1.00000000 0.00000000 0.00000000 0.00000000
Neuron 946 3 0.93750000 1 1.00000000 0.00000000 0.00000000 0.00000000
Neuron 952 3 0.62500000 1 1.00000000 0.00000000 0.00000000 0.00000000
Neuron 958 3 0.62500000 1 1.00000000 0.00000000 0.00000000 0.00000000
Neuron 962 3 0.43750000 1 1.00000000 0.00000000 0.00000000 0.00000000
Neuron 963 3 0.06250000 1 1.00000000 0.00000000 0.00000000 0.00000000
Neuron 972 3 0.59375000 1 1.00000000 0.00000000 0.00000000 0.00000000
Neuron 974 3 0.68750000 1 1.00000000 0.00000000 0.00000000 0.00000000
Neuron 975 3 0.43750000 1 1.00000000 0.00000000 0.00000000 0.00000000
Neuron 978 3 0.40625000 1 1.00000000 0.00000000 0.00000000 0.00000000
Neuron 980 3 0.12500000 1 1.00000000 0.00000000 0.00000000 0.00000000
Neuron 981 3 0.43750000 1 1.00000000 0.00000000 0.00000000 0.00000000
Neuron 982 3 0.60937500 1 1.00000000 0.00000000 0.00000000 0.00000000
Neuron 986 3 0.50000000 1 1.00000000 0.00000000 0.00000000 0.00000000
Neuron 987 3 0.37500000 1 1.00000000 0.00000000 0.00000000 0.00000000
Neuron 1000 3 0.50000000 1 1.00000000 0.00000000 0.00000000 0.00000000
Neuron 1001 3 0.37500000 1 1.00000000 0.00000000 0.00000000 0.00000000
Neuron 1003 3 0.25000000 1 1.00000000 0.00000000 0.00000000 0.00000000
Neuron 1020 3 0.31250000 1 1.00000000 0.00000000 0.00000000 0.00000000
Neuron 1032 3 0.62500000 1 1.00000000 0.00000000 0.00000000 0.00000000
Neuron 1038 3 0.50000000 1 1.00000000 0.00000000 0.00000000 0.00000000
Neuron 1053 3 0.50000000 1 1.00000000 0.00000000 0.00000000 0.00000000
Neuron 1058 3 0.87500000 1 1.00000000 0.00000000 0.00000000 0.00000000
Neuron 1069 3 0.56250000 1 1.00000000 0.00000000 0.00000000 0.00000000
Neuron 1070 3 0.75000000 1 1.00000000 0.00000000 0.00000000 0.00000000
Neuron 1071 3 0.25000000 1 1.00000000 0.00000000 0.00000000 0.00000000
Neuron 1078 3 0.18750000 1 1.00000000 0.00000000 0.00000000 0.00000000
Neuron 1079 3 0.62500000 1 1.00000000 0.00000000 0.00000000 0.00000000
Neuron 1093 3 0.43750000 1 1.00000000 0.00000000 0.00000000 0.00000000
Neuron 1096 3 0.25000000 1 1.00000000 0.00000000 0.00000000 0.00000000
Neuron 1115 3 0.37500000 1 1.00000000 0.00000000 0.00000000 0.00000000
Neuron 1117 3 0.87500000 1 1.00000000 0.00000000 0.00000000 0.00000000
Neuron 1157 3 0.50000000 1 1.00000000 0.00000000 0.00000000 0.00000000
Neuron 1165 3 0.75000000 1 1.00000000 0.00000000 0.00000000 0.00000000
Neuron 1256 3 0.46875000 1 1.00000000 0.00000000 0.00000000 0.00000000
Neuron 1262 3 0.50000000 1 1.00000000 0.00000000 0.00000000 0.00000000
Neuron 1264 3 0.50000000 1 1.00000000 0.00000000 0.00000000 0.00000000
Neuron 1268 3 0.50000000 1 1.00000000 0.00000000 0.00000000 0.00000000
Neuron 1273 3 0.21875000 1 1.00000000 0.00000000 0.00000000 0.00000000
Neuron 1274 3 0.25000000 1 1.00000000 0.00000000 0.00000000 0.00000000
Neuron 1316 3 0.37500000 1 1.00000000 0.00000000 0.00000000 0.00000000
Neuron 1321 3 0.46875000 1 1.00000000 0.00000000 0.00000000 0.00000000
Neuron 1326 3 0.37500000 1 1.00000000 0.00000000 0.00000000 0.00000000
Neuron 1334 3 0.50000000 1 1.00000000 0.00000000 0.00000000 0.00000000
Neuron 1345 3 0.06250000 1 1.00000000 0.00000000 0.00000000 0.00000000
Neuron 1375 3 0.12500000 1 1.00000000 0.00000000 0.00000000 0.00000000
Neuron 1381 3 0.50000000 1 1.00000000 0.00000000 0.00000000 0.00000000
Neuron 1383 3 0.29687500 1 1.00000000 0.00000000 0.00000000 0.00000000
Neuron 1384 3 0.62500000 1 1.00000000 0.00000000 0.00000000 0.00000000
Neuron 1386 3 0.37500000 1 1.00000000 0.00000000 0.00000000 0.00000000
Neuron 1404 3 0.50000000 1 1.00000000 0.00000000 0.00000000 0.00000000
Neuron 1413 3 0.68750000 1 1.00000000 0.00000000 0.00000000 0.00000000
Neuron 1482 3 0.56250000 1 1.00000000 0.00000000 0.00000000 0.00000000
Neuron 1483 3 0.53125000 1 1.00000000 0.00000000 0.00000000 0.00000000
Neuron 1488 3 0.56250000 1 1.00000000 0.00000000 0.00000000 0.00000000
Neuron 1511 3 0.39062500 1 1.00000000 0.00000000 0.00000000 0.00000000
Neuron 1532 3 0.50000000 1 1.00000000 0.00000000 0.00000000 0.00000000
Neuron 1539 3 0.62500000 1 1.00000000 0.00000000 0.00000000 0.00000000
Neuron 1561 3 0.50000000 1 1.00000000 0.00000000 0.00000000 0.00000000
Neuron 1585 3 0.50000000 1 1.00000000 0.00000000 0.00000000 0.00000000
Neuron 1586 3 0.93750000 1 1.00000000 0.00000000 0.00000000 0.00000000
Neuron 1626 3 0.59375000 1 1.00000000 0.00000000 0.00000000 0.00000000
Neuron 1634 3 0.50000000 1 1.00000000 0.00000000 0.00000000 0.00000000
Neuron 1636 3 0.15625000 1 1.00000000 0.00000000 0.00000000 0.00000000
Neuron 1677 3 0.06250000 1 1.00000000 0.00000000 0.00000000 0.00000000
Neuron 1723 3 0.87500000 1 1.00000000 0.00000000 0.00000000 0.00000000
Neuron 1724 3 0.12500000 1 1.00000000 0.00000000 0.00000000 0.00000000
Neuron 1730 3 0.37500000 1 1.00000000 0.00000000 0.00000000 0.00000000
Neuron 1809 3 0.93750000 1 1.00000000 0.00000000 0.00000000 0.00000000
Neuron 1813 3 0.50000000 1 1.00000000 0.00000000 0.00000000 0.00000000
Neuron 1824 3 0.62500000 1 1.00000000 0.00000000 0.00000000 0.00000000
Neuron 1911 3 0.37500000 1 1.00000000 0.00000000 0.00000000 0.00000000
Neuron 1927 3 0.31250000 1 1.00000000 0.00000000 0.00000000 0.00000000
Neuron 2028 3 0.31250000 1 1.00000000 0.00000000 0.00000000 0.00000000
Neuron 2054 3 0.09375000 1 1.00000000 0.00000000 0.00000000 0.00000000
Neuron 2071 3 0.50000000 1 1.00000000 0.00000000 0.00000000 0.00000000
Neuron 2195 3 0.50000000 1 1.00000000 0.00000000 0.00000000 0.00000000
Neuron 2228 3 0.43750000 1 1.00000000 0.00000000 0.00000000 0.00000000
Neuron 2259 3 0.50000000 1 1.00000000 0.00000000 0.00000000 0.00000000
Neuron 2353 3 0.96875000 1 1.00000000 0.00000000 0.00000000 0.00000000
Link 1 10 1 0 -0.55848628
Link 2 10 2 0 0.86914076
Link 4 10 4 0 -3.42796489
Link 5 10 5 0 -3.15810272
Link 6 10 6 0 -1.75651814
Link 7 10 7 0 2.73485751
Link 8 10 8 0 0.35278107
Link 9 10 9 0 -1.47568770
Link 1 11 10 0 -6.93989146
Link 2 11 11 0 -0.79529271
Link 5 11 14 0 4.37505471
Link 6 11 15 0 0.35652394
Link 8 11 17 0 1.48266546
Link 9 11 18 0 1.64091972
Link 1 12 19 0 -2.53296048
Link 7 12 25 0 4.28373430
Link 8 12 26 0 -1.00931988
Link 9 12 27 0 2.39532212
Link 3 13 30 0 1.70980103
Link 4 13 31 0 -1.42517694
Link 5 13 32 0 4.17810372
Link 7 13 34 0 2.53152728
Link 8 13 35 0 -1.10250549
Link 9 13 36 0 -1.31161146
Link 2 14 38 0 -2.77224044
Link 5 14 41 0 -1.42123674
Link 9 14 45 0 -1.08605461
Link 1 15 46 0 -5.05075677
Link 2 15 47 0 -0.33608144
Link 3 15 48 0 3.37759430
Link 6 15 51 0 -1.31233329
Link 7 15 52 0 -2.15495580
Link 9 15 54 0 2.21173965
Link 1 16 55 0 -1.45964306
Link 2 16 56 0 0.15976027
Link 4 16 58 0 0.96241344
Link 5 16 59 0 1.59682597
Link 7 16 61 0 0.37312402
Link 8 16 62 0 0.29025643
Link 9 16 63 0 1.38615800
Link 4 17 65 0 -0.57799633
Link 4 20 74 0 1.89371541
Link 20 12 75 0 -0.79936240
Link 1 22 80 0 -2.63726118
Link 1 23 83 0 4.48479695
Link 6 27 95 0 3.67940549
Link 27 14 96 0 0.93240433
Link 1 30 104 0 0.42569268
Link 30 13 105 0 0.41149841
Link 3 32 110 0 0.07998228
Link 33 10 115 0 -1.92431550
Link 34 14 118 0 -0.63604960
Link 2 38 130 0 3.65600580
Link 38 12 131 0 -1.42182102
Link 6 39 133 0 1.00000000
Link 39 12 134 0 -3.59825932
Link 41 15 141 0 1.07285959
Link 2 45 153 0 2.99915412
Link 49 12 168 0 3.06427958
Link 7 50 170 0 -1.10253325
Link 50 13 171 0 -1.01141684
Link 6 32 177 0 -3.07885507
Link 16 34 181 1 -0.32673198
Link 4 51 183 0 2.80087440
Link 51 15 184 0 -4.46702576
Link 6 52 186 0 0.17938064
Link 3 53 189 0 1.11395550
Link 53 33 190 0 2.39297792
Link 8 57 213 0 0.52056661
Link 57 15 214 0 -0.48001619
Link 58 13 217 0 2.71904455
Link 4 60 226 0 1.55637979
Link 60 11 227 0 -2.20135571
Link 3 65 250 0 0.31656310
Link 65 16 251 0 -1.00504118
Link 71 11 299 0 -1.76781880
Link 9 23 300 0 3.75427019
Link 22 72 306 0 1.50121338
Link 74 13 319 0 -2.49546176
Link 23 12 323 0 -0.77886043
Link 2 78 345 0 1.66061608
Link 78 74 346 0 1.70513100
Link 6 23 377 0 -1.54032434
Link 14 75 411 1 -4.49392160
Link 2 92 461 0 -0.71763838
Link 8 94 468 0 0.46983300
Link 94 58 469 0 0.51582581
Link 2 97 486 0 -3.82788280
Link 12 12 499 1 2.67315578
Link 5 104 561 0 -0.58411297
Link 34 16 590 0 -4.42593169
Link 111 14 602 0 -2.76939799
Link 16 49 674 1 2.68017256
Link 4 41 731 0 -3.61301242
Link 97 123 743 0 -0.00449126
Link 123 18 744 0 -1.57141837
Link 23 136 846 0 0.59268182
Link 136 10 847 0 2.33710835
Link 18 137 849 0 0.42909895
Link 137 16 850 0 2.04817609
Link 155 34 980 0 1.94938084
Link 8 52 1058 0 1.31871939
Link 167 11 1066 0 -2.15601631
Link 7 170 1089 0 -0.94944587
Link 170 28 1090 0 -3.54878665
Link 181 16 1153 0 -0.36649493
Link 52 183 1160 0 1.62439977
Link 183 13 1161 0 1.24696320
Link 24 16 1183 0 0.23638743
Link 62 185 1188 0 0.97092418
Link 185 111 1189 0 -0.45336703
Link 7 193 1248 0 2.88987627
Link 193 14 1249 0 -4.88459864
Link 97 194 1257 0 0.22089331
Link 5 62 1262 0 2.31031543
Link 45 195 1267 0 1.12980802
Link 195 32 1268 0 -0.98714138
Link 45 197 1283 0 2.57966580
Link 197 14 1284 0 4.21940024
Link 3 204 1327 0 1.16672880
Link 92 211 1385 0 2.10376239
Link 75 213 1392 0 0.23679828
Link 224 23 1448 0 1.63800948
Link 155 155 1471 1 -0.70128175
Link 4 28 1485 0 -0.08338248
Link 9 62 1561 0 -1.59687648
Link 7 241 1584 0 1.86200339
Link 241 155 1585 0 2.68590014
Link 79 247 1611 0 0.18742888
Link 24 250 1631 0 -0.55889886
Link 250 79 1632 0 -0.76281360
Link 251 11 1641 0 -1.56518205
Link 21 252 1653 0 1.74541781
Link 252 16 1654 0 -0.21573878
Link 6 259 1726 0 1.48103215
Link 259 224 1727 0 -1.18027667
Link 1 268 1780 0 1.14706309
Link 268 14 1781 0 -0.63901883
Link 7 272 1794 0 0.40104535
Link 272 71 1795 0 -1.27076762
Link 4 280 1837 0 -1.46139030
Link 287 12 1878 0 -1.02653859
Link 8 305 1986 0 -0.36658371
Link 305 62 1987 0 -0.64788538
Link 312 42 2032 0 -3.67328602
Link 2 323 2119 0 -2.14573133
Link 155 330 2151 0 -1.28049373
Link 330 34 2152 0 -3.24163453
Link 2 331 2161 0 -0.23124090
Link 331 13 2162 0 3.42204044
Link 50 23 2181 0 -2.32419071
Link 49 75 2215 0 1.60302166
Link 60 341 2217 0 0.99121936
Link 341 45 2218 0 0.80791609
Link 17 344 2238 0 1.69770949
Link 344 14 2239 0 2.82705392
Link 268 23 2275 0 -3.33472259
Link 72 364 2389 0 0.68388115
Link 3 368 2415 0 -0.38364940
Link 144 369 2419 0 -0.04053860
Link 369 41 2420 0 1.06966819
Link 3 373 2447 0 2.44380448
Link 373 287 2448 0 2.10561677
Link 287 376 2461 0 1.59209381
Link 376 12 2462 0 -2.76720211
Link 60 383 2521 0 0.17036139
Link 383 75 2522 0 0.37877832
Link 155 24 2525 0 -3.23838393
Link 7 52 2569 0 -5.95700484
Link 4 144 2710 0 0.52593866
Link 75 433 2861 0 -0.12233666
Link 9 27 2900 0 0.77949699
Link 24 197 2932 0 -4.27376321
Link 445 10 2945 0 2.10826786
Link 3 452 2992 0 3.92018556
Link 452 16 2993 0 -0.57288369
Link 170 457 3039 0 2.33082972
Link 457 28 3040 0 -2.36177286
Link 45 466 3099 0 2.17759005
Link 466 197 3100 0 0.30620416
Link 12 305 3101 1 -0.25224166
Link 23 287 3180 0 -0.43061312
Link 27 27 3210 1 0.36096096
Link 49 144 3219 1 0.98939210
Link 45 71 3242 0 0.94341037
Link 488 27 3276 0 0.95645904
Link 511 24 3450 0 1.75086812
Link 280 515 3470 0 2.10801862
Link 450 517 3494 1 0.98898556
Link 517 18 3495 1 1.77314321
Link 51 42 3537 0 0.55915377
Link 24 537 3633 0 -1.14287151
Link 537 32 3634 0 1.61014234
Link 62 552 3711 0 0.74323852
Link 369 49 3779 0 1.37962123
Link 32 253 3799 0 -3.46538804
Link 287 566 3827 0 -0.12542483
Link 566 75 3828 0 2.42008401
Link 144 144 3836 1 -0.54839321
Link 213 576 3937 0 2.35594988
Link 3 450 3942 0 1.34783234
Link 27 16 3943 0 0.37666536
Link 97 579 3979 0 2.15637354
Link 580 24 3995 0 -2.11608544
Link 588 22 4046 1 -1.97658215
Link 580 23 4150 0 -1.33873929
Link 123 14 4167 0 -0.47788786
Link 34 607 4212 0 5.29161994
Link 155 287 4312 0 3.15131253
Link 635 580 4396 0 -1.28452471
Link 72 305 4397 1 -0.67766283
Link 18 647 4485 1 4.39858090
Link 18 80 4501 1 0.43006508
Link 24 650 4511 0 -1.67719402
Link 650 14 4512 0 -1.99445050
Link 3 689 4809 0 -0.86151352
Link 253 690 4816 0 0.14625282
Link 690 11 4817 0 -4.70209530
Link 18 305 4841 1 3.64060722
Link 697 75 4883 1 -2.70091640
Link 34 193 4898 0 -0.83237407
Link 376 45 5030 1 -1.10887553
Link 32 719 5047 0 -1.93238397
Link 719 531 5048 0 -2.80035657
Link 531 723 5078 0 -0.35623502
Link 16 42 5139 1 -0.13556590
Link 733 488 5177 0 1.05729265
Link 457 52 5197 0 0.24446608
Link 211 213 5280 0 -4.20788966
Link 450 22 5284 0 1.82435512
Link 194 746 5286 0 2.65086469
Link 746 123 5287 0 -5.56297019
Link 756 312 5359 0 -1.01541050
Link 80 758 5366 0 1.62825550
Link 42 764 5419 0 0.06694459
Link 764 18 5420 0 -0.85234908
Link 369 71 5443 0 -0.05634265
Link 771 253 5495 0 1.41559122
Link 24 778 5543 1 0.95189006
Link 778 24 5544 1 3.67210009
Link 9 123 5597 0 -2.81153047
Link 170 18 5618 0 0.54871571
Link 537 796 5733 0 2.04068816
Link 796 287 5734 0 -4.26081047
Link 41 28 5777 0 1.55651000
Link 170 197 5810 0 -1.55161424
Link 60 823 5913 0 3.71462558
Link 823 251 5914 0 -1.06229227
Link 2 827 5947 0 1.96565111
Link 827 588 5948 0 -0.14417612
Link 18 213 6013 0 0.22137333
Link 840 11 6053 0 2.85728616
Link 144 14 6076 0 1.32341059
Link 211 863 6245 0 3.15752319
Link 863 75 6246 0 -0.19246082
Link 62 864 6251 0 -0.14236788
Link 864 531 6252 0 0.54261304
Link 450 874 6330 1 1.26411036
Link 874 450 6331 1 2.38443011
Link 14 878 6357 1 1.13354225
Link 878 697 6358 1 -2.08140348
Link 323 884 6391 0 0.06551238
Link 884 92 6392 0 -0.37709756
Link 5 450 6479 0 -2.45253409
Link 45 771 6541 0 -2.34668485
Link 75 925 6704 0 -0.06316328
Link 75 450 6742 0 1.56726277
Link 71 928 6746 0 1.05526343
Link 928 10 6747 0 1.15304412
Link 940 181 6864 0 2.27401686
Link 8 764 6905 0 0.04816833
Link 364 946 6911 0 1.22407143
Link 123 181 6943 0 -0.22197349
Link 60 224 6947 1 -3.91651756
Link 181 952 6965 1 0.56381091
Link 952 531 6966 1 -3.35824068
Link 60 958 7024 0 -0.52797296
Link 958 213 7025 0 -2.03991610
Link 6 963 7075 0 1.85647201
Link 963 756 7076 0 -0.85711032
Link 925 972 7166 0 -0.60599622
Link 376 974 7203 1 0.84433389
Link 974 862 7204 1 2.75227660
Link 515 975 7206 0 1.79485713
Link 978 962 7242 0 -0.35866470
Link 980 738 7270 0 1.19845872
Link 23 981 7272 1 1.70044199
Link 981 580 7273 1 0.14643794
Link 972 982 7283 0 -0.32957643
Link 982 771 7284 0 0.77254940
Link 723 986 7311 0 1.34932682
Link 986 28 7312 0 0.84014767
Link 738 987 7316 0 3.18325023
Link 987 450 7317 0 1.37968624
Link 383 383 7337 1 2.57543634
Link 170 170 7366 1 3.79228817
Link 280 635 7410 0 -3.03879897
Link 22 1000 7432 1 1.34014630
Link 1000 22 7433 1 -0.98525422
Link 104 1001 7435 0 1.33510634
Link 1001 28 7436 0 0.11014981
Link 5 1003 7443 0 0.70595116
Link 253 376 7504 0 6.08116348
Link 1020 466 7603 0 1.07475784
Link 28 1032 7689 0 -1.36611005
Link 1032 167 7690 0 -4.57899695
Link 60 1038 7739 0 -1.05692827
Link 607 1053 7856 0 0.28828407
Link 253 1058 7912 0 0.09680487
Link 1058 11 7913 0 -2.18352460
Link 28 1070 8006 0 -1.82561261
Link 1070 11 8007 0 1.50732830
Link 1071 42 8011 0 -0.48756909
Link 689 1078 8059 0 1.01672853
Link 52 1079 8062 0 1.74755435
Link 1079 79 8063 0 -0.10889985
Link 579 1093 8164 0 3.57340183
Link 1093 23 8165 0 -1.75030656
Link 5 1096 8181 0 2.12531229
Link 1096 28 8182 0 -4.41659168
Link 1115 49 8338 0 1.85461429
Link 552 1117 8343 0 1.19811382
Link 1117 14 8344 0 0.43111429
Link 27 383 8571 0 0.50094721
Link 450 62 8640 0 0.99951490
Link 1157 22 8685 0 -0.63448177
Link 330 376 8709 0 2.61838558
Link 27 197 8766 0 1.77889367
Link 537 65 8795 0 3.62620122
Link 194 193 9084 0 -1.21247632
Link 72 635 9214 1 2.72665809
Link 962 1256 9556 0 1.07933884
Link 1256 52 9557 0 -0.94553708
Link 1038 1262 9606 0 0.94818936
Link 1262 75 9607 0 -1.56343287
Link 28 1264 9634 0 -1.44842576
Link 1264 18 9635 0 -0.21495367
Link 1268 28 9679 0 -2.14265623
Link 1078 1273 9701 0 1.62028939
Link 1273 80 9702 0 -2.49066119
Link 975 155 9703 1 -2.27079811
Link 2 1274 9716 0 -1.75135782
Link 193 30 9784 0 -3.78395325
Link 330 18 10068 0 2.39761404
Link 756 1316 10098 0 2.81723327
Link 1316 466 10099 0 -1.00463332
Link 74 1321 10138 1 0.30790294
Link 1321 975 10139 1 0.98821603
Link 885 1326 10169 0 3.01547191
Link 1326 23 10170 0 0.32336486
Link 22 1334 10221 1 4.91334564
Link 1334 811 10222 1 -0.07788502
Link 3 1345 10329 0 1.81733864
Link 1345 980 10330 0 1.15564568
Link 32 74 10453 0 -1.02901116
Link 323 170 10476 0 -0.93145149
Link 80 50 10556 0 -0.73394563
Link 6 1375 10577 0 1.41986353
Link 1375 1071 10578 0 3.36383109
Link 811 1381 10628 1 3.57699835
Link 758 1383 10643 0 0.11686223
Link 1383 635 10644 0 1.53747020
Link 1384 723 10659 1 0.68368147
Link 1274 1386 10667 0 1.50581870
Link 1386 28 10668 0 0.48944735
Link 433 1404 10804 0 1.50061049
Link 1404 1268 10805 0 0.54087095
Link 213 1413 10875 1 0.28148344
Link 1413 1384 10876 1 -0.21361877
Link 980 213 10991 0 -0.90966050
Link 827 28 11173 0 -1.72283432
Link 369 27 11347 0 -2.45906000
Link 52 1482 11468 0 1.59328226
Link 1482 466 11469 0 -0.49237066
Link 1069 1483 11472 1 1.76765416
Link 1483 287 11473 1 -1.33515421
Link 42 1488 11520 0 1.35926680
Link 1488 940 11521 0 3.70693922
Link 863 272 11665 1 1.06377428
Link 330 1511 11732 0 1.00000000
Link 1511 978 11733 0 2.53463306
Link 689 211 11861 0 -2.47060314
Link 41 1532 11978 0 1.67470865
Link 1532 511 11979 0 -2.14848380
Link 1384 1384 12000 1 -0.99845597
Link 368 1539 12033 0 1.26834686
Link 1539 840 12034 0 0.59092264
Link 1268 11 12130 0 3.02116154
Link 287 738 12169 1 3.13377191
Link 1381 1561 12281 1 1.67670812
Link 1561 588 12282 1 -2.25857228
Link 647 1585 12505 1 1.00000000
Link 1585 450 12506 1 -0.57633952
Link 247 1586 12516 0 0.73516047
Link 1586 14 12517 0 -2.67844854
Link 980 925 12555 0 -0.78677534
Link 49 980 12642 1 -3.58593049
Link 28 155 12786 1 0.00719111
Link 383 450 12919 0 -2.25976281
Link 738 878 12920 0 3.08771625
Link 862 1626 12940 1 0.40154468
Link 1626 1069 12941 1 2.28183757
Link 1053 1634 13050 0 1.85370413
Link 1634 75 13051 0 0.14605878
Link 3 1636 13056 0 0.45056360
Link 1636 1020 13057 0 -0.87992012
Link 376 975 13145 1 2.13265665
Link 6 1677 13409 0 1.63720200
Link 42 1404 13446 0 -1.84770789
Link 1334 20 13598 0 -0.16719507
Link 272 537 13777 0 3.27715339
Link 123 925 13860 0 1.41131456
Link 1165 1723 13912 0 0.85200796
Link 1723 16 13913 0 -0.06925678
Link 2 1724 13940 0 1.30155969
Link 1724 885 13941 0 1.11061720
Link 204 1730 13974 0 1.21340833
Link 1386 1165 14145 0 -1.79443563
Link 1078 764 14603 0 -0.91554887
Link 576 1809 14729 0 -0.22415092
Link 1809 10 14730 0 -2.23691964
Link 287 1813 14767 0 1.09804003
Link 1813 1157 14768 0 -0.64829196
Link 45 1824 14849 0 0.89906449
Link 1824 445 14850 0 1.84027953
Link 1384 840 14863 0 -2.20204183
Link 1316 771 15032 0 -1.39537111
Link 650 980 15129 1 -1.09642704
Link 864 864 15514 1 -0.55683373
Link 796 975 15593 1 2.14454347
Link 1488 22 15649 1 -0.89483535
Link 1003 1911 15716 0 1.36809484
Link 1911 21 15717 0 1.58338152
Link 24 1000 15747 0 -2.55768466
Link 204 1927 15836 0 1.36301448
Link 1927 1115 15837 0 1.90785804
Link 796 689 15907 1 0.78934417
Link 1000 1000 15981 1 1.97068525
Link 92 20 16418 0 0.79904875
Link 975 764 16510 0 3.63680253
Link 863 18 16576 0 -4.74565829
Link 32 1532 16820 0 0.51547088
Link 259 2028 16870 0 3.73196956
Link 2028 18 16871 0 0.71658817
Link 1000 1020 16916 1 2.27232054
Link 33 1539 17011 0 0.26733847
Link 1677 2054 17107 0 1.29846587
Link 2054 733 17108 0 -0.00415934
Link 312 2071 17255 0 1.43565417
Link 2071 213 17256 0 3.57474284
Link 22 368 17376 0 1.19217314
Link 50 1321 17546 1 1.50548009
Link 1404 1038 17687 0 -0.08991906
Link 566 18 17718 0 0.56925464
Link 1032 27 18007 1 1.74036433
Link 1273 1273 18144 1 4.33406359
Link 433 2195 18410 0 0.47453972
Link 2195 287 18411 0 0.04804576
Link 204 946 18499 0 2.38427207
Link 41 204 18518 1 -2.94420886
Link 50 1165 18541 0 0.27653353
Link 1730 2228 18782 0 0.41961123
Link 2228 368 18783 0 -0.41944565
Link 195 1413 18991 0 0.48437121
Link 22 2259 19026 0 -0.01013764
Link 2259 341 19027 0 -0.56417362
Link 738 1375 19216 1 -3.91713384
Link 259 94 19241 0 -1.48352176
Link 537 1723 19264 0 -2.52739067
Link 27 635 19342 1 2.00641210
Link 51 1413 19842 0 -2.24674412
Link 946 2353 19897 0 1.67112810
Link 2353 14 19898 0 -1.16330339
Link 8 1053 20183 0 1.96390415
Link 1375 49 20285 0 2.37892383
Link 213 344 20465 0 -2.13409081
Link 259 978 20596 0 0.32118879
GenomeEnd

