GenomeStart 11931
Neuron 1 1 0.00000000 1 0.00000000 0.00000000 0.00000000 0.00000000
Neuron 2 1 0.00000000 1 0.00000000 0.00000000 0.00000000 0.00000000
Neuron 3 1 0.00000000 1 0.00000000 0.00000000 0.00000000 0.00000000
Neuron 4 1 0.00000000 1 0.00000000 0.00000000 0.00000000 0.00000000
Neuron 5 1 0.00000000 1 0.00000000 0.00000000 0.00000000 0.00000000
Neuron 6 1 0.00000000 1 0.00000000 0.00000000 0.00000000 0.00000000
Neuron 7 1 0.00000000 1 0.00000000 0.00000000 0.00000000 0.00000000
Neuron 8 1 0.00000000 1 0.00000000 0.00000000 0.00000000 0.00000000
Neuron 9 2 0.00000000 1 0.00000000 0.00000000 0.00000000 0.00000000
Neuron 10 4 1.00000000 0 1.00000000 0.00000000 0.00000000 0.00000000
Neuron 11 4 1.00000000 0 1.00000000 0.00000000 0.00000000 0.00000000
Neuron 12 4 1.00000000 0 1.00000000 0.00000000 0.00000000 0.00000000
Neuron 13 4 1.00000000 0 1.00000000 0.00000000 0.00000000 0.00000000
Neuron 14 4 1.00000000 0 1.00000000 0.00000000 0.00000000 0.00000000
Neuron 15 4 1.00000000 0 1.00000000 0.00000000 0.00000000 0.00000000
Neuron 16 4 1.00000000 0 1.00000000 0.00000000 0.00000000 0.00000000
Neuron 19 3 0.50000000 1 1.00000000 0.00000000 0.00000000 0.00000000
Neuron 23 3 0.50000000 1 1.00000000 0.00000000 0.00000000 0.00000000
Neuron 24 3 0.50000000 1 1.00000000 0.00000000 0.00000000 0.00000000
Neuron 29 3 0.50000000 1 1.00000000 0.00000000 0.00000000 0.00000000
Neuron 35 3 0.50000000 1 1.00000000 0.00000000 0.00000000 0.00000000
Neuron 38 3 0.50000000 1 1.00000000 0.00000000 0.00000000 0.00000000
Neuron 43 3 0.50000000 1 1.00000000 0.00000000 0.00000000 0.00000000
Neuron 52 3 0.50000000 1 1.00000000 0.00000000 0.00000000 0.00000000
Neuron 54 3 0.50000000 1 1.00000000 0.00000000 0.00000000 0.00000000
Neuron 58 3 0.50000000 1 1.00000000 0.00000000 0.00000000 0.00000000
Neuron 62 3 0.50000000 1 1.00000000 0.00000000 0.00000000 0.00000000
Neuron 65 3 0.50000000 1 1.00000000 0.00000000 0.00000000 0.00000000
Neuron 79 3 0.75000000 1 1.00000000 0.00000000 0.00000000 0.00000000
Neuron 200 3 0.50000000 1 1.00000000 0.00000000 0.00000000 0.00000000
Link 2 10 2 0 0.22734018
Link 3 10 3 0 -0.28617114
Link 4 10 4 0 0.37753830
Link 5 10 5 0 -2.61444103
Link 9 10 9 0 -0.60709409
Link 1 11 10 0 -4.05890259
Link 2 11 11 0 -2.77557231
Link 3 11 12 0 -0.85510312
Link 4 11 13 0 -2.76314246
Link 5 11 14 0 2.93071958
Link 6 11 15 0 -3.94607912
Link 7 11 16 0 -1.72033747
Link 8 11 17 0 0.51699329
Link 9 11 18 0 -0.19792047
Link 1 12 19 0 -3.01659033
Link 3 12 21 0 -0.41793390
Link 4 12 22 0 -2.42321486
Link 5 12 23 0 2.38901705
Link 6 12 24 0 -1.60951903
Link 7 12 25 0 2.87462482
Link 8 12 26 0 1.27640641
Link 9 12 27 0 -3.92537040
Link 1 13 28 0 -0.30193975
Link 2 13 29 0 1.34986496
Link 4 13 31 0 1.91074920
Link 5 13 32 0 -1.19997472
Link 7 13 34 0 -0.66571017
Link 9 13 36 0 1.73762310
Link 1 14 37 0 -4.50580581
Link 2 14 38 0 0.90677138
Link 4 14 40 0 0.69719458
Link 5 14 41 0 4.19193433
Link 6 14 42 0 -1.59443620
Link 7 14 43 0 4.61444592
Link 9 14 45 0 -3.16269742
Link 1 15 46 0 -1.30378379
Link 2 15 47 0 -0.03602407
Link 3 15 48 0 1.33620894
Link 4 15 49 0 -0.58065469
Link 5 15 50 0 0.48708421
Link 7 15 52 0 -2.39658945
Link 8 15 53 0 -3.11022646
Link 9 15 54 0 0.73049174
Link 1 16 55 0 -0.49219566
Link 2 16 56 0 1.98211240
Link 5 16 59 0 -2.95442906
Link 6 16 60 0 0.57791877
Link 8 16 62 0 -0.81702048
Link 9 16 63 0 -0.64754076
Link 7 19 71 0 0.84917855
Link 19 16 72 0 1.06420527
Link 1 23 83 0 0.31417199
Link 3 24 86 0 0.30897669
Link 6 29 101 0 -1.40218298
Link 29 15 102 0 -1.26637555
Link 7 35 121 0 -2.17300295
Link 35 10 122 0 0.60763793
Link 2 38 130 0 -1.24530831
Link 38 12 131 0 0.96370920
Link 6 43 147 0 -1.90335554
Link 43 10 148 0 0.32154185
Link 6 52 186 0 0.42570724
Link 52 13 187 0 1.11955202
Link 3 54 193 0 1.17425300
Link 54 13 194 0 -2.57625064
Link 8 58 216 0 2.06946591
Link 58 13 217 0 -1.22891850
Link 8 62 234 0 2.01039942
Link 62 14 235 0 3.69346965
Link 3 65 250 0 0.41031142
Link 65 16 251 0 -3.00957058
Link 24 11 254 0 0.85348858
Link 9 23 300 0 -0.91310455
Link 24 79 354 0 1.34289186
Link 79 14 355 0 0.94780147
Link 29 11 395 0 1.26446270
Link 6 24 417 0 1.44489542
Link 8 35 474 0 2.61272117
Link 1 79 640 0 -3.96428879
Link 11 79 653 1 -0.72288611
Link 65 11 909 0 -1.64097411
Link 10 38 952 1 2.39423556
Link 23 65 1061 0 0.85603200
Link 15 65 1073 1 2.51746682
Link 19 200 1303 0 1.00000000
Link 200 38 1304 0 1.49157653
Link 9 38 1673 0 -3.83886478
GenomeEnd

