GenomeStart 46770
Neuron 1 1 0.00000000 1 0.00000000 0.00000000 0.00000000 0.00000000
Neuron 2 1 0.00000000 1 0.00000000 0.00000000 0.00000000 0.00000000
Neuron 3 1 0.00000000 1 0.00000000 0.00000000 0.00000000 0.00000000
Neuron 4 1 0.00000000 1 0.00000000 0.00000000 0.00000000 0.00000000
Neuron 5 1 0.00000000 1 0.00000000 0.00000000 0.00000000 0.00000000
Neuron 6 1 0.00000000 1 0.00000000 0.00000000 0.00000000 0.00000000
Neuron 7 1 0.00000000 1 0.00000000 0.00000000 0.00000000 0.00000000
Neuron 8 1 0.00000000 1 0.00000000 0.00000000 0.00000000 0.00000000
Neuron 9 2 0.00000000 1 0.00000000 0.00000000 0.00000000 0.00000000
Neuron 10 4 1.00000000 0 1.00000000 0.00000000 0.00000000 0.00000000
Neuron 11 4 1.00000000 0 1.00000000 0.00000000 0.00000000 0.00000000
Neuron 12 4 1.00000000 0 1.00000000 0.00000000 0.00000000 0.00000000
Neuron 13 4 1.00000000 0 1.00000000 0.00000000 0.00000000 0.00000000
Neuron 14 4 1.00000000 0 1.00000000 0.00000000 0.00000000 0.00000000
Neuron 15 4 1.00000000 0 1.00000000 0.00000000 0.00000000 0.00000000
Neuron 16 4 1.00000000 0 1.00000000 0.00000000 0.00000000 0.00000000
Neuron 18 3 0.50000000 1 1.00000000 0.00000000 0.00000000 0.00000000
Neuron 22 3 0.50000000 1 1.00000000 0.00000000 0.00000000 0.00000000
Neuron 23 3 0.50000000 1 1.00000000 0.00000000 0.00000000 0.00000000
Neuron 24 3 0.50000000 1 1.00000000 0.00000000 0.00000000 0.00000000
Neuron 27 3 0.50000000 1 1.00000000 0.00000000 0.00000000 0.00000000
Neuron 28 3 0.50000000 1 1.00000000 0.00000000 0.00000000 0.00000000
Neuron 32 3 0.50000000 1 1.00000000 0.00000000 0.00000000 0.00000000
Neuron 34 3 0.50000000 1 1.00000000 0.00000000 0.00000000 0.00000000
Neuron 41 3 0.50000000 1 1.00000000 0.00000000 0.00000000 0.00000000
Neuron 42 3 0.50000000 1 1.00000000 0.00000000 0.00000000 0.00000000
Neuron 45 3 0.50000000 1 1.00000000 0.00000000 0.00000000 0.00000000
Neuron 49 3 0.50000000 1 1.00000000 0.00000000 0.00000000 0.00000000
Neuron 50 3 0.50000000 1 1.00000000 0.00000000 0.00000000 0.00000000
Neuron 51 3 0.50000000 1 1.00000000 0.00000000 0.00000000 0.00000000
Neuron 52 3 0.50000000 1 1.00000000 0.00000000 0.00000000 0.00000000
Neuron 54 3 0.50000000 1 1.00000000 0.00000000 0.00000000 0.00000000
Neuron 58 3 0.50000000 1 1.00000000 0.00000000 0.00000000 0.00000000
Neuron 59 3 0.25000000 1 1.00000000 0.00000000 0.00000000 0.00000000
Neuron 60 3 0.50000000 1 1.00000000 0.00000000 0.00000000 0.00000000
Neuron 62 3 0.50000000 1 1.00000000 0.00000000 0.00000000 0.00000000
Neuron 65 3 0.50000000 1 1.00000000 0.00000000 0.00000000 0.00000000
Neuron 71 3 0.50000000 1 1.00000000 0.00000000 0.00000000 0.00000000
Neuron 72 3 0.75000000 1 1.00000000 0.00000000 0.00000000 0.00000000
Neuron 75 3 0.50000000 1 1.00000000 0.00000000 0.00000000 0.00000000
Neuron 79 3 0.75000000 1 1.00000000 0.00000000 0.00000000 0.00000000
Neuron 80 3 0.25000000 1 1.00000000 0.00000000 0.00000000 0.00000000
Neuron 92 3 0.25000000 1 1.00000000 0.00000000 0.00000000 0.00000000
Neuron 97 3 0.25000000 1 1.00000000 0.00000000 0.00000000 0.00000000
Neuron 111 3 0.75000000 1 1.00000000 0.00000000 0.00000000 0.00000000
Neuron 123 3 0.37500000 1 1.00000000 0.00000000 0.00000000 0.00000000
Neuron 144 3 0.25000000 1 1.00000000 0.00000000 0.00000000 0.00000000
Neuron 155 3 0.25000000 1 1.00000000 0.00000000 0.00000000 0.00000000
Neuron 167 3 0.75000000 1 1.00000000 0.00000000 0.00000000 0.00000000
Neuron 170 3 0.25000000 1 1.00000000 0.00000000 0.00000000 0.00000000
Neuron 181 3 0.75000000 1 1.00000000 0.00000000 0.00000000 0.00000000
Neuron 193 3 0.50000000 1 1.00000000 0.00000000 0.00000000 0.00000000
Neuron 194 3 0.31250000 1 1.00000000 0.00000000 0.00000000 0.00000000
Neuron 195 3 0.50000000 1 1.00000000 0.00000000 0.00000000 0.00000000
Neuron 197 3 0.75000000 1 1.00000000 0.00000000 0.00000000 0.00000000
Neuron 211 3 0.37500000 1 1.00000000 0.00000000 0.00000000 0.00000000
Neuron 213 3 0.75000000 1 1.00000000 0.00000000 0.00000000 0.00000000
Neuron 224 3 0.25000000 1 1.00000000 0.00000000 0.00000000 0.00000000
Neuron 251 3 0.75000000 1 1.00000000 0.00000000 0.00000000 0.00000000
Neuron 253 3 0.75000000 1 1.00000000 0.00000000 0.00000000 0.00000000
Neuron 259 3 0.12500000 1 1.00000000 0.00000000 0.00000000 0.00000000
Neuron 268 3 0.50000000 1 1.00000000 0.00000000 0.00000000 0.00000000
Neuron 280 3 0.25000000 1 1.00000000 0.00000000 0.00000000 0.00000000
Neuron 287 3 0.50000000 1 1.00000000 0.00000000 0.00000000 0.00000000
Neuron 305 3 0.25000000 1 1.00000000 0.00000000 0.00000000 0.00000000
Neuron 312 3 0.25000000 1 1.00000000 0.00000000 0.00000000 0.00000000
Neuron 323 3 0.12500000 1 1.00000000 0.00000000 0.00000000 0.00000000
Neuron 330 3 0.37500000 1 1.00000000 0.00000000 0.00000000 0.00000000
Neuron 369 3 0.37500000 1 1.00000000 0.00000000 0.00000000 0.00000000
Neuron 376 3 0.75000000 1 1.00000000 0.00000000 0.00000000 0.00000000
Neuron 411 3 0.43750000 1 1.00000000 0.00000000 0.00000000 0.00000000
Neuron 438 3 0.25000000 1 1.00000000 0.00000000 0.00000000 0.00000000
Neuron 450 3 0.50000000 1 1.00000000 0.00000000 0.00000000 0.00000000
Neuron 457 3 0.37500000 1 1.00000000 0.00000000 0.00000000 0.00000000
Neuron 466 3 0.62500000 1 1.00000000 0.00000000 0.00000000 0.00000000
Neuron 488 3 0.25000000 1 1.00000000 0.00000000 0.00000000 0.00000000
Neuron 515 3 0.37500000 1 1.00000000 0.00000000 0.00000000 0.00000000
Neuron 527 3 0.75000000 1 1.00000000 0.00000000 0.00000000 0.00000000
Neuron 531 3 0.50000000 1 1.00000000 0.00000000 0.00000000 0.00000000
Neuron 532 3 0.75000000 1 1.00000000 0.00000000 0.00000000 0.00000000
Neuron 537 3 0.50000000 1 1.00000000 0.00000000 0.00000000 0.00000000
Neuron 580 3 0.37500000 1 1.00000000 0.00000000 0.00000000 0.00000000
Neuron 588 3 0.50000000 1 1.00000000 0.00000000 0.00000000 0.00000000
Neuron 611 3 0.12500000 1 1.00000000 0.00000000 0.00000000 0.00000000
Neuron 635 3 0.31250000 1 1.00000000 0.00000000 0.00000000 0.00000000
Neuron 690 3 0.87500000 1 1.00000000 0.00000000 0.00000000 0.00000000
Neuron 723 3 0.50000000 1 1.00000000 0.00000000 0.00000000 0.00000000
Neuron 756 3 0.12500000 1 1.00000000 0.00000000 0.00000000 0.00000000
Neuron 764 3 0.50000000 1 1.00000000 0.00000000 0.00000000 0.00000000
Neuron 771 3 0.62500000 1 1.00000000 0.00000000 0.00000000 0.00000000
Neuron 781 3 0.50000000 1 1.00000000 0.00000000 0.00000000 0.00000000
Neuron 814 3 0.62500000 1 1.00000000 0.00000000 0.00000000 0.00000000
Neuron 827 3 0.25000000 1 1.00000000 0.00000000 0.00000000 0.00000000
Neuron 842 3 0.50000000 1 1.00000000 0.00000000 0.00000000 0.00000000
Neuron 862 3 0.62500000 1 1.00000000 0.00000000 0.00000000 0.00000000
Neuron 895 3 0.50000000 1 1.00000000 0.00000000 0.00000000 0.00000000
Neuron 904 3 0.50000000 1 1.00000000 0.00000000 0.00000000 0.00000000
Neuron 925 3 0.56250000 1 1.00000000 0.00000000 0.00000000 0.00000000
Neuron 974 3 0.68750000 1 1.00000000 0.00000000 0.00000000 0.00000000
Neuron 975 3 0.43750000 1 1.00000000 0.00000000 0.00000000 0.00000000
Neuron 1018 3 0.81250000 1 1.00000000 0.00000000 0.00000000 0.00000000
Neuron 1024 3 0.25000000 1 1.00000000 0.00000000 0.00000000 0.00000000
Neuron 1057 3 0.75000000 1 1.00000000 0.00000000 0.00000000 0.00000000
Link 1 10 1 0 -1.09996728
Link 2 10 2 0 -1.62647059
Link 3 10 3 0 -0.73618356
Link 4 10 4 0 -0.21838326
Link 5 10 5 0 1.52737602
Link 6 10 6 0 4.29396005
Link 7 10 7 0 1.80879001
Link 8 10 8 0 0.23381277
Link 9 10 9 0 0.07128393
Link 1 11 10 0 -4.19957144
Link 2 11 11 0 1.45989400
Link 3 11 12 0 0.17698470
Link 5 11 14 0 -2.67366267
Link 6 11 15 0 -1.64580265
Link 8 11 17 0 -2.16998967
Link 9 11 18 0 1.61693409
Link 1 12 19 0 -1.26159873
Link 2 12 20 0 1.05471713
Link 4 12 22 0 2.92554157
Link 6 12 24 0 -0.14376429
Link 7 12 25 0 -2.94445462
Link 8 12 26 0 1.95707670
Link 9 12 27 0 1.74415594
Link 1 13 28 0 -3.03095503
Link 2 13 29 0 5.59196222
Link 3 13 30 0 -1.67134533
Link 4 13 31 0 2.00167902
Link 5 13 32 0 -0.06197022
Link 7 13 34 0 2.64221208
Link 8 13 35 0 -1.75925402
Link 9 13 36 0 -1.52060783
Link 2 14 38 0 -0.82111205
Link 4 14 40 0 1.12942637
Link 5 14 41 0 -0.63897338
Link 9 14 45 0 4.24716473
Link 1 15 46 0 -4.74497565
Link 2 15 47 0 2.67353260
Link 3 15 48 0 -0.21594734
Link 6 15 51 0 -2.86855611
Link 7 15 52 0 1.13686268
Link 8 15 53 0 -0.58949685
Link 9 15 54 0 -0.15211642
Link 1 16 55 0 -3.51929344
Link 2 16 56 0 -5.44597798
Link 3 16 57 0 0.47076578
Link 4 16 58 0 0.98030133
Link 5 16 59 0 -1.28468760
Link 7 16 61 0 0.79014341
Link 8 16 62 0 -3.39678020
Link 9 16 63 0 1.01591949
Link 18 16 69 0 -3.68944902
Link 1 22 80 0 -5.23406149
Link 1 23 83 0 0.99150612
Link 23 10 84 0 -1.60901023
Link 24 14 87 0 3.05594657
Link 6 27 95 0 -2.74822351
Link 27 14 96 0 -1.69945562
Link 5 28 98 0 -0.46121417
Link 28 11 99 0 -1.79085547
Link 3 32 110 0 1.42963031
Link 34 14 118 0 -1.54344858
Link 41 15 141 0 -1.07963892
Link 6 42 144 0 -0.65312920
Link 42 16 145 0 4.36291653
Link 2 45 153 0 0.65940672
Link 3 49 167 0 0.78661103
Link 49 12 168 0 -3.26184891
Link 7 50 170 0 0.68154346
Link 50 13 171 0 3.52023866
Link 6 32 177 0 0.58639345
Link 4 51 183 0 0.69098515
Link 51 15 184 0 0.45504238
Link 6 52 186 0 0.84803481
Link 52 13 187 0 -0.69785238
Link 3 54 193 0 0.74346422
Link 54 13 194 0 -2.94802983
Link 8 58 216 0 0.14988898
Link 58 13 217 0 -1.41477912
Link 6 59 222 0 0.20846586
Link 59 32 223 0 1.60349698
Link 4 60 226 0 1.86836063
Link 60 11 227 0 -0.37316427
Link 62 14 235 0 0.39454094
Link 3 65 250 0 1.55102359
Link 65 16 251 0 1.23369406
Link 7 71 298 0 0.14794742
Link 71 11 299 0 -0.20080321
Link 9 23 300 0 0.20459198
Link 32 10 304 0 -2.10528546
Link 22 72 306 0 0.61702773
Link 72 14 307 0 1.75469779
Link 23 12 323 0 -2.48549048
Link 24 79 354 0 1.29287904
Link 79 14 355 0 1.03541398
Link 3 80 366 0 2.34987984
Link 6 23 377 0 0.85868523
Link 14 75 411 1 -1.97388101
Link 2 92 461 0 0.36713147
Link 9 22 483 0 0.35090661
Link 2 97 486 0 3.18015832
Link 12 12 499 1 1.34494796
Link 22 22 530 1 -3.66899542
Link 71 10 540 0 1.27819687
Link 7 75 585 0 3.71981673
Link 34 16 590 0 0.53978764
Link 62 111 601 0 2.26959279
Link 111 14 602 0 -1.13411838
Link 16 49 674 1 -4.37027830
Link 4 41 731 0 -3.56736746
Link 97 123 743 0 3.47652799
Link 123 18 744 0 0.99766362
Link 45 32 772 0 -0.50026485
Link 2 23 822 0 -1.53246169
Link 45 10 867 0 -1.06208597
Link 2 144 883 0 -1.92373565
Link 7 155 979 0 4.33288303
Link 155 34 980 0 -2.95091561
Link 28 167 1065 0 1.59951196
Link 167 11 1066 0 0.99701915
Link 7 170 1089 0 2.08553300
Link 170 28 1090 0 1.40783417
Link 42 181 1152 0 0.34967436
Link 181 16 1153 0 3.65570090
Link 24 16 1183 0 -0.79390259
Link 7 193 1248 0 2.20441369
Link 193 14 1249 0 -3.49883064
Link 24 24 1252 1 -0.31890756
Link 97 194 1257 0 1.92157171
Link 194 123 1258 0 0.87810643
Link 45 195 1267 0 1.48029399
Link 195 32 1268 0 -3.81487749
Link 22 24 1275 0 0.38189038
Link 45 197 1283 0 -2.34485407
Link 197 14 1284 0 -1.34437043
Link 92 211 1385 0 1.30919420
Link 211 75 1386 0 2.10385996
Link 75 213 1392 0 -0.66722976
Link 213 10 1393 0 1.38476442
Link 224 23 1448 0 -1.47419671
Link 4 28 1485 0 3.62177828
Link 9 62 1561 0 -1.07949661
Link 41 24 1597 0 -4.35668360
Link 60 251 1640 0 4.73722438
Link 251 11 1641 0 -1.62234479
Link 75 253 1661 0 -0.92457245
Link 253 11 1662 0 -0.78446103
Link 71 71 1671 1 -0.20124512
Link 60 45 1678 0 -0.97237229
Link 6 259 1726 0 -0.64575322
Link 259 224 1727 0 -0.07138903
Link 60 75 1756 0 -0.61545326
Link 268 14 1781 0 5.66872061
Link 4 280 1837 0 0.52129329
Link 3 287 1877 0 1.34839234
Link 8 305 1986 0 -1.89025377
Link 305 62 1987 0 0.98530800
Link 312 42 2032 0 1.23493275
Link 75 28 2068 0 2.87476958
Link 2 323 2119 0 2.46944208
Link 323 92 2120 0 2.31259878
Link 155 330 2151 0 0.66615884
Link 330 34 2152 0 -2.70642116
Link 50 23 2181 0 -0.43942528
Link 49 75 2215 0 -3.45418942
Link 268 23 2275 0 -2.28292663
Link 13 49 2329 1 -2.98945101
Link 144 369 2419 0 1.75724361
Link 369 41 2420 0 -1.29327669
Link 287 376 2461 0 0.67401052
Link 376 12 2462 0 -0.14808387
Link 155 24 2525 0 2.47665900
Link 7 52 2569 0 -0.55698609
Link 4 144 2710 0 -0.03249487
Link 369 411 2712 0 0.30703727
Link 411 41 2713 0 -1.62353658
Link 1 438 2894 0 0.02663784
Link 438 268 2895 0 1.58598271
Link 9 27 2900 0 3.57926415
Link 18 450 2977 1 1.08919276
Link 450 18 2978 1 2.17841394
Link 170 457 3039 0 2.48924359
Link 457 28 3040 0 -0.66336590
Link 45 466 3099 0 1.06420952
Link 466 197 3100 0 -2.54665083
Link 12 305 3101 1 3.02297919
Link 23 287 3180 0 -4.39315867
Link 27 27 3210 1 -1.33987216
Link 49 144 3219 1 -2.04888297
Link 45 71 3242 0 0.20506608
Link 6 488 3275 0 1.20382440
Link 488 27 3276 0 -1.21733535
Link 97 23 3379 0 0.30041026
Link 450 450 3414 1 -0.87626625
Link 23 22 3415 0 -0.75688963
Link 280 515 3470 0 1.00295622
Link 27 527 3565 0 1.12131233
Link 527 14 3566 0 -2.09916512
Link 32 531 3589 0 1.38505629
Link 531 28 3590 0 -2.20876100
Link 24 532 3593 0 0.24507778
Link 532 16 3594 0 -1.18745203
Link 24 537 3633 0 0.90854481
Link 537 32 3634 0 2.23393968
Link 287 75 3656 0 1.35727824
Link 75 92 3700 1 2.61280659
Link 155 14 3754 0 3.19192174
Link 369 49 3779 0 0.22743211
Link 32 253 3799 0 0.54208730
Link 144 144 3836 1 1.06890845
Link 34 75 3878 0 -2.00556106
Link 3 450 3942 0 -0.52370931
Link 580 24 3995 0 -0.68385535
Link 22 588 4045 1 2.93688188
Link 588 22 4046 1 -1.46452550
Link 580 23 4150 0 -0.44657119
Link 123 14 4167 0 -0.04915709
Link 8 611 4239 0 0.88111718
Link 611 305 4240 0 -0.39714885
Link 155 287 4312 0 3.30082286
Link 80 635 4395 0 0.99080778
Link 635 580 4396 0 1.20352306
Link 72 305 4397 1 -1.35468563
Link 18 80 4501 1 -3.02963011
Link 253 690 4816 0 -1.19881050
Link 690 11 4817 0 -0.47831249
Link 18 305 4841 1 -1.92856353
Link 34 193 4898 0 0.59383998
Link 32 75 4926 0 1.19863544
Link 376 45 5030 1 2.60499293
Link 32 22 5042 0 0.16706825
Link 723 28 5079 0 -3.94645881
Link 16 42 5139 1 -1.59611578
Link 457 52 5197 0 -2.11126738
Link 5 466 5245 0 -2.65057491
Link 211 213 5280 0 -2.97085516
Link 6 756 5358 0 -0.46511287
Link 756 312 5359 0 0.58935098
Link 764 18 5420 0 3.16119542
Link 369 71 5443 0 1.60536053
Link 771 253 5495 0 0.59833470
Link 537 287 5558 0 3.89813016
Link 42 781 5563 0 1.26380213
Link 781 764 5564 0 1.12542063
Link 62 531 5569 0 0.38983741
Link 9 123 5597 0 -0.81320425
Link 41 28 5777 0 -2.03257006
Link 170 197 5810 0 -0.30221418
Link 3 466 5834 0 -0.52056466
Link 75 814 5859 0 0.12854278
Link 814 213 5860 0 -0.79398173
Link 18 28 5936 0 0.07047884
Link 2 827 5947 0 1.28932642
Link 827 588 5948 0 1.46054744
Link 144 14 6076 0 0.19540699
Link 450 842 6080 0 1.00000000
Link 842 22 6081 0 1.75948917
Link 60 213 6121 0 3.83609596
Link 23 580 6211 1 2.97758791
Link 862 287 6242 1 0.31551782
Link 330 13 6247 0 1.68896123
Link 155 588 6396 0 3.66710575
Link 197 895 6504 1 0.68167794
Link 895 144 6505 1 -0.53477243
Link 8 635 6506 0 3.39758715
Link 756 32 6531 0 -3.44509094
Link 45 771 6541 0 2.56407677
Link 531 904 6570 0 1.95639480
Link 904 723 6571 0 2.10639350
Link 27 123 6697 1 -1.70010531
Link 75 925 6704 0 0.60104477
Link 925 771 6705 0 2.87195030
Link 690 756 6839 1 -0.48376410
Link 60 224 6947 1 2.11499298
Link 537 268 7035 0 -0.81493559
Link 62 305 7116 1 -0.91602236
Link 4 376 7164 0 2.93774329
Link 376 974 7203 1 2.14706603
Link 974 862 7204 1 2.55987206
Link 515 975 7206 0 0.49722558
Link 975 41 7207 0 -2.24119566
Link 197 34 7367 1 -0.89553703
Link 11 488 7402 1 0.19769677
Link 72 1018 7579 0 1.00000000
Link 1018 690 7580 0 0.56105338
Link 2 251 7584 0 -0.71711137
Link 8 1024 7628 0 1.00000000
Link 1024 52 7629 0 -1.52165192
Link 588 213 7722 0 0.38064562
Link 45 904 7811 0 -3.48594334
Link 974 376 7837 0 -1.16771892
Link 287 1057 7887 0 1.00000000
Link 1057 12 7888 0 -1.21413200
GenomeEnd

