GenomeStart 39377
Neuron 1 1 0.00000000 1 0.00000000 0.00000000 0.00000000 0.00000000
Neuron 2 1 0.00000000 1 0.00000000 0.00000000 0.00000000 0.00000000
Neuron 3 1 0.00000000 1 0.00000000 0.00000000 0.00000000 0.00000000
Neuron 4 1 0.00000000 1 0.00000000 0.00000000 0.00000000 0.00000000
Neuron 5 1 0.00000000 1 0.00000000 0.00000000 0.00000000 0.00000000
Neuron 6 1 0.00000000 1 0.00000000 0.00000000 0.00000000 0.00000000
Neuron 7 1 0.00000000 1 0.00000000 0.00000000 0.00000000 0.00000000
Neuron 8 1 0.00000000 1 0.00000000 0.00000000 0.00000000 0.00000000
Neuron 9 2 0.00000000 1 0.00000000 0.00000000 0.00000000 0.00000000
Neuron 10 4 1.00000000 0 1.00000000 0.00000000 0.00000000 0.00000000
Neuron 11 4 1.00000000 0 1.00000000 0.00000000 0.00000000 0.00000000
Neuron 12 4 1.00000000 0 1.00000000 0.00000000 0.00000000 0.00000000
Neuron 13 4 1.00000000 0 1.00000000 0.00000000 0.00000000 0.00000000
Neuron 14 4 1.00000000 0 1.00000000 0.00000000 0.00000000 0.00000000
Neuron 15 4 1.00000000 0 1.00000000 0.00000000 0.00000000 0.00000000
Neuron 16 4 1.00000000 0 1.00000000 0.00000000 0.00000000 0.00000000
Neuron 18 3 0.50000000 1 1.00000000 0.00000000 0.00000000 0.00000000
Neuron 22 3 0.50000000 1 1.00000000 0.00000000 0.00000000 0.00000000
Neuron 23 3 0.50000000 1 1.00000000 0.00000000 0.00000000 0.00000000
Neuron 24 3 0.50000000 1 1.00000000 0.00000000 0.00000000 0.00000000
Neuron 27 3 0.50000000 1 1.00000000 0.00000000 0.00000000 0.00000000
Neuron 28 3 0.50000000 1 1.00000000 0.00000000 0.00000000 0.00000000
Neuron 32 3 0.50000000 1 1.00000000 0.00000000 0.00000000 0.00000000
Neuron 34 3 0.50000000 1 1.00000000 0.00000000 0.00000000 0.00000000
Neuron 41 3 0.50000000 1 1.00000000 0.00000000 0.00000000 0.00000000
Neuron 42 3 0.50000000 1 1.00000000 0.00000000 0.00000000 0.00000000
Neuron 45 3 0.50000000 1 1.00000000 0.00000000 0.00000000 0.00000000
Neuron 49 3 0.50000000 1 1.00000000 0.00000000 0.00000000 0.00000000
Neuron 51 3 0.50000000 1 1.00000000 0.00000000 0.00000000 0.00000000
Neuron 52 3 0.50000000 1 1.00000000 0.00000000 0.00000000 0.00000000
Neuron 60 3 0.50000000 1 1.00000000 0.00000000 0.00000000 0.00000000
Neuron 62 3 0.50000000 1 1.00000000 0.00000000 0.00000000 0.00000000
Neuron 71 3 0.50000000 1 1.00000000 0.00000000 0.00000000 0.00000000
Neuron 72 3 0.75000000 1 1.00000000 0.00000000 0.00000000 0.00000000
Neuron 75 3 0.50000000 1 1.00000000 0.00000000 0.00000000 0.00000000
Neuron 79 3 0.75000000 1 1.00000000 0.00000000 0.00000000 0.00000000
Neuron 80 3 0.25000000 1 1.00000000 0.00000000 0.00000000 0.00000000
Neuron 92 3 0.25000000 1 1.00000000 0.00000000 0.00000000 0.00000000
Neuron 97 3 0.25000000 1 1.00000000 0.00000000 0.00000000 0.00000000
Neuron 104 3 0.25000000 1 1.00000000 0.00000000 0.00000000 0.00000000
Neuron 123 3 0.37500000 1 1.00000000 0.00000000 0.00000000 0.00000000
Neuron 144 3 0.25000000 1 1.00000000 0.00000000 0.00000000 0.00000000
Neuron 155 3 0.25000000 1 1.00000000 0.00000000 0.00000000 0.00000000
Neuron 167 3 0.75000000 1 1.00000000 0.00000000 0.00000000 0.00000000
Neuron 170 3 0.25000000 1 1.00000000 0.00000000 0.00000000 0.00000000
Neuron 181 3 0.75000000 1 1.00000000 0.00000000 0.00000000 0.00000000
Neuron 193 3 0.50000000 1 1.00000000 0.00000000 0.00000000 0.00000000
Neuron 197 3 0.75000000 1 1.00000000 0.00000000 0.00000000 0.00000000
Neuron 211 3 0.37500000 1 1.00000000 0.00000000 0.00000000 0.00000000
Neuron 213 3 0.75000000 1 1.00000000 0.00000000 0.00000000 0.00000000
Neuron 251 3 0.75000000 1 1.00000000 0.00000000 0.00000000 0.00000000
Neuron 253 3 0.75000000 1 1.00000000 0.00000000 0.00000000 0.00000000
Neuron 268 3 0.50000000 1 1.00000000 0.00000000 0.00000000 0.00000000
Neuron 287 3 0.50000000 1 1.00000000 0.00000000 0.00000000 0.00000000
Neuron 305 3 0.25000000 1 1.00000000 0.00000000 0.00000000 0.00000000
Neuron 312 3 0.25000000 1 1.00000000 0.00000000 0.00000000 0.00000000
Neuron 323 3 0.12500000 1 1.00000000 0.00000000 0.00000000 0.00000000
Neuron 330 3 0.37500000 1 1.00000000 0.00000000 0.00000000 0.00000000
Neuron 369 3 0.37500000 1 1.00000000 0.00000000 0.00000000 0.00000000
Neuron 376 3 0.75000000 1 1.00000000 0.00000000 0.00000000 0.00000000
Neuron 383 3 0.50000000 1 1.00000000 0.00000000 0.00000000 0.00000000
Neuron 450 3 0.50000000 1 1.00000000 0.00000000 0.00000000 0.00000000
Neuron 466 3 0.62500000 1 1.00000000 0.00000000 0.00000000 0.00000000
Neuron 531 3 0.50000000 1 1.00000000 0.00000000 0.00000000 0.00000000
Neuron 537 3 0.50000000 1 1.00000000 0.00000000 0.00000000 0.00000000
Neuron 580 3 0.37500000 1 1.00000000 0.00000000 0.00000000 0.00000000
Neuron 635 3 0.31250000 1 1.00000000 0.00000000 0.00000000 0.00000000
Neuron 697 3 0.75000000 1 1.00000000 0.00000000 0.00000000 0.00000000
Neuron 723 3 0.50000000 1 1.00000000 0.00000000 0.00000000 0.00000000
Neuron 756 3 0.12500000 1 1.00000000 0.00000000 0.00000000 0.00000000
Neuron 764 3 0.50000000 1 1.00000000 0.00000000 0.00000000 0.00000000
Neuron 878 3 0.87500000 1 1.00000000 0.00000000 0.00000000 0.00000000
Link 1 10 1 0 -1.14447748
Link 2 10 2 0 -0.81506674
Link 3 10 3 0 0.13894323
Link 4 10 4 0 -1.31630495
Link 5 10 5 0 -0.28766596
Link 6 10 6 0 3.78666682
Link 7 10 7 0 1.89006588
Link 8 10 8 0 -0.22165179
Link 9 10 9 0 1.21261884
Link 1 11 10 0 -2.95224937
Link 2 11 11 0 1.25622058
Link 3 11 12 0 -0.36380450
Link 5 11 14 0 -3.62561369
Link 6 11 15 0 -1.74849231
Link 8 11 17 0 -2.55264294
Link 9 11 18 0 1.34296105
Link 1 12 19 0 -1.19054971
Link 2 12 20 0 1.65921202
Link 4 12 22 0 1.89551828
Link 6 12 24 0 -0.75602411
Link 7 12 25 0 -1.28117921
Link 8 12 26 0 2.19008361
Link 9 12 27 0 3.05679475
Link 1 13 28 0 -4.26192086
Link 2 13 29 0 4.65342670
Link 3 13 30 0 -2.33466440
Link 4 13 31 0 1.29890495
Link 5 13 32 0 1.36844203
Link 7 13 34 0 1.93525971
Link 8 13 35 0 -2.38740512
Link 9 13 36 0 -1.45084667
Link 2 14 38 0 0.32800206
Link 4 14 40 0 -0.13277603
Link 5 14 41 0 0.55861820
Link 9 14 45 0 4.60917678
Link 1 15 46 0 -4.61067223
Link 2 15 47 0 -0.83558224
Link 3 15 48 0 1.59598285
Link 6 15 51 0 -3.39421166
Link 7 15 52 0 0.55683716
Link 8 15 53 0 -1.04551167
Link 9 15 54 0 1.28468286
Link 1 16 55 0 -2.10624950
Link 2 16 56 0 -4.71046829
Link 3 16 57 0 0.87520960
Link 4 16 58 0 -0.35092039
Link 5 16 59 0 -0.33194267
Link 7 16 61 0 1.45039505
Link 8 16 62 0 -2.84452872
Link 9 16 63 0 0.84096647
Link 18 16 69 0 -3.06084832
Link 1 22 80 0 -4.13446126
Link 1 23 83 0 0.46774352
Link 23 10 84 0 -1.37485229
Link 6 27 95 0 -2.39462562
Link 27 14 96 0 -1.63443168
Link 3 32 110 0 2.15832065
Link 34 14 118 0 -0.59009438
Link 41 15 141 0 -1.92967134
Link 2 45 153 0 1.09908742
Link 3 49 167 0 0.18178249
Link 49 12 168 0 -2.94950752
Link 6 32 177 0 0.73860824
Link 4 51 183 0 0.12275065
Link 51 15 184 0 -0.15820366
Link 6 52 186 0 2.27669670
Link 52 13 187 0 -1.33957508
Link 4 60 226 0 2.43181508
Link 62 14 235 0 0.35085222
Link 7 71 298 0 -0.47324772
Link 71 11 299 0 -0.31870989
Link 9 23 300 0 0.01518003
Link 32 10 304 0 0.11413500
Link 22 72 306 0 -0.91346090
Link 72 14 307 0 0.93092684
Link 23 12 323 0 -3.97666500
Link 24 79 354 0 0.45022289
Link 79 14 355 0 0.58543499
Link 3 80 366 0 1.30331189
Link 6 23 377 0 0.48919273
Link 9 22 483 0 -1.64620834
Link 2 97 486 0 3.78241896
Link 12 12 499 1 0.16202288
Link 22 22 530 1 -4.91516884
Link 5 104 561 0 1.04715864
Link 104 28 562 0 0.19498556
Link 7 75 585 0 2.88283759
Link 34 16 590 0 1.37144860
Link 16 49 674 1 -3.45489913
Link 4 41 731 0 -2.46036997
Link 97 123 743 0 2.64864214
Link 123 18 744 0 0.64557354
Link 45 32 772 0 -1.87730719
Link 2 23 822 0 -1.23621060
Link 45 10 867 0 -0.32905637
Link 2 144 883 0 -3.99478132
Link 7 155 979 0 3.30366015
Link 8 52 1058 0 -2.48581407
Link 28 167 1065 0 1.64224091
Link 167 11 1066 0 1.95418670
Link 7 170 1089 0 0.91526893
Link 170 28 1090 0 -0.97719919
Link 42 181 1152 0 1.02490391
Link 181 16 1153 0 3.04465601
Link 24 16 1183 0 -1.36350696
Link 7 193 1248 0 -0.07561807
Link 193 14 1249 0 -2.85470212
Link 24 24 1252 1 0.75050083
Link 197 14 1284 0 0.54056206
Link 92 211 1385 0 1.39404880
Link 211 75 1386 0 1.71258306
Link 75 213 1392 0 -1.07232982
Link 213 10 1393 0 0.38514963
Link 4 28 1485 0 4.71878744
Link 9 62 1561 0 0.01821836
Link 41 24 1597 0 -4.37664404
Link 60 251 1640 0 1.24173364
Link 251 11 1641 0 -1.42545134
Link 75 253 1661 0 -0.17126015
Link 253 11 1662 0 -1.39280917
Link 60 45 1678 0 -0.15211699
Link 1 268 1780 0 1.74199962
Link 268 14 1781 0 5.18984418
Link 3 287 1877 0 2.91031649
Link 8 305 1986 0 -0.47587332
Link 305 62 1987 0 0.40583183
Link 312 42 2032 0 1.24691275
Link 75 28 2068 0 2.56436590
Link 2 323 2119 0 1.67301651
Link 323 92 2120 0 1.94701937
Link 155 330 2151 0 1.35820253
Link 330 34 2152 0 -2.36648210
Link 268 23 2275 0 -2.05810126
Link 13 49 2329 1 -3.81754432
Link 144 369 2419 0 1.10366854
Link 369 41 2420 0 -0.78854929
Link 287 376 2461 0 0.91239249
Link 376 12 2462 0 0.21462681
Link 60 383 2521 0 1.09852079
Link 383 75 2522 0 -0.48462975
Link 7 52 2569 0 -1.06504875
Link 4 144 2710 0 1.79114962
Link 9 27 2900 0 2.70917986
Link 18 450 2977 1 1.87334685
Link 450 18 2978 1 1.40863490
Link 45 466 3099 0 0.44889476
Link 466 197 3100 0 -3.61262763
Link 23 287 3180 0 -3.56918418
Link 27 27 3210 1 -1.42654149
Link 49 144 3219 1 -3.18607129
Link 45 71 3242 0 -0.83026199
Link 97 23 3379 0 0.52500002
Link 450 450 3414 1 -1.55198168
Link 32 531 3589 0 0.66103622
Link 24 537 3633 0 2.47331328
Link 537 32 3634 0 3.48843439
Link 287 75 3656 0 1.25221965
Link 75 92 3700 1 1.10863014
Link 369 49 3779 0 0.14389118
Link 32 253 3799 0 1.90214064
Link 144 144 3836 1 0.81558280
Link 34 75 3878 0 -1.42370870
Link 3 450 3942 0 -0.85437048
Link 580 24 3995 0 -1.22490121
Link 580 23 4150 0 1.20350205
Link 123 14 4167 0 -0.79833698
Link 155 287 4312 0 4.61425880
Link 80 635 4395 0 0.73865656
Link 635 580 4396 0 1.03019777
Link 72 305 4397 1 -1.10601334
Link 18 80 4501 1 -2.52436677
Link 18 305 4841 1 -1.66435773
Link 697 75 4883 1 -1.80230599
Link 34 193 4898 0 0.60734098
Link 376 45 5030 1 2.14582673
Link 531 723 5078 0 0.68673851
Link 723 28 5079 0 -4.24862154
Link 16 42 5139 1 -1.93828259
Link 376 287 5215 1 0.02537575
Link 5 466 5245 0 -2.98109757
Link 211 213 5280 0 -4.65763505
Link 6 756 5358 0 0.56563497
Link 756 312 5359 0 -0.89447901
Link 42 764 5419 0 1.17118001
Link 764 18 5420 0 1.93777745
Link 537 287 5558 0 3.30772044
Link 41 28 5777 0 -1.93690877
Link 3 466 5834 0 -0.71734470
Link 144 14 6076 0 0.51305144
Link 60 213 6121 0 4.04068326
Link 23 580 6211 1 1.66525382
Link 14 878 6357 1 1.00000000
Link 878 697 6358 1 0.88038073
Link 330 52 6421 0 -0.29735164
Link 5 450 6479 0 -1.57351179
GenomeEnd

