GenomeStart 74694
Neuron 1 1 0.00000000 1 0.00000000 0.00000000 0.00000000 0.00000000
Neuron 2 1 0.00000000 1 0.00000000 0.00000000 0.00000000 0.00000000
Neuron 3 1 0.00000000 1 0.00000000 0.00000000 0.00000000 0.00000000
Neuron 4 1 0.00000000 1 0.00000000 0.00000000 0.00000000 0.00000000
Neuron 5 1 0.00000000 1 0.00000000 0.00000000 0.00000000 0.00000000
Neuron 6 1 0.00000000 1 0.00000000 0.00000000 0.00000000 0.00000000
Neuron 7 1 0.00000000 1 0.00000000 0.00000000 0.00000000 0.00000000
Neuron 8 1 0.00000000 1 0.00000000 0.00000000 0.00000000 0.00000000
Neuron 9 2 0.00000000 1 0.00000000 0.00000000 0.00000000 0.00000000
Neuron 10 4 1.00000000 0 1.00000000 0.00000000 0.00000000 0.00000000
Neuron 11 4 1.00000000 0 1.00000000 0.00000000 0.00000000 0.00000000
Neuron 12 4 1.00000000 0 1.00000000 0.00000000 0.00000000 0.00000000
Neuron 13 4 1.00000000 0 1.00000000 0.00000000 0.00000000 0.00000000
Neuron 14 4 1.00000000 0 1.00000000 0.00000000 0.00000000 0.00000000
Neuron 15 4 1.00000000 0 1.00000000 0.00000000 0.00000000 0.00000000
Neuron 16 4 1.00000000 0 1.00000000 0.00000000 0.00000000 0.00000000
Neuron 17 3 0.50000000 1 1.00000000 0.00000000 0.00000000 0.00000000
Neuron 18 3 0.50000000 1 1.00000000 0.00000000 0.00000000 0.00000000
Neuron 20 3 0.50000000 1 1.00000000 0.00000000 0.00000000 0.00000000
Neuron 21 3 0.50000000 1 1.00000000 0.00000000 0.00000000 0.00000000
Neuron 22 3 0.50000000 1 1.00000000 0.00000000 0.00000000 0.00000000
Neuron 23 3 0.50000000 1 1.00000000 0.00000000 0.00000000 0.00000000
Neuron 24 3 0.50000000 1 1.00000000 0.00000000 0.00000000 0.00000000
Neuron 27 3 0.50000000 1 1.00000000 0.00000000 0.00000000 0.00000000
Neuron 28 3 0.50000000 1 1.00000000 0.00000000 0.00000000 0.00000000
Neuron 30 3 0.50000000 1 1.00000000 0.00000000 0.00000000 0.00000000
Neuron 32 3 0.50000000 1 1.00000000 0.00000000 0.00000000 0.00000000
Neuron 34 3 0.50000000 1 1.00000000 0.00000000 0.00000000 0.00000000
Neuron 38 3 0.50000000 1 1.00000000 0.00000000 0.00000000 0.00000000
Neuron 41 3 0.50000000 1 1.00000000 0.00000000 0.00000000 0.00000000
Neuron 42 3 0.50000000 1 1.00000000 0.00000000 0.00000000 0.00000000
Neuron 45 3 0.50000000 1 1.00000000 0.00000000 0.00000000 0.00000000
Neuron 49 3 0.50000000 1 1.00000000 0.00000000 0.00000000 0.00000000
Neuron 50 3 0.50000000 1 1.00000000 0.00000000 0.00000000 0.00000000
Neuron 51 3 0.50000000 1 1.00000000 0.00000000 0.00000000 0.00000000
Neuron 52 3 0.50000000 1 1.00000000 0.00000000 0.00000000 0.00000000
Neuron 57 3 0.50000000 1 1.00000000 0.00000000 0.00000000 0.00000000
Neuron 58 3 0.50000000 1 1.00000000 0.00000000 0.00000000 0.00000000
Neuron 60 3 0.50000000 1 1.00000000 0.00000000 0.00000000 0.00000000
Neuron 62 3 0.50000000 1 1.00000000 0.00000000 0.00000000 0.00000000
Neuron 65 3 0.50000000 1 1.00000000 0.00000000 0.00000000 0.00000000
Neuron 71 3 0.50000000 1 1.00000000 0.00000000 0.00000000 0.00000000
Neuron 72 3 0.75000000 1 1.00000000 0.00000000 0.00000000 0.00000000
Neuron 74 3 0.50000000 1 1.00000000 0.00000000 0.00000000 0.00000000
Neuron 75 3 0.50000000 1 1.00000000 0.00000000 0.00000000 0.00000000
Neuron 79 3 0.75000000 1 1.00000000 0.00000000 0.00000000 0.00000000
Neuron 80 3 0.25000000 1 1.00000000 0.00000000 0.00000000 0.00000000
Neuron 92 3 0.25000000 1 1.00000000 0.00000000 0.00000000 0.00000000
Neuron 97 3 0.25000000 1 1.00000000 0.00000000 0.00000000 0.00000000
Neuron 104 3 0.25000000 1 1.00000000 0.00000000 0.00000000 0.00000000
Neuron 111 3 0.75000000 1 1.00000000 0.00000000 0.00000000 0.00000000
Neuron 123 3 0.37500000 1 1.00000000 0.00000000 0.00000000 0.00000000
Neuron 144 3 0.25000000 1 1.00000000 0.00000000 0.00000000 0.00000000
Neuron 155 3 0.25000000 1 1.00000000 0.00000000 0.00000000 0.00000000
Neuron 167 3 0.75000000 1 1.00000000 0.00000000 0.00000000 0.00000000
Neuron 170 3 0.25000000 1 1.00000000 0.00000000 0.00000000 0.00000000
Neuron 181 3 0.75000000 1 1.00000000 0.00000000 0.00000000 0.00000000
Neuron 193 3 0.50000000 1 1.00000000 0.00000000 0.00000000 0.00000000
Neuron 194 3 0.31250000 1 1.00000000 0.00000000 0.00000000 0.00000000
Neuron 197 3 0.75000000 1 1.00000000 0.00000000 0.00000000 0.00000000
Neuron 204 3 0.25000000 1 1.00000000 0.00000000 0.00000000 0.00000000
Neuron 211 3 0.37500000 1 1.00000000 0.00000000 0.00000000 0.00000000
Neuron 213 3 0.75000000 1 1.00000000 0.00000000 0.00000000 0.00000000
Neuron 224 3 0.25000000 1 1.00000000 0.00000000 0.00000000 0.00000000
Neuron 241 3 0.12500000 1 1.00000000 0.00000000 0.00000000 0.00000000
Neuron 247 3 0.87500000 1 1.00000000 0.00000000 0.00000000 0.00000000
Neuron 250 3 0.62500000 1 1.00000000 0.00000000 0.00000000 0.00000000
Neuron 251 3 0.75000000 1 1.00000000 0.00000000 0.00000000 0.00000000
Neuron 253 3 0.75000000 1 1.00000000 0.00000000 0.00000000 0.00000000
Neuron 259 3 0.12500000 1 1.00000000 0.00000000 0.00000000 0.00000000
Neuron 268 3 0.50000000 1 1.00000000 0.00000000 0.00000000 0.00000000
Neuron 272 3 0.25000000 1 1.00000000 0.00000000 0.00000000 0.00000000
Neuron 280 3 0.25000000 1 1.00000000 0.00000000 0.00000000 0.00000000
Neuron 287 3 0.50000000 1 1.00000000 0.00000000 0.00000000 0.00000000
Neuron 305 3 0.25000000 1 1.00000000 0.00000000 0.00000000 0.00000000
Neuron 312 3 0.25000000 1 1.00000000 0.00000000 0.00000000 0.00000000
Neuron 323 3 0.12500000 1 1.00000000 0.00000000 0.00000000 0.00000000
Neuron 330 3 0.37500000 1 1.00000000 0.00000000 0.00000000 0.00000000
Neuron 331 3 0.50000000 1 1.00000000 0.00000000 0.00000000 0.00000000
Neuron 364 3 0.87500000 1 1.00000000 0.00000000 0.00000000 0.00000000
Neuron 368 3 0.50000000 1 1.00000000 0.00000000 0.00000000 0.00000000
Neuron 369 3 0.37500000 1 1.00000000 0.00000000 0.00000000 0.00000000
Neuron 376 3 0.75000000 1 1.00000000 0.00000000 0.00000000 0.00000000
Neuron 383 3 0.50000000 1 1.00000000 0.00000000 0.00000000 0.00000000
Neuron 433 3 0.50000000 1 1.00000000 0.00000000 0.00000000 0.00000000
Neuron 450 3 0.50000000 1 1.00000000 0.00000000 0.00000000 0.00000000
Neuron 452 3 0.50000000 1 1.00000000 0.00000000 0.00000000 0.00000000
Neuron 457 3 0.37500000 1 1.00000000 0.00000000 0.00000000 0.00000000
Neuron 466 3 0.62500000 1 1.00000000 0.00000000 0.00000000 0.00000000
Neuron 488 3 0.25000000 1 1.00000000 0.00000000 0.00000000 0.00000000
Neuron 511 3 0.50000000 1 1.00000000 0.00000000 0.00000000 0.00000000
Neuron 515 3 0.37500000 1 1.00000000 0.00000000 0.00000000 0.00000000
Neuron 531 3 0.50000000 1 1.00000000 0.00000000 0.00000000 0.00000000
Neuron 537 3 0.50000000 1 1.00000000 0.00000000 0.00000000 0.00000000
Neuron 552 3 0.75000000 1 1.00000000 0.00000000 0.00000000 0.00000000
Neuron 566 3 0.50000000 1 1.00000000 0.00000000 0.00000000 0.00000000
Neuron 579 3 0.37500000 1 1.00000000 0.00000000 0.00000000 0.00000000
Neuron 580 3 0.37500000 1 1.00000000 0.00000000 0.00000000 0.00000000
Neuron 588 3 0.50000000 1 1.00000000 0.00000000 0.00000000 0.00000000
Neuron 607 3 0.50000000 1 1.00000000 0.00000000 0.00000000 0.00000000
Neuron 635 3 0.31250000 1 1.00000000 0.00000000 0.00000000 0.00000000
Neuron 647 3 0.50000000 1 1.00000000 0.00000000 0.00000000 0.00000000
Neuron 650 3 0.75000000 1 1.00000000 0.00000000 0.00000000 0.00000000
Neuron 689 3 0.12500000 1 1.00000000 0.00000000 0.00000000 0.00000000
Neuron 690 3 0.87500000 1 1.00000000 0.00000000 0.00000000 0.00000000
Neuron 697 3 0.75000000 1 1.00000000 0.00000000 0.00000000 0.00000000
Neuron 719 3 0.50000000 1 1.00000000 0.00000000 0.00000000 0.00000000
Neuron 723 3 0.50000000 1 1.00000000 0.00000000 0.00000000 0.00000000
Neuron 733 3 0.12500000 1 1.00000000 0.00000000 0.00000000 0.00000000
Neuron 738 3 0.25000000 1 1.00000000 0.00000000 0.00000000 0.00000000
Neuron 756 3 0.12500000 1 1.00000000 0.00000000 0.00000000 0.00000000
Neuron 758 3 0.28125000 1 1.00000000 0.00000000 0.00000000 0.00000000
Neuron 764 3 0.50000000 1 1.00000000 0.00000000 0.00000000 0.00000000
Neuron 771 3 0.62500000 1 1.00000000 0.00000000 0.00000000 0.00000000
Neuron 811 3 0.50000000 1 1.00000000 0.00000000 0.00000000 0.00000000
Neuron 823 3 0.62500000 1 1.00000000 0.00000000 0.00000000 0.00000000
Neuron 827 3 0.25000000 1 1.00000000 0.00000000 0.00000000 0.00000000
Neuron 862 3 0.62500000 1 1.00000000 0.00000000 0.00000000 0.00000000
Neuron 863 3 0.43750000 1 1.00000000 0.00000000 0.00000000 0.00000000
Neuron 878 3 0.87500000 1 1.00000000 0.00000000 0.00000000 0.00000000
Neuron 885 3 0.25000000 1 1.00000000 0.00000000 0.00000000 0.00000000
Neuron 925 3 0.56250000 1 1.00000000 0.00000000 0.00000000 0.00000000
Neuron 928 3 0.75000000 1 1.00000000 0.00000000 0.00000000 0.00000000
Neuron 940 3 0.62500000 1 1.00000000 0.00000000 0.00000000 0.00000000
Neuron 952 3 0.62500000 1 1.00000000 0.00000000 0.00000000 0.00000000
Neuron 958 3 0.62500000 1 1.00000000 0.00000000 0.00000000 0.00000000
Neuron 962 3 0.43750000 1 1.00000000 0.00000000 0.00000000 0.00000000
Neuron 972 3 0.59375000 1 1.00000000 0.00000000 0.00000000 0.00000000
Neuron 975 3 0.43750000 1 1.00000000 0.00000000 0.00000000 0.00000000
Neuron 978 3 0.40625000 1 1.00000000 0.00000000 0.00000000 0.00000000
Neuron 980 3 0.12500000 1 1.00000000 0.00000000 0.00000000 0.00000000
Neuron 982 3 0.60937500 1 1.00000000 0.00000000 0.00000000 0.00000000
Neuron 1001 3 0.37500000 1 1.00000000 0.00000000 0.00000000 0.00000000
Neuron 1020 3 0.31250000 1 1.00000000 0.00000000 0.00000000 0.00000000
Neuron 1032 3 0.62500000 1 1.00000000 0.00000000 0.00000000 0.00000000
Neuron 1038 3 0.50000000 1 1.00000000 0.00000000 0.00000000 0.00000000
Neuron 1053 3 0.50000000 1 1.00000000 0.00000000 0.00000000 0.00000000
Neuron 1058 3 0.87500000 1 1.00000000 0.00000000 0.00000000 0.00000000
Neuron 1069 3 0.56250000 1 1.00000000 0.00000000 0.00000000 0.00000000
Neuron 1070 3 0.75000000 1 1.00000000 0.00000000 0.00000000 0.00000000
Neuron 1071 3 0.25000000 1 1.00000000 0.00000000 0.00000000 0.00000000
Neuron 1078 3 0.18750000 1 1.00000000 0.00000000 0.00000000 0.00000000
Neuron 1093 3 0.43750000 1 1.00000000 0.00000000 0.00000000 0.00000000
Neuron 1096 3 0.25000000 1 1.00000000 0.00000000 0.00000000 0.00000000
Neuron 1165 3 0.75000000 1 1.00000000 0.00000000 0.00000000 0.00000000
Neuron 1262 3 0.50000000 1 1.00000000 0.00000000 0.00000000 0.00000000
Neuron 1268 3 0.50000000 1 1.00000000 0.00000000 0.00000000 0.00000000
Neuron 1274 3 0.25000000 1 1.00000000 0.00000000 0.00000000 0.00000000
Neuron 1316 3 0.37500000 1 1.00000000 0.00000000 0.00000000 0.00000000
Neuron 1326 3 0.37500000 1 1.00000000 0.00000000 0.00000000 0.00000000
Neuron 1334 3 0.50000000 1 1.00000000 0.00000000 0.00000000 0.00000000
Neuron 1381 3 0.50000000 1 1.00000000 0.00000000 0.00000000 0.00000000
Neuron 1383 3 0.29687500 1 1.00000000 0.00000000 0.00000000 0.00000000
Neuron 1384 3 0.62500000 1 1.00000000 0.00000000 0.00000000 0.00000000
Neuron 1386 3 0.37500000 1 1.00000000 0.00000000 0.00000000 0.00000000
Neuron 1404 3 0.50000000 1 1.00000000 0.00000000 0.00000000 0.00000000
Neuron 1488 3 0.56250000 1 1.00000000 0.00000000 0.00000000 0.00000000
Link 1 10 1 0 -1.35359772
Link 2 10 2 0 1.90761062
Link 3 10 3 0 0.89512618
Link 4 10 4 0 -4.18753494
Link 5 10 5 0 -2.52736603
Link 6 10 6 0 -1.27583269
Link 7 10 7 0 0.14181809
Link 8 10 8 0 -0.07661338
Link 9 10 9 0 -1.42591633
Link 1 11 10 0 -5.84370005
Link 2 11 11 0 -2.56069970
Link 5 11 14 0 2.59247320
Link 6 11 15 0 -0.89732669
Link 8 11 17 0 1.93475620
Link 9 11 18 0 2.69341855
Link 1 12 19 0 -2.28820208
Link 6 12 24 0 -2.19668551
Link 7 12 25 0 3.27554503
Link 8 12 26 0 -1.03639737
Link 9 12 27 0 2.85582763
Link 3 13 30 0 -0.40670453
Link 4 13 31 0 -2.72773008
Link 5 13 32 0 2.52735844
Link 7 13 34 0 1.70955841
Link 8 13 35 0 1.23006686
Link 9 13 36 0 -0.72749641
Link 2 14 38 0 -3.61013667
Link 5 14 41 0 0.88984933
Link 9 14 45 0 -1.05197506
Link 1 15 46 0 -6.17031179
Link 2 15 47 0 -0.35946729
Link 3 15 48 0 2.64798631
Link 6 15 51 0 -0.72000045
Link 7 15 52 0 -1.87642648
Link 9 15 54 0 0.99654233
Link 1 16 55 0 -2.11980568
Link 2 16 56 0 -0.17812708
Link 4 16 58 0 0.76179178
Link 5 16 59 0 1.53294298
Link 7 16 61 0 -0.96835955
Link 8 16 62 0 2.54400879
Link 9 16 63 0 0.85356804
Link 4 17 65 0 0.96534445
Link 17 14 66 0 1.61661870
Link 18 16 69 0 2.35178601
Link 4 20 74 0 1.50874638
Link 20 12 75 0 -0.75891884
Link 5 21 77 0 2.04320350
Link 21 16 78 0 -0.43761054
Link 1 22 80 0 -0.60801108
Link 1 23 83 0 1.28662785
Link 23 10 84 0 1.18846764
Link 6 27 95 0 4.23214265
Link 27 14 96 0 0.95747166
Link 1 30 104 0 1.09615080
Link 30 13 105 0 -1.64746257
Link 3 32 110 0 1.36060222
Link 34 14 118 0 0.41876251
Link 2 38 130 0 0.99366372
Link 38 12 131 0 0.52653344
Link 41 15 141 0 -0.10004193
Link 2 45 153 0 2.94575059
Link 49 12 168 0 3.86168295
Link 7 50 170 0 -1.57384370
Link 50 13 171 0 0.15436781
Link 6 32 177 0 -0.53482470
Link 4 51 183 0 -0.40806673
Link 51 15 184 0 -3.05811723
Link 6 52 186 0 -0.43402453
Link 52 13 187 0 0.94268422
Link 8 57 213 0 -1.47691775
Link 57 15 214 0 -0.38522686
Link 8 58 216 0 1.68100251
Link 58 13 217 0 2.20950069
Link 4 60 226 0 1.77270580
Link 60 11 227 0 -3.30014771
Link 3 65 250 0 0.61637683
Link 65 16 251 0 -0.75209536
Link 71 11 299 0 -0.89461702
Link 9 23 300 0 4.37331802
Link 22 72 306 0 1.58603514
Link 2 74 318 0 2.07219131
Link 74 13 319 0 -1.28258010
Link 23 12 323 0 -0.27049246
Link 6 23 377 0 -1.25040455
Link 14 75 411 1 -4.07067146
Link 2 92 461 0 -2.17902357
Link 9 22 483 0 3.71173110
Link 2 97 486 0 -4.46908761
Link 12 12 499 1 1.88925449
Link 22 22 530 1 0.31405960
Link 5 104 561 0 0.15460103
Link 7 75 585 0 -2.29384807
Link 34 16 590 0 -4.93949788
Link 62 111 601 0 -0.39592221
Link 111 14 602 0 -1.53758455
Link 16 49 674 1 1.78749546
Link 4 41 731 0 -2.59586963
Link 97 123 743 0 -0.01749226
Link 123 18 744 0 -2.62599152
Link 45 32 772 0 -4.01360091
Link 45 10 867 0 1.69286059
Link 2 144 883 0 -0.27951186
Link 155 34 980 0 1.19104496
Link 8 52 1058 0 -0.12041455
Link 167 11 1066 0 -2.58443828
Link 7 170 1089 0 -0.28900110
Link 170 28 1090 0 -1.68043335
Link 181 16 1153 0 0.46323494
Link 24 16 1183 0 -1.51360770
Link 7 193 1248 0 2.97694301
Link 193 14 1249 0 -4.96530156
Link 24 24 1252 1 4.75000698
Link 97 194 1257 0 -1.01901489
Link 194 123 1258 0 -3.69393816
Link 5 62 1262 0 -0.17312520
Link 45 197 1283 0 2.59317504
Link 197 14 1284 0 3.23121080
Link 3 204 1327 0 1.12652450
Link 204 49 1328 0 0.80872158
Link 92 211 1385 0 -0.08305823
Link 75 213 1392 0 0.09932939
Link 213 10 1393 0 -2.58466035
Link 224 23 1448 0 3.88522303
Link 155 155 1471 1 -0.85031796
Link 4 28 1485 0 -1.70817797
Link 9 62 1561 0 -0.39255884
Link 7 241 1584 0 -0.09761096
Link 241 155 1585 0 1.14408946
Link 79 247 1611 0 1.07852943
Link 247 14 1612 0 -1.81973834
Link 24 250 1631 0 0.89071289
Link 250 79 1632 0 -2.01701603
Link 251 11 1641 0 -0.94428785
Link 60 45 1678 0 0.45143365
Link 6 259 1726 0 0.84495174
Link 259 224 1727 0 -0.74016607
Link 1 268 1780 0 0.70036301
Link 268 14 1781 0 0.67017084
Link 7 272 1794 0 -0.77265521
Link 272 71 1795 0 -0.04754720
Link 4 280 1837 0 -0.98042374
Link 3 287 1877 0 -0.09255409
Link 287 12 1878 0 -0.16604831
Link 8 305 1986 0 -0.14669113
Link 305 62 1987 0 0.76664569
Link 312 42 2032 0 -2.08700573
Link 2 323 2119 0 -2.60737988
Link 323 92 2120 0 0.00008150
Link 155 330 2151 0 -1.00645896
Link 330 34 2152 0 -1.70211544
Link 2 331 2161 0 0.40856662
Link 331 13 2162 0 2.21889633
Link 50 23 2181 0 -0.66248073
Link 49 75 2215 0 0.98960496
Link 268 23 2275 0 -2.83328741
Link 13 49 2329 1 -1.98844118
Link 72 364 2389 0 0.58394836
Link 364 14 2390 0 -0.32492790
Link 3 368 2415 0 1.11684254
Link 368 11 2416 0 3.27587082
Link 144 369 2419 0 -0.85834939
Link 369 41 2420 0 2.38551442
Link 287 376 2461 0 0.89498162
Link 376 12 2462 0 -2.74065280
Link 60 383 2521 0 -0.30226314
Link 383 75 2522 0 1.01761450
Link 155 24 2525 0 -3.88976235
Link 7 52 2569 0 -4.06731931
Link 4 144 2710 0 -0.39080246
Link 75 433 2861 0 0.50720726
Link 9 27 2900 0 1.88705991
Link 24 197 2932 0 -4.02304036
Link 450 18 2978 1 1.72327733
Link 3 452 2992 0 1.26126011
Link 452 16 2993 0 0.27773025
Link 28 18 3010 0 -0.89143231
Link 170 457 3039 0 1.51434142
Link 457 28 3040 0 -0.81037284
Link 45 466 3099 0 1.62843299
Link 466 197 3100 0 0.71498449
Link 12 305 3101 1 0.55491424
Link 23 287 3180 0 -0.93201956
Link 27 27 3210 1 0.31879868
Link 49 144 3219 1 0.64851386
Link 45 71 3242 0 -0.51583773
Link 488 27 3276 0 1.52373270
Link 450 450 3414 1 1.46888439
Link 41 511 3449 0 1.00441524
Link 511 24 3450 0 2.16291632
Link 280 515 3470 0 0.81003779
Link 51 42 3537 0 -0.80499234
Link 24 537 3633 0 0.36925472
Link 537 32 3634 0 2.80797564
Link 75 92 3700 1 1.14450052
Link 62 552 3711 0 0.83160959
Link 552 14 3712 0 0.83244155
Link 369 49 3779 0 0.21147630
Link 32 253 3799 0 -2.92110101
Link 287 566 3827 0 0.25325994
Link 566 75 3828 0 0.91006517
Link 144 144 3836 1 -0.92524753
Link 3 450 3942 0 0.94949856
Link 27 16 3943 0 0.38236781
Link 97 579 3979 0 1.52061122
Link 580 24 3995 0 -1.63277808
Link 588 22 4046 1 -1.66536669
Link 580 23 4150 0 -1.39244998
Link 123 14 4167 0 -1.75414703
Link 34 607 4212 0 3.16099562
Link 155 287 4312 0 1.25196397
Link 635 580 4396 0 1.42353352
Link 72 305 4397 1 0.81880873
Link 18 647 4485 1 2.08264715
Link 647 450 4486 1 -1.95898232
Link 18 80 4501 1 1.11561564
Link 24 650 4511 0 -0.41020528
Link 650 14 4512 0 -2.24971312
Link 3 689 4809 0 0.69577021
Link 253 690 4816 0 -0.53698006
Link 690 11 4817 0 -2.95986394
Link 18 305 4841 1 1.53353052
Link 697 75 4883 1 -1.69404295
Link 34 193 4898 0 -1.10975422
Link 376 45 5030 1 -0.07817273
Link 32 719 5047 0 -2.40531501
Link 719 531 5048 0 -2.68583807
Link 531 723 5078 0 1.88632283
Link 723 28 5079 0 0.28572011
Link 16 42 5139 1 -0.07386968
Link 6 733 5176 0 0.85256165
Link 733 488 5177 0 2.01797453
Link 457 52 5197 0 -1.11984977
Link 738 450 5218 0 -0.12771641
Link 211 213 5280 0 -3.65129790
Link 450 22 5284 0 3.46447401
Link 6 756 5358 0 -1.09777493
Link 756 312 5359 0 -1.45810377
Link 80 758 5366 0 1.01582082
Link 42 764 5419 0 -1.43103162
Link 764 18 5420 0 -0.07323348
Link 369 71 5443 0 -0.50336120
Link 75 771 5494 0 -1.47094338
Link 771 253 5495 0 1.54093407
Link 537 287 5558 0 -3.42154717
Link 62 531 5569 0 1.78578987
Link 9 123 5597 0 -0.31960072
Link 170 18 5618 0 1.90789824
Link 41 28 5777 0 0.86713922
Link 170 197 5810 0 -2.50392654
Link 60 823 5913 0 2.24524954
Link 823 251 5914 0 -2.19095573
Link 2 827 5947 0 2.27768616
Link 827 588 5948 0 0.38522719
Link 18 213 6013 0 0.42941935
Link 144 14 6076 0 1.00671690
Link 23 580 6211 1 -0.63206584
Link 376 862 6241 1 3.62718149
Link 211 863 6245 0 2.06207608
Link 863 75 6246 0 0.62051625
Link 14 878 6357 1 1.52198444
Link 878 697 6358 1 -2.75501244
Link 2 885 6394 0 -0.50419133
Link 5 450 6479 0 -1.80026362
Link 45 771 6541 0 -0.59296493
Link 75 925 6704 0 0.87051465
Link 75 450 6742 0 0.79475411
Link 71 928 6746 0 1.11380935
Link 928 10 6747 0 0.44157346
Link 940 181 6864 0 1.08816877
Link 8 764 6905 0 -1.91114109
Link 123 181 6943 0 0.01892315
Link 60 224 6947 1 -1.05622545
Link 181 952 6965 1 0.40350439
Link 952 531 6966 1 -4.25381280
Link 60 958 7024 0 1.53009967
Link 958 213 7025 0 -1.15611825
Link 962 52 7071 0 0.49590422
Link 925 972 7166 0 0.99462880
Link 515 975 7206 0 0.01002959
Link 330 978 7241 0 2.28605792
Link 978 962 7242 0 -1.09396584
Link 3 980 7269 0 1.72659450
Link 980 738 7270 0 4.25113577
Link 972 982 7283 0 -0.00181055
Link 982 771 7284 0 0.21641854
Link 170 170 7366 1 3.04353893
Link 280 635 7410 0 -4.43249011
Link 104 1001 7435 0 -0.19882929
Link 1001 28 7436 0 -0.19325126
Link 253 376 7504 0 3.16514166
Link 52 79 7529 0 -1.27555512
Link 3 1020 7602 0 -0.93193213
Link 1020 466 7603 0 -0.11381888
Link 28 1032 7689 0 0.82238347
Link 1032 167 7690 0 -3.61583350
Link 60 1038 7739 0 0.76944221
Link 607 1053 7856 0 0.34123680
Link 1053 75 7857 0 -0.23352763
Link 253 1058 7912 0 0.53250204
Link 1058 11 7913 0 -1.35114114
Link 862 1069 8003 1 1.22420340
Link 1069 287 8004 1 -1.38082640
Link 28 1070 8006 0 0.51268027
Link 1070 11 8007 0 1.75601968
Link 6 1071 8010 0 3.72190634
Link 1071 42 8011 0 0.63080878
Link 689 1078 8059 0 1.12896970
Link 1078 80 8060 0 -2.39866476
Link 579 1093 8164 0 2.98883903
Link 1093 23 8165 0 0.55603257
Link 5 1096 8181 0 2.10455184
Link 1096 28 8182 0 -3.03432268
Link 287 22 8218 0 -1.11527205
Link 27 383 8571 0 -0.44526945
Link 450 62 8640 0 0.17996987
Link 52 466 8656 0 -0.99012091
Link 330 376 8709 0 1.53612887
Link 42 1165 8739 0 0.44037913
Link 1165 16 8740 0 0.01839480
Link 27 197 8766 0 1.12694791
Link 537 65 8795 0 2.39112063
Link 194 193 9084 0 -0.94434530
Link 72 635 9214 1 2.30536529
Link 1038 1262 9606 0 1.49463759
Link 1262 75 9607 0 -0.13325524
Link 1268 28 9679 0 -0.55228266
Link 975 155 9703 1 -3.03842998
Link 2 1274 9716 0 -1.89208101
Link 193 30 9784 0 -4.74488820
Link 74 975 9908 1 2.28846176
Link 330 18 10068 0 1.75491262
Link 756 1316 10098 0 1.00000000
Link 1316 466 10099 0 -2.01692897
Link 885 1326 10169 0 1.52425448
Link 1326 23 10170 0 -0.26633795
Link 22 1334 10221 1 2.59229396
Link 1334 811 10222 1 0.61041859
Link 32 74 10453 0 -0.11733089
Link 323 170 10476 0 -0.99813350
Link 80 50 10556 0 -0.22709640
Link 811 1381 10628 1 1.79675876
Link 1381 588 10629 1 0.07006016
Link 758 1383 10643 0 0.76184602
Link 1383 635 10644 0 0.31971168
Link 213 1384 10658 1 0.09285757
Link 1384 723 10659 1 1.59951183
Link 1274 1386 10667 0 1.61985179
Link 1386 28 10668 0 -0.93465147
Link 433 1404 10804 0 0.88950013
Link 1404 1268 10805 0 0.67726915
Link 980 213 10991 0 0.72082937
Link 827 28 11173 0 0.33742500
Link 369 27 11347 0 -1.50764241
Link 42 1488 11520 0 2.05803457
Link 1488 940 11521 0 2.60203995
Link 863 272 11665 1 0.65533052
Link 689 211 11861 0 -1.52372795
Link 1384 1384 12000 1 -0.42362598
Link 1268 11 12130 0 0.21536160
Link 287 738 12169 1 2.17638852
Link 980 925 12555 0 -2.01947552
Link 49 980 12642 1 -3.44280460
Link 204 368 12718 0 -1.66716028
Link 312 213 12762 0 2.90533670
Link 28 155 12786 1 0.16165309
GenomeEnd

