GenomeStart 43250
Neuron 1 1 0.00000000 1 0.00000000 0.00000000 0.00000000 0.00000000
Neuron 2 1 0.00000000 1 0.00000000 0.00000000 0.00000000 0.00000000
Neuron 3 1 0.00000000 1 0.00000000 0.00000000 0.00000000 0.00000000
Neuron 4 1 0.00000000 1 0.00000000 0.00000000 0.00000000 0.00000000
Neuron 5 1 0.00000000 1 0.00000000 0.00000000 0.00000000 0.00000000
Neuron 6 1 0.00000000 1 0.00000000 0.00000000 0.00000000 0.00000000
Neuron 7 1 0.00000000 1 0.00000000 0.00000000 0.00000000 0.00000000
Neuron 8 1 0.00000000 1 0.00000000 0.00000000 0.00000000 0.00000000
Neuron 9 2 0.00000000 1 0.00000000 0.00000000 0.00000000 0.00000000
Neuron 10 4 1.00000000 0 1.00000000 0.00000000 0.00000000 0.00000000
Neuron 11 4 1.00000000 0 1.00000000 0.00000000 0.00000000 0.00000000
Neuron 12 4 1.00000000 0 1.00000000 0.00000000 0.00000000 0.00000000
Neuron 13 4 1.00000000 0 1.00000000 0.00000000 0.00000000 0.00000000
Neuron 14 4 1.00000000 0 1.00000000 0.00000000 0.00000000 0.00000000
Neuron 15 4 1.00000000 0 1.00000000 0.00000000 0.00000000 0.00000000
Neuron 16 4 1.00000000 0 1.00000000 0.00000000 0.00000000 0.00000000
Neuron 18 3 0.50000000 1 1.00000000 0.00000000 0.00000000 0.00000000
Neuron 22 3 0.50000000 1 1.00000000 0.00000000 0.00000000 0.00000000
Neuron 23 3 0.50000000 1 1.00000000 0.00000000 0.00000000 0.00000000
Neuron 24 3 0.50000000 1 1.00000000 0.00000000 0.00000000 0.00000000
Neuron 27 3 0.50000000 1 1.00000000 0.00000000 0.00000000 0.00000000
Neuron 28 3 0.50000000 1 1.00000000 0.00000000 0.00000000 0.00000000
Neuron 32 3 0.50000000 1 1.00000000 0.00000000 0.00000000 0.00000000
Neuron 34 3 0.50000000 1 1.00000000 0.00000000 0.00000000 0.00000000
Neuron 41 3 0.50000000 1 1.00000000 0.00000000 0.00000000 0.00000000
Neuron 42 3 0.50000000 1 1.00000000 0.00000000 0.00000000 0.00000000
Neuron 45 3 0.50000000 1 1.00000000 0.00000000 0.00000000 0.00000000
Neuron 49 3 0.50000000 1 1.00000000 0.00000000 0.00000000 0.00000000
Neuron 51 3 0.50000000 1 1.00000000 0.00000000 0.00000000 0.00000000
Neuron 52 3 0.50000000 1 1.00000000 0.00000000 0.00000000 0.00000000
Neuron 54 3 0.50000000 1 1.00000000 0.00000000 0.00000000 0.00000000
Neuron 60 3 0.50000000 1 1.00000000 0.00000000 0.00000000 0.00000000
Neuron 62 3 0.50000000 1 1.00000000 0.00000000 0.00000000 0.00000000
Neuron 71 3 0.50000000 1 1.00000000 0.00000000 0.00000000 0.00000000
Neuron 72 3 0.75000000 1 1.00000000 0.00000000 0.00000000 0.00000000
Neuron 75 3 0.50000000 1 1.00000000 0.00000000 0.00000000 0.00000000
Neuron 79 3 0.75000000 1 1.00000000 0.00000000 0.00000000 0.00000000
Neuron 80 3 0.25000000 1 1.00000000 0.00000000 0.00000000 0.00000000
Neuron 92 3 0.25000000 1 1.00000000 0.00000000 0.00000000 0.00000000
Neuron 97 3 0.25000000 1 1.00000000 0.00000000 0.00000000 0.00000000
Neuron 123 3 0.37500000 1 1.00000000 0.00000000 0.00000000 0.00000000
Neuron 144 3 0.25000000 1 1.00000000 0.00000000 0.00000000 0.00000000
Neuron 155 3 0.25000000 1 1.00000000 0.00000000 0.00000000 0.00000000
Neuron 167 3 0.75000000 1 1.00000000 0.00000000 0.00000000 0.00000000
Neuron 170 3 0.25000000 1 1.00000000 0.00000000 0.00000000 0.00000000
Neuron 181 3 0.75000000 1 1.00000000 0.00000000 0.00000000 0.00000000
Neuron 193 3 0.50000000 1 1.00000000 0.00000000 0.00000000 0.00000000
Neuron 195 3 0.50000000 1 1.00000000 0.00000000 0.00000000 0.00000000
Neuron 197 3 0.75000000 1 1.00000000 0.00000000 0.00000000 0.00000000
Neuron 211 3 0.37500000 1 1.00000000 0.00000000 0.00000000 0.00000000
Neuron 213 3 0.75000000 1 1.00000000 0.00000000 0.00000000 0.00000000
Neuron 251 3 0.75000000 1 1.00000000 0.00000000 0.00000000 0.00000000
Neuron 253 3 0.75000000 1 1.00000000 0.00000000 0.00000000 0.00000000
Neuron 268 3 0.50000000 1 1.00000000 0.00000000 0.00000000 0.00000000
Neuron 287 3 0.50000000 1 1.00000000 0.00000000 0.00000000 0.00000000
Neuron 305 3 0.25000000 1 1.00000000 0.00000000 0.00000000 0.00000000
Neuron 312 3 0.25000000 1 1.00000000 0.00000000 0.00000000 0.00000000
Neuron 323 3 0.12500000 1 1.00000000 0.00000000 0.00000000 0.00000000
Neuron 330 3 0.37500000 1 1.00000000 0.00000000 0.00000000 0.00000000
Neuron 369 3 0.37500000 1 1.00000000 0.00000000 0.00000000 0.00000000
Neuron 376 3 0.75000000 1 1.00000000 0.00000000 0.00000000 0.00000000
Neuron 450 3 0.50000000 1 1.00000000 0.00000000 0.00000000 0.00000000
Neuron 466 3 0.62500000 1 1.00000000 0.00000000 0.00000000 0.00000000
Neuron 531 3 0.50000000 1 1.00000000 0.00000000 0.00000000 0.00000000
Neuron 532 3 0.75000000 1 1.00000000 0.00000000 0.00000000 0.00000000
Neuron 537 3 0.50000000 1 1.00000000 0.00000000 0.00000000 0.00000000
Neuron 580 3 0.37500000 1 1.00000000 0.00000000 0.00000000 0.00000000
Neuron 611 3 0.12500000 1 1.00000000 0.00000000 0.00000000 0.00000000
Neuron 635 3 0.31250000 1 1.00000000 0.00000000 0.00000000 0.00000000
Neuron 690 3 0.87500000 1 1.00000000 0.00000000 0.00000000 0.00000000
Neuron 756 3 0.12500000 1 1.00000000 0.00000000 0.00000000 0.00000000
Neuron 764 3 0.50000000 1 1.00000000 0.00000000 0.00000000 0.00000000
Neuron 862 3 0.62500000 1 1.00000000 0.00000000 0.00000000 0.00000000
Neuron 974 3 0.68750000 1 1.00000000 0.00000000 0.00000000 0.00000000
Link 1 10 1 0 -0.83296811
Link 2 10 2 0 -2.54927743
Link 3 10 3 0 -0.39778267
Link 4 10 4 0 -0.20660636
Link 5 10 5 0 0.88848412
Link 6 10 6 0 3.53937028
Link 7 10 7 0 1.40334007
Link 8 10 8 0 -0.14354657
Link 9 10 9 0 1.04014973
Link 1 11 10 0 -3.60714535
Link 2 11 11 0 1.49322347
Link 3 11 12 0 -0.49826635
Link 5 11 14 0 -2.79451745
Link 6 11 15 0 -2.81045918
Link 8 11 17 0 -2.83999250
Link 9 11 18 0 1.61315913
Link 1 12 19 0 -0.95218497
Link 2 12 20 0 1.17631574
Link 6 12 24 0 -1.01205438
Link 7 12 25 0 -2.43719812
Link 8 12 26 0 2.60290773
Link 9 12 27 0 3.19083315
Link 1 13 28 0 -3.80849814
Link 2 13 29 0 4.94833391
Link 4 13 31 0 0.75704095
Link 5 13 32 0 0.13717201
Link 7 13 34 0 2.33565221
Link 8 13 35 0 -1.70076786
Link 9 13 36 0 -2.12452517
Link 2 14 38 0 0.21509205
Link 4 14 40 0 1.09997345
Link 5 14 41 0 0.33621262
Link 9 14 45 0 5.30186677
Link 1 15 46 0 -4.41065712
Link 2 15 47 0 0.54885655
Link 3 15 48 0 1.35767090
Link 6 15 51 0 -3.24469145
Link 7 15 52 0 0.01488859
Link 8 15 53 0 -0.14831582
Link 9 15 54 0 1.03326876
Link 1 16 55 0 -3.06756353
Link 2 16 56 0 -4.97739472
Link 3 16 57 0 -0.43282056
Link 4 16 58 0 0.26739899
Link 5 16 59 0 -1.64680265
Link 7 16 61 0 0.94913230
Link 8 16 62 0 -3.50411204
Link 9 16 63 0 1.34895801
Link 18 16 69 0 -2.40784345
Link 1 22 80 0 -4.12658244
Link 1 23 83 0 -0.04052170
Link 23 10 84 0 -1.31140912
Link 6 27 95 0 -2.09681435
Link 27 14 96 0 -1.52286148
Link 5 28 98 0 -0.00499554
Link 3 32 110 0 2.40203087
Link 34 14 118 0 -1.23796366
Link 41 15 141 0 -2.16472448
Link 2 45 153 0 1.06733981
Link 3 49 167 0 -0.12750647
Link 49 12 168 0 -2.41570588
Link 6 32 177 0 1.90879903
Link 4 51 183 0 0.40457772
Link 51 15 184 0 0.24391208
Link 6 52 186 0 1.55044217
Link 52 13 187 0 -1.17914513
Link 3 54 193 0 1.28025733
Link 54 13 194 0 -2.78803185
Link 4 60 226 0 2.51890199
Link 62 14 235 0 1.08656715
Link 7 71 298 0 -0.79831543
Link 71 11 299 0 -0.01544284
Link 9 23 300 0 0.07355089
Link 32 10 304 0 -0.15472583
Link 22 72 306 0 -0.70620858
Link 72 14 307 0 0.50695204
Link 23 12 323 0 -3.94336939
Link 24 79 354 0 1.94586616
Link 79 14 355 0 0.18469427
Link 3 80 366 0 1.85377077
Link 6 23 377 0 1.52747870
Link 14 75 411 1 -1.99379642
Link 9 22 483 0 -0.87995140
Link 2 97 486 0 2.56228317
Link 12 12 499 1 0.91737267
Link 22 22 530 1 -4.03658852
Link 7 75 585 0 3.18917702
Link 34 16 590 0 2.29378904
Link 16 49 674 1 -4.22343252
Link 4 41 731 0 -2.62298119
Link 97 123 743 0 2.77531849
Link 123 18 744 0 0.73629623
Link 2 23 822 0 -1.80427408
Link 45 10 867 0 -0.46568518
Link 2 144 883 0 -3.59386933
Link 7 155 979 0 4.10040042
Link 8 52 1058 0 -2.40951782
Link 28 167 1065 0 1.83976923
Link 167 11 1066 0 1.37242639
Link 7 170 1089 0 1.50874035
Link 170 28 1090 0 0.09587262
Link 42 181 1152 0 1.12574672
Link 181 16 1153 0 3.84735710
Link 7 193 1248 0 0.16241651
Link 193 14 1249 0 -1.97023761
Link 24 24 1252 1 1.66021923
Link 45 195 1267 0 0.53612219
Link 195 32 1268 0 -2.74663220
Link 22 24 1275 0 1.12638290
Link 197 14 1284 0 -0.16362217
Link 92 211 1385 0 1.21552826
Link 211 75 1386 0 1.31376996
Link 75 213 1392 0 0.14337345
Link 213 10 1393 0 1.06649202
Link 4 28 1485 0 5.11318520
Link 9 62 1561 0 0.10813007
Link 41 24 1597 0 -3.27154969
Link 60 251 1640 0 2.91592653
Link 251 11 1641 0 -2.39797043
Link 75 253 1661 0 -0.41099372
Link 71 71 1671 1 0.31931903
Link 60 45 1678 0 0.17838508
Link 60 75 1756 0 -0.26494141
Link 1 268 1780 0 1.31652078
Link 268 14 1781 0 5.67007158
Link 3 287 1877 0 1.24481162
Link 305 62 1987 0 1.02612238
Link 312 42 2032 0 -0.13708997
Link 75 28 2068 0 3.25297399
Link 2 323 2119 0 2.26185991
Link 323 92 2120 0 1.97962416
Link 155 330 2151 0 0.81535357
Link 330 34 2152 0 -3.80410194
Link 268 23 2275 0 -2.16933893
Link 13 49 2329 1 -4.12704742
Link 144 369 2419 0 1.84522980
Link 369 41 2420 0 -1.24074050
Link 287 376 2461 0 1.01360841
Link 376 12 2462 0 -0.07050705
Link 7 52 2569 0 -1.47611581
Link 4 144 2710 0 0.45302584
Link 9 27 2900 0 2.67834607
Link 18 450 2977 1 1.75021183
Link 450 18 2978 1 1.88660180
Link 45 466 3099 0 1.69195414
Link 466 197 3100 0 -4.10755523
Link 23 287 3180 0 -4.43537600
Link 27 27 3210 1 -0.69870483
Link 49 144 3219 1 -3.14774634
Link 45 71 3242 0 0.03892759
Link 97 23 3379 0 0.63149187
Link 450 450 3414 1 -1.23605866
Link 23 22 3415 0 -1.09934428
Link 32 531 3589 0 -0.04281756
Link 531 28 3590 0 -2.96500198
Link 24 532 3593 0 0.48527258
Link 532 16 3594 0 -1.08959200
Link 24 537 3633 0 2.31621428
Link 537 32 3634 0 3.83174416
Link 287 75 3656 0 1.65547240
Link 75 92 3700 1 1.59356383
Link 155 14 3754 0 2.94736141
Link 369 49 3779 0 -0.61706337
Link 32 253 3799 0 0.69765900
Link 144 144 3836 1 -0.28785002
Link 34 75 3878 0 -2.30376800
Link 3 450 3942 0 -1.13904560
Link 580 24 3995 0 -2.01366778
Link 580 23 4150 0 0.12703180
Link 123 14 4167 0 -0.09580256
Link 8 611 4239 0 0.79877769
Link 611 305 4240 0 -1.02938457
Link 155 287 4312 0 3.84462956
Link 80 635 4395 0 0.86897280
Link 635 580 4396 0 1.04568266
Link 72 305 4397 1 -1.06740043
Link 18 80 4501 1 -3.00059900
Link 253 690 4816 0 0.32157490
Link 690 11 4817 0 -0.48467148
Link 18 305 4841 1 -1.93276737
Link 34 193 4898 0 1.72156174
Link 32 75 4926 0 1.26775687
Link 376 45 5030 1 2.70277164
Link 16 42 5139 1 -2.21694629
Link 5 466 5245 0 -2.85515374
Link 211 213 5280 0 -4.36210858
Link 6 756 5358 0 -0.18670953
Link 756 312 5359 0 0.14948575
Link 42 764 5419 0 0.66238592
Link 764 18 5420 0 2.68462188
Link 537 287 5558 0 4.80253952
Link 41 28 5777 0 -1.25174547
Link 3 466 5834 0 -0.12944821
Link 144 14 6076 0 1.24939532
Link 60 213 6121 0 3.82571066
Link 23 580 6211 1 3.58222797
Link 862 287 6242 1 -0.56934722
Link 330 13 6247 0 2.61155188
Link 197 144 6306 1 0.35195561
Link 8 635 6506 0 2.83762840
Link 756 32 6531 0 -3.24125436
Link 27 123 6697 1 -0.94298267
Link 690 756 6839 1 -0.66419260
Link 537 268 7035 0 -0.55235503
Link 72 690 7094 0 2.25725744
Link 62 305 7116 1 -1.34218013
Link 4 376 7164 0 3.48837263
Link 376 974 7203 1 1.11510019
Link 974 862 7204 1 1.26749918
GenomeEnd

