GenomeStart 37844
Neuron 1 1 0.00000000 1 0.00000000 0.00000000 0.00000000 0.00000000
Neuron 2 1 0.00000000 1 0.00000000 0.00000000 0.00000000 0.00000000
Neuron 3 1 0.00000000 1 0.00000000 0.00000000 0.00000000 0.00000000
Neuron 4 1 0.00000000 1 0.00000000 0.00000000 0.00000000 0.00000000
Neuron 5 1 0.00000000 1 0.00000000 0.00000000 0.00000000 0.00000000
Neuron 6 1 0.00000000 1 0.00000000 0.00000000 0.00000000 0.00000000
Neuron 7 1 0.00000000 1 0.00000000 0.00000000 0.00000000 0.00000000
Neuron 8 1 0.00000000 1 0.00000000 0.00000000 0.00000000 0.00000000
Neuron 9 2 0.00000000 1 0.00000000 0.00000000 0.00000000 0.00000000
Neuron 10 4 1.00000000 0 1.00000000 0.00000000 0.00000000 0.00000000
Neuron 11 4 1.00000000 0 1.00000000 0.00000000 0.00000000 0.00000000
Neuron 12 4 1.00000000 0 1.00000000 0.00000000 0.00000000 0.00000000
Neuron 13 4 1.00000000 0 1.00000000 0.00000000 0.00000000 0.00000000
Neuron 14 4 1.00000000 0 1.00000000 0.00000000 0.00000000 0.00000000
Neuron 15 4 1.00000000 0 1.00000000 0.00000000 0.00000000 0.00000000
Neuron 16 4 1.00000000 0 1.00000000 0.00000000 0.00000000 0.00000000
Neuron 18 3 0.50000000 1 1.00000000 0.00000000 0.00000000 0.00000000
Neuron 22 3 0.50000000 1 1.00000000 0.00000000 0.00000000 0.00000000
Neuron 23 3 0.50000000 1 1.00000000 0.00000000 0.00000000 0.00000000
Neuron 24 3 0.50000000 1 1.00000000 0.00000000 0.00000000 0.00000000
Neuron 27 3 0.50000000 1 1.00000000 0.00000000 0.00000000 0.00000000
Neuron 28 3 0.50000000 1 1.00000000 0.00000000 0.00000000 0.00000000
Neuron 32 3 0.50000000 1 1.00000000 0.00000000 0.00000000 0.00000000
Neuron 34 3 0.50000000 1 1.00000000 0.00000000 0.00000000 0.00000000
Neuron 41 3 0.50000000 1 1.00000000 0.00000000 0.00000000 0.00000000
Neuron 42 3 0.50000000 1 1.00000000 0.00000000 0.00000000 0.00000000
Neuron 45 3 0.50000000 1 1.00000000 0.00000000 0.00000000 0.00000000
Neuron 49 3 0.50000000 1 1.00000000 0.00000000 0.00000000 0.00000000
Neuron 51 3 0.50000000 1 1.00000000 0.00000000 0.00000000 0.00000000
Neuron 52 3 0.50000000 1 1.00000000 0.00000000 0.00000000 0.00000000
Neuron 60 3 0.50000000 1 1.00000000 0.00000000 0.00000000 0.00000000
Neuron 62 3 0.50000000 1 1.00000000 0.00000000 0.00000000 0.00000000
Neuron 71 3 0.50000000 1 1.00000000 0.00000000 0.00000000 0.00000000
Neuron 72 3 0.75000000 1 1.00000000 0.00000000 0.00000000 0.00000000
Neuron 75 3 0.50000000 1 1.00000000 0.00000000 0.00000000 0.00000000
Neuron 79 3 0.75000000 1 1.00000000 0.00000000 0.00000000 0.00000000
Neuron 80 3 0.25000000 1 1.00000000 0.00000000 0.00000000 0.00000000
Neuron 92 3 0.25000000 1 1.00000000 0.00000000 0.00000000 0.00000000
Neuron 97 3 0.25000000 1 1.00000000 0.00000000 0.00000000 0.00000000
Neuron 123 3 0.37500000 1 1.00000000 0.00000000 0.00000000 0.00000000
Neuron 144 3 0.25000000 1 1.00000000 0.00000000 0.00000000 0.00000000
Neuron 155 3 0.25000000 1 1.00000000 0.00000000 0.00000000 0.00000000
Neuron 167 3 0.75000000 1 1.00000000 0.00000000 0.00000000 0.00000000
Neuron 170 3 0.25000000 1 1.00000000 0.00000000 0.00000000 0.00000000
Neuron 181 3 0.75000000 1 1.00000000 0.00000000 0.00000000 0.00000000
Neuron 193 3 0.50000000 1 1.00000000 0.00000000 0.00000000 0.00000000
Neuron 197 3 0.75000000 1 1.00000000 0.00000000 0.00000000 0.00000000
Neuron 211 3 0.37500000 1 1.00000000 0.00000000 0.00000000 0.00000000
Neuron 213 3 0.75000000 1 1.00000000 0.00000000 0.00000000 0.00000000
Neuron 251 3 0.75000000 1 1.00000000 0.00000000 0.00000000 0.00000000
Neuron 253 3 0.75000000 1 1.00000000 0.00000000 0.00000000 0.00000000
Neuron 268 3 0.50000000 1 1.00000000 0.00000000 0.00000000 0.00000000
Neuron 287 3 0.50000000 1 1.00000000 0.00000000 0.00000000 0.00000000
Neuron 305 3 0.25000000 1 1.00000000 0.00000000 0.00000000 0.00000000
Neuron 312 3 0.25000000 1 1.00000000 0.00000000 0.00000000 0.00000000
Neuron 323 3 0.12500000 1 1.00000000 0.00000000 0.00000000 0.00000000
Neuron 330 3 0.37500000 1 1.00000000 0.00000000 0.00000000 0.00000000
Neuron 369 3 0.37500000 1 1.00000000 0.00000000 0.00000000 0.00000000
Neuron 376 3 0.75000000 1 1.00000000 0.00000000 0.00000000 0.00000000
Neuron 450 3 0.50000000 1 1.00000000 0.00000000 0.00000000 0.00000000
Neuron 466 3 0.62500000 1 1.00000000 0.00000000 0.00000000 0.00000000
Neuron 531 3 0.50000000 1 1.00000000 0.00000000 0.00000000 0.00000000
Neuron 537 3 0.50000000 1 1.00000000 0.00000000 0.00000000 0.00000000
Neuron 580 3 0.37500000 1 1.00000000 0.00000000 0.00000000 0.00000000
Neuron 635 3 0.31250000 1 1.00000000 0.00000000 0.00000000 0.00000000
Neuron 697 3 0.75000000 1 1.00000000 0.00000000 0.00000000 0.00000000
Neuron 756 3 0.12500000 1 1.00000000 0.00000000 0.00000000 0.00000000
Neuron 764 3 0.50000000 1 1.00000000 0.00000000 0.00000000 0.00000000
Link 1 10 1 0 -1.33953552
Link 2 10 2 0 -1.07800045
Link 3 10 3 0 -0.08264985
Link 4 10 4 0 -1.30783329
Link 5 10 5 0 0.82673304
Link 6 10 6 0 3.98402934
Link 7 10 7 0 1.17405197
Link 8 10 8 0 -1.13865210
Link 9 10 9 0 1.20176184
Link 1 11 10 0 -3.08714411
Link 2 11 11 0 1.63997248
Link 3 11 12 0 -0.26254677
Link 5 11 14 0 -3.92244124
Link 6 11 15 0 -1.92539615
Link 8 11 17 0 -2.55282392
Link 9 11 18 0 1.50897018
Link 1 12 19 0 -1.08386225
Link 2 12 20 0 0.96522578
Link 4 12 22 0 2.39910041
Link 6 12 24 0 -0.37562102
Link 7 12 25 0 -1.20120017
Link 8 12 26 0 2.57706198
Link 9 12 27 0 3.10248043
Link 1 13 28 0 -3.39687925
Link 2 13 29 0 4.35930789
Link 3 13 30 0 -2.33091410
Link 4 13 31 0 0.90979357
Link 5 13 32 0 0.69313021
Link 7 13 34 0 1.98765200
Link 8 13 35 0 -2.19847638
Link 9 13 36 0 -1.32279631
Link 2 14 38 0 1.09746009
Link 4 14 40 0 0.61406352
Link 5 14 41 0 0.32251541
Link 9 14 45 0 4.58145430
Link 1 15 46 0 -4.59438361
Link 2 15 47 0 -0.87754912
Link 3 15 48 0 1.18885740
Link 6 15 51 0 -3.08139158
Link 7 15 52 0 0.61966500
Link 8 15 53 0 -0.77909580
Link 9 15 54 0 1.40055251
Link 1 16 55 0 -2.82160209
Link 2 16 56 0 -4.57781013
Link 3 16 57 0 0.39033527
Link 4 16 58 0 0.15817361
Link 5 16 59 0 -0.33255073
Link 7 16 61 0 1.31440992
Link 8 16 62 0 -2.37102023
Link 9 16 63 0 0.78294703
Link 18 16 69 0 -2.54191282
Link 1 22 80 0 -4.04010900
Link 1 23 83 0 0.49032589
Link 23 10 84 0 -1.46194754
Link 6 27 95 0 -1.97227183
Link 27 14 96 0 -1.79023076
Link 5 28 98 0 0.41841519
Link 3 32 110 0 1.77695361
Link 34 14 118 0 -0.89777292
Link 41 15 141 0 -1.72118867
Link 2 45 153 0 1.05736096
Link 3 49 167 0 0.01266087
Link 49 12 168 0 -3.01687311
Link 6 32 177 0 0.90474162
Link 4 51 183 0 -0.36022706
Link 51 15 184 0 0.06079653
Link 6 52 186 0 1.60836713
Link 52 13 187 0 -0.95123621
Link 4 60 226 0 2.36978590
Link 62 14 235 0 -0.19025480
Link 7 71 298 0 0.02393844
Link 71 11 299 0 -0.49440836
Link 9 23 300 0 -0.29259140
Link 32 10 304 0 -0.56648152
Link 22 72 306 0 -0.48010696
Link 72 14 307 0 1.10240948
Link 23 12 323 0 -3.90523081
Link 24 79 354 0 0.72935833
Link 79 14 355 0 0.06667581
Link 3 80 366 0 1.49341804
Link 6 23 377 0 0.81658395
Link 9 22 483 0 -0.60185788
Link 2 97 486 0 2.72283482
Link 12 12 499 1 -0.12944792
Link 22 22 530 1 -4.34203427
Link 7 75 585 0 2.97578721
Link 34 16 590 0 1.24614279
Link 16 49 674 1 -4.05071228
Link 4 41 731 0 -2.43671858
Link 97 123 743 0 1.97222113
Link 123 18 744 0 0.69958317
Link 45 32 772 0 -1.82773563
Link 2 23 822 0 -1.61551381
Link 45 10 867 0 -0.36125579
Link 2 144 883 0 -4.03348226
Link 7 155 979 0 3.72779703
Link 8 52 1058 0 -2.61223921
Link 28 167 1065 0 1.31075935
Link 167 11 1066 0 2.00125106
Link 7 170 1089 0 0.96333353
Link 170 28 1090 0 -0.22909016
Link 42 181 1152 0 0.93883016
Link 181 16 1153 0 3.06870097
Link 24 16 1183 0 -1.61827217
Link 7 193 1248 0 -0.18763397
Link 193 14 1249 0 -3.03048375
Link 24 24 1252 1 0.22827052
Link 197 14 1284 0 -0.26394098
Link 92 211 1385 0 1.35737243
Link 211 75 1386 0 1.75217465
Link 75 213 1392 0 -1.47198463
Link 213 10 1393 0 1.10588944
Link 4 28 1485 0 5.12112557
Link 9 62 1561 0 0.16942389
Link 41 24 1597 0 -4.28580952
Link 60 251 1640 0 1.75905777
Link 251 11 1641 0 -1.66135530
Link 75 253 1661 0 -0.46822109
Link 253 11 1662 0 -0.81946935
Link 60 45 1678 0 -0.25010751
Link 60 75 1756 0 -0.65198440
Link 1 268 1780 0 1.31635920
Link 268 14 1781 0 5.15565117
Link 3 287 1877 0 2.60948402
Link 8 305 1986 0 -1.03224845
Link 305 62 1987 0 1.12914696
Link 312 42 2032 0 0.97489525
Link 75 28 2068 0 2.29534231
Link 2 323 2119 0 1.87138403
Link 323 92 2120 0 1.16861482
Link 155 330 2151 0 1.15109566
Link 330 34 2152 0 -3.35712191
Link 268 23 2275 0 -2.18387450
Link 13 49 2329 1 -3.50683351
Link 144 369 2419 0 1.71470604
Link 369 41 2420 0 -0.18580376
Link 287 376 2461 0 0.70172528
Link 376 12 2462 0 -0.00122878
Link 7 52 2569 0 -1.01799056
Link 4 144 2710 0 1.14145761
Link 9 27 2900 0 2.72744288
Link 18 450 2977 1 1.58225254
Link 450 18 2978 1 1.45762810
Link 45 466 3099 0 1.08584979
Link 466 197 3100 0 -3.09872916
Link 23 287 3180 0 -3.49100629
Link 27 27 3210 1 -1.51358065
Link 49 144 3219 1 -2.82313071
Link 45 71 3242 0 0.03339279
Link 97 23 3379 0 0.66015372
Link 450 450 3414 1 -1.04537983
Link 23 22 3415 0 -0.60820738
Link 32 531 3589 0 0.66205662
Link 531 28 3590 0 -4.23700050
Link 24 537 3633 0 1.87064489
Link 537 32 3634 0 3.26693004
Link 287 75 3656 0 1.24917386
Link 75 92 3700 1 0.92961858
Link 369 49 3779 0 0.25958945
Link 32 253 3799 0 1.00527205
Link 144 144 3836 1 0.64119086
Link 34 75 3878 0 -1.43378181
Link 3 450 3942 0 -0.69807548
Link 580 24 3995 0 -1.01840837
Link 580 23 4150 0 1.21572301
Link 123 14 4167 0 -0.09929513
Link 155 287 4312 0 4.45444376
Link 80 635 4395 0 1.08282795
Link 635 580 4396 0 1.10222352
Link 72 305 4397 1 -1.13241893
Link 18 80 4501 1 -2.43790956
Link 18 305 4841 1 -1.48188788
Link 14 697 4882 1 1.00000000
Link 697 75 4883 1 -2.08459385
Link 34 193 4898 0 0.81765142
Link 376 45 5030 1 2.14308553
Link 16 42 5139 1 -1.88476258
Link 376 287 5215 1 -0.32652257
Link 5 466 5245 0 -2.73348816
Link 211 213 5280 0 -4.38947759
Link 6 756 5358 0 0.64478954
Link 756 312 5359 0 -0.44743949
Link 42 764 5419 0 0.46631175
Link 764 18 5420 0 2.54637359
Link 537 287 5558 0 4.27559666
Link 41 28 5777 0 -1.74297215
Link 3 466 5834 0 -0.86639343
Link 144 14 6076 0 0.45680353
Link 60 213 6121 0 3.97782588
Link 23 580 6211 1 2.11137854
Link 537 34 6307 0 3.30476630
GenomeEnd

