GenomeStart 91913
Neuron 1 1 0.00000000 1 0.00000000 0.00000000 0.00000000 0.00000000
Neuron 2 1 0.00000000 1 0.00000000 0.00000000 0.00000000 0.00000000
Neuron 3 1 0.00000000 1 0.00000000 0.00000000 0.00000000 0.00000000
Neuron 4 1 0.00000000 1 0.00000000 0.00000000 0.00000000 0.00000000
Neuron 5 1 0.00000000 1 0.00000000 0.00000000 0.00000000 0.00000000
Neuron 6 1 0.00000000 1 0.00000000 0.00000000 0.00000000 0.00000000
Neuron 7 1 0.00000000 1 0.00000000 0.00000000 0.00000000 0.00000000
Neuron 8 1 0.00000000 1 0.00000000 0.00000000 0.00000000 0.00000000
Neuron 9 2 0.00000000 1 0.00000000 0.00000000 0.00000000 0.00000000
Neuron 10 4 1.00000000 0 1.00000000 0.00000000 0.00000000 0.00000000
Neuron 11 4 1.00000000 0 1.00000000 0.00000000 0.00000000 0.00000000
Neuron 12 4 1.00000000 0 1.00000000 0.00000000 0.00000000 0.00000000
Neuron 13 4 1.00000000 0 1.00000000 0.00000000 0.00000000 0.00000000
Neuron 14 4 1.00000000 0 1.00000000 0.00000000 0.00000000 0.00000000
Neuron 15 4 1.00000000 0 1.00000000 0.00000000 0.00000000 0.00000000
Neuron 16 4 1.00000000 0 1.00000000 0.00000000 0.00000000 0.00000000
Neuron 17 3 0.50000000 1 1.00000000 0.00000000 0.00000000 0.00000000
Neuron 18 3 0.50000000 1 1.00000000 0.00000000 0.00000000 0.00000000
Neuron 22 3 0.50000000 1 1.00000000 0.00000000 0.00000000 0.00000000
Neuron 35 3 0.50000000 1 1.00000000 0.00000000 0.00000000 0.00000000
Neuron 37 3 0.50000000 1 1.00000000 0.00000000 0.00000000 0.00000000
Neuron 43 3 0.50000000 1 1.00000000 0.00000000 0.00000000 0.00000000
Neuron 44 3 0.50000000 1 1.00000000 0.00000000 0.00000000 0.00000000
Neuron 48 3 0.50000000 1 1.00000000 0.00000000 0.00000000 0.00000000
Neuron 52 3 0.50000000 1 1.00000000 0.00000000 0.00000000 0.00000000
Neuron 59 3 0.50000000 1 1.00000000 0.00000000 0.00000000 0.00000000
Neuron 62 3 0.25000000 1 1.00000000 0.00000000 0.00000000 0.00000000
Neuron 74 3 0.50000000 1 1.00000000 0.00000000 0.00000000 0.00000000
Neuron 77 3 0.37500000 1 1.00000000 0.00000000 0.00000000 0.00000000
Neuron 105 3 0.12500000 1 1.00000000 0.00000000 0.00000000 0.00000000
Neuron 111 3 0.25000000 1 1.00000000 0.00000000 0.00000000 0.00000000
Neuron 115 3 0.25000000 1 1.00000000 0.00000000 0.00000000 0.00000000
Neuron 126 3 0.25000000 1 1.00000000 0.00000000 0.00000000 0.00000000
Neuron 134 3 0.50000000 1 1.00000000 0.00000000 0.00000000 0.00000000
Neuron 135 3 0.12500000 1 1.00000000 0.00000000 0.00000000 0.00000000
Neuron 140 3 0.75000000 1 1.00000000 0.00000000 0.00000000 0.00000000
Neuron 141 3 0.25000000 1 1.00000000 0.00000000 0.00000000 0.00000000
Neuron 155 3 0.37500000 1 1.00000000 0.00000000 0.00000000 0.00000000
Neuron 167 3 0.75000000 1 1.00000000 0.00000000 0.00000000 0.00000000
Neuron 178 3 0.75000000 1 1.00000000 0.00000000 0.00000000 0.00000000
Neuron 195 3 0.25000000 1 1.00000000 0.00000000 0.00000000 0.00000000
Neuron 220 3 0.37500000 1 1.00000000 0.00000000 0.00000000 0.00000000
Neuron 222 3 0.12500000 1 1.00000000 0.00000000 0.00000000 0.00000000
Neuron 235 3 0.43750000 1 1.00000000 0.00000000 0.00000000 0.00000000
Neuron 245 3 0.25000000 1 1.00000000 0.00000000 0.00000000 0.00000000
Neuron 264 3 0.12500000 1 1.00000000 0.00000000 0.00000000 0.00000000
Neuron 273 3 0.62500000 1 1.00000000 0.00000000 0.00000000 0.00000000
Neuron 316 3 0.37500000 1 1.00000000 0.00000000 0.00000000 0.00000000
Neuron 317 3 0.75000000 1 1.00000000 0.00000000 0.00000000 0.00000000
Neuron 337 3 0.37500000 1 1.00000000 0.00000000 0.00000000 0.00000000
Neuron 347 3 0.56250000 1 1.00000000 0.00000000 0.00000000 0.00000000
Neuron 375 3 0.37500000 1 1.00000000 0.00000000 0.00000000 0.00000000
Neuron 392 3 0.62500000 1 1.00000000 0.00000000 0.00000000 0.00000000
Neuron 423 3 0.37500000 1 1.00000000 0.00000000 0.00000000 0.00000000
Neuron 427 3 0.31250000 1 1.00000000 0.00000000 0.00000000 0.00000000
Neuron 453 3 0.18750000 1 1.00000000 0.00000000 0.00000000 0.00000000
Neuron 465 3 0.31250000 1 1.00000000 0.00000000 0.00000000 0.00000000
Neuron 469 3 0.06250000 1 1.00000000 0.00000000 0.00000000 0.00000000
Neuron 473 3 0.50000000 1 1.00000000 0.00000000 0.00000000 0.00000000
Neuron 478 3 0.75000000 1 1.00000000 0.00000000 0.00000000 0.00000000
Neuron 483 3 0.43750000 1 1.00000000 0.00000000 0.00000000 0.00000000
Neuron 485 3 0.31250000 1 1.00000000 0.00000000 0.00000000 0.00000000
Neuron 511 3 0.25000000 1 1.00000000 0.00000000 0.00000000 0.00000000
Neuron 532 3 0.62500000 1 1.00000000 0.00000000 0.00000000 0.00000000
Neuron 544 3 0.03125000 1 1.00000000 0.00000000 0.00000000 0.00000000
Neuron 563 3 0.87500000 1 1.00000000 0.00000000 0.00000000 0.00000000
Neuron 569 3 0.37500000 1 1.00000000 0.00000000 0.00000000 0.00000000
Neuron 586 3 0.18750000 1 1.00000000 0.00000000 0.00000000 0.00000000
Neuron 593 3 0.12500000 1 1.00000000 0.00000000 0.00000000 0.00000000
Neuron 621 3 0.37500000 1 1.00000000 0.00000000 0.00000000 0.00000000
Neuron 652 3 0.43750000 1 1.00000000 0.00000000 0.00000000 0.00000000
Neuron 660 3 0.12500000 1 1.00000000 0.00000000 0.00000000 0.00000000
Neuron 665 3 0.50000000 1 1.00000000 0.00000000 0.00000000 0.00000000
Neuron 679 3 0.37500000 1 1.00000000 0.00000000 0.00000000 0.00000000
Neuron 691 3 0.18750000 1 1.00000000 0.00000000 0.00000000 0.00000000
Neuron 695 3 0.31250000 1 1.00000000 0.00000000 0.00000000 0.00000000
Neuron 702 3 0.43750000 1 1.00000000 0.00000000 0.00000000 0.00000000
Neuron 715 3 0.31250000 1 1.00000000 0.00000000 0.00000000 0.00000000
Neuron 725 3 0.12500000 1 1.00000000 0.00000000 0.00000000 0.00000000
Neuron 780 3 0.12500000 1 1.00000000 0.00000000 0.00000000 0.00000000
Neuron 816 3 0.31250000 1 1.00000000 0.00000000 0.00000000 0.00000000
Neuron 822 3 0.50000000 1 1.00000000 0.00000000 0.00000000 0.00000000
Neuron 836 3 0.50000000 1 1.00000000 0.00000000 0.00000000 0.00000000
Neuron 852 3 0.12500000 1 1.00000000 0.00000000 0.00000000 0.00000000
Neuron 859 3 0.43750000 1 1.00000000 0.00000000 0.00000000 0.00000000
Neuron 944 3 0.28125000 1 1.00000000 0.00000000 0.00000000 0.00000000
Neuron 949 3 0.46875000 1 1.00000000 0.00000000 0.00000000 0.00000000
Neuron 950 3 0.81250000 1 1.00000000 0.00000000 0.00000000 0.00000000
Neuron 1017 3 0.04687500 1 1.00000000 0.00000000 0.00000000 0.00000000
Neuron 1032 3 0.28125000 1 1.00000000 0.00000000 0.00000000 0.00000000
Neuron 1054 3 0.03906250 1 1.00000000 0.00000000 0.00000000 0.00000000
Neuron 1107 3 0.01562500 1 1.00000000 0.00000000 0.00000000 0.00000000
Neuron 1134 3 0.28125000 1 1.00000000 0.00000000 0.00000000 0.00000000
Neuron 1189 3 0.53125000 1 1.00000000 0.00000000 0.00000000 0.00000000
Neuron 1223 3 0.03515625 1 1.00000000 0.00000000 0.00000000 0.00000000
Neuron 1249 3 0.34375000 1 1.00000000 0.00000000 0.00000000 0.00000000
Neuron 1273 3 0.34375000 1 1.00000000 0.00000000 0.00000000 0.00000000
Neuron 1285 3 0.18750000 1 1.00000000 0.00000000 0.00000000 0.00000000
Neuron 1294 3 0.31250000 1 1.00000000 0.00000000 0.00000000 0.00000000
Neuron 1302 3 0.28125000 1 1.00000000 0.00000000 0.00000000 0.00000000
Neuron 1357 3 0.21875000 1 1.00000000 0.00000000 0.00000000 0.00000000
Neuron 1451 3 0.00781250 1 1.00000000 0.00000000 0.00000000 0.00000000
Neuron 1469 3 0.03320312 1 1.00000000 0.00000000 0.00000000 0.00000000
Neuron 1526 3 0.18750000 1 1.00000000 0.00000000 0.00000000 0.00000000
Neuron 1548 3 0.62500000 1 1.00000000 0.00000000 0.00000000 0.00000000
Neuron 1566 3 0.32812500 1 1.00000000 0.00000000 0.00000000 0.00000000
Neuron 1663 3 0.68750000 1 1.00000000 0.00000000 0.00000000 0.00000000
Neuron 1674 3 0.32812500 1 1.00000000 0.00000000 0.00000000 0.00000000
Neuron 1681 3 0.31250000 1 1.00000000 0.00000000 0.00000000 0.00000000
Neuron 1695 3 0.18750000 1 1.00000000 0.00000000 0.00000000 0.00000000
Neuron 1715 3 0.27343750 1 1.00000000 0.00000000 0.00000000 0.00000000
Neuron 1721 3 0.71875000 1 1.00000000 0.00000000 0.00000000 0.00000000
Neuron 1857 3 0.21875000 1 1.00000000 0.00000000 0.00000000 0.00000000
Neuron 2103 3 0.48437500 1 1.00000000 0.00000000 0.00000000 0.00000000
Link 2 10 2 0 -0.74425392
Link 3 10 3 0 -2.62530335
Link 4 10 4 0 3.39833941
Link 6 10 6 0 3.82159093
Link 7 10 7 0 -0.48461230
Link 9 10 9 0 -2.01138901
Link 1 11 10 0 -2.01965835
Link 2 11 11 0 -3.36737738
Link 3 11 12 0 -1.81632686
Link 4 11 13 0 -1.05066194
Link 5 11 14 0 1.59709948
Link 6 11 15 0 0.76570939
Link 7 11 16 0 -0.18806598
Link 9 11 18 0 -1.84608591
Link 1 12 19 0 -4.15529048
Link 2 12 20 0 2.70437558
Link 3 12 21 0 1.91824716
Link 4 12 22 0 -0.74128330
Link 5 12 23 0 2.11222236
Link 7 12 25 0 2.30998915
Link 8 12 26 0 0.94204129
Link 9 12 27 0 1.05932534
Link 2 13 29 0 0.62707408
Link 5 13 32 0 1.16683460
Link 6 13 33 0 -1.74342561
Link 7 13 34 0 3.44987180
Link 8 13 35 0 -0.25758846
Link 9 13 36 0 2.60332992
Link 1 14 37 0 0.83821108
Link 4 14 40 0 -0.68446039
Link 5 14 41 0 -0.50467862
Link 6 14 42 0 0.97306640
Link 9 14 45 0 5.33972633
Link 1 15 46 0 2.22967064
Link 2 15 47 0 -3.30573623
Link 3 15 48 0 -1.68890293
Link 4 15 49 0 3.69101787
Link 5 15 50 0 -4.57395043
Link 6 15 51 0 -3.01831543
Link 1 16 55 0 -0.18226712
Link 2 16 56 0 1.84251025
Link 3 16 57 0 1.24609886
Link 7 16 61 0 -2.58887286
Link 9 16 63 0 0.31827928
Link 8 17 65 0 0.93561005
Link 17 15 66 0 -0.67000158
Link 8 18 69 0 -0.04918208
Link 18 11 70 0 -0.63139237
Link 1 22 82 0 0.77998134
Link 22 13 83 0 0.51002771
Link 1 35 121 0 -1.04382638
Link 37 10 128 0 -0.44713446
Link 43 16 147 0 1.10148976
Link 4 44 149 0 0.98159946
Link 48 15 163 0 -0.55965913
Link 52 10 177 0 1.86781470
Link 2 59 221 0 1.00000000
Link 59 14 222 0 0.26536241
Link 37 16 270 0 -3.94208828
Link 3 74 291 0 1.18813191
Link 13 37 312 1 -0.55390666
Link 37 13 420 0 -0.16927970
Link 15 15 463 1 -0.08027002
Link 44 10 468 0 -1.48495353
Link 8 105 588 0 0.63998571
Link 5 62 599 0 0.86884495
Link 8 111 643 0 1.18943730
Link 111 52 644 0 1.20354554
Link 44 12 770 0 0.71956771
Link 74 74 774 1 -0.98839344
Link 4 134 805 0 0.14770491
Link 7 135 825 0 1.15555963
Link 140 44 873 1 0.89106219
Link 7 141 875 0 0.79511145
Link 141 48 876 0 0.68673636
Link 37 37 977 1 -1.26517939
Link 167 14 1054 0 -0.75010823
Link 37 115 1125 1 2.62319477
Link 178 10 1148 0 -0.88346995
Link 12 52 1256 1 1.46680107
Link 195 35 1273 0 4.22607554
Link 5 222 1482 0 1.10027580
Link 235 220 1540 1 1.19450681
Link 5 245 1613 0 0.24150049
Link 264 195 1754 0 1.09896821
Link 273 178 1804 0 -0.38639686
Link 195 316 2104 0 1.47670596
Link 316 35 2105 0 1.70119385
Link 74 317 2108 0 1.09670790
Link 317 13 2109 0 0.37421224
Link 115 35 2147 0 -1.96813905
Link 337 35 2211 0 -1.63928464
Link 3 44 2233 0 -3.34338595
Link 35 347 2280 0 1.00000000
Link 347 273 2281 0 1.38809844
Link 6 195 2361 0 2.92890394
Link 245 220 2415 0 0.02873743
Link 375 44 2479 0 -1.71932785
Link 9 264 2515 0 2.51965987
Link 74 392 2565 0 0.68159360
Link 392 167 2566 0 0.65406584
Link 5 423 2754 0 0.65762058
Link 423 178 2755 0 -0.94567904
Link 195 74 2756 0 1.14573115
Link 245 427 2790 0 0.12279621
Link 427 375 2791 0 1.19524282
Link 7 453 2999 0 0.47648736
Link 105 465 3063 0 1.10370674
Link 465 52 3064 0 4.48742937
Link 6 134 3084 0 -0.75154364
Link 469 264 3095 0 0.99328083
Link 6 105 3112 0 3.24971465
Link 11 264 3118 1 -3.21309097
Link 74 473 3122 0 0.39028717
Link 473 43 3123 0 -1.47090230
Link 478 16 3148 0 -0.85108217
Link 77 483 3204 0 0.74651194
Link 483 43 3205 0 0.32924756
Link 62 485 3221 0 0.99497205
Link 485 77 3222 0 1.49054682
Link 6 52 3312 0 -1.69506699
Link 375 74 3322 0 -2.56908183
Link 511 35 3386 0 -0.28208407
Link 10 134 3388 1 -0.07650696
Link 52 105 3461 1 -0.63653467
Link 532 245 3508 1 -0.45170094
Link 10 563 3732 1 0.52366571
Link 563 140 3733 1 0.79861897
Link 115 569 3774 0 1.00925620
Link 569 44 3775 0 0.54134960
Link 6 586 3888 0 1.43601424
Link 316 178 3890 0 -1.30048634
Link 195 317 3904 0 -0.49487754
Link 3 593 3926 0 1.46972026
Link 593 126 3927 0 1.09138484
Link 134 74 4107 0 -4.17776282
Link 126 621 4157 0 1.04427002
Link 621 43 4158 0 0.41801064
Link 3 465 4251 0 1.47029444
Link 264 155 4255 0 1.01260560
Link 3 453 4276 0 -3.48423120
Link 4 264 4350 0 5.15367292
Link 155 652 4411 0 1.20521791
Link 652 37 4412 0 -3.04216811
Link 6 465 4413 0 -2.81406918
Link 3 660 4506 0 0.95910689
Link 660 115 4507 0 -0.56332506
Link 469 11 4646 0 0.09956278
Link 135 691 4703 0 1.05707494
Link 691 62 4704 0 -1.45132038
Link 695 155 4741 0 0.31906818
Link 679 702 4786 0 0.68933835
Link 702 44 4787 0 -1.95455328
Link 8 725 4925 0 -0.14374259
Link 135 52 4998 0 -1.54568743
Link 725 52 5177 0 -2.87634645
Link 155 35 5218 0 -3.34001840
Link 14 140 5324 1 -0.26505800
Link 1 780 5326 0 0.29490990
Link 780 511 5327 0 1.22946718
Link 178 44 5514 1 -0.27266453
Link 195 816 5600 0 1.78694353
Link 195 375 5634 0 -3.30018796
Link 665 822 5637 0 0.95374213
Link 822 43 5638 0 3.46756712
Link 52 836 5746 0 0.98459074
Link 836 665 5747 0 0.63328815
Link 6 852 5835 0 0.79880205
Link 859 74 5862 0 -2.68903503
Link 13 469 5879 1 -2.80817871
Link 465 532 6010 0 -2.02982936
Link 586 944 6465 0 0.69548961
Link 944 375 6466 0 -0.32236225
Link 702 115 6486 1 3.63827661
Link 949 235 6504 1 1.00058001
Link 16 950 6506 1 1.31677135
Link 950 532 6507 1 0.01200852
Link 4 586 6575 0 -0.37841407
Link 423 679 6594 0 -2.65540564
Link 465 134 6614 0 -1.67616905
Link 469 195 6615 0 0.64324948
Link 77 15 6660 0 0.17896040
Link 1017 469 7004 0 0.53756288
Link 816 816 7037 1 -3.82743560
Link 511 375 7058 0 -1.83183254
Link 715 1032 7089 1 0.98165481
Link 1032 62 7090 1 3.00543713
Link 195 586 7178 1 -4.65350636
Link 1054 1017 7252 0 -0.26508012
Link 195 511 7268 0 0.23563322
Link 544 105 7304 0 -1.06609665
Link 9 245 7394 0 3.71517575
Link 155 10 7424 0 -0.17204953
Link 660 220 7584 0 -0.65271355
Link 1107 544 7603 0 0.73175174
Link 715 950 7642 0 0.33929624
Link 423 167 7721 0 -1.74178841
Link 15 316 7746 1 -2.11191669
Link 453 1134 7800 0 1.23044126
Link 222 74 8072 0 0.10370327
Link 16 465 8169 1 1.24443631
Link 532 1189 8179 1 1.08150143
Link 1189 702 8180 1 0.51471139
Link 222 511 8206 0 1.84848362
Link 1223 1054 8391 0 1.33229732
Link 7 126 8454 0 -1.25436843
Link 427 52 8477 0 -1.11017917
Link 5 111 8551 0 1.84660520
Link 220 1249 8586 1 0.24416426
Link 1249 715 8587 1 1.86776966
Link 18 816 8747 1 3.15812620
Link 473 586 8770 1 0.51365933
Link 1273 679 8773 0 1.40232075
Link 660 1285 8846 0 0.35303317
Link 1285 111 8847 0 -3.70535679
Link 715 695 8891 0 0.05349973
Link 62 1294 8894 0 1.00000000
Link 1294 337 8895 0 0.99756858
Link 115 1302 8967 0 0.79119247
Link 1302 816 9110 0 -0.77038286
Link 9 337 9237 0 -0.42977562
Link 52 423 9238 1 3.26780538
Link 245 1357 9370 1 1.08926264
Link 1357 586 9371 1 -2.18214961
Link 1273 1107 9550 1 0.62565878
Link 1 1451 10014 0 -0.20624666
Link 1451 1107 10015 0 0.56654067
Link 544 1469 10162 0 0.84453764
Link 1469 1223 10163 0 1.33232110
Link 469 852 10181 0 -0.66099330
Link 852 1526 10614 0 1.00000000
Link 1526 195 10615 0 1.27182623
Link 134 1548 10743 0 1.12455165
Link 1548 478 10744 0 0.96293346
Link 593 816 10825 0 2.23779840
Link 9 691 10843 0 -0.08834116
Link 8 220 10884 0 -4.34854592
Link 1134 1566 10906 0 0.91846399
Link 1566 220 10907 0 0.32301772
Link 1107 725 11300 0 0.36302121
Link 532 1663 11720 0 1.21070940
Link 9 1451 11746 0 1.71465373
Link 816 1674 11833 0 0.77194709
Link 1674 1273 11834 0 1.06690565
Link 780 1681 11912 0 0.77190672
Link 1681 18 11913 0 0.58406434
Link 469 1223 11916 1 -0.92485500
Link 1302 18 12006 0 -3.11568978
Link 1223 586 12028 0 -3.09759158
Link 222 1695 12045 0 1.19049289
Link 1695 115 12046 0 0.60235308
Link 586 245 12076 0 1.64348507
Link 1302 12 12094 0 -0.11345990
Link 18 1715 12190 1 1.02321889
Link 1715 1017 12191 1 -0.93944198
Link 1663 1721 12224 0 1.05687442
Link 1721 317 12225 0 -3.39922342
Link 44 22 12647 0 -3.51827873
Link 1302 702 12856 0 1.22554991
Link 725 621 13135 0 -2.30448146
Link 3 1857 13369 0 1.13806013
Link 1857 859 13370 0 -0.42716876
Link 316 679 13579 0 0.93360897
Link 483 1663 13711 0 -2.48696522
Link 469 1548 13824 0 -1.79254582
Link 427 1294 13870 0 3.57643173
Link 679 17 14014 0 -0.81942021
Link 593 392 14039 0 -1.75395727
Link 469 111 14135 0 -2.61666700
Link 593 115 14266 0 -0.17039281
Link 1663 1223 14406 1 2.15247566
Link 111 1285 14665 1 0.40710450
Link 375 167 14820 0 3.09875774
Link 950 1695 15394 1 1.73592350
Link 43 2103 15415 1 1.00000000
Link 2103 949 15416 1 1.00000000
Link 852 1249 15515 0 -1.37840696
Link 1548 1294 15798 1 1.40366469
GenomeEnd

