GenomeStart 101036
Neuron 1 1 0.00000000 1 0.00000000 0.00000000 0.00000000 0.00000000
Neuron 2 1 0.00000000 1 0.00000000 0.00000000 0.00000000 0.00000000
Neuron 3 1 0.00000000 1 0.00000000 0.00000000 0.00000000 0.00000000
Neuron 4 1 0.00000000 1 0.00000000 0.00000000 0.00000000 0.00000000
Neuron 5 1 0.00000000 1 0.00000000 0.00000000 0.00000000 0.00000000
Neuron 6 1 0.00000000 1 0.00000000 0.00000000 0.00000000 0.00000000
Neuron 7 1 0.00000000 1 0.00000000 0.00000000 0.00000000 0.00000000
Neuron 8 1 0.00000000 1 0.00000000 0.00000000 0.00000000 0.00000000
Neuron 9 2 0.00000000 1 0.00000000 0.00000000 0.00000000 0.00000000
Neuron 10 4 1.00000000 0 1.00000000 0.00000000 0.00000000 0.00000000
Neuron 11 4 1.00000000 0 1.00000000 0.00000000 0.00000000 0.00000000
Neuron 12 4 1.00000000 0 1.00000000 0.00000000 0.00000000 0.00000000
Neuron 13 4 1.00000000 0 1.00000000 0.00000000 0.00000000 0.00000000
Neuron 14 4 1.00000000 0 1.00000000 0.00000000 0.00000000 0.00000000
Neuron 15 4 1.00000000 0 1.00000000 0.00000000 0.00000000 0.00000000
Neuron 16 4 1.00000000 0 1.00000000 0.00000000 0.00000000 0.00000000
Neuron 17 3 0.50000000 1 1.00000000 0.00000000 0.00000000 0.00000000
Neuron 18 3 0.50000000 1 1.00000000 0.00000000 0.00000000 0.00000000
Neuron 22 3 0.50000000 1 1.00000000 0.00000000 0.00000000 0.00000000
Neuron 35 3 0.50000000 1 1.00000000 0.00000000 0.00000000 0.00000000
Neuron 37 3 0.50000000 1 1.00000000 0.00000000 0.00000000 0.00000000
Neuron 43 3 0.50000000 1 1.00000000 0.00000000 0.00000000 0.00000000
Neuron 44 3 0.50000000 1 1.00000000 0.00000000 0.00000000 0.00000000
Neuron 48 3 0.50000000 1 1.00000000 0.00000000 0.00000000 0.00000000
Neuron 52 3 0.50000000 1 1.00000000 0.00000000 0.00000000 0.00000000
Neuron 59 3 0.50000000 1 1.00000000 0.00000000 0.00000000 0.00000000
Neuron 62 3 0.25000000 1 1.00000000 0.00000000 0.00000000 0.00000000
Neuron 74 3 0.50000000 1 1.00000000 0.00000000 0.00000000 0.00000000
Neuron 77 3 0.37500000 1 1.00000000 0.00000000 0.00000000 0.00000000
Neuron 105 3 0.12500000 1 1.00000000 0.00000000 0.00000000 0.00000000
Neuron 111 3 0.25000000 1 1.00000000 0.00000000 0.00000000 0.00000000
Neuron 115 3 0.25000000 1 1.00000000 0.00000000 0.00000000 0.00000000
Neuron 126 3 0.25000000 1 1.00000000 0.00000000 0.00000000 0.00000000
Neuron 134 3 0.50000000 1 1.00000000 0.00000000 0.00000000 0.00000000
Neuron 135 3 0.12500000 1 1.00000000 0.00000000 0.00000000 0.00000000
Neuron 140 3 0.75000000 1 1.00000000 0.00000000 0.00000000 0.00000000
Neuron 141 3 0.25000000 1 1.00000000 0.00000000 0.00000000 0.00000000
Neuron 155 3 0.37500000 1 1.00000000 0.00000000 0.00000000 0.00000000
Neuron 167 3 0.75000000 1 1.00000000 0.00000000 0.00000000 0.00000000
Neuron 178 3 0.75000000 1 1.00000000 0.00000000 0.00000000 0.00000000
Neuron 195 3 0.25000000 1 1.00000000 0.00000000 0.00000000 0.00000000
Neuron 220 3 0.37500000 1 1.00000000 0.00000000 0.00000000 0.00000000
Neuron 222 3 0.12500000 1 1.00000000 0.00000000 0.00000000 0.00000000
Neuron 235 3 0.43750000 1 1.00000000 0.00000000 0.00000000 0.00000000
Neuron 245 3 0.25000000 1 1.00000000 0.00000000 0.00000000 0.00000000
Neuron 264 3 0.12500000 1 1.00000000 0.00000000 0.00000000 0.00000000
Neuron 273 3 0.62500000 1 1.00000000 0.00000000 0.00000000 0.00000000
Neuron 316 3 0.37500000 1 1.00000000 0.00000000 0.00000000 0.00000000
Neuron 317 3 0.75000000 1 1.00000000 0.00000000 0.00000000 0.00000000
Neuron 337 3 0.37500000 1 1.00000000 0.00000000 0.00000000 0.00000000
Neuron 347 3 0.56250000 1 1.00000000 0.00000000 0.00000000 0.00000000
Neuron 375 3 0.37500000 1 1.00000000 0.00000000 0.00000000 0.00000000
Neuron 392 3 0.62500000 1 1.00000000 0.00000000 0.00000000 0.00000000
Neuron 423 3 0.37500000 1 1.00000000 0.00000000 0.00000000 0.00000000
Neuron 427 3 0.31250000 1 1.00000000 0.00000000 0.00000000 0.00000000
Neuron 453 3 0.18750000 1 1.00000000 0.00000000 0.00000000 0.00000000
Neuron 465 3 0.31250000 1 1.00000000 0.00000000 0.00000000 0.00000000
Neuron 469 3 0.06250000 1 1.00000000 0.00000000 0.00000000 0.00000000
Neuron 473 3 0.50000000 1 1.00000000 0.00000000 0.00000000 0.00000000
Neuron 478 3 0.75000000 1 1.00000000 0.00000000 0.00000000 0.00000000
Neuron 483 3 0.43750000 1 1.00000000 0.00000000 0.00000000 0.00000000
Neuron 485 3 0.31250000 1 1.00000000 0.00000000 0.00000000 0.00000000
Neuron 511 3 0.25000000 1 1.00000000 0.00000000 0.00000000 0.00000000
Neuron 532 3 0.62500000 1 1.00000000 0.00000000 0.00000000 0.00000000
Neuron 544 3 0.03125000 1 1.00000000 0.00000000 0.00000000 0.00000000
Neuron 563 3 0.87500000 1 1.00000000 0.00000000 0.00000000 0.00000000
Neuron 569 3 0.37500000 1 1.00000000 0.00000000 0.00000000 0.00000000
Neuron 586 3 0.18750000 1 1.00000000 0.00000000 0.00000000 0.00000000
Neuron 593 3 0.12500000 1 1.00000000 0.00000000 0.00000000 0.00000000
Neuron 621 3 0.37500000 1 1.00000000 0.00000000 0.00000000 0.00000000
Neuron 652 3 0.43750000 1 1.00000000 0.00000000 0.00000000 0.00000000
Neuron 660 3 0.12500000 1 1.00000000 0.00000000 0.00000000 0.00000000
Neuron 665 3 0.50000000 1 1.00000000 0.00000000 0.00000000 0.00000000
Neuron 679 3 0.37500000 1 1.00000000 0.00000000 0.00000000 0.00000000
Neuron 691 3 0.18750000 1 1.00000000 0.00000000 0.00000000 0.00000000
Neuron 695 3 0.31250000 1 1.00000000 0.00000000 0.00000000 0.00000000
Neuron 699 3 0.43750000 1 1.00000000 0.00000000 0.00000000 0.00000000
Neuron 702 3 0.43750000 1 1.00000000 0.00000000 0.00000000 0.00000000
Neuron 715 3 0.31250000 1 1.00000000 0.00000000 0.00000000 0.00000000
Neuron 725 3 0.12500000 1 1.00000000 0.00000000 0.00000000 0.00000000
Neuron 727 3 0.40625000 1 1.00000000 0.00000000 0.00000000 0.00000000
Neuron 780 3 0.12500000 1 1.00000000 0.00000000 0.00000000 0.00000000
Neuron 816 3 0.31250000 1 1.00000000 0.00000000 0.00000000 0.00000000
Neuron 822 3 0.50000000 1 1.00000000 0.00000000 0.00000000 0.00000000
Neuron 836 3 0.50000000 1 1.00000000 0.00000000 0.00000000 0.00000000
Neuron 852 3 0.12500000 1 1.00000000 0.00000000 0.00000000 0.00000000
Neuron 859 3 0.43750000 1 1.00000000 0.00000000 0.00000000 0.00000000
Neuron 899 3 0.06250000 1 1.00000000 0.00000000 0.00000000 0.00000000
Neuron 941 3 0.31250000 1 1.00000000 0.00000000 0.00000000 0.00000000
Neuron 944 3 0.28125000 1 1.00000000 0.00000000 0.00000000 0.00000000
Neuron 949 3 0.46875000 1 1.00000000 0.00000000 0.00000000 0.00000000
Neuron 950 3 0.81250000 1 1.00000000 0.00000000 0.00000000 0.00000000
Neuron 1017 3 0.04687500 1 1.00000000 0.00000000 0.00000000 0.00000000
Neuron 1032 3 0.28125000 1 1.00000000 0.00000000 0.00000000 0.00000000
Neuron 1054 3 0.03906250 1 1.00000000 0.00000000 0.00000000 0.00000000
Neuron 1107 3 0.01562500 1 1.00000000 0.00000000 0.00000000 0.00000000
Neuron 1128 3 0.50000000 1 1.00000000 0.00000000 0.00000000 0.00000000
Neuron 1134 3 0.28125000 1 1.00000000 0.00000000 0.00000000 0.00000000
Neuron 1189 3 0.53125000 1 1.00000000 0.00000000 0.00000000 0.00000000
Neuron 1223 3 0.03515625 1 1.00000000 0.00000000 0.00000000 0.00000000
Neuron 1249 3 0.34375000 1 1.00000000 0.00000000 0.00000000 0.00000000
Neuron 1273 3 0.34375000 1 1.00000000 0.00000000 0.00000000 0.00000000
Neuron 1285 3 0.18750000 1 1.00000000 0.00000000 0.00000000 0.00000000
Neuron 1294 3 0.31250000 1 1.00000000 0.00000000 0.00000000 0.00000000
Neuron 1302 3 0.28125000 1 1.00000000 0.00000000 0.00000000 0.00000000
Neuron 1357 3 0.21875000 1 1.00000000 0.00000000 0.00000000 0.00000000
Neuron 1451 3 0.00781250 1 1.00000000 0.00000000 0.00000000 0.00000000
Neuron 1469 3 0.03320312 1 1.00000000 0.00000000 0.00000000 0.00000000
Neuron 1503 3 0.31250000 1 1.00000000 0.00000000 0.00000000 0.00000000
Neuron 1526 3 0.18750000 1 1.00000000 0.00000000 0.00000000 0.00000000
Neuron 1548 3 0.62500000 1 1.00000000 0.00000000 0.00000000 0.00000000
Neuron 1566 3 0.32812500 1 1.00000000 0.00000000 0.00000000 0.00000000
Neuron 1663 3 0.68750000 1 1.00000000 0.00000000 0.00000000 0.00000000
Neuron 1674 3 0.32812500 1 1.00000000 0.00000000 0.00000000 0.00000000
Neuron 1681 3 0.31250000 1 1.00000000 0.00000000 0.00000000 0.00000000
Neuron 1695 3 0.18750000 1 1.00000000 0.00000000 0.00000000 0.00000000
Neuron 1715 3 0.27343750 1 1.00000000 0.00000000 0.00000000 0.00000000
Neuron 1721 3 0.71875000 1 1.00000000 0.00000000 0.00000000 0.00000000
Neuron 1779 3 0.56250000 1 1.00000000 0.00000000 0.00000000 0.00000000
Neuron 1805 3 0.56250000 1 1.00000000 0.00000000 0.00000000 0.00000000
Neuron 1857 3 0.21875000 1 1.00000000 0.00000000 0.00000000 0.00000000
Neuron 1956 3 0.56250000 1 1.00000000 0.00000000 0.00000000 0.00000000
Neuron 2001 3 0.15625000 1 1.00000000 0.00000000 0.00000000 0.00000000
Neuron 2103 3 0.48437500 1 1.00000000 0.00000000 0.00000000 0.00000000
Neuron 2112 3 0.32031250 1 1.00000000 0.00000000 0.00000000 0.00000000
Neuron 2164 3 0.21875000 1 1.00000000 0.00000000 0.00000000 0.00000000
Neuron 2217 3 0.21875000 1 1.00000000 0.00000000 0.00000000 0.00000000
Neuron 2227 3 0.35937500 1 1.00000000 0.00000000 0.00000000 0.00000000
Neuron 2303 3 0.48437500 1 1.00000000 0.00000000 0.00000000 0.00000000
Link 2 10 2 0 -0.82979102
Link 3 10 3 0 -2.48361829
Link 4 10 4 0 3.42702060
Link 6 10 6 0 3.95124558
Link 7 10 7 0 -0.73173983
Link 9 10 9 0 -2.14626115
Link 1 11 10 0 -1.90380335
Link 2 11 11 0 -3.16699894
Link 3 11 12 0 -1.81340189
Link 4 11 13 0 -0.96766424
Link 5 11 14 0 1.71285761
Link 6 11 15 0 0.71145969
Link 7 11 16 0 -0.11896739
Link 9 11 18 0 -1.84608591
Link 1 12 19 0 -4.15529048
Link 2 12 20 0 2.59627959
Link 3 12 21 0 1.90402358
Link 4 12 22 0 -0.77074641
Link 5 12 23 0 2.38617146
Link 7 12 25 0 2.35508389
Link 8 12 26 0 0.58390422
Link 9 12 27 0 1.02767573
Link 2 13 29 0 0.65909490
Link 5 13 32 0 1.06107737
Link 6 13 33 0 -1.75050688
Link 7 13 34 0 3.37067256
Link 8 13 35 0 -0.06170747
Link 9 13 36 0 2.39290580
Link 1 14 37 0 0.89616238
Link 4 14 40 0 -0.74663213
Link 5 14 41 0 -0.28628985
Link 6 14 42 0 0.98143845
Link 9 14 45 0 5.50534318
Link 1 15 46 0 2.27295745
Link 2 15 47 0 -3.37557055
Link 3 15 48 0 -1.68890293
Link 4 15 49 0 3.69512640
Link 5 15 50 0 -4.66558172
Link 6 15 51 0 -3.01831543
Link 1 16 55 0 -0.25335095
Link 2 16 56 0 1.77890637
Link 3 16 57 0 1.30495514
Link 7 16 61 0 -2.67683215
Link 9 16 63 0 0.26695429
Link 8 17 65 0 0.92701392
Link 17 15 66 0 -0.63682746
Link 8 18 69 0 -0.07241186
Link 18 11 70 0 -0.62830579
Link 1 22 82 0 0.58723014
Link 22 13 83 0 0.45710989
Link 1 35 121 0 -1.15676106
Link 37 10 128 0 -0.44085241
Link 43 16 147 0 1.10148976
Link 4 44 149 0 0.95517023
Link 48 15 163 0 -0.55965913
Link 52 10 177 0 1.78155164
Link 2 59 221 0 0.92782283
Link 59 14 222 0 0.27426017
Link 37 16 270 0 -4.07401854
Link 3 74 291 0 1.20305613
Link 13 37 312 1 -0.54820852
Link 37 13 420 0 -0.50028460
Link 15 15 463 1 -0.31750325
Link 44 10 468 0 -1.47485186
Link 8 105 588 0 0.63800299
Link 5 62 599 0 0.91369909
Link 8 111 643 0 1.24588128
Link 111 52 644 0 1.27502746
Link 44 12 770 0 0.76372031
Link 74 74 774 1 -0.87826542
Link 4 134 805 0 0.09073345
Link 7 135 825 0 1.14882780
Link 140 44 873 1 0.85105884
Link 7 141 875 0 0.82239368
Link 141 48 876 0 0.60001536
Link 37 37 977 1 -1.29816502
Link 167 14 1054 0 -0.74496006
Link 37 115 1125 1 2.41869144
Link 178 10 1148 0 -0.81659222
Link 12 52 1256 1 1.51436781
Link 195 35 1273 0 4.24071782
Link 5 222 1482 0 1.09415542
Link 235 220 1540 1 1.20421484
Link 264 195 1754 0 1.01002672
Link 273 178 1804 0 -0.38625106
Link 195 316 2104 0 1.40157129
Link 316 35 2105 0 1.68733163
Link 74 317 2108 0 0.95287246
Link 317 13 2109 0 0.42575032
Link 115 35 2147 0 -1.91144843
Link 337 35 2211 0 -1.38696517
Link 3 44 2233 0 -3.24935039
Link 35 347 2280 0 1.01191482
Link 347 273 2281 0 1.41483664
Link 6 195 2361 0 2.94058945
Link 245 220 2415 0 0.22624855
Link 375 44 2479 0 -1.71932785
Link 9 264 2515 0 2.56581524
Link 392 167 2566 0 0.57102690
Link 5 423 2754 0 0.65762058
Link 423 178 2755 0 -0.95325503
Link 195 74 2756 0 0.90981058
Link 245 427 2790 0 0.18426815
Link 427 375 2791 0 1.05230066
Link 7 453 2999 0 0.45338648
Link 105 465 3063 0 1.07487867
Link 465 52 3064 0 4.48742937
Link 6 134 3084 0 -0.73588130
Link 469 264 3095 0 0.99982152
Link 6 105 3112 0 3.50677970
Link 11 264 3118 1 -2.94647962
Link 74 473 3122 0 0.49611390
Link 473 43 3123 0 -1.37223681
Link 478 16 3148 0 -0.85144347
Link 77 483 3204 0 0.74651194
Link 483 43 3205 0 0.23053755
Link 62 485 3221 0 1.15558280
Link 485 77 3222 0 1.62890953
Link 6 52 3312 0 -1.63788014
Link 511 35 3386 0 -0.31611986
Link 10 134 3388 1 -0.14172053
Link 52 105 3461 1 -0.81182749
Link 532 245 3508 1 -0.41536284
Link 10 563 3732 1 1.03279092
Link 563 140 3733 1 0.76561774
Link 569 44 3775 0 0.59439263
Link 6 586 3888 0 1.43256663
Link 316 178 3890 0 -1.33477417
Link 3 593 3926 0 1.43096076
Link 593 126 3927 0 1.09138484
Link 134 74 4107 0 -4.11527818
Link 126 621 4157 0 1.04430837
Link 621 43 4158 0 0.43774217
Link 3 465 4251 0 1.44080542
Link 264 155 4255 0 0.88493262
Link 3 453 4276 0 -3.39686483
Link 4 264 4350 0 4.86958011
Link 155 652 4411 0 1.29736412
Link 652 37 4412 0 -3.04216811
Link 6 465 4413 0 -2.81406918
Link 660 115 4507 0 -0.63143012
Link 469 11 4646 0 0.08955828
Link 135 691 4703 0 1.26945031
Link 691 62 4704 0 -1.46839122
Link 695 155 4741 0 0.03785256
Link 375 699 4763 0 1.00000000
Link 699 74 4764 0 -2.56908183
Link 702 44 4787 0 -1.89991658
Link 8 725 4925 0 -0.17792618
Link 679 727 4950 0 1.00000000
Link 727 702 4951 0 0.76218709
Link 135 52 4998 0 -1.52575340
Link 725 52 5177 0 -3.49312872
Link 155 35 5218 0 -3.32817809
Link 14 140 5324 1 -0.37671644
Link 1 780 5326 0 0.43468309
Link 780 511 5327 0 1.15317414
Link 178 44 5514 1 0.04580452
Link 195 816 5600 0 1.40126350
Link 195 375 5634 0 -3.30018796
Link 665 822 5637 0 0.91368932
Link 822 43 5638 0 3.44804321
Link 836 665 5747 0 0.52373848
Link 6 852 5835 0 0.83096543
Link 859 74 5862 0 -2.40643266
Link 13 469 5879 1 -2.93204537
Link 465 532 6010 0 -2.03599898
Link 3 899 6145 0 0.96751845
Link 899 660 6146 0 0.98514324
Link 115 941 6437 0 1.00000000
Link 941 569 6438 0 0.87596446
Link 586 944 6465 0 0.76227270
Link 944 375 6466 0 -0.54814970
Link 702 115 6486 1 3.64252531
Link 949 235 6504 1 1.00058001
Link 16 950 6506 1 1.34972849
Link 950 532 6507 1 0.14218601
Link 4 586 6575 0 -0.38719617
Link 423 679 6594 0 -2.86061290
Link 465 134 6614 0 -1.74865537
Link 469 195 6615 0 0.77220008
Link 77 15 6660 0 0.21144565
Link 1017 469 7004 0 0.63370011
Link 816 816 7037 1 -4.06859459
Link 511 375 7058 0 -1.77420256
Link 715 1032 7089 1 0.94627401
Link 1032 62 7090 1 3.31770089
Link 195 586 7178 1 -4.61323945
Link 1054 1017 7252 0 -0.30205948
Link 195 511 7268 0 0.25802875
Link 544 105 7304 0 -1.03278732
Link 9 245 7394 0 3.92225110
Link 155 10 7424 0 -0.14310543
Link 660 220 7584 0 -0.68062052
Link 1107 544 7603 0 0.79729330
Link 423 167 7721 0 -1.76135993
Link 15 316 7746 1 -2.11191669
Link 859 178 7757 0 -0.09392669
Link 52 1128 7762 0 1.03462535
Link 1128 836 7763 0 1.02160192
Link 453 1134 7800 0 1.23760204
Link 222 74 8072 0 0.18377992
Link 16 465 8169 1 1.23210964
Link 532 1189 8179 1 0.71470605
Link 222 511 8206 0 2.04249230
Link 544 1223 8390 0 -3.08687419
Link 1223 1054 8391 0 1.29760900
Link 7 126 8454 0 -1.21653054
Link 427 52 8477 0 -1.20571935
Link 5 111 8551 0 1.84836243
Link 220 1249 8586 1 0.20113262
Link 1249 715 8587 1 1.95255203
Link 18 816 8747 1 3.13123428
Link 473 586 8770 1 0.56323210
Link 1273 679 8773 0 1.43487548
Link 660 1285 8846 0 0.12298458
Link 1285 111 8847 0 -3.66978386
Link 62 1294 8894 0 1.00000000
Link 1294 337 8895 0 0.99756858
Link 115 1302 8967 0 0.77262860
Link 1302 816 9110 0 -0.81672792
Link 9 337 9237 0 -0.35175211
Link 52 423 9238 1 3.26780538
Link 245 1357 9370 1 1.01815820
Link 1357 586 9371 1 -2.18777034
Link 1273 1107 9550 1 0.62546625
Link 1 1451 10014 0 -0.19382353
Link 1451 1107 10015 0 0.49124465
Link 544 1469 10162 0 0.87629504
Link 1469 1223 10163 0 1.27021657
Link 469 852 10181 0 -0.55025600
Link 715 1503 10437 0 1.00000000
Link 1503 695 10438 0 0.09189855
Link 852 1526 10614 0 0.93030094
Link 134 1548 10743 0 1.18724352
Link 1548 478 10744 0 0.95427448
Link 593 816 10825 0 2.08568762
Link 9 691 10843 0 -0.10109159
Link 8 220 10884 0 -4.32277869
Link 1134 1566 10906 0 1.00294043
Link 1566 220 10907 0 -0.73625218
Link 1107 725 11300 0 0.29191625
Link 532 1663 11720 0 1.16076332
Link 9 1451 11746 0 1.70216872
Link 1674 1273 11834 0 1.06690565
Link 780 1681 11912 0 0.51013719
Link 1681 18 11913 0 0.55103794
Link 469 1223 11916 1 -0.34233341
Link 1302 18 12006 0 -3.04915265
Link 1223 586 12028 0 -3.02587743
Link 222 1695 12045 0 1.11791172
Link 1695 115 12046 0 0.18226033
Link 586 245 12076 0 1.58742646
Link 1302 12 12094 0 -0.01990866
Link 18 1715 12190 1 0.99467407
Link 1715 1017 12191 1 -0.93941245
Link 1663 1721 12224 0 0.92256281
Link 1721 317 12225 0 -3.70270988
Link 715 1779 12627 0 1.00000000
Link 1779 950 12628 0 0.36032329
Link 44 22 12647 0 -3.53767331
Link 1302 702 12856 0 1.21950491
Link 74 1805 12876 0 0.88250748
Link 1805 392 12877 0 0.65303164
Link 725 621 13135 0 -2.23714869
Link 3 1857 13369 0 0.82392039
Link 1857 859 13370 0 -0.45441025
Link 316 679 13579 0 0.91760352
Link 469 1548 13824 0 -1.78215446
Link 427 1294 13870 0 3.51085092
Link 679 17 14014 0 -0.95879341
Link 593 392 14039 0 -1.78864831
Link 1134 485 14172 0 2.66402100
Link 483 1956 14200 0 1.00000000
Link 1956 1663 14201 0 -2.48633089
Link 593 115 14266 0 -0.10940823
Link 1663 1223 14406 1 2.15119684
Link 469 2001 14511 0 1.07712850
Link 2001 111 14512 0 -2.74364450
Link 375 167 14820 0 3.09370617
Link 1 141 14975 0 -0.01313198
Link 950 1695 15394 1 1.79226298
Link 43 2103 15415 1 1.02330687
Link 2103 949 15416 1 1.03705986
Link 816 2112 15464 0 1.03615010
Link 2112 1674 15465 0 0.73728518
Link 852 1249 15515 0 -2.07005901
Link 1548 1294 15798 1 1.46957527
Link 235 950 15881 0 0.37136202
Link 1681 1249 15940 0 2.92843485
Link 111 2164 15977 1 0.22788695
Link 2164 1285 15978 1 0.40683713
Link 1032 1681 16117 0 -3.55432334
Link 465 780 16269 1 1.54340795
Link 1469 949 16352 0 -2.41784753
Link 1526 2217 16387 0 0.96623045
Link 2217 195 16388 0 1.21036890
Link 44 2227 16489 1 1.00000000
Link 2227 2164 16490 1 1.61469631
Link 222 1285 16532 0 0.95494808
Link 569 59 16556 0 -1.41262434
Link 2 695 16810 0 2.39678895
Link 155 859 16907 0 1.02037356
Link 111 427 17080 0 1.21189321
Link 1189 2303 17152 1 1.00000000
Link 2303 702 17153 1 0.84153605
Link 10 1294 17434 1 -2.33775234
GenomeEnd

