GenomeStart 57440
Neuron 1 1 0.00000000 1 0.00000000 0.00000000 0.00000000 0.00000000
Neuron 2 1 0.00000000 1 0.00000000 0.00000000 0.00000000 0.00000000
Neuron 3 1 0.00000000 1 0.00000000 0.00000000 0.00000000 0.00000000
Neuron 4 1 0.00000000 1 0.00000000 0.00000000 0.00000000 0.00000000
Neuron 5 1 0.00000000 1 0.00000000 0.00000000 0.00000000 0.00000000
Neuron 6 1 0.00000000 1 0.00000000 0.00000000 0.00000000 0.00000000
Neuron 7 1 0.00000000 1 0.00000000 0.00000000 0.00000000 0.00000000
Neuron 8 1 0.00000000 1 0.00000000 0.00000000 0.00000000 0.00000000
Neuron 9 2 0.00000000 1 0.00000000 0.00000000 0.00000000 0.00000000
Neuron 10 4 1.00000000 0 1.00000000 0.00000000 0.00000000 0.00000000
Neuron 11 4 1.00000000 0 1.00000000 0.00000000 0.00000000 0.00000000
Neuron 12 4 1.00000000 0 1.00000000 0.00000000 0.00000000 0.00000000
Neuron 13 4 1.00000000 0 1.00000000 0.00000000 0.00000000 0.00000000
Neuron 14 4 1.00000000 0 1.00000000 0.00000000 0.00000000 0.00000000
Neuron 15 4 1.00000000 0 1.00000000 0.00000000 0.00000000 0.00000000
Neuron 16 4 1.00000000 0 1.00000000 0.00000000 0.00000000 0.00000000
Neuron 17 3 0.50000000 1 1.00000000 0.00000000 0.00000000 0.00000000
Neuron 18 3 0.50000000 1 1.00000000 0.00000000 0.00000000 0.00000000
Neuron 19 3 0.50000000 1 1.00000000 0.00000000 0.00000000 0.00000000
Neuron 20 3 0.50000000 1 1.00000000 0.00000000 0.00000000 0.00000000
Neuron 21 3 0.50000000 1 1.00000000 0.00000000 0.00000000 0.00000000
Neuron 22 3 0.50000000 1 1.00000000 0.00000000 0.00000000 0.00000000
Neuron 24 3 0.50000000 1 1.00000000 0.00000000 0.00000000 0.00000000
Neuron 25 3 0.50000000 1 1.00000000 0.00000000 0.00000000 0.00000000
Neuron 26 3 0.50000000 1 1.00000000 0.00000000 0.00000000 0.00000000
Neuron 27 3 0.50000000 1 1.00000000 0.00000000 0.00000000 0.00000000
Neuron 28 3 0.50000000 1 1.00000000 0.00000000 0.00000000 0.00000000
Neuron 29 3 0.50000000 1 1.00000000 0.00000000 0.00000000 0.00000000
Neuron 30 3 0.50000000 1 1.00000000 0.00000000 0.00000000 0.00000000
Neuron 31 3 0.50000000 1 1.00000000 0.00000000 0.00000000 0.00000000
Neuron 33 3 0.50000000 1 1.00000000 0.00000000 0.00000000 0.00000000
Neuron 34 3 0.50000000 1 1.00000000 0.00000000 0.00000000 0.00000000
Neuron 35 3 0.50000000 1 1.00000000 0.00000000 0.00000000 0.00000000
Neuron 36 3 0.50000000 1 1.00000000 0.00000000 0.00000000 0.00000000
Neuron 38 3 0.50000000 1 1.00000000 0.00000000 0.00000000 0.00000000
Neuron 39 3 0.50000000 1 1.00000000 0.00000000 0.00000000 0.00000000
Neuron 41 3 0.50000000 1 1.00000000 0.00000000 0.00000000 0.00000000
Neuron 42 3 0.50000000 1 1.00000000 0.00000000 0.00000000 0.00000000
Neuron 43 3 0.50000000 1 1.00000000 0.00000000 0.00000000 0.00000000
Neuron 44 3 0.50000000 1 1.00000000 0.00000000 0.00000000 0.00000000
Neuron 45 3 0.50000000 1 1.00000000 0.00000000 0.00000000 0.00000000
Neuron 46 3 0.50000000 1 1.00000000 0.00000000 0.00000000 0.00000000
Neuron 47 3 0.50000000 1 1.00000000 0.00000000 0.00000000 0.00000000
Neuron 48 3 0.50000000 1 1.00000000 0.00000000 0.00000000 0.00000000
Neuron 50 3 0.50000000 1 1.00000000 0.00000000 0.00000000 0.00000000
Neuron 51 3 0.50000000 1 1.00000000 0.00000000 0.00000000 0.00000000
Neuron 52 3 0.50000000 1 1.00000000 0.00000000 0.00000000 0.00000000
Neuron 53 3 0.50000000 1 1.00000000 0.00000000 0.00000000 0.00000000
Neuron 55 3 0.50000000 1 1.00000000 0.00000000 0.00000000 0.00000000
Neuron 56 3 0.50000000 1 1.00000000 0.00000000 0.00000000 0.00000000
Neuron 57 3 0.50000000 1 1.00000000 0.00000000 0.00000000 0.00000000
Neuron 58 3 0.50000000 1 1.00000000 0.00000000 0.00000000 0.00000000
Neuron 59 3 0.50000000 1 1.00000000 0.00000000 0.00000000 0.00000000
Neuron 60 3 0.50000000 1 1.00000000 0.00000000 0.00000000 0.00000000
Neuron 62 3 0.50000000 1 1.00000000 0.00000000 0.00000000 0.00000000
Neuron 63 3 0.50000000 1 1.00000000 0.00000000 0.00000000 0.00000000
Neuron 65 3 0.50000000 1 1.00000000 0.00000000 0.00000000 0.00000000
Neuron 66 3 0.75000000 1 1.00000000 0.00000000 0.00000000 0.00000000
Neuron 68 3 0.50000000 1 1.00000000 0.00000000 0.00000000 0.00000000
Neuron 70 3 0.50000000 1 1.00000000 0.00000000 0.00000000 0.00000000
Neuron 71 3 0.75000000 1 1.00000000 0.00000000 0.00000000 0.00000000
Neuron 85 3 0.75000000 1 1.00000000 0.00000000 0.00000000 0.00000000
Neuron 86 3 0.25000000 1 1.00000000 0.00000000 0.00000000 0.00000000
Neuron 87 3 0.50000000 1 1.00000000 0.00000000 0.00000000 0.00000000
Neuron 88 3 0.50000000 1 1.00000000 0.00000000 0.00000000 0.00000000
Neuron 89 3 0.25000000 1 1.00000000 0.00000000 0.00000000 0.00000000
Neuron 90 3 0.25000000 1 1.00000000 0.00000000 0.00000000 0.00000000
Neuron 94 3 0.75000000 1 1.00000000 0.00000000 0.00000000 0.00000000
Neuron 99 3 0.25000000 1 1.00000000 0.00000000 0.00000000 0.00000000
Neuron 101 3 0.25000000 1 1.00000000 0.00000000 0.00000000 0.00000000
Neuron 107 3 0.75000000 1 1.00000000 0.00000000 0.00000000 0.00000000
Neuron 108 3 0.75000000 1 1.00000000 0.00000000 0.00000000 0.00000000
Neuron 112 3 0.87500000 1 1.00000000 0.00000000 0.00000000 0.00000000
Neuron 116 3 0.25000000 1 1.00000000 0.00000000 0.00000000 0.00000000
Neuron 124 3 0.75000000 1 1.00000000 0.00000000 0.00000000 0.00000000
Neuron 126 3 0.75000000 1 1.00000000 0.00000000 0.00000000 0.00000000
Neuron 128 3 0.75000000 1 1.00000000 0.00000000 0.00000000 0.00000000
Neuron 132 3 0.25000000 1 1.00000000 0.00000000 0.00000000 0.00000000
Neuron 139 3 0.75000000 1 1.00000000 0.00000000 0.00000000 0.00000000
Neuron 140 3 0.25000000 1 1.00000000 0.00000000 0.00000000 0.00000000
Neuron 143 3 0.75000000 1 1.00000000 0.00000000 0.00000000 0.00000000
Neuron 156 3 0.25000000 1 1.00000000 0.00000000 0.00000000 0.00000000
Neuron 164 3 0.25000000 1 1.00000000 0.00000000 0.00000000 0.00000000
Neuron 165 3 0.62500000 1 1.00000000 0.00000000 0.00000000 0.00000000
Neuron 167 3 0.25000000 1 1.00000000 0.00000000 0.00000000 0.00000000
Neuron 174 3 0.75000000 1 1.00000000 0.00000000 0.00000000 0.00000000
Neuron 182 3 0.25000000 1 1.00000000 0.00000000 0.00000000 0.00000000
Neuron 185 3 0.25000000 1 1.00000000 0.00000000 0.00000000 0.00000000
Neuron 186 3 0.50000000 1 1.00000000 0.00000000 0.00000000 0.00000000
Neuron 194 3 0.50000000 1 1.00000000 0.00000000 0.00000000 0.00000000
Neuron 196 3 0.75000000 1 1.00000000 0.00000000 0.00000000 0.00000000
Neuron 197 3 0.25000000 1 1.00000000 0.00000000 0.00000000 0.00000000
Neuron 200 3 0.25000000 1 1.00000000 0.00000000 0.00000000 0.00000000
Neuron 201 3 0.25000000 1 1.00000000 0.00000000 0.00000000 0.00000000
Neuron 204 3 0.25000000 1 1.00000000 0.00000000 0.00000000 0.00000000
Neuron 215 3 0.50000000 1 1.00000000 0.00000000 0.00000000 0.00000000
Neuron 234 3 0.87500000 1 1.00000000 0.00000000 0.00000000 0.00000000
Neuron 236 3 0.25000000 1 1.00000000 0.00000000 0.00000000 0.00000000
Neuron 239 3 0.25000000 1 1.00000000 0.00000000 0.00000000 0.00000000
Neuron 242 3 0.75000000 1 1.00000000 0.00000000 0.00000000 0.00000000
Neuron 243 3 0.75000000 1 1.00000000 0.00000000 0.00000000 0.00000000
Neuron 245 3 0.25000000 1 1.00000000 0.00000000 0.00000000 0.00000000
Neuron 246 3 0.75000000 1 1.00000000 0.00000000 0.00000000 0.00000000
Neuron 261 3 0.75000000 1 1.00000000 0.00000000 0.00000000 0.00000000
Neuron 265 3 0.25000000 1 1.00000000 0.00000000 0.00000000 0.00000000
Neuron 272 3 0.25000000 1 1.00000000 0.00000000 0.00000000 0.00000000
Neuron 275 3 0.75000000 1 1.00000000 0.00000000 0.00000000 0.00000000
Neuron 277 3 0.12500000 1 1.00000000 0.00000000 0.00000000 0.00000000
Neuron 282 3 0.25000000 1 1.00000000 0.00000000 0.00000000 0.00000000
Neuron 284 3 0.87500000 1 1.00000000 0.00000000 0.00000000 0.00000000
Neuron 294 3 0.75000000 1 1.00000000 0.00000000 0.00000000 0.00000000
Neuron 302 3 0.50000000 1 1.00000000 0.00000000 0.00000000 0.00000000
Neuron 303 3 0.50000000 1 1.00000000 0.00000000 0.00000000 0.00000000
Neuron 316 3 0.62500000 1 1.00000000 0.00000000 0.00000000 0.00000000
Neuron 320 3 0.12500000 1 1.00000000 0.00000000 0.00000000 0.00000000
Neuron 321 3 0.75000000 1 1.00000000 0.00000000 0.00000000 0.00000000
Neuron 323 3 0.25000000 1 1.00000000 0.00000000 0.00000000 0.00000000
Neuron 324 3 0.50000000 1 1.00000000 0.00000000 0.00000000 0.00000000
Neuron 330 3 0.25000000 1 1.00000000 0.00000000 0.00000000 0.00000000
Neuron 340 3 0.50000000 1 1.00000000 0.00000000 0.00000000 0.00000000
Neuron 344 3 0.25000000 1 1.00000000 0.00000000 0.00000000 0.00000000
Neuron 350 3 0.50000000 1 1.00000000 0.00000000 0.00000000 0.00000000
Neuron 352 3 0.50000000 1 1.00000000 0.00000000 0.00000000 0.00000000
Neuron 361 3 0.75000000 1 1.00000000 0.00000000 0.00000000 0.00000000
Neuron 363 3 0.62500000 1 1.00000000 0.00000000 0.00000000 0.00000000
Neuron 366 3 0.50000000 1 1.00000000 0.00000000 0.00000000 0.00000000
Neuron 377 3 0.75000000 1 1.00000000 0.00000000 0.00000000 0.00000000
Neuron 378 3 0.25000000 1 1.00000000 0.00000000 0.00000000 0.00000000
Neuron 385 3 0.75000000 1 1.00000000 0.00000000 0.00000000 0.00000000
Neuron 390 3 0.50000000 1 1.00000000 0.00000000 0.00000000 0.00000000
Neuron 394 3 0.75000000 1 1.00000000 0.00000000 0.00000000 0.00000000
Neuron 412 3 0.75000000 1 1.00000000 0.00000000 0.00000000 0.00000000
Neuron 416 3 0.50000000 1 1.00000000 0.00000000 0.00000000 0.00000000
Neuron 422 3 0.50000000 1 1.00000000 0.00000000 0.00000000 0.00000000
Neuron 425 3 0.50000000 1 1.00000000 0.00000000 0.00000000 0.00000000
Neuron 433 3 0.81250000 1 1.00000000 0.00000000 0.00000000 0.00000000
Neuron 435 3 0.87500000 1 1.00000000 0.00000000 0.00000000 0.00000000
Neuron 440 3 0.12500000 1 1.00000000 0.00000000 0.00000000 0.00000000
Neuron 448 3 0.56250000 1 1.00000000 0.00000000 0.00000000 0.00000000
Neuron 449 3 0.50000000 1 1.00000000 0.00000000 0.00000000 0.00000000
Neuron 454 3 0.50000000 1 1.00000000 0.00000000 0.00000000 0.00000000
Neuron 455 3 0.50000000 1 1.00000000 0.00000000 0.00000000 0.00000000
Neuron 458 3 0.50000000 1 1.00000000 0.00000000 0.00000000 0.00000000
Neuron 461 3 0.75000000 1 1.00000000 0.00000000 0.00000000 0.00000000
Neuron 467 3 0.37500000 1 1.00000000 0.00000000 0.00000000 0.00000000
Neuron 470 3 0.50000000 1 1.00000000 0.00000000 0.00000000 0.00000000
Neuron 473 3 0.50000000 1 1.00000000 0.00000000 0.00000000 0.00000000
Neuron 475 3 0.25000000 1 1.00000000 0.00000000 0.00000000 0.00000000
Neuron 477 3 0.81250000 1 1.00000000 0.00000000 0.00000000 0.00000000
Neuron 478 3 0.56250000 1 1.00000000 0.00000000 0.00000000 0.00000000
Neuron 486 3 0.62500000 1 1.00000000 0.00000000 0.00000000 0.00000000
Neuron 500 3 0.75000000 1 1.00000000 0.00000000 0.00000000 0.00000000
Neuron 502 3 0.50000000 1 1.00000000 0.00000000 0.00000000 0.00000000
Neuron 507 3 0.50000000 1 1.00000000 0.00000000 0.00000000 0.00000000
Neuron 509 3 0.50000000 1 1.00000000 0.00000000 0.00000000 0.00000000
Neuron 513 3 0.87500000 1 1.00000000 0.00000000 0.00000000 0.00000000
Neuron 515 3 0.50000000 1 1.00000000 0.00000000 0.00000000 0.00000000
Neuron 516 3 0.75000000 1 1.00000000 0.00000000 0.00000000 0.00000000
Neuron 519 3 0.75000000 1 1.00000000 0.00000000 0.00000000 0.00000000
Neuron 523 3 0.50000000 1 1.00000000 0.00000000 0.00000000 0.00000000
Neuron 525 3 0.87500000 1 1.00000000 0.00000000 0.00000000 0.00000000
Neuron 530 3 0.50000000 1 1.00000000 0.00000000 0.00000000 0.00000000
Neuron 531 3 0.50000000 1 1.00000000 0.00000000 0.00000000 0.00000000
Neuron 534 3 0.25000000 1 1.00000000 0.00000000 0.00000000 0.00000000
Neuron 539 3 0.37500000 1 1.00000000 0.00000000 0.00000000 0.00000000
Neuron 544 3 0.50000000 1 1.00000000 0.00000000 0.00000000 0.00000000
Neuron 562 3 0.50000000 1 1.00000000 0.00000000 0.00000000 0.00000000
Neuron 587 3 0.25000000 1 1.00000000 0.00000000 0.00000000 0.00000000
Neuron 588 3 0.31250000 1 1.00000000 0.00000000 0.00000000 0.00000000
Neuron 590 3 0.75000000 1 1.00000000 0.00000000 0.00000000 0.00000000
Neuron 594 3 0.50000000 1 1.00000000 0.00000000 0.00000000 0.00000000
Neuron 600 3 0.50000000 1 1.00000000 0.00000000 0.00000000 0.00000000
Neuron 608 3 0.62500000 1 1.00000000 0.00000000 0.00000000 0.00000000
Neuron 609 3 0.50000000 1 1.00000000 0.00000000 0.00000000 0.00000000
Neuron 619 3 0.50000000 1 1.00000000 0.00000000 0.00000000 0.00000000
Neuron 620 3 0.25000000 1 1.00000000 0.00000000 0.00000000 0.00000000
Neuron 621 3 0.81250000 1 1.00000000 0.00000000 0.00000000 0.00000000
Neuron 622 3 0.37500000 1 1.00000000 0.00000000 0.00000000 0.00000000
Neuron 641 3 0.50000000 1 1.00000000 0.00000000 0.00000000 0.00000000
Neuron 642 3 0.62500000 1 1.00000000 0.00000000 0.00000000 0.00000000
Neuron 644 3 0.25000000 1 1.00000000 0.00000000 0.00000000 0.00000000
Neuron 649 3 0.25000000 1 1.00000000 0.00000000 0.00000000 0.00000000
Neuron 650 3 0.75000000 1 1.00000000 0.00000000 0.00000000 0.00000000
Neuron 656 3 0.12500000 1 1.00000000 0.00000000 0.00000000 0.00000000
Neuron 664 3 0.50000000 1 1.00000000 0.00000000 0.00000000 0.00000000
Neuron 665 3 0.62500000 1 1.00000000 0.00000000 0.00000000 0.00000000
Neuron 666 3 0.25000000 1 1.00000000 0.00000000 0.00000000 0.00000000
Neuron 670 3 0.50000000 1 1.00000000 0.00000000 0.00000000 0.00000000
Neuron 689 3 0.93750000 1 1.00000000 0.00000000 0.00000000 0.00000000
Neuron 690 3 0.37500000 1 1.00000000 0.00000000 0.00000000 0.00000000
Neuron 700 3 0.50000000 1 1.00000000 0.00000000 0.00000000 0.00000000
Neuron 704 3 0.53125000 1 1.00000000 0.00000000 0.00000000 0.00000000
Neuron 727 3 0.25000000 1 1.00000000 0.00000000 0.00000000 0.00000000
Neuron 728 3 0.68750000 1 1.00000000 0.00000000 0.00000000 0.00000000
Neuron 734 3 0.37500000 1 1.00000000 0.00000000 0.00000000 0.00000000
Neuron 752 3 0.50000000 1 1.00000000 0.00000000 0.00000000 0.00000000
Neuron 783 3 0.75000000 1 1.00000000 0.00000000 0.00000000 0.00000000
Neuron 812 3 0.84375000 1 1.00000000 0.00000000 0.00000000 0.00000000
Neuron 820 3 0.87500000 1 1.00000000 0.00000000 0.00000000 0.00000000
Neuron 830 3 0.62500000 1 1.00000000 0.00000000 0.00000000 0.00000000
Neuron 834 3 0.37500000 1 1.00000000 0.00000000 0.00000000 0.00000000
Neuron 840 3 0.75000000 1 1.00000000 0.00000000 0.00000000 0.00000000
Neuron 843 3 0.59375000 1 1.00000000 0.00000000 0.00000000 0.00000000
Neuron 853 3 0.62500000 1 1.00000000 0.00000000 0.00000000 0.00000000
Neuron 867 3 0.50000000 1 1.00000000 0.00000000 0.00000000 0.00000000
Neuron 869 3 0.25000000 1 1.00000000 0.00000000 0.00000000 0.00000000
Neuron 898 3 0.50000000 1 1.00000000 0.00000000 0.00000000 0.00000000
Neuron 902 3 0.87500000 1 1.00000000 0.00000000 0.00000000 0.00000000
Neuron 906 3 0.50000000 1 1.00000000 0.00000000 0.00000000 0.00000000
Neuron 926 3 0.37500000 1 1.00000000 0.00000000 0.00000000 0.00000000
Neuron 948 3 0.12500000 1 1.00000000 0.00000000 0.00000000 0.00000000
Neuron 963 3 0.68750000 1 1.00000000 0.00000000 0.00000000 0.00000000
Neuron 995 3 0.50000000 1 1.00000000 0.00000000 0.00000000 0.00000000
Neuron 1012 3 0.50000000 1 1.00000000 0.00000000 0.00000000 0.00000000
Neuron 1020 3 0.50000000 1 1.00000000 0.00000000 0.00000000 0.00000000
Neuron 1040 3 0.87500000 1 1.00000000 0.00000000 0.00000000 0.00000000
Neuron 1095 3 0.50000000 1 1.00000000 0.00000000 0.00000000 0.00000000
Neuron 1208 3 0.50000000 1 1.00000000 0.00000000 0.00000000 0.00000000
Neuron 1216 3 0.62500000 1 1.00000000 0.00000000 0.00000000 0.00000000
Link 1 10 1 0 0.50557715
Link 2 10 2 0 2.95645543
Link 3 10 3 0 -0.52466765
Link 4 10 4 0 -0.17301534
Link 5 10 5 0 -4.22451710
Link 6 10 6 0 -0.37218765
Link 7 10 7 0 1.42697932
Link 9 10 9 0 -0.90611079
Link 1 11 10 0 1.42517952
Link 2 11 11 0 -1.45300196
Link 3 11 12 0 -0.60174275
Link 4 11 13 0 -0.43320753
Link 5 11 14 0 -0.25268135
Link 6 11 15 0 0.04263363
Link 7 11 16 0 -0.01170518
Link 8 11 17 0 1.10513133
Link 9 11 18 0 -0.66120835
Link 1 12 19 0 2.15950459
Link 2 12 20 0 1.49948223
Link 3 12 21 0 -2.81073805
Link 4 12 22 0 2.04701282
Link 5 12 23 0 0.78441079
Link 6 12 24 0 1.40053680
Link 7 12 25 0 0.38420269
Link 8 12 26 0 -0.78651829
Link 9 12 27 0 1.59035777
Link 1 13 28 0 2.25230541
Link 2 13 29 0 0.31783661
Link 3 13 30 0 1.81238225
Link 4 13 31 0 -0.26750458
Link 5 13 32 0 -1.62766169
Link 6 13 33 0 -1.01604497
Link 7 13 34 0 -0.43701716
Link 9 13 36 0 -2.20411209
Link 1 14 37 0 0.62489038
Link 2 14 38 0 3.85049956
Link 3 14 39 0 1.06960967
Link 4 14 40 0 -3.23896494
Link 5 14 41 0 2.96397131
Link 6 14 42 0 0.66835529
Link 7 14 43 0 -1.76700461
Link 8 14 44 0 -1.23695402
Link 9 14 45 0 3.21734607
Link 1 15 46 0 -1.48193938
Link 2 15 47 0 -1.76923843
Link 3 15 48 0 -1.45204027
Link 4 15 49 0 -0.55136837
Link 5 15 50 0 -3.22009750
Link 6 15 51 0 -3.73707365
Link 7 15 52 0 -1.74606923
Link 8 15 53 0 0.08814665
Link 9 15 54 0 1.27806744
Link 1 16 55 0 0.17137324
Link 2 16 56 0 1.94479084
Link 3 16 57 0 2.72670934
Link 4 16 58 0 -4.24127733
Link 5 16 59 0 1.44991307
Link 6 16 60 0 -0.27574759
Link 7 16 61 0 3.00336511
Link 8 16 62 0 -0.91755632
Link 9 16 63 0 0.04641174
Link 7 17 65 0 0.63203929
Link 17 15 66 0 -0.07461158
Link 4 18 68 0 2.80359800
Link 18 12 69 0 0.18297121
Link 4 19 71 0 1.95614373
Link 3 20 74 0 -0.73177882
Link 20 14 75 0 -3.59092125
Link 8 21 77 0 -4.11386667
Link 21 12 78 0 -1.03656788
Link 22 10 81 0 0.93741622
Link 2 24 86 0 3.70443820
Link 24 14 87 0 -2.40874829
Link 7 25 89 0 -0.64657136
Link 25 14 90 0 -0.80042119
Link 7 26 92 0 0.85676375
Link 26 13 93 0 -0.27298124
Link 1 27 95 0 1.49500224
Link 27 12 96 0 -0.90396399
Link 3 28 98 0 0.34737393
Link 28 13 99 0 0.73245032
Link 8 29 101 0 -2.39592726
Link 29 13 102 0 1.55063390
Link 8 30 104 0 -0.57860286
Link 30 10 105 0 0.24304464
Link 2 31 107 0 -0.27396555
Link 31 12 108 0 -0.97092551
Link 8 33 113 0 1.49303868
Link 33 14 114 0 -0.22431221
Link 6 34 117 0 -0.18874782
Link 34 14 118 0 2.14849137
Link 1 35 120 0 -2.83641079
Link 35 11 121 0 -0.01443676
Link 2 36 123 0 0.28169861
Link 36 13 124 0 -1.79238388
Link 2 38 129 0 -1.51283535
Link 38 16 130 0 4.30532529
Link 39 12 133 0 0.74564048
Link 4 41 138 0 -0.27476955
Link 41 15 139 0 -0.06443705
Link 8 42 141 0 -2.62259730
Link 42 16 142 0 0.34275874
Link 3 43 144 0 1.13199644
Link 43 16 145 0 1.81314309
Link 6 44 147 0 3.27975126
Link 44 12 148 0 -0.98012141
Link 7 45 150 0 -0.85113243
Link 45 16 151 0 -0.29370764
Link 1 46 153 0 -1.11928307
Link 46 14 154 0 0.45308757
Link 5 47 156 0 -1.07217837
Link 47 15 157 0 0.00645377
Link 2 48 159 0 -0.68888317
Link 48 11 160 0 0.63657263
Link 50 11 167 0 0.79280779
Link 4 51 174 0 1.04954974
Link 51 16 175 0 1.02105290
Link 5 52 177 0 0.76023742
Link 52 14 178 0 -0.51786626
Link 2 53 181 0 -3.56765485
Link 55 11 190 0 -3.38949434
Link 9 44 191 0 2.90766379
Link 7 46 193 0 -2.47761316
Link 5 56 196 0 1.28609491
Link 56 13 197 0 -1.73789766
Link 8 57 200 0 -0.29693185
Link 57 15 201 0 -2.39015142
Link 8 58 205 0 0.70684431
Link 4 60 213 0 -0.73806295
Link 60 10 214 0 -0.33159246
Link 7 62 222 0 -1.86269003
Link 62 10 223 0 1.09087996
Link 29 16 230 0 3.00570737
Link 63 10 237 0 -0.11416732
Link 1 65 250 0 1.01961282
Link 65 16 251 0 -0.82141914
Link 2 17 258 0 1.69119782
Link 59 66 260 0 0.99027531
Link 66 10 261 0 -3.52851194
Link 10 57 263 1 -0.63281602
Link 3 68 279 0 1.25361172
Link 68 10 280 0 1.31415967
Link 47 47 293 1 -3.45862607
Link 8 55 305 0 1.99511991
Link 4 70 307 0 0.20837059
Link 70 13 308 0 0.59088410
Link 46 71 310 0 0.59835584
Link 71 14 311 0 3.19041005
Link 12 43 314 1 0.68475104
Link 17 13 371 0 0.23391547
Link 5 65 374 0 -0.25421484
Link 27 11 387 0 2.81417369
Link 19 85 424 0 1.64126459
Link 4 86 427 0 1.43311532
Link 86 41 428 0 -0.74536975
Link 2 87 438 0 -0.34919484
Link 87 15 439 0 0.18929891
Link 6 88 442 0 0.50723275
Link 88 15 443 0 0.10177467
Link 4 89 450 0 1.63083497
Link 4 90 453 0 1.34696149
Link 90 51 454 0 -1.26936300
Link 41 94 481 0 0.42859157
Link 94 15 482 0 -0.64556116
Link 13 21 492 1 -1.64191350
Link 7 99 514 0 0.25118545
Link 99 26 515 0 -1.92253230
Link 12 41 530 1 0.48816505
Link 17 11 532 0 1.12283799
Link 62 62 534 1 -0.26323176
Link 101 18 543 0 2.98916289
Link 50 10 554 0 -0.91315312
Link 35 107 595 0 1.82760169
Link 107 11 596 0 -1.43377717
Link 4 33 603 0 -4.20064053
Link 31 108 609 0 -2.88137782
Link 62 50 623 0 2.68008305
Link 85 112 639 0 1.98420988
Link 112 14 640 0 2.52714170
Link 25 25 653 1 -1.01843474
Link 3 19 655 0 -1.92118430
Link 8 116 671 0 -1.73335687
Link 116 33 672 0 3.34383781
Link 2 41 688 0 1.81910756
Link 88 124 711 0 0.63924046
Link 124 15 712 0 -0.85092143
Link 29 29 719 1 0.90592789
Link 22 126 730 0 -3.68133552
Link 126 10 731 0 1.55218460
Link 18 13 739 0 3.02122799
Link 62 128 750 0 -1.13360877
Link 128 10 751 0 2.30357496
Link 8 22 765 0 0.50347340
Link 5 132 787 0 -1.73509168
Link 132 39 788 0 -1.36525075
Link 7 47 806 0 -3.18708285
Link 30 139 824 0 0.30498480
Link 139 10 825 0 -1.98069618
Link 6 140 836 0 -0.40128587
Link 140 88 837 0 0.33958980
Link 24 143 853 0 2.76179649
Link 143 14 854 0 1.32148406
Link 60 11 894 0 0.36133675
Link 4 63 930 0 -3.68557404
Link 34 60 940 0 -1.60991503
Link 14 85 948 1 -0.30048310
Link 8 156 956 0 0.55405919
Link 156 57 957 0 -1.96763815
Link 5 164 1005 0 -1.51144556
Link 164 52 1006 0 0.55567616
Link 165 85 1011 0 -0.86944912
Link 1 167 1024 0 0.35657797
Link 167 35 1025 0 0.97254825
Link 28 174 1070 0 3.27908866
Link 174 13 1071 0 1.52539285
Link 6 182 1115 0 3.77139978
Link 182 22 1116 0 3.86967958
Link 52 88 1124 0 -2.47762872
Link 22 22 1134 1 -0.57526761
Link 5 185 1153 0 -1.12766399
Link 185 59 1154 0 -0.11769930
Link 62 186 1156 0 0.44606461
Link 186 50 1157 0 -1.40859018
Link 11 30 1223 1 2.59941864
Link 17 194 1226 0 0.83573351
Link 194 18 1227 0 -0.15414398
Link 17 196 1237 0 2.04973251
Link 196 13 1238 0 -0.14382885
Link 1 197 1242 0 -1.15239146
Link 197 63 1243 0 0.08566715
Link 52 52 1245 1 1.65346907
Link 4 200 1261 0 -2.58028543
Link 200 60 1262 0 1.18167430
Link 3 201 1264 0 -1.39244898
Link 6 204 1276 0 1.71498184
Link 204 41 1277 0 -1.80864836
Link 29 88 1284 0 1.67979591
Link 19 200 1314 1 -0.70264239
Link 4 56 1327 0 3.23478846
Link 8 215 1363 0 -2.15569480
Link 215 13 1364 0 -0.11937726
Link 200 15 1406 0 2.69526121
Link 16 68 1426 1 -3.40545633
Link 124 234 1468 0 -4.13578964
Link 234 15 1469 0 -1.28471700
Link 4 236 1481 0 -1.25230890
Link 236 70 1482 0 2.41394161
Link 20 33 1496 0 -0.82221511
Link 8 239 1498 0 -1.93436474
Link 239 215 1499 0 -1.13122280
Link 68 242 1511 0 0.58013465
Link 52 243 1514 0 0.32092390
Link 243 14 1515 0 1.56704061
Link 3 245 1525 0 1.87106654
Link 245 20 1526 0 -0.21899716
Link 53 246 1533 0 3.58740893
Link 246 10 1534 0 0.31901384
Link 9 26 1567 0 4.42961398
Link 9 200 1609 0 -1.38315030
Link 25 261 1629 0 -3.01892974
Link 261 14 1630 0 -2.58812919
Link 5 265 1668 0 -1.21310761
Link 265 65 1669 0 2.39721062
Link 6 200 1687 0 -2.51572732
Link 4 21 1707 0 -2.05025455
Link 1 272 1709 0 -1.71616667
Link 272 21 1710 0 -0.55598686
Link 16 275 1722 1 2.80051191
Link 275 68 1723 1 -1.88374046
Link 4 277 1751 0 0.55337671
Link 277 86 1752 0 0.38021266
Link 8 282 1813 0 -0.59437386
Link 282 22 1814 0 -1.77479497
Link 45 45 1824 1 0.40510630
Link 246 284 1829 0 0.53203724
Link 284 10 1830 0 -1.16597114
Link 56 14 1877 0 4.83089347
Link 13 294 1883 1 0.45595238
Link 26 302 1931 0 -1.03036375
Link 302 18 1932 0 0.70570808
Link 6 197 1933 0 -1.25446893
Link 44 303 1936 1 -2.18695406
Link 303 44 1937 1 -3.35871600
Link 46 45 1952 0 1.80171146
Link 21 51 1988 0 1.99788560
Link 294 316 2008 1 3.28311414
Link 316 48 2009 1 -0.42838093
Link 1 320 2023 0 -4.16367624
Link 320 101 2024 0 1.70662101
Link 12 321 2026 1 0.78183610
Link 321 48 2027 1 -0.00173030
Link 5 323 2040 0 -2.47897155
Link 323 47 2041 0 -0.24522011
Link 44 324 2043 0 0.72983922
Link 324 25 2044 0 -1.11313159
Link 6 215 2045 0 -0.93321324
Link 88 50 2084 0 -0.22719049
Link 6 330 2087 0 -0.51848954
Link 330 44 2088 0 0.95888432
Link 14 26 2114 1 -0.49562570
Link 5 200 2139 0 -2.19202478
Link 25 340 2150 1 4.39454593
Link 340 25 2151 1 3.50435710
Link 39 14 2187 0 -2.43761619
Link 4 344 2193 0 0.26710599
Link 344 56 2194 0 -1.37202125
Link 17 17 2210 1 0.22776481
Link 88 11 2232 0 0.84874585
Link 5 350 2248 0 -2.77796389
Link 350 13 2249 0 -0.81318674
Link 2 352 2266 0 -0.67044453
Link 352 13 2267 0 -2.08760876
Link 58 361 2311 0 -3.73869156
Link 361 11 2312 0 0.95709514
Link 88 363 2336 0 -2.27518691
Link 363 124 2337 0 1.94200942
Link 26 366 2349 0 -0.98460282
Link 366 302 2350 0 -2.33120628
Link 85 68 2385 1 0.64799382
Link 39 377 2419 0 -1.68212534
Link 377 12 2420 0 -0.49084716
Link 8 378 2428 0 -3.09196598
Link 378 18 2429 0 2.72436785
Link 65 21 2449 0 1.91722093
Link 48 63 2452 0 -2.62736213
Link 385 57 2474 1 2.28244545
Link 15 34 2489 1 1.54280267
Link 6 390 2501 0 3.07667647
Link 390 11 2502 0 -0.58612860
Link 12 394 2532 1 3.09339162
Link 394 41 2533 1 2.74363902
Link 7 294 2573 0 0.23910180
Link 63 29 2633 0 -1.98646976
Link 65 19 2641 0 0.80141040
Link 63 48 2657 0 3.84501287
Link 412 30 2666 1 -3.63561629
Link 15 68 2668 1 0.68704962
Link 6 416 2688 0 0.54105587
Link 416 15 2689 0 2.15865881
Link 46 11 2696 0 -0.07825676
Link 29 422 2723 1 -0.66536002
Link 422 29 2724 1 0.18705570
Link 65 44 2740 0 4.04798862
Link 63 11 2746 0 -1.49518499
Link 52 425 2756 0 -1.79517660
Link 425 88 2757 0 -3.17794437
Link 26 65 2784 0 2.01358527
Link 28 28 2808 1 -1.38803779
Link 85 433 2819 0 -1.46540364
Link 433 112 2820 0 0.47528330
Link 14 435 2833 1 -0.47321851
Link 435 85 2834 1 0.97817427
Link 132 34 2852 0 -0.53018789
Link 39 50 2853 0 1.97216009
Link 101 101 2866 1 -0.57469959
Link 5 440 2871 0 1.80235708
Link 440 200 2872 0 -1.99170923
Link 12 28 2913 1 0.36046820
Link 45 448 2922 0 -0.12350728
Link 448 316 2923 0 3.40797772
Link 53 449 2925 1 -1.70557201
Link 449 53 2926 1 -0.61809011
Link 68 11 2934 0 0.72763054
Link 36 36 2947 1 -1.98204614
Link 19 68 2956 0 -4.46634099
Link 14 28 2962 1 1.72740032
Link 5 204 2972 0 -2.08187697
Link 454 13 2976 0 -2.83133276
Link 324 455 2985 0 -0.32571800
Link 455 25 2986 0 -1.37540117
Link 5 385 2992 0 1.24081672
Link 26 458 2997 0 -0.41984064
Link 458 65 2998 0 0.84090240
Link 16 461 3023 1 0.75701427
Link 461 26 3024 1 2.15024075
Link 467 18 3051 0 -1.34575453
Link 101 302 3070 0 0.45575030
Link 22 470 3073 1 0.43692938
Link 470 22 3074 1 -1.41188585
Link 416 33 3085 0 3.56696948
Link 6 473 3090 0 0.89021990
Link 473 12 3091 0 -0.94913549
Link 6 475 3112 0 -0.06209172
Link 475 215 3113 0 2.21359854
Link 435 477 3119 1 -1.10100124
Link 477 85 3120 1 1.21567221
Link 19 478 3122 0 -0.47240602
Link 478 165 3123 0 -0.37850715
Link 29 215 3162 0 -2.34264401
Link 385 486 3175 1 -0.06528400
Link 486 57 3176 1 -0.56586745
Link 43 132 3190 1 -0.44058857
Link 204 20 3207 0 0.38635207
Link 5 194 3208 0 -1.07768120
Link 200 68 3212 0 -3.14952805
Link 11 38 3234 1 -2.61252815
Link 2 350 3251 0 -2.50335704
Link 215 33 3285 0 -2.06408232
Link 448 294 3295 0 -0.97066553
Link 18 500 3303 0 0.13851947
Link 500 13 3304 0 -2.31867963
Link 33 340 3318 0 2.80152159
Link 53 502 3329 1 -0.76265179
Link 502 449 3330 1 -1.76369821
Link 35 17 3354 0 0.43760341
Link 435 62 3359 1 0.32310158
Link 455 15 3390 0 -0.72519307
Link 44 112 3395 0 3.23053821
Link 52 507 3401 1 -1.42378141
Link 507 52 3402 1 -1.83210272
Link 20 509 3407 0 0.25393890
Link 509 33 3408 0 -4.08270151
Link 461 350 3422 1 -1.79887448
Link 10 513 3449 1 -2.99572171
Link 513 385 3450 1 0.31395991
Link 44 515 3469 0 -0.82234271
Link 515 26 3470 0 -0.64807409
Link 88 516 3474 0 3.00235491
Link 516 11 3475 0 -3.27975581
Link 215 519 3488 0 0.79571496
Link 519 13 3489 0 -1.04959452
Link 11 454 3490 1 -2.04423998
Link 416 523 3527 0 -0.67005092
Link 523 33 3528 0 1.93994543
Link 16 525 3536 1 -0.57512183
Link 525 461 3537 1 0.88821772
Link 19 132 3549 1 1.17274010
Link 33 324 3566 0 1.74120823
Link 36 530 3568 1 1.54923626
Link 530 36 3569 1 -1.96499135
Link 62 531 3573 0 -1.51723265
Link 531 186 3574 0 0.38408348
Link 101 516 3588 0 -1.21248855
Link 62 215 3591 0 1.64611858
Link 4 534 3604 0 -4.43051808
Link 534 55 3605 0 2.32111618
Link 18 14 3621 0 -1.93029678
Link 86 539 3624 0 0.99789203
Link 539 41 3625 0 0.16714617
Link 7 86 3652 0 0.71125091
Link 455 544 3654 0 -1.22899633
Link 544 25 3655 0 -2.54089735
Link 88 507 3678 0 -2.35032415
Link 66 19 3716 1 1.64347912
Link 8 200 3721 0 -3.63247156
Link 35 36 3748 0 -1.12600494
Link 21 30 3794 0 -1.09422712
Link 35 60 3808 0 -0.84241882
Link 302 562 3810 0 -0.48323268
Link 562 18 3811 0 -1.94555688
Link 8 43 3814 0 -2.34222802
Link 461 11 3905 0 2.31375478
Link 215 416 3925 0 -0.31132370
Link 507 378 3926 1 -0.27067123
Link 194 455 3938 0 1.67529523
Link 302 378 3956 1 -2.11323507
Link 60 46 3986 0 -0.02643706
Link 8 587 3998 0 2.57118783
Link 587 43 3999 0 -2.91308568
Link 378 588 4007 0 1.00048116
Link 588 467 4008 0 3.15365439
Link 29 590 4026 0 -0.08705382
Link 590 16 4027 0 -2.72357259
Link 194 594 4044 0 -3.25528947
Link 594 18 4045 0 2.89180621
Link 107 20 4069 1 0.27418388
Link 562 600 4090 0 1.39766695
Link 600 18 4091 0 -1.31990428
Link 86 509 4102 0 -1.29034214
Link 22 324 4135 0 -1.47332595
Link 35 608 4165 0 -0.16470232
Link 58 101 4172 1 -3.13470540
Link 88 609 4180 0 -1.66607204
Link 609 507 4181 0 -0.15426378
Link 6 507 4228 0 0.75447273
Link 194 60 4245 0 1.56260976
Link 60 302 4262 0 1.99861084
Link 63 619 4269 0 -1.48537998
Link 619 48 4270 0 1.18630204
Link 6 620 4272 0 1.93771421
Link 620 44 4273 0 2.47891653
Link 56 60 4280 0 5.10144952
Link 10 43 4285 1 0.34057171
Link 621 385 4294 1 1.34135030
Link 26 107 4298 0 -3.70599224
Link 302 622 4300 1 0.03062702
Link 622 378 4301 1 -0.73009143
Link 455 107 4325 0 2.82958834
Link 6 243 4335 0 -1.35670055
Link 132 30 4376 0 -3.56832428
Link 416 324 4384 0 -2.58267850
Link 340 215 4397 0 -1.67916397
Link 39 641 4497 1 -4.09784474
Link 641 39 4498 1 -3.53249602
Link 321 642 4501 1 -1.37593321
Link 642 48 4502 1 -0.82745823
Link 6 644 4518 0 -1.82847400
Link 644 88 4519 0 1.95146303
Link 194 243 4522 0 0.33249860
Link 26 44 4528 0 -0.92421334
Link 378 378 4536 1 -2.72234857
Link 2 649 4558 0 -3.19526214
Link 649 87 4559 0 2.45545153
Link 50 650 4561 0 0.63551778
Link 650 10 4562 0 1.23984864
Link 378 30 4594 0 -2.31342768
Link 5 656 4610 0 0.48401102
Link 656 185 4611 0 0.31249177
Link 10 21 4620 1 2.93868243
Link 29 26 4621 0 -1.58571042
Link 8 664 4676 0 1.71465529
Link 664 12 4677 0 -1.56276896
Link 29 478 4687 0 0.17657563
Link 107 665 4690 1 -2.77353404
Link 665 88 4691 1 2.48898485
Link 3 666 4700 0 2.03001083
Link 666 28 4701 0 -1.58735321
Link 425 670 4718 0 -0.68642291
Link 670 88 4719 0 -0.23142079
Link 47 196 4722 0 1.06449967
Link 101 60 4752 0 2.51814870
Link 38 165 4828 0 0.34116730
Link 85 41 4829 1 3.37543414
Link 316 294 4848 0 -1.41120526
Link 12 340 4916 1 2.68885303
Link 196 132 4935 1 -2.87912895
Link 10 689 4944 1 1.41162778
Link 689 513 4945 1 -1.17846374
Link 378 690 4951 0 -0.04811500
Link 690 18 4952 0 3.63454264
Link 34 29 4972 0 0.16150333
Link 4 700 5045 0 2.52216918
Link 700 10 5046 0 0.60434161
Link 57 55 5076 0 0.40717353
Link 448 704 5099 1 -0.08215237
Link 704 48 5100 1 -2.72116136
Link 302 62 5153 0 1.27811910
Link 201 215 5163 0 2.00234685
Link 275 13 5191 0 1.10089764
Link 4 727 5229 0 2.54273978
Link 727 41 5230 0 -1.54817342
Link 608 728 5232 0 1.69838952
Link 728 107 5233 0 0.07044481
Link 34 87 5299 0 -1.36884720
Link 89 734 5312 0 -2.90223011
Link 734 19 5313 0 -0.34712944
Link 455 562 5333 0 0.08731370
Link 435 435 5392 1 -2.56885202
Link 41 52 5428 0 -0.54417744
Link 33 215 5465 0 -0.64227468
Link 2 25 5473 0 3.87477144
Link 534 752 5497 0 4.06259148
Link 752 385 5498 0 0.81586388
Link 132 62 5521 0 -0.87204205
Link 26 478 5565 0 -0.73255753
Link 539 378 5570 1 -1.46086791
Link 20 507 5608 0 0.47476665
Link 10 783 5781 1 1.89819583
Link 783 38 5782 1 -1.27390074
Link 4 215 5835 0 -2.60162065
Link 30 34 5838 0 -2.83523053
Link 29 31 5855 0 -0.10682838
Link 323 644 5868 0 -0.34583690
Link 186 58 5895 0 2.86712820
Link 350 507 5939 0 -1.43154076
Link 513 812 5998 1 0.76579457
Link 812 621 5999 1 -0.78836867
Link 156 361 6014 0 0.84145006
Link 11 820 6052 1 0.46427584
Link 820 412 6053 1 -0.16864465
Link 530 243 6065 0 -2.27270618
Link 455 830 6120 0 -1.42102476
Link 830 107 6121 0 1.26305731
Link 324 834 6146 1 2.63964133
Link 834 140 6147 1 -0.80835363
Link 587 416 6155 0 0.73572518
Link 18 19 6186 0 0.95943756
Link 34 840 6225 0 -0.05054988
Link 840 10 6226 0 3.50523401
Link 478 843 6249 0 -3.58053218
Link 843 165 6250 0 0.54383637
Link 19 29 6257 0 -2.04631923
Link 478 385 6289 0 0.03185985
Link 22 14 6303 0 3.26020429
Link 302 544 6336 0 0.75182174
Link 57 853 6350 0 1.92994964
Link 60 853 6440 0 2.01704381
Link 8 867 6449 0 -0.17365459
Link 867 11 6450 0 3.63566726
Link 4 869 6475 0 0.80492260
Link 869 215 6476 0 -1.82743653
Link 101 19 6495 0 1.72301778
Link 330 275 6515 0 2.68860109
Link 41 448 6516 0 -3.02490343
Link 302 14 6544 0 0.17618233
Link 531 531 6549 1 -1.15981241
Link 17 246 6574 0 -0.10111681
Link 378 56 6652 0 0.08148430
Link 509 898 6682 0 3.48087026
Link 898 43 6683 0 -0.28876680
Link 242 902 6707 0 0.24102754
Link 902 10 6708 0 2.44422041
Link 2 812 6741 0 0.36266639
Link 57 461 6752 0 -3.12498079
Link 39 906 6759 1 -4.71087809
Link 906 641 6760 1 -0.81155308
Link 101 66 6802 0 4.15511302
Link 47 412 6829 0 0.56020026
Link 455 48 6851 0 1.21337402
Link 167 42 6914 0 0.25043120
Link 7 649 6931 0 -1.12737803
Link 509 24 6972 0 -1.48016490
Link 9 385 7007 0 0.16646557
Link 272 926 7009 0 -2.46723745
Link 926 21 7010 0 1.88148477
Link 1 948 7147 0 -0.61833507
Link 948 272 7148 0 -2.22909861
Link 1 619 7167 0 -0.20087348
Link 45 89 7203 1 1.93108359
Link 440 435 7218 0 -0.32022562
Link 620 71 7264 0 4.04014633
Link 853 963 7281 0 1.30667678
Link 963 275 7282 0 -0.57480791
Link 620 246 7445 0 -1.89274448
Link 55 995 7535 0 0.81942928
Link 995 46 7536 0 -1.06986207
Link 246 670 7635 1 -2.17657964
Link 43 1012 7655 0 -2.03418398
Link 1012 47 7656 0 -2.62027581
Link 41 1020 7703 0 -0.90230676
Link 1020 52 7704 0 -4.00635625
Link 245 641 7709 0 -1.12385688
Link 340 26 7721 0 -1.19878075
Link 197 531 7748 0 2.66532358
Link 21 620 7846 1 -0.58193633
Link 108 1040 7881 0 1.14763207
Link 1040 12 7882 0 2.36733361
Link 454 126 7932 0 -0.19304344
Link 186 196 7973 0 1.73264157
Link 562 282 7992 1 -0.84970970
Link 21 449 8069 0 1.68117859
Link 324 34 8210 0 -1.64138532
Link 17 31 8227 0 -4.26986548
Link 58 53 8370 0 0.94882585
Link 62 1095 8389 0 1.00154417
Link 1095 50 8390 0 -0.75183068
Link 140 143 8596 0 -0.71071975
Link 245 261 8674 0 -1.31414278
Link 303 65 8729 0 -0.11008677
Link 4 783 8764 0 -2.91771966
Link 272 197 8883 0 -3.66232403
Link 55 352 8974 0 -0.77096540
Link 42 42 9031 1 1.40868875
Link 50 516 9085 0 -2.29636824
Link 66 340 9113 1 2.07543921
Link 87 330 9196 1 1.89063299
Link 44 1208 9413 0 1.00000000
Link 1208 26 9414 0 -0.34647159
Link 185 1216 9470 0 1.00000000
Link 1216 15 9471 0 -3.73328280
Link 619 200 9522 1 1.71611329
Link 89 36 9545 0 1.59052561
Link 664 830 9561 0 2.67530228
GenomeEnd

