GenomeStart 88934
Neuron 1 1 0.00000000 1 0.00000000 0.00000000 0.00000000 0.00000000
Neuron 2 1 0.00000000 1 0.00000000 0.00000000 0.00000000 0.00000000
Neuron 3 1 0.00000000 1 0.00000000 0.00000000 0.00000000 0.00000000
Neuron 4 1 0.00000000 1 0.00000000 0.00000000 0.00000000 0.00000000
Neuron 5 1 0.00000000 1 0.00000000 0.00000000 0.00000000 0.00000000
Neuron 6 1 0.00000000 1 0.00000000 0.00000000 0.00000000 0.00000000
Neuron 7 1 0.00000000 1 0.00000000 0.00000000 0.00000000 0.00000000
Neuron 8 1 0.00000000 1 0.00000000 0.00000000 0.00000000 0.00000000
Neuron 9 2 0.00000000 1 0.00000000 0.00000000 0.00000000 0.00000000
Neuron 10 4 1.00000000 0 1.00000000 0.00000000 0.00000000 0.00000000
Neuron 11 4 1.00000000 0 1.00000000 0.00000000 0.00000000 0.00000000
Neuron 12 4 1.00000000 0 1.00000000 0.00000000 0.00000000 0.00000000
Neuron 13 4 1.00000000 0 1.00000000 0.00000000 0.00000000 0.00000000
Neuron 14 4 1.00000000 0 1.00000000 0.00000000 0.00000000 0.00000000
Neuron 15 4 1.00000000 0 1.00000000 0.00000000 0.00000000 0.00000000
Neuron 16 4 1.00000000 0 1.00000000 0.00000000 0.00000000 0.00000000
Neuron 17 3 0.50000000 1 1.00000000 0.00000000 0.00000000 0.00000000
Neuron 18 3 0.50000000 1 1.00000000 0.00000000 0.00000000 0.00000000
Neuron 19 3 0.50000000 1 1.00000000 0.00000000 0.00000000 0.00000000
Neuron 20 3 0.50000000 1 1.00000000 0.00000000 0.00000000 0.00000000
Neuron 21 3 0.50000000 1 1.00000000 0.00000000 0.00000000 0.00000000
Neuron 22 3 0.50000000 1 1.00000000 0.00000000 0.00000000 0.00000000
Neuron 24 3 0.50000000 1 1.00000000 0.00000000 0.00000000 0.00000000
Neuron 25 3 0.50000000 1 1.00000000 0.00000000 0.00000000 0.00000000
Neuron 26 3 0.50000000 1 1.00000000 0.00000000 0.00000000 0.00000000
Neuron 27 3 0.50000000 1 1.00000000 0.00000000 0.00000000 0.00000000
Neuron 28 3 0.50000000 1 1.00000000 0.00000000 0.00000000 0.00000000
Neuron 29 3 0.50000000 1 1.00000000 0.00000000 0.00000000 0.00000000
Neuron 30 3 0.50000000 1 1.00000000 0.00000000 0.00000000 0.00000000
Neuron 31 3 0.50000000 1 1.00000000 0.00000000 0.00000000 0.00000000
Neuron 33 3 0.50000000 1 1.00000000 0.00000000 0.00000000 0.00000000
Neuron 34 3 0.50000000 1 1.00000000 0.00000000 0.00000000 0.00000000
Neuron 35 3 0.50000000 1 1.00000000 0.00000000 0.00000000 0.00000000
Neuron 36 3 0.50000000 1 1.00000000 0.00000000 0.00000000 0.00000000
Neuron 38 3 0.50000000 1 1.00000000 0.00000000 0.00000000 0.00000000
Neuron 39 3 0.50000000 1 1.00000000 0.00000000 0.00000000 0.00000000
Neuron 41 3 0.50000000 1 1.00000000 0.00000000 0.00000000 0.00000000
Neuron 44 3 0.50000000 1 1.00000000 0.00000000 0.00000000 0.00000000
Neuron 45 3 0.50000000 1 1.00000000 0.00000000 0.00000000 0.00000000
Neuron 46 3 0.50000000 1 1.00000000 0.00000000 0.00000000 0.00000000
Neuron 47 3 0.50000000 1 1.00000000 0.00000000 0.00000000 0.00000000
Neuron 48 3 0.50000000 1 1.00000000 0.00000000 0.00000000 0.00000000
Neuron 50 3 0.50000000 1 1.00000000 0.00000000 0.00000000 0.00000000
Neuron 51 3 0.50000000 1 1.00000000 0.00000000 0.00000000 0.00000000
Neuron 52 3 0.50000000 1 1.00000000 0.00000000 0.00000000 0.00000000
Neuron 53 3 0.50000000 1 1.00000000 0.00000000 0.00000000 0.00000000
Neuron 56 3 0.50000000 1 1.00000000 0.00000000 0.00000000 0.00000000
Neuron 57 3 0.50000000 1 1.00000000 0.00000000 0.00000000 0.00000000
Neuron 59 3 0.50000000 1 1.00000000 0.00000000 0.00000000 0.00000000
Neuron 60 3 0.50000000 1 1.00000000 0.00000000 0.00000000 0.00000000
Neuron 62 3 0.50000000 1 1.00000000 0.00000000 0.00000000 0.00000000
Neuron 63 3 0.50000000 1 1.00000000 0.00000000 0.00000000 0.00000000
Neuron 65 3 0.50000000 1 1.00000000 0.00000000 0.00000000 0.00000000
Neuron 66 3 0.75000000 1 1.00000000 0.00000000 0.00000000 0.00000000
Neuron 68 3 0.50000000 1 1.00000000 0.00000000 0.00000000 0.00000000
Neuron 69 3 0.25000000 1 1.00000000 0.00000000 0.00000000 0.00000000
Neuron 85 3 0.75000000 1 1.00000000 0.00000000 0.00000000 0.00000000
Neuron 86 3 0.25000000 1 1.00000000 0.00000000 0.00000000 0.00000000
Neuron 88 3 0.50000000 1 1.00000000 0.00000000 0.00000000 0.00000000
Neuron 89 3 0.25000000 1 1.00000000 0.00000000 0.00000000 0.00000000
Neuron 94 3 0.75000000 1 1.00000000 0.00000000 0.00000000 0.00000000
Neuron 97 3 0.50000000 1 1.00000000 0.00000000 0.00000000 0.00000000
Neuron 99 3 0.25000000 1 1.00000000 0.00000000 0.00000000 0.00000000
Neuron 101 3 0.25000000 1 1.00000000 0.00000000 0.00000000 0.00000000
Neuron 107 3 0.75000000 1 1.00000000 0.00000000 0.00000000 0.00000000
Neuron 108 3 0.75000000 1 1.00000000 0.00000000 0.00000000 0.00000000
Neuron 112 3 0.87500000 1 1.00000000 0.00000000 0.00000000 0.00000000
Neuron 132 3 0.25000000 1 1.00000000 0.00000000 0.00000000 0.00000000
Neuron 171 3 0.25000000 1 1.00000000 0.00000000 0.00000000 0.00000000
Neuron 174 3 0.75000000 1 1.00000000 0.00000000 0.00000000 0.00000000
Neuron 182 3 0.25000000 1 1.00000000 0.00000000 0.00000000 0.00000000
Neuron 185 3 0.25000000 1 1.00000000 0.00000000 0.00000000 0.00000000
Neuron 186 3 0.50000000 1 1.00000000 0.00000000 0.00000000 0.00000000
Neuron 194 3 0.50000000 1 1.00000000 0.00000000 0.00000000 0.00000000
Neuron 196 3 0.75000000 1 1.00000000 0.00000000 0.00000000 0.00000000
Neuron 197 3 0.25000000 1 1.00000000 0.00000000 0.00000000 0.00000000
Neuron 200 3 0.25000000 1 1.00000000 0.00000000 0.00000000 0.00000000
Neuron 201 3 0.25000000 1 1.00000000 0.00000000 0.00000000 0.00000000
Neuron 204 3 0.25000000 1 1.00000000 0.00000000 0.00000000 0.00000000
Neuron 213 3 0.62500000 1 1.00000000 0.00000000 0.00000000 0.00000000
Neuron 215 3 0.50000000 1 1.00000000 0.00000000 0.00000000 0.00000000
Neuron 239 3 0.25000000 1 1.00000000 0.00000000 0.00000000 0.00000000
Neuron 245 3 0.25000000 1 1.00000000 0.00000000 0.00000000 0.00000000
Neuron 246 3 0.75000000 1 1.00000000 0.00000000 0.00000000 0.00000000
Neuron 261 3 0.75000000 1 1.00000000 0.00000000 0.00000000 0.00000000
Neuron 265 3 0.25000000 1 1.00000000 0.00000000 0.00000000 0.00000000
Neuron 272 3 0.25000000 1 1.00000000 0.00000000 0.00000000 0.00000000
Neuron 275 3 0.75000000 1 1.00000000 0.00000000 0.00000000 0.00000000
Neuron 276 3 0.75000000 1 1.00000000 0.00000000 0.00000000 0.00000000
Neuron 284 3 0.87500000 1 1.00000000 0.00000000 0.00000000 0.00000000
Neuron 289 3 0.37500000 1 1.00000000 0.00000000 0.00000000 0.00000000
Neuron 294 3 0.75000000 1 1.00000000 0.00000000 0.00000000 0.00000000
Neuron 302 3 0.50000000 1 1.00000000 0.00000000 0.00000000 0.00000000
Neuron 303 3 0.50000000 1 1.00000000 0.00000000 0.00000000 0.00000000
Neuron 311 3 0.75000000 1 1.00000000 0.00000000 0.00000000 0.00000000
Neuron 316 3 0.62500000 1 1.00000000 0.00000000 0.00000000 0.00000000
Neuron 321 3 0.75000000 1 1.00000000 0.00000000 0.00000000 0.00000000
Neuron 324 3 0.50000000 1 1.00000000 0.00000000 0.00000000 0.00000000
Neuron 330 3 0.25000000 1 1.00000000 0.00000000 0.00000000 0.00000000
Neuron 337 3 0.12500000 1 1.00000000 0.00000000 0.00000000 0.00000000
Neuron 339 3 0.25000000 1 1.00000000 0.00000000 0.00000000 0.00000000
Neuron 340 3 0.50000000 1 1.00000000 0.00000000 0.00000000 0.00000000
Neuron 350 3 0.50000000 1 1.00000000 0.00000000 0.00000000 0.00000000
Neuron 377 3 0.75000000 1 1.00000000 0.00000000 0.00000000 0.00000000
Neuron 378 3 0.25000000 1 1.00000000 0.00000000 0.00000000 0.00000000
Neuron 394 3 0.75000000 1 1.00000000 0.00000000 0.00000000 0.00000000
Neuron 409 3 0.25000000 1 1.00000000 0.00000000 0.00000000 0.00000000
Neuron 412 3 0.75000000 1 1.00000000 0.00000000 0.00000000 0.00000000
Neuron 416 3 0.50000000 1 1.00000000 0.00000000 0.00000000 0.00000000
Neuron 424 3 0.50000000 1 1.00000000 0.00000000 0.00000000 0.00000000
Neuron 425 3 0.50000000 1 1.00000000 0.00000000 0.00000000 0.00000000
Neuron 433 3 0.81250000 1 1.00000000 0.00000000 0.00000000 0.00000000
Neuron 440 3 0.12500000 1 1.00000000 0.00000000 0.00000000 0.00000000
Neuron 442 3 0.93750000 1 1.00000000 0.00000000 0.00000000 0.00000000
Neuron 448 3 0.56250000 1 1.00000000 0.00000000 0.00000000 0.00000000
Neuron 449 3 0.50000000 1 1.00000000 0.00000000 0.00000000 0.00000000
Neuron 455 3 0.50000000 1 1.00000000 0.00000000 0.00000000 0.00000000
Neuron 461 3 0.75000000 1 1.00000000 0.00000000 0.00000000 0.00000000
Neuron 475 3 0.25000000 1 1.00000000 0.00000000 0.00000000 0.00000000
Neuron 500 3 0.75000000 1 1.00000000 0.00000000 0.00000000 0.00000000
Neuron 501 3 0.84375000 1 1.00000000 0.00000000 0.00000000 0.00000000
Neuron 502 3 0.50000000 1 1.00000000 0.00000000 0.00000000 0.00000000
Neuron 509 3 0.50000000 1 1.00000000 0.00000000 0.00000000 0.00000000
Neuron 515 3 0.50000000 1 1.00000000 0.00000000 0.00000000 0.00000000
Neuron 516 3 0.75000000 1 1.00000000 0.00000000 0.00000000 0.00000000
Neuron 517 3 0.37500000 1 1.00000000 0.00000000 0.00000000 0.00000000
Neuron 520 3 0.75000000 1 1.00000000 0.00000000 0.00000000 0.00000000
Neuron 525 3 0.87500000 1 1.00000000 0.00000000 0.00000000 0.00000000
Neuron 526 3 0.50000000 1 1.00000000 0.00000000 0.00000000 0.00000000
Neuron 531 3 0.50000000 1 1.00000000 0.00000000 0.00000000 0.00000000
Neuron 538 3 0.50000000 1 1.00000000 0.00000000 0.00000000 0.00000000
Neuron 539 3 0.37500000 1 1.00000000 0.00000000 0.00000000 0.00000000
Neuron 544 3 0.50000000 1 1.00000000 0.00000000 0.00000000 0.00000000
Neuron 562 3 0.50000000 1 1.00000000 0.00000000 0.00000000 0.00000000
Neuron 577 3 0.62500000 1 1.00000000 0.00000000 0.00000000 0.00000000
Neuron 594 3 0.50000000 1 1.00000000 0.00000000 0.00000000 0.00000000
Neuron 613 3 0.37500000 1 1.00000000 0.00000000 0.00000000 0.00000000
Neuron 619 3 0.50000000 1 1.00000000 0.00000000 0.00000000 0.00000000
Neuron 620 3 0.25000000 1 1.00000000 0.00000000 0.00000000 0.00000000
Neuron 630 3 0.50000000 1 1.00000000 0.00000000 0.00000000 0.00000000
Neuron 639 3 0.37500000 1 1.00000000 0.00000000 0.00000000 0.00000000
Neuron 641 3 0.50000000 1 1.00000000 0.00000000 0.00000000 0.00000000
Neuron 642 3 0.62500000 1 1.00000000 0.00000000 0.00000000 0.00000000
Neuron 665 3 0.62500000 1 1.00000000 0.00000000 0.00000000 0.00000000
Neuron 670 3 0.50000000 1 1.00000000 0.00000000 0.00000000 0.00000000
Neuron 674 3 0.37500000 1 1.00000000 0.00000000 0.00000000 0.00000000
Neuron 700 3 0.50000000 1 1.00000000 0.00000000 0.00000000 0.00000000
Neuron 704 3 0.53125000 1 1.00000000 0.00000000 0.00000000 0.00000000
Neuron 706 3 0.87500000 1 1.00000000 0.00000000 0.00000000 0.00000000
Neuron 710 3 0.53125000 1 1.00000000 0.00000000 0.00000000 0.00000000
Neuron 715 3 0.50000000 1 1.00000000 0.00000000 0.00000000 0.00000000
Neuron 720 3 0.37500000 1 1.00000000 0.00000000 0.00000000 0.00000000
Neuron 758 3 0.87500000 1 1.00000000 0.00000000 0.00000000 0.00000000
Neuron 765 3 0.75000000 1 1.00000000 0.00000000 0.00000000 0.00000000
Neuron 820 3 0.87500000 1 1.00000000 0.00000000 0.00000000 0.00000000
Neuron 830 3 0.62500000 1 1.00000000 0.00000000 0.00000000 0.00000000
Neuron 840 3 0.75000000 1 1.00000000 0.00000000 0.00000000 0.00000000
Neuron 917 3 0.75000000 1 1.00000000 0.00000000 0.00000000 0.00000000
Neuron 926 3 0.37500000 1 1.00000000 0.00000000 0.00000000 0.00000000
Neuron 933 3 0.12500000 1 1.00000000 0.00000000 0.00000000 0.00000000
Neuron 948 3 0.12500000 1 1.00000000 0.00000000 0.00000000 0.00000000
Neuron 957 3 0.37500000 1 1.00000000 0.00000000 0.00000000 0.00000000
Neuron 1005 3 0.81250000 1 1.00000000 0.00000000 0.00000000 0.00000000
Neuron 1020 3 0.50000000 1 1.00000000 0.00000000 0.00000000 0.00000000
Neuron 1069 3 0.75000000 1 1.00000000 0.00000000 0.00000000 0.00000000
Neuron 1091 3 0.93750000 1 1.00000000 0.00000000 0.00000000 0.00000000
Neuron 1116 3 0.62500000 1 1.00000000 0.00000000 0.00000000 0.00000000
Neuron 1161 3 0.87500000 1 1.00000000 0.00000000 0.00000000 0.00000000
Neuron 1173 3 0.50000000 1 1.00000000 0.00000000 0.00000000 0.00000000
Neuron 1182 3 0.50000000 1 1.00000000 0.00000000 0.00000000 0.00000000
Neuron 1206 3 0.25000000 1 1.00000000 0.00000000 0.00000000 0.00000000
Neuron 1249 3 0.06250000 1 1.00000000 0.00000000 0.00000000 0.00000000
Neuron 1318 3 0.12500000 1 1.00000000 0.00000000 0.00000000 0.00000000
Neuron 1340 3 0.25000000 1 1.00000000 0.00000000 0.00000000 0.00000000
Neuron 1411 3 0.50000000 1 1.00000000 0.00000000 0.00000000 0.00000000
Neuron 1415 3 0.50000000 1 1.00000000 0.00000000 0.00000000 0.00000000
Neuron 1422 3 0.18750000 1 1.00000000 0.00000000 0.00000000 0.00000000
Neuron 1435 3 0.50000000 1 1.00000000 0.00000000 0.00000000 0.00000000
Neuron 1444 3 0.50000000 1 1.00000000 0.00000000 0.00000000 0.00000000
Neuron 1513 3 0.78125000 1 1.00000000 0.00000000 0.00000000 0.00000000
Neuron 1632 3 0.25000000 1 1.00000000 0.00000000 0.00000000 0.00000000
Link 1 10 1 0 -3.75788185
Link 2 10 2 0 -1.12197059
Link 3 10 3 0 -2.03718550
Link 5 10 5 0 1.68347407
Link 6 10 6 0 -0.98410035
Link 7 10 7 0 -2.71712965
Link 9 10 9 0 -1.24107153
Link 1 11 10 0 -5.86921157
Link 2 11 11 0 0.72810722
Link 3 11 12 0 -2.21032606
Link 4 11 13 0 0.93304716
Link 5 11 14 0 1.47733905
Link 6 11 15 0 -1.67012150
Link 7 11 16 0 -2.07640444
Link 8 11 17 0 1.63532789
Link 9 11 18 0 2.84107196
Link 2 12 20 0 2.44197026
Link 3 12 21 0 -1.98934193
Link 4 12 22 0 -0.88377418
Link 5 12 23 0 -4.06014286
Link 8 12 26 0 0.15642089
Link 9 12 27 0 -1.65566538
Link 1 13 28 0 1.97595088
Link 2 13 29 0 0.62883743
Link 4 13 31 0 0.97608740
Link 5 13 32 0 1.11274784
Link 6 13 33 0 0.81974491
Link 7 13 34 0 0.44371218
Link 9 13 36 0 -0.06867049
Link 1 14 37 0 0.40997584
Link 3 14 39 0 -0.14056211
Link 4 14 40 0 6.71707659
Link 5 14 41 0 -0.06306394
Link 6 14 42 0 1.96325839
Link 7 14 43 0 -4.39366479
Link 8 14 44 0 4.69708173
Link 9 14 45 0 0.30872613
Link 1 15 46 0 -1.37055768
Link 2 15 47 0 0.19265331
Link 3 15 48 0 1.28897921
Link 4 15 49 0 1.17359012
Link 6 15 51 0 -2.22106100
Link 7 15 52 0 2.24567864
Link 8 15 53 0 1.18612078
Link 9 15 54 0 -2.80979706
Link 1 16 55 0 -3.83977566
Link 2 16 56 0 -2.04221427
Link 3 16 57 0 -2.46782234
Link 4 16 58 0 1.89451960
Link 5 16 59 0 -1.17224500
Link 6 16 60 0 -4.15318766
Link 7 16 61 0 -1.73998404
Link 8 16 62 0 -0.55628914
Link 9 16 63 0 0.04959162
Link 7 17 65 0 2.11020480
Link 17 15 66 0 -2.04847402
Link 4 18 68 0 -3.06303500
Link 18 12 69 0 -2.62274447
Link 20 14 75 0 2.16011504
Link 8 21 77 0 1.97761754
Link 22 10 81 0 -0.03783105
Link 24 14 87 0 4.32863872
Link 7 25 89 0 3.32595693
Link 26 13 93 0 -1.61788764
Link 1 27 95 0 1.42016801
Link 27 12 96 0 3.07424607
Link 3 28 98 0 0.85685379
Link 28 13 99 0 -2.61415350
Link 29 13 102 0 1.40131133
Link 8 30 104 0 6.07736023
Link 30 10 105 0 -1.37413435
Link 2 31 107 0 -5.71342004
Link 8 33 113 0 -4.08436107
Link 33 14 114 0 3.21405888
Link 6 34 117 0 -1.72241331
Link 1 35 120 0 -0.73091668
Link 2 36 123 0 -5.66627575
Link 36 13 124 0 2.09439779
Link 2 38 129 0 0.82807360
Link 38 16 130 0 0.30595652
Link 4 41 138 0 5.12810195
Link 41 15 139 0 5.00043035
Link 44 12 148 0 2.71468977
Link 7 45 150 0 -3.67657219
Link 45 16 151 0 -0.72939078
Link 1 46 153 0 2.15684014
Link 5 47 156 0 3.32134109
Link 47 15 157 0 5.25490900
Link 2 48 159 0 -1.07302032
Link 48 11 160 0 -2.36112367
Link 50 11 167 0 0.79186754
Link 4 51 174 0 -0.03094771
Link 51 16 175 0 3.01764983
Link 5 52 177 0 0.57988970
Link 52 14 178 0 -2.39908857
Link 9 44 191 0 0.30924054
Link 5 56 196 0 0.58364590
Link 8 57 200 0 3.49661041
Link 57 15 201 0 -2.29804467
Link 60 10 214 0 1.83204869
Link 62 10 223 0 -1.36454236
Link 29 16 230 0 2.67484767
Link 63 10 237 0 1.56327852
Link 1 65 250 0 0.02456938
Link 65 16 251 0 1.40609591
Link 2 17 258 0 1.52224733
Link 59 66 260 0 -0.45189004
Link 66 10 261 0 -5.31361427
Link 10 57 263 1 -5.11010152
Link 3 68 279 0 1.52579178
Link 68 10 280 0 4.35245426
Link 8 69 297 0 2.62491408
Link 69 29 298 0 -3.91996687
Link 3 56 315 0 4.95007892
Link 19 85 424 0 2.17252385
Link 4 86 427 0 1.08061248
Link 6 88 442 0 -5.31344054
Link 88 15 443 0 6.73926935
Link 4 89 450 0 2.21680196
Link 89 19 451 0 4.17384120
Link 94 15 482 0 -1.39711509
Link 13 21 492 1 4.52476794
Link 7 97 507 0 1.00000000
Link 97 12 508 0 -0.89641023
Link 99 26 515 0 -3.45037585
Link 17 11 532 0 -1.80223130
Link 62 62 534 1 -1.95944542
Link 1 101 542 0 1.82769054
Link 35 107 595 0 1.35301387
Link 107 11 596 0 -2.42476411
Link 31 108 609 0 -0.52044276
Link 108 12 610 0 -1.12265568
Link 25 25 653 1 0.79132192
Link 3 19 655 0 -3.95752250
Link 2 41 688 0 1.45610661
Link 29 29 719 1 -1.91842777
Link 8 22 765 0 -1.17744131
Link 5 132 787 0 -3.07272213
Link 132 39 788 0 -2.94738784
Link 4 63 930 0 -2.20590051
Link 14 85 948 1 -4.25485114
Link 2 171 1054 0 0.81397959
Link 171 24 1055 0 3.81538930
Link 28 174 1070 0 1.49608101
Link 6 182 1115 0 2.99912646
Link 22 22 1134 1 5.57021310
Link 5 185 1153 0 -3.25068066
Link 185 59 1154 0 -3.25813611
Link 186 50 1157 0 4.76257060
Link 17 194 1226 0 -1.08717016
Link 17 196 1237 0 4.00702260
Link 196 13 1238 0 -2.60799685
Link 1 197 1242 0 0.56806213
Link 197 63 1243 0 4.07965043
Link 52 52 1245 1 2.52841606
Link 200 60 1262 0 0.66637476
Link 3 201 1264 0 -4.49877417
Link 6 204 1276 0 0.08757379
Link 204 41 1277 0 -0.73303160
Link 41 213 1353 0 1.34178660
Link 213 94 1354 0 0.11329095
Link 8 215 1363 0 -2.37652522
Link 215 13 1364 0 -1.80241339
Link 200 15 1406 0 3.52913940
Link 8 239 1498 0 -0.26956832
Link 3 245 1525 0 1.49262871
Link 245 20 1526 0 -4.35457079
Link 53 246 1533 0 2.00985299
Link 9 26 1567 0 -1.74798329
Link 9 200 1609 0 -3.78061171
Link 25 261 1629 0 2.52661559
Link 261 14 1630 0 1.29650082
Link 5 265 1668 0 4.31369654
Link 265 65 1669 0 -4.49010461
Link 6 200 1687 0 0.45662429
Link 4 21 1707 0 2.14023797
Link 275 68 1723 1 0.06465821
Link 21 276 1736 0 1.68556935
Link 276 12 1737 0 -1.02702133
Link 45 45 1824 1 -2.54673039
Link 246 284 1829 0 2.31228394
Link 284 10 1830 0 0.73275171
Link 19 289 1857 1 0.18838212
Link 289 200 1858 1 -1.16522379
Link 26 302 1931 0 0.19498189
Link 6 197 1933 0 -2.98257729
Link 44 303 1936 1 -0.60453641
Link 303 44 1937 1 1.31358601
Link 46 45 1952 0 -0.42297142
Link 56 311 1973 0 1.00000000
Link 311 13 1974 0 2.21376371
Link 21 51 1988 0 2.35796164
Link 294 316 2008 1 5.92443814
Link 316 48 2009 1 1.55921863
Link 12 321 2026 1 -4.76680941
Link 44 324 2043 0 -1.19100118
Link 6 330 2087 0 3.94832454
Link 14 26 2114 1 6.47664874
Link 4 337 2131 0 1.02603375
Link 337 200 2132 0 0.45343158
Link 2 339 2143 0 1.07499321
Link 339 53 2144 0 3.83157897
Link 25 340 2150 1 0.58014995
Link 340 25 2151 1 -1.13068462
Link 5 350 2248 0 -0.68831843
Link 350 13 2249 0 6.82150773
Link 10 65 2317 1 -2.65758659
Link 2 294 2380 0 -0.01666955
Link 85 68 2385 1 2.19411327
Link 377 12 2420 0 4.34478601
Link 8 378 2428 0 0.81907908
Link 378 18 2429 0 3.85897541
Link 15 34 2489 1 -2.74912556
Link 12 394 2532 1 0.33900590
Link 394 41 2533 1 -0.77629034
Link 7 294 2573 0 -0.85262191
Link 63 29 2633 0 0.75826299
Link 65 19 2641 0 -1.91714347
Link 7 409 2643 0 0.81026369
Link 409 62 2644 0 -0.29212480
Link 412 30 2666 1 0.41308322
Link 15 68 2668 1 -3.70419149
Link 6 416 2688 0 1.37538389
Link 416 15 2689 0 2.49231488
Link 46 11 2696 0 -6.80239015
Link 48 424 2744 0 1.50615176
Link 424 63 2745 0 2.45392085
Link 26 65 2784 0 1.25105195
Link 28 28 2808 1 0.71246901
Link 85 433 2819 0 2.31212093
Link 132 34 2852 0 4.67110524
Link 39 50 2853 0 -5.57082591
Link 101 101 2866 1 1.14079686
Link 5 440 2871 0 0.51152203
Link 440 200 2872 0 3.91080934
Link 112 442 2878 0 0.72194956
Link 442 14 2879 0 -2.74772161
Link 12 28 2913 1 -1.21347077
Link 448 316 2923 0 1.88808006
Link 449 53 2926 1 2.31616483
Link 19 68 2956 0 3.69239069
Link 14 28 2962 1 -2.77548644
Link 5 204 2972 0 -2.00555584
Link 461 26 3024 1 -0.16585628
Link 101 302 3070 0 -1.65166707
Link 416 33 3085 0 2.33622787
Link 6 475 3112 0 -0.42659163
Link 29 215 3162 0 5.37570413
Link 204 20 3207 0 -1.66829531
Link 200 68 3212 0 -3.78622151
Link 11 38 3234 1 2.13641068
Link 2 350 3251 0 2.60102640
Link 215 33 3285 0 1.34492527
Link 448 294 3295 0 -2.35333342
Link 18 500 3303 0 2.06840852
Link 500 13 3304 0 -0.56835069
Link 433 501 3312 0 2.37303164
Link 501 112 3313 0 -0.22159567
Link 53 502 3329 1 1.92716156
Link 502 449 3330 1 4.36633135
Link 20 509 3407 0 1.37238624
Link 509 33 3408 0 3.47526678
Link 44 515 3469 0 1.82315821
Link 515 26 3470 0 -4.65958747
Link 88 516 3474 0 0.54153742
Link 516 11 3475 0 -2.47690554
Link 330 517 3480 0 1.33290798
Link 517 44 3481 0 4.37934969
Link 56 520 3511 0 0.19475160
Link 520 14 3512 0 0.16835525
Link 16 525 3536 1 -0.24612497
Link 525 461 3537 1 0.13055368
Link 526 14 3542 0 -0.63345314
Link 62 531 3573 0 1.26484999
Link 531 186 3574 0 -2.24576423
Link 62 215 3591 0 -2.04418300
Link 38 38 3599 1 -1.90328603
Link 17 538 3618 1 -0.84563696
Link 538 17 3619 1 -1.21030240
Link 86 539 3624 0 2.56892576
Link 539 41 3625 0 -0.28367606
Link 7 86 3652 0 4.10311271
Link 455 544 3654 0 1.00000000
Link 544 25 3655 0 1.24668975
Link 200 11 3660 0 0.05935509
Link 66 19 3716 1 -0.16688153
Link 8 200 3721 0 1.14838651
Link 21 30 3794 0 3.10216343
Link 302 562 3810 0 0.59417248
Link 562 18 3811 0 -5.73422836
Link 416 416 3921 1 0.12590055
Link 39 577 3934 0 1.71529475
Link 577 377 3935 0 -4.97310455
Link 194 455 3938 0 -0.14632251
Link 302 378 3956 1 0.26830787
Link 60 46 3986 0 -4.72524390
Link 194 594 4044 0 2.14815621
Link 594 18 4045 0 -2.62524632
Link 107 20 4069 1 -0.33537841
Link 86 509 4102 0 -0.95504926
Link 36 302 4145 0 3.72075253
Link 182 613 4222 0 0.78443550
Link 613 22 4223 0 -0.59837791
Link 60 302 4262 0 -1.58278659
Link 63 619 4269 0 1.96535707
Link 619 48 4270 0 2.53016799
Link 6 620 4272 0 0.66783448
Link 324 630 4382 0 1.59004981
Link 630 455 4383 0 5.85641597
Link 340 215 4397 0 -3.06648037
Link 239 639 4479 0 1.87162553
Link 639 215 4480 0 3.99508220
Link 39 641 4497 1 -1.55476347
Link 641 39 4498 1 -2.65541629
Link 321 642 4501 1 0.02061335
Link 642 48 4502 1 2.01125630
Link 378 378 4536 1 -1.78495944
Link 378 30 4594 0 -5.31903260
Link 29 26 4621 0 -3.73135354
Link 107 665 4690 1 -0.25759998
Link 665 88 4691 1 -1.98547132
Link 425 670 4718 0 -4.01698638
Link 670 88 4719 0 -3.02561664
Link 101 674 4742 0 1.20767940
Link 674 18 4743 0 -1.71941817
Link 316 294 4848 0 3.05206350
Link 4 700 5045 0 -0.14993020
Link 700 10 5046 0 -1.31950028
Link 448 704 5099 1 2.22365982
Link 704 48 5100 1 -2.23021157
Link 174 706 5105 0 -0.96195384
Link 45 710 5124 0 0.59205841
Link 710 448 5125 0 2.47883613
Link 52 715 5158 0 1.24719817
Link 715 425 5159 0 0.32712076
Link 201 215 5163 0 -3.15318029
Link 475 720 5188 0 1.71116719
Link 720 215 5189 0 6.02201639
Link 16 758 5542 1 -0.12547605
Link 758 275 5543 1 -1.59401306
Link 63 765 5592 0 2.85141981
Link 765 11 5593 0 2.94569669
Link 4 215 5835 0 0.94100479
Link 11 820 6052 1 3.35141859
Link 455 830 6120 0 1.00000000
Link 830 107 6121 0 0.67179959
Link 18 19 6186 0 0.25800288
Link 34 840 6225 0 2.22625994
Link 19 29 6257 0 -3.35471343
Link 41 448 6516 0 -3.32087784
Link 378 56 6652 0 3.66855456
Link 475 416 6671 0 -0.32328657
Link 101 66 6802 0 0.00721040
Link 455 48 6851 0 -0.04511645
Link 455 917 6878 0 1.85286364
Link 917 15 6879 0 -2.51583889
Link 509 24 6972 0 -2.06019819
Link 294 56 6997 1 -0.55711030
Link 272 926 7009 0 0.06811472
Link 926 21 7010 0 -0.59583933
Link 7 933 7053 0 0.78810373
Link 933 99 7054 0 0.82102128
Link 620 957 7226 0 1.51403474
Link 957 44 7227 0 -1.31963559
Link 620 265 7305 0 -0.71569809
Link 440 63 7480 0 -3.66848606
Link 48 108 7495 0 3.77423816
Link 820 1005 7601 1 0.38768579
Link 700 33 7953 0 1.69664068
Link 10 350 8043 1 3.05857830
Link 11 1069 8116 1 2.39203646
Link 1069 28 8117 1 1.98382507
Link 440 440 8150 1 -0.55650994
Link 39 1020 8177 0 -0.35637053
Link 706 321 8245 1 2.07037214
Link 412 706 8270 0 -0.75408288
Link 1091 13 8328 0 0.67003408
Link 107 174 8391 0 -1.49495162
Link 700 13 8550 0 1.09873278
Link 47 1116 8591 0 1.00000000
Link 1116 412 8592 0 -0.18106191
Link 324 539 8623 1 1.04634744
Link 52 197 8640 1 -2.83407791
Link 526 1020 8715 0 3.43203638
Link 272 706 8904 0 -0.43901656
Link 65 38 8959 0 0.27851127
Link 13 1161 8984 1 2.21323382
Link 1161 294 8985 1 2.61065763
Link 1020 1173 9050 0 1.14233664
Link 41 1182 9121 0 -0.79129999
Link 1182 1020 9122 0 0.05756271
Link 68 20 9345 0 1.02682339
Link 1206 526 9393 0 3.75487620
Link 132 700 9408 0 -4.13655709
Link 112 350 9491 1 -1.43110430
Link 704 704 9702 1 -0.00039331
Link 433 425 9725 1 -0.51102795
Link 1 1249 9728 0 -2.15046288
Link 1249 948 9729 0 2.10376172
Link 99 186 9839 0 0.73744844
Link 185 22 9959 0 -0.41157385
Link 69 28 10109 0 0.71428489
Link 16 194 10140 1 4.42472966
Link 2 1318 10247 0 1.62678134
Link 1318 1206 10248 0 1.65834348
Link 239 1340 10444 0 1.45078034
Link 1340 197 10445 0 1.16957376
Link 449 275 10521 0 -2.42745846
Link 66 53 10679 1 -0.69378903
Link 1173 1411 11005 0 1.58100027
Link 1411 52 11006 0 -0.94784160
Link 44 1415 11043 1 1.79533740
Link 1415 44 11044 1 -3.64953817
Link 948 1422 11103 0 1.00000000
Link 1422 272 11104 0 2.69203639
Link 1020 1435 11223 0 -0.78681589
Link 1435 50 11224 0 -0.13590203
Link 594 1444 11323 0 2.14800283
Link 1444 34 11324 0 0.24108190
Link 840 1182 11352 1 4.39625806
Link 1415 24 11418 0 0.09556621
Link 957 1091 11457 0 -0.38567354
Link 1005 1513 11853 1 0.99867251
Link 1513 412 11854 1 1.02592872
Link 440 715 11926 0 -2.35428209
Link 424 28 12442 0 3.33771337
Link 196 186 12643 1 -0.73579507
Link 4 1182 12786 0 1.46902750
Link 25 1020 13091 0 -0.07279700
Link 620 1632 13167 1 0.72026906
Link 1632 620 13168 1 2.35195487
Link 619 539 13626 1 -1.84748758
Link 433 409 13701 1 -0.90477119
Link 1091 1091 13712 1 1.49108610
Link 520 201 13947 1 0.96638343
Link 101 517 14116 0 -0.37786580
Link 933 112 14187 0 1.50442880
Link 24 321 14230 0 1.32529026
Link 48 1206 14425 1 -2.26882893
Link 239 449 15453 0 2.51044292
Link 957 186 15504 0 0.77564501
GenomeEnd

