GenomeStart 70606
Neuron 1 1 0.00000000 1 0.00000000 0.00000000 0.00000000 0.00000000
Neuron 2 1 0.00000000 1 0.00000000 0.00000000 0.00000000 0.00000000
Neuron 3 1 0.00000000 1 0.00000000 0.00000000 0.00000000 0.00000000
Neuron 4 1 0.00000000 1 0.00000000 0.00000000 0.00000000 0.00000000
Neuron 5 1 0.00000000 1 0.00000000 0.00000000 0.00000000 0.00000000
Neuron 6 1 0.00000000 1 0.00000000 0.00000000 0.00000000 0.00000000
Neuron 7 1 0.00000000 1 0.00000000 0.00000000 0.00000000 0.00000000
Neuron 8 1 0.00000000 1 0.00000000 0.00000000 0.00000000 0.00000000
Neuron 9 2 0.00000000 1 0.00000000 0.00000000 0.00000000 0.00000000
Neuron 10 4 1.00000000 0 1.00000000 0.00000000 0.00000000 0.00000000
Neuron 11 4 1.00000000 0 1.00000000 0.00000000 0.00000000 0.00000000
Neuron 12 4 1.00000000 0 1.00000000 0.00000000 0.00000000 0.00000000
Neuron 13 4 1.00000000 0 1.00000000 0.00000000 0.00000000 0.00000000
Neuron 14 4 1.00000000 0 1.00000000 0.00000000 0.00000000 0.00000000
Neuron 15 4 1.00000000 0 1.00000000 0.00000000 0.00000000 0.00000000
Neuron 16 4 1.00000000 0 1.00000000 0.00000000 0.00000000 0.00000000
Neuron 17 3 0.50000000 1 1.00000000 0.00000000 0.00000000 0.00000000
Neuron 18 3 0.50000000 1 1.00000000 0.00000000 0.00000000 0.00000000
Neuron 19 3 0.50000000 1 1.00000000 0.00000000 0.00000000 0.00000000
Neuron 20 3 0.50000000 1 1.00000000 0.00000000 0.00000000 0.00000000
Neuron 21 3 0.50000000 1 1.00000000 0.00000000 0.00000000 0.00000000
Neuron 22 3 0.50000000 1 1.00000000 0.00000000 0.00000000 0.00000000
Neuron 24 3 0.50000000 1 1.00000000 0.00000000 0.00000000 0.00000000
Neuron 25 3 0.50000000 1 1.00000000 0.00000000 0.00000000 0.00000000
Neuron 26 3 0.50000000 1 1.00000000 0.00000000 0.00000000 0.00000000
Neuron 27 3 0.50000000 1 1.00000000 0.00000000 0.00000000 0.00000000
Neuron 28 3 0.50000000 1 1.00000000 0.00000000 0.00000000 0.00000000
Neuron 29 3 0.50000000 1 1.00000000 0.00000000 0.00000000 0.00000000
Neuron 30 3 0.50000000 1 1.00000000 0.00000000 0.00000000 0.00000000
Neuron 31 3 0.50000000 1 1.00000000 0.00000000 0.00000000 0.00000000
Neuron 33 3 0.50000000 1 1.00000000 0.00000000 0.00000000 0.00000000
Neuron 34 3 0.50000000 1 1.00000000 0.00000000 0.00000000 0.00000000
Neuron 35 3 0.50000000 1 1.00000000 0.00000000 0.00000000 0.00000000
Neuron 36 3 0.50000000 1 1.00000000 0.00000000 0.00000000 0.00000000
Neuron 38 3 0.50000000 1 1.00000000 0.00000000 0.00000000 0.00000000
Neuron 39 3 0.50000000 1 1.00000000 0.00000000 0.00000000 0.00000000
Neuron 41 3 0.50000000 1 1.00000000 0.00000000 0.00000000 0.00000000
Neuron 44 3 0.50000000 1 1.00000000 0.00000000 0.00000000 0.00000000
Neuron 45 3 0.50000000 1 1.00000000 0.00000000 0.00000000 0.00000000
Neuron 46 3 0.50000000 1 1.00000000 0.00000000 0.00000000 0.00000000
Neuron 47 3 0.50000000 1 1.00000000 0.00000000 0.00000000 0.00000000
Neuron 48 3 0.50000000 1 1.00000000 0.00000000 0.00000000 0.00000000
Neuron 50 3 0.50000000 1 1.00000000 0.00000000 0.00000000 0.00000000
Neuron 51 3 0.50000000 1 1.00000000 0.00000000 0.00000000 0.00000000
Neuron 52 3 0.50000000 1 1.00000000 0.00000000 0.00000000 0.00000000
Neuron 53 3 0.50000000 1 1.00000000 0.00000000 0.00000000 0.00000000
Neuron 56 3 0.50000000 1 1.00000000 0.00000000 0.00000000 0.00000000
Neuron 57 3 0.50000000 1 1.00000000 0.00000000 0.00000000 0.00000000
Neuron 59 3 0.50000000 1 1.00000000 0.00000000 0.00000000 0.00000000
Neuron 60 3 0.50000000 1 1.00000000 0.00000000 0.00000000 0.00000000
Neuron 62 3 0.50000000 1 1.00000000 0.00000000 0.00000000 0.00000000
Neuron 63 3 0.50000000 1 1.00000000 0.00000000 0.00000000 0.00000000
Neuron 65 3 0.50000000 1 1.00000000 0.00000000 0.00000000 0.00000000
Neuron 66 3 0.75000000 1 1.00000000 0.00000000 0.00000000 0.00000000
Neuron 68 3 0.50000000 1 1.00000000 0.00000000 0.00000000 0.00000000
Neuron 69 3 0.25000000 1 1.00000000 0.00000000 0.00000000 0.00000000
Neuron 85 3 0.75000000 1 1.00000000 0.00000000 0.00000000 0.00000000
Neuron 86 3 0.25000000 1 1.00000000 0.00000000 0.00000000 0.00000000
Neuron 88 3 0.50000000 1 1.00000000 0.00000000 0.00000000 0.00000000
Neuron 89 3 0.25000000 1 1.00000000 0.00000000 0.00000000 0.00000000
Neuron 94 3 0.75000000 1 1.00000000 0.00000000 0.00000000 0.00000000
Neuron 99 3 0.25000000 1 1.00000000 0.00000000 0.00000000 0.00000000
Neuron 101 3 0.25000000 1 1.00000000 0.00000000 0.00000000 0.00000000
Neuron 107 3 0.75000000 1 1.00000000 0.00000000 0.00000000 0.00000000
Neuron 108 3 0.75000000 1 1.00000000 0.00000000 0.00000000 0.00000000
Neuron 112 3 0.87500000 1 1.00000000 0.00000000 0.00000000 0.00000000
Neuron 132 3 0.25000000 1 1.00000000 0.00000000 0.00000000 0.00000000
Neuron 171 3 0.25000000 1 1.00000000 0.00000000 0.00000000 0.00000000
Neuron 174 3 0.75000000 1 1.00000000 0.00000000 0.00000000 0.00000000
Neuron 182 3 0.25000000 1 1.00000000 0.00000000 0.00000000 0.00000000
Neuron 185 3 0.25000000 1 1.00000000 0.00000000 0.00000000 0.00000000
Neuron 186 3 0.50000000 1 1.00000000 0.00000000 0.00000000 0.00000000
Neuron 194 3 0.50000000 1 1.00000000 0.00000000 0.00000000 0.00000000
Neuron 196 3 0.75000000 1 1.00000000 0.00000000 0.00000000 0.00000000
Neuron 197 3 0.25000000 1 1.00000000 0.00000000 0.00000000 0.00000000
Neuron 200 3 0.25000000 1 1.00000000 0.00000000 0.00000000 0.00000000
Neuron 201 3 0.25000000 1 1.00000000 0.00000000 0.00000000 0.00000000
Neuron 204 3 0.25000000 1 1.00000000 0.00000000 0.00000000 0.00000000
Neuron 213 3 0.62500000 1 1.00000000 0.00000000 0.00000000 0.00000000
Neuron 215 3 0.50000000 1 1.00000000 0.00000000 0.00000000 0.00000000
Neuron 239 3 0.25000000 1 1.00000000 0.00000000 0.00000000 0.00000000
Neuron 245 3 0.25000000 1 1.00000000 0.00000000 0.00000000 0.00000000
Neuron 246 3 0.75000000 1 1.00000000 0.00000000 0.00000000 0.00000000
Neuron 261 3 0.75000000 1 1.00000000 0.00000000 0.00000000 0.00000000
Neuron 265 3 0.25000000 1 1.00000000 0.00000000 0.00000000 0.00000000
Neuron 272 3 0.25000000 1 1.00000000 0.00000000 0.00000000 0.00000000
Neuron 275 3 0.75000000 1 1.00000000 0.00000000 0.00000000 0.00000000
Neuron 284 3 0.87500000 1 1.00000000 0.00000000 0.00000000 0.00000000
Neuron 289 3 0.37500000 1 1.00000000 0.00000000 0.00000000 0.00000000
Neuron 294 3 0.75000000 1 1.00000000 0.00000000 0.00000000 0.00000000
Neuron 302 3 0.50000000 1 1.00000000 0.00000000 0.00000000 0.00000000
Neuron 303 3 0.50000000 1 1.00000000 0.00000000 0.00000000 0.00000000
Neuron 316 3 0.62500000 1 1.00000000 0.00000000 0.00000000 0.00000000
Neuron 321 3 0.75000000 1 1.00000000 0.00000000 0.00000000 0.00000000
Neuron 324 3 0.50000000 1 1.00000000 0.00000000 0.00000000 0.00000000
Neuron 330 3 0.25000000 1 1.00000000 0.00000000 0.00000000 0.00000000
Neuron 340 3 0.50000000 1 1.00000000 0.00000000 0.00000000 0.00000000
Neuron 350 3 0.50000000 1 1.00000000 0.00000000 0.00000000 0.00000000
Neuron 377 3 0.75000000 1 1.00000000 0.00000000 0.00000000 0.00000000
Neuron 378 3 0.25000000 1 1.00000000 0.00000000 0.00000000 0.00000000
Neuron 394 3 0.75000000 1 1.00000000 0.00000000 0.00000000 0.00000000
Neuron 412 3 0.75000000 1 1.00000000 0.00000000 0.00000000 0.00000000
Neuron 416 3 0.50000000 1 1.00000000 0.00000000 0.00000000 0.00000000
Neuron 424 3 0.50000000 1 1.00000000 0.00000000 0.00000000 0.00000000
Neuron 425 3 0.50000000 1 1.00000000 0.00000000 0.00000000 0.00000000
Neuron 433 3 0.81250000 1 1.00000000 0.00000000 0.00000000 0.00000000
Neuron 440 3 0.12500000 1 1.00000000 0.00000000 0.00000000 0.00000000
Neuron 442 3 0.93750000 1 1.00000000 0.00000000 0.00000000 0.00000000
Neuron 448 3 0.56250000 1 1.00000000 0.00000000 0.00000000 0.00000000
Neuron 449 3 0.50000000 1 1.00000000 0.00000000 0.00000000 0.00000000
Neuron 455 3 0.50000000 1 1.00000000 0.00000000 0.00000000 0.00000000
Neuron 461 3 0.75000000 1 1.00000000 0.00000000 0.00000000 0.00000000
Neuron 475 3 0.25000000 1 1.00000000 0.00000000 0.00000000 0.00000000
Neuron 500 3 0.75000000 1 1.00000000 0.00000000 0.00000000 0.00000000
Neuron 509 3 0.50000000 1 1.00000000 0.00000000 0.00000000 0.00000000
Neuron 515 3 0.50000000 1 1.00000000 0.00000000 0.00000000 0.00000000
Neuron 516 3 0.75000000 1 1.00000000 0.00000000 0.00000000 0.00000000
Neuron 520 3 0.75000000 1 1.00000000 0.00000000 0.00000000 0.00000000
Neuron 525 3 0.87500000 1 1.00000000 0.00000000 0.00000000 0.00000000
Neuron 526 3 0.50000000 1 1.00000000 0.00000000 0.00000000 0.00000000
Neuron 539 3 0.37500000 1 1.00000000 0.00000000 0.00000000 0.00000000
Neuron 577 3 0.62500000 1 1.00000000 0.00000000 0.00000000 0.00000000
Neuron 594 3 0.50000000 1 1.00000000 0.00000000 0.00000000 0.00000000
Neuron 613 3 0.37500000 1 1.00000000 0.00000000 0.00000000 0.00000000
Neuron 619 3 0.50000000 1 1.00000000 0.00000000 0.00000000 0.00000000
Neuron 620 3 0.25000000 1 1.00000000 0.00000000 0.00000000 0.00000000
Neuron 641 3 0.50000000 1 1.00000000 0.00000000 0.00000000 0.00000000
Neuron 665 3 0.62500000 1 1.00000000 0.00000000 0.00000000 0.00000000
Neuron 670 3 0.50000000 1 1.00000000 0.00000000 0.00000000 0.00000000
Neuron 674 3 0.37500000 1 1.00000000 0.00000000 0.00000000 0.00000000
Neuron 700 3 0.50000000 1 1.00000000 0.00000000 0.00000000 0.00000000
Neuron 704 3 0.53125000 1 1.00000000 0.00000000 0.00000000 0.00000000
Neuron 706 3 0.87500000 1 1.00000000 0.00000000 0.00000000 0.00000000
Neuron 715 3 0.50000000 1 1.00000000 0.00000000 0.00000000 0.00000000
Neuron 758 3 0.87500000 1 1.00000000 0.00000000 0.00000000 0.00000000
Neuron 765 3 0.75000000 1 1.00000000 0.00000000 0.00000000 0.00000000
Neuron 820 3 0.87500000 1 1.00000000 0.00000000 0.00000000 0.00000000
Neuron 840 3 0.75000000 1 1.00000000 0.00000000 0.00000000 0.00000000
Neuron 926 3 0.37500000 1 1.00000000 0.00000000 0.00000000 0.00000000
Neuron 933 3 0.12500000 1 1.00000000 0.00000000 0.00000000 0.00000000
Neuron 948 3 0.12500000 1 1.00000000 0.00000000 0.00000000 0.00000000
Neuron 957 3 0.37500000 1 1.00000000 0.00000000 0.00000000 0.00000000
Neuron 1005 3 0.81250000 1 1.00000000 0.00000000 0.00000000 0.00000000
Neuron 1020 3 0.50000000 1 1.00000000 0.00000000 0.00000000 0.00000000
Neuron 1069 3 0.75000000 1 1.00000000 0.00000000 0.00000000 0.00000000
Neuron 1091 3 0.93750000 1 1.00000000 0.00000000 0.00000000 0.00000000
Neuron 1173 3 0.50000000 1 1.00000000 0.00000000 0.00000000 0.00000000
Neuron 1182 3 0.50000000 1 1.00000000 0.00000000 0.00000000 0.00000000
Neuron 1206 3 0.25000000 1 1.00000000 0.00000000 0.00000000 0.00000000
Neuron 1249 3 0.06250000 1 1.00000000 0.00000000 0.00000000 0.00000000
Neuron 1318 3 0.12500000 1 1.00000000 0.00000000 0.00000000 0.00000000
Neuron 1340 3 0.25000000 1 1.00000000 0.00000000 0.00000000 0.00000000
Neuron 1411 3 0.50000000 1 1.00000000 0.00000000 0.00000000 0.00000000
Neuron 1415 3 0.50000000 1 1.00000000 0.00000000 0.00000000 0.00000000
Neuron 1435 3 0.50000000 1 1.00000000 0.00000000 0.00000000 0.00000000
Link 1 10 1 0 -3.38598179
Link 2 10 2 0 -1.45991558
Link 3 10 3 0 -3.17723760
Link 5 10 5 0 1.18975120
Link 6 10 6 0 -1.68427208
Link 7 10 7 0 -4.69178227
Link 9 10 9 0 -1.25616707
Link 1 11 10 0 -4.16024027
Link 2 11 11 0 0.92523424
Link 3 11 12 0 -2.95523475
Link 4 11 13 0 1.48644542
Link 5 11 14 0 1.69215688
Link 6 11 15 0 -0.21679363
Link 7 11 16 0 -2.35586325
Link 8 11 17 0 0.72689896
Link 9 11 18 0 2.47425865
Link 2 12 20 0 0.94754685
Link 3 12 21 0 -3.13700275
Link 4 12 22 0 -1.40159769
Link 5 12 23 0 -4.09078407
Link 6 12 24 0 3.01773933
Link 7 12 25 0 -1.63308106
Link 8 12 26 0 -0.00935951
Link 9 12 27 0 -2.84909970
Link 1 13 28 0 1.49167851
Link 2 13 29 0 1.51780546
Link 4 13 31 0 0.68626577
Link 5 13 32 0 0.86727478
Link 6 13 33 0 1.49244254
Link 7 13 34 0 -1.70565471
Link 9 13 36 0 -1.47438426
Link 1 14 37 0 0.78704965
Link 3 14 39 0 0.33691552
Link 4 14 40 0 5.29107150
Link 5 14 41 0 -0.26726664
Link 6 14 42 0 1.64386908
Link 7 14 43 0 -3.39169737
Link 8 14 44 0 4.69146388
Link 9 14 45 0 0.40411009
Link 1 15 46 0 -1.29288637
Link 2 15 47 0 1.79447588
Link 3 15 48 0 0.53152272
Link 4 15 49 0 0.55936295
Link 6 15 51 0 -3.02516126
Link 7 15 52 0 0.60375236
Link 8 15 53 0 0.83722424
Link 9 15 54 0 -1.89842277
Link 1 16 55 0 -4.67924121
Link 2 16 56 0 -1.11037164
Link 3 16 57 0 -0.65885850
Link 4 16 58 0 2.07909720
Link 5 16 59 0 -0.05135926
Link 6 16 60 0 -3.89321134
Link 7 16 61 0 -2.13690532
Link 8 16 62 0 -1.33710324
Link 9 16 63 0 1.25105234
Link 7 17 65 0 2.04749598
Link 17 15 66 0 -2.30357262
Link 4 18 68 0 -2.01632831
Link 18 12 69 0 -1.87734706
Link 20 14 75 0 1.89264368
Link 8 21 77 0 1.93406028
Link 21 12 78 0 -1.68463415
Link 22 10 81 0 -0.81461243
Link 24 14 87 0 5.42386170
Link 7 25 89 0 2.82624422
Link 26 13 93 0 -2.49723090
Link 1 27 95 0 0.83885711
Link 27 12 96 0 3.32422370
Link 3 28 98 0 0.77732057
Link 28 13 99 0 -2.83782081
Link 29 13 102 0 1.12249480
Link 8 30 104 0 4.72707891
Link 30 10 105 0 -0.26678389
Link 2 31 107 0 -4.64060004
Link 8 33 113 0 -3.24255350
Link 33 14 114 0 2.41357783
Link 6 34 117 0 -1.43695376
Link 1 35 120 0 -0.62579484
Link 2 36 123 0 -3.76450266
Link 36 13 124 0 1.98616474
Link 2 38 129 0 -1.29997583
Link 38 16 130 0 -0.99955545
Link 4 41 138 0 3.04143315
Link 41 15 139 0 4.29458647
Link 44 12 148 0 2.94124647
Link 7 45 150 0 -2.85537752
Link 45 16 151 0 -1.60507660
Link 1 46 153 0 2.43433229
Link 5 47 156 0 2.83171422
Link 47 15 157 0 4.02612683
Link 2 48 159 0 -0.23392677
Link 48 11 160 0 -0.77242555
Link 50 11 167 0 1.13336897
Link 4 51 174 0 -0.42355434
Link 51 16 175 0 2.27744474
Link 5 52 177 0 0.82650383
Link 52 14 178 0 -2.73051938
Link 2 53 181 0 3.00599677
Link 9 44 191 0 0.02773302
Link 5 56 196 0 1.16392859
Link 56 13 197 0 1.20161307
Link 8 57 200 0 2.72122148
Link 57 15 201 0 -2.36106509
Link 60 10 214 0 1.69416944
Link 7 62 222 0 -1.37823997
Link 62 10 223 0 -1.71523687
Link 29 16 230 0 3.41864713
Link 63 10 237 0 3.49476846
Link 1 65 250 0 0.43752031
Link 65 16 251 0 2.07723826
Link 2 17 258 0 1.54813963
Link 59 66 260 0 -0.86472829
Link 66 10 261 0 -5.24330218
Link 10 57 263 1 -2.63515233
Link 3 68 279 0 1.89525622
Link 68 10 280 0 2.43546426
Link 8 69 297 0 1.99545507
Link 69 29 298 0 -4.03715861
Link 3 56 315 0 4.63507281
Link 19 85 424 0 3.24343603
Link 4 86 427 0 0.78019051
Link 6 88 442 0 -6.09169707
Link 88 15 443 0 6.49159605
Link 4 89 450 0 1.75174239
Link 89 19 451 0 3.71437243
Link 94 15 482 0 -2.41405022
Link 13 21 492 1 3.59763013
Link 99 26 515 0 -3.52401898
Link 17 11 532 0 -2.13759049
Link 62 62 534 1 -2.82510220
Link 1 101 542 0 1.73001983
Link 35 107 595 0 -0.15746479
Link 107 11 596 0 -2.70529340
Link 31 108 609 0 -0.13050960
Link 108 12 610 0 -1.24343095
Link 25 25 653 1 0.98162852
Link 3 19 655 0 -1.48912972
Link 2 41 688 0 2.34980825
Link 29 29 719 1 -1.94586613
Link 8 22 765 0 -0.41588398
Link 5 132 787 0 -3.19282568
Link 132 39 788 0 -3.51861304
Link 4 63 930 0 -1.72989223
Link 14 85 948 1 -1.87230873
Link 2 171 1054 0 1.52635612
Link 171 24 1055 0 3.12691381
Link 28 174 1070 0 1.98644900
Link 6 182 1115 0 1.10101719
Link 22 22 1134 1 5.14537497
Link 5 185 1153 0 -3.67095598
Link 185 59 1154 0 -1.12799014
Link 62 186 1156 0 -0.23196938
Link 186 50 1157 0 4.24729044
Link 17 194 1226 0 -1.52586283
Link 17 196 1237 0 2.58553153
Link 196 13 1238 0 -3.72244033
Link 1 197 1242 0 -0.16488566
Link 197 63 1243 0 4.13117172
Link 52 52 1245 1 0.69027992
Link 4 200 1261 0 0.80922443
Link 200 60 1262 0 2.10440179
Link 3 201 1264 0 -2.88806525
Link 6 204 1276 0 0.33597384
Link 204 41 1277 0 -1.41512782
Link 41 213 1353 0 1.40013835
Link 213 94 1354 0 -0.22132963
Link 8 215 1363 0 -1.83264527
Link 215 13 1364 0 -1.04709123
Link 200 15 1406 0 1.97949622
Link 8 239 1498 0 0.60856237
Link 239 215 1499 0 1.98673348
Link 3 245 1525 0 2.13701913
Link 245 20 1526 0 -3.81464546
Link 53 246 1533 0 0.83829702
Link 9 26 1567 0 -1.72184756
Link 9 200 1609 0 -3.75560107
Link 25 261 1629 0 1.12564281
Link 261 14 1630 0 3.37560727
Link 5 265 1668 0 3.00018641
Link 265 65 1669 0 -4.51132829
Link 6 200 1687 0 0.12951121
Link 4 21 1707 0 0.77493094
Link 275 68 1723 1 0.01868008
Link 45 45 1824 1 -0.73872919
Link 246 284 1829 0 1.82516427
Link 284 10 1830 0 0.52135847
Link 19 289 1857 1 0.54636209
Link 289 200 1858 1 -0.42848930
Link 13 294 1883 1 2.03744375
Link 26 302 1931 0 0.28705182
Link 302 18 1932 0 -4.83354691
Link 6 197 1933 0 -1.70608683
Link 44 303 1936 1 0.16801051
Link 303 44 1937 1 1.93488565
Link 46 45 1952 0 -1.21899440
Link 21 51 1988 0 2.76692526
Link 294 316 2008 1 4.62179119
Link 316 48 2009 1 1.93121595
Link 12 321 2026 1 -2.18417993
Link 321 48 2027 1 1.22941568
Link 44 324 2043 0 -0.58848035
Link 6 330 2087 0 4.62307172
Link 330 44 2088 0 4.76984313
Link 14 26 2114 1 6.25797222
Link 25 340 2150 1 1.32435938
Link 340 25 2151 1 -0.45134703
Link 17 17 2210 1 -1.39043358
Link 5 350 2248 0 0.50524865
Link 350 13 2249 0 5.04738148
Link 10 65 2317 1 -1.60419262
Link 85 68 2385 1 1.13251803
Link 377 12 2420 0 3.00173131
Link 8 378 2428 0 -1.36108209
Link 378 18 2429 0 3.16873646
Link 15 34 2489 1 -2.17142324
Link 12 394 2532 1 1.02982680
Link 394 41 2533 1 -0.15501133
Link 7 294 2573 0 -1.62920974
Link 63 29 2633 0 -0.18518546
Link 65 19 2641 0 1.17724393
Link 412 30 2666 1 -0.42659736
Link 15 68 2668 1 -0.65820266
Link 6 416 2688 0 0.40322227
Link 416 15 2689 0 1.39671472
Link 46 11 2696 0 -4.69496868
Link 48 424 2744 0 1.21126704
Link 424 63 2745 0 2.31734021
Link 26 65 2784 0 1.05689754
Link 28 28 2808 1 2.77460208
Link 85 433 2819 0 0.29484293
Link 433 112 2820 0 0.01832660
Link 132 34 2852 0 4.82607827
Link 39 50 2853 0 -5.79681752
Link 101 101 2866 1 -0.24268702
Link 5 440 2871 0 0.89116104
Link 440 200 2872 0 2.79484379
Link 112 442 2878 0 0.84223389
Link 442 14 2879 0 -3.04128881
Link 12 28 2913 1 1.18989382
Link 45 448 2922 0 0.99721805
Link 448 316 2923 0 1.82044063
Link 53 449 2925 1 1.71991485
Link 449 53 2926 1 2.68108077
Link 19 68 2956 0 4.02177427
Link 14 28 2962 1 -2.87396526
Link 5 204 2972 0 -2.74526077
Link 324 455 2985 0 4.77283329
Link 455 25 2986 0 1.21039176
Link 461 26 3024 1 0.46260119
Link 101 302 3070 0 -0.63971134
Link 416 33 3085 0 1.53392413
Link 6 475 3112 0 -0.59691969
Link 475 215 3113 0 6.23059750
Link 29 215 3162 0 6.06543134
Link 204 20 3207 0 -0.88653164
Link 200 68 3212 0 -1.94449486
Link 11 38 3234 1 2.00004295
Link 2 350 3251 0 0.18771178
Link 215 33 3285 0 2.28226285
Link 448 294 3295 0 -3.30418779
Link 18 500 3303 0 1.63321906
Link 500 13 3304 0 -0.92871965
Link 455 15 3390 0 -3.34460846
Link 20 509 3407 0 1.64563601
Link 509 33 3408 0 4.62120651
Link 44 515 3469 0 0.77550987
Link 515 26 3470 0 -3.92496529
Link 88 516 3474 0 0.69418641
Link 516 11 3475 0 -1.37236549
Link 56 520 3511 0 0.38124440
Link 520 14 3512 0 -0.52433816
Link 16 525 3536 1 0.21426565
Link 525 461 3537 1 0.70869171
Link 526 14 3542 0 -1.30675760
Link 62 215 3591 0 -1.37742536
Link 86 539 3624 0 1.27456198
Link 539 41 3625 0 1.20601832
Link 7 86 3652 0 2.41486495
Link 200 11 3660 0 -0.89727489
Link 66 19 3716 1 -0.93350864
Link 8 200 3721 0 1.43723223
Link 21 30 3794 0 3.02263533
Link 416 416 3921 1 0.85060745
Link 39 577 3934 0 1.48574152
Link 577 377 3935 0 -3.18466362
Link 194 455 3938 0 -1.19794663
Link 302 378 3956 1 0.51515970
Link 60 46 3986 0 -3.23615594
Link 194 594 4044 0 1.29546821
Link 594 18 4045 0 -2.93398476
Link 107 20 4069 1 0.06450419
Link 86 509 4102 0 -1.27381394
Link 36 302 4145 0 4.55746737
Link 182 613 4222 0 1.38541951
Link 613 22 4223 0 -1.87363787
Link 60 302 4262 0 -2.12178662
Link 63 619 4269 0 1.46775020
Link 619 48 4270 0 1.49083738
Link 6 620 4272 0 1.24187833
Link 455 107 4325 0 1.05568736
Link 340 215 4397 0 -1.90651191
Link 39 641 4497 1 -1.60025853
Link 641 39 4498 1 -2.36107529
Link 378 378 4536 1 -1.98779273
Link 378 30 4594 0 -3.50513030
Link 29 26 4621 0 -2.60225965
Link 107 665 4690 1 -0.77652161
Link 665 88 4691 1 -0.32264312
Link 425 670 4718 0 -3.84253504
Link 670 88 4719 0 -0.89924272
Link 101 674 4742 0 1.04019274
Link 674 18 4743 0 -2.62773204
Link 316 294 4848 0 1.53375997
Link 4 700 5045 0 1.07266944
Link 700 10 5046 0 -0.68169354
Link 448 704 5099 1 1.83834767
Link 704 48 5100 1 -2.62336704
Link 174 706 5105 0 0.73113398
Link 52 715 5158 0 1.10106772
Link 715 425 5159 0 0.38996792
Link 201 215 5163 0 -2.75619202
Link 16 758 5542 1 0.47337177
Link 758 275 5543 1 -0.00971985
Link 63 765 5592 0 1.18276816
Link 765 11 5593 0 3.09646877
Link 4 215 5835 0 1.83019491
Link 11 820 6052 1 2.51911206
Link 18 19 6186 0 1.68150448
Link 34 840 6225 0 2.72116778
Link 840 10 6226 0 -1.88968589
Link 19 29 6257 0 -3.15224107
Link 41 448 6516 0 -3.05635898
Link 378 56 6652 0 4.16070927
Link 475 416 6671 0 -0.29223365
Link 101 66 6802 0 -0.29221631
Link 47 412 6829 0 -0.08385108
Link 455 48 6851 0 0.01953253
Link 509 24 6972 0 -2.29798049
Link 294 56 6997 1 -0.83063850
Link 272 926 7009 0 -0.00481231
Link 926 21 7010 0 0.96532394
Link 7 933 7053 0 0.27533744
Link 933 99 7054 0 1.69264272
Link 948 272 7148 0 3.06298683
Link 620 957 7226 0 0.99686794
Link 957 44 7227 0 -0.56549585
Link 620 265 7305 0 0.69142791
Link 440 63 7480 0 -2.95927869
Link 48 108 7495 0 3.60590351
Link 820 1005 7601 1 0.52764194
Link 1005 412 7602 1 0.41036520
Link 700 33 7953 0 3.52623366
Link 10 350 8043 1 3.91755545
Link 11 1069 8116 1 1.03382495
Link 1069 28 8117 1 1.05567347
Link 440 440 8150 1 -0.05184950
Link 39 1020 8177 0 -0.07240829
Link 706 321 8245 1 2.21661184
Link 412 706 8270 0 0.15572483
Link 706 1091 8327 0 1.25835066
Link 1091 13 8328 0 -0.35082585
Link 107 174 8391 0 -1.52354245
Link 700 13 8550 0 -1.08956125
Link 52 197 8640 1 -0.02202090
Link 526 1020 8715 0 2.15947252
Link 272 706 8904 0 0.27252372
Link 1020 1173 9050 0 0.53449993
Link 41 1182 9121 0 0.77449185
Link 1182 1020 9122 0 0.45998709
Link 99 112 9189 0 -1.42041198
Link 594 34 9284 0 -2.45627421
Link 68 20 9345 0 0.72768655
Link 1206 526 9393 0 2.23179739
Link 132 700 9408 0 -3.10324890
Link 112 350 9491 1 -0.86182925
Link 48 215 9687 0 -2.01328281
Link 704 704 9702 1 0.31438259
Link 433 425 9725 1 -0.22217059
Link 1 1249 9728 0 0.76640627
Link 1249 948 9729 0 1.95829147
Link 99 186 9839 0 0.79266585
Link 185 22 9959 0 0.38151268
Link 69 28 10109 0 -0.42000639
Link 16 194 10140 1 3.82259427
Link 2 1318 10247 0 0.96826546
Link 1318 1206 10248 0 1.94924641
Link 239 1340 10444 0 1.38991433
Link 1340 197 10445 0 0.94602453
Link 449 275 10521 0 -2.57612375
Link 66 53 10679 1 0.09507084
Link 1173 1411 11005 0 1.77897327
Link 1411 52 11006 0 2.23094736
Link 44 1415 11043 1 1.55170169
Link 1415 44 11044 1 -1.93962803
Link 1020 1435 11223 0 0.38880274
Link 1435 50 11224 0 0.28032072
Link 840 1182 11352 1 2.02059200
Link 1415 24 11418 0 0.63155332
Link 957 1091 11457 0 0.49158099
Link 60 94 11817 0 0.17850781
Link 185 132 11903 0 3.08363394
Link 440 715 11926 0 -1.98436005
GenomeEnd

