GenomeStart 17040
Neuron 1 1 0.00000000 1 0.00000000 0.00000000 0.00000000 0.00000000
Neuron 2 1 0.00000000 1 0.00000000 0.00000000 0.00000000 0.00000000
Neuron 3 1 0.00000000 1 0.00000000 0.00000000 0.00000000 0.00000000
Neuron 4 1 0.00000000 1 0.00000000 0.00000000 0.00000000 0.00000000
Neuron 5 1 0.00000000 1 0.00000000 0.00000000 0.00000000 0.00000000
Neuron 6 1 0.00000000 1 0.00000000 0.00000000 0.00000000 0.00000000
Neuron 7 1 0.00000000 1 0.00000000 0.00000000 0.00000000 0.00000000
Neuron 8 1 0.00000000 1 0.00000000 0.00000000 0.00000000 0.00000000
Neuron 9 2 0.00000000 1 0.00000000 0.00000000 0.00000000 0.00000000
Neuron 10 4 1.00000000 0 1.00000000 0.00000000 0.00000000 0.00000000
Neuron 11 4 1.00000000 0 1.00000000 0.00000000 0.00000000 0.00000000
Neuron 12 4 1.00000000 0 1.00000000 0.00000000 0.00000000 0.00000000
Neuron 13 4 1.00000000 0 1.00000000 0.00000000 0.00000000 0.00000000
Neuron 14 4 1.00000000 0 1.00000000 0.00000000 0.00000000 0.00000000
Neuron 15 4 1.00000000 0 1.00000000 0.00000000 0.00000000 0.00000000
Neuron 16 4 1.00000000 0 1.00000000 0.00000000 0.00000000 0.00000000
Neuron 19 3 0.50000000 1 1.00000000 0.00000000 0.00000000 0.00000000
Neuron 29 3 0.50000000 1 1.00000000 0.00000000 0.00000000 0.00000000
Neuron 34 3 0.50000000 1 1.00000000 0.00000000 0.00000000 0.00000000
Neuron 37 3 0.50000000 1 1.00000000 0.00000000 0.00000000 0.00000000
Neuron 39 3 0.50000000 1 1.00000000 0.00000000 0.00000000 0.00000000
Neuron 41 3 0.50000000 1 1.00000000 0.00000000 0.00000000 0.00000000
Neuron 43 3 0.50000000 1 1.00000000 0.00000000 0.00000000 0.00000000
Neuron 44 3 0.50000000 1 1.00000000 0.00000000 0.00000000 0.00000000
Neuron 388 3 0.25000000 1 1.00000000 0.00000000 0.00000000 0.00000000
Link 1 10 1 0 -1.35309904
Link 2 10 2 0 0.31760099
Link 3 10 3 0 -2.82904274
Link 4 10 4 0 2.32382125
Link 5 10 5 0 -0.02626011
Link 6 10 6 0 0.44711721
Link 7 10 7 0 -0.83753774
Link 8 10 8 0 -2.33629237
Link 9 10 9 0 -1.05293102
Link 1 11 10 0 -0.46640733
Link 2 11 11 0 0.77983526
Link 4 11 13 0 -0.14978758
Link 5 11 14 0 -3.53302221
Link 6 11 15 0 1.37550602
Link 7 11 16 0 2.49786347
Link 8 11 17 0 2.82777246
Link 9 11 18 0 -0.02228599
Link 1 12 19 0 -2.28279418
Link 2 12 20 0 2.23687439
Link 3 12 21 0 1.78785248
Link 4 12 22 0 2.03153651
Link 7 12 25 0 -0.11103485
Link 8 12 26 0 -1.00536807
Link 9 12 27 0 0.84936002
Link 1 13 28 0 0.28807926
Link 2 13 29 0 0.54281763
Link 3 13 30 0 1.34055099
Link 4 13 31 0 -1.33966949
Link 5 13 32 0 -1.34803473
Link 6 13 33 0 -0.13690240
Link 7 13 34 0 3.84209414
Link 9 13 36 0 -1.90537332
Link 1 14 37 0 3.20688332
Link 2 14 38 0 -1.66284757
Link 3 14 39 0 -0.24212042
Link 5 14 41 0 0.52181296
Link 7 14 43 0 -0.11990710
Link 8 14 44 0 -0.03126712
Link 9 14 45 0 1.06159103
Link 1 15 46 0 1.76846987
Link 2 15 47 0 -1.07352492
Link 3 15 48 0 0.38352709
Link 5 15 50 0 1.33823575
Link 6 15 51 0 0.83658702
Link 7 15 52 0 1.04951362
Link 8 15 53 0 1.90287060
Link 9 15 54 0 -0.60907916
Link 1 16 55 0 2.62260008
Link 2 16 56 0 -0.01595867
Link 4 16 58 0 2.16850140
Link 5 16 59 0 1.12410776
Link 6 16 60 0 -0.30091426
Link 7 16 61 0 0.30425311
Link 8 16 62 0 1.77821665
Link 9 16 63 0 -0.74153505
Link 4 19 71 0 0.77936895
Link 19 14 72 0 -0.20307563
Link 8 29 101 0 -1.45621288
Link 29 13 102 0 1.56406969
Link 6 34 117 0 -0.83310347
Link 34 14 118 0 -0.50831513
Link 3 37 126 0 -0.77963069
Link 37 11 127 0 0.79753279
Link 5 39 132 0 -1.18228300
Link 39 12 133 0 1.05785992
Link 4 41 138 0 -0.07047282
Link 41 15 139 0 0.38571509
Link 3 43 144 0 -1.31142139
Link 43 16 145 0 -1.12728959
Link 6 44 147 0 -0.50518695
Link 44 12 148 0 0.21555436
Link 12 19 317 1 2.60704536
Link 1 43 436 0 0.05058120
Link 9 43 746 0 -0.78078785
Link 10 44 998 1 3.14364803
Link 39 15 1892 0 0.74989806
Link 7 39 2056 0 2.19651558
Link 43 10 2185 0 0.08354223
Link 39 34 2309 0 -0.41658199
Link 5 388 2494 0 1.51787822
Link 388 44 2495 0 0.75967721
GenomeEnd

