GenomeStart 6027
Neuron 1 1 0.00000000 1 0.00000000 0.00000000 0.00000000 0.00000000
Neuron 2 1 0.00000000 1 0.00000000 0.00000000 0.00000000 0.00000000
Neuron 3 1 0.00000000 1 0.00000000 0.00000000 0.00000000 0.00000000
Neuron 4 1 0.00000000 1 0.00000000 0.00000000 0.00000000 0.00000000
Neuron 5 1 0.00000000 1 0.00000000 0.00000000 0.00000000 0.00000000
Neuron 6 1 0.00000000 1 0.00000000 0.00000000 0.00000000 0.00000000
Neuron 7 1 0.00000000 1 0.00000000 0.00000000 0.00000000 0.00000000
Neuron 8 1 0.00000000 1 0.00000000 0.00000000 0.00000000 0.00000000
Neuron 9 2 0.00000000 1 0.00000000 0.00000000 0.00000000 0.00000000
Neuron 10 4 1.00000000 0 1.00000000 0.00000000 0.00000000 0.00000000
Neuron 11 4 1.00000000 0 1.00000000 0.00000000 0.00000000 0.00000000
Neuron 12 4 1.00000000 0 1.00000000 0.00000000 0.00000000 0.00000000
Neuron 13 4 1.00000000 0 1.00000000 0.00000000 0.00000000 0.00000000
Neuron 14 4 1.00000000 0 1.00000000 0.00000000 0.00000000 0.00000000
Neuron 15 4 1.00000000 0 1.00000000 0.00000000 0.00000000 0.00000000
Neuron 16 4 1.00000000 0 1.00000000 0.00000000 0.00000000 0.00000000
Neuron 23 3 0.50000000 1 1.00000000 0.00000000 0.00000000 0.00000000
Neuron 26 3 0.50000000 1 1.00000000 0.00000000 0.00000000 0.00000000
Neuron 32 3 0.50000000 1 1.00000000 0.00000000 0.00000000 0.00000000
Neuron 34 3 0.50000000 1 1.00000000 0.00000000 0.00000000 0.00000000
Neuron 43 3 0.50000000 1 1.00000000 0.00000000 0.00000000 0.00000000
Neuron 57 3 0.50000000 1 1.00000000 0.00000000 0.00000000 0.00000000
Neuron 62 3 0.50000000 1 1.00000000 0.00000000 0.00000000 0.00000000
Neuron 76 3 0.75000000 1 1.00000000 0.00000000 0.00000000 0.00000000
Link 1 10 1 0 -2.54556991
Link 2 10 2 0 1.27357566
Link 3 10 3 0 0.07251619
Link 4 10 4 0 2.92743657
Link 5 10 5 0 1.51683391
Link 6 10 6 0 0.35055267
Link 8 10 8 0 2.14098751
Link 9 10 9 0 3.12824755
Link 1 11 10 0 -1.79496332
Link 2 11 11 0 2.46323204
Link 3 11 12 0 -2.17643028
Link 4 11 13 0 -1.56896524
Link 5 11 14 0 -2.81604802
Link 6 11 15 0 1.17398890
Link 7 11 16 0 0.25333302
Link 8 11 17 0 -0.21311930
Link 9 11 18 0 2.57059395
Link 1 12 19 0 -0.25171863
Link 2 12 20 0 1.15353265
Link 3 12 21 0 -2.34214941
Link 4 12 22 0 1.23324610
Link 5 12 23 0 -3.69810538
Link 6 12 24 0 2.36706812
Link 7 12 25 0 -0.56603607
Link 8 12 26 0 -2.11486744
Link 9 12 27 0 3.41306068
Link 1 13 28 0 0.62632105
Link 2 13 29 0 -0.82462936
Link 3 13 30 0 1.02867085
Link 4 13 31 0 1.99108522
Link 5 13 32 0 -3.46594379
Link 6 13 33 0 0.70609471
Link 8 13 35 0 -1.06663371
Link 9 13 36 0 -0.32266376
Link 1 14 37 0 0.02291479
Link 2 14 38 0 -1.01365527
Link 3 14 39 0 -1.34312173
Link 4 14 40 0 -1.28955097
Link 5 14 41 0 -0.51258489
Link 7 14 43 0 0.61739601
Link 8 14 44 0 -0.94433727
Link 9 14 45 0 -0.37257592
Link 1 15 46 0 1.05213847
Link 2 15 47 0 -1.99262515
Link 4 15 49 0 -3.35699245
Link 5 15 50 0 4.14518517
Link 6 15 51 0 2.35590480
Link 7 15 52 0 -1.83925498
Link 9 15 54 0 0.64640778
Link 1 16 55 0 1.13547460
Link 2 16 56 0 1.19521801
Link 4 16 58 0 0.36782169
Link 5 16 59 0 2.32811559
Link 7 16 61 0 -3.17443397
Link 8 16 62 0 1.24558948
Link 9 16 63 0 -2.12750216
Link 6 23 83 0 -2.05020270
Link 23 16 84 0 -1.48593495
Link 7 26 92 0 0.38269709
Link 3 32 110 0 3.18006026
Link 32 15 111 0 -0.10198142
Link 6 34 117 0 0.91740871
Link 34 14 118 0 -2.29533558
Link 3 43 144 0 2.19747264
Link 43 16 145 0 2.76067646
Link 8 57 200 0 0.82778600
Link 57 15 201 0 -1.00569142
Link 7 62 222 0 2.65009365
Link 62 10 223 0 -0.01258710
Link 26 76 357 0 -0.35527794
Link 76 13 358 0 2.72375312
Link 10 76 517 1 -2.61201517
Link 32 76 557 0 -1.72024297
Link 6 62 833 0 -2.49671128
GenomeEnd

