GenomeStart 8006
Neuron 1 1 0.00000000 1 0.00000000 0.00000000 0.00000000 0.00000000
Neuron 2 1 0.00000000 1 0.00000000 0.00000000 0.00000000 0.00000000
Neuron 3 1 0.00000000 1 0.00000000 0.00000000 0.00000000 0.00000000
Neuron 4 1 0.00000000 1 0.00000000 0.00000000 0.00000000 0.00000000
Neuron 5 1 0.00000000 1 0.00000000 0.00000000 0.00000000 0.00000000
Neuron 6 1 0.00000000 1 0.00000000 0.00000000 0.00000000 0.00000000
Neuron 7 1 0.00000000 1 0.00000000 0.00000000 0.00000000 0.00000000
Neuron 8 1 0.00000000 1 0.00000000 0.00000000 0.00000000 0.00000000
Neuron 9 2 0.00000000 1 0.00000000 0.00000000 0.00000000 0.00000000
Neuron 10 4 1.00000000 0 1.00000000 0.00000000 0.00000000 0.00000000
Neuron 11 4 1.00000000 0 1.00000000 0.00000000 0.00000000 0.00000000
Neuron 12 4 1.00000000 0 1.00000000 0.00000000 0.00000000 0.00000000
Neuron 13 4 1.00000000 0 1.00000000 0.00000000 0.00000000 0.00000000
Neuron 14 4 1.00000000 0 1.00000000 0.00000000 0.00000000 0.00000000
Neuron 15 4 1.00000000 0 1.00000000 0.00000000 0.00000000 0.00000000
Neuron 16 4 1.00000000 0 1.00000000 0.00000000 0.00000000 0.00000000
Neuron 32 3 0.50000000 1 1.00000000 0.00000000 0.00000000 0.00000000
Neuron 36 3 0.50000000 1 1.00000000 0.00000000 0.00000000 0.00000000
Neuron 40 3 0.50000000 1 1.00000000 0.00000000 0.00000000 0.00000000
Neuron 44 3 0.50000000 1 1.00000000 0.00000000 0.00000000 0.00000000
Neuron 50 3 0.50000000 1 1.00000000 0.00000000 0.00000000 0.00000000
Neuron 64 3 0.50000000 1 1.00000000 0.00000000 0.00000000 0.00000000
Neuron 65 3 0.50000000 1 1.00000000 0.00000000 0.00000000 0.00000000
Link 1 10 1 0 -0.52396231
Link 2 10 2 0 -3.97547875
Link 3 10 3 0 0.80562551
Link 4 10 4 0 2.05512355
Link 5 10 5 0 1.07195639
Link 6 10 6 0 -1.14927589
Link 7 10 7 0 1.12407696
Link 8 10 8 0 -0.99564137
Link 9 10 9 0 0.15030498
Link 1 11 10 0 -1.73356835
Link 2 11 11 0 2.62877574
Link 3 11 12 0 3.12352279
Link 4 11 13 0 -0.85441452
Link 5 11 14 0 -1.60402540
Link 8 11 17 0 -1.57822201
Link 9 11 18 0 -2.04775325
Link 1 12 19 0 -1.89310978
Link 2 12 20 0 -4.51635153
Link 3 12 21 0 -0.02361392
Link 4 12 22 0 0.78035767
Link 5 12 23 0 2.52554402
Link 6 12 24 0 0.79585278
Link 7 12 25 0 1.90654861
Link 8 12 26 0 0.13968870
Link 9 12 27 0 -0.28118444
Link 1 13 28 0 -4.62101619
Link 2 13 29 0 -0.72465527
Link 3 13 30 0 0.63226687
Link 4 13 31 0 3.00380957
Link 5 13 32 0 2.06874126
Link 6 13 33 0 1.65440185
Link 7 13 34 0 -4.35129060
Link 8 13 35 0 1.52816308
Link 9 13 36 0 -0.56382268
Link 2 14 38 0 1.55718467
Link 3 14 39 0 -2.16451715
Link 4 14 40 0 -1.28468649
Link 5 14 41 0 -2.81435747
Link 6 14 42 0 -1.93977003
Link 7 14 43 0 1.70394307
Link 8 14 44 0 1.91914945
Link 9 14 45 0 1.92440569
Link 1 15 46 0 2.48982176
Link 2 15 47 0 -2.22683452
Link 3 15 48 0 0.13197682
Link 4 15 49 0 3.02310287
Link 5 15 50 0 2.81760268
Link 6 15 51 0 -1.35755224
Link 7 15 52 0 -1.75445662
Link 8 15 53 0 0.63296466
Link 9 15 54 0 -2.80768024
Link 3 16 57 0 -1.02160797
Link 4 16 58 0 -0.17414975
Link 6 16 60 0 1.23900562
Link 7 16 61 0 -1.19143326
Link 9 16 63 0 2.36416902
Link 8 32 110 0 1.40966482
Link 32 16 111 0 -0.10836539
Link 2 36 122 0 1.26270693
Link 36 16 123 0 -0.52042680
Link 6 40 134 0 1.00000000
Link 40 11 135 0 0.34157281
Link 1 44 146 0 0.59706529
Link 44 16 147 0 0.54975915
Link 5 50 166 0 0.98121509
Link 50 16 167 0 -0.46032216
Link 10 32 227 1 5.34116238
Link 7 64 237 0 -0.10375041
Link 64 11 238 0 2.18823555
Link 1 65 241 0 1.42740387
Link 65 14 242 0 -2.85062295
Link 32 50 294 0 0.60395596
Link 64 12 342 0 1.39006312
GenomeEnd

