GenomeStart 28425
Neuron 1 1 0.00000000 1 0.00000000 0.00000000 0.00000000 0.00000000
Neuron 2 1 0.00000000 1 0.00000000 0.00000000 0.00000000 0.00000000
Neuron 3 1 0.00000000 1 0.00000000 0.00000000 0.00000000 0.00000000
Neuron 4 1 0.00000000 1 0.00000000 0.00000000 0.00000000 0.00000000
Neuron 5 1 0.00000000 1 0.00000000 0.00000000 0.00000000 0.00000000
Neuron 6 1 0.00000000 1 0.00000000 0.00000000 0.00000000 0.00000000
Neuron 7 1 0.00000000 1 0.00000000 0.00000000 0.00000000 0.00000000
Neuron 8 1 0.00000000 1 0.00000000 0.00000000 0.00000000 0.00000000
Neuron 9 2 0.00000000 1 0.00000000 0.00000000 0.00000000 0.00000000
Neuron 10 4 1.00000000 0 1.00000000 0.00000000 0.00000000 0.00000000
Neuron 11 4 1.00000000 0 1.00000000 0.00000000 0.00000000 0.00000000
Neuron 12 4 1.00000000 0 1.00000000 0.00000000 0.00000000 0.00000000
Neuron 13 4 1.00000000 0 1.00000000 0.00000000 0.00000000 0.00000000
Neuron 14 4 1.00000000 0 1.00000000 0.00000000 0.00000000 0.00000000
Neuron 15 4 1.00000000 0 1.00000000 0.00000000 0.00000000 0.00000000
Neuron 16 4 1.00000000 0 1.00000000 0.00000000 0.00000000 0.00000000
Neuron 18 3 0.50000000 1 1.00000000 0.00000000 0.00000000 0.00000000
Neuron 20 3 0.50000000 1 1.00000000 0.00000000 0.00000000 0.00000000
Neuron 23 3 0.50000000 1 1.00000000 0.00000000 0.00000000 0.00000000
Neuron 24 3 0.50000000 1 1.00000000 0.00000000 0.00000000 0.00000000
Neuron 26 3 0.50000000 1 1.00000000 0.00000000 0.00000000 0.00000000
Neuron 32 3 0.50000000 1 1.00000000 0.00000000 0.00000000 0.00000000
Neuron 34 3 0.50000000 1 1.00000000 0.00000000 0.00000000 0.00000000
Neuron 40 3 0.50000000 1 1.00000000 0.00000000 0.00000000 0.00000000
Neuron 42 3 0.50000000 1 1.00000000 0.00000000 0.00000000 0.00000000
Neuron 47 3 0.50000000 1 1.00000000 0.00000000 0.00000000 0.00000000
Neuron 48 3 0.50000000 1 1.00000000 0.00000000 0.00000000 0.00000000
Neuron 49 3 0.50000000 1 1.00000000 0.00000000 0.00000000 0.00000000
Neuron 50 3 0.50000000 1 1.00000000 0.00000000 0.00000000 0.00000000
Neuron 52 3 0.50000000 1 1.00000000 0.00000000 0.00000000 0.00000000
Neuron 55 3 0.50000000 1 1.00000000 0.00000000 0.00000000 0.00000000
Neuron 66 3 0.50000000 1 1.00000000 0.00000000 0.00000000 0.00000000
Neuron 69 3 0.50000000 1 1.00000000 0.00000000 0.00000000 0.00000000
Neuron 70 3 0.50000000 1 1.00000000 0.00000000 0.00000000 0.00000000
Neuron 76 3 0.75000000 1 1.00000000 0.00000000 0.00000000 0.00000000
Neuron 88 3 0.75000000 1 1.00000000 0.00000000 0.00000000 0.00000000
Neuron 113 3 0.25000000 1 1.00000000 0.00000000 0.00000000 0.00000000
Neuron 125 3 0.75000000 1 1.00000000 0.00000000 0.00000000 0.00000000
Neuron 156 3 0.75000000 1 1.00000000 0.00000000 0.00000000 0.00000000
Neuron 169 3 0.75000000 1 1.00000000 0.00000000 0.00000000 0.00000000
Neuron 250 3 0.25000000 1 1.00000000 0.00000000 0.00000000 0.00000000
Neuron 253 3 0.25000000 1 1.00000000 0.00000000 0.00000000 0.00000000
Neuron 258 3 0.75000000 1 1.00000000 0.00000000 0.00000000 0.00000000
Neuron 301 3 0.62500000 1 1.00000000 0.00000000 0.00000000 0.00000000
Neuron 393 3 0.37500000 1 1.00000000 0.00000000 0.00000000 0.00000000
Neuron 398 3 0.50000000 1 1.00000000 0.00000000 0.00000000 0.00000000
Neuron 439 3 0.75000000 1 1.00000000 0.00000000 0.00000000 0.00000000
Neuron 487 3 0.18750000 1 1.00000000 0.00000000 0.00000000 0.00000000
Neuron 507 3 0.25000000 1 1.00000000 0.00000000 0.00000000 0.00000000
Neuron 598 3 0.12500000 1 1.00000000 0.00000000 0.00000000 0.00000000
Neuron 612 3 0.28125000 1 1.00000000 0.00000000 0.00000000 0.00000000
Link 1 10 1 0 -2.11341095
Link 2 10 2 0 1.48355385
Link 4 10 4 0 3.89102887
Link 7 10 7 0 -1.44016565
Link 8 10 8 0 -2.54722249
Link 9 10 9 0 -0.90399116
Link 1 11 10 0 -2.26229065
Link 3 11 12 0 0.16784755
Link 4 11 13 0 1.95430856
Link 5 11 14 0 -2.05620096
Link 6 11 15 0 -2.87537583
Link 7 11 16 0 -0.47270458
Link 8 11 17 0 1.42865497
Link 9 11 18 0 -2.03527745
Link 1 12 19 0 -0.29753284
Link 4 12 22 0 2.61710942
Link 5 12 23 0 -1.30851114
Link 6 12 24 0 -2.95712719
Link 7 12 25 0 2.82492968
Link 8 12 26 0 0.47823726
Link 9 12 27 0 -0.69517395
Link 1 13 28 0 -2.53662587
Link 2 13 29 0 -1.72126827
Link 4 13 31 0 0.80962000
Link 6 13 33 0 -1.41620623
Link 1 14 37 0 1.30660541
Link 5 14 41 0 3.52873464
Link 8 14 44 0 1.78153229
Link 9 14 45 0 3.67991541
Link 1 15 46 0 -4.72812006
Link 3 15 48 0 -4.05503332
Link 4 15 49 0 0.42634575
Link 5 15 50 0 -0.73741348
Link 6 15 51 0 -0.69943828
Link 8 15 53 0 3.39554455
Link 9 15 54 0 0.08771452
Link 1 16 55 0 -0.77187189
Link 3 16 57 0 -0.33768850
Link 4 16 58 0 2.42866542
Link 6 16 60 0 -0.80743952
Link 8 16 62 0 4.88138179
Link 9 16 63 0 1.98505038
Link 7 18 68 0 1.30811593
Link 18 15 69 0 -0.16158141
Link 20 10 75 0 -3.80362810
Link 7 23 83 0 -2.41480540
Link 23 14 84 0 2.25822983
Link 2 24 86 0 4.60591415
Link 26 12 93 0 0.65763106
Link 5 32 110 0 1.75098452
Link 32 16 111 0 -1.47551922
Link 34 13 117 0 1.10501697
Link 2 40 138 0 1.74664423
Link 40 16 139 0 -0.34300566
Link 8 42 146 0 0.49827309
Link 42 13 147 0 0.96243089
Link 3 47 163 0 1.19237223
Link 47 14 164 0 -0.67075107
Link 48 13 167 0 -2.69169865
Link 3 20 171 0 -0.13276136
Link 4 49 173 0 -1.97041318
Link 5 50 178 0 3.05113617
Link 7 52 186 0 2.16391364
Link 52 16 187 0 -1.40608926
Link 2 55 197 0 1.59899501
Link 2 66 247 0 0.52477630
Link 66 15 248 0 2.10469387
Link 6 69 262 0 0.76566029
Link 69 14 263 0 -5.28476863
Link 2 70 267 0 -2.32810989
Link 11 11 308 1 0.10979881
Link 8 49 310 0 1.13897512
Link 50 76 318 0 2.92031936
Link 76 10 319 0 1.59503589
Link 55 88 411 0 1.20284813
Link 88 12 412 0 0.18678321
Link 9 49 451 0 0.22375014
Link 6 113 693 0 0.65130221
Link 113 20 694 0 1.09102705
Link 15 125 784 1 1.54194977
Link 125 49 785 1 5.18560279
Link 13 24 869 1 -1.69141164
Link 50 11 965 0 1.50666847
Link 70 156 1069 0 0.59717573
Link 156 11 1070 0 3.09365939
Link 12 70 1103 1 -0.79901042
Link 49 169 1164 0 2.19316545
Link 169 14 1165 0 -2.18999501
Link 8 48 1353 0 0.48867756
Link 4 125 1371 0 -3.24629046
Link 49 49 1374 1 2.07469295
Link 5 125 1536 0 0.20022864
Link 23 20 1574 0 -1.44924834
Link 250 34 1805 0 0.14512688
Link 3 253 1844 0 0.44043952
Link 253 26 1845 0 2.90087536
Link 24 258 1870 0 0.40295067
Link 258 14 1871 0 2.50704595
Link 10 49 1915 1 3.62707330
Link 23 34 2159 0 4.10999697
Link 169 301 2178 1 -0.03439398
Link 301 34 2179 1 -2.52961066
Link 55 169 2276 0 -0.69167543
Link 4 301 2479 0 -0.30754302
Link 24 20 2502 0 -4.49473181
Link 393 169 2788 0 -1.12080843
Link 70 398 2813 0 0.55873231
Link 398 24 2814 0 0.24014543
Link 34 398 3056 0 2.41323335
Link 11 55 3092 1 0.20816485
Link 1 258 3114 0 2.35526913
Link 13 439 3123 1 1.03269560
Link 439 49 3124 1 -0.09876739
Link 4 34 3221 0 -2.19433379
Link 2 487 3453 0 0.99490786
Link 52 125 3499 0 -1.11945837
Link 52 69 3531 0 -3.16323205
Link 4 507 3592 0 1.74600147
Link 507 23 3593 0 1.33109602
Link 18 48 3814 0 -1.44141342
Link 76 12 3887 0 0.26285023
Link 66 301 3910 0 -3.38099859
Link 14 18 3959 1 -3.26018511
Link 13 393 4184 1 0.21003276
Link 3 598 4240 0 1.78584702
Link 598 250 4241 0 0.83031045
Link 5 393 4258 0 0.27491551
Link 14 507 4281 1 -0.31670478
Link 113 169 4301 0 -0.29219955
Link 487 612 4360 0 1.00000000
Link 612 393 4361 0 1.40863110
GenomeEnd

