GenomeStart 1792
Neuron 1 1 0.00000000 1 0.00000000 0.00000000 0.00000000 0.00000000
Neuron 2 1 0.00000000 1 0.00000000 0.00000000 0.00000000 0.00000000
Neuron 3 1 0.00000000 1 0.00000000 0.00000000 0.00000000 0.00000000
Neuron 4 1 0.00000000 1 0.00000000 0.00000000 0.00000000 0.00000000
Neuron 5 1 0.00000000 1 0.00000000 0.00000000 0.00000000 0.00000000
Neuron 6 1 0.00000000 1 0.00000000 0.00000000 0.00000000 0.00000000
Neuron 7 1 0.00000000 1 0.00000000 0.00000000 0.00000000 0.00000000
Neuron 8 1 0.00000000 1 0.00000000 0.00000000 0.00000000 0.00000000
Neuron 9 2 0.00000000 1 0.00000000 0.00000000 0.00000000 0.00000000
Neuron 10 4 1.00000000 0 1.00000000 0.00000000 0.00000000 0.00000000
Neuron 11 4 1.00000000 0 1.00000000 0.00000000 0.00000000 0.00000000
Neuron 12 4 1.00000000 0 1.00000000 0.00000000 0.00000000 0.00000000
Neuron 13 4 1.00000000 0 1.00000000 0.00000000 0.00000000 0.00000000
Neuron 14 4 1.00000000 0 1.00000000 0.00000000 0.00000000 0.00000000
Neuron 15 4 1.00000000 0 1.00000000 0.00000000 0.00000000 0.00000000
Neuron 16 4 1.00000000 0 1.00000000 0.00000000 0.00000000 0.00000000
Neuron 37 3 0.50000000 1 1.00000000 0.00000000 0.00000000 0.00000000
Neuron 78 3 0.50000000 1 1.00000000 0.00000000 0.00000000 0.00000000
Link 1 10 1 0 1.80102539
Link 2 10 2 0 -0.95968750
Link 3 10 3 0 1.65016245
Link 4 10 4 0 2.76269344
Link 5 10 5 0 -2.96345207
Link 6 10 6 0 -0.28183147
Link 7 10 7 0 0.80135525
Link 8 10 8 0 1.18468912
Link 9 10 9 0 0.06170051
Link 1 11 10 0 1.84037994
Link 2 11 11 0 2.39692282
Link 3 11 12 0 -0.32134446
Link 4 11 13 0 1.41873658
Link 5 11 14 0 2.28043290
Link 7 11 16 0 3.01850321
Link 8 11 17 0 -0.68563385
Link 9 11 18 0 -1.42214906
Link 1 12 19 0 2.40716279
Link 2 12 20 0 -1.03413270
Link 3 12 21 0 4.00740082
Link 4 12 22 0 -3.69731631
Link 5 12 23 0 3.16967668
Link 6 12 24 0 2.58051471
Link 7 12 25 0 0.41243799
Link 8 12 26 0 3.25026522
Link 9 12 27 0 0.45032824
Link 1 13 28 0 -3.04757730
Link 2 13 29 0 2.18749670
Link 3 13 30 0 4.24790542
Link 4 13 31 0 1.57120734
Link 5 13 32 0 -1.28820679
Link 6 13 33 0 -1.17353814
Link 7 13 34 0 2.02925744
Link 8 13 35 0 0.51549576
Link 9 13 36 0 -0.72457335
Link 1 14 37 0 2.15237621
Link 2 14 38 0 3.43481550
Link 3 14 39 0 -1.98185196
Link 4 14 40 0 0.88592053
Link 5 14 41 0 -0.59670530
Link 6 14 42 0 -0.88389584
Link 7 14 43 0 -0.32433435
Link 8 14 44 0 -2.70291467
Link 9 14 45 0 0.60252826
Link 1 15 46 0 -3.23455627
Link 2 15 47 0 2.73528961
Link 3 15 48 0 -0.62220774
Link 5 15 50 0 0.12703845
Link 6 15 51 0 0.17040227
Link 7 15 52 0 3.92915250
Link 8 15 53 0 -0.95182992
Link 9 15 54 0 1.50293475
Link 1 16 55 0 3.15391273
Link 2 16 56 0 -0.66039103
Link 3 16 57 0 -3.47409977
Link 4 16 58 0 2.17461576
Link 5 16 59 0 0.72779974
Link 6 16 60 0 -4.58964138
Link 7 16 61 0 1.95255037
Link 8 16 62 0 3.78211902
Link 9 16 63 0 1.84330102
Link 6 37 128 0 -2.26872510
Link 37 11 129 0 -0.23545066
Link 8 37 165 0 2.76373316
Link 15 37 241 1 1.69944074
Link 4 78 327 0 1.09262527
Link 78 15 328 0 -1.97879177
GenomeEnd

