GenomeStart 53178
Neuron 1 1 0.00000000 1 0.00000000 0.00000000 0.00000000 0.00000000
Neuron 2 1 0.00000000 1 0.00000000 0.00000000 0.00000000 0.00000000
Neuron 3 1 0.00000000 1 0.00000000 0.00000000 0.00000000 0.00000000
Neuron 4 1 0.00000000 1 0.00000000 0.00000000 0.00000000 0.00000000
Neuron 5 1 0.00000000 1 0.00000000 0.00000000 0.00000000 0.00000000
Neuron 6 1 0.00000000 1 0.00000000 0.00000000 0.00000000 0.00000000
Neuron 7 1 0.00000000 1 0.00000000 0.00000000 0.00000000 0.00000000
Neuron 8 1 0.00000000 1 0.00000000 0.00000000 0.00000000 0.00000000
Neuron 9 2 0.00000000 1 0.00000000 0.00000000 0.00000000 0.00000000
Neuron 10 4 1.00000000 0 1.00000000 0.00000000 0.00000000 0.00000000
Neuron 11 4 1.00000000 0 1.00000000 0.00000000 0.00000000 0.00000000
Neuron 12 4 1.00000000 0 1.00000000 0.00000000 0.00000000 0.00000000
Neuron 13 4 1.00000000 0 1.00000000 0.00000000 0.00000000 0.00000000
Neuron 14 4 1.00000000 0 1.00000000 0.00000000 0.00000000 0.00000000
Neuron 15 4 1.00000000 0 1.00000000 0.00000000 0.00000000 0.00000000
Neuron 16 4 1.00000000 0 1.00000000 0.00000000 0.00000000 0.00000000
Neuron 18 3 0.50000000 1 1.00000000 0.00000000 0.00000000 0.00000000
Neuron 20 3 0.50000000 1 1.00000000 0.00000000 0.00000000 0.00000000
Neuron 21 3 0.50000000 1 1.00000000 0.00000000 0.00000000 0.00000000
Neuron 24 3 0.50000000 1 1.00000000 0.00000000 0.00000000 0.00000000
Neuron 26 3 0.50000000 1 1.00000000 0.00000000 0.00000000 0.00000000
Neuron 30 3 0.50000000 1 1.00000000 0.00000000 0.00000000 0.00000000
Neuron 32 3 0.50000000 1 1.00000000 0.00000000 0.00000000 0.00000000
Neuron 34 3 0.50000000 1 1.00000000 0.00000000 0.00000000 0.00000000
Neuron 35 3 0.50000000 1 1.00000000 0.00000000 0.00000000 0.00000000
Neuron 36 3 0.50000000 1 1.00000000 0.00000000 0.00000000 0.00000000
Neuron 38 3 0.50000000 1 1.00000000 0.00000000 0.00000000 0.00000000
Neuron 39 3 0.50000000 1 1.00000000 0.00000000 0.00000000 0.00000000
Neuron 41 3 0.50000000 1 1.00000000 0.00000000 0.00000000 0.00000000
Neuron 48 3 0.50000000 1 1.00000000 0.00000000 0.00000000 0.00000000
Neuron 54 3 0.50000000 1 1.00000000 0.00000000 0.00000000 0.00000000
Neuron 57 3 0.50000000 1 1.00000000 0.00000000 0.00000000 0.00000000
Neuron 60 3 0.50000000 1 1.00000000 0.00000000 0.00000000 0.00000000
Neuron 70 3 0.50000000 1 1.00000000 0.00000000 0.00000000 0.00000000
Neuron 71 3 0.50000000 1 1.00000000 0.00000000 0.00000000 0.00000000
Neuron 75 3 0.25000000 1 1.00000000 0.00000000 0.00000000 0.00000000
Neuron 78 3 0.25000000 1 1.00000000 0.00000000 0.00000000 0.00000000
Neuron 81 3 0.50000000 1 1.00000000 0.00000000 0.00000000 0.00000000
Neuron 86 3 0.25000000 1 1.00000000 0.00000000 0.00000000 0.00000000
Neuron 89 3 0.75000000 1 1.00000000 0.00000000 0.00000000 0.00000000
Neuron 94 3 0.75000000 1 1.00000000 0.00000000 0.00000000 0.00000000
Neuron 107 3 0.25000000 1 1.00000000 0.00000000 0.00000000 0.00000000
Neuron 113 3 0.75000000 1 1.00000000 0.00000000 0.00000000 0.00000000
Neuron 122 3 0.75000000 1 1.00000000 0.00000000 0.00000000 0.00000000
Neuron 123 3 0.75000000 1 1.00000000 0.00000000 0.00000000 0.00000000
Neuron 128 3 0.75000000 1 1.00000000 0.00000000 0.00000000 0.00000000
Neuron 133 3 0.25000000 1 1.00000000 0.00000000 0.00000000 0.00000000
Neuron 140 3 0.25000000 1 1.00000000 0.00000000 0.00000000 0.00000000
Neuron 152 3 0.12500000 1 1.00000000 0.00000000 0.00000000 0.00000000
Neuron 179 3 0.25000000 1 1.00000000 0.00000000 0.00000000 0.00000000
Neuron 186 3 0.75000000 1 1.00000000 0.00000000 0.00000000 0.00000000
Neuron 197 3 0.37500000 1 1.00000000 0.00000000 0.00000000 0.00000000
Neuron 203 3 0.25000000 1 1.00000000 0.00000000 0.00000000 0.00000000
Neuron 225 3 0.50000000 1 1.00000000 0.00000000 0.00000000 0.00000000
Neuron 230 3 0.75000000 1 1.00000000 0.00000000 0.00000000 0.00000000
Neuron 235 3 0.87500000 1 1.00000000 0.00000000 0.00000000 0.00000000
Neuron 236 3 0.25000000 1 1.00000000 0.00000000 0.00000000 0.00000000
Neuron 248 3 0.75000000 1 1.00000000 0.00000000 0.00000000 0.00000000
Neuron 253 3 0.75000000 1 1.00000000 0.00000000 0.00000000 0.00000000
Neuron 255 3 0.87500000 1 1.00000000 0.00000000 0.00000000 0.00000000
Neuron 256 3 0.25000000 1 1.00000000 0.00000000 0.00000000 0.00000000
Neuron 269 3 0.25000000 1 1.00000000 0.00000000 0.00000000 0.00000000
Neuron 270 3 0.75000000 1 1.00000000 0.00000000 0.00000000 0.00000000
Neuron 277 3 0.87500000 1 1.00000000 0.00000000 0.00000000 0.00000000
Neuron 284 3 0.25000000 1 1.00000000 0.00000000 0.00000000 0.00000000
Neuron 285 3 0.75000000 1 1.00000000 0.00000000 0.00000000 0.00000000
Neuron 288 3 0.25000000 1 1.00000000 0.00000000 0.00000000 0.00000000
Neuron 298 3 0.25000000 1 1.00000000 0.00000000 0.00000000 0.00000000
Neuron 314 3 0.62500000 1 1.00000000 0.00000000 0.00000000 0.00000000
Neuron 323 3 0.37500000 1 1.00000000 0.00000000 0.00000000 0.00000000
Neuron 382 3 0.87500000 1 1.00000000 0.00000000 0.00000000 0.00000000
Neuron 422 3 0.12500000 1 1.00000000 0.00000000 0.00000000 0.00000000
Neuron 473 3 0.37500000 1 1.00000000 0.00000000 0.00000000 0.00000000
Neuron 483 3 0.37500000 1 1.00000000 0.00000000 0.00000000 0.00000000
Neuron 484 3 0.62500000 1 1.00000000 0.00000000 0.00000000 0.00000000
Neuron 486 3 0.75000000 1 1.00000000 0.00000000 0.00000000 0.00000000
Neuron 503 3 0.25000000 1 1.00000000 0.00000000 0.00000000 0.00000000
Neuron 514 3 0.50000000 1 1.00000000 0.00000000 0.00000000 0.00000000
Neuron 549 3 0.12500000 1 1.00000000 0.00000000 0.00000000 0.00000000
Neuron 553 3 0.50000000 1 1.00000000 0.00000000 0.00000000 0.00000000
Neuron 563 3 0.62500000 1 1.00000000 0.00000000 0.00000000 0.00000000
Neuron 564 3 0.62500000 1 1.00000000 0.00000000 0.00000000 0.00000000
Neuron 612 3 0.87500000 1 1.00000000 0.00000000 0.00000000 0.00000000
Neuron 622 3 0.81250000 1 1.00000000 0.00000000 0.00000000 0.00000000
Neuron 642 3 0.25000000 1 1.00000000 0.00000000 0.00000000 0.00000000
Neuron 695 3 0.25000000 1 1.00000000 0.00000000 0.00000000 0.00000000
Neuron 747 3 0.37500000 1 1.00000000 0.00000000 0.00000000 0.00000000
Neuron 780 3 0.43750000 1 1.00000000 0.00000000 0.00000000 0.00000000
Neuron 805 3 0.93750000 1 1.00000000 0.00000000 0.00000000 0.00000000
Neuron 824 3 0.56250000 1 1.00000000 0.00000000 0.00000000 0.00000000
Neuron 842 3 0.50000000 1 1.00000000 0.00000000 0.00000000 0.00000000
Neuron 915 3 0.43750000 1 1.00000000 0.00000000 0.00000000 0.00000000
Neuron 1015 3 0.25000000 1 1.00000000 0.00000000 0.00000000 0.00000000
Neuron 1104 3 0.25000000 1 1.00000000 0.00000000 0.00000000 0.00000000
Neuron 1161 3 0.37500000 1 1.00000000 0.00000000 0.00000000 0.00000000
Neuron 1247 3 0.56250000 1 1.00000000 0.00000000 0.00000000 0.00000000
Neuron 1305 3 0.37500000 1 1.00000000 0.00000000 0.00000000 0.00000000
Link 1 10 1 0 -0.92113439
Link 2 10 2 0 -2.57015581
Link 3 10 3 0 0.78360536
Link 4 10 4 0 -5.89557566
Link 5 10 5 0 -1.89644048
Link 6 10 6 0 1.49979472
Link 7 10 7 0 -1.06207985
Link 8 10 8 0 -3.54692843
Link 9 10 9 0 -1.13076746
Link 1 11 10 0 -1.01852111
Link 2 11 11 0 0.70736481
Link 3 11 12 0 1.81565851
Link 4 11 13 0 -0.45662644
Link 6 11 15 0 -2.81078623
Link 7 11 16 0 -2.80034960
Link 8 11 17 0 1.55274407
Link 9 11 18 0 -1.49447229
Link 1 12 19 0 -1.34977434
Link 2 12 20 0 1.06632273
Link 3 12 21 0 0.29215645
Link 5 12 23 0 2.01981686
Link 6 12 24 0 -2.71538788
Link 7 12 25 0 0.98757180
Link 8 12 26 0 -0.63760127
Link 9 12 27 0 -0.25331390
Link 1 13 28 0 1.18909293
Link 2 13 29 0 0.86415637
Link 3 13 30 0 1.44394037
Link 5 13 32 0 5.27741573
Link 6 13 33 0 -0.98093822
Link 7 13 34 0 2.57397787
Link 9 13 36 0 3.20794458
Link 2 14 38 0 -3.97976467
Link 3 14 39 0 -1.21949670
Link 4 14 40 0 3.76742416
Link 5 14 41 0 -3.26025358
Link 7 14 43 0 1.65211939
Link 8 14 44 0 -1.25094517
Link 9 14 45 0 1.55235503
Link 1 15 46 0 1.17738478
Link 2 15 47 0 -5.64323703
Link 3 15 48 0 0.34114310
Link 4 15 49 0 0.97455012
Link 5 15 50 0 -4.65988130
Link 6 15 51 0 -2.24684196
Link 7 15 52 0 1.00464400
Link 8 15 53 0 -1.56677389
Link 9 15 54 0 0.75255598
Link 1 16 55 0 -0.70096120
Link 2 16 56 0 0.88907072
Link 3 16 57 0 0.25429594
Link 5 16 59 0 -0.85209836
Link 6 16 60 0 -2.24440596
Link 7 16 61 0 -2.06886207
Link 9 16 63 0 0.11244040
Link 7 18 69 0 0.28728250
Link 18 11 70 0 -1.43894160
Link 6 20 75 0 -0.22321050
Link 20 13 76 0 0.56169932
Link 21 15 80 0 1.19379621
Link 24 16 89 0 0.27098000
Link 1 26 94 0 -0.81663129
Link 26 16 95 0 -0.40922161
Link 3 30 106 0 0.49760870
Link 30 16 107 0 0.38909164
Link 32 11 113 0 1.04714618
Link 34 15 119 0 -0.09341327
Link 3 35 121 0 1.18381403
Link 35 14 122 0 0.03627862
Link 4 36 125 0 1.39996087
Link 8 38 133 0 1.53839240
Link 38 13 134 0 -0.68296008
Link 3 39 136 0 -0.07705886
Link 39 10 137 0 0.73410971
Link 1 48 169 0 -0.34636186
Link 48 14 170 0 0.16629215
Link 5 54 189 0 2.00424166
Link 1 57 204 0 2.17834015
Link 57 11 205 0 -1.49032691
Link 7 48 241 0 -0.62689214
Link 48 11 242 0 1.02318007
Link 9 32 253 0 1.60526337
Link 5 48 262 0 -0.36723991
Link 6 35 271 0 -1.22483457
Link 7 71 299 0 1.83717648
Link 71 10 300 0 -1.84483843
Link 16 39 326 1 3.72530682
Link 3 75 329 0 0.88259817
Link 75 34 330 0 0.18073321
Link 78 48 350 0 -0.48239275
Link 48 39 382 0 -1.19737725
Link 39 13 388 0 0.34739417
Link 2 86 422 0 0.47613364
Link 86 48 423 0 -3.17084075
Link 16 26 436 1 -3.85083039
Link 26 39 445 0 1.04673082
Link 26 89 455 0 0.52814958
Link 89 16 456 0 -2.94422219
Link 39 39 491 1 -1.79899818
Link 48 16 492 0 -0.27448649
Link 36 94 503 0 0.96285534
Link 94 15 504 0 1.70951665
Link 3 107 605 0 1.45632990
Link 107 32 606 0 0.96142546
Link 5 70 607 0 -0.86861937
Link 13 26 637 1 2.50795974
Link 48 113 649 0 0.24306455
Link 113 14 650 0 -0.76017788
Link 81 122 729 0 1.67610388
Link 16 123 733 1 0.51336824
Link 123 36 734 1 1.62568260
Link 2 113 735 0 1.00179006
Link 41 128 780 0 2.17826227
Link 128 15 781 0 -1.14029042
Link 4 133 865 0 -0.34656354
Link 140 41 868 0 0.92992602
Link 8 152 977 0 0.37525556
Link 152 133 978 0 1.88087932
Link 6 179 1132 0 1.00922329
Link 179 70 1133 0 0.23698967
Link 34 113 1192 0 -1.21442060
Link 133 197 1265 0 0.84313691
Link 197 60 1266 0 -0.90857118
Link 5 203 1306 0 0.98951155
Link 203 21 1307 0 -4.55330753
Link 4 225 1455 0 1.17301297
Link 225 12 1456 0 -0.47442510
Link 230 34 1477 1 -1.17714272
Link 186 235 1497 0 1.30398016
Link 235 11 1498 0 0.68002911
Link 6 236 1502 0 2.71056188
Link 236 57 1503 0 0.38175894
Link 70 248 1603 0 1.93048122
Link 248 14 1604 0 0.61493132
Link 54 14 1624 0 -1.10238058
Link 12 253 1641 1 0.18568449
Link 253 34 1642 1 -0.25672627
Link 13 255 1655 1 0.66747883
Link 2 256 1658 0 0.83750242
Link 256 81 1659 0 -2.89070885
Link 7 26 1695 0 0.07143942
Link 9 71 1711 0 -3.30296442
Link 8 269 1735 0 0.80138503
Link 269 24 1736 0 0.56079324
Link 54 270 1743 0 1.29484830
Link 70 70 1750 1 2.63918990
Link 270 277 1791 0 1.22856129
Link 277 11 1792 0 -0.14553626
Link 6 186 1849 0 0.31010721
Link 5 284 1868 0 0.78402216
Link 12 285 1872 1 1.02725151
Link 285 26 1873 1 0.24887371
Link 7 288 1895 0 1.05118157
Link 288 39 1896 0 2.73914418
Link 4 298 1960 0 0.33949767
Link 298 81 1961 0 0.06863546
Link 203 71 1980 0 -3.14340879
Link 60 203 2043 1 -2.65608585
Link 60 314 2055 0 1.57309473
Link 314 186 2056 0 1.61394272
Link 284 323 2102 0 1.21123897
Link 323 60 2103 0 -2.71344538
Link 20 123 2336 0 -0.41769729
Link 113 15 2355 0 -3.25744236
Link 123 39 2478 1 -0.16600747
Link 122 382 2508 0 1.16100996
Link 382 12 2509 0 0.46645127
Link 9 284 2524 0 0.63203853
Link 5 71 2575 0 2.02196737
Link 4 284 2674 0 0.64580304
Link 3 24 2714 0 2.84121660
Link 1 422 2771 0 1.00000000
Link 422 78 2772 0 0.65447089
Link 26 122 2919 0 -0.16879062
Link 9 21 2999 0 -2.94181911
Link 34 71 3022 0 0.76148671
Link 473 256 3136 1 1.11092663
Link 236 483 3192 0 0.93742968
Link 484 123 3196 0 -2.04252967
Link 11 486 3207 1 1.41949883
Link 486 24 3208 1 3.52020372
Link 8 503 3335 0 1.03564209
Link 503 48 3336 0 -1.00329301
Link 26 514 3388 0 1.53739227
Link 2 549 3617 0 -0.15979665
Link 549 140 3618 0 0.42435419
Link 6 553 3644 0 0.54027444
Link 553 14 3645 0 -0.89707896
Link 314 563 3719 1 0.85588273
Link 563 314 3720 1 4.36950501
Link 564 186 3725 0 -2.67554308
Link 270 75 3734 1 1.28626652
Link 75 32 3747 0 1.21412750
Link 2 284 3810 0 0.87858106
Link 24 26 3951 0 0.50653271
Link 32 89 3998 0 -1.79728921
Link 612 230 4042 1 0.93129741
Link 298 75 4065 0 1.33269226
Link 255 622 4120 1 1.28216315
Link 622 113 4121 1 -2.22083833
Link 9 248 4144 0 0.14825521
Link 41 30 4162 0 0.29089648
Link 9 140 4219 0 -1.06066519
Link 314 230 4278 0 0.55995158
Link 236 642 4296 0 0.99836940
Link 564 230 4331 0 -0.53543582
Link 81 41 4478 0 2.58400592
Link 89 89 4612 1 -4.49913563
Link 78 695 4636 0 0.87833618
Link 695 284 4637 0 2.61764877
Link 8 230 4684 0 -1.54273138
Link 564 314 4825 0 -3.26888264
Link 14 288 4962 1 1.49927463
Link 256 747 4966 0 1.00000000
Link 747 32 4967 0 0.80949857
Link 7 30 5016 0 0.08750052
Link 81 780 5187 1 1.00000000
Link 780 473 5188 1 0.55308646
Link 255 75 5256 1 1.33896736
Link 197 197 5319 1 3.48335248
Link 11 805 5379 1 0.97162409
Link 805 612 5380 1 0.94117833
Link 24 824 5473 0 0.85997693
Link 824 564 5474 0 1.55928537
Link 11 253 5502 1 1.53643576
Link 514 842 5591 0 0.93687243
Link 842 34 5592 0 -1.82790115
Link 39 113 5636 0 -1.64615721
Link 89 235 5684 0 -0.66969213
Link 30 20 5762 0 0.36017868
Link 483 915 6035 0 1.00000000
Link 915 54 6036 0 -1.40395017
Link 152 514 6055 0 -1.49007459
Link 18 270 6166 0 -3.56623835
Link 39 24 6451 0 3.28335450
Link 225 553 6498 0 0.12313065
Link 78 255 6626 0 1.55243168
Link 5 236 6662 0 0.23539314
Link 5 288 6699 0 -1.80211515
Link 1015 75 6834 0 -2.98318143
Link 622 277 6850 0 -0.32980133
Link 140 230 7225 0 2.82328220
Link 563 563 7296 1 3.63074862
Link 642 1104 7363 0 1.19804742
Link 1104 1015 7364 0 0.92815984
Link 21 915 7729 1 2.94730072
Link 323 1161 7772 1 1.00000000
Link 1161 323 7773 1 1.89803123
Link 48 622 7774 0 1.73010424
Link 486 248 8012 0 1.04060280
Link 5 612 8031 0 -0.08773749
Link 277 38 8250 1 0.26942085
Link 26 1247 8330 0 1.00000000
Link 1247 484 8331 0 1.00000000
Link 179 140 8449 0 0.87521524
Link 1015 695 8482 0 1.21008253
Link 203 1305 8824 0 1.00000000
Link 1305 26 8825 0 -3.21098228
Link 253 248 8848 0 2.00683033
GenomeEnd

