GenomeStart 86030
Neuron 1 1 0.00000000 1 0.00000000 0.00000000 0.00000000 0.00000000
Neuron 2 1 0.00000000 1 0.00000000 0.00000000 0.00000000 0.00000000
Neuron 3 1 0.00000000 1 0.00000000 0.00000000 0.00000000 0.00000000
Neuron 4 1 0.00000000 1 0.00000000 0.00000000 0.00000000 0.00000000
Neuron 5 1 0.00000000 1 0.00000000 0.00000000 0.00000000 0.00000000
Neuron 6 1 0.00000000 1 0.00000000 0.00000000 0.00000000 0.00000000
Neuron 7 1 0.00000000 1 0.00000000 0.00000000 0.00000000 0.00000000
Neuron 8 1 0.00000000 1 0.00000000 0.00000000 0.00000000 0.00000000
Neuron 9 2 0.00000000 1 0.00000000 0.00000000 0.00000000 0.00000000
Neuron 10 4 1.00000000 0 1.00000000 0.00000000 0.00000000 0.00000000
Neuron 11 4 1.00000000 0 1.00000000 0.00000000 0.00000000 0.00000000
Neuron 12 4 1.00000000 0 1.00000000 0.00000000 0.00000000 0.00000000
Neuron 13 4 1.00000000 0 1.00000000 0.00000000 0.00000000 0.00000000
Neuron 14 4 1.00000000 0 1.00000000 0.00000000 0.00000000 0.00000000
Neuron 15 4 1.00000000 0 1.00000000 0.00000000 0.00000000 0.00000000
Neuron 16 4 1.00000000 0 1.00000000 0.00000000 0.00000000 0.00000000
Neuron 17 3 0.50000000 1 1.00000000 0.00000000 0.00000000 0.00000000
Neuron 20 3 0.50000000 1 1.00000000 0.00000000 0.00000000 0.00000000
Neuron 22 3 0.50000000 1 1.00000000 0.00000000 0.00000000 0.00000000
Neuron 23 3 0.50000000 1 1.00000000 0.00000000 0.00000000 0.00000000
Neuron 26 3 0.50000000 1 1.00000000 0.00000000 0.00000000 0.00000000
Neuron 29 3 0.50000000 1 1.00000000 0.00000000 0.00000000 0.00000000
Neuron 31 3 0.50000000 1 1.00000000 0.00000000 0.00000000 0.00000000
Neuron 33 3 0.50000000 1 1.00000000 0.00000000 0.00000000 0.00000000
Neuron 34 3 0.50000000 1 1.00000000 0.00000000 0.00000000 0.00000000
Neuron 39 3 0.50000000 1 1.00000000 0.00000000 0.00000000 0.00000000
Neuron 41 3 0.50000000 1 1.00000000 0.00000000 0.00000000 0.00000000
Neuron 43 3 0.50000000 1 1.00000000 0.00000000 0.00000000 0.00000000
Neuron 46 3 0.50000000 1 1.00000000 0.00000000 0.00000000 0.00000000
Neuron 50 3 0.50000000 1 1.00000000 0.00000000 0.00000000 0.00000000
Neuron 54 3 0.50000000 1 1.00000000 0.00000000 0.00000000 0.00000000
Neuron 55 3 0.50000000 1 1.00000000 0.00000000 0.00000000 0.00000000
Neuron 57 3 0.50000000 1 1.00000000 0.00000000 0.00000000 0.00000000
Neuron 60 3 0.50000000 1 1.00000000 0.00000000 0.00000000 0.00000000
Neuron 62 3 0.50000000 1 1.00000000 0.00000000 0.00000000 0.00000000
Neuron 78 3 0.50000000 1 1.00000000 0.00000000 0.00000000 0.00000000
Neuron 100 3 0.25000000 1 1.00000000 0.00000000 0.00000000 0.00000000
Neuron 104 3 0.25000000 1 1.00000000 0.00000000 0.00000000 0.00000000
Neuron 113 3 0.25000000 1 1.00000000 0.00000000 0.00000000 0.00000000
Neuron 114 3 0.25000000 1 1.00000000 0.00000000 0.00000000 0.00000000
Neuron 136 3 0.75000000 1 1.00000000 0.00000000 0.00000000 0.00000000
Neuron 139 3 0.75000000 1 1.00000000 0.00000000 0.00000000 0.00000000
Neuron 167 3 0.87500000 1 1.00000000 0.00000000 0.00000000 0.00000000
Neuron 174 3 0.75000000 1 1.00000000 0.00000000 0.00000000 0.00000000
Neuron 215 3 0.25000000 1 1.00000000 0.00000000 0.00000000 0.00000000
Neuron 244 3 0.12500000 1 1.00000000 0.00000000 0.00000000 0.00000000
Neuron 247 3 0.75000000 1 1.00000000 0.00000000 0.00000000 0.00000000
Neuron 262 3 0.25000000 1 1.00000000 0.00000000 0.00000000 0.00000000
Neuron 282 3 0.50000000 1 1.00000000 0.00000000 0.00000000 0.00000000
Neuron 418 3 0.50000000 1 1.00000000 0.00000000 0.00000000 0.00000000
Neuron 437 3 0.50000000 1 1.00000000 0.00000000 0.00000000 0.00000000
Neuron 482 3 0.62500000 1 1.00000000 0.00000000 0.00000000 0.00000000
Neuron 586 3 0.37500000 1 1.00000000 0.00000000 0.00000000 0.00000000
Neuron 593 3 0.25000000 1 1.00000000 0.00000000 0.00000000 0.00000000
Neuron 606 3 0.31250000 1 1.00000000 0.00000000 0.00000000 0.00000000
Neuron 613 3 0.50000000 1 1.00000000 0.00000000 0.00000000 0.00000000
Neuron 626 3 0.50000000 1 1.00000000 0.00000000 0.00000000 0.00000000
Neuron 644 3 0.50000000 1 1.00000000 0.00000000 0.00000000 0.00000000
Neuron 760 3 0.50000000 1 1.00000000 0.00000000 0.00000000 0.00000000
Neuron 767 3 0.50000000 1 1.00000000 0.00000000 0.00000000 0.00000000
Neuron 772 3 0.50000000 1 1.00000000 0.00000000 0.00000000 0.00000000
Neuron 830 3 0.37500000 1 1.00000000 0.00000000 0.00000000 0.00000000
Neuron 852 3 0.43750000 1 1.00000000 0.00000000 0.00000000 0.00000000
Neuron 903 3 0.62500000 1 1.00000000 0.00000000 0.00000000 0.00000000
Link 1 10 1 0 3.48034436
Link 2 10 2 0 1.29849423
Link 3 10 3 0 1.52006348
Link 4 10 4 0 -4.38226947
Link 6 10 6 0 3.82719624
Link 8 10 8 0 1.65102397
Link 9 10 9 0 1.03436515
Link 1 11 10 0 1.92773954
Link 3 11 12 0 1.50167727
Link 8 11 17 0 0.07934454
Link 9 11 18 0 1.91081028
Link 1 12 19 0 3.72495343
Link 3 12 21 0 -2.13042418
Link 8 12 26 0 -2.72227435
Link 9 12 27 0 -5.09950305
Link 1 13 28 0 1.35275551
Link 6 13 33 0 -3.29773134
Link 7 13 34 0 0.97607358
Link 9 13 36 0 0.85452861
Link 7 14 43 0 -0.42946438
Link 8 14 44 0 -0.87286760
Link 9 14 45 0 -1.27818710
Link 1 15 46 0 1.92480082
Link 2 15 47 0 -3.18007598
Link 5 15 50 0 -1.51972214
Link 9 15 54 0 -1.98713279
Link 1 16 55 0 1.44038010
Link 4 16 58 0 -3.73181574
Link 5 16 59 0 -1.19308061
Link 9 16 63 0 -0.30130294
Link 3 17 65 0 -2.94634775
Link 17 11 66 0 -3.79144396
Link 20 10 76 0 -3.68090408
Link 16 16 83 1 -1.07724546
Link 1 23 85 0 0.64136419
Link 4 26 95 0 1.32475874
Link 26 15 96 0 1.60607116
Link 29 12 106 0 5.05680432
Link 6 31 111 0 0.48292375
Link 31 16 112 0 -3.98081491
Link 7 33 117 0 2.65463760
Link 34 13 122 0 1.94076402
Link 39 13 137 0 -0.44411765
Link 41 16 143 0 4.69315873
Link 43 16 149 0 1.95315677
Link 46 12 158 0 0.40268608
Link 4 50 169 0 -1.24095004
Link 50 14 170 0 -0.37962038
Link 5 54 189 0 1.01436763
Link 54 14 190 0 0.31312674
Link 55 10 201 0 0.81234813
Link 57 11 208 0 -1.46189139
Link 6 60 227 0 0.59821817
Link 4 62 236 0 0.68720178
Link 62 11 237 0 0.44814311
Link 6 43 278 0 -3.79109329
Link 5 78 360 0 0.36006647
Link 78 13 361 0 -0.97110793
Link 8 22 485 0 -0.11605990
Link 8 100 538 0 -1.11446387
Link 100 46 539 0 -1.76677937
Link 5 104 574 0 1.05676252
Link 104 23 575 0 -0.09187112
Link 12 29 600 1 -0.52205871
Link 8 113 627 0 0.78023108
Link 113 39 628 0 -2.45442482
Link 6 114 640 0 1.15526080
Link 114 20 641 0 -0.54561308
Link 54 46 651 0 0.28626711
Link 22 136 820 0 0.83785302
Link 46 139 841 0 0.92514007
Link 139 14 842 0 -5.18480799
Link 136 167 1067 0 0.87527122
Link 167 13 1068 0 -0.88403042
Link 1 17 1081 0 -0.77473213
Link 17 10 1111 0 2.23147173
Link 23 174 1153 0 1.00000000
Link 174 14 1154 0 -4.07028412
Link 57 12 1239 0 -2.59544311
Link 78 14 1291 0 1.04840674
Link 8 50 1337 0 -0.88450446
Link 41 10 1339 0 -2.66411006
Link 29 50 1561 0 -1.47373128
Link 26 215 1570 1 1.49214372
Link 2 62 1574 0 2.77445163
Link 2 39 1613 0 -0.18065402
Link 3 55 1636 0 -4.26853778
Link 15 57 1652 1 4.02396243
Link 13 57 1787 1 -0.90492789
Link 8 244 1797 0 0.83840648
Link 244 215 1798 0 0.16331017
Link 247 14 1810 0 -2.83312356
Link 1 46 1826 0 0.17705997
Link 26 78 1895 0 2.83822436
Link 3 262 1902 0 1.20399906
Link 8 20 1916 0 2.37354123
Link 26 41 1955 0 -1.02552936
Link 282 10 2051 0 2.27652843
Link 4 282 2188 0 -0.75824419
Link 20 55 2234 0 4.24986158
Link 39 57 2309 0 -2.72530680
Link 29 14 2362 0 -1.16378295
Link 215 23 2728 0 -1.50526521
Link 215 282 2886 0 0.88924631
Link 33 418 3102 0 0.97721140
Link 418 39 3103 0 1.51543995
Link 41 12 3234 0 0.60349533
Link 4 437 3260 0 1.04712540
Link 437 14 3261 0 1.60429405
Link 4 215 3323 0 0.81860403
Link 43 50 3579 0 0.88839440
Link 60 482 3689 0 0.87887074
Link 482 247 3690 0 0.99232221
Link 46 215 3972 1 -0.75327905
Link 100 57 4246 0 0.59484678
Link 60 34 4289 0 2.43002567
Link 46 33 4341 0 -3.91731300
Link 262 586 4699 0 1.00000000
Link 586 29 4700 0 2.05229208
Link 244 114 4747 0 -3.34061109
Link 4 593 4792 0 1.00000000
Link 593 23 4793 0 -0.26311142
Link 244 606 5006 0 1.00000000
Link 606 62 5007 0 0.20414786
Link 613 54 5111 0 -0.50972642
Link 50 247 5307 0 1.31670626
Link 34 626 5359 1 1.00000000
Link 626 34 5360 1 0.79870357
Link 114 418 5445 0 1.22023562
Link 17 247 5657 0 1.52313856
Link 60 644 5760 0 1.34204260
Link 644 613 5761 0 0.78440255
Link 3 613 5763 0 1.62537709
Link 760 247 6608 0 2.21030215
Link 767 23 6660 0 2.13700692
Link 50 772 6682 0 0.94364517
Link 772 767 6683 0 1.01443842
Link 113 830 7178 0 0.94008878
Link 830 852 7394 0 0.99129815
Link 852 760 7395 0 1.00844867
Link 262 760 7768 0 2.27928318
Link 14 903 7818 1 1.00000000
Link 903 104 7819 1 0.45929194
Link 167 772 8038 1 0.50675559
Link 39 613 8061 0 0.32102142
GenomeEnd

