GenomeStart 44982
Neuron 1 1 0.00000000 1 0.00000000 0.00000000 0.00000000 0.00000000
Neuron 2 1 0.00000000 1 0.00000000 0.00000000 0.00000000 0.00000000
Neuron 3 1 0.00000000 1 0.00000000 0.00000000 0.00000000 0.00000000
Neuron 4 1 0.00000000 1 0.00000000 0.00000000 0.00000000 0.00000000
Neuron 5 1 0.00000000 1 0.00000000 0.00000000 0.00000000 0.00000000
Neuron 6 1 0.00000000 1 0.00000000 0.00000000 0.00000000 0.00000000
Neuron 7 1 0.00000000 1 0.00000000 0.00000000 0.00000000 0.00000000
Neuron 8 1 0.00000000 1 0.00000000 0.00000000 0.00000000 0.00000000
Neuron 9 2 0.00000000 1 0.00000000 0.00000000 0.00000000 0.00000000
Neuron 10 4 1.00000000 0 1.00000000 0.00000000 0.00000000 0.00000000
Neuron 11 4 1.00000000 0 1.00000000 0.00000000 0.00000000 0.00000000
Neuron 12 4 1.00000000 0 1.00000000 0.00000000 0.00000000 0.00000000
Neuron 13 4 1.00000000 0 1.00000000 0.00000000 0.00000000 0.00000000
Neuron 14 4 1.00000000 0 1.00000000 0.00000000 0.00000000 0.00000000
Neuron 15 4 1.00000000 0 1.00000000 0.00000000 0.00000000 0.00000000
Neuron 16 4 1.00000000 0 1.00000000 0.00000000 0.00000000 0.00000000
Neuron 17 3 0.50000000 1 1.00000000 0.00000000 0.00000000 0.00000000
Neuron 20 3 0.50000000 1 1.00000000 0.00000000 0.00000000 0.00000000
Neuron 22 3 0.50000000 1 1.00000000 0.00000000 0.00000000 0.00000000
Neuron 23 3 0.50000000 1 1.00000000 0.00000000 0.00000000 0.00000000
Neuron 26 3 0.50000000 1 1.00000000 0.00000000 0.00000000 0.00000000
Neuron 29 3 0.50000000 1 1.00000000 0.00000000 0.00000000 0.00000000
Neuron 31 3 0.50000000 1 1.00000000 0.00000000 0.00000000 0.00000000
Neuron 33 3 0.50000000 1 1.00000000 0.00000000 0.00000000 0.00000000
Neuron 34 3 0.50000000 1 1.00000000 0.00000000 0.00000000 0.00000000
Neuron 39 3 0.50000000 1 1.00000000 0.00000000 0.00000000 0.00000000
Neuron 41 3 0.50000000 1 1.00000000 0.00000000 0.00000000 0.00000000
Neuron 43 3 0.50000000 1 1.00000000 0.00000000 0.00000000 0.00000000
Neuron 46 3 0.50000000 1 1.00000000 0.00000000 0.00000000 0.00000000
Neuron 50 3 0.50000000 1 1.00000000 0.00000000 0.00000000 0.00000000
Neuron 54 3 0.50000000 1 1.00000000 0.00000000 0.00000000 0.00000000
Neuron 55 3 0.50000000 1 1.00000000 0.00000000 0.00000000 0.00000000
Neuron 57 3 0.50000000 1 1.00000000 0.00000000 0.00000000 0.00000000
Neuron 60 3 0.50000000 1 1.00000000 0.00000000 0.00000000 0.00000000
Neuron 62 3 0.50000000 1 1.00000000 0.00000000 0.00000000 0.00000000
Neuron 78 3 0.50000000 1 1.00000000 0.00000000 0.00000000 0.00000000
Neuron 100 3 0.25000000 1 1.00000000 0.00000000 0.00000000 0.00000000
Neuron 113 3 0.25000000 1 1.00000000 0.00000000 0.00000000 0.00000000
Neuron 114 3 0.25000000 1 1.00000000 0.00000000 0.00000000 0.00000000
Neuron 136 3 0.75000000 1 1.00000000 0.00000000 0.00000000 0.00000000
Neuron 215 3 0.25000000 1 1.00000000 0.00000000 0.00000000 0.00000000
Neuron 244 3 0.12500000 1 1.00000000 0.00000000 0.00000000 0.00000000
Neuron 262 3 0.25000000 1 1.00000000 0.00000000 0.00000000 0.00000000
Neuron 282 3 0.50000000 1 1.00000000 0.00000000 0.00000000 0.00000000
Neuron 418 3 0.50000000 1 1.00000000 0.00000000 0.00000000 0.00000000
Link 1 10 1 0 3.32246866
Link 2 10 2 0 1.02943029
Link 3 10 3 0 1.71134887
Link 4 10 4 0 -4.18937188
Link 5 10 5 0 1.37242711
Link 6 10 6 0 3.87653014
Link 8 10 8 0 1.56617934
Link 9 10 9 0 0.97969210
Link 1 11 10 0 1.93433346
Link 3 11 12 0 1.51848397
Link 5 11 14 0 0.03361186
Link 6 11 15 0 -4.33658571
Link 7 11 16 0 1.19916383
Link 8 11 17 0 0.09800846
Link 9 11 18 0 1.91056688
Link 1 12 19 0 3.86893649
Link 2 12 20 0 -1.43666503
Link 3 12 21 0 -2.14080394
Link 7 12 25 0 -0.32613753
Link 8 12 26 0 -2.89444754
Link 9 12 27 0 -5.00939393
Link 1 13 28 0 1.51183959
Link 6 13 33 0 -3.16800805
Link 7 13 34 0 0.99037763
Link 9 13 36 0 1.11553305
Link 2 14 38 0 -2.32328316
Link 4 14 40 0 1.55705933
Link 7 14 43 0 -0.36226251
Link 8 14 44 0 -0.58612478
Link 9 14 45 0 -1.48397957
Link 1 15 46 0 2.27509385
Link 2 15 47 0 -2.97115058
Link 3 15 48 0 4.74334037
Link 4 15 49 0 0.59737498
Link 5 15 50 0 -1.78572117
Link 6 15 51 0 2.52860362
Link 7 15 52 0 0.73606278
Link 8 15 53 0 -1.35589971
Link 9 15 54 0 -2.17703426
Link 1 16 55 0 1.48736339
Link 2 16 56 0 -2.92953014
Link 4 16 58 0 -3.61975461
Link 5 16 59 0 -1.15903715
Link 6 16 60 0 -0.56809750
Link 7 16 61 0 -2.99385890
Link 8 16 62 0 -3.71475943
Link 9 16 63 0 -0.25465744
Link 3 17 65 0 -2.75060971
Link 17 11 66 0 -3.67619855
Link 20 10 76 0 -3.56223565
Link 2 22 81 0 2.49863617
Link 16 16 83 1 -1.01249667
Link 1 23 85 0 0.66294150
Link 23 14 86 0 -4.26577861
Link 4 26 95 0 1.27108584
Link 26 15 96 0 1.59848824
Link 29 12 106 0 4.82643257
Link 6 31 111 0 0.56957794
Link 31 16 112 0 -3.84200326
Link 7 33 117 0 2.53243277
Link 33 14 118 0 -0.98404003
Link 3 34 121 0 1.55923992
Link 34 13 122 0 1.91109197
Link 39 13 137 0 -0.52680469
Link 3 41 142 0 0.26340384
Link 41 16 143 0 4.64409745
Link 7 43 148 0 -4.70136195
Link 43 16 149 0 2.18004873
Link 46 12 158 0 0.45580587
Link 4 50 169 0 -1.39822355
Link 50 14 170 0 -0.28691026
Link 5 54 189 0 1.00000000
Link 54 14 190 0 0.30446544
Link 5 23 196 0 -0.06228009
Link 55 10 201 0 0.91417767
Link 2 57 207 0 -0.23996452
Link 57 11 208 0 -1.76795209
Link 6 60 227 0 0.98082231
Link 60 14 228 0 -3.03979886
Link 4 62 236 0 0.48388089
Link 62 11 237 0 0.52607596
Link 6 43 278 0 -3.77634610
Link 5 78 360 0 0.51628184
Link 78 13 361 0 -0.99463057
Link 46 14 515 0 -5.36700629
Link 8 100 538 0 -0.97557477
Link 100 46 539 0 -1.78786621
Link 12 29 600 1 -0.54060409
Link 8 113 627 0 1.02397779
Link 113 39 628 0 -2.47540242
Link 6 114 640 0 0.96979769
Link 114 20 641 0 -0.57985413
Link 22 136 820 0 1.00000000
Link 136 13 821 0 -1.23352856
Link 1 17 1081 0 -0.62091880
Link 17 10 1111 0 1.84018174
Link 57 12 1239 0 -2.64805481
Link 78 14 1291 0 1.20610981
Link 41 10 1339 0 -2.63426161
Link 215 50 1530 0 1.91042657
Link 26 215 1570 1 1.71237002
Link 2 62 1574 0 2.75856916
Link 2 39 1613 0 -0.27808552
Link 3 55 1636 0 -4.48583384
Link 15 57 1652 1 3.97849637
Link 13 57 1787 1 -0.76330951
Link 8 244 1797 0 0.87718943
Link 244 215 1798 0 -0.18291180
Link 1 46 1826 0 0.17956783
Link 26 78 1895 0 2.87330484
Link 3 262 1902 0 1.20914663
Link 262 29 1903 0 2.03120845
Link 8 20 1916 0 2.34229744
Link 26 41 1955 0 -0.94589092
Link 7 282 2050 0 1.41686197
Link 282 10 2051 0 2.35962448
Link 4 282 2188 0 -0.72274318
Link 20 55 2234 0 4.14275972
Link 39 57 2309 0 -2.77825695
Link 215 282 2886 0 0.83011797
Link 4 23 2968 0 -0.07749017
Link 33 418 3102 0 0.95656363
Link 418 39 3103 0 1.51844529
Link 41 12 3234 0 0.74858274
Link 41 418 3886 0 -0.18207121
Link 55 54 3887 0 -1.42374112
Link 46 215 3972 1 -0.54799772
Link 100 57 4246 0 0.63636562
Link 60 34 4289 0 2.45749502
Link 46 33 4341 0 -3.83257628
Link 244 62 4729 0 0.21012212
Link 244 114 4747 0 -3.10717552
Link 60 54 4900 0 -0.33473180
Link 4 262 5120 0 -1.74723326
GenomeEnd

