GenomeStart 78526
Neuron 1 1 0.00000000 1 0.00000000 0.00000000 0.00000000 0.00000000
Neuron 2 1 0.00000000 1 0.00000000 0.00000000 0.00000000 0.00000000
Neuron 3 1 0.00000000 1 0.00000000 0.00000000 0.00000000 0.00000000
Neuron 4 1 0.00000000 1 0.00000000 0.00000000 0.00000000 0.00000000
Neuron 5 1 0.00000000 1 0.00000000 0.00000000 0.00000000 0.00000000
Neuron 6 1 0.00000000 1 0.00000000 0.00000000 0.00000000 0.00000000
Neuron 7 1 0.00000000 1 0.00000000 0.00000000 0.00000000 0.00000000
Neuron 8 1 0.00000000 1 0.00000000 0.00000000 0.00000000 0.00000000
Neuron 9 2 0.00000000 1 0.00000000 0.00000000 0.00000000 0.00000000
Neuron 10 4 1.00000000 0 1.00000000 0.00000000 0.00000000 0.00000000
Neuron 11 4 1.00000000 0 1.00000000 0.00000000 0.00000000 0.00000000
Neuron 12 4 1.00000000 0 1.00000000 0.00000000 0.00000000 0.00000000
Neuron 13 4 1.00000000 0 1.00000000 0.00000000 0.00000000 0.00000000
Neuron 14 4 1.00000000 0 1.00000000 0.00000000 0.00000000 0.00000000
Neuron 15 4 1.00000000 0 1.00000000 0.00000000 0.00000000 0.00000000
Neuron 16 4 1.00000000 0 1.00000000 0.00000000 0.00000000 0.00000000
Neuron 18 3 0.50000000 1 1.00000000 0.00000000 0.00000000 0.00000000
Neuron 19 3 0.50000000 1 1.00000000 0.00000000 0.00000000 0.00000000
Neuron 21 3 0.50000000 1 1.00000000 0.00000000 0.00000000 0.00000000
Neuron 23 3 0.50000000 1 1.00000000 0.00000000 0.00000000 0.00000000
Neuron 25 3 0.50000000 1 1.00000000 0.00000000 0.00000000 0.00000000
Neuron 26 3 0.50000000 1 1.00000000 0.00000000 0.00000000 0.00000000
Neuron 27 3 0.50000000 1 1.00000000 0.00000000 0.00000000 0.00000000
Neuron 40 3 0.50000000 1 1.00000000 0.00000000 0.00000000 0.00000000
Neuron 42 3 0.50000000 1 1.00000000 0.00000000 0.00000000 0.00000000
Neuron 43 3 0.50000000 1 1.00000000 0.00000000 0.00000000 0.00000000
Neuron 45 3 0.50000000 1 1.00000000 0.00000000 0.00000000 0.00000000
Neuron 49 3 0.50000000 1 1.00000000 0.00000000 0.00000000 0.00000000
Neuron 50 3 0.50000000 1 1.00000000 0.00000000 0.00000000 0.00000000
Neuron 52 3 0.50000000 1 1.00000000 0.00000000 0.00000000 0.00000000
Neuron 57 3 0.50000000 1 1.00000000 0.00000000 0.00000000 0.00000000
Neuron 58 3 0.50000000 1 1.00000000 0.00000000 0.00000000 0.00000000
Neuron 59 3 0.50000000 1 1.00000000 0.00000000 0.00000000 0.00000000
Neuron 68 3 0.25000000 1 1.00000000 0.00000000 0.00000000 0.00000000
Neuron 70 3 0.75000000 1 1.00000000 0.00000000 0.00000000 0.00000000
Neuron 74 3 0.50000000 1 1.00000000 0.00000000 0.00000000 0.00000000
Neuron 80 3 0.75000000 1 1.00000000 0.00000000 0.00000000 0.00000000
Neuron 82 3 0.50000000 1 1.00000000 0.00000000 0.00000000 0.00000000
Neuron 85 3 0.25000000 1 1.00000000 0.00000000 0.00000000 0.00000000
Neuron 87 3 0.25000000 1 1.00000000 0.00000000 0.00000000 0.00000000
Neuron 90 3 0.50000000 1 1.00000000 0.00000000 0.00000000 0.00000000
Neuron 105 3 0.75000000 1 1.00000000 0.00000000 0.00000000 0.00000000
Neuron 119 3 0.75000000 1 1.00000000 0.00000000 0.00000000 0.00000000
Neuron 135 3 0.75000000 1 1.00000000 0.00000000 0.00000000 0.00000000
Neuron 147 3 0.75000000 1 1.00000000 0.00000000 0.00000000 0.00000000
Neuron 154 3 0.75000000 1 1.00000000 0.00000000 0.00000000 0.00000000
Neuron 157 3 0.75000000 1 1.00000000 0.00000000 0.00000000 0.00000000
Neuron 164 3 0.25000000 1 1.00000000 0.00000000 0.00000000 0.00000000
Neuron 208 3 0.75000000 1 1.00000000 0.00000000 0.00000000 0.00000000
Neuron 209 3 0.12500000 1 1.00000000 0.00000000 0.00000000 0.00000000
Neuron 249 3 0.25000000 1 1.00000000 0.00000000 0.00000000 0.00000000
Neuron 255 3 0.25000000 1 1.00000000 0.00000000 0.00000000 0.00000000
Neuron 256 3 0.37500000 1 1.00000000 0.00000000 0.00000000 0.00000000
Neuron 283 3 0.75000000 1 1.00000000 0.00000000 0.00000000 0.00000000
Neuron 296 3 0.50000000 1 1.00000000 0.00000000 0.00000000 0.00000000
Neuron 319 3 0.50000000 1 1.00000000 0.00000000 0.00000000 0.00000000
Neuron 379 3 0.12500000 1 1.00000000 0.00000000 0.00000000 0.00000000
Neuron 380 3 0.87500000 1 1.00000000 0.00000000 0.00000000 0.00000000
Neuron 390 3 0.31250000 1 1.00000000 0.00000000 0.00000000 0.00000000
Neuron 391 3 0.62500000 1 1.00000000 0.00000000 0.00000000 0.00000000
Neuron 411 3 0.62500000 1 1.00000000 0.00000000 0.00000000 0.00000000
Neuron 442 3 0.37500000 1 1.00000000 0.00000000 0.00000000 0.00000000
Neuron 451 3 0.68750000 1 1.00000000 0.00000000 0.00000000 0.00000000
Neuron 456 3 0.50000000 1 1.00000000 0.00000000 0.00000000 0.00000000
Neuron 468 3 0.87500000 1 1.00000000 0.00000000 0.00000000 0.00000000
Neuron 501 3 0.37500000 1 1.00000000 0.00000000 0.00000000 0.00000000
Neuron 504 3 0.50000000 1 1.00000000 0.00000000 0.00000000 0.00000000
Neuron 509 3 0.25000000 1 1.00000000 0.00000000 0.00000000 0.00000000
Neuron 529 3 0.62500000 1 1.00000000 0.00000000 0.00000000 0.00000000
Neuron 556 3 0.50000000 1 1.00000000 0.00000000 0.00000000 0.00000000
Neuron 557 3 0.12500000 1 1.00000000 0.00000000 0.00000000 0.00000000
Neuron 568 3 0.50000000 1 1.00000000 0.00000000 0.00000000 0.00000000
Neuron 594 3 0.50000000 1 1.00000000 0.00000000 0.00000000 0.00000000
Neuron 625 3 0.75000000 1 1.00000000 0.00000000 0.00000000 0.00000000
Neuron 629 3 0.12500000 1 1.00000000 0.00000000 0.00000000 0.00000000
Neuron 634 3 0.06250000 1 1.00000000 0.00000000 0.00000000 0.00000000
Neuron 641 3 0.68750000 1 1.00000000 0.00000000 0.00000000 0.00000000
Neuron 648 3 0.84375000 1 1.00000000 0.00000000 0.00000000 0.00000000
Neuron 661 3 0.34375000 1 1.00000000 0.00000000 0.00000000 0.00000000
Neuron 663 3 0.12500000 1 1.00000000 0.00000000 0.00000000 0.00000000
Neuron 667 3 0.50000000 1 1.00000000 0.00000000 0.00000000 0.00000000
Neuron 688 3 0.31250000 1 1.00000000 0.00000000 0.00000000 0.00000000
Neuron 690 3 0.92187500 1 1.00000000 0.00000000 0.00000000 0.00000000
Neuron 715 3 0.03125000 1 1.00000000 0.00000000 0.00000000 0.00000000
Neuron 722 3 0.18750000 1 1.00000000 0.00000000 0.00000000 0.00000000
Neuron 737 3 0.25000000 1 1.00000000 0.00000000 0.00000000 0.00000000
Neuron 752 3 0.43750000 1 1.00000000 0.00000000 0.00000000 0.00000000
Neuron 754 3 0.50000000 1 1.00000000 0.00000000 0.00000000 0.00000000
Neuron 755 3 0.06250000 1 1.00000000 0.00000000 0.00000000 0.00000000
Neuron 756 3 0.25000000 1 1.00000000 0.00000000 0.00000000 0.00000000
Neuron 779 3 0.68750000 1 1.00000000 0.00000000 0.00000000 0.00000000
Neuron 786 3 0.62500000 1 1.00000000 0.00000000 0.00000000 0.00000000
Neuron 795 3 0.09375000 1 1.00000000 0.00000000 0.00000000 0.00000000
Neuron 806 3 0.40625000 1 1.00000000 0.00000000 0.00000000 0.00000000
Neuron 852 3 0.01562500 1 1.00000000 0.00000000 0.00000000 0.00000000
Neuron 872 3 0.31250000 1 1.00000000 0.00000000 0.00000000 0.00000000
Neuron 877 3 0.81250000 1 1.00000000 0.00000000 0.00000000 0.00000000
Neuron 892 3 0.37500000 1 1.00000000 0.00000000 0.00000000 0.00000000
Neuron 893 3 0.67187500 1 1.00000000 0.00000000 0.00000000 0.00000000
Neuron 922 3 0.50000000 1 1.00000000 0.00000000 0.00000000 0.00000000
Neuron 948 3 0.37500000 1 1.00000000 0.00000000 0.00000000 0.00000000
Neuron 963 3 0.18750000 1 1.00000000 0.00000000 0.00000000 0.00000000
Neuron 969 3 0.31250000 1 1.00000000 0.00000000 0.00000000 0.00000000
Neuron 978 3 0.12500000 1 1.00000000 0.00000000 0.00000000 0.00000000
Neuron 982 3 0.34375000 1 1.00000000 0.00000000 0.00000000 0.00000000
Neuron 988 3 0.77343750 1 1.00000000 0.00000000 0.00000000 0.00000000
Neuron 990 3 0.00781250 1 1.00000000 0.00000000 0.00000000 0.00000000
Neuron 1009 3 0.01171875 1 1.00000000 0.00000000 0.00000000 0.00000000
Neuron 1010 3 0.90625000 1 1.00000000 0.00000000 0.00000000 0.00000000
Neuron 1012 3 0.15625000 1 1.00000000 0.00000000 0.00000000 0.00000000
Neuron 1040 3 0.81250000 1 1.00000000 0.00000000 0.00000000 0.00000000
Neuron 1054 3 0.62500000 1 1.00000000 0.00000000 0.00000000 0.00000000
Link 1 10 1 0 -0.99344990
Link 2 10 2 0 1.38839356
Link 6 10 6 0 2.32110891
Link 7 10 7 0 3.50585137
Link 8 10 8 0 1.64455242
Link 9 10 9 0 -0.32674499
Link 1 11 10 0 -3.53023919
Link 2 11 11 0 -0.24411719
Link 3 11 12 0 3.31706105
Link 5 11 14 0 3.49587139
Link 6 11 15 0 2.31322715
Link 9 11 18 0 1.72708696
Link 1 12 19 0 -1.57244497
Link 3 12 21 0 -0.66456916
Link 5 12 23 0 0.17495755
Link 6 12 24 0 -4.68217350
Link 7 12 25 0 -0.71237100
Link 8 12 26 0 -1.31408848
Link 9 12 27 0 0.06733516
Link 1 13 28 0 -1.28685406
Link 3 13 30 0 0.22243499
Link 4 13 31 0 -3.06302486
Link 5 13 32 0 -2.92000922
Link 6 13 33 0 -2.03217381
Link 8 13 35 0 -0.32651938
Link 9 13 36 0 1.46749642
Link 1 14 37 0 2.21241966
Link 4 14 40 0 -4.89847449
Link 9 14 45 0 -2.92571328
Link 2 15 47 0 4.43731181
Link 4 15 49 0 2.32781858
Link 6 15 51 0 1.55602957
Link 7 15 52 0 2.02793474
Link 9 15 54 0 4.09058814
Link 3 16 57 0 -2.85873698
Link 5 16 59 0 -0.58620630
Link 8 16 62 0 6.46789161
Link 9 16 63 0 1.10824207
Link 18 11 69 0 -3.88736876
Link 1 19 71 0 -0.46410044
Link 19 15 72 0 -2.52302946
Link 2 21 77 0 1.92828120
Link 6 23 84 0 1.93952181
Link 7 25 91 0 1.01606251
Link 25 14 92 0 3.86099797
Link 7 26 95 0 1.05939415
Link 26 15 96 0 1.80085702
Link 7 27 98 0 1.16763978
Link 27 13 99 0 2.43434503
Link 7 40 138 0 0.65121642
Link 40 16 139 0 1.13526378
Link 2 42 145 0 1.38995511
Link 42 16 146 0 0.08744326
Link 8 43 148 0 0.73232137
Link 5 45 154 0 1.56929623
Link 3 49 166 0 1.00000000
Link 49 14 167 0 -3.73915633
Link 2 50 169 0 0.95781002
Link 6 52 175 0 1.49711864
Link 13 13 197 1 2.89691424
Link 8 57 206 0 2.84475542
Link 57 11 207 0 -0.00303678
Link 2 58 210 0 2.00185741
Link 1 59 213 0 1.28967461
Link 59 16 214 0 -2.77130703
Link 2 68 269 0 0.75282527
Link 68 42 270 0 0.70083625
Link 2 25 284 0 1.38820290
Link 25 70 288 0 0.62835266
Link 70 14 289 0 3.24827866
Link 5 74 307 0 0.91365024
Link 74 16 308 0 -1.52367435
Link 3 18 354 0 -3.17956521
Link 52 80 359 0 -1.06044708
Link 80 16 360 0 3.41506577
Link 8 82 376 0 1.85075359
Link 6 85 403 0 1.11510726
Link 85 23 404 0 2.80332668
Link 4 87 417 0 -0.56603287
Link 21 21 421 1 0.24462764
Link 10 18 426 1 -0.72925759
Link 58 58 432 1 -0.87507120
Link 90 15 437 0 -0.27659975
Link 6 25 449 0 1.55954229
Link 7 58 515 0 4.38931691
Link 43 105 555 0 0.72324314
Link 105 13 556 0 -1.08473437
Link 15 52 639 1 -2.73598884
Link 50 119 677 0 1.00000000
Link 119 14 678 0 -1.06926809
Link 87 52 684 0 -0.14486211
Link 58 135 836 0 0.61945982
Link 135 13 837 0 -2.11573769
Link 23 147 921 0 -0.94473939
Link 147 14 922 0 1.31783440
Link 21 154 970 0 1.35071266
Link 154 12 971 0 0.25951874
Link 3 82 985 0 -0.86503070
Link 82 82 986 1 -0.65727911
Link 57 157 994 0 1.17906421
Link 157 11 995 0 -0.36254621
Link 6 164 1056 0 0.20526911
Link 164 52 1057 0 2.80082444
Link 58 15 1155 0 -3.70306482
Link 18 16 1180 0 -3.30837546
Link 12 58 1242 1 4.75431599
Link 27 27 1294 1 -3.35737298
Link 58 11 1368 0 -0.47052979
Link 208 14 1388 0 1.26612535
Link 4 209 1390 0 1.04636188
Link 209 87 1391 0 2.08715284
Link 5 87 1436 0 -1.46717379
Link 2 90 1509 0 -2.23570615
Link 8 249 1700 0 0.73422919
Link 249 82 1701 0 1.22128723
Link 5 255 1742 0 1.74594212
Link 256 18 1749 0 -1.82229015
Link 45 283 1979 0 0.46371855
Link 283 14 1980 0 0.98648559
Link 296 23 2069 0 1.30561543
Link 18 319 2258 0 0.71888363
Link 319 58 2259 0 -0.38423617
Link 19 90 2396 0 -2.74358171
Link 19 19 2524 1 -0.00944679
Link 7 19 2592 0 3.70123134
Link 8 59 2659 0 -0.57358910
Link 5 379 2801 0 1.19183063
Link 208 380 2805 0 1.10410711
Link 380 14 2806 0 1.32964225
Link 87 390 2872 0 1.61589327
Link 390 256 2873 0 -0.13608494
Link 82 391 2882 0 1.38248621
Link 80 208 2945 0 -0.72501625
Link 90 57 3018 0 1.49526918
Link 58 411 3093 0 1.38239045
Link 16 256 3123 1 -0.42442742
Link 8 319 3351 0 1.21713551
Link 451 256 3431 1 -0.21345998
Link 58 456 3454 0 0.64899450
Link 456 296 3455 0 0.26910449
Link 468 14 3532 0 -0.02668591
Link 296 40 3716 0 -3.01744464
Link 18 501 3823 1 0.97888392
Link 501 87 3824 1 2.12285270
Link 18 504 3843 0 1.10458909
Link 504 319 3844 0 1.35108640
Link 1 57 3862 0 -1.70060563
Link 509 319 3884 0 1.38028311
Link 23 529 4040 0 0.90435375
Link 529 147 4041 0 2.00566856
Link 147 296 4222 1 -3.65854178
Link 456 556 4352 0 1.06589378
Link 557 87 4364 0 -0.81693183
Link 40 14 4420 0 -0.70250895
Link 58 568 4454 0 1.67175061
Link 379 59 4577 0 -3.25130579
Link 568 15 4615 0 -3.58086274
Link 557 456 4630 0 1.80275704
Link 18 147 4653 0 2.23077854
Link 568 594 4691 0 1.68118054
Link 594 456 4692 0 1.17811112
Link 45 26 4735 0 -1.92565500
Link 14 625 5002 1 0.93390171
Link 625 296 5003 1 0.96365126
Link 19 456 5013 0 -1.00353146
Link 4 629 5058 0 0.71353967
Link 411 641 5181 0 0.02594586
Link 641 135 5182 0 1.55742000
Link 648 451 5236 1 -0.33871724
Link 1 451 5253 0 -1.79728424
Link 90 87 5314 1 0.43425257
Link 390 661 5352 0 1.30934235
Link 661 256 5353 0 0.62405259
Link 663 255 5367 0 0.66925044
Link 556 667 5390 0 1.04526446
Link 667 296 5391 0 1.28014730
Link 147 663 5442 1 0.36842556
Link 557 634 5563 1 -2.05286932
Link 442 688 5593 1 0.93539198
Link 688 87 5594 1 0.92809018
Link 16 690 5615 1 0.56826616
Link 690 648 5616 1 1.06275002
Link 296 456 5707 0 0.54100416
Link 715 634 5827 0 1.67117866
Link 379 722 5868 0 1.11674645
Link 722 255 5869 0 1.52500062
Link 3 737 5966 0 1.16506878
Link 737 319 5967 0 -3.12622770
Link 135 45 6083 1 -1.59145042
Link 154 208 6096 0 0.24714575
Link 45 752 6100 1 1.23937170
Link 752 442 6101 1 1.28097374
Link 754 59 6113 0 0.92110172
Link 7 755 6118 0 0.47046317
Link 755 663 6119 0 1.05032228
Link 157 157 6120 1 0.16140865
Link 5 756 6130 0 1.49140009
Link 756 556 6131 0 2.45200359
Link 5 390 6298 0 1.79527699
Link 442 442 6300 1 -0.12557706
Link 391 779 6329 0 1.40053898
Link 779 208 6330 0 -0.24321791
Link 3 648 6387 0 -3.57892583
Link 786 87 6418 1 0.63034632
Link 634 634 6458 1 2.54867634
Link 634 795 6485 0 0.75486684
Link 795 557 6486 0 -0.88244349
Link 390 806 6593 0 1.21782456
Link 806 456 6594 0 0.34825107
Link 456 208 6629 0 -0.12213526
Link 87 690 6767 0 4.43482033
Link 756 442 6812 0 4.81591205
Link 23 21 7024 0 -0.93263651
Link 722 391 7031 0 0.90605537
Link 852 715 7112 0 1.40982684
Link 87 594 7194 0 1.81171663
Link 23 85 7309 1 0.41902332
Link 786 625 7321 0 1.42640930
Link 456 667 7339 0 -1.17563925
Link 255 756 7367 0 -0.37145443
Link 872 87 7380 1 2.34502052
Link 663 661 7407 0 -0.14458316
Link 877 786 7419 1 0.97662601
Link 625 157 7460 0 1.14857560
Link 135 663 7469 1 1.22119476
Link 255 892 7552 0 1.00000000
Link 892 82 7553 0 1.36469384
Link 25 893 7556 0 1.55053356
Link 893 648 7557 0 3.32930400
Link 806 87 7596 1 -0.86548845
Link 16 380 7656 1 0.12415764
Link 756 85 7679 0 0.41884100
Link 52 209 7766 1 3.60574593
Link 319 922 7859 0 0.95820078
Link 922 754 7860 0 1.39588001
Link 556 501 8006 1 -0.34929223
Link 4 625 8048 0 0.32105683
Link 80 442 8110 1 1.71068982
Link 45 948 8147 1 1.00000000
Link 948 87 8148 1 0.84876657
Link 87 648 8278 0 1.71270021
Link 629 963 8290 0 0.92453547
Link 963 255 8291 0 0.79466821
Link 16 157 8308 1 2.82637290
Link 27 663 8318 1 1.08324598
Link 663 969 8350 0 1.51601213
Link 969 21 8351 0 -1.03130431
Link 6 157 8380 0 2.73123872
Link 629 90 8391 0 -1.55331059
Link 663 501 8399 0 -1.59378833
Link 8 978 8472 0 0.42211709
Link 978 509 8473 0 1.02022238
Link 501 982 8508 1 1.79627203
Link 982 872 8509 1 1.00000000
Link 667 135 8539 0 -0.03771805
Link 786 988 8565 0 1.09432566
Link 988 690 8566 0 -0.68826524
Link 5 990 8589 0 1.09596088
Link 568 795 8684 1 2.81144541
Link 990 1009 8736 0 1.10926993
Link 1009 852 8737 0 0.88025289
Link 16 1010 8746 1 1.11766424
Link 1010 877 8747 1 1.34104820
Link 255 1012 8763 1 0.26267078
Link 1012 634 8764 1 -2.33306508
Link 978 40 8788 0 2.35158601
Link 568 852 8796 1 -0.26329387
Link 978 756 8805 0 0.65096323
Link 568 249 8848 1 -3.13244019
Link 795 722 8925 0 0.05176705
Link 255 752 8932 0 0.04381680
Link 319 990 8949 1 -2.22861224
Link 147 1040 9065 0 1.16542582
Link 1040 468 9066 0 0.88445229
Link 468 319 9141 1 -2.42289018
Link 82 1054 9156 0 1.76089103
Link 1054 208 9157 0 1.87830123
Link 74 779 9218 0 -3.12181514
Link 872 872 9252 1 -1.30716787
Link 50 629 9375 1 3.91248715
GenomeEnd

