GenomeStart 68145
Neuron 1 1 0.00000000 1 0.00000000 0.00000000 0.00000000 0.00000000
Neuron 2 1 0.00000000 1 0.00000000 0.00000000 0.00000000 0.00000000
Neuron 3 1 0.00000000 1 0.00000000 0.00000000 0.00000000 0.00000000
Neuron 4 1 0.00000000 1 0.00000000 0.00000000 0.00000000 0.00000000
Neuron 5 1 0.00000000 1 0.00000000 0.00000000 0.00000000 0.00000000
Neuron 6 1 0.00000000 1 0.00000000 0.00000000 0.00000000 0.00000000
Neuron 7 1 0.00000000 1 0.00000000 0.00000000 0.00000000 0.00000000
Neuron 8 1 0.00000000 1 0.00000000 0.00000000 0.00000000 0.00000000
Neuron 9 2 0.00000000 1 0.00000000 0.00000000 0.00000000 0.00000000
Neuron 10 4 1.00000000 0 1.00000000 0.00000000 0.00000000 0.00000000
Neuron 11 4 1.00000000 0 1.00000000 0.00000000 0.00000000 0.00000000
Neuron 12 4 1.00000000 0 1.00000000 0.00000000 0.00000000 0.00000000
Neuron 13 4 1.00000000 0 1.00000000 0.00000000 0.00000000 0.00000000
Neuron 14 4 1.00000000 0 1.00000000 0.00000000 0.00000000 0.00000000
Neuron 15 4 1.00000000 0 1.00000000 0.00000000 0.00000000 0.00000000
Neuron 16 4 1.00000000 0 1.00000000 0.00000000 0.00000000 0.00000000
Neuron 28 3 0.50000000 1 1.00000000 0.00000000 0.00000000 0.00000000
Neuron 29 3 0.50000000 1 1.00000000 0.00000000 0.00000000 0.00000000
Neuron 35 3 0.50000000 1 1.00000000 0.00000000 0.00000000 0.00000000
Neuron 37 3 0.50000000 1 1.00000000 0.00000000 0.00000000 0.00000000
Neuron 41 3 0.50000000 1 1.00000000 0.00000000 0.00000000 0.00000000
Neuron 44 3 0.50000000 1 1.00000000 0.00000000 0.00000000 0.00000000
Neuron 58 3 0.75000000 1 1.00000000 0.00000000 0.00000000 0.00000000
Neuron 60 3 0.50000000 1 1.00000000 0.00000000 0.00000000 0.00000000
Neuron 63 3 0.50000000 1 1.00000000 0.00000000 0.00000000 0.00000000
Neuron 64 3 0.50000000 1 1.00000000 0.00000000 0.00000000 0.00000000
Neuron 67 3 0.50000000 1 1.00000000 0.00000000 0.00000000 0.00000000
Neuron 69 3 0.50000000 1 1.00000000 0.00000000 0.00000000 0.00000000
Neuron 72 3 0.25000000 1 1.00000000 0.00000000 0.00000000 0.00000000
Neuron 80 3 0.50000000 1 1.00000000 0.00000000 0.00000000 0.00000000
Neuron 89 3 0.25000000 1 1.00000000 0.00000000 0.00000000 0.00000000
Neuron 100 3 0.75000000 1 1.00000000 0.00000000 0.00000000 0.00000000
Neuron 105 3 0.25000000 1 1.00000000 0.00000000 0.00000000 0.00000000
Neuron 108 3 0.75000000 1 1.00000000 0.00000000 0.00000000 0.00000000
Neuron 129 3 0.75000000 1 1.00000000 0.00000000 0.00000000 0.00000000
Neuron 143 3 0.12500000 1 1.00000000 0.00000000 0.00000000 0.00000000
Neuron 153 3 0.75000000 1 1.00000000 0.00000000 0.00000000 0.00000000
Neuron 205 3 0.87500000 1 1.00000000 0.00000000 0.00000000 0.00000000
Neuron 226 3 0.25000000 1 1.00000000 0.00000000 0.00000000 0.00000000
Neuron 249 3 0.25000000 1 1.00000000 0.00000000 0.00000000 0.00000000
Neuron 254 3 0.75000000 1 1.00000000 0.00000000 0.00000000 0.00000000
Neuron 267 3 0.25000000 1 1.00000000 0.00000000 0.00000000 0.00000000
Neuron 275 3 0.37500000 1 1.00000000 0.00000000 0.00000000 0.00000000
Neuron 286 3 0.25000000 1 1.00000000 0.00000000 0.00000000 0.00000000
Neuron 341 3 0.50000000 1 1.00000000 0.00000000 0.00000000 0.00000000
Neuron 348 3 0.75000000 1 1.00000000 0.00000000 0.00000000 0.00000000
Neuron 413 3 0.75000000 1 1.00000000 0.00000000 0.00000000 0.00000000
Neuron 417 3 0.25000000 1 1.00000000 0.00000000 0.00000000 0.00000000
Neuron 474 3 0.25000000 1 1.00000000 0.00000000 0.00000000 0.00000000
Neuron 543 3 0.25000000 1 1.00000000 0.00000000 0.00000000 0.00000000
Neuron 549 3 0.87500000 1 1.00000000 0.00000000 0.00000000 0.00000000
Neuron 564 3 0.50000000 1 1.00000000 0.00000000 0.00000000 0.00000000
Neuron 586 3 0.93750000 1 1.00000000 0.00000000 0.00000000 0.00000000
Neuron 612 3 0.37500000 1 1.00000000 0.00000000 0.00000000 0.00000000
Neuron 677 3 0.62500000 1 1.00000000 0.00000000 0.00000000 0.00000000
Neuron 678 3 0.84375000 1 1.00000000 0.00000000 0.00000000 0.00000000
Neuron 686 3 0.75000000 1 1.00000000 0.00000000 0.00000000 0.00000000
Neuron 692 3 0.56250000 1 1.00000000 0.00000000 0.00000000 0.00000000
Neuron 717 3 0.75000000 1 1.00000000 0.00000000 0.00000000 0.00000000
Neuron 740 3 0.50000000 1 1.00000000 0.00000000 0.00000000 0.00000000
Neuron 762 3 0.37500000 1 1.00000000 0.00000000 0.00000000 0.00000000
Neuron 763 3 0.62500000 1 1.00000000 0.00000000 0.00000000 0.00000000
Neuron 774 3 0.12500000 1 1.00000000 0.00000000 0.00000000 0.00000000
Neuron 793 3 0.62500000 1 1.00000000 0.00000000 0.00000000 0.00000000
Neuron 823 3 0.56250000 1 1.00000000 0.00000000 0.00000000 0.00000000
Neuron 880 3 0.50000000 1 1.00000000 0.00000000 0.00000000 0.00000000
Neuron 1011 3 0.50000000 1 1.00000000 0.00000000 0.00000000 0.00000000
Neuron 1023 3 0.37500000 1 1.00000000 0.00000000 0.00000000 0.00000000
Neuron 1063 3 0.37500000 1 1.00000000 0.00000000 0.00000000 0.00000000
Neuron 1126 3 0.68750000 1 1.00000000 0.00000000 0.00000000 0.00000000
Neuron 1134 3 0.68750000 1 1.00000000 0.00000000 0.00000000 0.00000000
Neuron 1194 3 0.25000000 1 1.00000000 0.00000000 0.00000000 0.00000000
Neuron 1302 3 0.56250000 1 1.00000000 0.00000000 0.00000000 0.00000000
Neuron 1318 3 0.87500000 1 1.00000000 0.00000000 0.00000000 0.00000000
Neuron 1322 3 0.18750000 1 1.00000000 0.00000000 0.00000000 0.00000000
Neuron 1458 3 0.56250000 1 1.00000000 0.00000000 0.00000000 0.00000000
Neuron 1501 3 0.68750000 1 1.00000000 0.00000000 0.00000000 0.00000000
Neuron 1599 3 0.62500000 1 1.00000000 0.00000000 0.00000000 0.00000000
Link 1 10 1 0 1.10782149
Link 3 10 3 0 0.51697632
Link 4 10 4 0 -3.78057597
Link 5 10 5 0 -0.77648814
Link 6 10 6 0 -2.07042071
Link 7 10 7 0 -3.82547585
Link 8 10 8 0 -0.72002728
Link 9 10 9 0 -0.53335845
Link 1 11 10 0 0.75660777
Link 2 11 11 0 3.88315687
Link 3 11 12 0 2.96670478
Link 4 11 13 0 -2.24298540
Link 7 11 16 0 1.22456287
Link 8 11 17 0 -0.51107868
Link 9 11 18 0 -1.92904510
Link 1 12 19 0 1.97325280
Link 2 12 20 0 -0.02079906
Link 3 12 21 0 2.51669210
Link 4 12 22 0 -0.07265039
Link 5 12 23 0 2.41588368
Link 6 12 24 0 -5.28264273
Link 8 12 26 0 -5.32405920
Link 9 12 27 0 -1.77009531
Link 2 13 29 0 5.84229627
Link 4 13 31 0 -1.52136204
Link 7 13 34 0 2.98350464
Link 9 13 36 0 0.20620618
Link 1 14 37 0 -1.94581477
Link 2 14 38 0 2.12921832
Link 3 14 39 0 1.73599150
Link 6 14 42 0 2.50855186
Link 7 14 43 0 -0.64817559
Link 9 14 45 0 1.97015024
Link 1 15 46 0 -0.13968288
Link 2 15 47 0 1.74977903
Link 3 15 48 0 1.03548827
Link 4 15 49 0 0.04752751
Link 5 15 50 0 -2.47638551
Link 7 15 52 0 -1.84814342
Link 8 15 53 0 0.26963766
Link 9 15 54 0 0.16960501
Link 1 16 55 0 -0.30300612
Link 4 16 58 0 0.26021932
Link 7 16 61 0 -0.54719733
Link 9 16 63 0 -4.21027623
Link 8 29 102 0 2.81330430
Link 29 14 103 0 3.90349949
Link 13 13 110 1 1.51440237
Link 35 11 123 0 0.39665828
Link 8 41 141 0 0.87528288
Link 41 16 142 0 -1.66246148
Link 3 44 152 0 -3.50386158
Link 12 12 173 1 0.20060446
Link 28 58 214 0 1.46105800
Link 58 14 215 0 0.25959976
Link 4 37 246 0 -2.91705202
Link 64 13 255 0 -2.72541952
Link 3 67 273 0 0.25085798
Link 5 69 283 0 0.03890663
Link 69 14 284 0 -0.41965816
Link 72 63 307 0 -0.56680637
Link 5 80 393 0 1.25785542
Link 80 16 394 0 -0.37917894
Link 6 28 401 0 -1.05308013
Link 12 63 415 1 -0.85207981
Link 2 69 452 0 -0.32503823
Link 89 35 474 0 -1.71822616
Link 63 14 490 0 -2.19891215
Link 8 37 520 0 6.53016857
Link 100 10 575 0 0.91831258
Link 6 105 613 0 0.66119400
Link 105 37 614 0 -0.42445928
Link 108 13 636 0 0.29041168
Link 15 63 688 1 -0.51703185
Link 44 129 755 0 1.24914567
Link 129 13 756 0 -1.38941866
Link 5 143 902 0 0.96927796
Link 143 89 903 0 1.44846491
Link 7 63 933 0 -4.74203471
Link 63 153 968 0 -0.07401765
Link 63 44 1290 0 -0.24346118
Link 153 205 1292 0 0.39344779
Link 8 226 1424 0 0.38866655
Link 12 72 1502 1 5.31848814
Link 3 249 1673 0 -1.42448947
Link 249 60 1674 0 0.70947983
Link 67 254 1706 0 1.07391629
Link 4 267 1781 0 1.16268189
Link 267 28 1782 0 -2.17318199
Link 13 60 1813 1 2.41161885
Link 8 275 1833 0 0.52580449
Link 5 286 1917 0 0.57331122
Link 286 44 1918 0 -2.84030370
Link 341 63 2280 0 0.65533994
Link 14 348 2321 1 1.39971523
Link 348 60 2322 1 -0.68621541
Link 15 413 2819 1 1.02802342
Link 3 474 3138 0 -1.26117442
Link 474 63 3139 0 0.98644938
Link 15 28 3239 1 -2.98680354
Link 6 543 3601 0 1.13797659
Link 543 44 3602 0 2.37569044
Link 254 549 3631 0 1.15866963
Link 549 16 3632 0 1.04174892
Link 60 564 3753 0 2.34634615
Link 564 564 3765 1 -1.69175838
Link 63 60 3819 0 -3.34005893
Link 205 586 3940 0 1.31468274
Link 586 13 3941 0 2.34151618
Link 226 612 4112 0 0.88941704
Link 612 64 4113 0 -0.88216022
Link 3 205 4348 0 1.98916935
Link 341 341 4538 1 0.33050685
Link 413 677 4584 1 1.81546690
Link 6 586 4586 0 0.66525516
Link 586 678 4588 1 0.69425090
Link 678 108 4589 1 -0.15525339
Link 686 37 4641 1 -0.53143826
Link 153 564 4643 1 -3.15648309
Link 677 692 4669 1 1.09330957
Link 692 37 4670 1 -1.59640941
Link 64 717 4820 0 0.62679982
Link 717 10 4821 0 -0.41670109
Link 100 28 4922 1 -2.46396497
Link 29 740 4957 1 1.16629682
Link 740 29 4958 1 -1.08692555
Link 4 226 4989 0 -0.40967490
Link 417 762 5095 0 1.68039003
Link 762 37 5096 0 2.73150239
Link 60 763 5099 0 0.60255079
Link 5 774 5224 0 1.64137564
Link 564 37 5442 0 -0.31067314
Link 37 823 5605 0 1.07545991
Link 823 793 5606 0 1.41493079
Link 63 341 5783 0 5.10168171
Link 677 205 5923 0 0.20183879
Link 564 880 6001 0 1.01053901
Link 880 341 6002 0 -0.37935162
Link 80 60 6398 0 3.10695096
Link 9 417 6662 0 3.03999269
Link 64 153 6873 0 -2.05168933
Link 29 1011 6908 0 1.13779021
Link 1011 60 6909 0 -0.66336676
Link 226 1023 6999 0 0.66701348
Link 1023 60 7000 0 -0.28715787
Link 72 1063 7303 0 1.00915521
Link 1063 341 7304 0 -1.37339264
Link 67 564 7454 0 0.06819037
Link 717 80 7584 1 2.20051454
Link 823 72 7669 1 -3.39770395
Link 793 1126 7795 0 1.02558182
Link 1126 108 7796 0 -2.56935806
Link 793 1134 7834 0 1.00000000
Link 1134 100 7835 0 -1.37656570
Link 1126 678 8146 0 1.48827501
Link 3 1194 8247 0 0.41594622
Link 1194 35 8248 0 -0.79689234
Link 2 678 8355 0 0.78163216
Link 474 29 8532 0 2.08677325
Link 686 10 8629 0 -0.99474459
Link 226 100 8890 0 1.04923247
Link 67 275 8987 1 -0.73404255
Link 275 1302 9086 0 0.89493711
Link 1302 153 9087 0 2.85887111
Link 69 740 9173 0 3.09822640
Link 11 1318 9189 1 1.11598071
Link 1318 686 9190 1 0.32156225
Link 774 1322 9207 0 1.22633141
Link 1322 417 9208 0 1.61568097
Link 762 762 9298 1 1.26801937
Link 417 67 9933 0 -0.35331560
Link 80 153 10104 0 0.27792527
Link 37 1458 10221 0 0.96144462
Link 1458 763 10222 0 -0.41820133
Link 275 275 10277 1 1.14140489
Link 267 1302 10386 0 -1.39592731
Link 763 1501 10573 0 0.86463607
Link 1501 100 10574 0 1.67219833
Link 413 205 10660 0 0.17519994
Link 1011 677 10774 0 -1.21440693
Link 267 341 10896 0 1.10361328
Link 16 1599 11499 1 1.00000000
Link 1599 226 11500 1 1.85167280
GenomeEnd

