GenomeStart 17907
Neuron 1 1 0.00000000 1 0.00000000 0.00000000 0.00000000 0.00000000
Neuron 2 1 0.00000000 1 0.00000000 0.00000000 0.00000000 0.00000000
Neuron 3 1 0.00000000 1 0.00000000 0.00000000 0.00000000 0.00000000
Neuron 4 1 0.00000000 1 0.00000000 0.00000000 0.00000000 0.00000000
Neuron 5 1 0.00000000 1 0.00000000 0.00000000 0.00000000 0.00000000
Neuron 6 1 0.00000000 1 0.00000000 0.00000000 0.00000000 0.00000000
Neuron 7 1 0.00000000 1 0.00000000 0.00000000 0.00000000 0.00000000
Neuron 8 1 0.00000000 1 0.00000000 0.00000000 0.00000000 0.00000000
Neuron 9 2 0.00000000 1 0.00000000 0.00000000 0.00000000 0.00000000
Neuron 10 4 1.00000000 0 1.00000000 0.00000000 0.00000000 0.00000000
Neuron 11 4 1.00000000 0 1.00000000 0.00000000 0.00000000 0.00000000
Neuron 12 4 1.00000000 0 1.00000000 0.00000000 0.00000000 0.00000000
Neuron 13 4 1.00000000 0 1.00000000 0.00000000 0.00000000 0.00000000
Neuron 14 4 1.00000000 0 1.00000000 0.00000000 0.00000000 0.00000000
Neuron 15 4 1.00000000 0 1.00000000 0.00000000 0.00000000 0.00000000
Neuron 16 4 1.00000000 0 1.00000000 0.00000000 0.00000000 0.00000000
Neuron 18 3 0.50000000 1 1.00000000 0.00000000 0.00000000 0.00000000
Neuron 20 3 0.50000000 1 1.00000000 0.00000000 0.00000000 0.00000000
Neuron 24 3 0.50000000 1 1.00000000 0.00000000 0.00000000 0.00000000
Neuron 43 3 0.50000000 1 1.00000000 0.00000000 0.00000000 0.00000000
Neuron 52 3 0.50000000 1 1.00000000 0.00000000 0.00000000 0.00000000
Neuron 66 3 0.50000000 1 1.00000000 0.00000000 0.00000000 0.00000000
Neuron 70 3 0.50000000 1 1.00000000 0.00000000 0.00000000 0.00000000
Neuron 94 3 0.25000000 1 1.00000000 0.00000000 0.00000000 0.00000000
Neuron 177 3 0.75000000 1 1.00000000 0.00000000 0.00000000 0.00000000
Neuron 197 3 0.75000000 1 1.00000000 0.00000000 0.00000000 0.00000000
Neuron 204 3 0.25000000 1 1.00000000 0.00000000 0.00000000 0.00000000
Neuron 245 3 0.62500000 1 1.00000000 0.00000000 0.00000000 0.00000000
Neuron 285 3 0.87500000 1 1.00000000 0.00000000 0.00000000 0.00000000
Neuron 293 3 0.81250000 1 1.00000000 0.00000000 0.00000000 0.00000000
Link 1 10 1 0 0.49246343
Link 2 10 2 0 0.32784580
Link 3 10 3 0 -3.65365420
Link 4 10 4 0 4.22847975
Link 5 10 5 0 -4.80018618
Link 6 10 6 0 0.53420395
Link 8 10 8 0 -3.70196394
Link 9 10 9 0 -0.30334483
Link 1 11 10 0 1.66317430
Link 2 11 11 0 4.60002506
Link 3 11 12 0 4.35366305
Link 4 11 13 0 0.55029901
Link 6 11 15 0 2.06124442
Link 7 11 16 0 4.56715467
Link 9 11 18 0 0.82996689
Link 1 12 19 0 3.15516902
Link 2 12 20 0 2.07384459
Link 4 12 22 0 0.35309532
Link 5 12 23 0 3.29592807
Link 6 12 24 0 -1.45506059
Link 8 12 26 0 -2.53811844
Link 9 12 27 0 -1.63644767
Link 2 13 29 0 -0.07975843
Link 3 13 30 0 -1.36642616
Link 4 13 31 0 0.70172496
Link 6 13 33 0 2.66460780
Link 7 13 34 0 3.67289598
Link 8 13 35 0 -1.93287186
Link 9 13 36 0 -1.42900457
Link 1 14 37 0 -1.05127537
Link 2 14 38 0 0.26881047
Link 3 14 39 0 -3.90857467
Link 4 14 40 0 0.17131576
Link 5 14 41 0 -1.29050785
Link 6 14 42 0 1.07913821
Link 7 14 43 0 2.18537731
Link 8 14 44 0 -1.21488896
Link 9 14 45 0 -0.20756916
Link 1 15 46 0 -2.66346210
Link 2 15 47 0 0.37978125
Link 4 15 49 0 1.33070087
Link 6 15 51 0 0.22826862
Link 7 15 52 0 -2.99964594
Link 8 15 53 0 3.13258931
Link 9 15 54 0 -0.88082345
Link 1 16 55 0 4.84390254
Link 2 16 56 0 1.25792811
Link 3 16 57 0 -2.38058129
Link 4 16 58 0 2.86183488
Link 5 16 59 0 -0.40975058
Link 6 16 60 0 3.92778340
Link 8 16 62 0 0.82022706
Link 9 16 63 0 -2.73235597
Link 7 18 68 0 -1.89121827
Link 18 14 69 0 1.89458279
Link 20 12 75 0 2.07513427
Link 3 24 86 0 -1.39557261
Link 8 43 146 0 -3.63639676
Link 43 11 147 0 0.81326905
Link 1 52 174 0 1.95644586
Link 52 13 175 0 -1.17522111
Link 3 66 269 0 1.81890158
Link 66 15 270 0 0.56807694
Link 5 70 314 0 0.76537608
Link 70 15 315 0 -0.27132324
Link 10 52 347 1 -0.25103832
Link 9 18 405 0 -2.76818216
Link 1 24 426 0 1.45135045
Link 7 94 544 0 0.07478333
Link 94 20 545 0 3.44292672
Link 18 24 554 0 0.37301399
Link 20 11 582 0 -0.71588603
Link 18 20 938 0 -3.90716386
Link 94 14 961 0 3.52026318
Link 11 177 1209 1 -2.33991928
Link 177 43 1210 1 0.09870918
Link 197 12 1351 0 -0.08098684
Link 7 204 1390 0 -0.13698471
Link 204 24 1391 0 3.12603068
Link 24 245 1626 0 1.29394226
Link 245 197 1627 0 -0.57428630
Link 4 197 1754 0 2.74640768
Link 285 14 1869 0 -0.75546877
Link 177 293 1906 0 0.89980203
Link 293 285 1907 0 0.94372617
Link 3 177 1943 0 -2.19873699
Link 94 94 2074 1 -2.74541463
Link 285 13 2106 0 2.09590760
Link 285 10 2120 0 -1.32630707
Link 6 285 2254 0 -0.53352939
Link 14 204 2399 1 -1.84845652
Link 94 293 2510 0 0.03722669
Link 18 12 2657 0 1.79205963
GenomeEnd

