GenomeStart 112122
Neuron 1 1 0.00000000 1 0.00000000 0.00000000 0.00000000 0.00000000
Neuron 2 1 0.00000000 1 0.00000000 0.00000000 0.00000000 0.00000000
Neuron 3 1 0.00000000 1 0.00000000 0.00000000 0.00000000 0.00000000
Neuron 4 1 0.00000000 1 0.00000000 0.00000000 0.00000000 0.00000000
Neuron 5 1 0.00000000 1 0.00000000 0.00000000 0.00000000 0.00000000
Neuron 6 1 0.00000000 1 0.00000000 0.00000000 0.00000000 0.00000000
Neuron 7 1 0.00000000 1 0.00000000 0.00000000 0.00000000 0.00000000
Neuron 8 1 0.00000000 1 0.00000000 0.00000000 0.00000000 0.00000000
Neuron 9 2 0.00000000 1 0.00000000 0.00000000 0.00000000 0.00000000
Neuron 10 4 1.00000000 0 1.00000000 0.00000000 0.00000000 0.00000000
Neuron 11 4 1.00000000 0 1.00000000 0.00000000 0.00000000 0.00000000
Neuron 12 4 1.00000000 0 1.00000000 0.00000000 0.00000000 0.00000000
Neuron 13 4 1.00000000 0 1.00000000 0.00000000 0.00000000 0.00000000
Neuron 14 4 1.00000000 0 1.00000000 0.00000000 0.00000000 0.00000000
Neuron 15 4 1.00000000 0 1.00000000 0.00000000 0.00000000 0.00000000
Neuron 16 4 1.00000000 0 1.00000000 0.00000000 0.00000000 0.00000000
Neuron 17 3 0.50000000 1 1.00000000 0.00000000 0.00000000 0.00000000
Neuron 18 3 0.50000000 1 1.00000000 0.00000000 0.00000000 0.00000000
Neuron 19 3 0.50000000 1 1.00000000 0.00000000 0.00000000 0.00000000
Neuron 20 3 0.50000000 1 1.00000000 0.00000000 0.00000000 0.00000000
Neuron 22 3 0.50000000 1 1.00000000 0.00000000 0.00000000 0.00000000
Neuron 23 3 0.50000000 1 1.00000000 0.00000000 0.00000000 0.00000000
Neuron 26 3 0.50000000 1 1.00000000 0.00000000 0.00000000 0.00000000
Neuron 27 3 0.50000000 1 1.00000000 0.00000000 0.00000000 0.00000000
Neuron 28 3 0.50000000 1 1.00000000 0.00000000 0.00000000 0.00000000
Neuron 32 3 0.50000000 1 1.00000000 0.00000000 0.00000000 0.00000000
Neuron 33 3 0.50000000 1 1.00000000 0.00000000 0.00000000 0.00000000
Neuron 34 3 0.50000000 1 1.00000000 0.00000000 0.00000000 0.00000000
Neuron 35 3 0.50000000 1 1.00000000 0.00000000 0.00000000 0.00000000
Neuron 36 3 0.50000000 1 1.00000000 0.00000000 0.00000000 0.00000000
Neuron 37 3 0.50000000 1 1.00000000 0.00000000 0.00000000 0.00000000
Neuron 38 3 0.50000000 1 1.00000000 0.00000000 0.00000000 0.00000000
Neuron 39 3 0.50000000 1 1.00000000 0.00000000 0.00000000 0.00000000
Neuron 41 3 0.50000000 1 1.00000000 0.00000000 0.00000000 0.00000000
Neuron 42 3 0.50000000 1 1.00000000 0.00000000 0.00000000 0.00000000
Neuron 43 3 0.50000000 1 1.00000000 0.00000000 0.00000000 0.00000000
Neuron 44 3 0.50000000 1 1.00000000 0.00000000 0.00000000 0.00000000
Neuron 46 3 0.50000000 1 1.00000000 0.00000000 0.00000000 0.00000000
Neuron 48 3 0.50000000 1 1.00000000 0.00000000 0.00000000 0.00000000
Neuron 50 3 0.50000000 1 1.00000000 0.00000000 0.00000000 0.00000000
Neuron 52 3 0.50000000 1 1.00000000 0.00000000 0.00000000 0.00000000
Neuron 53 3 0.50000000 1 1.00000000 0.00000000 0.00000000 0.00000000
Neuron 54 3 0.50000000 1 1.00000000 0.00000000 0.00000000 0.00000000
Neuron 56 3 0.50000000 1 1.00000000 0.00000000 0.00000000 0.00000000
Neuron 58 3 0.50000000 1 1.00000000 0.00000000 0.00000000 0.00000000
Neuron 59 3 0.50000000 1 1.00000000 0.00000000 0.00000000 0.00000000
Neuron 60 3 0.50000000 1 1.00000000 0.00000000 0.00000000 0.00000000
Neuron 63 3 0.50000000 1 1.00000000 0.00000000 0.00000000 0.00000000
Neuron 64 3 0.75000000 1 1.00000000 0.00000000 0.00000000 0.00000000
Neuron 65 3 0.50000000 1 1.00000000 0.00000000 0.00000000 0.00000000
Neuron 67 3 0.50000000 1 1.00000000 0.00000000 0.00000000 0.00000000
Neuron 68 3 0.50000000 1 1.00000000 0.00000000 0.00000000 0.00000000
Neuron 70 3 0.50000000 1 1.00000000 0.00000000 0.00000000 0.00000000
Neuron 71 3 0.50000000 1 1.00000000 0.00000000 0.00000000 0.00000000
Neuron 76 3 0.75000000 1 1.00000000 0.00000000 0.00000000 0.00000000
Neuron 77 3 0.25000000 1 1.00000000 0.00000000 0.00000000 0.00000000
Neuron 80 3 0.25000000 1 1.00000000 0.00000000 0.00000000 0.00000000
Neuron 82 3 0.25000000 1 1.00000000 0.00000000 0.00000000 0.00000000
Neuron 84 3 0.50000000 1 1.00000000 0.00000000 0.00000000 0.00000000
Neuron 89 3 0.75000000 1 1.00000000 0.00000000 0.00000000 0.00000000
Neuron 92 3 0.87500000 1 1.00000000 0.00000000 0.00000000 0.00000000
Neuron 98 3 0.75000000 1 1.00000000 0.00000000 0.00000000 0.00000000
Neuron 100 3 0.75000000 1 1.00000000 0.00000000 0.00000000 0.00000000
Neuron 106 3 0.25000000 1 1.00000000 0.00000000 0.00000000 0.00000000
Neuron 117 3 0.50000000 1 1.00000000 0.00000000 0.00000000 0.00000000
Neuron 121 3 0.25000000 1 1.00000000 0.00000000 0.00000000 0.00000000
Neuron 126 3 0.50000000 1 1.00000000 0.00000000 0.00000000 0.00000000
Neuron 127 3 0.75000000 1 1.00000000 0.00000000 0.00000000 0.00000000
Neuron 135 3 0.75000000 1 1.00000000 0.00000000 0.00000000 0.00000000
Neuron 138 3 0.25000000 1 1.00000000 0.00000000 0.00000000 0.00000000
Neuron 147 3 0.25000000 1 1.00000000 0.00000000 0.00000000 0.00000000
Neuron 155 3 0.25000000 1 1.00000000 0.00000000 0.00000000 0.00000000
Neuron 158 3 0.87500000 1 1.00000000 0.00000000 0.00000000 0.00000000
Neuron 162 3 0.75000000 1 1.00000000 0.00000000 0.00000000 0.00000000
Neuron 164 3 0.75000000 1 1.00000000 0.00000000 0.00000000 0.00000000
Neuron 169 3 0.25000000 1 1.00000000 0.00000000 0.00000000 0.00000000
Neuron 170 3 0.25000000 1 1.00000000 0.00000000 0.00000000 0.00000000
Neuron 182 3 0.37500000 1 1.00000000 0.00000000 0.00000000 0.00000000
Neuron 189 3 0.75000000 1 1.00000000 0.00000000 0.00000000 0.00000000
Neuron 199 3 0.75000000 1 1.00000000 0.00000000 0.00000000 0.00000000
Neuron 201 3 0.25000000 1 1.00000000 0.00000000 0.00000000 0.00000000
Neuron 209 3 0.25000000 1 1.00000000 0.00000000 0.00000000 0.00000000
Neuron 210 3 0.25000000 1 1.00000000 0.00000000 0.00000000 0.00000000
Neuron 212 3 0.75000000 1 1.00000000 0.00000000 0.00000000 0.00000000
Neuron 225 3 0.50000000 1 1.00000000 0.00000000 0.00000000 0.00000000
Neuron 237 3 0.25000000 1 1.00000000 0.00000000 0.00000000 0.00000000
Neuron 251 3 1.00000000 1 1.00000000 0.00000000 0.00000000 0.00000000
Neuron 259 3 0.62500000 1 1.00000000 0.00000000 0.00000000 0.00000000
Neuron 260 3 0.50000000 1 1.00000000 0.00000000 0.00000000 0.00000000
Neuron 262 3 0.25000000 1 1.00000000 0.00000000 0.00000000 0.00000000
Neuron 268 3 0.87500000 1 1.00000000 0.00000000 0.00000000 0.00000000
Neuron 277 3 0.25000000 1 1.00000000 0.00000000 0.00000000 0.00000000
Neuron 287 3 0.25000000 1 1.00000000 0.00000000 0.00000000 0.00000000
Neuron 289 3 0.50000000 1 1.00000000 0.00000000 0.00000000 0.00000000
Neuron 299 3 0.75000000 1 1.00000000 0.00000000 0.00000000 0.00000000
Neuron 319 3 0.50000000 1 1.00000000 0.00000000 0.00000000 0.00000000
Neuron 332 3 0.25000000 1 1.00000000 0.00000000 0.00000000 0.00000000
Neuron 352 3 0.12500000 1 1.00000000 0.00000000 0.00000000 0.00000000
Neuron 364 3 0.50000000 1 1.00000000 0.00000000 0.00000000 0.00000000
Neuron 376 3 0.50000000 1 1.00000000 0.00000000 0.00000000 0.00000000
Neuron 387 3 0.87500000 1 1.00000000 0.00000000 0.00000000 0.00000000
Neuron 397 3 0.75000000 1 1.00000000 0.00000000 0.00000000 0.00000000
Neuron 407 3 0.50000000 1 1.00000000 0.00000000 0.00000000 0.00000000
Neuron 419 3 0.50000000 1 1.00000000 0.00000000 0.00000000 0.00000000
Neuron 436 3 0.50000000 1 1.00000000 0.00000000 0.00000000 0.00000000
Neuron 442 3 0.87500000 1 1.00000000 0.00000000 0.00000000 0.00000000
Neuron 454 3 0.12500000 1 1.00000000 0.00000000 0.00000000 0.00000000
Neuron 476 3 0.50000000 1 1.00000000 0.00000000 0.00000000 0.00000000
Neuron 478 3 0.50000000 1 1.00000000 0.00000000 0.00000000 0.00000000
Neuron 480 3 0.50000000 1 1.00000000 0.00000000 0.00000000 0.00000000
Neuron 485 3 0.75000000 1 1.00000000 0.00000000 0.00000000 0.00000000
Neuron 490 3 0.81250000 1 1.00000000 0.00000000 0.00000000 0.00000000
Neuron 498 3 0.93750000 1 1.00000000 0.00000000 0.00000000 0.00000000
Neuron 501 3 0.50000000 1 1.00000000 0.00000000 0.00000000 0.00000000
Neuron 532 3 0.25000000 1 1.00000000 0.00000000 0.00000000 0.00000000
Neuron 538 3 0.75000000 1 1.00000000 0.00000000 0.00000000 0.00000000
Neuron 553 3 0.87500000 1 1.00000000 0.00000000 0.00000000 0.00000000
Neuron 560 3 0.12500000 1 1.00000000 0.00000000 0.00000000 0.00000000
Neuron 567 3 0.75000000 1 1.00000000 0.00000000 0.00000000 0.00000000
Neuron 588 3 0.75000000 1 1.00000000 0.00000000 0.00000000 0.00000000
Neuron 589 3 0.25000000 1 1.00000000 0.00000000 0.00000000 0.00000000
Neuron 605 3 0.37500000 1 1.00000000 0.00000000 0.00000000 0.00000000
Neuron 669 3 0.62500000 1 1.00000000 0.00000000 0.00000000 0.00000000
Neuron 684 3 0.50000000 1 1.00000000 0.00000000 0.00000000 0.00000000
Neuron 735 3 0.75000000 1 1.00000000 0.00000000 0.00000000 0.00000000
Neuron 737 3 0.50000000 1 1.00000000 0.00000000 0.00000000 0.00000000
Neuron 738 3 0.62500000 1 1.00000000 0.00000000 0.00000000 0.00000000
Neuron 745 3 0.81250000 1 1.00000000 0.00000000 0.00000000 0.00000000
Neuron 759 3 0.37500000 1 1.00000000 0.00000000 0.00000000 0.00000000
Neuron 777 3 0.37500000 1 1.00000000 0.00000000 0.00000000 0.00000000
Neuron 809 3 0.37500000 1 1.00000000 0.00000000 0.00000000 0.00000000
Neuron 871 3 0.68750000 1 1.00000000 0.00000000 0.00000000 0.00000000
Neuron 916 3 0.68750000 1 1.00000000 0.00000000 0.00000000 0.00000000
Neuron 925 3 0.50000000 1 1.00000000 0.00000000 0.00000000 0.00000000
Neuron 934 3 0.12500000 1 1.00000000 0.00000000 0.00000000 0.00000000
Neuron 940 3 0.37500000 1 1.00000000 0.00000000 0.00000000 0.00000000
Neuron 947 3 0.75000000 1 1.00000000 0.00000000 0.00000000 0.00000000
Neuron 948 3 0.75000000 1 1.00000000 0.00000000 0.00000000 0.00000000
Neuron 956 3 0.50000000 1 1.00000000 0.00000000 0.00000000 0.00000000
Neuron 960 3 0.12500000 1 1.00000000 0.00000000 0.00000000 0.00000000
Neuron 979 3 0.31250000 1 1.00000000 0.00000000 0.00000000 0.00000000
Neuron 994 3 0.06250000 1 1.00000000 0.00000000 0.00000000 0.00000000
Neuron 1004 3 0.50000000 1 1.00000000 0.00000000 0.00000000 0.00000000
Neuron 1027 3 0.12500000 1 1.00000000 0.00000000 0.00000000 0.00000000
Neuron 1030 3 0.37500000 1 1.00000000 0.00000000 0.00000000 0.00000000
Neuron 1052 3 0.50000000 1 1.00000000 0.00000000 0.00000000 0.00000000
Neuron 1062 3 0.12500000 1 1.00000000 0.00000000 0.00000000 0.00000000
Neuron 1075 3 0.56250000 1 1.00000000 0.00000000 0.00000000 0.00000000
Neuron 1084 3 0.75000000 1 1.00000000 0.00000000 0.00000000 0.00000000
Neuron 1093 3 0.25000000 1 1.00000000 0.00000000 0.00000000 0.00000000
Neuron 1096 3 0.62500000 1 1.00000000 0.00000000 0.00000000 0.00000000
Neuron 1116 3 0.18750000 1 1.00000000 0.00000000 0.00000000 0.00000000
Neuron 1151 3 0.62500000 1 1.00000000 0.00000000 0.00000000 0.00000000
Neuron 1197 3 0.50000000 1 1.00000000 0.00000000 0.00000000 0.00000000
Neuron 1245 3 0.25000000 1 1.00000000 0.00000000 0.00000000 0.00000000
Neuron 1253 3 0.12500000 1 1.00000000 0.00000000 0.00000000 0.00000000
Neuron 1259 3 0.25000000 1 1.00000000 0.00000000 0.00000000 0.00000000
Neuron 1270 3 0.37500000 1 1.00000000 0.00000000 0.00000000 0.00000000
Neuron 1306 3 0.50000000 1 1.00000000 0.00000000 0.00000000 0.00000000
Neuron 1348 3 0.37500000 1 1.00000000 0.00000000 0.00000000 0.00000000
Neuron 1392 3 0.75000000 1 1.00000000 0.00000000 0.00000000 0.00000000
Neuron 1444 3 0.25000000 1 1.00000000 0.00000000 0.00000000 0.00000000
Neuron 1479 3 0.87500000 1 1.00000000 0.00000000 0.00000000 0.00000000
Neuron 1498 3 0.50000000 1 1.00000000 0.00000000 0.00000000 0.00000000
Neuron 1502 3 0.62500000 1 1.00000000 0.00000000 0.00000000 0.00000000
Neuron 1545 3 0.37500000 1 1.00000000 0.00000000 0.00000000 0.00000000
Neuron 1584 3 0.56250000 1 1.00000000 0.00000000 0.00000000 0.00000000
Neuron 1602 3 0.50000000 1 1.00000000 0.00000000 0.00000000 0.00000000
Neuron 1630 3 0.43750000 1 1.00000000 0.00000000 0.00000000 0.00000000
Neuron 1637 3 0.93750000 1 1.00000000 0.00000000 0.00000000 0.00000000
Neuron 1679 3 0.37500000 1 1.00000000 0.00000000 0.00000000 0.00000000
Neuron 1703 3 0.68750000 1 1.00000000 0.00000000 0.00000000 0.00000000
Neuron 1723 3 0.50000000 1 1.00000000 0.00000000 0.00000000 0.00000000
Neuron 1737 3 0.50000000 1 1.00000000 0.00000000 0.00000000 0.00000000
Neuron 1739 3 0.50000000 1 1.00000000 0.00000000 0.00000000 0.00000000
Neuron 1762 3 0.56250000 1 1.00000000 0.00000000 0.00000000 0.00000000
Neuron 1847 3 0.75000000 1 1.00000000 0.00000000 0.00000000 0.00000000
Neuron 1939 3 0.50000000 1 1.00000000 0.00000000 0.00000000 0.00000000
Neuron 1962 3 0.43750000 1 1.00000000 0.00000000 0.00000000 0.00000000
Neuron 2042 3 0.53125000 1 1.00000000 0.00000000 0.00000000 0.00000000
Neuron 2056 3 0.62500000 1 1.00000000 0.00000000 0.00000000 0.00000000
Neuron 2103 3 0.50000000 1 1.00000000 0.00000000 0.00000000 0.00000000
Neuron 2161 3 0.87500000 1 1.00000000 0.00000000 0.00000000 0.00000000
Neuron 2203 3 0.62500000 1 1.00000000 0.00000000 0.00000000 0.00000000
Neuron 2221 3 0.68750000 1 1.00000000 0.00000000 0.00000000 0.00000000
Link 1 10 1 0 -1.59897172
Link 2 10 2 0 -0.26012939
Link 3 10 3 0 -0.00915190
Link 4 10 4 0 1.90867239
Link 7 10 7 0 2.14266971
Link 8 10 8 0 -1.27668721
Link 9 10 9 0 -2.33877737
Link 1 11 10 0 -2.51589827
Link 6 11 15 0 2.72747133
Link 9 11 18 0 -3.34571087
Link 1 12 19 0 -2.24152776
Link 3 12 21 0 -0.07871315
Link 4 12 22 0 -0.59905879
Link 5 12 23 0 -3.06742906
Link 6 12 24 0 -1.26755313
Link 8 12 26 0 1.30167503
Link 1 13 28 0 0.03827571
Link 2 13 29 0 -1.50062473
Link 3 13 30 0 1.23840508
Link 5 13 32 0 1.53734680
Link 6 13 33 0 -4.08277039
Link 8 13 35 0 0.74859660
Link 1 14 37 0 -1.61526534
Link 2 14 38 0 0.14481148
Link 5 14 41 0 -0.33703277
Link 7 14 43 0 2.91643713
Link 8 14 44 0 1.21769682
Link 9 14 45 0 -0.74908268
Link 1 15 46 0 -2.69994501
Link 3 15 48 0 2.73031993
Link 4 15 49 0 0.54248604
Link 9 15 54 0 -2.05972725
Link 1 16 55 0 2.23381497
Link 3 16 57 0 0.28488214
Link 4 16 58 0 -1.96335310
Link 5 16 59 0 -0.52197830
Link 7 16 61 0 -2.02183960
Link 8 17 65 0 -0.88647620
Link 17 16 66 0 3.04158577
Link 18 14 69 0 -2.03597380
Link 6 19 71 0 -0.24769846
Link 19 10 72 0 0.53035660
Link 7 20 74 0 -1.48515286
Link 20 12 75 0 1.02153301
Link 7 22 80 0 4.33415250
Link 22 11 81 0 -1.97749637
Link 4 23 83 0 3.07117160
Link 23 15 84 0 -1.84827232
Link 2 26 93 0 -1.93998492
Link 26 14 94 0 2.11173114
Link 27 14 97 0 0.95268050
Link 28 11 100 0 -0.98120212
Link 4 33 114 0 2.21658428
Link 5 34 117 0 0.37608310
Link 34 11 118 0 -2.01074317
Link 4 35 120 0 0.03877724
Link 2 36 123 0 -1.14639752
Link 6 37 126 0 -0.88615849
Link 37 11 127 0 -1.71729179
Link 4 38 129 0 -0.72174109
Link 38 14 130 0 -1.98328983
Link 39 16 133 0 1.07850749
Link 41 14 140 0 2.54174893
Link 7 42 143 0 0.53283172
Link 8 43 146 0 0.14241149
Link 43 11 147 0 1.33102147
Link 8 44 149 0 1.28392851
Link 8 46 155 0 1.73607057
Link 48 10 162 0 1.49770295
Link 50 16 168 0 3.57844275
Link 52 13 175 0 0.91073458
Link 8 42 176 0 0.24159474
Link 1 53 178 0 4.42860356
Link 46 10 191 0 0.51199609
Link 56 13 194 0 3.18914251
Link 12 46 195 1 1.71060424
Link 58 15 203 0 0.21771699
Link 3 59 210 0 1.13442799
Link 5 60 214 0 -0.95995926
Link 60 10 215 0 3.57575924
Link 9 22 222 0 0.24668709
Link 23 10 228 0 1.02562376
Link 6 63 246 0 -0.80321361
Link 63 16 247 0 -2.30867690
Link 42 64 250 0 -2.66043807
Link 2 65 261 0 0.07443043
Link 65 15 262 0 0.28753968
Link 67 13 273 0 -1.23855393
Link 36 13 290 0 0.85760863
Link 6 27 291 0 -1.19060875
Link 2 68 303 0 3.01374209
Link 68 11 304 0 0.99840328
Link 70 15 315 0 -0.05746911
Link 28 28 343 1 0.28439050
Link 52 11 346 0 -0.80654925
Link 46 76 350 0 2.05720186
Link 6 77 358 0 -0.12124094
Link 77 41 359 0 0.13642846
Link 8 80 391 0 -0.13623512
Link 80 27 392 0 1.38052209
Link 1 82 409 0 -0.34925071
Link 7 84 422 0 -2.22895119
Link 84 16 423 0 -0.63774288
Link 11 36 435 1 1.97437534
Link 52 52 465 1 -0.62405333
Link 35 89 489 0 -3.23123504
Link 89 13 490 0 -3.47389868
Link 46 12 511 0 0.65129071
Link 64 92 519 0 1.45847500
Link 92 15 520 0 0.58836398
Link 46 14 531 0 -1.80065528
Link 44 98 592 0 1.81038995
Link 36 100 609 0 -1.02405904
Link 100 12 610 0 -2.30083297
Link 3 106 667 0 -2.25702664
Link 15 42 714 1 2.61866193
Link 28 117 762 0 0.92735655
Link 117 52 763 0 2.31283998
Link 2 126 817 0 0.27915546
Link 54 127 824 0 -0.87276731
Link 127 15 825 0 -3.44082410
Link 3 52 832 0 2.47237362
Link 7 67 841 0 0.60626283
Link 135 56 878 1 -2.42864305
Link 6 138 889 0 2.11601814
Link 138 58 890 0 -0.86857128
Link 2 22 893 0 -0.42834868
Link 147 18 973 0 1.40451517
Link 13 53 1001 1 -0.44353503
Link 53 67 1032 0 -4.66210578
Link 98 158 1075 0 1.39120518
Link 158 12 1076 0 0.44521250
Link 71 162 1104 0 8.08965132
Link 162 13 1105 0 0.17346399
Link 164 10 1111 0 -0.64709105
Link 169 50 1150 0 0.06862453
Link 2 170 1153 0 0.75909809
Link 170 67 1154 0 0.78726633
Link 32 14 1194 0 2.04327604
Link 182 48 1241 0 1.20268364
Link 28 39 1313 0 -2.87651009
Link 32 199 1358 0 0.90372920
Link 201 32 1374 0 1.12209733
Link 209 67 1418 0 1.37666691
Link 53 76 1419 0 -2.73997750
Link 5 210 1422 0 -0.54959582
Link 210 70 1423 0 -1.73936747
Link 59 212 1440 0 -3.45497034
Link 212 14 1441 0 1.75447768
Link 135 13 1456 0 1.52764587
Link 225 22 1509 0 -2.39608301
Link 19 11 1593 0 1.23862807
Link 8 34 1623 0 0.04843662
Link 15 251 1662 1 -3.62123019
Link 251 15 1663 1 0.43826264
Link 39 259 1695 0 0.73173370
Link 36 68 1700 0 -1.94409534
Link 7 262 1707 0 -0.77269821
Link 262 71 1708 0 0.63013859
Link 13 268 1757 1 -1.73957184
Link 3 277 1799 0 -1.78070105
Link 277 56 1800 0 1.89734576
Link 3 287 1877 0 -0.60489151
Link 7 289 1884 0 -1.13775106
Link 15 32 1939 1 3.27481758
Link 13 299 1949 1 0.26763814
Link 7 319 2100 0 3.81444270
Link 319 11 2101 0 6.60862926
Link 17 33 2129 0 1.17985731
Link 54 84 2176 0 -2.06368056
Link 2 352 2323 0 0.50935329
Link 352 169 2324 0 -0.36517317
Link 54 364 2392 0 -1.95419015
Link 364 22 2393 0 -2.12942677
Link 54 54 2403 1 1.17412957
Link 189 387 2530 0 0.64164256
Link 387 16 2531 0 2.13650060
Link 46 397 2613 0 1.73728135
Link 397 15 2614 0 0.45844750
Link 44 407 2696 0 -0.38695947
Link 46 52 2760 0 1.99227969
Link 6 419 2787 0 0.66733509
Link 63 15 2820 0 0.91486511
Link 2 436 2903 0 0.28350670
Link 436 12 2904 0 -1.33130717
Link 76 442 2927 0 -0.74109100
Link 22 76 3000 0 2.23844446
Link 6 454 3018 0 -0.33179977
Link 454 209 3019 0 3.36689120
Link 5 106 3079 0 -1.72796597
Link 376 476 3163 0 1.98196266
Link 476 225 3164 0 3.50266263
Link 22 478 3189 0 -0.64625789
Link 478 27 3190 0 -0.55377907
Link 480 63 3207 0 1.42636470
Link 16 485 3238 1 -1.27471123
Link 48 27 3261 0 -2.78123255
Link 76 490 3263 0 -0.71645670
Link 490 442 3264 0 0.31968152
Link 28 26 3288 0 -0.65298706
Link 442 498 3335 0 0.66965269
Link 498 15 3336 0 1.23390264
Link 44 501 3376 0 -0.96134910
Link 501 84 3377 0 0.27673973
Link 23 268 3393 0 0.95213292
Link 12 54 3467 1 -0.26895428
Link 8 251 3552 0 -0.17452168
Link 3 532 3627 0 -0.11922560
Link 260 538 3673 0 -1.97200244
Link 199 553 3781 0 -1.21577985
Link 553 13 3782 0 2.72882806
Link 1 560 3826 0 -3.06590270
Link 560 121 3827 0 1.66001101
Link 567 14 3867 0 0.50056641
Link 7 589 4035 0 -1.01587377
Link 36 605 4164 1 -3.25380762
Link 605 209 4165 1 0.82096444
Link 41 225 4455 0 -0.28548437
Link 28 684 4826 0 1.24045540
Link 684 23 4827 0 1.26291587
Link 84 17 4896 0 -0.01372918
Link 121 71 5179 0 1.07648241
Link 76 735 5224 0 -0.50419588
Link 735 199 5225 0 -0.53587775
Link 28 737 5236 0 2.31616012
Link 737 48 5237 0 1.98788308
Link 189 738 5239 1 -0.05054885
Link 268 745 5288 1 -0.68186815
Link 745 135 5289 1 -1.42199306
Link 289 100 5354 0 0.97776296
Link 287 759 5393 0 1.28945364
Link 759 39 5394 0 0.77381748
Link 532 777 5558 0 -1.48930501
Link 777 56 5559 0 2.04717266
Link 237 809 5803 0 -0.44210538
Link 809 28 5804 0 1.26879100
Link 67 289 6231 0 -1.48530750
Link 52 871 6259 0 0.36532088
Link 871 268 6260 0 2.54616394
Link 5 442 6511 0 1.54123939
Link 485 916 6586 1 -0.72832532
Link 916 669 6587 1 0.02001788
Link 36 925 6643 0 0.09301121
Link 925 26 6644 0 -1.29336223
Link 16 121 6684 1 1.41099250
Link 155 940 6755 0 -2.34383536
Link 940 46 6756 0 2.89038243
Link 37 36 6758 0 2.42021998
Link 64 947 6819 0 0.97147212
Link 947 76 6820 0 0.64562272
Link 39 948 6822 0 0.79766796
Link 948 251 6823 0 1.04523153
Link 37 956 6928 0 -2.66987949
Link 209 189 6967 0 -2.53513616
Link 5 960 6978 0 2.13271487
Link 960 201 6979 0 -0.59933608
Link 67 26 7035 0 -0.77928879
Link 98 387 7108 0 -4.10901710
Link 106 979 7155 0 -1.89763468
Link 979 182 7156 0 -1.33148074
Link 7 994 7282 0 0.27959135
Link 994 934 7283 0 1.10441350
Link 127 48 7364 1 -0.31527673
Link 553 289 7397 1 1.31937996
Link 407 1004 7399 0 -0.82913307
Link 1004 480 7400 0 -0.15849229
Link 4 1027 7553 0 2.41590421
Link 1027 237 7554 0 -2.26247351
Link 121 1030 7592 0 -0.00748657
Link 1030 52 7593 0 -0.64251501
Link 34 1052 7754 0 0.44260552
Link 1052 18 7755 0 -1.57925502
Link 26 199 7823 0 -3.01079929
Link 5 1062 7838 0 0.03891700
Link 1062 332 7839 0 -1.80713812
Link 934 10 7914 0 1.99105445
Link 669 1075 7958 1 0.47259389
Link 1075 46 7959 1 0.60473124
Link 26 98 7969 0 1.31817922
Link 201 237 8027 0 -2.48045077
Link 419 1084 8063 0 2.72752553
Link 1084 16 8064 0 -1.38134717
Link 376 18 8068 0 -1.16126559
Link 237 1093 8184 0 1.19481478
Link 1093 121 8185 0 -2.43467016
Link 53 1096 8221 0 1.81291738
Link 1096 98 8222 0 -1.13493003
Link 934 1116 8422 0 1.00055885
Link 1116 155 8423 0 0.84853861
Link 41 948 8645 0 1.34844199
Link 28 490 8682 0 -0.58885886
Link 54 71 8684 0 0.01773989
Link 121 135 8749 0 -1.12985352
Link 1151 67 8761 1 0.71152141
Link 33 53 8811 0 -0.38726115
Link 39 940 8875 1 0.05034220
Link 155 155 8899 1 -0.95674726
Link 735 299 8914 0 -3.05941817
Link 956 1197 9163 0 0.80949151
Link 1197 376 9164 0 1.18638619
Link 15 155 9316 1 -2.65771366
Link 501 777 9427 1 -2.71450179
Link 1245 259 9644 0 0.02770915
Link 7 1253 9677 0 -4.41611812
Link 1253 147 9678 0 3.20864184
Link 237 1259 9723 0 1.52999560
Link 1259 1245 9724 0 1.40818568
Link 98 442 9786 0 2.65206042
Link 82 1270 9796 0 0.37496956
Link 1270 54 9797 0 0.12854319
Link 71 956 9917 0 -1.18524752
Link 485 947 9956 0 1.10013330
Link 376 237 10034 1 2.94551394
Link 189 376 10063 1 -0.83027943
Link 478 84 10066 0 1.62177774
Link 1306 23 10084 0 1.47731698
Link 277 17 10198 0 -0.07708377
Link 106 64 10225 0 -2.73449485
Link 20 956 10372 0 -2.45190797
Link 332 1348 10445 0 0.09620428
Link 1348 18 10446 0 0.40510468
Link 947 735 10473 0 2.76793656
Link 948 1392 10808 0 -1.33708430
Link 1392 199 10809 0 -2.35777865
Link 42 210 10852 1 0.55439120
Link 121 947 10856 0 -1.63761829
Link 364 10 10954 0 -0.95770636
Link 809 76 10978 0 1.05497075
Link 9 994 11156 0 -0.18253778
Link 26 100 11238 0 1.17222291
Link 5 1444 11240 0 3.19896679
Link 1444 501 11241 0 1.07788053
Link 82 994 11404 1 -0.05276778
Link 956 76 11431 0 -1.95374283
Link 106 994 11452 1 0.13403641
Link 36 268 11468 0 2.06620042
Link 7 397 11583 0 -1.28093662
Link 588 1479 11598 0 2.30644197
Link 42 1498 11769 0 -2.61760346
Link 1498 1306 11770 0 -0.92083802
Link 289 1502 11797 0 -0.38551223
Link 1502 588 11798 0 0.13938377
Link 106 1545 12256 0 2.42157877
Link 1545 33 12257 0 0.33388546
Link 738 1584 12569 1 2.30664749
Link 1584 37 12570 1 3.07461175
Link 33 1096 12573 0 0.75333673
Link 37 147 12584 1 -0.43590813
Link 34 1602 12766 0 2.89898994
Link 1602 19 12767 0 -1.48605162
Link 32 1630 12998 1 0.99417647
Link 1630 605 12999 1 -1.62287821
Link 1479 1637 13060 0 -0.10675544
Link 1637 15 13061 0 -2.69511119
Link 319 809 13084 1 0.95535755
Link 589 1679 13438 0 1.57871802
Link 1679 260 13439 0 0.28693644
Link 34 934 13486 1 0.29446353
Link 158 1703 13621 1 0.80541271
Link 1703 23 13622 1 -1.15928899
Link 42 201 13670 1 -1.28718185
Link 42 199 13711 0 -0.12237026
Link 1723 26 13801 0 -2.34582951
Link 37 1737 13909 0 0.97785353
Link 1737 1723 13910 0 0.24841516
Link 1739 54 13927 0 1.69272349
Link 212 1762 14078 1 2.01262690
Link 1762 777 14079 1 0.07958405
Link 6 442 14169 0 1.10692977
Link 48 364 14630 0 3.29805246
Link 126 1847 14843 0 -0.02443102
Link 1847 11 14844 0 3.72535353
Link 42 553 14866 0 1.27689468
Link 1306 32 15103 0 0.39637228
Link 397 138 15328 1 1.58202424
Link 478 14 15404 0 0.98244211
Link 48 442 15595 0 -2.38667607
Link 18 1939 15708 1 3.53278263
Link 1939 18 15709 1 0.87028425
Link 1348 13 15789 0 -0.50858953
Link 1962 1259 15912 1 -1.48631302
Link 485 170 15976 1 -1.07390484
Link 268 22 16079 1 -1.71006090
Link 170 387 16437 0 -0.64004118
Link 1630 871 16485 0 0.14581009
Link 1027 1259 16557 0 3.43072214
Link 259 2042 16635 1 -2.08578082
Link 2042 1962 16636 1 1.32530890
Link 33 2056 16766 0 1.29826851
Link 2056 164 16767 0 -0.11395881
Link 36 2103 17184 0 1.21231453
Link 2103 1739 17185 0 -1.38852504
Link 442 1151 17507 1 0.62172689
Link 538 2161 17736 0 0.21448906
Link 2161 13 17737 0 -1.26323716
Link 53 2203 18112 0 0.07706166
Link 2203 567 18113 0 -1.43323496
Link 299 2221 18254 1 2.64615400
Link 2221 1151 18255 1 -2.32221200
Link 2103 1723 18294 0 2.51292531
Link 5 605 18429 0 -0.25514004
Link 82 532 18533 0 -2.04537694
Link 117 199 18659 0 1.19031091
Link 182 19 19059 0 -1.14435172
Link 138 1584 19337 0 4.58648729
Link 53 376 19811 0 -0.40701683
GenomeEnd

