GenomeStart 60029
Neuron 1 1 0.00000000 1 0.00000000 0.00000000 0.00000000 0.00000000
Neuron 2 1 0.00000000 1 0.00000000 0.00000000 0.00000000 0.00000000
Neuron 3 1 0.00000000 1 0.00000000 0.00000000 0.00000000 0.00000000
Neuron 4 1 0.00000000 1 0.00000000 0.00000000 0.00000000 0.00000000
Neuron 5 1 0.00000000 1 0.00000000 0.00000000 0.00000000 0.00000000
Neuron 6 1 0.00000000 1 0.00000000 0.00000000 0.00000000 0.00000000
Neuron 7 1 0.00000000 1 0.00000000 0.00000000 0.00000000 0.00000000
Neuron 8 1 0.00000000 1 0.00000000 0.00000000 0.00000000 0.00000000
Neuron 9 2 0.00000000 1 0.00000000 0.00000000 0.00000000 0.00000000
Neuron 10 4 1.00000000 0 1.00000000 0.00000000 0.00000000 0.00000000
Neuron 11 4 1.00000000 0 1.00000000 0.00000000 0.00000000 0.00000000
Neuron 12 4 1.00000000 0 1.00000000 0.00000000 0.00000000 0.00000000
Neuron 13 4 1.00000000 0 1.00000000 0.00000000 0.00000000 0.00000000
Neuron 14 4 1.00000000 0 1.00000000 0.00000000 0.00000000 0.00000000
Neuron 15 4 1.00000000 0 1.00000000 0.00000000 0.00000000 0.00000000
Neuron 16 4 1.00000000 0 1.00000000 0.00000000 0.00000000 0.00000000
Neuron 17 3 0.50000000 1 1.00000000 0.00000000 0.00000000 0.00000000
Neuron 18 3 0.50000000 1 1.00000000 0.00000000 0.00000000 0.00000000
Neuron 20 3 0.50000000 1 1.00000000 0.00000000 0.00000000 0.00000000
Neuron 22 3 0.50000000 1 1.00000000 0.00000000 0.00000000 0.00000000
Neuron 23 3 0.50000000 1 1.00000000 0.00000000 0.00000000 0.00000000
Neuron 26 3 0.50000000 1 1.00000000 0.00000000 0.00000000 0.00000000
Neuron 27 3 0.50000000 1 1.00000000 0.00000000 0.00000000 0.00000000
Neuron 28 3 0.50000000 1 1.00000000 0.00000000 0.00000000 0.00000000
Neuron 32 3 0.50000000 1 1.00000000 0.00000000 0.00000000 0.00000000
Neuron 33 3 0.50000000 1 1.00000000 0.00000000 0.00000000 0.00000000
Neuron 34 3 0.50000000 1 1.00000000 0.00000000 0.00000000 0.00000000
Neuron 35 3 0.50000000 1 1.00000000 0.00000000 0.00000000 0.00000000
Neuron 36 3 0.50000000 1 1.00000000 0.00000000 0.00000000 0.00000000
Neuron 37 3 0.50000000 1 1.00000000 0.00000000 0.00000000 0.00000000
Neuron 39 3 0.50000000 1 1.00000000 0.00000000 0.00000000 0.00000000
Neuron 41 3 0.50000000 1 1.00000000 0.00000000 0.00000000 0.00000000
Neuron 42 3 0.50000000 1 1.00000000 0.00000000 0.00000000 0.00000000
Neuron 44 3 0.50000000 1 1.00000000 0.00000000 0.00000000 0.00000000
Neuron 46 3 0.50000000 1 1.00000000 0.00000000 0.00000000 0.00000000
Neuron 48 3 0.50000000 1 1.00000000 0.00000000 0.00000000 0.00000000
Neuron 52 3 0.50000000 1 1.00000000 0.00000000 0.00000000 0.00000000
Neuron 53 3 0.50000000 1 1.00000000 0.00000000 0.00000000 0.00000000
Neuron 54 3 0.50000000 1 1.00000000 0.00000000 0.00000000 0.00000000
Neuron 56 3 0.50000000 1 1.00000000 0.00000000 0.00000000 0.00000000
Neuron 58 3 0.50000000 1 1.00000000 0.00000000 0.00000000 0.00000000
Neuron 59 3 0.50000000 1 1.00000000 0.00000000 0.00000000 0.00000000
Neuron 63 3 0.50000000 1 1.00000000 0.00000000 0.00000000 0.00000000
Neuron 64 3 0.75000000 1 1.00000000 0.00000000 0.00000000 0.00000000
Neuron 65 3 0.50000000 1 1.00000000 0.00000000 0.00000000 0.00000000
Neuron 67 3 0.50000000 1 1.00000000 0.00000000 0.00000000 0.00000000
Neuron 68 3 0.50000000 1 1.00000000 0.00000000 0.00000000 0.00000000
Neuron 70 3 0.50000000 1 1.00000000 0.00000000 0.00000000 0.00000000
Neuron 71 3 0.50000000 1 1.00000000 0.00000000 0.00000000 0.00000000
Neuron 76 3 0.75000000 1 1.00000000 0.00000000 0.00000000 0.00000000
Neuron 77 3 0.25000000 1 1.00000000 0.00000000 0.00000000 0.00000000
Neuron 82 3 0.25000000 1 1.00000000 0.00000000 0.00000000 0.00000000
Neuron 84 3 0.50000000 1 1.00000000 0.00000000 0.00000000 0.00000000
Neuron 98 3 0.75000000 1 1.00000000 0.00000000 0.00000000 0.00000000
Neuron 100 3 0.75000000 1 1.00000000 0.00000000 0.00000000 0.00000000
Neuron 106 3 0.25000000 1 1.00000000 0.00000000 0.00000000 0.00000000
Neuron 121 3 0.25000000 1 1.00000000 0.00000000 0.00000000 0.00000000
Neuron 127 3 0.75000000 1 1.00000000 0.00000000 0.00000000 0.00000000
Neuron 135 3 0.75000000 1 1.00000000 0.00000000 0.00000000 0.00000000
Neuron 147 3 0.25000000 1 1.00000000 0.00000000 0.00000000 0.00000000
Neuron 155 3 0.25000000 1 1.00000000 0.00000000 0.00000000 0.00000000
Neuron 182 3 0.37500000 1 1.00000000 0.00000000 0.00000000 0.00000000
Neuron 189 3 0.75000000 1 1.00000000 0.00000000 0.00000000 0.00000000
Neuron 199 3 0.75000000 1 1.00000000 0.00000000 0.00000000 0.00000000
Neuron 201 3 0.25000000 1 1.00000000 0.00000000 0.00000000 0.00000000
Neuron 209 3 0.25000000 1 1.00000000 0.00000000 0.00000000 0.00000000
Neuron 210 3 0.25000000 1 1.00000000 0.00000000 0.00000000 0.00000000
Neuron 225 3 0.50000000 1 1.00000000 0.00000000 0.00000000 0.00000000
Neuron 237 3 0.25000000 1 1.00000000 0.00000000 0.00000000 0.00000000
Neuron 251 3 1.00000000 1 1.00000000 0.00000000 0.00000000 0.00000000
Neuron 259 3 0.62500000 1 1.00000000 0.00000000 0.00000000 0.00000000
Neuron 260 3 0.50000000 1 1.00000000 0.00000000 0.00000000 0.00000000
Neuron 268 3 0.87500000 1 1.00000000 0.00000000 0.00000000 0.00000000
Neuron 277 3 0.25000000 1 1.00000000 0.00000000 0.00000000 0.00000000
Neuron 289 3 0.50000000 1 1.00000000 0.00000000 0.00000000 0.00000000
Neuron 299 3 0.75000000 1 1.00000000 0.00000000 0.00000000 0.00000000
Neuron 332 3 0.25000000 1 1.00000000 0.00000000 0.00000000 0.00000000
Neuron 364 3 0.50000000 1 1.00000000 0.00000000 0.00000000 0.00000000
Neuron 376 3 0.50000000 1 1.00000000 0.00000000 0.00000000 0.00000000
Neuron 387 3 0.87500000 1 1.00000000 0.00000000 0.00000000 0.00000000
Neuron 397 3 0.75000000 1 1.00000000 0.00000000 0.00000000 0.00000000
Neuron 407 3 0.50000000 1 1.00000000 0.00000000 0.00000000 0.00000000
Neuron 436 3 0.50000000 1 1.00000000 0.00000000 0.00000000 0.00000000
Neuron 442 3 0.87500000 1 1.00000000 0.00000000 0.00000000 0.00000000
Neuron 478 3 0.50000000 1 1.00000000 0.00000000 0.00000000 0.00000000
Neuron 480 3 0.50000000 1 1.00000000 0.00000000 0.00000000 0.00000000
Neuron 485 3 0.75000000 1 1.00000000 0.00000000 0.00000000 0.00000000
Neuron 490 3 0.81250000 1 1.00000000 0.00000000 0.00000000 0.00000000
Neuron 501 3 0.50000000 1 1.00000000 0.00000000 0.00000000 0.00000000
Neuron 532 3 0.25000000 1 1.00000000 0.00000000 0.00000000 0.00000000
Neuron 553 3 0.87500000 1 1.00000000 0.00000000 0.00000000 0.00000000
Neuron 560 3 0.12500000 1 1.00000000 0.00000000 0.00000000 0.00000000
Neuron 669 3 0.62500000 1 1.00000000 0.00000000 0.00000000 0.00000000
Neuron 735 3 0.75000000 1 1.00000000 0.00000000 0.00000000 0.00000000
Neuron 738 3 0.62500000 1 1.00000000 0.00000000 0.00000000 0.00000000
Neuron 745 3 0.81250000 1 1.00000000 0.00000000 0.00000000 0.00000000
Neuron 777 3 0.37500000 1 1.00000000 0.00000000 0.00000000 0.00000000
Neuron 871 3 0.68750000 1 1.00000000 0.00000000 0.00000000 0.00000000
Neuron 934 3 0.12500000 1 1.00000000 0.00000000 0.00000000 0.00000000
Neuron 940 3 0.37500000 1 1.00000000 0.00000000 0.00000000 0.00000000
Neuron 947 3 0.75000000 1 1.00000000 0.00000000 0.00000000 0.00000000
Neuron 948 3 0.75000000 1 1.00000000 0.00000000 0.00000000 0.00000000
Neuron 956 3 0.50000000 1 1.00000000 0.00000000 0.00000000 0.00000000
Neuron 994 3 0.06250000 1 1.00000000 0.00000000 0.00000000 0.00000000
Neuron 1030 3 0.37500000 1 1.00000000 0.00000000 0.00000000 0.00000000
Neuron 1052 3 0.50000000 1 1.00000000 0.00000000 0.00000000 0.00000000
Neuron 1062 3 0.12500000 1 1.00000000 0.00000000 0.00000000 0.00000000
Neuron 1075 3 0.56250000 1 1.00000000 0.00000000 0.00000000 0.00000000
Neuron 1096 3 0.62500000 1 1.00000000 0.00000000 0.00000000 0.00000000
Neuron 1147 3 0.56250000 1 1.00000000 0.00000000 0.00000000 0.00000000
Neuron 1245 3 0.25000000 1 1.00000000 0.00000000 0.00000000 0.00000000
Neuron 1259 3 0.25000000 1 1.00000000 0.00000000 0.00000000 0.00000000
Link 1 10 1 0 3.21873594
Link 2 10 2 0 -0.09520417
Link 3 10 3 0 1.11527696
Link 4 10 4 0 -0.50219124
Link 5 10 5 0 -0.38092742
Link 6 10 6 0 1.15671914
Link 7 10 7 0 -0.69485121
Link 8 10 8 0 1.17031102
Link 9 10 9 0 -0.36568654
Link 1 11 10 0 1.74371894
Link 2 11 11 0 0.79514998
Link 3 11 12 0 -0.25646848
Link 6 11 15 0 -1.08708427
Link 7 11 16 0 -1.01145784
Link 8 11 17 0 -0.89890002
Link 9 11 18 0 2.49529655
Link 1 12 19 0 1.01611440
Link 3 12 21 0 -1.08085539
Link 4 12 22 0 1.04882507
Link 5 12 23 0 -0.29093588
Link 6 12 24 0 -0.23203650
Link 8 12 26 0 1.21647343
Link 9 12 27 0 1.23385238
Link 1 13 28 0 1.12925556
Link 2 13 29 0 -1.05014489
Link 3 13 30 0 0.38446278
Link 5 13 32 0 0.68298807
Link 6 13 33 0 1.61351742
Link 8 13 35 0 2.41950572
Link 1 14 37 0 -1.39214475
Link 2 14 38 0 -1.85460821
Link 4 14 40 0 -2.17666737
Link 5 14 41 0 -0.56081481
Link 7 14 43 0 -2.69415794
Link 8 14 44 0 -0.15660435
Link 9 14 45 0 0.85891477
Link 1 15 46 0 -0.16011084
Link 3 15 48 0 -1.02994259
Link 4 15 49 0 -0.65413169
Link 9 15 54 0 0.19811029
Link 1 16 55 0 -1.81772534
Link 2 16 56 0 1.66120039
Link 3 16 57 0 0.80254617
Link 4 16 58 0 1.35865145
Link 5 16 59 0 0.29503245
Link 6 16 60 0 0.40861398
Link 7 16 61 0 2.37446757
Link 8 17 65 0 3.37128909
Link 17 16 66 0 -1.64094445
Link 18 14 69 0 0.41505221
Link 7 20 74 0 0.74043091
Link 20 12 75 0 -0.68628405
Link 7 22 80 0 2.52250100
Link 22 11 81 0 -1.89578153
Link 4 23 83 0 -0.42033148
Link 23 15 84 0 -0.99123927
Link 2 26 93 0 2.18484245
Link 26 14 94 0 -0.25005596
Link 8 27 96 0 1.19686298
Link 27 14 97 0 2.04621646
Link 28 11 100 0 -0.28631204
Link 4 33 114 0 -0.11034221
Link 33 10 115 0 -1.15435119
Link 5 34 117 0 -0.06414760
Link 34 11 118 0 -2.30955082
Link 4 35 120 0 0.36162656
Link 35 13 121 0 0.11545195
Link 2 36 123 0 -2.40333508
Link 6 37 126 0 -1.70111468
Link 37 11 127 0 -1.01898411
Link 3 39 132 0 1.23819367
Link 39 16 133 0 1.99986033
Link 41 14 140 0 -1.36010391
Link 7 42 143 0 -0.08004407
Link 8 44 149 0 -0.49733598
Link 8 46 155 0 -1.35220580
Link 48 10 162 0 0.17125730
Link 52 13 175 0 -0.56579603
Link 8 42 176 0 -2.62633390
Link 1 53 178 0 -0.62539878
Link 53 14 179 0 0.06288385
Link 46 10 191 0 -0.86640954
Link 56 13 194 0 0.61035460
Link 12 46 195 1 2.58507894
Link 6 58 202 0 0.94566505
Link 58 15 203 0 -0.11466883
Link 3 59 210 0 -2.06732651
Link 59 14 211 0 1.59616616
Link 9 22 222 0 0.11166031
Link 6 63 246 0 -1.07155141
Link 63 16 247 0 1.81310583
Link 42 64 250 0 0.15977148
Link 64 15 251 0 0.20475619
Link 2 65 261 0 0.78534265
Link 65 15 262 0 -1.75705596
Link 2 67 272 0 -0.84336264
Link 67 13 273 0 -0.47719989
Link 36 13 290 0 -0.79210213
Link 6 27 291 0 -1.29827243
Link 2 68 303 0 -5.20857627
Link 68 11 304 0 -0.23595534
Link 70 15 315 0 -2.56847800
Link 7 71 318 0 -2.46227571
Link 71 13 319 0 -0.48995341
Link 28 28 343 1 0.31809112
Link 52 11 346 0 0.62357307
Link 46 76 350 0 -0.11924252
Link 6 77 358 0 1.00000000
Link 77 41 359 0 1.06703844
Link 28 52 395 0 -0.33257329
Link 1 82 409 0 -0.13319442
Link 82 54 410 0 1.37704848
Link 7 84 422 0 0.32787456
Link 84 16 423 0 -1.88563402
Link 11 36 435 1 -1.58114482
Link 52 52 465 1 -0.33489655
Link 46 12 511 0 2.24428683
Link 46 14 531 0 0.95166597
Link 44 98 592 0 0.88288329
Link 98 12 593 0 -1.79269529
Link 36 100 609 0 2.60929760
Link 100 12 610 0 -1.34750226
Link 3 106 667 0 -0.22855051
Link 15 42 714 1 1.35959716
Link 54 127 824 0 1.03416776
Link 127 15 825 0 -1.52545034
Link 3 52 832 0 -1.38827443
Link 7 67 841 0 -0.41830004
Link 135 56 878 1 -0.64952606
Link 2 22 893 0 1.53496664
Link 7 147 972 0 0.89186584
Link 147 18 973 0 0.01622812
Link 13 53 1001 1 -1.23696595
Link 53 67 1032 0 -0.54047860
Link 106 182 1240 0 -1.29293037
Link 182 48 1241 0 3.23884383
Link 28 39 1313 0 -2.12074754
Link 32 199 1358 0 -0.79971915
Link 5 201 1373 0 -1.61513482
Link 201 32 1374 0 -1.10021557
Link 6 209 1417 0 -0.56680648
Link 209 67 1418 0 -4.81648713
Link 53 76 1419 0 -0.64916273
Link 5 210 1422 0 1.01301518
Link 210 70 1423 0 2.76247300
Link 135 13 1456 0 -0.57193760
Link 225 22 1509 0 -0.88646105
Link 4 237 1571 0 -1.28132272
Link 237 28 1572 0 -0.54802431
Link 8 34 1623 0 1.13414640
Link 15 251 1662 1 -0.14567542
Link 251 15 1663 1 0.31164987
Link 39 259 1695 0 1.25764146
Link 259 189 1696 0 -1.15856967
Link 7 260 1698 0 -1.02058510
Link 260 13 1699 0 -0.07668118
Link 36 68 1700 0 0.19131216
Link 13 268 1757 1 0.59080450
Link 3 277 1799 0 0.97146074
Link 277 56 1800 0 -0.92181294
Link 7 289 1884 0 1.95767641
Link 289 15 1885 0 -0.16878628
Link 15 32 1939 1 1.40502423
Link 13 299 1949 1 0.29526113
Link 299 67 1950 1 -0.71446327
Link 54 84 2176 0 -0.18554540
Link 332 18 2212 0 0.13817367
Link 54 364 2392 0 -0.34745259
Link 364 22 2393 0 -0.03573362
Link 54 54 2403 1 0.84508242
Link 376 225 2456 0 1.88484886
Link 189 387 2530 0 -3.78171631
Link 387 16 2531 0 0.65094392
Link 46 397 2613 0 2.49012814
Link 397 15 2614 0 0.15265813
Link 44 407 2696 0 -0.44470300
Link 36 209 2736 1 -2.26992460
Link 63 15 2820 0 -1.72112336
Link 2 436 2903 0 0.05370924
Link 436 12 2904 0 0.76788817
Link 442 15 2928 0 -1.19601991
Link 22 76 3000 0 -0.17790885
Link 5 106 3079 0 -0.87316751
Link 22 478 3189 0 1.59466426
Link 478 27 3190 0 -0.77693680
Link 407 480 3206 0 -1.45365332
Link 480 63 3207 0 2.51048874
Link 16 485 3238 1 -0.73922946
Link 76 490 3263 0 0.60729167
Link 490 442 3264 0 1.21176439
Link 28 26 3288 0 0.22543438
Link 44 501 3376 0 2.07074509
Link 501 84 3377 0 1.04573563
Link 12 54 3467 1 -0.04785709
Link 8 251 3552 0 -2.42495552
Link 3 532 3627 0 -0.29368762
Link 199 553 3781 0 0.31794065
Link 553 13 3782 0 0.93356137
Link 1 560 3826 0 1.48305722
Link 560 121 3827 0 -2.57551499
Link 46 199 4150 0 2.13064734
Link 36 26 4452 0 3.89766427
Link 485 669 4722 1 0.70640001
Link 28 48 5100 0 -1.57640420
Link 121 71 5179 0 0.45669754
Link 76 735 5224 0 0.87615916
Link 735 199 5225 0 1.71597993
Link 189 738 5239 1 -0.99706482
Link 738 37 5240 1 -0.94493777
Link 268 745 5288 1 1.08567656
Link 745 135 5289 1 -0.28938109
Link 289 100 5354 0 -0.31574063
Link 532 777 5558 0 0.24814904
Link 777 56 5559 0 -1.70626972
Link 237 121 6066 0 0.92217824
Link 67 289 6231 0 0.09330066
Link 52 871 6259 0 0.93662075
Link 871 268 6260 0 -0.93678682
Link 5 442 6511 0 -4.18172967
Link 16 121 6684 1 1.03446245
Link 934 155 6711 0 1.37905322
Link 155 940 6755 0 -0.66757859
Link 940 46 6756 0 -0.04276540
Link 37 36 6758 0 2.20036955
Link 64 947 6819 0 -0.06805239
Link 947 76 6820 0 -2.32090132
Link 39 948 6822 0 0.36134424
Link 948 251 6823 0 -2.63523208
Link 37 956 6928 0 2.14959987
Link 956 376 6929 0 2.14827895
Link 209 189 6967 0 2.46022651
Link 67 26 7035 0 0.00053848
Link 98 387 7108 0 1.06098573
Link 7 994 7282 0 0.96214082
Link 994 934 7283 0 -2.03945565
Link 201 532 7317 0 -0.91405063
Link 127 48 7364 1 3.19127366
Link 553 289 7397 1 -0.74660121
Link 121 1030 7592 0 0.90492691
Link 1030 52 7593 0 0.66635073
Link 34 1052 7754 0 1.55600377
Link 1052 18 7755 0 0.92178803
Link 26 199 7823 0 0.75704358
Link 5 1062 7838 0 1.06076306
Link 1062 332 7839 0 -0.64952867
Link 669 1075 7958 1 0.52420719
Link 1075 46 7959 1 0.59737049
Link 26 98 7969 0 0.71750106
Link 201 237 8027 0 3.15900024
Link 376 18 8068 0 3.64685636
Link 53 1096 8221 0 -0.15539341
Link 1096 98 8222 0 -0.04720998
Link 948 199 8593 0 0.84445172
Link 41 948 8645 0 0.35799911
Link 28 490 8682 0 0.13860442
Link 934 1147 8729 0 1.00000000
Link 1147 10 8730 0 0.62832278
Link 56 956 8780 0 1.32710939
Link 33 53 8811 0 -0.58485091
Link 42 23 8827 0 1.97583183
Link 39 940 8875 1 1.08103668
Link 15 155 9316 1 0.90817139
Link 501 777 9427 1 -3.38419879
Link 1245 155 9567 0 0.49942002
Link 1245 259 9644 0 -1.02854832
Link 237 1259 9723 0 1.01950742
Link 1259 1245 9724 0 0.92263598
Link 98 442 9786 0 -3.91446072
Link 71 956 9917 0 2.06175092
Link 485 947 9956 0 -1.19570209
GenomeEnd

