GenomeStart 36392
Neuron 1 1 0.00000000 1 0.00000000 0.00000000 0.00000000 0.00000000
Neuron 2 1 0.00000000 1 0.00000000 0.00000000 0.00000000 0.00000000
Neuron 3 1 0.00000000 1 0.00000000 0.00000000 0.00000000 0.00000000
Neuron 4 1 0.00000000 1 0.00000000 0.00000000 0.00000000 0.00000000
Neuron 5 1 0.00000000 1 0.00000000 0.00000000 0.00000000 0.00000000
Neuron 6 1 0.00000000 1 0.00000000 0.00000000 0.00000000 0.00000000
Neuron 7 1 0.00000000 1 0.00000000 0.00000000 0.00000000 0.00000000
Neuron 8 1 0.00000000 1 0.00000000 0.00000000 0.00000000 0.00000000
Neuron 9 2 0.00000000 1 0.00000000 0.00000000 0.00000000 0.00000000
Neuron 10 4 1.00000000 0 1.00000000 0.00000000 0.00000000 0.00000000
Neuron 11 4 1.00000000 0 1.00000000 0.00000000 0.00000000 0.00000000
Neuron 12 4 1.00000000 0 1.00000000 0.00000000 0.00000000 0.00000000
Neuron 13 4 1.00000000 0 1.00000000 0.00000000 0.00000000 0.00000000
Neuron 14 4 1.00000000 0 1.00000000 0.00000000 0.00000000 0.00000000
Neuron 15 4 1.00000000 0 1.00000000 0.00000000 0.00000000 0.00000000
Neuron 16 4 1.00000000 0 1.00000000 0.00000000 0.00000000 0.00000000
Neuron 17 3 0.50000000 1 1.00000000 0.00000000 0.00000000 0.00000000
Neuron 18 3 0.50000000 1 1.00000000 0.00000000 0.00000000 0.00000000
Neuron 22 3 0.50000000 1 1.00000000 0.00000000 0.00000000 0.00000000
Neuron 23 3 0.50000000 1 1.00000000 0.00000000 0.00000000 0.00000000
Neuron 26 3 0.50000000 1 1.00000000 0.00000000 0.00000000 0.00000000
Neuron 27 3 0.50000000 1 1.00000000 0.00000000 0.00000000 0.00000000
Neuron 28 3 0.50000000 1 1.00000000 0.00000000 0.00000000 0.00000000
Neuron 30 3 0.50000000 1 1.00000000 0.00000000 0.00000000 0.00000000
Neuron 32 3 0.50000000 1 1.00000000 0.00000000 0.00000000 0.00000000
Neuron 33 3 0.50000000 1 1.00000000 0.00000000 0.00000000 0.00000000
Neuron 34 3 0.50000000 1 1.00000000 0.00000000 0.00000000 0.00000000
Neuron 36 3 0.50000000 1 1.00000000 0.00000000 0.00000000 0.00000000
Neuron 37 3 0.50000000 1 1.00000000 0.00000000 0.00000000 0.00000000
Neuron 39 3 0.50000000 1 1.00000000 0.00000000 0.00000000 0.00000000
Neuron 42 3 0.50000000 1 1.00000000 0.00000000 0.00000000 0.00000000
Neuron 44 3 0.50000000 1 1.00000000 0.00000000 0.00000000 0.00000000
Neuron 46 3 0.50000000 1 1.00000000 0.00000000 0.00000000 0.00000000
Neuron 48 3 0.50000000 1 1.00000000 0.00000000 0.00000000 0.00000000
Neuron 52 3 0.50000000 1 1.00000000 0.00000000 0.00000000 0.00000000
Neuron 53 3 0.50000000 1 1.00000000 0.00000000 0.00000000 0.00000000
Neuron 54 3 0.50000000 1 1.00000000 0.00000000 0.00000000 0.00000000
Neuron 55 3 0.50000000 1 1.00000000 0.00000000 0.00000000 0.00000000
Neuron 56 3 0.50000000 1 1.00000000 0.00000000 0.00000000 0.00000000
Neuron 63 3 0.50000000 1 1.00000000 0.00000000 0.00000000 0.00000000
Neuron 64 3 0.75000000 1 1.00000000 0.00000000 0.00000000 0.00000000
Neuron 65 3 0.50000000 1 1.00000000 0.00000000 0.00000000 0.00000000
Neuron 67 3 0.50000000 1 1.00000000 0.00000000 0.00000000 0.00000000
Neuron 68 3 0.50000000 1 1.00000000 0.00000000 0.00000000 0.00000000
Neuron 71 3 0.50000000 1 1.00000000 0.00000000 0.00000000 0.00000000
Neuron 76 3 0.75000000 1 1.00000000 0.00000000 0.00000000 0.00000000
Neuron 80 3 0.25000000 1 1.00000000 0.00000000 0.00000000 0.00000000
Neuron 84 3 0.50000000 1 1.00000000 0.00000000 0.00000000 0.00000000
Neuron 100 3 0.75000000 1 1.00000000 0.00000000 0.00000000 0.00000000
Neuron 106 3 0.25000000 1 1.00000000 0.00000000 0.00000000 0.00000000
Neuron 121 3 0.25000000 1 1.00000000 0.00000000 0.00000000 0.00000000
Neuron 135 3 0.75000000 1 1.00000000 0.00000000 0.00000000 0.00000000
Neuron 150 3 0.25000000 1 1.00000000 0.00000000 0.00000000 0.00000000
Neuron 165 3 0.75000000 1 1.00000000 0.00000000 0.00000000 0.00000000
Neuron 182 3 0.37500000 1 1.00000000 0.00000000 0.00000000 0.00000000
Neuron 187 3 0.75000000 1 1.00000000 0.00000000 0.00000000 0.00000000
Neuron 189 3 0.75000000 1 1.00000000 0.00000000 0.00000000 0.00000000
Neuron 196 3 0.25000000 1 1.00000000 0.00000000 0.00000000 0.00000000
Neuron 199 3 0.75000000 1 1.00000000 0.00000000 0.00000000 0.00000000
Neuron 209 3 0.25000000 1 1.00000000 0.00000000 0.00000000 0.00000000
Neuron 223 3 0.25000000 1 1.00000000 0.00000000 0.00000000 0.00000000
Neuron 225 3 0.50000000 1 1.00000000 0.00000000 0.00000000 0.00000000
Neuron 237 3 0.25000000 1 1.00000000 0.00000000 0.00000000 0.00000000
Neuron 249 3 0.50000000 1 1.00000000 0.00000000 0.00000000 0.00000000
Neuron 251 3 1.00000000 1 1.00000000 0.00000000 0.00000000 0.00000000
Neuron 256 3 0.75000000 1 1.00000000 0.00000000 0.00000000 0.00000000
Neuron 268 3 0.87500000 1 1.00000000 0.00000000 0.00000000 0.00000000
Neuron 277 3 0.25000000 1 1.00000000 0.00000000 0.00000000 0.00000000
Neuron 287 3 0.25000000 1 1.00000000 0.00000000 0.00000000 0.00000000
Neuron 289 3 0.50000000 1 1.00000000 0.00000000 0.00000000 0.00000000
Neuron 364 3 0.50000000 1 1.00000000 0.00000000 0.00000000 0.00000000
Neuron 376 3 0.50000000 1 1.00000000 0.00000000 0.00000000 0.00000000
Neuron 387 3 0.87500000 1 1.00000000 0.00000000 0.00000000 0.00000000
Neuron 407 3 0.50000000 1 1.00000000 0.00000000 0.00000000 0.00000000
Neuron 409 3 0.62500000 1 1.00000000 0.00000000 0.00000000 0.00000000
Neuron 436 3 0.50000000 1 1.00000000 0.00000000 0.00000000 0.00000000
Neuron 442 3 0.87500000 1 1.00000000 0.00000000 0.00000000 0.00000000
Neuron 459 3 0.50000000 1 1.00000000 0.00000000 0.00000000 0.00000000
Neuron 480 3 0.50000000 1 1.00000000 0.00000000 0.00000000 0.00000000
Neuron 485 3 0.75000000 1 1.00000000 0.00000000 0.00000000 0.00000000
Neuron 490 3 0.81250000 1 1.00000000 0.00000000 0.00000000 0.00000000
Neuron 501 3 0.50000000 1 1.00000000 0.00000000 0.00000000 0.00000000
Neuron 504 3 0.25000000 1 1.00000000 0.00000000 0.00000000 0.00000000
Neuron 532 3 0.25000000 1 1.00000000 0.00000000 0.00000000 0.00000000
Neuron 559 3 0.84375000 1 1.00000000 0.00000000 0.00000000 0.00000000
Neuron 626 3 0.62500000 1 1.00000000 0.00000000 0.00000000 0.00000000
Neuron 759 3 0.37500000 1 1.00000000 0.00000000 0.00000000 0.00000000
Link 1 10 1 0 -2.06989196
Link 2 10 2 0 1.07691703
Link 3 10 3 0 -1.47761595
Link 4 10 4 0 -0.85638189
Link 5 10 5 0 2.71866981
Link 6 10 6 0 1.06278693
Link 7 10 7 0 -2.44870885
Link 8 10 8 0 0.93045175
Link 9 10 9 0 -1.03009568
Link 1 11 10 0 -1.36020174
Link 2 11 11 0 0.01576295
Link 3 11 12 0 1.86983658
Link 4 11 13 0 -2.45913105
Link 6 11 15 0 -1.70599521
Link 7 11 16 0 0.89735742
Link 8 11 17 0 1.37342878
Link 9 11 18 0 -2.54948072
Link 1 12 19 0 -2.24005347
Link 3 12 21 0 -3.09438870
Link 5 12 23 0 0.59190020
Link 7 12 25 0 -0.00840221
Link 8 12 26 0 -2.44911821
Link 9 12 27 0 0.40240376
Link 1 13 28 0 -5.35393052
Link 2 13 29 0 -0.27461266
Link 3 13 30 0 2.56332311
Link 4 13 31 0 1.90801497
Link 5 13 32 0 -1.49721549
Link 7 13 34 0 -2.53575753
Link 8 13 35 0 0.54074204
Link 9 13 36 0 0.50538352
Link 1 14 37 0 -0.74986176
Link 2 14 38 0 -0.62677503
Link 3 14 39 0 -2.70172743
Link 4 14 40 0 -1.28325085
Link 5 14 41 0 0.37260255
Link 6 14 42 0 -2.98477657
Link 7 14 43 0 4.92708149
Link 8 14 44 0 1.53843661
Link 9 14 45 0 0.62582977
Link 3 15 48 0 -2.44733174
Link 4 15 49 0 2.07616296
Link 5 15 50 0 -1.51785989
Link 6 15 51 0 -0.02283329
Link 9 15 54 0 -1.32761833
Link 1 16 55 0 -2.44180243
Link 2 16 56 0 1.05258864
Link 3 16 57 0 2.54416643
Link 4 16 58 0 -3.58354969
Link 5 16 59 0 -1.12321827
Link 6 16 60 0 0.73514028
Link 7 16 61 0 0.61104787
Link 9 16 63 0 0.58219531
Link 8 17 65 0 1.43973985
Link 17 16 66 0 -0.83994692
Link 7 18 68 0 1.75011224
Link 18 14 69 0 1.38016862
Link 7 22 80 0 2.22797614
Link 22 11 81 0 0.90611073
Link 4 23 83 0 -0.07131341
Link 23 15 84 0 0.62355918
Link 26 14 94 0 -1.04886203
Link 27 14 97 0 -1.21270291
Link 6 30 105 0 0.81399347
Link 30 13 106 0 0.01103774
Link 5 32 111 0 1.57869224
Link 4 33 114 0 -1.56399671
Link 33 10 115 0 -0.45237184
Link 5 34 117 0 1.04592128
Link 34 11 118 0 -0.24929046
Link 2 36 123 0 1.80003612
Link 37 11 127 0 0.73667721
Link 39 16 133 0 0.33856179
Link 7 42 143 0 -4.04393409
Link 8 44 149 0 0.50960547
Link 44 12 150 0 2.38532893
Link 8 46 155 0 2.46459032
Link 46 15 156 0 1.48510231
Link 48 10 162 0 -0.16874267
Link 52 13 175 0 -2.35731140
Link 8 42 176 0 -0.85719435
Link 1 53 178 0 -0.93137845
Link 53 14 179 0 1.31621336
Link 1 54 182 0 -2.11637520
Link 54 15 183 0 0.45322013
Link 6 55 186 0 1.95807123
Link 55 12 187 0 -1.59656759
Link 56 13 194 0 -1.10198475
Link 12 46 195 1 -1.60485110
Link 9 22 222 0 -2.38230209
Link 6 63 246 0 1.62003882
Link 64 15 251 0 1.30404229
Link 65 15 262 0 -3.84969402
Link 2 67 272 0 -1.95888964
Link 67 13 273 0 1.67310050
Link 36 13 290 0 0.04059112
Link 6 27 291 0 0.01104016
Link 2 68 303 0 2.03436885
Link 68 11 304 0 1.32432859
Link 7 71 318 0 -1.83682380
Link 71 13 319 0 1.69805944
Link 7 46 332 0 -4.07332888
Link 52 11 346 0 2.92692738
Link 8 80 391 0 0.42429506
Link 80 27 392 0 3.47403158
Link 28 52 395 0 -0.18537319
Link 7 84 422 0 -1.92877397
Link 11 36 435 1 1.47632204
Link 46 12 511 0 -2.50098037
Link 46 14 531 0 0.41206833
Link 13 67 559 1 4.11184790
Link 36 100 609 0 1.16093853
Link 100 12 610 0 2.33328714
Link 3 106 667 0 1.73750258
Link 1 121 786 0 5.02542862
Link 121 52 787 0 -1.87753084
Link 3 52 832 0 -4.96309912
Link 7 67 841 0 -2.13013931
Link 135 56 878 1 1.16604021
Link 2 22 893 0 -1.98124552
Link 6 150 993 0 1.13571604
Link 150 37 994 0 -1.48511324
Link 13 53 1001 1 -0.91620260
Link 53 67 1032 0 0.16356985
Link 28 165 1133 0 0.80307297
Link 165 11 1134 0 -0.42688418
Link 106 182 1240 0 -1.00247239
Link 182 48 1241 0 -1.38324459
Link 5 18 1250 0 0.28258499
Link 63 187 1268 0 1.22455729
Link 187 16 1269 0 -0.39576703
Link 39 189 1274 0 0.54255502
Link 28 39 1313 0 0.81031876
Link 2 196 1346 0 1.06531206
Link 196 65 1347 0 1.90523855
Link 32 199 1358 0 0.76657263
Link 199 13 1359 0 1.12256844
Link 18 10 1404 0 2.62139837
Link 6 209 1417 0 -3.07261414
Link 209 67 1418 0 -0.38453716
Link 53 76 1419 0 1.20692696
Link 135 13 1456 0 -1.80987866
Link 2 223 1491 0 0.98044946
Link 223 26 1492 0 -2.97153445
Link 225 22 1509 0 -1.81823815
Link 4 237 1571 0 1.70713961
Link 237 28 1572 0 0.02422633
Link 52 249 1656 1 1.10128692
Link 249 52 1657 1 1.05739407
Link 15 251 1662 1 0.10010098
Link 251 15 1663 1 0.14950691
Link 84 256 1685 0 -0.93891017
Link 256 16 1686 0 -0.30501242
Link 36 68 1700 0 2.04736896
Link 13 268 1757 1 1.44917569
Link 268 135 1758 1 2.08883709
Link 3 277 1799 0 -2.36585887
Link 277 56 1800 0 0.41856938
Link 3 287 1877 0 2.56230072
Link 7 289 1884 0 3.30571606
Link 289 15 1885 0 -0.01980732
Link 15 32 1939 1 3.61707914
Link 54 84 2176 0 3.00816054
Link 189 37 2334 1 0.34959854
Link 54 364 2392 0 0.14898622
Link 364 22 2393 0 -3.35455921
Link 54 54 2403 1 -3.32122059
Link 37 376 2455 0 3.77387228
Link 376 225 2456 0 0.34166859
Link 22 27 2490 0 -3.15134115
Link 28 23 2507 0 3.97075350
Link 189 387 2530 0 0.36912081
Link 387 16 2531 0 0.35672570
Link 44 407 2696 0 0.86732487
Link 46 409 2703 0 0.91901429
Link 409 76 2704 0 -1.39036219
Link 36 209 2736 1 -1.38584248
Link 63 15 2820 0 0.94502100
Link 2 436 2903 0 1.54348483
Link 436 12 2904 0 0.29279707
Link 442 15 2928 0 3.73897316
Link 22 76 3000 0 2.92018360
Link 1 459 3050 0 -1.00993784
Link 459 15 3051 0 2.13880164
Link 5 106 3079 0 0.31216233
Link 407 480 3206 0 -0.39777536
Link 480 63 3207 0 -0.50947993
Link 16 485 3238 1 -0.72430189
Link 485 46 3239 1 1.25638368
Link 76 490 3263 0 1.42291836
Link 28 26 3288 0 2.16710919
Link 44 501 3376 0 1.67483695
Link 501 84 3377 0 0.53154386
Link 8 504 3401 0 -1.11957163
Link 504 18 3402 0 0.43444471
Link 12 54 3467 1 4.59876102
Link 8 251 3552 0 2.37264213
Link 3 532 3627 0 -0.33549895
Link 532 56 3628 0 0.05679951
Link 22 189 3707 0 2.13350107
Link 490 559 3823 0 1.00000000
Link 559 442 3824 0 1.09981355
Link 76 199 4222 0 0.46535316
Link 42 626 4354 0 -0.11781215
Link 626 64 4355 0 1.32875783
Link 55 100 4467 0 2.93755457
Link 364 532 4702 1 -5.03928430
Link 18 277 4724 1 -2.12573036
Link 225 376 4971 0 -0.04849820
Link 33 22 5317 0 -3.10247377
Link 287 759 5393 0 1.27244919
Link 759 39 5394 0 -0.21627159
Link 14 626 5413 1 -1.84301029
Link 237 626 5457 0 -0.11555129
Link 376 22 5534 0 1.62123985
Link 27 65 5561 0 -3.29389817
Link 409 37 5606 1 0.28563257
Link 532 48 5636 0 -0.82670952
Link 196 26 5647 0 -0.88273178
Link 187 490 5664 0 -1.67454030
GenomeEnd

