GenomeStart 86833
Neuron 1 1 0.00000000 1 0.00000000 0.00000000 0.00000000 0.00000000
Neuron 2 1 0.00000000 1 0.00000000 0.00000000 0.00000000 0.00000000
Neuron 3 1 0.00000000 1 0.00000000 0.00000000 0.00000000 0.00000000
Neuron 4 1 0.00000000 1 0.00000000 0.00000000 0.00000000 0.00000000
Neuron 5 1 0.00000000 1 0.00000000 0.00000000 0.00000000 0.00000000
Neuron 6 1 0.00000000 1 0.00000000 0.00000000 0.00000000 0.00000000
Neuron 7 1 0.00000000 1 0.00000000 0.00000000 0.00000000 0.00000000
Neuron 8 1 0.00000000 1 0.00000000 0.00000000 0.00000000 0.00000000
Neuron 9 2 0.00000000 1 0.00000000 0.00000000 0.00000000 0.00000000
Neuron 10 4 1.00000000 0 1.00000000 0.00000000 0.00000000 0.00000000
Neuron 11 4 1.00000000 0 1.00000000 0.00000000 0.00000000 0.00000000
Neuron 12 4 1.00000000 0 1.00000000 0.00000000 0.00000000 0.00000000
Neuron 13 4 1.00000000 0 1.00000000 0.00000000 0.00000000 0.00000000
Neuron 14 4 1.00000000 0 1.00000000 0.00000000 0.00000000 0.00000000
Neuron 15 4 1.00000000 0 1.00000000 0.00000000 0.00000000 0.00000000
Neuron 16 4 1.00000000 0 1.00000000 0.00000000 0.00000000 0.00000000
Neuron 17 3 0.50000000 1 1.00000000 0.00000000 0.00000000 0.00000000
Neuron 18 3 0.50000000 1 1.00000000 0.00000000 0.00000000 0.00000000
Neuron 20 3 0.50000000 1 1.00000000 0.00000000 0.00000000 0.00000000
Neuron 22 3 0.50000000 1 1.00000000 0.00000000 0.00000000 0.00000000
Neuron 23 3 0.50000000 1 1.00000000 0.00000000 0.00000000 0.00000000
Neuron 26 3 0.50000000 1 1.00000000 0.00000000 0.00000000 0.00000000
Neuron 27 3 0.50000000 1 1.00000000 0.00000000 0.00000000 0.00000000
Neuron 28 3 0.50000000 1 1.00000000 0.00000000 0.00000000 0.00000000
Neuron 32 3 0.50000000 1 1.00000000 0.00000000 0.00000000 0.00000000
Neuron 33 3 0.50000000 1 1.00000000 0.00000000 0.00000000 0.00000000
Neuron 34 3 0.50000000 1 1.00000000 0.00000000 0.00000000 0.00000000
Neuron 35 3 0.50000000 1 1.00000000 0.00000000 0.00000000 0.00000000
Neuron 36 3 0.50000000 1 1.00000000 0.00000000 0.00000000 0.00000000
Neuron 37 3 0.50000000 1 1.00000000 0.00000000 0.00000000 0.00000000
Neuron 39 3 0.50000000 1 1.00000000 0.00000000 0.00000000 0.00000000
Neuron 41 3 0.50000000 1 1.00000000 0.00000000 0.00000000 0.00000000
Neuron 42 3 0.50000000 1 1.00000000 0.00000000 0.00000000 0.00000000
Neuron 44 3 0.50000000 1 1.00000000 0.00000000 0.00000000 0.00000000
Neuron 45 3 0.50000000 1 1.00000000 0.00000000 0.00000000 0.00000000
Neuron 46 3 0.50000000 1 1.00000000 0.00000000 0.00000000 0.00000000
Neuron 48 3 0.50000000 1 1.00000000 0.00000000 0.00000000 0.00000000
Neuron 50 3 0.50000000 1 1.00000000 0.00000000 0.00000000 0.00000000
Neuron 52 3 0.50000000 1 1.00000000 0.00000000 0.00000000 0.00000000
Neuron 53 3 0.50000000 1 1.00000000 0.00000000 0.00000000 0.00000000
Neuron 54 3 0.50000000 1 1.00000000 0.00000000 0.00000000 0.00000000
Neuron 55 3 0.50000000 1 1.00000000 0.00000000 0.00000000 0.00000000
Neuron 56 3 0.50000000 1 1.00000000 0.00000000 0.00000000 0.00000000
Neuron 58 3 0.50000000 1 1.00000000 0.00000000 0.00000000 0.00000000
Neuron 59 3 0.50000000 1 1.00000000 0.00000000 0.00000000 0.00000000
Neuron 63 3 0.50000000 1 1.00000000 0.00000000 0.00000000 0.00000000
Neuron 64 3 0.75000000 1 1.00000000 0.00000000 0.00000000 0.00000000
Neuron 65 3 0.50000000 1 1.00000000 0.00000000 0.00000000 0.00000000
Neuron 67 3 0.50000000 1 1.00000000 0.00000000 0.00000000 0.00000000
Neuron 68 3 0.50000000 1 1.00000000 0.00000000 0.00000000 0.00000000
Neuron 69 3 0.50000000 1 1.00000000 0.00000000 0.00000000 0.00000000
Neuron 70 3 0.50000000 1 1.00000000 0.00000000 0.00000000 0.00000000
Neuron 71 3 0.50000000 1 1.00000000 0.00000000 0.00000000 0.00000000
Neuron 76 3 0.75000000 1 1.00000000 0.00000000 0.00000000 0.00000000
Neuron 77 3 0.25000000 1 1.00000000 0.00000000 0.00000000 0.00000000
Neuron 82 3 0.25000000 1 1.00000000 0.00000000 0.00000000 0.00000000
Neuron 84 3 0.50000000 1 1.00000000 0.00000000 0.00000000 0.00000000
Neuron 98 3 0.75000000 1 1.00000000 0.00000000 0.00000000 0.00000000
Neuron 100 3 0.75000000 1 1.00000000 0.00000000 0.00000000 0.00000000
Neuron 102 3 0.75000000 1 1.00000000 0.00000000 0.00000000 0.00000000
Neuron 106 3 0.25000000 1 1.00000000 0.00000000 0.00000000 0.00000000
Neuron 112 3 0.75000000 1 1.00000000 0.00000000 0.00000000 0.00000000
Neuron 121 3 0.25000000 1 1.00000000 0.00000000 0.00000000 0.00000000
Neuron 125 3 0.25000000 1 1.00000000 0.00000000 0.00000000 0.00000000
Neuron 126 3 0.50000000 1 1.00000000 0.00000000 0.00000000 0.00000000
Neuron 127 3 0.75000000 1 1.00000000 0.00000000 0.00000000 0.00000000
Neuron 135 3 0.75000000 1 1.00000000 0.00000000 0.00000000 0.00000000
Neuron 138 3 0.25000000 1 1.00000000 0.00000000 0.00000000 0.00000000
Neuron 140 3 0.25000000 1 1.00000000 0.00000000 0.00000000 0.00000000
Neuron 143 3 0.12500000 1 1.00000000 0.00000000 0.00000000 0.00000000
Neuron 147 3 0.25000000 1 1.00000000 0.00000000 0.00000000 0.00000000
Neuron 155 3 0.25000000 1 1.00000000 0.00000000 0.00000000 0.00000000
Neuron 162 3 0.75000000 1 1.00000000 0.00000000 0.00000000 0.00000000
Neuron 166 3 0.25000000 1 1.00000000 0.00000000 0.00000000 0.00000000
Neuron 182 3 0.37500000 1 1.00000000 0.00000000 0.00000000 0.00000000
Neuron 189 3 0.75000000 1 1.00000000 0.00000000 0.00000000 0.00000000
Neuron 199 3 0.75000000 1 1.00000000 0.00000000 0.00000000 0.00000000
Neuron 201 3 0.25000000 1 1.00000000 0.00000000 0.00000000 0.00000000
Neuron 209 3 0.25000000 1 1.00000000 0.00000000 0.00000000 0.00000000
Neuron 210 3 0.25000000 1 1.00000000 0.00000000 0.00000000 0.00000000
Neuron 211 3 0.75000000 1 1.00000000 0.00000000 0.00000000 0.00000000
Neuron 212 3 0.75000000 1 1.00000000 0.00000000 0.00000000 0.00000000
Neuron 225 3 0.50000000 1 1.00000000 0.00000000 0.00000000 0.00000000
Neuron 234 3 0.75000000 1 1.00000000 0.00000000 0.00000000 0.00000000
Neuron 237 3 0.25000000 1 1.00000000 0.00000000 0.00000000 0.00000000
Neuron 251 3 1.00000000 1 1.00000000 0.00000000 0.00000000 0.00000000
Neuron 259 3 0.62500000 1 1.00000000 0.00000000 0.00000000 0.00000000
Neuron 260 3 0.50000000 1 1.00000000 0.00000000 0.00000000 0.00000000
Neuron 262 3 0.25000000 1 1.00000000 0.00000000 0.00000000 0.00000000
Neuron 265 3 0.75000000 1 1.00000000 0.00000000 0.00000000 0.00000000
Neuron 268 3 0.87500000 1 1.00000000 0.00000000 0.00000000 0.00000000
Neuron 277 3 0.25000000 1 1.00000000 0.00000000 0.00000000 0.00000000
Neuron 289 3 0.50000000 1 1.00000000 0.00000000 0.00000000 0.00000000
Neuron 299 3 0.75000000 1 1.00000000 0.00000000 0.00000000 0.00000000
Neuron 332 3 0.25000000 1 1.00000000 0.00000000 0.00000000 0.00000000
Neuron 355 3 0.25000000 1 1.00000000 0.00000000 0.00000000 0.00000000
Neuron 364 3 0.50000000 1 1.00000000 0.00000000 0.00000000 0.00000000
Neuron 365 3 1.00000000 1 1.00000000 0.00000000 0.00000000 0.00000000
Neuron 376 3 0.50000000 1 1.00000000 0.00000000 0.00000000 0.00000000
Neuron 387 3 0.87500000 1 1.00000000 0.00000000 0.00000000 0.00000000
Neuron 397 3 0.75000000 1 1.00000000 0.00000000 0.00000000 0.00000000
Neuron 407 3 0.50000000 1 1.00000000 0.00000000 0.00000000 0.00000000
Neuron 436 3 0.50000000 1 1.00000000 0.00000000 0.00000000 0.00000000
Neuron 442 3 0.87500000 1 1.00000000 0.00000000 0.00000000 0.00000000
Neuron 447 3 0.50000000 1 1.00000000 0.00000000 0.00000000 0.00000000
Neuron 478 3 0.50000000 1 1.00000000 0.00000000 0.00000000 0.00000000
Neuron 480 3 0.50000000 1 1.00000000 0.00000000 0.00000000 0.00000000
Neuron 485 3 0.75000000 1 1.00000000 0.00000000 0.00000000 0.00000000
Neuron 488 3 0.75000000 1 1.00000000 0.00000000 0.00000000 0.00000000
Neuron 490 3 0.81250000 1 1.00000000 0.00000000 0.00000000 0.00000000
Neuron 498 3 0.93750000 1 1.00000000 0.00000000 0.00000000 0.00000000
Neuron 501 3 0.50000000 1 1.00000000 0.00000000 0.00000000 0.00000000
Neuron 526 3 0.12500000 1 1.00000000 0.00000000 0.00000000 0.00000000
Neuron 532 3 0.25000000 1 1.00000000 0.00000000 0.00000000 0.00000000
Neuron 547 3 0.87500000 1 1.00000000 0.00000000 0.00000000 0.00000000
Neuron 553 3 0.87500000 1 1.00000000 0.00000000 0.00000000 0.00000000
Neuron 556 3 0.62500000 1 1.00000000 0.00000000 0.00000000 0.00000000
Neuron 559 3 0.84375000 1 1.00000000 0.00000000 0.00000000 0.00000000
Neuron 560 3 0.12500000 1 1.00000000 0.00000000 0.00000000 0.00000000
Neuron 588 3 0.75000000 1 1.00000000 0.00000000 0.00000000 0.00000000
Neuron 599 3 0.78125000 1 1.00000000 0.00000000 0.00000000 0.00000000
Neuron 635 3 0.87500000 1 1.00000000 0.00000000 0.00000000 0.00000000
Neuron 643 3 0.87500000 1 1.00000000 0.00000000 0.00000000 0.00000000
Neuron 669 3 0.62500000 1 1.00000000 0.00000000 0.00000000 0.00000000
Neuron 709 3 0.75000000 1 1.00000000 0.00000000 0.00000000 0.00000000
Neuron 735 3 0.75000000 1 1.00000000 0.00000000 0.00000000 0.00000000
Neuron 738 3 0.62500000 1 1.00000000 0.00000000 0.00000000 0.00000000
Neuron 745 3 0.81250000 1 1.00000000 0.00000000 0.00000000 0.00000000
Neuron 777 3 0.37500000 1 1.00000000 0.00000000 0.00000000 0.00000000
Neuron 780 3 0.50000000 1 1.00000000 0.00000000 0.00000000 0.00000000
Neuron 809 3 0.37500000 1 1.00000000 0.00000000 0.00000000 0.00000000
Neuron 871 3 0.68750000 1 1.00000000 0.00000000 0.00000000 0.00000000
Neuron 934 3 0.12500000 1 1.00000000 0.00000000 0.00000000 0.00000000
Neuron 940 3 0.37500000 1 1.00000000 0.00000000 0.00000000 0.00000000
Neuron 947 3 0.75000000 1 1.00000000 0.00000000 0.00000000 0.00000000
Neuron 948 3 0.75000000 1 1.00000000 0.00000000 0.00000000 0.00000000
Neuron 956 3 0.50000000 1 1.00000000 0.00000000 0.00000000 0.00000000
Neuron 960 3 0.12500000 1 1.00000000 0.00000000 0.00000000 0.00000000
Neuron 983 3 0.50000000 1 1.00000000 0.00000000 0.00000000 0.00000000
Neuron 994 3 0.06250000 1 1.00000000 0.00000000 0.00000000 0.00000000
Neuron 1030 3 0.37500000 1 1.00000000 0.00000000 0.00000000 0.00000000
Neuron 1032 3 0.37500000 1 1.00000000 0.00000000 0.00000000 0.00000000
Neuron 1052 3 0.50000000 1 1.00000000 0.00000000 0.00000000 0.00000000
Neuron 1061 3 0.50000000 1 1.00000000 0.00000000 0.00000000 0.00000000
Neuron 1062 3 0.12500000 1 1.00000000 0.00000000 0.00000000 0.00000000
Neuron 1075 3 0.56250000 1 1.00000000 0.00000000 0.00000000 0.00000000
Neuron 1096 3 0.62500000 1 1.00000000 0.00000000 0.00000000 0.00000000
Neuron 1100 3 0.87500000 1 1.00000000 0.00000000 0.00000000 0.00000000
Neuron 1133 3 0.43750000 1 1.00000000 0.00000000 0.00000000 0.00000000
Neuron 1160 3 0.87500000 1 1.00000000 0.00000000 0.00000000 0.00000000
Neuron 1161 3 0.50000000 1 1.00000000 0.00000000 0.00000000 0.00000000
Neuron 1245 3 0.25000000 1 1.00000000 0.00000000 0.00000000 0.00000000
Neuron 1253 3 0.12500000 1 1.00000000 0.00000000 0.00000000 0.00000000
Neuron 1259 3 0.25000000 1 1.00000000 0.00000000 0.00000000 0.00000000
Neuron 1306 3 0.50000000 1 1.00000000 0.00000000 0.00000000 0.00000000
Neuron 1311 3 0.65625000 1 1.00000000 0.00000000 0.00000000 0.00000000
Neuron 1380 3 0.87500000 1 1.00000000 0.00000000 0.00000000 0.00000000
Neuron 1405 3 0.73437500 1 1.00000000 0.00000000 0.00000000 0.00000000
Neuron 1430 3 0.43750000 1 1.00000000 0.00000000 0.00000000 0.00000000
Neuron 1609 3 0.85937500 1 1.00000000 0.00000000 0.00000000 0.00000000
Neuron 1641 3 0.65625000 1 1.00000000 0.00000000 0.00000000 0.00000000
Link 1 10 1 0 1.98689049
Link 2 10 2 0 2.46688591
Link 3 10 3 0 -2.01945115
Link 4 10 4 0 -1.47816188
Link 5 10 5 0 1.42256975
Link 6 10 6 0 2.87205908
Link 7 10 7 0 -0.41040877
Link 8 10 8 0 1.92435611
Link 9 10 9 0 -0.04241715
Link 1 11 10 0 1.17077048
Link 6 11 15 0 3.00682044
Link 7 11 16 0 -2.87824104
Link 8 11 17 0 2.55298318
Link 9 11 18 0 -0.38520031
Link 1 12 19 0 3.45151269
Link 3 12 21 0 -1.43857213
Link 4 12 22 0 -5.80397314
Link 5 12 23 0 -1.66860665
Link 8 12 26 0 -0.35795806
Link 9 12 27 0 -1.99798571
Link 1 13 28 0 -1.10524321
Link 2 13 29 0 -0.06203158
Link 3 13 30 0 1.68427993
Link 6 13 33 0 -1.34967567
Link 8 13 35 0 0.66184314
Link 2 14 38 0 -1.72879838
Link 4 14 40 0 0.51943472
Link 5 14 41 0 -2.68570827
Link 7 14 43 0 -1.22713347
Link 8 14 44 0 3.12583361
Link 9 14 45 0 -3.09542205
Link 1 15 46 0 3.50683738
Link 3 15 48 0 0.41337125
Link 4 15 49 0 -2.51929598
Link 9 15 54 0 -3.42937689
Link 3 16 57 0 3.49671615
Link 4 16 58 0 -1.23155854
Link 5 16 59 0 3.97924122
Link 6 16 60 0 3.69346934
Link 7 16 61 0 1.01744594
Link 8 17 65 0 -0.83723880
Link 17 16 66 0 -0.87141206
Link 18 14 69 0 -2.15631785
Link 7 20 74 0 0.25091671
Link 20 12 75 0 3.39673173
Link 22 11 81 0 2.20202610
Link 23 15 84 0 1.40026734
Link 2 26 93 0 1.95919035
Link 8 27 96 0 -2.77170107
Link 27 14 97 0 1.39608600
Link 28 11 100 0 -1.57978262
Link 4 33 114 0 -0.22542045
Link 33 10 115 0 2.01287894
Link 5 34 117 0 0.27091486
Link 34 11 118 0 -1.54439009
Link 4 35 120 0 2.49107080
Link 35 13 121 0 0.85772463
Link 2 36 123 0 -0.95633926
Link 6 37 126 0 2.15226442
Link 37 11 127 0 -1.17917384
Link 3 39 132 0 -1.77428389
Link 39 16 133 0 -3.38187371
Link 41 14 140 0 -0.20075303
Link 7 42 143 0 -0.57667440
Link 3 45 152 0 2.44768896
Link 45 11 153 0 2.45475173
Link 8 46 155 0 -0.85364335
Link 48 10 162 0 -2.13319518
Link 2 50 167 0 1.52104054
Link 50 16 168 0 -1.91339833
Link 52 13 175 0 0.11105169
Link 8 42 176 0 -1.98798121
Link 53 14 179 0 1.48531947
Link 6 55 186 0 3.75520737
Link 55 12 187 0 -1.41825551
Link 46 10 191 0 1.50459677
Link 56 13 194 0 -1.12571741
Link 12 46 195 1 0.05874026
Link 3 59 210 0 -2.38116740
Link 9 22 222 0 1.49688993
Link 23 12 229 0 -0.53344150
Link 6 63 246 0 2.28972629
Link 63 16 247 0 -1.37505382
Link 42 64 250 0 0.31708981
Link 64 15 251 0 3.57450307
Link 2 65 261 0 4.07568784
Link 65 15 262 0 3.50687676
Link 2 67 272 0 -0.97757708
Link 36 13 290 0 -0.15960359
Link 6 27 291 0 1.96032206
Link 1 69 309 0 -0.30745169
Link 28 28 343 1 3.34407290
Link 52 11 346 0 -0.42332296
Link 77 41 359 0 0.41030803
Link 28 52 395 0 1.61861377
Link 1 82 409 0 0.57947933
Link 82 54 410 0 -0.36564277
Link 7 84 422 0 -1.25756300
Link 84 16 423 0 3.19898043
Link 11 36 435 1 -0.60652573
Link 52 52 465 1 1.64613562
Link 46 12 511 0 -2.90525083
Link 46 14 531 0 -0.22868240
Link 44 98 592 0 -4.26949113
Link 98 12 593 0 -0.74286247
Link 36 100 609 0 -1.35565356
Link 68 102 619 0 1.65625816
Link 102 11 620 0 -1.65633956
Link 41 41 686 1 -1.15756714
Link 58 112 707 0 0.58979035
Link 15 42 714 1 1.27384404
Link 8 125 806 0 1.90670738
Link 125 44 807 0 2.33507298
Link 2 126 817 0 0.91875511
Link 126 11 818 0 0.83704361
Link 54 127 824 0 -0.21254500
Link 127 15 825 0 1.53455493
Link 3 52 832 0 -2.42224180
Link 7 67 841 0 0.37666111
Link 135 56 878 1 -1.06386449
Link 6 138 889 0 2.81730815
Link 138 58 890 0 4.44623602
Link 2 22 893 0 5.40956731
Link 7 140 906 0 0.63755826
Link 140 22 907 0 2.90151426
Link 6 143 927 0 0.95645345
Link 143 77 928 0 -0.52899776
Link 147 18 973 0 -1.59823218
Link 13 53 1001 1 1.73455910
Link 53 67 1032 0 2.32090949
Link 71 162 1104 0 1.97577881
Link 162 13 1105 0 3.18843548
Link 1 166 1136 0 -1.59580085
Link 166 53 1137 0 1.91914783
Link 106 182 1240 0 -4.04296445
Link 182 48 1241 0 1.82806757
Link 28 39 1313 0 -2.25951537
Link 32 199 1358 0 2.78708809
Link 201 32 1374 0 -0.30030105
Link 6 209 1417 0 3.07917308
Link 209 67 1418 0 -1.14106625
Link 5 210 1422 0 -2.14055091
Link 210 70 1423 0 1.44578085
Link 26 211 1429 0 1.68756323
Link 211 14 1430 0 -2.47753664
Link 59 212 1440 0 -3.37851802
Link 135 13 1456 0 0.17933709
Link 225 22 1509 0 -0.36246192
Link 69 234 1546 0 0.47339866
Link 234 16 1547 0 1.39766485
Link 4 237 1571 0 4.64334911
Link 8 34 1623 0 -1.63024110
Link 15 251 1662 1 -2.47545287
Link 39 259 1695 0 1.26499890
Link 259 189 1696 0 -0.03485238
Link 7 260 1698 0 0.55920390
Link 260 13 1699 0 -1.02414324
Link 36 68 1700 0 -0.61597613
Link 7 262 1707 0 -1.81444994
Link 262 71 1708 0 -5.47878447
Link 70 265 1731 0 3.54102946
Link 13 268 1757 1 0.05074407
Link 3 277 1799 0 -0.11974681
Link 277 56 1800 0 -1.96734747
Link 7 289 1884 0 -2.48910367
Link 15 32 1939 1 2.16654883
Link 299 67 1950 1 0.12119190
Link 54 84 2176 0 -0.80806420
Link 332 18 2212 0 1.81918767
Link 4 355 2344 0 0.37261349
Link 355 23 2345 0 -1.39481574
Link 54 364 2392 0 -3.31908657
Link 364 22 2393 0 -0.00329159
Link 251 365 2397 1 2.10928797
Link 365 15 2398 1 4.03995338
Link 54 54 2403 1 -0.99982898
Link 376 225 2456 0 -2.18211789
Link 28 23 2507 0 0.72834763
Link 189 387 2530 0 -0.78321378
Link 387 16 2531 0 -0.19124786
Link 48 135 2533 0 1.14155137
Link 46 397 2613 0 1.57953002
Link 397 15 2614 0 -0.31160774
Link 44 407 2696 0 -4.89981657
Link 36 209 2736 1 -0.17899719
Link 63 15 2820 0 -4.28400940
Link 2 436 2903 0 -2.17261734
Link 5 447 2971 0 -0.25686806
Link 447 13 2972 0 0.62137301
Link 22 76 3000 0 -1.21026104
Link 5 106 3079 0 -1.25156838
Link 478 27 3190 0 -0.46727463
Link 407 480 3206 0 0.78951476
Link 480 63 3207 0 0.78745556
Link 16 485 3238 1 -0.49675626
Link 67 488 3255 0 2.14366045
Link 488 13 3256 0 1.35435869
Link 28 26 3288 0 -3.95937912
Link 442 498 3335 0 -2.92493326
Link 498 15 3336 0 0.98073827
Link 44 501 3376 0 -0.56666458
Link 12 54 3467 1 1.22322530
Link 3 526 3550 0 0.19373404
Link 526 106 3551 0 1.38659245
Link 8 251 3552 0 1.32390497
Link 3 532 3627 0 -2.58086498
Link 112 547 3730 0 -0.46523975
Link 547 15 3731 0 -0.78807171
Link 199 553 3781 0 -0.60263311
Link 553 13 3782 0 -3.33358605
Link 53 556 3791 0 1.49365000
Link 556 76 3792 0 0.50608716
Link 260 260 3816 1 4.88708972
Link 490 559 3823 0 2.07007125
Link 1 560 3826 0 0.15182527
Link 560 121 3827 0 -2.19608403
Link 289 588 4026 0 -1.31802688
Link 588 15 4027 0 2.64314550
Link 76 599 4125 0 0.35212142
Link 599 490 4126 0 1.14493320
Link 46 199 4150 0 0.87902408
Link 265 635 4440 0 0.31315805
Link 635 15 4441 0 -3.42526834
Link 36 26 4452 0 0.57170702
Link 100 643 4493 0 1.51921621
Link 643 12 4494 0 0.82974881
Link 485 669 4722 1 -3.17567001
Link 436 709 5039 0 1.00000000
Link 709 12 5040 0 3.52028454
Link 100 100 5077 1 -3.44207407
Link 28 48 5100 0 1.65376016
Link 76 735 5224 0 3.83344515
Link 735 199 5225 0 3.22869538
Link 189 738 5239 1 3.11709300
Link 738 37 5240 1 -0.05561479
Link 268 745 5288 1 -1.52529218
Link 745 135 5289 1 -1.26871166
Link 289 100 5354 0 0.27061436
Link 532 777 5558 0 0.31217448
Link 22 780 5600 0 2.41194188
Link 780 478 5601 0 0.76270631
Link 237 809 5803 0 -0.14068086
Link 809 28 5804 0 0.43385059
Link 237 121 6066 0 -2.08355005
Link 52 871 6259 0 0.20822084
Link 871 268 6260 0 1.50825002
Link 5 442 6511 0 1.18768157
Link 16 121 6684 1 -0.29932696
Link 934 155 6711 0 1.54950502
Link 155 940 6755 0 -1.64634696
Link 940 46 6756 0 -1.06179201
Link 37 36 6758 0 1.50737600
Link 64 947 6819 0 -0.60720140
Link 947 76 6820 0 4.60784908
Link 39 948 6822 0 -0.05739162
Link 37 956 6928 0 -0.98352835
Link 956 376 6929 0 0.59192807
Link 209 189 6967 0 3.99760249
Link 5 960 6978 0 1.20034038
Link 960 201 6979 0 0.00434696
Link 67 26 7035 0 3.48232893
Link 98 387 7108 0 1.57486435
Link 67 983 7186 0 0.15940754
Link 983 289 7187 0 -0.69071237
Link 7 994 7282 0 0.54712593
Link 994 934 7283 0 -1.10304638
Link 201 532 7317 0 -0.28166509
Link 127 48 7364 1 1.66787849
Link 553 289 7397 1 -1.38575349
Link 225 442 7404 0 2.13094555
Link 121 1030 7592 0 -3.04419094
Link 1030 52 7593 0 -0.64539528
Link 121 1032 7604 0 0.68844344
Link 1032 71 7605 0 -0.97910695
Link 34 1052 7754 0 -1.63950685
Link 1052 18 7755 0 2.73835125
Link 501 1061 7821 0 0.88469813
Link 1061 84 7822 0 -3.16762247
Link 26 199 7823 0 -3.73514544
Link 5 1062 7838 0 -3.45547986
Link 1062 332 7839 0 0.92310434
Link 934 10 7914 0 4.10681310
Link 669 1075 7958 1 2.43697886
Link 1075 46 7959 1 -2.86515174
Link 26 98 7969 0 2.63637333
Link 201 237 8027 0 -0.70685407
Link 376 18 8068 0 0.92232331
Link 53 1096 8221 0 -0.21740220
Link 1096 98 8222 0 1.97389058
Link 13 1100 8277 1 0.94046117
Link 1100 299 8278 1 -3.77869181
Link 777 1133 8595 0 -0.56515397
Link 1133 56 8596 0 -1.34009871
Link 41 948 8645 0 -0.74954053
Link 33 53 8811 0 1.45441296
Link 212 1160 8870 0 0.05323406
Link 1160 14 8871 0 -0.28696195
Link 39 940 8875 1 -0.06353754
Link 56 1161 8877 0 1.42314068
Link 1161 956 8878 0 -0.21949770
Link 15 155 9316 1 -0.60908478
Link 501 777 9427 1 -0.84014992
Link 7 1253 9677 0 0.78602905
Link 1253 147 9678 0 -4.10129175
Link 237 1259 9723 0 -1.31185814
Link 1259 1245 9724 0 0.56396734
Link 98 442 9786 0 0.07919151
Link 71 956 9917 0 2.05391840
Link 485 947 9956 0 -0.50449739
Link 376 237 10034 1 -0.00508318
Link 42 1306 10083 0 4.05231675
Link 1306 23 10084 0 1.45724994
Link 28 1311 10115 0 -0.11035433
Link 994 669 10197 0 -1.56126841
Link 485 63 10208 1 0.87704580
Link 201 478 10306 0 0.15126918
Link 7 56 10477 0 -1.00200987
Link 948 1380 10702 0 1.35527210
Link 1380 251 10703 0 1.47885800
Link 9 121 10787 0 -0.24257174
Link 166 15 10871 0 -1.28356234
Link 2 947 10891 0 -0.22016641
Link 1311 1405 10923 0 0.48079906
Link 1405 490 10924 0 1.04637109
Link 436 36 11017 0 -0.97400879
Link 112 1133 11059 1 -2.42792514
Link 1245 1430 11108 0 -0.65790558
Link 1430 259 11109 0 1.95342478
Link 532 532 11111 1 1.36656981
Link 376 155 11588 1 1.78601169
Link 588 1245 11704 1 1.86836525
Link 225 260 11744 0 1.88058512
Link 33 1306 11829 0 1.85826083
Link 35 18 11879 0 0.25963616
Link 1061 1052 11937 0 1.59713345
Link 436 1405 12072 0 0.72020897
Link 559 1609 12825 0 1.65468055
Link 1609 442 12826 0 -1.35005296
Link 100 956 13089 1 -0.66968590
Link 44 1641 13091 0 0.06785625
Link 1641 745 13092 0 -3.48764085
Link 478 960 13120 1 3.98843040
Link 17 125 13184 1 3.72487992
Link 478 211 13314 0 4.06946780
Link 5 121 14044 0 -1.82280854
Link 52 745 14123 0 -1.20579587
Link 1160 871 14170 1 2.25925321
Link 387 480 14632 1 -2.01594361
Link 643 182 14663 1 -0.99006949
Link 1062 84 14719 0 -2.74646184
Link 485 397 14807 0 2.93039125
Link 809 34 14833 0 1.87642282
GenomeEnd

