GenomeStart 38578
Neuron 1 1 0.00000000 1 0.00000000 0.00000000 0.00000000 0.00000000
Neuron 2 1 0.00000000 1 0.00000000 0.00000000 0.00000000 0.00000000
Neuron 3 1 0.00000000 1 0.00000000 0.00000000 0.00000000 0.00000000
Neuron 4 1 0.00000000 1 0.00000000 0.00000000 0.00000000 0.00000000
Neuron 5 1 0.00000000 1 0.00000000 0.00000000 0.00000000 0.00000000
Neuron 6 1 0.00000000 1 0.00000000 0.00000000 0.00000000 0.00000000
Neuron 7 1 0.00000000 1 0.00000000 0.00000000 0.00000000 0.00000000
Neuron 8 1 0.00000000 1 0.00000000 0.00000000 0.00000000 0.00000000
Neuron 9 2 0.00000000 1 0.00000000 0.00000000 0.00000000 0.00000000
Neuron 10 4 1.00000000 0 1.00000000 0.00000000 0.00000000 0.00000000
Neuron 11 4 1.00000000 0 1.00000000 0.00000000 0.00000000 0.00000000
Neuron 12 4 1.00000000 0 1.00000000 0.00000000 0.00000000 0.00000000
Neuron 13 4 1.00000000 0 1.00000000 0.00000000 0.00000000 0.00000000
Neuron 14 4 1.00000000 0 1.00000000 0.00000000 0.00000000 0.00000000
Neuron 15 4 1.00000000 0 1.00000000 0.00000000 0.00000000 0.00000000
Neuron 16 4 1.00000000 0 1.00000000 0.00000000 0.00000000 0.00000000
Neuron 17 3 0.50000000 1 1.00000000 0.00000000 0.00000000 0.00000000
Neuron 18 3 0.50000000 1 1.00000000 0.00000000 0.00000000 0.00000000
Neuron 20 3 0.50000000 1 1.00000000 0.00000000 0.00000000 0.00000000
Neuron 23 3 0.50000000 1 1.00000000 0.00000000 0.00000000 0.00000000
Neuron 24 3 0.50000000 1 1.00000000 0.00000000 0.00000000 0.00000000
Neuron 29 3 0.50000000 1 1.00000000 0.00000000 0.00000000 0.00000000
Neuron 38 3 0.50000000 1 1.00000000 0.00000000 0.00000000 0.00000000
Neuron 43 3 0.50000000 1 1.00000000 0.00000000 0.00000000 0.00000000
Neuron 45 3 0.50000000 1 1.00000000 0.00000000 0.00000000 0.00000000
Neuron 52 3 0.50000000 1 1.00000000 0.00000000 0.00000000 0.00000000
Neuron 55 3 0.50000000 1 1.00000000 0.00000000 0.00000000 0.00000000
Neuron 66 3 0.50000000 1 1.00000000 0.00000000 0.00000000 0.00000000
Neuron 69 3 0.50000000 1 1.00000000 0.00000000 0.00000000 0.00000000
Neuron 70 3 0.50000000 1 1.00000000 0.00000000 0.00000000 0.00000000
Neuron 87 3 0.25000000 1 1.00000000 0.00000000 0.00000000 0.00000000
Neuron 94 3 0.25000000 1 1.00000000 0.00000000 0.00000000 0.00000000
Neuron 128 3 0.37500000 1 1.00000000 0.00000000 0.00000000 0.00000000
Neuron 130 3 0.75000000 1 1.00000000 0.00000000 0.00000000 0.00000000
Neuron 132 3 0.75000000 1 1.00000000 0.00000000 0.00000000 0.00000000
Neuron 134 3 0.25000000 1 1.00000000 0.00000000 0.00000000 0.00000000
Neuron 177 3 0.75000000 1 1.00000000 0.00000000 0.00000000 0.00000000
Neuron 193 3 0.75000000 1 1.00000000 0.00000000 0.00000000 0.00000000
Neuron 197 3 0.75000000 1 1.00000000 0.00000000 0.00000000 0.00000000
Neuron 204 3 0.25000000 1 1.00000000 0.00000000 0.00000000 0.00000000
Neuron 216 3 0.87500000 1 1.00000000 0.00000000 0.00000000 0.00000000
Neuron 234 3 0.75000000 1 1.00000000 0.00000000 0.00000000 0.00000000
Neuron 238 3 0.75000000 1 1.00000000 0.00000000 0.00000000 0.00000000
Neuron 245 3 0.62500000 1 1.00000000 0.00000000 0.00000000 0.00000000
Neuron 285 3 0.87500000 1 1.00000000 0.00000000 0.00000000 0.00000000
Neuron 293 3 0.81250000 1 1.00000000 0.00000000 0.00000000 0.00000000
Neuron 309 3 0.50000000 1 1.00000000 0.00000000 0.00000000 0.00000000
Neuron 379 3 0.12500000 1 1.00000000 0.00000000 0.00000000 0.00000000
Neuron 401 3 0.62500000 1 1.00000000 0.00000000 0.00000000 0.00000000
Neuron 405 3 0.78125000 1 1.00000000 0.00000000 0.00000000 0.00000000
Neuron 427 3 0.12500000 1 1.00000000 0.00000000 0.00000000 0.00000000
Neuron 474 3 0.75000000 1 1.00000000 0.00000000 0.00000000 0.00000000
Neuron 495 3 0.37500000 1 1.00000000 0.00000000 0.00000000 0.00000000
Neuron 500 3 0.62500000 1 1.00000000 0.00000000 0.00000000 0.00000000
Neuron 507 3 0.25000000 1 1.00000000 0.00000000 0.00000000 0.00000000
Neuron 519 3 0.37500000 1 1.00000000 0.00000000 0.00000000 0.00000000
Neuron 525 3 0.25000000 1 1.00000000 0.00000000 0.00000000 0.00000000
Neuron 604 3 1.00000000 1 1.00000000 0.00000000 0.00000000 0.00000000
Neuron 661 3 0.75000000 1 1.00000000 0.00000000 0.00000000 0.00000000
Neuron 663 3 0.87500000 1 1.00000000 0.00000000 0.00000000 0.00000000
Neuron 671 3 0.25000000 1 1.00000000 0.00000000 0.00000000 0.00000000
Link 2 10 2 0 -0.17163324
Link 3 10 3 0 -5.91624964
Link 4 10 4 0 3.35588030
Link 5 10 5 0 -2.70419542
Link 6 10 6 0 -0.75706322
Link 8 10 8 0 -3.79836490
Link 9 10 9 0 -2.24312303
Link 1 11 10 0 1.97771313
Link 2 11 11 0 5.59518301
Link 4 11 13 0 1.99986300
Link 6 11 15 0 3.31377198
Link 7 11 16 0 4.94699167
Link 9 11 18 0 -2.27224059
Link 1 12 19 0 5.69104217
Link 2 12 20 0 0.05381825
Link 4 12 22 0 0.09643012
Link 5 12 23 0 4.18278066
Link 8 12 26 0 -2.23801040
Link 9 12 27 0 -0.10027566
Link 2 13 29 0 -2.90690566
Link 3 13 30 0 -1.88073507
Link 6 13 33 0 4.42376674
Link 7 13 34 0 5.24195745
Link 8 13 35 0 -1.41502561
Link 9 13 36 0 0.05793276
Link 1 14 37 0 -2.07339571
Link 2 14 38 0 -1.25910093
Link 3 14 39 0 -6.40425685
Link 6 14 42 0 1.40447138
Link 8 14 44 0 -0.98476709
Link 9 14 45 0 -1.31431321
Link 1 15 46 0 -4.02506962
Link 2 15 47 0 0.26041161
Link 6 15 51 0 1.24525114
Link 7 15 52 0 -4.24798929
Link 8 15 53 0 3.26444863
Link 9 15 54 0 1.02259701
Link 4 16 58 0 1.86471451
Link 5 16 59 0 1.61665748
Link 6 16 60 0 6.16817702
Link 9 16 63 0 -2.89878095
Link 8 17 65 0 1.02719158
Link 17 16 66 0 -0.53083888
Link 7 18 68 0 -4.87636400
Link 18 14 69 0 3.77299661
Link 4 23 83 0 -0.77142913
Link 23 15 84 0 3.67267322
Link 4 38 129 0 0.84059541
Link 8 43 146 0 -3.16884811
Link 43 11 147 0 2.03772667
Link 45 11 153 0 4.64125435
Link 1 52 174 0 2.53849195
Link 52 13 175 0 0.11059541
Link 6 55 186 0 1.34618950
Link 55 12 187 0 -0.94381194
Link 3 66 269 0 0.91758559
Link 66 15 270 0 0.52969300
Link 1 69 309 0 0.66746096
Link 5 70 314 0 -0.11307064
Link 70 15 315 0 -2.84223481
Link 52 11 346 0 0.54136564
Link 9 18 405 0 -2.31894338
Link 1 24 426 0 1.19353217
Link 3 87 450 0 0.45748533
Link 87 45 451 0 -0.09762013
Link 18 24 554 0 1.03162317
Link 94 128 837 0 0.98167844
Link 128 20 838 0 2.83513302
Link 130 52 854 1 -1.71249259
Link 38 132 863 0 0.98165474
Link 132 14 864 0 -1.05012865
Link 3 134 873 0 0.36918463
Link 134 24 874 0 -2.42210881
Link 18 20 938 0 -4.75257151
Link 94 14 961 0 4.07441095
Link 11 177 1209 1 -3.66582604
Link 177 43 1210 1 -1.18691191
Link 193 12 1311 0 0.54710342
Link 197 12 1351 0 -1.96984737
Link 204 24 1391 0 3.80468660
Link 10 216 1458 1 1.10850450
Link 216 130 1459 1 1.10629894
Link 69 234 1546 0 1.80755350
Link 234 16 1547 0 4.71997007
Link 29 238 1580 0 0.91851961
Link 238 10 1581 0 1.99912292
Link 24 245 1626 0 1.72944398
Link 245 197 1627 0 0.39843303
Link 4 197 1754 0 3.31747462
Link 285 14 1869 0 -2.50673245
Link 293 285 1907 0 1.13580021
Link 7 309 2017 0 0.96516989
Link 309 14 2018 0 4.76711235
Link 285 13 2106 0 1.60073554
Link 285 10 2120 0 -2.27127369
Link 6 285 2254 0 -1.74378175
Link 70 52 2284 0 -1.88250814
Link 7 379 2471 0 1.13174951
Link 379 94 2472 0 -2.73495090
Link 94 293 2510 0 -1.53112496
Link 14 401 2634 1 -0.80128569
Link 401 204 2635 1 -0.48553054
Link 177 405 2654 0 3.11165457
Link 405 293 2655 0 -0.41408017
Link 18 12 2657 0 1.43002843
Link 24 16 2769 0 -0.34539998
Link 177 16 2826 0 4.49853349
Link 7 427 2840 0 1.53365820
Link 427 204 2841 0 0.89465438
Link 20 474 3150 0 1.94021104
Link 245 495 3313 1 2.06042630
Link 495 427 3314 1 0.66587212
Link 20 500 3357 0 0.04590683
Link 500 193 3358 0 1.11751635
Link 94 507 3420 1 -0.52611763
Link 3 519 3477 0 0.99874418
Link 519 177 3478 0 -1.15100259
Link 1 525 3537 0 1.38051803
Link 525 29 3538 0 1.63667483
Link 38 20 3677 0 -1.76414348
Link 427 23 3708 0 -4.74787912
Link 23 193 3711 0 0.41131275
Link 7 134 3768 0 -0.60487497
Link 10 55 3888 1 4.62756799
Link 45 193 3987 0 3.17014532
Link 12 604 4157 1 0.46455294
Link 604 12 4158 1 -0.88333486
Link 5 66 4180 0 1.85037364
Link 525 10 4228 0 0.65839243
Link 38 12 4249 0 0.78691987
Link 18 401 4413 0 -0.96012312
Link 52 69 4428 0 1.37445150
Link 4 507 4565 0 -1.06924549
Link 525 474 4632 0 -1.87289964
Link 474 661 4657 1 1.03410082
Link 661 474 4658 1 0.03467095
Link 474 663 4669 0 -0.74320684
Link 663 11 4670 0 -1.06490920
Link 507 671 4733 1 1.14072566
Link 671 94 4734 1 -2.39050561
Link 427 427 4769 1 0.66236143
Link 401 525 4935 1 0.97748570
Link 38 405 4977 0 -3.80870848
Link 1 130 4995 0 1.35879570
Link 293 525 5084 1 0.23435227
Link 238 238 5137 1 1.79887971
Link 128 38 5186 0 2.21336917
Link 405 20 5208 1 -1.78528633
Link 525 525 5308 1 3.10393191
Link 519 245 5322 0 0.60576543
Link 8 663 5480 0 1.00698418
Link 132 401 5767 1 -3.39233406
Link 130 204 5811 1 -1.12760737
Link 17 87 5911 1 0.19206874
Link 55 52 5973 0 0.36668248
Link 507 24 6112 0 3.31661962
Link 29 495 6147 1 4.09349581
GenomeEnd

