GenomeStart 49737
Neuron 1 1 0.00000000 1 0.00000000 0.00000000 0.00000000 0.00000000
Neuron 2 1 0.00000000 1 0.00000000 0.00000000 0.00000000 0.00000000
Neuron 3 1 0.00000000 1 0.00000000 0.00000000 0.00000000 0.00000000
Neuron 4 1 0.00000000 1 0.00000000 0.00000000 0.00000000 0.00000000
Neuron 5 1 0.00000000 1 0.00000000 0.00000000 0.00000000 0.00000000
Neuron 6 1 0.00000000 1 0.00000000 0.00000000 0.00000000 0.00000000
Neuron 7 1 0.00000000 1 0.00000000 0.00000000 0.00000000 0.00000000
Neuron 8 1 0.00000000 1 0.00000000 0.00000000 0.00000000 0.00000000
Neuron 9 2 0.00000000 1 0.00000000 0.00000000 0.00000000 0.00000000
Neuron 10 4 1.00000000 0 1.00000000 0.00000000 0.00000000 0.00000000
Neuron 11 4 1.00000000 0 1.00000000 0.00000000 0.00000000 0.00000000
Neuron 12 4 1.00000000 0 1.00000000 0.00000000 0.00000000 0.00000000
Neuron 13 4 1.00000000 0 1.00000000 0.00000000 0.00000000 0.00000000
Neuron 14 4 1.00000000 0 1.00000000 0.00000000 0.00000000 0.00000000
Neuron 15 4 1.00000000 0 1.00000000 0.00000000 0.00000000 0.00000000
Neuron 16 4 1.00000000 0 1.00000000 0.00000000 0.00000000 0.00000000
Neuron 17 3 0.50000000 1 1.00000000 0.00000000 0.00000000 0.00000000
Neuron 18 3 0.50000000 1 1.00000000 0.00000000 0.00000000 0.00000000
Neuron 22 3 0.50000000 1 1.00000000 0.00000000 0.00000000 0.00000000
Neuron 23 3 0.50000000 1 1.00000000 0.00000000 0.00000000 0.00000000
Neuron 26 3 0.50000000 1 1.00000000 0.00000000 0.00000000 0.00000000
Neuron 27 3 0.50000000 1 1.00000000 0.00000000 0.00000000 0.00000000
Neuron 28 3 0.50000000 1 1.00000000 0.00000000 0.00000000 0.00000000
Neuron 32 3 0.50000000 1 1.00000000 0.00000000 0.00000000 0.00000000
Neuron 33 3 0.50000000 1 1.00000000 0.00000000 0.00000000 0.00000000
Neuron 34 3 0.50000000 1 1.00000000 0.00000000 0.00000000 0.00000000
Neuron 35 3 0.50000000 1 1.00000000 0.00000000 0.00000000 0.00000000
Neuron 36 3 0.50000000 1 1.00000000 0.00000000 0.00000000 0.00000000
Neuron 37 3 0.50000000 1 1.00000000 0.00000000 0.00000000 0.00000000
Neuron 39 3 0.50000000 1 1.00000000 0.00000000 0.00000000 0.00000000
Neuron 42 3 0.50000000 1 1.00000000 0.00000000 0.00000000 0.00000000
Neuron 44 3 0.50000000 1 1.00000000 0.00000000 0.00000000 0.00000000
Neuron 46 3 0.50000000 1 1.00000000 0.00000000 0.00000000 0.00000000
Neuron 48 3 0.50000000 1 1.00000000 0.00000000 0.00000000 0.00000000
Neuron 52 3 0.50000000 1 1.00000000 0.00000000 0.00000000 0.00000000
Neuron 53 3 0.50000000 1 1.00000000 0.00000000 0.00000000 0.00000000
Neuron 54 3 0.50000000 1 1.00000000 0.00000000 0.00000000 0.00000000
Neuron 56 3 0.50000000 1 1.00000000 0.00000000 0.00000000 0.00000000
Neuron 58 3 0.50000000 1 1.00000000 0.00000000 0.00000000 0.00000000
Neuron 59 3 0.50000000 1 1.00000000 0.00000000 0.00000000 0.00000000
Neuron 63 3 0.50000000 1 1.00000000 0.00000000 0.00000000 0.00000000
Neuron 64 3 0.75000000 1 1.00000000 0.00000000 0.00000000 0.00000000
Neuron 65 3 0.50000000 1 1.00000000 0.00000000 0.00000000 0.00000000
Neuron 67 3 0.50000000 1 1.00000000 0.00000000 0.00000000 0.00000000
Neuron 68 3 0.50000000 1 1.00000000 0.00000000 0.00000000 0.00000000
Neuron 70 3 0.50000000 1 1.00000000 0.00000000 0.00000000 0.00000000
Neuron 71 3 0.50000000 1 1.00000000 0.00000000 0.00000000 0.00000000
Neuron 76 3 0.75000000 1 1.00000000 0.00000000 0.00000000 0.00000000
Neuron 82 3 0.25000000 1 1.00000000 0.00000000 0.00000000 0.00000000
Neuron 84 3 0.50000000 1 1.00000000 0.00000000 0.00000000 0.00000000
Neuron 98 3 0.75000000 1 1.00000000 0.00000000 0.00000000 0.00000000
Neuron 100 3 0.75000000 1 1.00000000 0.00000000 0.00000000 0.00000000
Neuron 106 3 0.25000000 1 1.00000000 0.00000000 0.00000000 0.00000000
Neuron 121 3 0.25000000 1 1.00000000 0.00000000 0.00000000 0.00000000
Neuron 127 3 0.75000000 1 1.00000000 0.00000000 0.00000000 0.00000000
Neuron 135 3 0.75000000 1 1.00000000 0.00000000 0.00000000 0.00000000
Neuron 155 3 0.25000000 1 1.00000000 0.00000000 0.00000000 0.00000000
Neuron 182 3 0.37500000 1 1.00000000 0.00000000 0.00000000 0.00000000
Neuron 189 3 0.75000000 1 1.00000000 0.00000000 0.00000000 0.00000000
Neuron 199 3 0.75000000 1 1.00000000 0.00000000 0.00000000 0.00000000
Neuron 201 3 0.25000000 1 1.00000000 0.00000000 0.00000000 0.00000000
Neuron 209 3 0.25000000 1 1.00000000 0.00000000 0.00000000 0.00000000
Neuron 210 3 0.25000000 1 1.00000000 0.00000000 0.00000000 0.00000000
Neuron 225 3 0.50000000 1 1.00000000 0.00000000 0.00000000 0.00000000
Neuron 237 3 0.25000000 1 1.00000000 0.00000000 0.00000000 0.00000000
Neuron 251 3 1.00000000 1 1.00000000 0.00000000 0.00000000 0.00000000
Neuron 260 3 0.50000000 1 1.00000000 0.00000000 0.00000000 0.00000000
Neuron 268 3 0.87500000 1 1.00000000 0.00000000 0.00000000 0.00000000
Neuron 277 3 0.25000000 1 1.00000000 0.00000000 0.00000000 0.00000000
Neuron 289 3 0.50000000 1 1.00000000 0.00000000 0.00000000 0.00000000
Neuron 299 3 0.75000000 1 1.00000000 0.00000000 0.00000000 0.00000000
Neuron 332 3 0.25000000 1 1.00000000 0.00000000 0.00000000 0.00000000
Neuron 364 3 0.50000000 1 1.00000000 0.00000000 0.00000000 0.00000000
Neuron 376 3 0.50000000 1 1.00000000 0.00000000 0.00000000 0.00000000
Neuron 387 3 0.87500000 1 1.00000000 0.00000000 0.00000000 0.00000000
Neuron 407 3 0.50000000 1 1.00000000 0.00000000 0.00000000 0.00000000
Neuron 436 3 0.50000000 1 1.00000000 0.00000000 0.00000000 0.00000000
Neuron 442 3 0.87500000 1 1.00000000 0.00000000 0.00000000 0.00000000
Neuron 478 3 0.50000000 1 1.00000000 0.00000000 0.00000000 0.00000000
Neuron 480 3 0.50000000 1 1.00000000 0.00000000 0.00000000 0.00000000
Neuron 485 3 0.75000000 1 1.00000000 0.00000000 0.00000000 0.00000000
Neuron 490 3 0.81250000 1 1.00000000 0.00000000 0.00000000 0.00000000
Neuron 501 3 0.50000000 1 1.00000000 0.00000000 0.00000000 0.00000000
Neuron 532 3 0.25000000 1 1.00000000 0.00000000 0.00000000 0.00000000
Neuron 553 3 0.87500000 1 1.00000000 0.00000000 0.00000000 0.00000000
Neuron 669 3 0.62500000 1 1.00000000 0.00000000 0.00000000 0.00000000
Neuron 738 3 0.62500000 1 1.00000000 0.00000000 0.00000000 0.00000000
Neuron 934 3 0.12500000 1 1.00000000 0.00000000 0.00000000 0.00000000
Neuron 940 3 0.37500000 1 1.00000000 0.00000000 0.00000000 0.00000000
Neuron 947 3 0.75000000 1 1.00000000 0.00000000 0.00000000 0.00000000
Neuron 994 3 0.06250000 1 1.00000000 0.00000000 0.00000000 0.00000000
Neuron 1030 3 0.37500000 1 1.00000000 0.00000000 0.00000000 0.00000000
Neuron 1052 3 0.50000000 1 1.00000000 0.00000000 0.00000000 0.00000000
Link 1 10 1 0 2.98988151
Link 2 10 2 0 0.55357506
Link 3 10 3 0 2.01159232
Link 4 10 4 0 0.30446193
Link 5 10 5 0 -0.41607784
Link 6 10 6 0 0.73137057
Link 7 10 7 0 -0.94726075
Link 8 10 8 0 2.41524125
Link 9 10 9 0 0.10342349
Link 1 11 10 0 1.95967155
Link 2 11 11 0 -1.69340923
Link 3 11 12 0 -0.78768678
Link 6 11 15 0 0.96275081
Link 7 11 16 0 -2.47904470
Link 8 11 17 0 -1.42541199
Link 9 11 18 0 2.14385408
Link 1 12 19 0 0.85494646
Link 3 12 21 0 -0.99174932
Link 4 12 22 0 1.26663932
Link 5 12 23 0 -1.57625938
Link 6 12 24 0 0.40520003
Link 7 12 25 0 0.19729508
Link 8 12 26 0 1.49428719
Link 9 12 27 0 0.81940121
Link 1 13 28 0 1.99921527
Link 2 13 29 0 0.31711518
Link 3 13 30 0 0.73266484
Link 5 13 32 0 0.20885425
Link 6 13 33 0 0.68044870
Link 8 13 35 0 3.64001015
Link 1 14 37 0 -1.58092385
Link 2 14 38 0 -0.76891076
Link 4 14 40 0 -2.91239164
Link 5 14 41 0 0.27876038
Link 6 14 42 0 -2.94875911
Link 7 14 43 0 -3.27785279
Link 8 14 44 0 1.19678694
Link 9 14 45 0 -0.17823911
Link 1 15 46 0 -0.74886853
Link 3 15 48 0 -0.18774212
Link 4 15 49 0 -0.16414502
Link 9 15 54 0 1.35027967
Link 1 16 55 0 -0.75285278
Link 2 16 56 0 -1.04925197
Link 3 16 57 0 2.16957983
Link 4 16 58 0 0.76757896
Link 5 16 59 0 -0.38332112
Link 6 16 60 0 -0.14697895
Link 7 16 61 0 1.84609336
Link 8 17 65 0 3.48660385
Link 17 16 66 0 -2.22238033
Link 7 18 68 0 -0.27863791
Link 18 14 69 0 1.16203579
Link 7 22 80 0 -1.42336604
Link 22 11 81 0 1.50996374
Link 4 23 83 0 -0.99475943
Link 23 15 84 0 -0.26847616
Link 2 26 93 0 -1.13569670
Link 26 14 94 0 -0.24227437
Link 8 27 96 0 0.52542634
Link 27 14 97 0 2.36554057
Link 28 11 100 0 -0.56193019
Link 4 33 114 0 0.27154209
Link 33 10 115 0 -0.71757881
Link 5 34 117 0 2.85204949
Link 34 11 118 0 -1.83020839
Link 4 35 120 0 1.05705534
Link 35 13 121 0 -0.27011991
Link 2 36 123 0 -0.05168211
Link 6 37 126 0 -0.48020087
Link 37 11 127 0 -1.48619157
Link 3 39 132 0 1.02196481
Link 39 16 133 0 1.84461223
Link 7 42 143 0 -0.75554833
Link 8 44 149 0 -0.31493848
Link 8 46 155 0 -0.88245552
Link 46 15 156 0 -0.07262395
Link 48 10 162 0 -0.85429731
Link 52 13 175 0 1.43438943
Link 8 42 176 0 -0.26534527
Link 1 53 178 0 0.06185170
Link 53 14 179 0 1.16444816
Link 46 10 191 0 -1.42599839
Link 56 13 194 0 0.45576730
Link 12 46 195 1 3.30877550
Link 6 58 202 0 -0.13700496
Link 58 15 203 0 -0.97991947
Link 3 59 210 0 -1.20876014
Link 59 14 211 0 -0.07740851
Link 9 22 222 0 -0.55993784
Link 6 63 246 0 -0.44569736
Link 63 16 247 0 0.97467072
Link 42 64 250 0 -0.14427791
Link 64 15 251 0 -0.43419720
Link 2 65 261 0 0.15266012
Link 65 15 262 0 -0.64122901
Link 2 67 272 0 -1.21942028
Link 67 13 273 0 -1.26370159
Link 36 13 290 0 -0.03368018
Link 6 27 291 0 -0.73452091
Link 2 68 303 0 -5.05188333
Link 68 11 304 0 -2.01267971
Link 70 15 315 0 2.12963255
Link 7 71 318 0 2.11038463
Link 71 13 319 0 -3.11190090
Link 52 11 346 0 -0.07276896
Link 46 76 350 0 -0.82100294
Link 28 52 395 0 0.48565521
Link 1 82 409 0 0.39365869
Link 82 54 410 0 0.72087532
Link 7 84 422 0 -0.61082175
Link 84 16 423 0 -3.01092859
Link 11 36 435 1 -1.78354088
Link 52 52 465 1 -0.74062922
Link 46 12 511 0 2.03290812
Link 46 14 531 0 -0.20643098
Link 44 98 592 0 0.50666779
Link 98 12 593 0 -0.80532841
Link 36 100 609 0 0.80152127
Link 100 12 610 0 -1.87885247
Link 3 106 667 0 -1.15544858
Link 15 42 714 1 1.32961222
Link 1 121 786 0 -2.57122190
Link 54 127 824 0 1.22711205
Link 127 15 825 0 -1.61418563
Link 3 52 832 0 -1.53965856
Link 7 67 841 0 -1.59220464
Link 135 56 878 1 0.46994118
Link 2 22 893 0 -0.02277852
Link 13 53 1001 1 -1.55034394
Link 53 67 1032 0 -1.62419439
Link 106 182 1240 0 -0.99863801
Link 182 48 1241 0 3.65142113
Link 39 189 1274 0 -1.89239388
Link 28 39 1313 0 -2.34244968
Link 32 199 1358 0 -2.18198989
Link 5 201 1373 0 -3.06458078
Link 201 32 1374 0 -1.34570458
Link 6 209 1417 0 -0.96678596
Link 209 67 1418 0 -4.89216791
Link 53 76 1419 0 -0.07587375
Link 5 210 1422 0 2.67900609
Link 210 70 1423 0 2.55866617
Link 135 13 1456 0 0.00908260
Link 225 22 1509 0 1.45590342
Link 4 237 1571 0 -0.07934804
Link 237 28 1572 0 -0.79678670
Link 8 34 1623 0 0.35897476
Link 15 251 1662 1 -0.12641311
Link 251 15 1663 1 0.56840417
Link 7 260 1698 0 -0.12068424
Link 260 13 1699 0 0.83976608
Link 36 68 1700 0 -0.72083541
Link 13 268 1757 1 1.14169633
Link 268 135 1758 1 -3.63363658
Link 3 277 1799 0 1.18040548
Link 277 56 1800 0 -0.34632856
Link 7 289 1884 0 1.91594647
Link 289 15 1885 0 -0.70427548
Link 15 32 1939 1 -0.18375986
Link 13 299 1949 1 0.01530587
Link 299 67 1950 1 1.38032092
Link 54 84 2176 0 0.19985416
Link 5 332 2211 0 -0.90799106
Link 332 18 2212 0 -0.92982746
Link 54 364 2392 0 -0.26035104
Link 364 22 2393 0 -1.21127098
Link 54 54 2403 1 -0.64066057
Link 37 376 2455 0 -1.73264820
Link 376 225 2456 0 2.13042726
Link 28 23 2507 0 0.02536688
Link 189 387 2530 0 -0.16667050
Link 387 16 2531 0 0.25026700
Link 44 407 2696 0 1.64325839
Link 36 209 2736 1 -1.99692347
Link 63 15 2820 0 -0.94496285
Link 2 436 2903 0 1.93217503
Link 436 12 2904 0 0.86358986
Link 442 15 2928 0 -0.57365274
Link 22 76 3000 0 -0.60619783
Link 5 106 3079 0 -0.33727720
Link 22 478 3189 0 0.06900220
Link 478 27 3190 0 0.94033545
Link 407 480 3206 0 -1.45447482
Link 480 63 3207 0 -0.19654255
Link 16 485 3238 1 -1.08565706
Link 76 490 3263 0 0.51457615
Link 490 442 3264 0 1.35115314
Link 28 26 3288 0 -1.43059305
Link 44 501 3376 0 -1.15724317
Link 501 84 3377 0 -0.01364774
Link 12 54 3467 1 -0.04601885
Link 8 251 3552 0 -0.78497552
Link 3 532 3627 0 -0.40681943
Link 532 56 3628 0 -0.06401335
Link 199 553 3781 0 -0.15881992
Link 553 13 3782 0 -0.15390562
Link 39 251 4136 0 -1.52366564
Link 76 199 4222 0 0.66532247
Link 36 26 4452 0 3.00615741
Link 485 669 4722 1 1.71753929
Link 669 46 4723 1 -0.90446136
Link 28 48 5100 0 -1.15292356
Link 121 71 5179 0 0.17223817
Link 52 268 5222 0 -0.61275606
Link 189 738 5239 1 0.52265849
Link 738 37 5240 1 -0.14907708
Link 289 100 5354 0 -0.69944974
Link 237 121 6066 0 1.42770262
Link 67 289 6231 0 0.13035156
Link 58 442 6398 0 -2.96182889
Link 16 121 6684 1 1.31173725
Link 934 155 6711 0 0.34928347
Link 155 940 6755 0 -1.73702771
Link 940 46 6756 0 -0.39170007
Link 37 36 6758 0 2.00194922
Link 53 98 6796 0 0.28132048
Link 64 947 6819 0 0.88229394
Link 947 76 6820 0 -1.83008823
Link 209 189 6967 0 2.33818936
Link 98 387 7108 0 1.40361383
Link 7 994 7282 0 0.09824081
Link 994 934 7283 0 -2.10800936
Link 201 532 7317 0 0.30566192
Link 127 48 7364 1 2.11474183
Link 553 289 7397 1 -0.68911472
Link 121 1030 7592 0 0.97381162
Link 1030 52 7593 0 2.08666143
Link 34 1052 7754 0 1.44077205
Link 1052 18 7755 0 -2.09513234
Link 26 199 7823 0 1.78539168
Link 934 10 7914 0 2.24056816
Link 26 98 7969 0 0.58342975
Link 201 237 8027 0 1.25121071
Link 376 18 8068 0 4.36317217
GenomeEnd

