GenomeStart 12410
Neuron 1 1 0.00000000 1 0.00000000 0.00000000 0.00000000 0.00000000
Neuron 2 1 0.00000000 1 0.00000000 0.00000000 0.00000000 0.00000000
Neuron 3 1 0.00000000 1 0.00000000 0.00000000 0.00000000 0.00000000
Neuron 4 1 0.00000000 1 0.00000000 0.00000000 0.00000000 0.00000000
Neuron 5 1 0.00000000 1 0.00000000 0.00000000 0.00000000 0.00000000
Neuron 6 1 0.00000000 1 0.00000000 0.00000000 0.00000000 0.00000000
Neuron 7 1 0.00000000 1 0.00000000 0.00000000 0.00000000 0.00000000
Neuron 8 1 0.00000000 1 0.00000000 0.00000000 0.00000000 0.00000000
Neuron 9 2 0.00000000 1 0.00000000 0.00000000 0.00000000 0.00000000
Neuron 10 4 1.00000000 0 1.00000000 0.00000000 0.00000000 0.00000000
Neuron 11 4 1.00000000 0 1.00000000 0.00000000 0.00000000 0.00000000
Neuron 12 4 1.00000000 0 1.00000000 0.00000000 0.00000000 0.00000000
Neuron 13 4 1.00000000 0 1.00000000 0.00000000 0.00000000 0.00000000
Neuron 14 4 1.00000000 0 1.00000000 0.00000000 0.00000000 0.00000000
Neuron 15 4 1.00000000 0 1.00000000 0.00000000 0.00000000 0.00000000
Neuron 16 4 1.00000000 0 1.00000000 0.00000000 0.00000000 0.00000000
Neuron 19 3 0.50000000 1 1.00000000 0.00000000 0.00000000 0.00000000
Neuron 20 3 0.50000000 1 1.00000000 0.00000000 0.00000000 0.00000000
Neuron 21 3 0.50000000 1 1.00000000 0.00000000 0.00000000 0.00000000
Neuron 35 3 0.50000000 1 1.00000000 0.00000000 0.00000000 0.00000000
Neuron 42 3 0.50000000 1 1.00000000 0.00000000 0.00000000 0.00000000
Neuron 53 3 0.50000000 1 1.00000000 0.00000000 0.00000000 0.00000000
Neuron 113 3 0.75000000 1 1.00000000 0.00000000 0.00000000 0.00000000
Neuron 168 3 0.50000000 1 1.00000000 0.00000000 0.00000000 0.00000000
Link 1 10 1 0 1.06767769
Link 2 10 2 0 -0.04787486
Link 3 10 3 0 -2.93907856
Link 4 10 4 0 1.64728703
Link 5 10 5 0 3.16780586
Link 7 10 7 0 2.73235974
Link 8 10 8 0 -1.18738893
Link 9 10 9 0 0.11674840
Link 1 11 10 0 0.43029304
Link 2 11 11 0 1.76180253
Link 3 11 12 0 0.80080453
Link 4 11 13 0 0.65545317
Link 5 11 14 0 -0.61956051
Link 6 11 15 0 0.18164288
Link 7 11 16 0 1.66885534
Link 8 11 17 0 -0.62967536
Link 9 11 18 0 1.38112889
Link 1 12 19 0 -0.84237694
Link 3 12 21 0 -0.54774561
Link 4 12 22 0 -1.10179189
Link 5 12 23 0 -0.26838637
Link 6 12 24 0 -0.43385615
Link 8 12 26 0 0.70176986
Link 9 12 27 0 -0.11969546
Link 1 13 28 0 2.90775994
Link 2 13 29 0 0.03793636
Link 3 13 30 0 -0.07317410
Link 5 13 32 0 -3.46588308
Link 6 13 33 0 2.31382663
Link 7 13 34 0 3.24972639
Link 9 13 36 0 0.00744916
Link 2 14 38 0 -3.62294660
Link 3 14 39 0 -0.37089122
Link 4 14 40 0 2.39569456
Link 5 14 41 0 -2.26867897
Link 6 14 42 0 3.00179470
Link 7 14 43 0 -1.34103577
Link 8 14 44 0 -0.03456774
Link 9 14 45 0 -0.48727548
Link 1 15 46 0 -0.37065789
Link 2 15 47 0 -1.16396912
Link 3 15 48 0 0.51781235
Link 4 15 49 0 1.14154899
Link 5 15 50 0 1.27885614
Link 6 15 51 0 -2.19063751
Link 8 15 53 0 -2.73517220
Link 9 15 54 0 4.13438705
Link 1 16 55 0 -2.19285308
Link 2 16 56 0 1.54898125
Link 3 16 57 0 3.20757717
Link 4 16 58 0 1.62855053
Link 5 16 59 0 1.25083690
Link 6 16 60 0 -2.48412580
Link 7 16 61 0 -2.48755595
Link 8 16 62 0 -0.05336997
Link 9 16 63 0 -0.02076520
Link 6 19 71 0 0.20611901
Link 19 10 72 0 1.39190325
Link 7 20 74 0 1.84855068
Link 20 12 75 0 -2.96241646
Link 8 21 77 0 -0.80232378
Link 21 13 78 0 0.16153670
Link 4 35 120 0 -0.59664283
Link 35 13 121 0 -1.08162736
Link 7 42 143 0 2.66104767
Link 42 15 144 0 -1.77051679
Link 11 11 172 1 1.93864551
Link 1 53 178 0 -2.48143355
Link 53 14 179 0 -0.87568568
Link 9 35 329 0 1.65694600
Link 42 21 565 0 1.03994428
Link 3 35 581 0 0.42109950
Link 9 53 611 0 0.72087919
Link 15 42 714 1 -0.24346143
Link 21 113 720 0 2.94913593
Link 113 11 721 0 -1.53243277
Link 16 21 1007 1 0.61863251
Link 7 21 1086 0 1.91377440
Link 53 168 1145 0 2.36655278
Link 168 21 1146 0 -0.57746007
Link 35 20 1223 0 -4.11763968
Link 168 10 1362 0 -2.14098593
Link 14 35 1500 1 1.20674817
Link 42 42 1592 1 -0.37499977
GenomeEnd

