GenomeStart 94258
Neuron 1 1 0.00000000 1 0.00000000 0.00000000 0.00000000 0.00000000
Neuron 2 1 0.00000000 1 0.00000000 0.00000000 0.00000000 0.00000000
Neuron 3 1 0.00000000 1 0.00000000 0.00000000 0.00000000 0.00000000
Neuron 4 1 0.00000000 1 0.00000000 0.00000000 0.00000000 0.00000000
Neuron 5 1 0.00000000 1 0.00000000 0.00000000 0.00000000 0.00000000
Neuron 6 1 0.00000000 1 0.00000000 0.00000000 0.00000000 0.00000000
Neuron 7 1 0.00000000 1 0.00000000 0.00000000 0.00000000 0.00000000
Neuron 8 1 0.00000000 1 0.00000000 0.00000000 0.00000000 0.00000000
Neuron 9 2 0.00000000 1 0.00000000 0.00000000 0.00000000 0.00000000
Neuron 10 4 1.00000000 0 1.00000000 0.00000000 0.00000000 0.00000000
Neuron 11 4 1.00000000 0 1.00000000 0.00000000 0.00000000 0.00000000
Neuron 12 4 1.00000000 0 1.00000000 0.00000000 0.00000000 0.00000000
Neuron 13 4 1.00000000 0 1.00000000 0.00000000 0.00000000 0.00000000
Neuron 14 4 1.00000000 0 1.00000000 0.00000000 0.00000000 0.00000000
Neuron 15 4 1.00000000 0 1.00000000 0.00000000 0.00000000 0.00000000
Neuron 16 4 1.00000000 0 1.00000000 0.00000000 0.00000000 0.00000000
Neuron 17 3 0.50000000 1 1.00000000 0.00000000 0.00000000 0.00000000
Neuron 18 3 0.50000000 1 1.00000000 0.00000000 0.00000000 0.00000000
Neuron 19 3 0.50000000 1 1.00000000 0.00000000 0.00000000 0.00000000
Neuron 20 3 0.50000000 1 1.00000000 0.00000000 0.00000000 0.00000000
Neuron 22 3 0.50000000 1 1.00000000 0.00000000 0.00000000 0.00000000
Neuron 23 3 0.50000000 1 1.00000000 0.00000000 0.00000000 0.00000000
Neuron 26 3 0.50000000 1 1.00000000 0.00000000 0.00000000 0.00000000
Neuron 27 3 0.50000000 1 1.00000000 0.00000000 0.00000000 0.00000000
Neuron 28 3 0.50000000 1 1.00000000 0.00000000 0.00000000 0.00000000
Neuron 32 3 0.50000000 1 1.00000000 0.00000000 0.00000000 0.00000000
Neuron 33 3 0.50000000 1 1.00000000 0.00000000 0.00000000 0.00000000
Neuron 34 3 0.50000000 1 1.00000000 0.00000000 0.00000000 0.00000000
Neuron 35 3 0.50000000 1 1.00000000 0.00000000 0.00000000 0.00000000
Neuron 36 3 0.50000000 1 1.00000000 0.00000000 0.00000000 0.00000000
Neuron 37 3 0.50000000 1 1.00000000 0.00000000 0.00000000 0.00000000
Neuron 38 3 0.50000000 1 1.00000000 0.00000000 0.00000000 0.00000000
Neuron 39 3 0.50000000 1 1.00000000 0.00000000 0.00000000 0.00000000
Neuron 41 3 0.50000000 1 1.00000000 0.00000000 0.00000000 0.00000000
Neuron 42 3 0.50000000 1 1.00000000 0.00000000 0.00000000 0.00000000
Neuron 44 3 0.50000000 1 1.00000000 0.00000000 0.00000000 0.00000000
Neuron 46 3 0.50000000 1 1.00000000 0.00000000 0.00000000 0.00000000
Neuron 48 3 0.50000000 1 1.00000000 0.00000000 0.00000000 0.00000000
Neuron 50 3 0.50000000 1 1.00000000 0.00000000 0.00000000 0.00000000
Neuron 52 3 0.50000000 1 1.00000000 0.00000000 0.00000000 0.00000000
Neuron 53 3 0.50000000 1 1.00000000 0.00000000 0.00000000 0.00000000
Neuron 54 3 0.50000000 1 1.00000000 0.00000000 0.00000000 0.00000000
Neuron 56 3 0.50000000 1 1.00000000 0.00000000 0.00000000 0.00000000
Neuron 58 3 0.50000000 1 1.00000000 0.00000000 0.00000000 0.00000000
Neuron 59 3 0.50000000 1 1.00000000 0.00000000 0.00000000 0.00000000
Neuron 60 3 0.50000000 1 1.00000000 0.00000000 0.00000000 0.00000000
Neuron 63 3 0.50000000 1 1.00000000 0.00000000 0.00000000 0.00000000
Neuron 64 3 0.75000000 1 1.00000000 0.00000000 0.00000000 0.00000000
Neuron 65 3 0.50000000 1 1.00000000 0.00000000 0.00000000 0.00000000
Neuron 67 3 0.50000000 1 1.00000000 0.00000000 0.00000000 0.00000000
Neuron 68 3 0.50000000 1 1.00000000 0.00000000 0.00000000 0.00000000
Neuron 70 3 0.50000000 1 1.00000000 0.00000000 0.00000000 0.00000000
Neuron 71 3 0.50000000 1 1.00000000 0.00000000 0.00000000 0.00000000
Neuron 76 3 0.75000000 1 1.00000000 0.00000000 0.00000000 0.00000000
Neuron 77 3 0.25000000 1 1.00000000 0.00000000 0.00000000 0.00000000
Neuron 80 3 0.25000000 1 1.00000000 0.00000000 0.00000000 0.00000000
Neuron 82 3 0.25000000 1 1.00000000 0.00000000 0.00000000 0.00000000
Neuron 84 3 0.50000000 1 1.00000000 0.00000000 0.00000000 0.00000000
Neuron 92 3 0.87500000 1 1.00000000 0.00000000 0.00000000 0.00000000
Neuron 98 3 0.75000000 1 1.00000000 0.00000000 0.00000000 0.00000000
Neuron 100 3 0.75000000 1 1.00000000 0.00000000 0.00000000 0.00000000
Neuron 106 3 0.25000000 1 1.00000000 0.00000000 0.00000000 0.00000000
Neuron 121 3 0.25000000 1 1.00000000 0.00000000 0.00000000 0.00000000
Neuron 127 3 0.75000000 1 1.00000000 0.00000000 0.00000000 0.00000000
Neuron 135 3 0.75000000 1 1.00000000 0.00000000 0.00000000 0.00000000
Neuron 138 3 0.25000000 1 1.00000000 0.00000000 0.00000000 0.00000000
Neuron 147 3 0.25000000 1 1.00000000 0.00000000 0.00000000 0.00000000
Neuron 155 3 0.25000000 1 1.00000000 0.00000000 0.00000000 0.00000000
Neuron 158 3 0.87500000 1 1.00000000 0.00000000 0.00000000 0.00000000
Neuron 162 3 0.75000000 1 1.00000000 0.00000000 0.00000000 0.00000000
Neuron 164 3 0.75000000 1 1.00000000 0.00000000 0.00000000 0.00000000
Neuron 169 3 0.25000000 1 1.00000000 0.00000000 0.00000000 0.00000000
Neuron 170 3 0.25000000 1 1.00000000 0.00000000 0.00000000 0.00000000
Neuron 182 3 0.37500000 1 1.00000000 0.00000000 0.00000000 0.00000000
Neuron 189 3 0.75000000 1 1.00000000 0.00000000 0.00000000 0.00000000
Neuron 199 3 0.75000000 1 1.00000000 0.00000000 0.00000000 0.00000000
Neuron 201 3 0.25000000 1 1.00000000 0.00000000 0.00000000 0.00000000
Neuron 209 3 0.25000000 1 1.00000000 0.00000000 0.00000000 0.00000000
Neuron 210 3 0.25000000 1 1.00000000 0.00000000 0.00000000 0.00000000
Neuron 212 3 0.75000000 1 1.00000000 0.00000000 0.00000000 0.00000000
Neuron 225 3 0.50000000 1 1.00000000 0.00000000 0.00000000 0.00000000
Neuron 237 3 0.25000000 1 1.00000000 0.00000000 0.00000000 0.00000000
Neuron 251 3 1.00000000 1 1.00000000 0.00000000 0.00000000 0.00000000
Neuron 259 3 0.62500000 1 1.00000000 0.00000000 0.00000000 0.00000000
Neuron 260 3 0.50000000 1 1.00000000 0.00000000 0.00000000 0.00000000
Neuron 262 3 0.25000000 1 1.00000000 0.00000000 0.00000000 0.00000000
Neuron 268 3 0.87500000 1 1.00000000 0.00000000 0.00000000 0.00000000
Neuron 277 3 0.25000000 1 1.00000000 0.00000000 0.00000000 0.00000000
Neuron 287 3 0.25000000 1 1.00000000 0.00000000 0.00000000 0.00000000
Neuron 289 3 0.50000000 1 1.00000000 0.00000000 0.00000000 0.00000000
Neuron 299 3 0.75000000 1 1.00000000 0.00000000 0.00000000 0.00000000
Neuron 309 3 0.50000000 1 1.00000000 0.00000000 0.00000000 0.00000000
Neuron 319 3 0.50000000 1 1.00000000 0.00000000 0.00000000 0.00000000
Neuron 332 3 0.25000000 1 1.00000000 0.00000000 0.00000000 0.00000000
Neuron 364 3 0.50000000 1 1.00000000 0.00000000 0.00000000 0.00000000
Neuron 376 3 0.50000000 1 1.00000000 0.00000000 0.00000000 0.00000000
Neuron 387 3 0.87500000 1 1.00000000 0.00000000 0.00000000 0.00000000
Neuron 397 3 0.75000000 1 1.00000000 0.00000000 0.00000000 0.00000000
Neuron 407 3 0.50000000 1 1.00000000 0.00000000 0.00000000 0.00000000
Neuron 419 3 0.50000000 1 1.00000000 0.00000000 0.00000000 0.00000000
Neuron 436 3 0.50000000 1 1.00000000 0.00000000 0.00000000 0.00000000
Neuron 442 3 0.87500000 1 1.00000000 0.00000000 0.00000000 0.00000000
Neuron 478 3 0.50000000 1 1.00000000 0.00000000 0.00000000 0.00000000
Neuron 480 3 0.50000000 1 1.00000000 0.00000000 0.00000000 0.00000000
Neuron 485 3 0.75000000 1 1.00000000 0.00000000 0.00000000 0.00000000
Neuron 490 3 0.81250000 1 1.00000000 0.00000000 0.00000000 0.00000000
Neuron 501 3 0.50000000 1 1.00000000 0.00000000 0.00000000 0.00000000
Neuron 532 3 0.25000000 1 1.00000000 0.00000000 0.00000000 0.00000000
Neuron 553 3 0.87500000 1 1.00000000 0.00000000 0.00000000 0.00000000
Neuron 560 3 0.12500000 1 1.00000000 0.00000000 0.00000000 0.00000000
Neuron 588 3 0.75000000 1 1.00000000 0.00000000 0.00000000 0.00000000
Neuron 589 3 0.25000000 1 1.00000000 0.00000000 0.00000000 0.00000000
Neuron 605 3 0.37500000 1 1.00000000 0.00000000 0.00000000 0.00000000
Neuron 669 3 0.62500000 1 1.00000000 0.00000000 0.00000000 0.00000000
Neuron 735 3 0.75000000 1 1.00000000 0.00000000 0.00000000 0.00000000
Neuron 737 3 0.50000000 1 1.00000000 0.00000000 0.00000000 0.00000000
Neuron 738 3 0.62500000 1 1.00000000 0.00000000 0.00000000 0.00000000
Neuron 745 3 0.81250000 1 1.00000000 0.00000000 0.00000000 0.00000000
Neuron 759 3 0.37500000 1 1.00000000 0.00000000 0.00000000 0.00000000
Neuron 777 3 0.37500000 1 1.00000000 0.00000000 0.00000000 0.00000000
Neuron 809 3 0.37500000 1 1.00000000 0.00000000 0.00000000 0.00000000
Neuron 871 3 0.68750000 1 1.00000000 0.00000000 0.00000000 0.00000000
Neuron 916 3 0.68750000 1 1.00000000 0.00000000 0.00000000 0.00000000
Neuron 925 3 0.50000000 1 1.00000000 0.00000000 0.00000000 0.00000000
Neuron 934 3 0.12500000 1 1.00000000 0.00000000 0.00000000 0.00000000
Neuron 940 3 0.37500000 1 1.00000000 0.00000000 0.00000000 0.00000000
Neuron 947 3 0.75000000 1 1.00000000 0.00000000 0.00000000 0.00000000
Neuron 948 3 0.75000000 1 1.00000000 0.00000000 0.00000000 0.00000000
Neuron 956 3 0.50000000 1 1.00000000 0.00000000 0.00000000 0.00000000
Neuron 979 3 0.31250000 1 1.00000000 0.00000000 0.00000000 0.00000000
Neuron 994 3 0.06250000 1 1.00000000 0.00000000 0.00000000 0.00000000
Neuron 1030 3 0.37500000 1 1.00000000 0.00000000 0.00000000 0.00000000
Neuron 1052 3 0.50000000 1 1.00000000 0.00000000 0.00000000 0.00000000
Neuron 1062 3 0.12500000 1 1.00000000 0.00000000 0.00000000 0.00000000
Neuron 1075 3 0.56250000 1 1.00000000 0.00000000 0.00000000 0.00000000
Neuron 1084 3 0.75000000 1 1.00000000 0.00000000 0.00000000 0.00000000
Neuron 1096 3 0.62500000 1 1.00000000 0.00000000 0.00000000 0.00000000
Neuron 1245 3 0.25000000 1 1.00000000 0.00000000 0.00000000 0.00000000
Neuron 1253 3 0.12500000 1 1.00000000 0.00000000 0.00000000 0.00000000
Neuron 1259 3 0.25000000 1 1.00000000 0.00000000 0.00000000 0.00000000
Neuron 1270 3 0.37500000 1 1.00000000 0.00000000 0.00000000 0.00000000
Neuron 1288 3 0.78125000 1 1.00000000 0.00000000 0.00000000 0.00000000
Neuron 1306 3 0.50000000 1 1.00000000 0.00000000 0.00000000 0.00000000
Neuron 1348 3 0.37500000 1 1.00000000 0.00000000 0.00000000 0.00000000
Neuron 1444 3 0.25000000 1 1.00000000 0.00000000 0.00000000 0.00000000
Neuron 1479 3 0.87500000 1 1.00000000 0.00000000 0.00000000 0.00000000
Neuron 1502 3 0.62500000 1 1.00000000 0.00000000 0.00000000 0.00000000
Neuron 1630 3 0.43750000 1 1.00000000 0.00000000 0.00000000 0.00000000
Neuron 1637 3 0.93750000 1 1.00000000 0.00000000 0.00000000 0.00000000
Neuron 1679 3 0.37500000 1 1.00000000 0.00000000 0.00000000 0.00000000
Neuron 1703 3 0.68750000 1 1.00000000 0.00000000 0.00000000 0.00000000
Neuron 1723 3 0.50000000 1 1.00000000 0.00000000 0.00000000 0.00000000
Neuron 1739 3 0.50000000 1 1.00000000 0.00000000 0.00000000 0.00000000
Neuron 1757 3 0.96875000 1 1.00000000 0.00000000 0.00000000 0.00000000
Link 1 10 1 0 1.64598150
Link 2 10 2 0 1.83562534
Link 3 10 3 0 -0.34896562
Link 4 10 4 0 5.12950401
Link 7 10 7 0 -0.65306199
Link 8 10 8 0 0.73576522
Link 9 10 9 0 -0.06083192
Link 1 11 10 0 3.47189422
Link 2 11 11 0 -0.98994714
Link 3 11 12 0 0.11524791
Link 6 11 15 0 -2.23740384
Link 8 11 17 0 -0.03727551
Link 9 11 18 0 0.69341872
Link 1 12 19 0 1.16411216
Link 3 12 21 0 0.48576761
Link 4 12 22 0 2.29389279
Link 5 12 23 0 -1.24236490
Link 6 12 24 0 -0.47848157
Link 8 12 26 0 -1.19272215
Link 9 12 27 0 -0.60247603
Link 1 13 28 0 1.85603522
Link 2 13 29 0 0.09225278
Link 3 13 30 0 0.53006162
Link 5 13 32 0 -1.76063995
Link 6 13 33 0 -1.07023841
Link 8 13 35 0 -3.17981945
Link 1 14 37 0 -1.31092543
Link 2 14 38 0 0.60021514
Link 5 14 41 0 2.92799646
Link 8 14 44 0 1.50283310
Link 9 14 45 0 -0.59510091
Link 1 15 46 0 0.66785522
Link 3 15 48 0 -2.01723883
Link 4 15 49 0 1.73174274
Link 9 15 54 0 0.34500605
Link 1 16 55 0 -0.97562850
Link 3 16 57 0 0.67923781
Link 4 16 58 0 0.37129692
Link 5 16 59 0 1.19663387
Link 7 16 61 0 3.98078203
Link 8 17 65 0 -2.92383418
Link 17 16 66 0 -0.68672904
Link 18 14 69 0 0.00395813
Link 6 19 71 0 -1.42332763
Link 19 10 72 0 0.23751457
Link 7 20 74 0 -0.07570147
Link 20 12 75 0 1.29743923
Link 7 22 80 0 -1.80586928
Link 22 11 81 0 -1.76819495
Link 4 23 83 0 -3.36074293
Link 23 15 84 0 1.85396028
Link 2 26 93 0 3.12749359
Link 26 14 94 0 -1.19960947
Link 27 14 97 0 -0.54124900
Link 28 11 100 0 -1.98096887
Link 4 33 114 0 1.77363198
Link 5 34 117 0 -0.90133168
Link 34 11 118 0 2.60019184
Link 4 35 120 0 -1.81034716
Link 35 13 121 0 1.54762846
Link 2 36 123 0 1.25079357
Link 6 37 126 0 -2.16500971
Link 37 11 127 0 0.72257113
Link 4 38 129 0 0.83389960
Link 38 14 130 0 2.10240372
Link 39 16 133 0 0.72750067
Link 41 14 140 0 -1.25811303
Link 7 42 143 0 0.16003136
Link 8 44 149 0 1.57740225
Link 8 46 155 0 -2.26748634
Link 48 10 162 0 2.93289389
Link 50 16 168 0 0.15213464
Link 52 13 175 0 -0.98897529
Link 8 42 176 0 -1.99026293
Link 1 53 178 0 -0.83407203
Link 53 14 179 0 -1.65759983
Link 46 10 191 0 -1.91325927
Link 56 13 194 0 -0.34197891
Link 12 46 195 1 1.59159934
Link 58 15 203 0 -0.89528982
Link 3 59 210 0 -1.86664501
Link 5 60 214 0 2.57872094
Link 60 10 215 0 0.01701526
Link 9 22 222 0 -3.39452855
Link 6 63 246 0 0.33870225
Link 63 16 247 0 -2.34239342
Link 42 64 250 0 -0.57028923
Link 2 65 261 0 1.90391581
Link 65 15 262 0 0.53940439
Link 67 13 273 0 2.52104293
Link 36 13 290 0 -1.02897101
Link 6 27 291 0 -0.46823022
Link 2 68 303 0 0.62348134
Link 68 11 304 0 1.48392775
Link 70 15 315 0 5.95035495
Link 28 28 343 1 1.52094081
Link 52 11 346 0 -0.10435818
Link 46 76 350 0 -1.06817351
Link 6 77 358 0 -1.47986275
Link 77 41 359 0 0.70367546
Link 8 80 391 0 -0.14519052
Link 80 27 392 0 4.34149406
Link 28 52 395 0 0.25493791
Link 1 82 409 0 0.54268769
Link 7 84 422 0 -0.22692394
Link 84 16 423 0 2.13027400
Link 11 36 435 1 -1.57794052
Link 52 52 465 1 0.06816750
Link 46 12 511 0 -1.82936954
Link 64 92 519 0 -0.43887048
Link 92 15 520 0 -0.84907360
Link 46 14 531 0 -2.51276295
Link 44 98 592 0 0.69908394
Link 36 100 609 0 0.76639399
Link 100 12 610 0 -1.59547348
Link 3 106 667 0 0.18928490
Link 15 42 714 1 1.40376596
Link 54 127 824 0 -1.66658250
Link 127 15 825 0 3.66776165
Link 3 52 832 0 -2.82057047
Link 7 67 841 0 0.66985197
Link 135 56 878 1 1.35430748
Link 6 138 889 0 -3.68632286
Link 138 58 890 0 0.70758451
Link 2 22 893 0 0.30014201
Link 147 18 973 0 1.02913140
Link 13 53 1001 1 0.36433185
Link 53 67 1032 0 -1.69564968
Link 98 158 1075 0 0.10735432
Link 158 12 1076 0 0.99946886
Link 71 162 1104 0 -2.24536428
Link 162 13 1105 0 3.10868417
Link 33 164 1110 0 1.04691263
Link 164 10 1111 0 1.36321573
Link 2 169 1149 0 -1.97234202
Link 169 50 1150 0 -0.73741753
Link 2 170 1153 0 3.21433685
Link 170 67 1154 0 3.58860136
Link 182 48 1241 0 -2.81581211
Link 18 18 1251 1 -2.01490934
Link 28 39 1313 0 -0.07329498
Link 32 199 1358 0 -1.16855293
Link 5 201 1373 0 0.96597013
Link 201 32 1374 0 -2.85578407
Link 6 209 1417 0 2.48658241
Link 209 67 1418 0 0.52601387
Link 53 76 1419 0 1.74454512
Link 5 210 1422 0 -1.61234288
Link 210 70 1423 0 -0.32622492
Link 59 212 1440 0 4.38069343
Link 212 14 1441 0 -0.20056779
Link 135 13 1456 0 0.13712765
Link 225 22 1509 0 4.98912607
Link 4 237 1571 0 -2.68340186
Link 8 34 1623 0 1.80496421
Link 15 251 1662 1 -1.84823163
Link 251 15 1663 1 1.63973828
Link 39 259 1695 0 -0.66529416
Link 259 189 1696 0 -0.36971570
Link 260 13 1699 0 3.29758908
Link 36 68 1700 0 -0.32998520
Link 7 262 1707 0 2.94443960
Link 262 71 1708 0 -0.12750196
Link 13 268 1757 1 3.79764197
Link 34 19 1797 0 -0.60221745
Link 3 277 1799 0 -2.10662693
Link 277 56 1800 0 1.07031255
Link 3 287 1877 0 -0.92419201
Link 7 289 1884 0 -3.52731807
Link 15 32 1939 1 3.38865013
Link 13 299 1949 1 0.52642546
Link 299 67 1950 1 1.45047441
Link 7 309 2017 0 0.60123610
Link 309 14 2018 0 -0.14377448
Link 7 319 2100 0 3.75672929
Link 319 11 2101 0 1.43156359
Link 17 33 2129 0 -0.80517753
Link 54 84 2176 0 -3.17067449
Link 54 364 2392 0 -1.48749360
Link 364 22 2393 0 2.49393032
Link 54 54 2403 1 -3.03651534
Link 376 225 2456 0 2.01470696
Link 28 23 2507 0 0.28242628
Link 189 387 2530 0 1.63932670
Link 387 16 2531 0 -1.51522734
Link 46 397 2613 0 1.77981305
Link 397 15 2614 0 -0.65100565
Link 44 407 2696 0 -0.90600568
Link 46 52 2760 0 1.73979930
Link 6 419 2787 0 -4.02406757
Link 63 15 2820 0 1.15858423
Link 2 436 2903 0 1.09740993
Link 436 12 2904 0 1.86393209
Link 442 15 2928 0 1.15519571
Link 22 76 3000 0 -2.43576798
Link 5 106 3079 0 -2.84623118
Link 22 478 3189 0 1.73478961
Link 478 27 3190 0 1.49971682
Link 407 480 3206 0 0.69100029
Link 480 63 3207 0 -0.23015447
Link 16 485 3238 1 -0.33333680
Link 48 27 3261 0 1.45537608
Link 76 490 3263 0 -0.04567817
Link 490 442 3264 0 -0.47551497
Link 28 26 3288 0 1.47155598
Link 44 501 3376 0 1.41582899
Link 501 84 3377 0 0.46541948
Link 23 268 3393 0 2.05935165
Link 12 54 3467 1 2.64251181
Link 8 251 3552 0 -0.61711077
Link 3 532 3627 0 -4.13481110
Link 199 553 3781 0 -2.47147615
Link 553 13 3782 0 -2.89578993
Link 1 560 3826 0 -1.04645174
Link 560 121 3827 0 -1.41221551
Link 7 589 4035 0 -0.09476040
Link 36 605 4164 1 -1.93841363
Link 605 209 4165 1 1.93588738
Link 41 225 4455 0 0.79236865
Link 84 17 4896 0 1.49807743
Link 121 71 5179 0 -0.17117135
Link 76 735 5224 0 2.82708295
Link 735 199 5225 0 1.06399127
Link 28 737 5236 0 -1.03339760
Link 737 48 5237 0 0.51253824
Link 189 738 5239 1 -1.78516929
Link 738 37 5240 1 -0.02061137
Link 268 745 5288 1 -1.98637289
Link 745 135 5289 1 2.48762974
Link 289 100 5354 0 0.50350737
Link 287 759 5393 0 0.85586141
Link 759 39 5394 0 -0.35901093
Link 532 777 5558 0 2.92080306
Link 777 56 5559 0 0.96381267
Link 237 809 5803 0 -2.44613617
Link 809 28 5804 0 -1.82028606
Link 237 121 6066 0 -0.63307263
Link 67 289 6231 0 2.06234351
Link 52 871 6259 0 1.05072992
Link 5 442 6511 0 0.57693364
Link 485 916 6586 1 0.16647234
Link 916 669 6587 1 -1.03317863
Link 36 925 6643 0 -0.29774267
Link 925 26 6644 0 -0.71683631
Link 16 121 6684 1 -2.75867609
Link 934 155 6711 0 -2.02358424
Link 155 940 6755 0 -0.64596369
Link 940 46 6756 0 -1.91300289
Link 37 36 6758 0 -0.48191385
Link 64 947 6819 0 2.06995387
Link 947 76 6820 0 1.14574540
Link 39 948 6822 0 -0.36051990
Link 948 251 6823 0 1.08001051
Link 37 956 6928 0 0.63943232
Link 956 376 6929 0 1.11821868
Link 209 189 6967 0 -0.14858465
Link 67 26 7035 0 2.20752001
Link 98 387 7108 0 -0.47512507
Link 106 979 7155 0 -0.15808452
Link 979 182 7156 0 -0.35909933
Link 7 994 7282 0 -1.03439053
Link 994 934 7283 0 0.47835622
Link 201 532 7317 0 1.21134677
Link 127 48 7364 1 -0.49230418
Link 553 289 7397 1 -0.90062942
Link 121 1030 7592 0 -1.16425168
Link 1030 52 7593 0 -0.98731465
Link 34 1052 7754 0 1.73063077
Link 1052 18 7755 0 -1.80745317
Link 26 199 7823 0 -0.41024767
Link 5 1062 7838 0 -3.08651690
Link 1062 332 7839 0 -1.17430339
Link 934 10 7914 0 5.60110518
Link 669 1075 7958 1 1.75441484
Link 1075 46 7959 1 1.76548065
Link 26 98 7969 0 1.08469747
Link 201 237 8027 0 1.19457974
Link 419 1084 8063 0 1.29592806
Link 1084 16 8064 0 -1.99804085
Link 376 18 8068 0 -1.09247495
Link 53 1096 8221 0 1.56732056
Link 1096 98 8222 0 -2.95912125
Link 948 199 8593 0 -0.90340428
Link 41 948 8645 0 -0.59000386
Link 28 490 8682 0 0.72293213
Link 54 71 8684 0 -0.13062869
Link 33 53 8811 0 -2.10848483
Link 39 940 8875 1 1.18915089
Link 155 155 8899 1 -2.07730983
Link 15 155 9316 1 4.66817909
Link 501 777 9427 1 2.20866772
Link 1245 259 9644 0 4.21224931
Link 7 1253 9677 0 -0.06843679
Link 1253 147 9678 0 -0.63332760
Link 237 1259 9723 0 1.68285927
Link 1259 1245 9724 0 0.04719000
Link 98 442 9786 0 0.13596070
Link 82 1270 9796 0 0.85470417
Link 1270 54 9797 0 0.02815325
Link 71 956 9917 0 4.09427212
Link 871 1288 9935 0 1.22807775
Link 1288 268 9936 0 -0.24664649
Link 485 947 9956 0 0.52075193
Link 376 237 10034 1 -1.43295151
Link 478 84 10066 0 -0.56660219
Link 42 1306 10083 0 -0.82731848
Link 1306 23 10084 0 -0.73040115
Link 277 17 10198 0 0.09586170
Link 106 64 10225 0 5.40535223
Link 20 956 10372 0 1.70356778
Link 332 1348 10445 0 2.42949116
Link 1348 18 10446 0 1.22984677
Link 947 735 10473 0 -1.20346379
Link 121 947 10856 0 -0.92314118
Link 364 10 10954 0 -5.13803270
Link 809 76 10978 0 -0.12057797
Link 26 100 11238 0 0.72152581
Link 5 1444 11240 0 -1.75598641
Link 1444 501 11241 0 2.19762485
Link 106 33 11259 0 -0.89369340
Link 82 994 11404 1 0.31054077
Link 956 76 11431 0 0.35135464
Link 106 994 11452 1 2.59873707
Link 36 268 11468 0 3.24449907
Link 98 67 11514 1 -2.69274148
Link 7 397 11583 0 -0.61336832
Link 588 1479 11598 0 -0.63548135
Link 289 1502 11797 0 -0.50419036
Link 1502 588 11798 0 -1.62827724
Link 33 1096 12573 0 -3.22437390
Link 37 147 12584 1 -2.83442451
Link 212 777 12632 1 1.02422003
Link 32 1630 12998 1 0.98389827
Link 1630 605 12999 1 -0.58012395
Link 1479 1637 13060 0 -0.88171937
Link 319 809 13084 1 -1.28939123
Link 589 1679 13438 0 -0.66523355
Link 1679 260 13439 0 1.06773535
Link 34 934 13486 1 -1.31651040
Link 158 1703 13621 1 1.47809071
Link 1703 23 13622 1 -2.06367134
Link 42 199 13711 0 -0.64943559
Link 37 1723 13800 0 0.66028964
Link 1723 26 13801 0 2.73022553
Link 36 1739 13926 0 2.21734094
Link 1739 54 13927 0 0.61052776
Link 1637 1757 14042 0 -0.23861273
Link 1757 15 14043 0 -5.46783319
Link 6 442 14169 0 -1.35503493
Link 259 1259 14536 1 1.72739641
Link 48 364 14630 0 3.53309899
Link 42 553 14866 0 -0.95535987
Link 1306 32 15103 0 -2.60749724
Link 397 138 15328 1 1.16040137
Link 478 14 15404 0 -0.21493846
Link 48 442 15595 0 -0.05569365
Link 940 1348 15932 0 -3.85960988
Link 1630 84 16002 0 4.40435437
Link 48 162 16077 0 0.31863544
Link 1 84 16095 0 0.99189720
Link 39 56 16233 0 -3.62980907
GenomeEnd

