GenomeStart 60757
Neuron 1 1 0.00000000 1 0.00000000 0.00000000 0.00000000 0.00000000
Neuron 2 1 0.00000000 1 0.00000000 0.00000000 0.00000000 0.00000000
Neuron 3 1 0.00000000 1 0.00000000 0.00000000 0.00000000 0.00000000
Neuron 4 1 0.00000000 1 0.00000000 0.00000000 0.00000000 0.00000000
Neuron 5 1 0.00000000 1 0.00000000 0.00000000 0.00000000 0.00000000
Neuron 6 1 0.00000000 1 0.00000000 0.00000000 0.00000000 0.00000000
Neuron 7 1 0.00000000 1 0.00000000 0.00000000 0.00000000 0.00000000
Neuron 8 1 0.00000000 1 0.00000000 0.00000000 0.00000000 0.00000000
Neuron 9 2 0.00000000 1 0.00000000 0.00000000 0.00000000 0.00000000
Neuron 10 4 1.00000000 0 1.00000000 0.00000000 0.00000000 0.00000000
Neuron 11 4 1.00000000 0 1.00000000 0.00000000 0.00000000 0.00000000
Neuron 12 4 1.00000000 0 1.00000000 0.00000000 0.00000000 0.00000000
Neuron 13 4 1.00000000 0 1.00000000 0.00000000 0.00000000 0.00000000
Neuron 14 4 1.00000000 0 1.00000000 0.00000000 0.00000000 0.00000000
Neuron 15 4 1.00000000 0 1.00000000 0.00000000 0.00000000 0.00000000
Neuron 16 4 1.00000000 0 1.00000000 0.00000000 0.00000000 0.00000000
Neuron 17 3 0.50000000 1 1.00000000 0.00000000 0.00000000 0.00000000
Neuron 18 3 0.50000000 1 1.00000000 0.00000000 0.00000000 0.00000000
Neuron 20 3 0.50000000 1 1.00000000 0.00000000 0.00000000 0.00000000
Neuron 22 3 0.50000000 1 1.00000000 0.00000000 0.00000000 0.00000000
Neuron 23 3 0.50000000 1 1.00000000 0.00000000 0.00000000 0.00000000
Neuron 26 3 0.50000000 1 1.00000000 0.00000000 0.00000000 0.00000000
Neuron 27 3 0.50000000 1 1.00000000 0.00000000 0.00000000 0.00000000
Neuron 28 3 0.50000000 1 1.00000000 0.00000000 0.00000000 0.00000000
Neuron 32 3 0.50000000 1 1.00000000 0.00000000 0.00000000 0.00000000
Neuron 33 3 0.50000000 1 1.00000000 0.00000000 0.00000000 0.00000000
Neuron 34 3 0.50000000 1 1.00000000 0.00000000 0.00000000 0.00000000
Neuron 35 3 0.50000000 1 1.00000000 0.00000000 0.00000000 0.00000000
Neuron 36 3 0.50000000 1 1.00000000 0.00000000 0.00000000 0.00000000
Neuron 37 3 0.50000000 1 1.00000000 0.00000000 0.00000000 0.00000000
Neuron 39 3 0.50000000 1 1.00000000 0.00000000 0.00000000 0.00000000
Neuron 41 3 0.50000000 1 1.00000000 0.00000000 0.00000000 0.00000000
Neuron 42 3 0.50000000 1 1.00000000 0.00000000 0.00000000 0.00000000
Neuron 44 3 0.50000000 1 1.00000000 0.00000000 0.00000000 0.00000000
Neuron 46 3 0.50000000 1 1.00000000 0.00000000 0.00000000 0.00000000
Neuron 48 3 0.50000000 1 1.00000000 0.00000000 0.00000000 0.00000000
Neuron 52 3 0.50000000 1 1.00000000 0.00000000 0.00000000 0.00000000
Neuron 53 3 0.50000000 1 1.00000000 0.00000000 0.00000000 0.00000000
Neuron 54 3 0.50000000 1 1.00000000 0.00000000 0.00000000 0.00000000
Neuron 56 3 0.50000000 1 1.00000000 0.00000000 0.00000000 0.00000000
Neuron 58 3 0.50000000 1 1.00000000 0.00000000 0.00000000 0.00000000
Neuron 59 3 0.50000000 1 1.00000000 0.00000000 0.00000000 0.00000000
Neuron 63 3 0.50000000 1 1.00000000 0.00000000 0.00000000 0.00000000
Neuron 64 3 0.75000000 1 1.00000000 0.00000000 0.00000000 0.00000000
Neuron 65 3 0.50000000 1 1.00000000 0.00000000 0.00000000 0.00000000
Neuron 67 3 0.50000000 1 1.00000000 0.00000000 0.00000000 0.00000000
Neuron 68 3 0.50000000 1 1.00000000 0.00000000 0.00000000 0.00000000
Neuron 70 3 0.50000000 1 1.00000000 0.00000000 0.00000000 0.00000000
Neuron 71 3 0.50000000 1 1.00000000 0.00000000 0.00000000 0.00000000
Neuron 76 3 0.75000000 1 1.00000000 0.00000000 0.00000000 0.00000000
Neuron 77 3 0.25000000 1 1.00000000 0.00000000 0.00000000 0.00000000
Neuron 82 3 0.25000000 1 1.00000000 0.00000000 0.00000000 0.00000000
Neuron 84 3 0.50000000 1 1.00000000 0.00000000 0.00000000 0.00000000
Neuron 98 3 0.75000000 1 1.00000000 0.00000000 0.00000000 0.00000000
Neuron 100 3 0.75000000 1 1.00000000 0.00000000 0.00000000 0.00000000
Neuron 106 3 0.25000000 1 1.00000000 0.00000000 0.00000000 0.00000000
Neuron 121 3 0.25000000 1 1.00000000 0.00000000 0.00000000 0.00000000
Neuron 127 3 0.75000000 1 1.00000000 0.00000000 0.00000000 0.00000000
Neuron 135 3 0.75000000 1 1.00000000 0.00000000 0.00000000 0.00000000
Neuron 147 3 0.25000000 1 1.00000000 0.00000000 0.00000000 0.00000000
Neuron 155 3 0.25000000 1 1.00000000 0.00000000 0.00000000 0.00000000
Neuron 182 3 0.37500000 1 1.00000000 0.00000000 0.00000000 0.00000000
Neuron 189 3 0.75000000 1 1.00000000 0.00000000 0.00000000 0.00000000
Neuron 199 3 0.75000000 1 1.00000000 0.00000000 0.00000000 0.00000000
Neuron 201 3 0.25000000 1 1.00000000 0.00000000 0.00000000 0.00000000
Neuron 209 3 0.25000000 1 1.00000000 0.00000000 0.00000000 0.00000000
Neuron 210 3 0.25000000 1 1.00000000 0.00000000 0.00000000 0.00000000
Neuron 212 3 0.75000000 1 1.00000000 0.00000000 0.00000000 0.00000000
Neuron 225 3 0.50000000 1 1.00000000 0.00000000 0.00000000 0.00000000
Neuron 237 3 0.25000000 1 1.00000000 0.00000000 0.00000000 0.00000000
Neuron 251 3 1.00000000 1 1.00000000 0.00000000 0.00000000 0.00000000
Neuron 259 3 0.62500000 1 1.00000000 0.00000000 0.00000000 0.00000000
Neuron 260 3 0.50000000 1 1.00000000 0.00000000 0.00000000 0.00000000
Neuron 262 3 0.25000000 1 1.00000000 0.00000000 0.00000000 0.00000000
Neuron 268 3 0.87500000 1 1.00000000 0.00000000 0.00000000 0.00000000
Neuron 277 3 0.25000000 1 1.00000000 0.00000000 0.00000000 0.00000000
Neuron 289 3 0.50000000 1 1.00000000 0.00000000 0.00000000 0.00000000
Neuron 299 3 0.75000000 1 1.00000000 0.00000000 0.00000000 0.00000000
Neuron 332 3 0.25000000 1 1.00000000 0.00000000 0.00000000 0.00000000
Neuron 364 3 0.50000000 1 1.00000000 0.00000000 0.00000000 0.00000000
Neuron 376 3 0.50000000 1 1.00000000 0.00000000 0.00000000 0.00000000
Neuron 387 3 0.87500000 1 1.00000000 0.00000000 0.00000000 0.00000000
Neuron 397 3 0.75000000 1 1.00000000 0.00000000 0.00000000 0.00000000
Neuron 407 3 0.50000000 1 1.00000000 0.00000000 0.00000000 0.00000000
Neuron 436 3 0.50000000 1 1.00000000 0.00000000 0.00000000 0.00000000
Neuron 442 3 0.87500000 1 1.00000000 0.00000000 0.00000000 0.00000000
Neuron 478 3 0.50000000 1 1.00000000 0.00000000 0.00000000 0.00000000
Neuron 480 3 0.50000000 1 1.00000000 0.00000000 0.00000000 0.00000000
Neuron 485 3 0.75000000 1 1.00000000 0.00000000 0.00000000 0.00000000
Neuron 490 3 0.81250000 1 1.00000000 0.00000000 0.00000000 0.00000000
Neuron 501 3 0.50000000 1 1.00000000 0.00000000 0.00000000 0.00000000
Neuron 532 3 0.25000000 1 1.00000000 0.00000000 0.00000000 0.00000000
Neuron 553 3 0.87500000 1 1.00000000 0.00000000 0.00000000 0.00000000
Neuron 560 3 0.12500000 1 1.00000000 0.00000000 0.00000000 0.00000000
Neuron 669 3 0.62500000 1 1.00000000 0.00000000 0.00000000 0.00000000
Neuron 735 3 0.75000000 1 1.00000000 0.00000000 0.00000000 0.00000000
Neuron 738 3 0.62500000 1 1.00000000 0.00000000 0.00000000 0.00000000
Neuron 745 3 0.81250000 1 1.00000000 0.00000000 0.00000000 0.00000000
Neuron 777 3 0.37500000 1 1.00000000 0.00000000 0.00000000 0.00000000
Neuron 871 3 0.68750000 1 1.00000000 0.00000000 0.00000000 0.00000000
Neuron 934 3 0.12500000 1 1.00000000 0.00000000 0.00000000 0.00000000
Neuron 940 3 0.37500000 1 1.00000000 0.00000000 0.00000000 0.00000000
Neuron 947 3 0.75000000 1 1.00000000 0.00000000 0.00000000 0.00000000
Neuron 948 3 0.75000000 1 1.00000000 0.00000000 0.00000000 0.00000000
Neuron 956 3 0.50000000 1 1.00000000 0.00000000 0.00000000 0.00000000
Neuron 994 3 0.06250000 1 1.00000000 0.00000000 0.00000000 0.00000000
Neuron 1030 3 0.37500000 1 1.00000000 0.00000000 0.00000000 0.00000000
Neuron 1052 3 0.50000000 1 1.00000000 0.00000000 0.00000000 0.00000000
Neuron 1062 3 0.12500000 1 1.00000000 0.00000000 0.00000000 0.00000000
Neuron 1075 3 0.56250000 1 1.00000000 0.00000000 0.00000000 0.00000000
Neuron 1096 3 0.62500000 1 1.00000000 0.00000000 0.00000000 0.00000000
Neuron 1245 3 0.25000000 1 1.00000000 0.00000000 0.00000000 0.00000000
Neuron 1259 3 0.25000000 1 1.00000000 0.00000000 0.00000000 0.00000000
Neuron 1306 3 0.50000000 1 1.00000000 0.00000000 0.00000000 0.00000000
Link 1 10 1 0 3.69824089
Link 2 10 2 0 0.73681415
Link 3 10 3 0 1.03153586
Link 4 10 4 0 -0.37324073
Link 5 10 5 0 0.01194785
Link 6 10 6 0 0.91221442
Link 7 10 7 0 -0.14416135
Link 8 10 8 0 0.82695377
Link 9 10 9 0 -0.48239772
Link 1 11 10 0 1.74371894
Link 2 11 11 0 0.62551951
Link 3 11 12 0 -0.75037658
Link 6 11 15 0 -0.66103348
Link 7 11 16 0 -1.25063049
Link 8 11 17 0 -0.89890002
Link 9 11 18 0 3.14471841
Link 1 12 19 0 1.74158573
Link 3 12 21 0 -1.08085539
Link 4 12 22 0 0.66005854
Link 5 12 23 0 -0.54188627
Link 6 12 24 0 -0.27715999
Link 8 12 26 0 1.85343170
Link 9 12 27 0 0.98438373
Link 1 13 28 0 0.86491854
Link 2 13 29 0 -0.18058297
Link 3 13 30 0 -0.01490967
Link 5 13 32 0 -0.22583525
Link 6 13 33 0 2.04382916
Link 8 13 35 0 2.46848668
Link 1 14 37 0 -1.33540852
Link 2 14 38 0 -2.26776088
Link 4 14 40 0 -2.21771905
Link 5 14 41 0 -0.77280538
Link 7 14 43 0 -2.90864158
Link 8 14 44 0 -0.15660435
Link 9 14 45 0 0.91171487
Link 1 15 46 0 -0.45525351
Link 3 15 48 0 -1.34542769
Link 4 15 49 0 -0.88302207
Link 9 15 54 0 0.27163802
Link 1 16 55 0 -0.81267606
Link 2 16 56 0 2.67016462
Link 3 16 57 0 0.29435177
Link 4 16 58 0 0.59828387
Link 5 16 59 0 0.07061194
Link 6 16 60 0 0.16988513
Link 7 16 61 0 2.83766454
Link 8 17 65 0 3.48778602
Link 17 16 66 0 -1.39630307
Link 18 14 69 0 0.29717380
Link 7 20 74 0 0.73687324
Link 20 12 75 0 -1.01038434
Link 7 22 80 0 2.32626346
Link 22 11 81 0 -1.56651847
Link 4 23 83 0 0.19117036
Link 23 15 84 0 -1.18301339
Link 2 26 93 0 1.77428926
Link 26 14 94 0 -0.16580919
Link 8 27 96 0 1.26243333
Link 27 14 97 0 0.81967583
Link 28 11 100 0 0.19197479
Link 4 33 114 0 -0.08932115
Link 33 10 115 0 -0.65133280
Link 5 34 117 0 -0.30290648
Link 34 11 118 0 -2.43721382
Link 4 35 120 0 -1.29768355
Link 35 13 121 0 0.01153193
Link 2 36 123 0 -2.28696654
Link 6 37 126 0 -2.16541304
Link 37 11 127 0 -1.49430255
Link 3 39 132 0 1.24430492
Link 39 16 133 0 1.38513889
Link 41 14 140 0 -1.36010391
Link 7 42 143 0 0.19653662
Link 8 44 149 0 -0.66598184
Link 8 46 155 0 -1.04410190
Link 48 10 162 0 0.35613322
Link 52 13 175 0 -0.84690251
Link 8 42 176 0 -2.17583613
Link 1 53 178 0 -0.45877139
Link 53 14 179 0 -0.01248390
Link 46 10 191 0 -1.71822468
Link 56 13 194 0 0.36873305
Link 12 46 195 1 2.58507894
Link 6 58 202 0 0.62430542
Link 58 15 203 0 -0.07212118
Link 3 59 210 0 -2.67561403
Link 9 22 222 0 0.42069611
Link 6 63 246 0 -0.50861031
Link 63 16 247 0 1.81310583
Link 42 64 250 0 -0.77541779
Link 64 15 251 0 1.02388755
Link 2 65 261 0 0.78534265
Link 65 15 262 0 -1.89336952
Link 2 67 272 0 -0.67921460
Link 67 13 273 0 0.09496256
Link 36 13 290 0 -0.94396650
Link 6 27 291 0 -0.73925043
Link 2 68 303 0 -5.58048668
Link 68 11 304 0 -0.22983970
Link 70 15 315 0 -2.62078516
Link 71 13 319 0 -0.02901055
Link 28 28 343 1 0.32471453
Link 52 11 346 0 0.65961495
Link 46 76 350 0 1.02374335
Link 6 77 358 0 1.68164485
Link 77 41 359 0 1.86225410
Link 28 52 395 0 -0.03128353
Link 1 82 409 0 -0.06073876
Link 82 54 410 0 1.49717793
Link 7 84 422 0 0.23731101
Link 84 16 423 0 -2.04577014
Link 11 36 435 1 -1.74541225
Link 52 52 465 1 -0.58302469
Link 46 12 511 0 1.99563824
Link 46 14 531 0 -0.32766877
Link 44 98 592 0 0.23803764
Link 98 12 593 0 -2.15317944
Link 36 100 609 0 2.60929760
Link 100 12 610 0 -1.55406855
Link 3 106 667 0 -0.40218556
Link 15 42 714 1 0.81751549
Link 54 127 824 0 0.80121543
Link 127 15 825 0 -1.48427517
Link 3 52 832 0 -1.57456300
Link 7 67 841 0 -0.31420890
Link 135 56 878 1 -0.09082551
Link 2 22 893 0 1.28737535
Link 7 147 972 0 1.27123688
Link 147 18 973 0 0.04699113
Link 13 53 1001 1 -1.28600191
Link 53 67 1032 0 -0.60240962
Link 106 182 1240 0 0.02465469
Link 182 48 1241 0 3.81515798
Link 28 39 1313 0 -2.00991793
Link 32 199 1358 0 -0.51188104
Link 5 201 1373 0 -1.85003322
Link 201 32 1374 0 -1.18685336
Link 6 209 1417 0 -1.07421980
Link 209 67 1418 0 -4.80878852
Link 53 76 1419 0 -0.98502447
Link 5 210 1422 0 0.32951382
Link 210 70 1423 0 2.80570589
Link 59 212 1440 0 1.34892109
Link 212 14 1441 0 1.03138602
Link 135 13 1456 0 -0.90089281
Link 225 22 1509 0 -0.85440158
Link 4 237 1571 0 -1.36693852
Link 237 28 1572 0 -0.48398467
Link 8 34 1623 0 1.43604382
Link 15 251 1662 1 0.25520041
Link 251 15 1663 1 0.68868170
Link 39 259 1695 0 0.96435757
Link 259 189 1696 0 -1.06153183
Link 7 260 1698 0 -1.25658395
Link 260 13 1699 0 -0.29112604
Link 36 68 1700 0 -0.56655329
Link 7 262 1707 0 0.56420103
Link 262 71 1708 0 -3.04666162
Link 13 268 1757 1 -0.06784084
Link 3 277 1799 0 1.12336843
Link 277 56 1800 0 -0.23518526
Link 7 289 1884 0 1.96243446
Link 289 15 1885 0 -0.21247664
Link 15 32 1939 1 1.51480104
Link 13 299 1949 1 0.22957122
Link 299 67 1950 1 -0.83096842
Link 54 84 2176 0 -0.92175109
Link 332 18 2212 0 -0.05657452
Link 54 364 2392 0 -1.34030508
Link 364 22 2393 0 0.01503337
Link 54 54 2403 1 1.04515270
Link 376 225 2456 0 2.22082930
Link 28 23 2507 0 -0.72416819
Link 189 387 2530 0 -4.27370787
Link 387 16 2531 0 0.63427426
Link 46 397 2613 0 2.69328751
Link 397 15 2614 0 0.99472979
Link 44 407 2696 0 -0.61676796
Link 36 209 2736 1 -2.31246467
Link 63 15 2820 0 -1.54320924
Link 2 436 2903 0 0.02302389
Link 436 12 2904 0 0.32422442
Link 442 15 2928 0 -0.77526473
Link 22 76 3000 0 -0.31808260
Link 5 106 3079 0 -1.64802581
Link 22 478 3189 0 1.68554115
Link 478 27 3190 0 -0.77693680
Link 407 480 3206 0 -1.25797471
Link 480 63 3207 0 2.65171051
Link 16 485 3238 1 -0.08793220
Link 76 490 3263 0 0.76099921
Link 490 442 3264 0 1.80905190
Link 28 26 3288 0 0.22209420
Link 44 501 3376 0 2.10328685
Link 501 84 3377 0 0.06336078
Link 12 54 3467 1 -0.11712844
Link 8 251 3552 0 -2.45928074
Link 3 532 3627 0 -0.36350641
Link 199 553 3781 0 0.33747554
Link 553 13 3782 0 1.63944244
Link 1 560 3826 0 1.81963491
Link 560 121 3827 0 -2.85969380
Link 46 199 4150 0 1.96870497
Link 36 26 4452 0 3.94534986
Link 485 669 4722 1 -0.27772234
Link 28 48 5100 0 -1.25629016
Link 121 71 5179 0 0.81841042
Link 76 735 5224 0 0.65253096
Link 735 199 5225 0 2.20219386
Link 189 738 5239 1 -0.68350417
Link 738 37 5240 1 -1.01633927
Link 268 745 5288 1 0.78846489
Link 745 135 5289 1 -0.06852294
Link 289 100 5354 0 0.00002688
Link 532 777 5558 0 0.53210621
Link 777 56 5559 0 -1.87658217
Link 237 121 6066 0 1.00293467
Link 67 289 6231 0 0.52940073
Link 52 871 6259 0 1.38611469
Link 871 268 6260 0 0.02818487
Link 5 442 6511 0 -3.21390095
Link 16 121 6684 1 0.96533201
Link 934 155 6711 0 1.54354337
Link 155 940 6755 0 -0.62187994
Link 940 46 6756 0 0.47657411
Link 37 36 6758 0 0.83958767
Link 64 947 6819 0 -0.42377040
Link 947 76 6820 0 -2.16865364
Link 39 948 6822 0 0.35112333
Link 948 251 6823 0 -2.32257171
Link 37 956 6928 0 2.24372363
Link 956 376 6929 0 2.01867698
Link 209 189 6967 0 2.46022651
Link 67 26 7035 0 -0.06278768
Link 98 387 7108 0 0.90636357
Link 7 994 7282 0 1.22144420
Link 994 934 7283 0 -2.06073560
Link 201 532 7317 0 -0.85958038
Link 127 48 7364 1 4.36295830
Link 553 289 7397 1 -0.12752502
Link 121 1030 7592 0 0.61757501
Link 1030 52 7593 0 0.18775320
Link 34 1052 7754 0 1.55600377
Link 1052 18 7755 0 0.85929739
Link 26 199 7823 0 0.36726307
Link 5 1062 7838 0 1.14562186
Link 1062 332 7839 0 -0.57883254
Link 934 10 7914 0 1.28945246
Link 669 1075 7958 1 0.52420719
Link 1075 46 7959 1 0.35198495
Link 26 98 7969 0 0.37278588
Link 201 237 8027 0 3.26362026
Link 376 18 8068 0 3.51378513
Link 53 1096 8221 0 -0.02260994
Link 1096 98 8222 0 -0.23072063
Link 948 199 8593 0 1.13592236
Link 41 948 8645 0 0.34338820
Link 28 490 8682 0 0.03196404
Link 56 956 8780 0 1.28763638
Link 33 53 8811 0 -1.84235608
Link 39 940 8875 1 1.57094347
Link 15 155 9316 1 1.41684126
Link 501 777 9427 1 -3.72303515
Link 1245 259 9644 0 -1.15946305
Link 237 1259 9723 0 1.53823221
Link 1259 1245 9724 0 0.90321796
Link 98 442 9786 0 -4.29990002
Link 71 956 9917 0 1.20061516
Link 485 947 9956 0 -1.30907430
Link 376 237 10034 1 -0.41666616
Link 42 1306 10083 0 1.00632272
Link 1306 23 10084 0 2.51243352
Link 277 17 10198 0 1.64627182
Link 106 64 10225 0 -1.86769828
GenomeEnd

