GenomeStart 116231
Neuron 1 1 0.00000000 1 0.00000000 0.00000000 0.00000000 0.00000000
Neuron 2 1 0.00000000 1 0.00000000 0.00000000 0.00000000 0.00000000
Neuron 3 1 0.00000000 1 0.00000000 0.00000000 0.00000000 0.00000000
Neuron 4 1 0.00000000 1 0.00000000 0.00000000 0.00000000 0.00000000
Neuron 5 1 0.00000000 1 0.00000000 0.00000000 0.00000000 0.00000000
Neuron 6 1 0.00000000 1 0.00000000 0.00000000 0.00000000 0.00000000
Neuron 7 1 0.00000000 1 0.00000000 0.00000000 0.00000000 0.00000000
Neuron 8 1 0.00000000 1 0.00000000 0.00000000 0.00000000 0.00000000
Neuron 9 2 0.00000000 1 0.00000000 0.00000000 0.00000000 0.00000000
Neuron 10 4 1.00000000 0 1.00000000 0.00000000 0.00000000 0.00000000
Neuron 11 4 1.00000000 0 1.00000000 0.00000000 0.00000000 0.00000000
Neuron 12 4 1.00000000 0 1.00000000 0.00000000 0.00000000 0.00000000
Neuron 13 4 1.00000000 0 1.00000000 0.00000000 0.00000000 0.00000000
Neuron 14 4 1.00000000 0 1.00000000 0.00000000 0.00000000 0.00000000
Neuron 15 4 1.00000000 0 1.00000000 0.00000000 0.00000000 0.00000000
Neuron 16 4 1.00000000 0 1.00000000 0.00000000 0.00000000 0.00000000
Neuron 18 3 0.50000000 1 1.00000000 0.00000000 0.00000000 0.00000000
Neuron 20 3 0.50000000 1 1.00000000 0.00000000 0.00000000 0.00000000
Neuron 26 3 0.50000000 1 1.00000000 0.00000000 0.00000000 0.00000000
Neuron 28 3 0.50000000 1 1.00000000 0.00000000 0.00000000 0.00000000
Neuron 30 3 0.50000000 1 1.00000000 0.00000000 0.00000000 0.00000000
Neuron 35 3 0.50000000 1 1.00000000 0.00000000 0.00000000 0.00000000
Neuron 39 3 0.50000000 1 1.00000000 0.00000000 0.00000000 0.00000000
Neuron 40 3 0.50000000 1 1.00000000 0.00000000 0.00000000 0.00000000
Neuron 41 3 0.50000000 1 1.00000000 0.00000000 0.00000000 0.00000000
Neuron 42 3 0.50000000 1 1.00000000 0.00000000 0.00000000 0.00000000
Neuron 45 3 0.50000000 1 1.00000000 0.00000000 0.00000000 0.00000000
Neuron 46 3 0.50000000 1 1.00000000 0.00000000 0.00000000 0.00000000
Neuron 48 3 0.50000000 1 1.00000000 0.00000000 0.00000000 0.00000000
Neuron 49 3 0.50000000 1 1.00000000 0.00000000 0.00000000 0.00000000
Neuron 51 3 0.50000000 1 1.00000000 0.00000000 0.00000000 0.00000000
Neuron 55 3 0.50000000 1 1.00000000 0.00000000 0.00000000 0.00000000
Neuron 56 3 0.50000000 1 1.00000000 0.00000000 0.00000000 0.00000000
Neuron 61 3 0.50000000 1 1.00000000 0.00000000 0.00000000 0.00000000
Neuron 64 3 0.50000000 1 1.00000000 0.00000000 0.00000000 0.00000000
Neuron 65 3 0.50000000 1 1.00000000 0.00000000 0.00000000 0.00000000
Neuron 67 3 0.50000000 1 1.00000000 0.00000000 0.00000000 0.00000000
Neuron 71 3 0.50000000 1 1.00000000 0.00000000 0.00000000 0.00000000
Neuron 74 3 0.75000000 1 1.00000000 0.00000000 0.00000000 0.00000000
Neuron 78 3 0.75000000 1 1.00000000 0.00000000 0.00000000 0.00000000
Neuron 80 3 0.50000000 1 1.00000000 0.00000000 0.00000000 0.00000000
Neuron 88 3 0.75000000 1 1.00000000 0.00000000 0.00000000 0.00000000
Neuron 90 3 0.75000000 1 1.00000000 0.00000000 0.00000000 0.00000000
Neuron 95 3 0.25000000 1 1.00000000 0.00000000 0.00000000 0.00000000
Neuron 108 3 0.75000000 1 1.00000000 0.00000000 0.00000000 0.00000000
Neuron 122 3 0.25000000 1 1.00000000 0.00000000 0.00000000 0.00000000
Neuron 135 3 0.75000000 1 1.00000000 0.00000000 0.00000000 0.00000000
Neuron 160 3 0.25000000 1 1.00000000 0.00000000 0.00000000 0.00000000
Neuron 161 3 0.62500000 1 1.00000000 0.00000000 0.00000000 0.00000000
Neuron 163 3 0.75000000 1 1.00000000 0.00000000 0.00000000 0.00000000
Neuron 165 3 0.75000000 1 1.00000000 0.00000000 0.00000000 0.00000000
Neuron 174 3 0.25000000 1 1.00000000 0.00000000 0.00000000 0.00000000
Neuron 183 3 0.25000000 1 1.00000000 0.00000000 0.00000000 0.00000000
Neuron 198 3 0.75000000 1 1.00000000 0.00000000 0.00000000 0.00000000
Neuron 208 3 0.25000000 1 1.00000000 0.00000000 0.00000000 0.00000000
Neuron 210 3 1.00000000 1 1.00000000 0.00000000 0.00000000 0.00000000
Neuron 211 3 0.25000000 1 1.00000000 0.00000000 0.00000000 0.00000000
Neuron 216 3 0.25000000 1 1.00000000 0.00000000 0.00000000 0.00000000
Neuron 225 3 0.75000000 1 1.00000000 0.00000000 0.00000000 0.00000000
Neuron 239 3 0.25000000 1 1.00000000 0.00000000 0.00000000 0.00000000
Neuron 241 3 0.87500000 1 1.00000000 0.00000000 0.00000000 0.00000000
Neuron 282 3 0.50000000 1 1.00000000 0.00000000 0.00000000 0.00000000
Neuron 298 3 0.25000000 1 1.00000000 0.00000000 0.00000000 0.00000000
Neuron 302 3 0.37500000 1 1.00000000 0.00000000 0.00000000 0.00000000
Neuron 341 3 0.25000000 1 1.00000000 0.00000000 0.00000000 0.00000000
Neuron 362 3 0.12500000 1 1.00000000 0.00000000 0.00000000 0.00000000
Neuron 367 3 0.12500000 1 1.00000000 0.00000000 0.00000000 0.00000000
Neuron 369 3 0.25000000 1 1.00000000 0.00000000 0.00000000 0.00000000
Neuron 403 3 0.87500000 1 1.00000000 0.00000000 0.00000000 0.00000000
Neuron 408 3 0.25000000 1 1.00000000 0.00000000 0.00000000 0.00000000
Neuron 446 3 0.12500000 1 1.00000000 0.00000000 0.00000000 0.00000000
Neuron 466 3 0.87500000 1 1.00000000 0.00000000 0.00000000 0.00000000
Neuron 468 3 0.12500000 1 1.00000000 0.00000000 0.00000000 0.00000000
Neuron 488 3 0.75000000 1 1.00000000 0.00000000 0.00000000 0.00000000
Neuron 503 3 0.06250000 1 1.00000000 0.00000000 0.00000000 0.00000000
Neuron 520 3 0.93750000 1 1.00000000 0.00000000 0.00000000 0.00000000
Neuron 524 3 0.87500000 1 1.00000000 0.00000000 0.00000000 0.00000000
Neuron 531 3 0.37500000 1 1.00000000 0.00000000 0.00000000 0.00000000
Neuron 537 3 0.62500000 1 1.00000000 0.00000000 0.00000000 0.00000000
Neuron 563 3 0.12500000 1 1.00000000 0.00000000 0.00000000 0.00000000
Neuron 582 3 0.75000000 1 1.00000000 0.00000000 0.00000000 0.00000000
Neuron 585 3 0.37500000 1 1.00000000 0.00000000 0.00000000 0.00000000
Neuron 599 3 0.62500000 1 1.00000000 0.00000000 0.00000000 0.00000000
Neuron 623 3 0.12500000 1 1.00000000 0.00000000 0.00000000 0.00000000
Neuron 628 3 0.81250000 1 1.00000000 0.00000000 0.00000000 0.00000000
Neuron 643 3 0.81250000 1 1.00000000 0.00000000 0.00000000 0.00000000
Neuron 646 3 0.56250000 1 1.00000000 0.00000000 0.00000000 0.00000000
Neuron 650 3 0.62500000 1 1.00000000 0.00000000 0.00000000 0.00000000
Neuron 656 3 0.75000000 1 1.00000000 0.00000000 0.00000000 0.00000000
Neuron 678 3 0.12500000 1 1.00000000 0.00000000 0.00000000 0.00000000
Neuron 692 3 0.78125000 1 1.00000000 0.00000000 0.00000000 0.00000000
Neuron 698 3 0.09375000 1 1.00000000 0.00000000 0.00000000 0.00000000
Neuron 701 3 0.93750000 1 1.00000000 0.00000000 0.00000000 0.00000000
Neuron 707 3 0.87500000 1 1.00000000 0.00000000 0.00000000 0.00000000
Neuron 724 3 0.90625000 1 1.00000000 0.00000000 0.00000000 0.00000000
Neuron 729 3 0.93750000 1 1.00000000 0.00000000 0.00000000 0.00000000
Neuron 740 3 0.68750000 1 1.00000000 0.00000000 0.00000000 0.00000000
Neuron 755 3 0.03125000 1 1.00000000 0.00000000 0.00000000 0.00000000
Neuron 756 3 0.81250000 1 1.00000000 0.00000000 0.00000000 0.00000000
Neuron 761 3 0.68750000 1 1.00000000 0.00000000 0.00000000 0.00000000
Neuron 766 3 0.90625000 1 1.00000000 0.00000000 0.00000000 0.00000000
Neuron 770 3 0.50000000 1 1.00000000 0.00000000 0.00000000 0.00000000
Neuron 771 3 0.37500000 1 1.00000000 0.00000000 0.00000000 0.00000000
Neuron 778 3 0.37500000 1 1.00000000 0.00000000 0.00000000 0.00000000
Neuron 781 3 0.75000000 1 1.00000000 0.00000000 0.00000000 0.00000000
Neuron 811 3 0.79687500 1 1.00000000 0.00000000 0.00000000 0.00000000
Neuron 824 3 0.56250000 1 1.00000000 0.00000000 0.00000000 0.00000000
Neuron 831 3 0.50000000 1 1.00000000 0.00000000 0.00000000 0.00000000
Neuron 834 3 0.68750000 1 1.00000000 0.00000000 0.00000000 0.00000000
Neuron 853 3 0.71875000 1 1.00000000 0.00000000 0.00000000 0.00000000
Neuron 875 3 0.75000000 1 1.00000000 0.00000000 0.00000000 0.00000000
Neuron 876 3 0.37500000 1 1.00000000 0.00000000 0.00000000 0.00000000
Neuron 877 3 0.43750000 1 1.00000000 0.00000000 0.00000000 0.00000000
Neuron 881 3 0.37500000 1 1.00000000 0.00000000 0.00000000 0.00000000
Neuron 909 3 0.18750000 1 1.00000000 0.00000000 0.00000000 0.00000000
Neuron 918 3 0.31250000 1 1.00000000 0.00000000 0.00000000 0.00000000
Neuron 947 3 0.75000000 1 1.00000000 0.00000000 0.00000000 0.00000000
Neuron 967 3 0.18750000 1 1.00000000 0.00000000 0.00000000 0.00000000
Neuron 968 3 0.78125000 1 1.00000000 0.00000000 0.00000000 0.00000000
Neuron 985 3 0.37500000 1 1.00000000 0.00000000 0.00000000 0.00000000
Neuron 1010 3 0.50000000 1 1.00000000 0.00000000 0.00000000 0.00000000
Neuron 1014 3 0.78125000 1 1.00000000 0.00000000 0.00000000 0.00000000
Neuron 1016 3 0.28125000 1 1.00000000 0.00000000 0.00000000 0.00000000
Neuron 1023 3 0.68750000 1 1.00000000 0.00000000 0.00000000 0.00000000
Neuron 1031 3 0.06250000 1 1.00000000 0.00000000 0.00000000 0.00000000
Neuron 1048 3 0.62500000 1 1.00000000 0.00000000 0.00000000 0.00000000
Neuron 1050 3 0.31250000 1 1.00000000 0.00000000 0.00000000 0.00000000
Neuron 1059 3 0.87500000 1 1.00000000 0.00000000 0.00000000 0.00000000
Neuron 1061 3 0.18750000 1 1.00000000 0.00000000 0.00000000 0.00000000
Neuron 1132 3 0.43750000 1 1.00000000 0.00000000 0.00000000 0.00000000
Neuron 1133 3 0.87500000 1 1.00000000 0.00000000 0.00000000 0.00000000
Neuron 1217 3 0.15625000 1 1.00000000 0.00000000 0.00000000 0.00000000
Neuron 1260 3 0.62500000 1 1.00000000 0.00000000 0.00000000 0.00000000
Neuron 1288 3 0.09375000 1 1.00000000 0.00000000 0.00000000 0.00000000
Neuron 1308 3 0.43750000 1 1.00000000 0.00000000 0.00000000 0.00000000
Neuron 1311 3 0.56250000 1 1.00000000 0.00000000 0.00000000 0.00000000
Neuron 1314 3 0.71875000 1 1.00000000 0.00000000 0.00000000 0.00000000
Neuron 1330 3 0.15625000 1 1.00000000 0.00000000 0.00000000 0.00000000
Neuron 1331 3 0.82812500 1 1.00000000 0.00000000 0.00000000 0.00000000
Neuron 1380 3 0.87500000 1 1.00000000 0.00000000 0.00000000 0.00000000
Neuron 1381 3 0.34375000 1 1.00000000 0.00000000 0.00000000 0.00000000
Neuron 1393 3 0.78125000 1 1.00000000 0.00000000 0.00000000 0.00000000
Neuron 1419 3 0.17187500 1 1.00000000 0.00000000 0.00000000 0.00000000
Neuron 1447 3 0.31250000 1 1.00000000 0.00000000 0.00000000 0.00000000
Neuron 1451 3 0.31250000 1 1.00000000 0.00000000 0.00000000 0.00000000
Neuron 1460 3 0.70312500 1 1.00000000 0.00000000 0.00000000 0.00000000
Neuron 1468 3 0.75000000 1 1.00000000 0.00000000 0.00000000 0.00000000
Neuron 1482 3 0.10937500 1 1.00000000 0.00000000 0.00000000 0.00000000
Neuron 1489 3 0.46875000 1 1.00000000 0.00000000 0.00000000 0.00000000
Neuron 1532 3 0.45312500 1 1.00000000 0.00000000 0.00000000 0.00000000
Neuron 1549 3 0.68750000 1 1.00000000 0.00000000 0.00000000 0.00000000
Neuron 1554 3 0.89843750 1 1.00000000 0.00000000 0.00000000 0.00000000
Neuron 1663 3 0.53125000 1 1.00000000 0.00000000 0.00000000 0.00000000
Neuron 1664 3 0.71875000 1 1.00000000 0.00000000 0.00000000 0.00000000
Neuron 1672 3 0.62500000 1 1.00000000 0.00000000 0.00000000 0.00000000
Neuron 1678 3 0.34375000 1 1.00000000 0.00000000 0.00000000 0.00000000
Neuron 1688 3 0.87500000 1 1.00000000 0.00000000 0.00000000 0.00000000
Neuron 1799 3 0.69531250 1 1.00000000 0.00000000 0.00000000 0.00000000
Neuron 1865 3 0.87500000 1 1.00000000 0.00000000 0.00000000 0.00000000
Neuron 1869 3 0.18750000 1 1.00000000 0.00000000 0.00000000 0.00000000
Neuron 2016 3 0.18750000 1 1.00000000 0.00000000 0.00000000 0.00000000
Neuron 2030 3 0.75000000 1 1.00000000 0.00000000 0.00000000 0.00000000
Neuron 2055 3 0.14062500 1 1.00000000 0.00000000 0.00000000 0.00000000
Neuron 2101 3 0.79687500 1 1.00000000 0.00000000 0.00000000 0.00000000
Neuron 2155 3 0.51562500 1 1.00000000 0.00000000 0.00000000 0.00000000
Neuron 2201 3 0.46875000 1 1.00000000 0.00000000 0.00000000 0.00000000
Link 3 10 3 0 -0.74329027
Link 6 10 6 0 4.42572132
Link 1 11 10 0 3.60094360
Link 8 11 17 0 0.05957088
Link 9 11 18 0 -2.28186561
Link 1 12 19 0 5.61776371
Link 3 12 21 0 -1.97282339
Link 4 12 22 0 0.31464091
Link 6 12 24 0 2.22625453
Link 9 12 27 0 0.60200140
Link 1 13 28 0 0.14528854
Link 2 13 29 0 0.18997285
Link 3 13 30 0 -0.97092707
Link 4 13 31 0 4.34003625
Link 5 13 32 0 4.23901840
Link 6 13 33 0 0.74750029
Link 7 13 34 0 -2.92773763
Link 8 13 35 0 -5.28500948
Link 1 14 37 0 -3.74322952
Link 2 14 38 0 -2.04011569
Link 3 14 39 0 1.70678368
Link 4 14 40 0 -3.08341705
Link 6 14 42 0 2.71743981
Link 7 14 43 0 -3.39366829
Link 4 15 49 0 -3.73756910
Link 5 15 50 0 -0.27391864
Link 6 15 51 0 -0.52213646
Link 7 15 52 0 0.67425649
Link 8 15 53 0 -3.61412008
Link 9 15 54 0 1.14946189
Link 1 16 55 0 0.05720872
Link 2 16 56 0 0.34615793
Link 3 16 57 0 0.90121193
Link 5 16 59 0 -0.30807750
Link 9 16 63 0 1.04462339
Link 5 18 70 0 1.89166795
Link 18 14 71 0 3.33736788
Link 20 10 78 0 -0.10250288
Link 26 12 96 0 -3.36689452
Link 2 28 101 0 1.87796368
Link 28 10 102 0 -3.90661751
Link 30 11 108 0 1.64106921
Link 35 12 125 0 0.91379858
Link 7 40 142 0 0.09153681
Link 40 10 143 0 -4.68630904
Link 7 41 145 0 0.43149169
Link 7 42 148 0 0.49482830
Link 3 45 157 0 3.73990765
Link 1 46 162 0 2.68740365
Link 8 48 168 0 1.28575774
Link 48 14 169 0 -5.49965161
Link 16 16 170 1 -3.19410665
Link 8 40 192 0 0.25197075
Link 1 55 195 0 -2.56853480
Link 56 11 199 0 -1.39916031
Link 7 61 220 0 -0.44734549
Link 61 16 221 0 1.73284015
Link 4 64 232 0 -2.17877065
Link 5 65 240 0 1.48194541
Link 65 10 241 0 1.92775210
Link 3 67 259 0 -0.70763127
Link 67 15 260 0 3.46375752
Link 74 15 302 0 -2.00912089
Link 8 80 354 0 -0.45771160
Link 48 18 423 0 0.20253830
Link 42 88 426 0 2.91447475
Link 88 11 427 0 3.32282962
Link 64 90 446 0 -1.02569636
Link 90 11 447 0 2.08086587
Link 95 30 489 0 -0.62705516
Link 51 51 533 1 -2.04628404
Link 55 108 585 0 0.96599530
Link 108 15 586 0 -2.53685020
Link 26 26 862 1 3.09445294
Link 40 14 871 0 1.12435337
Link 2 160 1032 0 0.40943639
Link 160 49 1033 0 1.48456584
Link 49 161 1035 0 0.36407630
Link 161 74 1036 0 1.60086202
Link 46 163 1052 0 1.01067361
Link 4 174 1112 0 0.99477817
Link 183 49 1155 0 -0.74925440
Link 198 10 1279 0 2.11029596
Link 8 208 1375 0 0.70330910
Link 208 35 1376 0 -1.04897220
Link 3 46 1378 0 0.58515220
Link 14 210 1391 1 0.18203025
Link 210 14 1392 1 -0.19206371
Link 211 26 1399 0 1.57603584
Link 216 39 1453 0 0.68971154
Link 71 225 1514 0 -2.45409160
Link 239 71 1617 0 2.41973449
Link 7 282 1915 0 -0.18835317
Link 282 10 1916 0 2.17166465
Link 3 298 2028 0 1.24535982
Link 302 56 2062 0 -0.97716024
Link 4 341 2317 0 1.16514426
Link 341 46 2318 0 -3.32396496
Link 46 51 2335 0 3.30928568
Link 2 362 2475 0 0.65753074
Link 39 30 2569 0 0.75122613
Link 225 40 2616 1 1.71088048
Link 8 88 2740 0 1.43260893
Link 8 408 2765 0 0.61347158
Link 408 26 2766 0 -3.26551498
Link 446 95 3056 0 0.19663312
Link 298 298 3108 1 -1.05945861
Link 78 466 3223 0 1.43721943
Link 466 12 3224 0 0.45489414
Link 5 468 3236 0 3.20363190
Link 468 239 3237 0 2.93628285
Link 39 488 3419 0 -0.86890553
Link 56 46 3471 0 1.53345021
Link 78 46 3515 1 1.58784400
Link 42 40 3543 0 -1.33683320
Link 520 11 3654 0 -3.70460097
Link 298 71 3680 0 0.96419081
Link 524 10 3683 0 2.93377103
Link 298 531 3721 0 1.29257897
Link 446 446 3827 1 -3.89229625
Link 2 563 3955 0 -1.12562044
Link 582 40 4095 1 -3.04351008
Link 174 585 4113 0 -1.87274058
Link 67 26 4115 0 -0.82260932
Link 39 599 4239 0 -0.04604221
Link 599 165 4240 0 0.43360313
Link 30 225 4329 0 1.50792635
Link 1 623 4402 0 2.62462831
Link 628 524 4435 0 2.87442875
Link 9 163 4510 0 1.51006002
Link 643 403 4540 0 -0.49596021
Link 41 646 4563 0 -1.09455455
Link 646 537 4564 0 -0.74773518
Link 49 41 4664 0 -0.42538356
Link 16 656 4666 1 2.05915613
Link 656 80 4667 1 1.28451086
Link 5 678 4847 0 1.19573138
Link 225 692 4930 0 -1.45245918
Link 40 71 4940 0 -0.87731000
Link 503 698 4971 0 -0.63208268
Link 698 446 4972 0 -1.50091742
Link 241 701 4991 0 0.65722137
Link 701 14 4992 0 2.40974513
Link 707 582 5049 1 0.19946325
Link 403 724 5214 0 0.35588140
Link 724 520 5215 0 0.38455239
Link 95 10 5236 0 0.22346924
Link 16 729 5255 1 0.44317368
Link 216 241 5295 0 3.53694359
Link 537 740 5359 0 0.29616292
Link 9 369 5361 0 -4.93402069
Link 6 755 5492 0 4.58428599
Link 755 503 5493 0 1.00238875
Link 756 241 5498 0 2.98197445
Link 403 761 5525 1 2.85473015
Link 761 71 5526 1 1.20190676
Link 729 766 5548 1 -3.05589665
Link 766 707 5549 1 4.28955438
Link 51 770 5587 0 2.69228784
Link 3 778 5663 0 2.55121462
Link 12 781 5681 1 1.74597332
Link 781 41 5682 1 0.00932800
Link 403 446 5767 1 -1.45361417
Link 9 582 5810 0 3.33252351
Link 211 95 6002 0 3.89674230
Link 692 811 6005 0 2.06539806
Link 811 643 6006 0 2.54737580
Link 778 824 6108 0 1.00000000
Link 824 165 6109 0 -1.28114398
Link 30 831 6164 0 1.47646885
Link 831 51 6165 0 1.50354708
Link 834 599 6216 1 -2.84962846
Link 10 707 6300 1 0.49009662
Link 1 563 6349 0 -0.16735546
Link 51 853 6360 0 -0.83069421
Link 14 875 6567 1 1.07496711
Link 875 49 6568 1 -0.43253100
Link 298 876 6570 0 -0.07085129
Link 876 46 6571 0 3.76138878
Link 8 298 6589 0 -3.30506965
Link 531 877 6591 0 -0.08209379
Link 877 30 6592 0 1.30590017
Link 881 40 6620 0 4.87343261
Link 4 582 6748 0 0.29506224
Link 211 582 6834 0 -2.11827952
Link 909 211 6902 0 1.11855051
Link 165 95 6950 1 -1.84879223
Link 781 403 6965 0 2.98449316
Link 918 771 6981 0 0.45768921
Link 582 707 7028 0 0.67989029
Link 14 947 7218 1 1.15032293
Link 947 67 7219 1 -0.75408891
Link 771 771 7383 1 -3.56553033
Link 367 967 7408 0 1.00997537
Link 967 216 7409 0 1.86756241
Link 165 968 7415 0 -0.90463769
Link 968 756 7416 0 3.28100074
Link 183 520 7564 0 -0.22001111
Link 985 51 7613 0 2.06256867
Link 51 582 7648 0 -2.10650796
Link 770 1010 7833 0 1.76962642
Link 1010 41 7834 0 1.83843312
Link 88 1014 7870 0 3.43624938
Link 369 1016 7883 0 1.00494018
Link 1016 918 7884 0 2.17861487
Link 282 599 7908 0 -0.72007326
Link 531 1023 7938 0 -2.24672105
Link 1023 11 7939 0 0.68231732
Link 7 1031 8027 0 2.29184093
Link 67 1048 8142 0 0.38020827
Link 1048 88 8143 0 0.12017729
Link 239 1050 8158 0 0.23878944
Link 1050 985 8159 0 0.70320552
Link 488 1059 8281 0 0.13316923
Link 1059 11 8282 0 1.04662295
Link 623 1061 8302 0 3.45394611
Link 1061 183 8303 0 1.59950345
Link 599 446 8409 1 -2.14631142
Link 771 88 8488 0 -0.83579793
Link 778 985 8556 0 2.27145804
Link 183 78 8753 0 0.61968748
Link 585 1132 8865 0 -0.99350582
Link 1133 524 8871 1 2.93113663
Link 503 947 9027 0 5.13122745
Link 6 41 9111 0 4.08818724
Link 755 30 9130 0 -2.03456324
Link 537 64 9237 1 -2.70365700
Link 174 1217 9479 1 2.09668090
Link 1217 503 9480 1 -1.00230095
Link 778 211 9529 1 -1.65877666
Link 563 40 9549 0 -2.21910773
Link 45 1260 9868 0 -1.06543244
Link 1260 135 9869 0 -0.77262863
Link 64 282 10058 0 5.21436913
Link 1031 1288 10090 0 1.46069747
Link 282 724 10147 0 -1.34799736
Link 48 1308 10259 1 2.29487313
Link 1308 771 10260 1 0.07961843
Link 80 1311 10277 0 0.17126697
Link 1311 650 10278 0 1.43625356
Link 40 210 10281 0 2.38820781
Link 163 1314 10296 1 0.60304248
Link 563 1330 10424 0 1.05186159
Link 853 1331 10427 0 -0.26352746
Link 1331 729 10428 0 1.36238478
Link 135 1380 10899 0 0.75177234
Link 1380 11 10900 0 -0.89243375
Link 367 1381 10906 0 2.42322298
Link 1381 1311 10907 0 -2.27472073
Link 163 1393 10990 0 1.31078114
Link 1393 628 10991 0 -0.06453200
Link 211 585 11033 0 -0.48558870
Link 1330 1419 11209 0 1.03260150
Link 1419 909 11210 0 1.87962436
Link 135 165 11257 0 -1.61902122
Link 122 1447 11476 0 1.28499994
Link 1447 302 11477 0 -0.26301789
Link 216 1451 11524 0 2.45204635
Link 531 20 11547 0 -0.62162318
Link 1314 1460 11593 1 0.74360923
Link 6 1217 11596 0 -0.68489785
Link 78 1468 11668 1 0.75342083
Link 1468 78 11669 1 1.59530497
Link 1288 1482 11797 0 3.07829639
Link 1482 367 11798 0 1.14379335
Link 623 42 11850 0 -0.94827451
Link 1489 51 11885 0 -0.63400352
Link 811 12 11965 0 -1.07191445
Link 1393 1393 12156 1 0.97818319
Link 1132 1532 12286 0 1.20305149
Link 1532 1489 12287 0 0.46020417
Link 650 1549 12399 0 2.14487859
Link 1549 198 12400 0 -4.98262676
Link 811 1554 12455 0 -1.50573721
Link 1554 12 12456 0 3.18667274
Link 909 1381 12608 0 -2.12023346
Link 56 1048 12880 0 1.57426623
Link 770 1663 13364 0 0.69574537
Link 1663 646 13365 0 -0.19333523
Link 740 1664 13367 0 0.11736370
Link 1664 78 13368 0 -0.88123895
Link 740 1132 13391 1 -1.10225202
Link 1554 585 13417 1 1.48536063
Link 80 1672 13424 0 0.89203284
Link 1672 781 13425 0 1.69840517
Link 302 161 13463 0 -3.09729685
Link 1451 1678 13478 0 2.23468047
Link 1678 881 13479 0 0.83700031
Link 1031 520 13578 0 1.37129600
Link 524 1688 13603 1 -0.55386164
Link 1688 1133 13604 1 -0.79214110
Link 208 49 13619 0 2.87273186
Link 1048 161 13661 0 -2.60621531
Link 537 210 13692 0 -3.33836927
Link 298 781 13781 0 0.48172527
Link 771 51 13930 0 0.51910421
Link 8 1489 14064 0 -2.38334353
Link 367 12 14082 0 1.81676824
Link 488 163 14190 0 0.83399241
Link 11 531 14485 1 0.81640349
Link 74 770 14559 1 -1.01114527
Link 1460 1799 14744 1 0.35443342
Link 1799 834 14745 1 2.37843298
Link 585 1048 14749 0 3.57670462
Link 881 122 14802 1 0.80966100
Link 585 585 14937 1 -1.27341617
Link 90 1061 15189 1 1.28641377
Link 756 12 15234 0 0.68289441
Link 834 40 15299 1 -0.99255175
Link 707 1865 15453 1 0.93063301
Link 1865 707 15454 1 -3.30135328
Link 678 1869 15483 0 0.50583686
Link 1869 369 15484 0 -0.07390814
Link 7 1288 15659 0 -3.56763579
Link 656 165 15785 0 1.27979898
Link 64 1489 15841 1 -0.82180304
Link 161 135 15912 0 -1.68925411
Link 1460 241 15953 0 -3.31776942
Link 755 35 16061 0 0.52350874
Link 740 163 16200 0 -1.74315852
Link 1311 740 16413 0 -0.84753328
Link 20 165 16495 0 -1.46848681
Link 6 64 16520 0 -0.56404442
Link 755 599 16687 0 0.46201322
Link 362 2016 16768 0 1.00000000
Link 2016 122 16769 0 0.83065532
Link 11 1016 16846 1 -3.34566833
Link 599 2030 16910 0 1.00000000
Link 2030 707 16911 0 -1.85534698
Link 1023 466 17074 0 -1.98406226
Link 1331 403 17189 0 -0.18410326
Link 755 2055 17212 0 1.00000000
Link 2055 208 17213 0 -0.27411937
Link 369 468 17227 1 -3.12805329
Link 1014 2101 17610 0 0.97527173
Link 2101 643 17611 0 0.79174181
Link 1050 853 17769 0 -1.58529028
Link 165 1133 17853 0 -1.63778916
Link 95 2155 18148 0 1.16677970
Link 2155 1014 18149 0 3.96554259
Link 9 1664 18282 0 0.74528019
Link 1132 2201 18608 0 0.55402486
Link 2201 45 18609 0 -2.53610140
Link 778 724 18633 0 2.19651771
Link 122 877 18742 0 -3.05632658
Link 1380 1048 18829 1 1.16622649
Link 623 14 18962 0 0.86649633
GenomeEnd

