GenomeStart 19689
Neuron 1 1 0.00000000 1 0.00000000 0.00000000 0.00000000 0.00000000
Neuron 2 1 0.00000000 1 0.00000000 0.00000000 0.00000000 0.00000000
Neuron 3 1 0.00000000 1 0.00000000 0.00000000 0.00000000 0.00000000
Neuron 4 1 0.00000000 1 0.00000000 0.00000000 0.00000000 0.00000000
Neuron 5 1 0.00000000 1 0.00000000 0.00000000 0.00000000 0.00000000
Neuron 6 1 0.00000000 1 0.00000000 0.00000000 0.00000000 0.00000000
Neuron 7 1 0.00000000 1 0.00000000 0.00000000 0.00000000 0.00000000
Neuron 8 1 0.00000000 1 0.00000000 0.00000000 0.00000000 0.00000000
Neuron 9 2 0.00000000 1 0.00000000 0.00000000 0.00000000 0.00000000
Neuron 10 4 1.00000000 0 1.00000000 0.00000000 0.00000000 0.00000000
Neuron 11 4 1.00000000 0 1.00000000 0.00000000 0.00000000 0.00000000
Neuron 12 4 1.00000000 0 1.00000000 0.00000000 0.00000000 0.00000000
Neuron 13 4 1.00000000 0 1.00000000 0.00000000 0.00000000 0.00000000
Neuron 14 4 1.00000000 0 1.00000000 0.00000000 0.00000000 0.00000000
Neuron 15 4 1.00000000 0 1.00000000 0.00000000 0.00000000 0.00000000
Neuron 16 4 1.00000000 0 1.00000000 0.00000000 0.00000000 0.00000000
Neuron 26 3 0.50000000 1 1.00000000 0.00000000 0.00000000 0.00000000
Neuron 30 3 0.50000000 1 1.00000000 0.00000000 0.00000000 0.00000000
Neuron 39 3 0.50000000 1 1.00000000 0.00000000 0.00000000 0.00000000
Neuron 40 3 0.50000000 1 1.00000000 0.00000000 0.00000000 0.00000000
Neuron 41 3 0.50000000 1 1.00000000 0.00000000 0.00000000 0.00000000
Neuron 42 3 0.50000000 1 1.00000000 0.00000000 0.00000000 0.00000000
Neuron 46 3 0.50000000 1 1.00000000 0.00000000 0.00000000 0.00000000
Neuron 49 3 0.50000000 1 1.00000000 0.00000000 0.00000000 0.00000000
Neuron 51 3 0.50000000 1 1.00000000 0.00000000 0.00000000 0.00000000
Neuron 67 3 0.50000000 1 1.00000000 0.00000000 0.00000000 0.00000000
Neuron 71 3 0.50000000 1 1.00000000 0.00000000 0.00000000 0.00000000
Neuron 80 3 0.50000000 1 1.00000000 0.00000000 0.00000000 0.00000000
Neuron 216 3 0.25000000 1 1.00000000 0.00000000 0.00000000 0.00000000
Neuron 225 3 0.75000000 1 1.00000000 0.00000000 0.00000000 0.00000000
Link 2 10 2 0 1.91937338
Link 3 10 3 0 -0.77805788
Link 4 10 4 0 -1.44710324
Link 5 10 5 0 1.84716709
Link 6 10 6 0 1.53413211
Link 9 10 9 0 -0.34916835
Link 1 11 10 0 3.50118352
Link 2 11 11 0 -1.21876191
Link 3 11 12 0 0.85687172
Link 4 11 13 0 -1.04057094
Link 8 11 17 0 0.32719999
Link 9 11 18 0 2.16782403
Link 1 12 19 0 2.29446071
Link 3 12 21 0 2.44128995
Link 4 12 22 0 -2.50247689
Link 5 12 23 0 0.73989548
Link 6 12 24 0 3.46996200
Link 8 12 26 0 -3.27495095
Link 9 12 27 0 -0.04257213
Link 1 13 28 0 -0.37370037
Link 2 13 29 0 1.15714604
Link 3 13 30 0 -0.33488238
Link 4 13 31 0 -0.55431269
Link 5 13 32 0 -0.57225355
Link 6 13 33 0 0.59779651
Link 7 13 34 0 -0.42412531
Link 8 13 35 0 -2.16265758
Link 1 14 37 0 2.07778359
Link 2 14 38 0 -2.99104333
Link 3 14 39 0 -1.64264968
Link 4 14 40 0 -0.59890730
Link 5 14 41 0 -0.08232921
Link 6 14 42 0 -0.43575412
Link 8 14 44 0 -2.48461470
Link 9 14 45 0 0.80683685
Link 1 15 46 0 2.60167825
Link 4 15 49 0 0.08498482
Link 5 15 50 0 -1.62646334
Link 6 15 51 0 -1.21432170
Link 7 15 52 0 -2.18759708
Link 8 15 53 0 -2.26957044
Link 9 15 54 0 -1.95518664
Link 1 16 55 0 3.37689148
Link 2 16 56 0 -0.18309614
Link 3 16 57 0 -0.00807215
Link 5 16 59 0 3.71476145
Link 6 16 60 0 -0.48992952
Link 7 16 61 0 0.13360627
Link 9 16 63 0 1.06185435
Link 2 26 95 0 1.19584738
Link 26 12 96 0 0.93621874
Link 6 30 107 0 1.04036856
Link 30 11 108 0 0.33274478
Link 39 14 137 0 -1.58348006
Link 7 40 142 0 0.85298175
Link 40 10 143 0 0.22698798
Link 7 41 145 0 1.00000000
Link 41 12 146 0 1.42794929
Link 7 42 148 0 0.46705046
Link 42 11 149 0 0.76373046
Link 1 46 162 0 1.99084344
Link 46 10 163 0 3.04899783
Link 2 49 172 0 1.61313236
Link 49 15 173 0 -1.02950486
Link 4 51 178 0 2.12880694
Link 51 16 179 0 -0.77026892
Link 8 40 192 0 0.73067417
Link 3 30 254 0 -1.41266616
Link 3 67 259 0 1.00000000
Link 67 15 260 0 0.35446948
Link 5 71 283 0 1.00816270
Link 8 80 354 0 0.93818799
Link 80 10 355 0 -2.32961260
Link 1 49 388 0 1.66705181
Link 4 46 549 0 -5.78815488
Link 3 49 657 0 -1.70080640
Link 40 14 871 0 -0.19539029
Link 5 80 948 0 -3.13730800
Link 7 216 1452 0 1.64453858
Link 216 39 1453 0 1.68484549
Link 71 225 1514 0 1.01577391
Link 225 11 1515 0 -4.68034662
Link 46 51 2335 0 -0.52856383
Link 39 30 2569 0 3.02090138
Link 225 40 2616 1 -0.08063777
Link 8 26 2693 0 -1.28181196
GenomeEnd

