GenomeStart 66313
Neuron 1 1 0.00000000 1 0.00000000 0.00000000 0.00000000 0.00000000
Neuron 2 1 0.00000000 1 0.00000000 0.00000000 0.00000000 0.00000000
Neuron 3 1 0.00000000 1 0.00000000 0.00000000 0.00000000 0.00000000
Neuron 4 1 0.00000000 1 0.00000000 0.00000000 0.00000000 0.00000000
Neuron 5 1 0.00000000 1 0.00000000 0.00000000 0.00000000 0.00000000
Neuron 6 1 0.00000000 1 0.00000000 0.00000000 0.00000000 0.00000000
Neuron 7 1 0.00000000 1 0.00000000 0.00000000 0.00000000 0.00000000
Neuron 8 1 0.00000000 1 0.00000000 0.00000000 0.00000000 0.00000000
Neuron 9 2 0.00000000 1 0.00000000 0.00000000 0.00000000 0.00000000
Neuron 10 4 1.00000000 0 1.00000000 0.00000000 0.00000000 0.00000000
Neuron 11 4 1.00000000 0 1.00000000 0.00000000 0.00000000 0.00000000
Neuron 12 4 1.00000000 0 1.00000000 0.00000000 0.00000000 0.00000000
Neuron 13 4 1.00000000 0 1.00000000 0.00000000 0.00000000 0.00000000
Neuron 14 4 1.00000000 0 1.00000000 0.00000000 0.00000000 0.00000000
Neuron 15 4 1.00000000 0 1.00000000 0.00000000 0.00000000 0.00000000
Neuron 16 4 1.00000000 0 1.00000000 0.00000000 0.00000000 0.00000000
Neuron 18 3 0.50000000 1 1.00000000 0.00000000 0.00000000 0.00000000
Neuron 20 3 0.50000000 1 1.00000000 0.00000000 0.00000000 0.00000000
Neuron 26 3 0.50000000 1 1.00000000 0.00000000 0.00000000 0.00000000
Neuron 30 3 0.50000000 1 1.00000000 0.00000000 0.00000000 0.00000000
Neuron 35 3 0.50000000 1 1.00000000 0.00000000 0.00000000 0.00000000
Neuron 39 3 0.50000000 1 1.00000000 0.00000000 0.00000000 0.00000000
Neuron 40 3 0.50000000 1 1.00000000 0.00000000 0.00000000 0.00000000
Neuron 41 3 0.50000000 1 1.00000000 0.00000000 0.00000000 0.00000000
Neuron 42 3 0.50000000 1 1.00000000 0.00000000 0.00000000 0.00000000
Neuron 45 3 0.50000000 1 1.00000000 0.00000000 0.00000000 0.00000000
Neuron 46 3 0.50000000 1 1.00000000 0.00000000 0.00000000 0.00000000
Neuron 48 3 0.50000000 1 1.00000000 0.00000000 0.00000000 0.00000000
Neuron 49 3 0.50000000 1 1.00000000 0.00000000 0.00000000 0.00000000
Neuron 51 3 0.50000000 1 1.00000000 0.00000000 0.00000000 0.00000000
Neuron 56 3 0.50000000 1 1.00000000 0.00000000 0.00000000 0.00000000
Neuron 64 3 0.50000000 1 1.00000000 0.00000000 0.00000000 0.00000000
Neuron 67 3 0.50000000 1 1.00000000 0.00000000 0.00000000 0.00000000
Neuron 71 3 0.50000000 1 1.00000000 0.00000000 0.00000000 0.00000000
Neuron 74 3 0.75000000 1 1.00000000 0.00000000 0.00000000 0.00000000
Neuron 78 3 0.75000000 1 1.00000000 0.00000000 0.00000000 0.00000000
Neuron 80 3 0.50000000 1 1.00000000 0.00000000 0.00000000 0.00000000
Neuron 88 3 0.75000000 1 1.00000000 0.00000000 0.00000000 0.00000000
Neuron 95 3 0.25000000 1 1.00000000 0.00000000 0.00000000 0.00000000
Neuron 122 3 0.25000000 1 1.00000000 0.00000000 0.00000000 0.00000000
Neuron 135 3 0.75000000 1 1.00000000 0.00000000 0.00000000 0.00000000
Neuron 163 3 0.75000000 1 1.00000000 0.00000000 0.00000000 0.00000000
Neuron 165 3 0.75000000 1 1.00000000 0.00000000 0.00000000 0.00000000
Neuron 174 3 0.25000000 1 1.00000000 0.00000000 0.00000000 0.00000000
Neuron 183 3 0.25000000 1 1.00000000 0.00000000 0.00000000 0.00000000
Neuron 198 3 0.75000000 1 1.00000000 0.00000000 0.00000000 0.00000000
Neuron 211 3 0.25000000 1 1.00000000 0.00000000 0.00000000 0.00000000
Neuron 216 3 0.25000000 1 1.00000000 0.00000000 0.00000000 0.00000000
Neuron 225 3 0.75000000 1 1.00000000 0.00000000 0.00000000 0.00000000
Neuron 239 3 0.25000000 1 1.00000000 0.00000000 0.00000000 0.00000000
Neuron 241 3 0.87500000 1 1.00000000 0.00000000 0.00000000 0.00000000
Neuron 282 3 0.50000000 1 1.00000000 0.00000000 0.00000000 0.00000000
Neuron 298 3 0.25000000 1 1.00000000 0.00000000 0.00000000 0.00000000
Neuron 367 3 0.12500000 1 1.00000000 0.00000000 0.00000000 0.00000000
Neuron 369 3 0.25000000 1 1.00000000 0.00000000 0.00000000 0.00000000
Neuron 403 3 0.87500000 1 1.00000000 0.00000000 0.00000000 0.00000000
Neuron 408 3 0.25000000 1 1.00000000 0.00000000 0.00000000 0.00000000
Neuron 446 3 0.12500000 1 1.00000000 0.00000000 0.00000000 0.00000000
Neuron 503 3 0.06250000 1 1.00000000 0.00000000 0.00000000 0.00000000
Neuron 520 3 0.93750000 1 1.00000000 0.00000000 0.00000000 0.00000000
Neuron 524 3 0.87500000 1 1.00000000 0.00000000 0.00000000 0.00000000
Neuron 531 3 0.37500000 1 1.00000000 0.00000000 0.00000000 0.00000000
Neuron 537 3 0.62500000 1 1.00000000 0.00000000 0.00000000 0.00000000
Neuron 563 3 0.12500000 1 1.00000000 0.00000000 0.00000000 0.00000000
Neuron 582 3 0.75000000 1 1.00000000 0.00000000 0.00000000 0.00000000
Neuron 599 3 0.62500000 1 1.00000000 0.00000000 0.00000000 0.00000000
Neuron 623 3 0.12500000 1 1.00000000 0.00000000 0.00000000 0.00000000
Neuron 643 3 0.81250000 1 1.00000000 0.00000000 0.00000000 0.00000000
Neuron 646 3 0.56250000 1 1.00000000 0.00000000 0.00000000 0.00000000
Neuron 650 3 0.62500000 1 1.00000000 0.00000000 0.00000000 0.00000000
Neuron 692 3 0.78125000 1 1.00000000 0.00000000 0.00000000 0.00000000
Neuron 707 3 0.87500000 1 1.00000000 0.00000000 0.00000000 0.00000000
Neuron 724 3 0.90625000 1 1.00000000 0.00000000 0.00000000 0.00000000
Neuron 729 3 0.93750000 1 1.00000000 0.00000000 0.00000000 0.00000000
Neuron 755 3 0.03125000 1 1.00000000 0.00000000 0.00000000 0.00000000
Neuron 756 3 0.81250000 1 1.00000000 0.00000000 0.00000000 0.00000000
Neuron 761 3 0.68750000 1 1.00000000 0.00000000 0.00000000 0.00000000
Neuron 766 3 0.90625000 1 1.00000000 0.00000000 0.00000000 0.00000000
Neuron 770 3 0.50000000 1 1.00000000 0.00000000 0.00000000 0.00000000
Neuron 771 3 0.37500000 1 1.00000000 0.00000000 0.00000000 0.00000000
Neuron 778 3 0.37500000 1 1.00000000 0.00000000 0.00000000 0.00000000
Neuron 781 3 0.75000000 1 1.00000000 0.00000000 0.00000000 0.00000000
Neuron 811 3 0.79687500 1 1.00000000 0.00000000 0.00000000 0.00000000
Neuron 834 3 0.68750000 1 1.00000000 0.00000000 0.00000000 0.00000000
Neuron 853 3 0.71875000 1 1.00000000 0.00000000 0.00000000 0.00000000
Neuron 909 3 0.18750000 1 1.00000000 0.00000000 0.00000000 0.00000000
Neuron 918 3 0.31250000 1 1.00000000 0.00000000 0.00000000 0.00000000
Neuron 947 3 0.75000000 1 1.00000000 0.00000000 0.00000000 0.00000000
Neuron 968 3 0.78125000 1 1.00000000 0.00000000 0.00000000 0.00000000
Neuron 985 3 0.37500000 1 1.00000000 0.00000000 0.00000000 0.00000000
Neuron 1023 3 0.68750000 1 1.00000000 0.00000000 0.00000000 0.00000000
Neuron 1031 3 0.06250000 1 1.00000000 0.00000000 0.00000000 0.00000000
Neuron 1048 3 0.62500000 1 1.00000000 0.00000000 0.00000000 0.00000000
Neuron 1224 3 0.84375000 1 1.00000000 0.00000000 0.00000000 0.00000000
Neuron 1241 3 0.68750000 1 1.00000000 0.00000000 0.00000000 0.00000000
Link 2 10 2 0 -0.65398171
Link 3 10 3 0 -1.04164543
Link 5 10 5 0 0.39517106
Link 6 10 6 0 3.51830212
Link 1 11 10 0 3.42176838
Link 8 11 17 0 0.31382034
Link 9 11 18 0 -1.86439911
Link 1 12 19 0 5.75490800
Link 3 12 21 0 -1.10931512
Link 4 12 22 0 3.01018081
Link 6 12 24 0 2.46663724
Link 9 12 27 0 -1.05831262
Link 1 13 28 0 -0.79803390
Link 2 13 29 0 3.24958610
Link 3 13 30 0 -2.24577626
Link 4 13 31 0 0.34500470
Link 5 13 32 0 2.78979976
Link 6 13 33 0 -2.67997912
Link 7 13 34 0 -1.89463911
Link 8 13 35 0 -4.07824643
Link 1 14 37 0 -2.76588503
Link 2 14 38 0 -1.50047810
Link 3 14 39 0 -0.88971460
Link 4 14 40 0 0.46286458
Link 6 14 42 0 4.04332872
Link 7 14 43 0 -2.17837077
Link 1 15 46 0 -0.29571243
Link 4 15 49 0 -2.00979501
Link 5 15 50 0 -0.69465799
Link 6 15 51 0 -2.08611981
Link 7 15 52 0 -0.98761120
Link 8 15 53 0 -1.81638254
Link 9 15 54 0 1.29407066
Link 1 16 55 0 1.07548577
Link 2 16 56 0 2.03801767
Link 3 16 57 0 0.04085531
Link 5 16 59 0 -1.47246540
Link 6 16 60 0 -1.21308375
Link 7 16 61 0 2.92589204
Link 9 16 63 0 1.08515365
Link 5 18 70 0 1.33998895
Link 18 14 71 0 1.57815671
Link 4 20 77 0 0.49445299
Link 20 10 78 0 -0.18456666
Link 26 12 96 0 -1.60298995
Link 30 11 108 0 2.91305888
Link 14 14 109 1 -0.89981653
Link 8 35 124 0 1.77429442
Link 35 12 125 0 2.29794892
Link 7 40 142 0 -1.08786014
Link 40 10 143 0 -0.71598874
Link 7 41 145 0 1.12694854
Link 7 42 148 0 0.42428209
Link 3 45 157 0 0.01541251
Link 1 46 162 0 2.32206563
Link 8 48 168 0 2.91201261
Link 48 14 169 0 -3.38769987
Link 16 16 170 1 -3.77463335
Link 2 49 172 0 -0.29527043
Link 51 16 179 0 0.79975633
Link 8 40 192 0 2.71099884
Link 56 11 199 0 -3.24788051
Link 4 64 232 0 -0.68019928
Link 64 11 233 0 3.05959608
Link 3 67 259 0 0.56762534
Link 67 15 260 0 0.77743222
Link 49 74 301 0 1.99417806
Link 74 15 302 0 -1.89743097
Link 78 12 339 0 -0.70841958
Link 39 11 351 0 0.71695324
Link 8 80 354 0 -1.15956901
Link 48 18 423 0 -1.18987145
Link 42 88 426 0 1.49481133
Link 88 11 427 0 2.46895369
Link 95 30 489 0 -1.36448967
Link 51 51 533 1 -0.46103146
Link 4 46 549 0 -2.22128960
Link 2 122 684 0 1.90471163
Link 122 56 685 0 2.83573723
Link 45 135 780 0 1.35345734
Link 135 11 781 0 1.30810792
Link 42 42 793 1 -0.46364477
Link 14 49 795 1 0.31076508
Link 26 26 862 1 3.12047735
Link 40 14 871 0 -0.48401558
Link 46 163 1052 0 2.41230474
Link 4 174 1112 0 1.84380672
Link 174 51 1113 0 1.28803760
Link 183 49 1155 0 -0.57840869
Link 198 10 1279 0 -0.26856996
Link 211 26 1399 0 0.99868190
Link 216 39 1453 0 -0.74866290
Link 71 225 1514 0 -1.19231069
Link 5 239 1616 0 1.32015836
Link 239 71 1617 0 0.51649693
Link 241 14 1630 0 1.36491342
Link 7 282 1915 0 -0.34124067
Link 282 10 1916 0 1.31427370
Link 3 298 2028 0 2.79538048
Link 46 51 2335 0 0.53761862
Link 367 216 2505 0 1.80417633
Link 5 369 2515 0 -0.91505132
Link 39 30 2569 0 1.65197797
Link 225 40 2616 1 0.61760799
Link 8 408 2765 0 -0.04365871
Link 408 26 2766 0 -1.23833546
Link 446 95 3056 0 -1.32779891
Link 298 298 3108 1 -2.36562138
Link 298 46 3159 0 2.65998419
Link 56 46 3471 0 2.75486121
Link 78 46 3515 1 -2.12394238
Link 503 446 3542 0 -0.49488565
Link 520 11 3654 0 -2.89734235
Link 163 524 3682 0 2.16128150
Link 524 10 3683 0 2.51443078
Link 30 51 3708 0 0.32536654
Link 298 531 3721 0 0.07883519
Link 531 30 3722 0 -0.11063792
Link 537 78 3760 0 1.10845017
Link 446 446 3827 1 -4.35326218
Link 2 563 3955 0 0.38295670
Link 582 40 4095 1 -1.44417810
Link 67 26 4115 0 -0.38338692
Link 16 80 4167 1 2.71886325
Link 39 599 4239 0 -0.74590179
Link 599 165 4240 0 0.14379544
Link 30 225 4329 0 1.56524775
Link 1 623 4402 0 3.13548091
Link 623 183 4403 0 1.09270250
Link 9 163 4510 0 0.13318070
Link 643 403 4540 0 2.50675634
Link 41 646 4563 0 0.94382025
Link 646 537 4564 0 -2.52389740
Link 80 650 4610 0 1.01670447
Link 650 198 4611 0 -1.68288795
Link 49 41 4664 0 -1.13459039
Link 225 692 4930 0 -1.34263733
Link 40 71 4940 0 0.45243983
Link 707 582 5049 1 -3.08425353
Link 403 724 5214 0 0.85883875
Link 724 520 5215 0 1.60722179
Link 16 729 5255 1 0.62628805
Link 9 369 5361 0 -3.36576996
Link 6 755 5492 0 1.04468119
Link 755 503 5493 0 -1.10316919
Link 756 241 5498 0 1.10418419
Link 403 761 5525 1 0.86445338
Link 761 71 5526 1 1.18636242
Link 729 766 5548 1 0.38123787
Link 766 707 5549 1 3.20063213
Link 51 770 5587 0 1.66446861
Link 770 41 5588 0 1.71260782
Link 3 778 5663 0 1.80013109
Link 778 165 5664 0 -1.67361904
Link 12 781 5681 1 0.28961912
Link 781 41 5682 1 1.67709883
Link 403 446 5767 1 1.13430750
Link 9 582 5810 0 -0.24365366
Link 211 95 6002 0 -2.40021647
Link 692 811 6005 0 2.90033718
Link 811 643 6006 0 0.46891537
Link 216 40 6186 0 2.49718412
Link 163 834 6215 1 1.35119981
Link 834 599 6216 1 -1.39582828
Link 10 707 6300 1 1.19479162
Link 1 563 6349 0 4.16250048
Link 51 853 6360 0 0.97267244
Link 853 729 6361 0 1.79587472
Link 8 298 6589 0 -1.19425085
Link 4 582 6748 0 -2.19561710
Link 211 582 6834 0 -0.13305785
Link 563 909 6901 0 0.85026473
Link 909 211 6902 0 0.84873430
Link 165 95 6950 1 -1.28086295
Link 369 918 6980 0 0.63047964
Link 918 771 6981 0 0.03617774
Link 88 643 7051 0 -1.49921187
Link 14 947 7218 1 1.41420092
Link 947 67 7219 1 0.03940526
Link 771 771 7383 1 -3.44974769
Link 165 968 7415 0 -1.12075725
Link 968 756 7416 0 1.29282915
Link 239 985 7612 0 0.27794065
Link 985 51 7613 0 1.38812722
Link 51 582 7648 0 0.30133584
Link 282 599 7908 0 -1.08141251
Link 531 1023 7938 0 -1.87172600
Link 7 1031 8027 0 0.27148243
Link 1031 367 8028 0 1.09755080
Link 67 1048 8142 0 0.35566396
Link 524 524 8231 1 0.80710427
Link 42 67 8315 0 0.61951844
Link 599 446 8409 1 -1.38759359
Link 771 88 8488 0 4.71691064
Link 778 985 8556 0 2.04467524
Link 174 503 8894 1 -2.73508576
Link 503 947 9027 0 3.03217195
Link 755 30 9130 0 -2.32118722
Link 537 64 9237 1 0.26752583
Link 778 211 9529 1 -3.92973765
Link 1023 1224 9540 0 0.86035588
Link 1224 11 9541 0 0.79562239
Link 563 40 9549 0 -0.94541386
Link 1048 1241 9692 0 1.00000000
Link 1241 88 9693 0 -1.38620825
Link 78 78 9870 1 -1.08096198
Link 282 724 10147 0 -2.26516578
Link 10 408 10240 1 -1.09860171
Link 724 282 10388 1 -4.01849119
GenomeEnd

