GenomeStart 75428
Neuron 1 1 0.00000000 1 0.00000000 0.00000000 0.00000000 0.00000000
Neuron 2 1 0.00000000 1 0.00000000 0.00000000 0.00000000 0.00000000
Neuron 3 1 0.00000000 1 0.00000000 0.00000000 0.00000000 0.00000000
Neuron 4 1 0.00000000 1 0.00000000 0.00000000 0.00000000 0.00000000
Neuron 5 1 0.00000000 1 0.00000000 0.00000000 0.00000000 0.00000000
Neuron 6 1 0.00000000 1 0.00000000 0.00000000 0.00000000 0.00000000
Neuron 7 1 0.00000000 1 0.00000000 0.00000000 0.00000000 0.00000000
Neuron 8 1 0.00000000 1 0.00000000 0.00000000 0.00000000 0.00000000
Neuron 9 2 0.00000000 1 0.00000000 0.00000000 0.00000000 0.00000000
Neuron 10 4 1.00000000 0 1.00000000 0.00000000 0.00000000 0.00000000
Neuron 11 4 1.00000000 0 1.00000000 0.00000000 0.00000000 0.00000000
Neuron 12 4 1.00000000 0 1.00000000 0.00000000 0.00000000 0.00000000
Neuron 13 4 1.00000000 0 1.00000000 0.00000000 0.00000000 0.00000000
Neuron 14 4 1.00000000 0 1.00000000 0.00000000 0.00000000 0.00000000
Neuron 15 4 1.00000000 0 1.00000000 0.00000000 0.00000000 0.00000000
Neuron 16 4 1.00000000 0 1.00000000 0.00000000 0.00000000 0.00000000
Neuron 18 3 0.50000000 1 1.00000000 0.00000000 0.00000000 0.00000000
Neuron 19 3 0.50000000 1 1.00000000 0.00000000 0.00000000 0.00000000
Neuron 20 3 0.50000000 1 1.00000000 0.00000000 0.00000000 0.00000000
Neuron 26 3 0.50000000 1 1.00000000 0.00000000 0.00000000 0.00000000
Neuron 28 3 0.50000000 1 1.00000000 0.00000000 0.00000000 0.00000000
Neuron 30 3 0.50000000 1 1.00000000 0.00000000 0.00000000 0.00000000
Neuron 33 3 0.50000000 1 1.00000000 0.00000000 0.00000000 0.00000000
Neuron 35 3 0.50000000 1 1.00000000 0.00000000 0.00000000 0.00000000
Neuron 39 3 0.50000000 1 1.00000000 0.00000000 0.00000000 0.00000000
Neuron 40 3 0.50000000 1 1.00000000 0.00000000 0.00000000 0.00000000
Neuron 41 3 0.50000000 1 1.00000000 0.00000000 0.00000000 0.00000000
Neuron 42 3 0.50000000 1 1.00000000 0.00000000 0.00000000 0.00000000
Neuron 44 3 0.50000000 1 1.00000000 0.00000000 0.00000000 0.00000000
Neuron 45 3 0.50000000 1 1.00000000 0.00000000 0.00000000 0.00000000
Neuron 46 3 0.50000000 1 1.00000000 0.00000000 0.00000000 0.00000000
Neuron 48 3 0.50000000 1 1.00000000 0.00000000 0.00000000 0.00000000
Neuron 49 3 0.50000000 1 1.00000000 0.00000000 0.00000000 0.00000000
Neuron 51 3 0.50000000 1 1.00000000 0.00000000 0.00000000 0.00000000
Neuron 56 3 0.50000000 1 1.00000000 0.00000000 0.00000000 0.00000000
Neuron 61 3 0.50000000 1 1.00000000 0.00000000 0.00000000 0.00000000
Neuron 63 3 0.50000000 1 1.00000000 0.00000000 0.00000000 0.00000000
Neuron 64 3 0.50000000 1 1.00000000 0.00000000 0.00000000 0.00000000
Neuron 67 3 0.50000000 1 1.00000000 0.00000000 0.00000000 0.00000000
Neuron 71 3 0.50000000 1 1.00000000 0.00000000 0.00000000 0.00000000
Neuron 74 3 0.75000000 1 1.00000000 0.00000000 0.00000000 0.00000000
Neuron 77 3 0.75000000 1 1.00000000 0.00000000 0.00000000 0.00000000
Neuron 78 3 0.75000000 1 1.00000000 0.00000000 0.00000000 0.00000000
Neuron 80 3 0.50000000 1 1.00000000 0.00000000 0.00000000 0.00000000
Neuron 88 3 0.75000000 1 1.00000000 0.00000000 0.00000000 0.00000000
Neuron 91 3 0.75000000 1 1.00000000 0.00000000 0.00000000 0.00000000
Neuron 95 3 0.25000000 1 1.00000000 0.00000000 0.00000000 0.00000000
Neuron 98 3 0.75000000 1 1.00000000 0.00000000 0.00000000 0.00000000
Neuron 103 3 0.75000000 1 1.00000000 0.00000000 0.00000000 0.00000000
Neuron 122 3 0.25000000 1 1.00000000 0.00000000 0.00000000 0.00000000
Neuron 135 3 0.75000000 1 1.00000000 0.00000000 0.00000000 0.00000000
Neuron 154 3 0.62500000 1 1.00000000 0.00000000 0.00000000 0.00000000
Neuron 163 3 0.75000000 1 1.00000000 0.00000000 0.00000000 0.00000000
Neuron 165 3 0.75000000 1 1.00000000 0.00000000 0.00000000 0.00000000
Neuron 174 3 0.25000000 1 1.00000000 0.00000000 0.00000000 0.00000000
Neuron 183 3 0.25000000 1 1.00000000 0.00000000 0.00000000 0.00000000
Neuron 198 3 0.75000000 1 1.00000000 0.00000000 0.00000000 0.00000000
Neuron 210 3 1.00000000 1 1.00000000 0.00000000 0.00000000 0.00000000
Neuron 211 3 0.25000000 1 1.00000000 0.00000000 0.00000000 0.00000000
Neuron 214 3 0.25000000 1 1.00000000 0.00000000 0.00000000 0.00000000
Neuron 216 3 0.25000000 1 1.00000000 0.00000000 0.00000000 0.00000000
Neuron 225 3 0.75000000 1 1.00000000 0.00000000 0.00000000 0.00000000
Neuron 239 3 0.25000000 1 1.00000000 0.00000000 0.00000000 0.00000000
Neuron 241 3 0.87500000 1 1.00000000 0.00000000 0.00000000 0.00000000
Neuron 282 3 0.50000000 1 1.00000000 0.00000000 0.00000000 0.00000000
Neuron 298 3 0.25000000 1 1.00000000 0.00000000 0.00000000 0.00000000
Neuron 341 3 0.25000000 1 1.00000000 0.00000000 0.00000000 0.00000000
Neuron 360 3 0.75000000 1 1.00000000 0.00000000 0.00000000 0.00000000
Neuron 367 3 0.12500000 1 1.00000000 0.00000000 0.00000000 0.00000000
Neuron 369 3 0.25000000 1 1.00000000 0.00000000 0.00000000 0.00000000
Neuron 403 3 0.87500000 1 1.00000000 0.00000000 0.00000000 0.00000000
Neuron 408 3 0.25000000 1 1.00000000 0.00000000 0.00000000 0.00000000
Neuron 411 3 0.50000000 1 1.00000000 0.00000000 0.00000000 0.00000000
Neuron 430 3 0.62500000 1 1.00000000 0.00000000 0.00000000 0.00000000
Neuron 439 3 0.37500000 1 1.00000000 0.00000000 0.00000000 0.00000000
Neuron 446 3 0.12500000 1 1.00000000 0.00000000 0.00000000 0.00000000
Neuron 466 3 0.87500000 1 1.00000000 0.00000000 0.00000000 0.00000000
Neuron 488 3 0.75000000 1 1.00000000 0.00000000 0.00000000 0.00000000
Neuron 503 3 0.06250000 1 1.00000000 0.00000000 0.00000000 0.00000000
Neuron 520 3 0.93750000 1 1.00000000 0.00000000 0.00000000 0.00000000
Neuron 524 3 0.87500000 1 1.00000000 0.00000000 0.00000000 0.00000000
Neuron 531 3 0.37500000 1 1.00000000 0.00000000 0.00000000 0.00000000
Neuron 537 3 0.62500000 1 1.00000000 0.00000000 0.00000000 0.00000000
Neuron 563 3 0.12500000 1 1.00000000 0.00000000 0.00000000 0.00000000
Neuron 582 3 0.75000000 1 1.00000000 0.00000000 0.00000000 0.00000000
Neuron 599 3 0.62500000 1 1.00000000 0.00000000 0.00000000 0.00000000
Neuron 618 3 0.50000000 1 1.00000000 0.00000000 0.00000000 0.00000000
Neuron 623 3 0.12500000 1 1.00000000 0.00000000 0.00000000 0.00000000
Neuron 643 3 0.81250000 1 1.00000000 0.00000000 0.00000000 0.00000000
Neuron 646 3 0.56250000 1 1.00000000 0.00000000 0.00000000 0.00000000
Neuron 650 3 0.62500000 1 1.00000000 0.00000000 0.00000000 0.00000000
Neuron 674 3 0.50000000 1 1.00000000 0.00000000 0.00000000 0.00000000
Neuron 692 3 0.78125000 1 1.00000000 0.00000000 0.00000000 0.00000000
Neuron 694 3 0.84375000 1 1.00000000 0.00000000 0.00000000 0.00000000
Neuron 701 3 0.93750000 1 1.00000000 0.00000000 0.00000000 0.00000000
Neuron 707 3 0.87500000 1 1.00000000 0.00000000 0.00000000 0.00000000
Neuron 724 3 0.90625000 1 1.00000000 0.00000000 0.00000000 0.00000000
Neuron 729 3 0.93750000 1 1.00000000 0.00000000 0.00000000 0.00000000
Neuron 755 3 0.03125000 1 1.00000000 0.00000000 0.00000000 0.00000000
Neuron 756 3 0.81250000 1 1.00000000 0.00000000 0.00000000 0.00000000
Neuron 761 3 0.68750000 1 1.00000000 0.00000000 0.00000000 0.00000000
Neuron 766 3 0.90625000 1 1.00000000 0.00000000 0.00000000 0.00000000
Neuron 770 3 0.50000000 1 1.00000000 0.00000000 0.00000000 0.00000000
Neuron 771 3 0.37500000 1 1.00000000 0.00000000 0.00000000 0.00000000
Neuron 778 3 0.37500000 1 1.00000000 0.00000000 0.00000000 0.00000000
Neuron 781 3 0.75000000 1 1.00000000 0.00000000 0.00000000 0.00000000
Neuron 799 3 0.62500000 1 1.00000000 0.00000000 0.00000000 0.00000000
Neuron 811 3 0.79687500 1 1.00000000 0.00000000 0.00000000 0.00000000
Neuron 834 3 0.68750000 1 1.00000000 0.00000000 0.00000000 0.00000000
Neuron 853 3 0.71875000 1 1.00000000 0.00000000 0.00000000 0.00000000
Neuron 865 3 0.68750000 1 1.00000000 0.00000000 0.00000000 0.00000000
Neuron 888 3 0.62500000 1 1.00000000 0.00000000 0.00000000 0.00000000
Neuron 905 3 0.50000000 1 1.00000000 0.00000000 0.00000000 0.00000000
Neuron 909 3 0.18750000 1 1.00000000 0.00000000 0.00000000 0.00000000
Neuron 918 3 0.31250000 1 1.00000000 0.00000000 0.00000000 0.00000000
Neuron 944 3 0.50000000 1 1.00000000 0.00000000 0.00000000 0.00000000
Neuron 947 3 0.75000000 1 1.00000000 0.00000000 0.00000000 0.00000000
Neuron 956 3 0.62500000 1 1.00000000 0.00000000 0.00000000 0.00000000
Neuron 968 3 0.78125000 1 1.00000000 0.00000000 0.00000000 0.00000000
Neuron 985 3 0.37500000 1 1.00000000 0.00000000 0.00000000 0.00000000
Neuron 1023 3 0.68750000 1 1.00000000 0.00000000 0.00000000 0.00000000
Neuron 1031 3 0.06250000 1 1.00000000 0.00000000 0.00000000 0.00000000
Neuron 1036 3 0.65625000 1 1.00000000 0.00000000 0.00000000 0.00000000
Neuron 1041 3 0.50000000 1 1.00000000 0.00000000 0.00000000 0.00000000
Neuron 1045 3 0.75000000 1 1.00000000 0.00000000 0.00000000 0.00000000
Neuron 1048 3 0.62500000 1 1.00000000 0.00000000 0.00000000 0.00000000
Neuron 1056 3 0.15625000 1 1.00000000 0.00000000 0.00000000 0.00000000
Neuron 1065 3 0.62500000 1 1.00000000 0.00000000 0.00000000 0.00000000
Neuron 1117 3 0.75000000 1 1.00000000 0.00000000 0.00000000 0.00000000
Neuron 1120 3 0.75000000 1 1.00000000 0.00000000 0.00000000 0.00000000
Neuron 1133 3 0.87500000 1 1.00000000 0.00000000 0.00000000 0.00000000
Neuron 1139 3 0.50000000 1 1.00000000 0.00000000 0.00000000 0.00000000
Neuron 1154 3 0.50000000 1 1.00000000 0.00000000 0.00000000 0.00000000
Neuron 1209 3 0.62500000 1 1.00000000 0.00000000 0.00000000 0.00000000
Neuron 1224 3 0.84375000 1 1.00000000 0.00000000 0.00000000 0.00000000
Neuron 1233 3 0.80468750 1 1.00000000 0.00000000 0.00000000 0.00000000
Neuron 1271 3 0.25000000 1 1.00000000 0.00000000 0.00000000 0.00000000
Neuron 1308 3 0.43750000 1 1.00000000 0.00000000 0.00000000 0.00000000
Neuron 1311 3 0.56250000 1 1.00000000 0.00000000 0.00000000 0.00000000
Neuron 1412 3 0.68750000 1 1.00000000 0.00000000 0.00000000 0.00000000
Neuron 1417 3 0.75000000 1 1.00000000 0.00000000 0.00000000 0.00000000
Link 2 10 2 0 -1.55651104
Link 3 10 3 0 -1.83464949
Link 4 10 4 0 2.65762295
Link 5 10 5 0 0.28883002
Link 6 10 6 0 2.58429187
Link 7 10 7 0 0.52626949
Link 9 10 9 0 0.26650692
Link 1 11 10 0 3.25618022
Link 3 11 12 0 1.59239227
Link 8 11 17 0 1.48981367
Link 9 11 18 0 0.00524300
Link 1 12 19 0 6.30469715
Link 3 12 21 0 -1.06564056
Link 4 12 22 0 1.99803743
Link 5 12 23 0 -1.03374524
Link 6 12 24 0 3.10253568
Link 9 12 27 0 0.89955227
Link 1 13 28 0 -1.60450727
Link 2 13 29 0 3.12959119
Link 3 13 30 0 -0.37535017
Link 4 13 31 0 1.15863074
Link 5 13 32 0 1.71434951
Link 6 13 33 0 -1.28618617
Link 7 13 34 0 -0.33750262
Link 8 13 35 0 -3.42770468
Link 1 14 37 0 -2.58084692
Link 2 14 38 0 -2.24680356
Link 3 14 39 0 -1.25176629
Link 4 14 40 0 -0.65428021
Link 5 14 41 0 4.55902206
Link 6 14 42 0 3.55772655
Link 7 14 43 0 -1.36589465
Link 1 15 46 0 0.33810521
Link 4 15 49 0 0.98597078
Link 5 15 50 0 -1.22758885
Link 6 15 51 0 -0.24928686
Link 7 15 52 0 -2.04511698
Link 8 15 53 0 -2.33803242
Link 9 15 54 0 1.75787381
Link 1 16 55 0 0.31753788
Link 2 16 56 0 3.18345902
Link 3 16 57 0 1.32503774
Link 5 16 59 0 -0.35609989
Link 6 16 60 0 -1.17403028
Link 7 16 61 0 0.65094996
Link 9 16 63 0 -0.13167228
Link 5 18 70 0 1.60208787
Link 18 14 71 0 -0.33284243
Link 2 19 74 0 0.17168515
Link 19 14 75 0 -1.60741421
Link 4 20 77 0 -0.40672654
Link 20 10 78 0 0.55796193
Link 26 12 96 0 -0.62443318
Link 2 28 101 0 1.47246302
Link 28 10 102 0 -0.41846011
Link 30 11 108 0 3.92335281
Link 14 14 109 1 -0.29980705
Link 5 33 117 0 2.33344468
Link 33 15 118 0 0.19483827
Link 8 35 124 0 0.90350265
Link 35 12 125 0 1.57817105
Link 7 40 142 0 -0.75871963
Link 40 10 143 0 -2.54678220
Link 7 41 145 0 0.37789044
Link 7 42 148 0 0.56528476
Link 6 44 154 0 0.43457870
Link 3 45 157 0 0.88878735
Link 1 46 162 0 -0.70736576
Link 8 48 168 0 0.82095857
Link 48 14 169 0 -1.95663888
Link 16 16 170 1 -3.24424568
Link 2 49 172 0 0.79774127
Link 51 16 179 0 0.11724914
Link 8 40 192 0 1.32111790
Link 2 56 198 0 -1.90852425
Link 56 11 199 0 -1.67714967
Link 61 16 221 0 -1.44907108
Link 3 63 227 0 0.89533400
Link 63 12 228 0 -2.55932061
Link 4 64 232 0 0.18586741
Link 64 11 233 0 1.93237656
Link 3 67 259 0 0.06260135
Link 67 15 260 0 0.65699703
Link 49 74 301 0 1.19641901
Link 74 15 302 0 0.29336047
Link 40 77 334 0 -1.41110047
Link 77 10 335 0 0.06983351
Link 78 12 339 0 -1.60292450
Link 39 11 351 0 -1.08579081
Link 8 80 354 0 -0.12158780
Link 1 49 388 0 2.49417848
Link 48 18 423 0 -2.56675100
Link 42 88 426 0 0.96963054
Link 88 11 427 0 1.85949166
Link 44 91 452 0 2.60829045
Link 91 15 453 0 -1.88365300
Link 95 30 489 0 -1.90278166
Link 48 98 502 0 1.28335977
Link 98 14 503 0 -0.16945800
Link 51 51 533 1 -1.46227106
Link 51 103 538 0 0.21664929
Link 103 16 539 0 -3.57861350
Link 4 46 549 0 -1.36737861
Link 3 49 657 0 -2.06402808
Link 2 122 684 0 0.61302023
Link 122 56 685 0 2.74068414
Link 45 135 780 0 0.56310767
Link 135 11 781 0 0.10778672
Link 42 42 793 1 0.68790985
Link 14 49 795 1 0.05706410
Link 26 26 862 1 -1.28369832
Link 40 14 871 0 -1.19991782
Link 42 154 988 0 -0.93467154
Link 46 163 1052 0 3.18358442
Link 163 10 1053 0 -0.71090946
Link 4 174 1112 0 -0.00134210
Link 174 51 1113 0 1.81299601
Link 183 49 1155 0 -0.43385271
Link 80 198 1278 0 -2.86395826
Link 198 10 1279 0 -0.49636980
Link 3 46 1378 0 0.60103529
Link 14 210 1391 1 0.66982158
Link 210 14 1392 1 -0.69230874
Link 211 26 1399 0 0.36910934
Link 7 214 1436 0 0.17378531
Link 214 61 1437 0 1.55023413
Link 7 216 1452 0 1.43323661
Link 216 39 1453 0 -2.29526955
Link 71 225 1514 0 1.54543621
Link 5 239 1616 0 1.45321334
Link 239 71 1617 0 2.48653272
Link 165 241 1629 0 2.05628431
Link 241 14 1630 0 -0.51644875
Link 7 282 1915 0 0.03262382
Link 282 10 1916 0 2.64351153
Link 3 298 2028 0 1.41531812
Link 4 341 2317 0 -0.37308946
Link 341 46 2318 0 -0.30520822
Link 40 360 2460 0 0.38328412
Link 360 14 2461 0 0.72450573
Link 7 367 2504 0 0.06698213
Link 367 216 2505 0 1.09698050
Link 5 369 2515 0 -0.99632339
Link 39 30 2569 0 -0.21428575
Link 225 40 2616 1 1.09231243
Link 8 88 2740 0 -0.24164584
Link 8 408 2765 0 1.39229676
Link 408 26 2766 0 -0.59392104
Link 46 411 2783 0 0.54350571
Link 411 51 2784 0 -0.98970809
Link 225 430 2942 1 2.07111165
Link 430 40 2943 1 1.05984380
Link 216 439 2995 0 -0.50281267
Link 439 39 2996 0 -1.51374730
Link 51 41 3022 0 4.17565031
Link 446 95 3056 0 0.55328272
Link 298 298 3108 1 0.89784403
Link 298 46 3159 0 0.14621683
Link 78 466 3223 0 0.05734041
Link 466 12 3224 0 0.65786407
Link 39 488 3419 0 -0.10437586
Link 488 11 3420 0 -2.80150112
Link 56 46 3471 0 1.92965749
Link 239 46 3499 0 -2.02006912
Link 78 46 3515 1 -0.86247293
Link 6 503 3541 0 -2.57033534
Link 503 446 3542 0 -1.48317392
Link 42 40 3543 0 -1.12214181
Link 41 165 3640 0 2.50189331
Link 403 520 3653 0 -2.45985829
Link 520 11 3654 0 -0.27918409
Link 163 524 3682 0 1.78589898
Link 524 10 3683 0 1.85902762
Link 30 51 3708 0 2.32394904
Link 298 531 3721 0 -1.61037319
Link 531 30 3722 0 -1.88907367
Link 41 537 3759 0 -0.25755790
Link 537 78 3760 0 2.28817236
Link 446 446 3827 1 -1.67987255
Link 2 563 3955 0 -1.15241035
Link 582 40 4095 1 -0.57281923
Link 67 26 4115 0 1.50875385
Link 16 80 4167 1 0.12459152
Link 39 599 4239 0 1.66770193
Link 599 165 4240 0 1.16748260
Link 30 225 4329 0 1.44073897
Link 56 618 4364 0 0.86000553
Link 1 623 4402 0 0.90229738
Link 623 183 4403 0 3.00152984
Link 9 163 4510 0 0.76799578
Link 41 646 4563 0 0.48501598
Link 646 537 4564 0 -0.99584063
Link 650 198 4611 0 -0.68621857
Link 49 41 4664 0 0.90069493
Link 674 51 4816 1 -0.63355213
Link 225 692 4930 0 -0.57683384
Link 692 643 4931 0 -2.53199288
Link 40 71 4940 0 0.25411792
Link 643 694 4943 0 1.00000000
Link 694 403 4944 0 0.38439842
Link 241 701 4991 0 0.66885358
Link 701 14 4992 0 0.59804564
Link 707 582 5049 1 -0.84722853
Link 165 239 5091 1 -1.16623455
Link 403 724 5214 0 0.66496273
Link 724 520 5215 0 2.19309598
Link 16 729 5255 1 0.00373149
Link 729 707 5256 1 0.86879029
Link 9 369 5361 0 -1.81641083
Link 7 46 5439 0 -0.35401913
Link 6 755 5492 0 0.79743949
Link 755 503 5493 0 -1.28836188
Link 756 241 5498 0 0.33810401
Link 403 761 5525 1 1.82835513
Link 761 71 5526 1 0.27203328
Link 729 766 5548 1 -0.50850386
Link 766 707 5549 1 1.67111520
Link 51 770 5587 0 1.38355652
Link 770 41 5588 0 1.99935747
Link 369 771 5590 0 1.24605214
Link 771 80 5591 0 -0.52278294
Link 3 778 5663 0 0.14138008
Link 778 165 5664 0 -0.24336871
Link 707 403 5667 0 0.25519524
Link 12 781 5681 1 -0.25374861
Link 781 41 5682 1 0.76421447
Link 403 446 5767 1 1.33330354
Link 9 582 5810 0 -0.79762955
Link 446 30 5828 0 1.72669589
Link 41 799 5881 0 1.04869454
Link 799 78 5882 0 1.72239111
Link 211 95 6002 0 -0.55343862
Link 692 811 6005 0 0.54538044
Link 811 643 6006 0 1.82530165
Link 14 67 6160 1 1.72474052
Link 216 40 6186 0 -0.69162938
Link 3 643 6204 0 0.73663897
Link 163 834 6215 1 -0.45222560
Link 834 599 6216 1 -0.63899047
Link 51 729 6273 0 0.85632981
Link 10 211 6277 1 -0.70023470
Link 10 707 6300 1 0.09210972
Link 1 563 6349 0 3.56236643
Link 51 853 6360 0 1.36035809
Link 853 729 6361 0 1.31357269
Link 865 88 6484 0 2.78234557
Link 8 298 6589 0 0.24527525
Link 781 888 6712 1 0.60478958
Link 888 41 6713 1 0.68379187
Link 4 582 6748 0 -2.24722063
Link 211 582 6834 0 -1.57764403
Link 51 905 6876 1 0.50408372
Link 905 674 6877 1 0.38002146
Link 563 909 6901 0 1.00155392
Link 909 211 6902 0 0.65867252
Link 165 95 6950 1 0.49982550
Link 918 771 6981 0 -0.17443652
Link 88 643 7051 0 -2.56040537
Link 298 944 7173 0 1.18988832
Link 944 165 7174 0 3.47728895
Link 67 88 7211 0 -1.73682297
Link 14 947 7218 1 0.61719854
Link 947 67 7219 1 1.29042208
Link 42 956 7302 0 0.68732608
Link 956 582 7303 0 -0.38062822
Link 771 403 7372 0 0.82650628
Link 771 771 7383 1 -2.60517836
Link 165 968 7415 0 -1.52187155
Link 968 756 7416 0 0.65536719
Link 408 16 7513 0 1.35106285
Link 239 985 7612 0 1.84506481
Link 985 51 7613 0 0.60791391
Link 51 582 7648 0 1.18509383
Link 64 64 7672 1 -2.18614400
Link 408 77 7704 0 -0.92939861
Link 103 225 7866 0 -0.08803035
Link 282 599 7908 0 -1.81891024
Link 531 1023 7938 0 -2.05581644
Link 1023 11 7939 0 -1.89972174
Link 7 1031 8027 0 -0.63347728
Link 1031 367 8028 0 0.72040934
Link 154 1036 8064 0 2.30818457
Link 1036 865 8065 0 -0.90910956
Link 211 918 8079 0 -3.46022864
Link 1041 174 8099 1 1.10789171
Link 282 1045 8120 0 2.09497076
Link 1045 10 8121 0 -1.10803270
Link 67 1048 8142 0 -0.40068085
Link 1048 88 8143 0 -0.40479411
Link 503 1056 8241 0 -0.34238671
Link 1056 369 8242 0 1.27250091
Link 51 1065 8323 0 1.16228306
Link 1065 582 8324 0 0.48599947
Link 48 408 8342 1 -1.97104523
Link 8 1056 8357 0 0.36248695
Link 599 446 8409 1 -0.04876869
Link 771 88 8488 0 3.51259306
Link 778 985 8556 0 0.69604027
Link 771 563 8733 1 -1.36234956
Link 49 1117 8735 0 0.27269156
Link 1117 15 8736 0 0.77526398
Link 12 1120 8760 1 2.05689892
Link 1120 41 8761 1 -0.12475391
Link 183 1023 8797 0 0.33185465
Link 77 446 8843 1 -0.16169015
Link 524 1133 8870 1 0.17249104
Link 1133 524 8871 1 -0.67959074
Link 211 11 8886 0 2.56126730
Link 174 503 8894 1 -1.40337417
Link 618 1139 8915 0 0.17619600
Link 1139 46 8916 0 2.44721595
Link 56 968 9001 0 -1.68441240
Link 56 1154 9020 0 1.16239502
Link 1154 18 9021 0 -0.40646174
Link 503 947 9027 0 3.44821321
Link 755 30 9130 0 -2.92504113
Link 135 135 9174 1 -1.99792453
Link 537 64 9237 1 -0.30806573
Link 503 503 9310 1 0.03255405
Link 956 71 9382 1 0.34897828
Link 163 1209 9436 1 1.30928065
Link 1209 1041 9437 1 0.42204415
Link 985 524 9471 0 -4.03381059
Link 298 439 9519 0 -1.94096708
Link 778 211 9529 1 -2.00293190
Link 1023 1224 9540 0 0.58581902
Link 1224 11 9541 0 0.52297255
Link 563 40 9549 0 -0.95074087
Link 811 1233 9626 0 1.90461077
Link 1233 643 9627 0 -1.72616970
Link 701 771 9680 1 -1.14473440
Link 1209 103 9802 0 -4.66532133
Link 78 78 9870 1 1.19102667
Link 408 1271 9945 0 1.07472944
Link 1271 183 9946 0 -2.76259457
Link 44 165 10040 0 1.13498382
Link 64 282 10058 0 2.38781044
Link 282 724 10147 0 -1.37820105
Link 956 13 10160 0 0.45073014
Link 63 1139 10185 0 -1.05166796
Link 135 74 10253 0 1.66120163
Link 48 1308 10259 1 1.20441993
Link 1308 771 10260 1 -0.85572989
Link 80 1311 10277 0 0.54351497
Link 1311 650 10278 0 0.50937701
Link 63 16 10432 0 -0.68189384
Link 1065 701 10869 0 0.29557286
Link 623 956 10947 0 -0.20854883
Link 1056 122 11044 0 -1.77995535
Link 7 1048 11099 0 -0.92773934
Link 163 1412 11154 1 0.55136335
Link 1412 599 11155 1 2.10949155
Link 88 1417 11192 0 0.75681219
Link 1417 98 11193 0 1.24923213
Link 488 756 11364 0 -0.33894050
Link 811 439 11430 1 0.01760732
Link 1031 781 11479 0 0.55652963
Link 623 430 11501 0 -2.48429265
Link 56 1311 11534 0 -1.69228432
Link 298 122 11572 0 -2.11836296
Link 1133 1412 11776 1 -1.79702535
Link 1311 1311 11936 1 2.34002337
Link 563 91 11990 0 -1.32072557
GenomeEnd

