GenomeStart 42599
Neuron 1 1 0.00000000 1 0.00000000 0.00000000 0.00000000 0.00000000
Neuron 2 1 0.00000000 1 0.00000000 0.00000000 0.00000000 0.00000000
Neuron 3 1 0.00000000 1 0.00000000 0.00000000 0.00000000 0.00000000
Neuron 4 1 0.00000000 1 0.00000000 0.00000000 0.00000000 0.00000000
Neuron 5 1 0.00000000 1 0.00000000 0.00000000 0.00000000 0.00000000
Neuron 6 1 0.00000000 1 0.00000000 0.00000000 0.00000000 0.00000000
Neuron 7 1 0.00000000 1 0.00000000 0.00000000 0.00000000 0.00000000
Neuron 8 1 0.00000000 1 0.00000000 0.00000000 0.00000000 0.00000000
Neuron 9 2 0.00000000 1 0.00000000 0.00000000 0.00000000 0.00000000
Neuron 10 4 1.00000000 0 1.00000000 0.00000000 0.00000000 0.00000000
Neuron 11 4 1.00000000 0 1.00000000 0.00000000 0.00000000 0.00000000
Neuron 12 4 1.00000000 0 1.00000000 0.00000000 0.00000000 0.00000000
Neuron 13 4 1.00000000 0 1.00000000 0.00000000 0.00000000 0.00000000
Neuron 14 4 1.00000000 0 1.00000000 0.00000000 0.00000000 0.00000000
Neuron 15 4 1.00000000 0 1.00000000 0.00000000 0.00000000 0.00000000
Neuron 16 4 1.00000000 0 1.00000000 0.00000000 0.00000000 0.00000000
Neuron 26 3 0.50000000 1 1.00000000 0.00000000 0.00000000 0.00000000
Neuron 30 3 0.50000000 1 1.00000000 0.00000000 0.00000000 0.00000000
Neuron 39 3 0.50000000 1 1.00000000 0.00000000 0.00000000 0.00000000
Neuron 40 3 0.50000000 1 1.00000000 0.00000000 0.00000000 0.00000000
Neuron 41 3 0.50000000 1 1.00000000 0.00000000 0.00000000 0.00000000
Neuron 42 3 0.50000000 1 1.00000000 0.00000000 0.00000000 0.00000000
Neuron 46 3 0.50000000 1 1.00000000 0.00000000 0.00000000 0.00000000
Neuron 48 3 0.50000000 1 1.00000000 0.00000000 0.00000000 0.00000000
Neuron 49 3 0.50000000 1 1.00000000 0.00000000 0.00000000 0.00000000
Neuron 51 3 0.50000000 1 1.00000000 0.00000000 0.00000000 0.00000000
Neuron 56 3 0.50000000 1 1.00000000 0.00000000 0.00000000 0.00000000
Neuron 67 3 0.50000000 1 1.00000000 0.00000000 0.00000000 0.00000000
Neuron 71 3 0.50000000 1 1.00000000 0.00000000 0.00000000 0.00000000
Neuron 77 3 0.75000000 1 1.00000000 0.00000000 0.00000000 0.00000000
Neuron 78 3 0.75000000 1 1.00000000 0.00000000 0.00000000 0.00000000
Neuron 80 3 0.50000000 1 1.00000000 0.00000000 0.00000000 0.00000000
Neuron 88 3 0.75000000 1 1.00000000 0.00000000 0.00000000 0.00000000
Neuron 95 3 0.25000000 1 1.00000000 0.00000000 0.00000000 0.00000000
Neuron 154 3 0.62500000 1 1.00000000 0.00000000 0.00000000 0.00000000
Neuron 163 3 0.75000000 1 1.00000000 0.00000000 0.00000000 0.00000000
Neuron 165 3 0.75000000 1 1.00000000 0.00000000 0.00000000 0.00000000
Neuron 174 3 0.25000000 1 1.00000000 0.00000000 0.00000000 0.00000000
Neuron 198 3 0.75000000 1 1.00000000 0.00000000 0.00000000 0.00000000
Neuron 211 3 0.25000000 1 1.00000000 0.00000000 0.00000000 0.00000000
Neuron 216 3 0.25000000 1 1.00000000 0.00000000 0.00000000 0.00000000
Neuron 225 3 0.75000000 1 1.00000000 0.00000000 0.00000000 0.00000000
Neuron 239 3 0.25000000 1 1.00000000 0.00000000 0.00000000 0.00000000
Neuron 241 3 0.87500000 1 1.00000000 0.00000000 0.00000000 0.00000000
Neuron 298 3 0.25000000 1 1.00000000 0.00000000 0.00000000 0.00000000
Neuron 369 3 0.25000000 1 1.00000000 0.00000000 0.00000000 0.00000000
Neuron 403 3 0.87500000 1 1.00000000 0.00000000 0.00000000 0.00000000
Neuron 408 3 0.25000000 1 1.00000000 0.00000000 0.00000000 0.00000000
Neuron 430 3 0.62500000 1 1.00000000 0.00000000 0.00000000 0.00000000
Neuron 446 3 0.12500000 1 1.00000000 0.00000000 0.00000000 0.00000000
Neuron 503 3 0.06250000 1 1.00000000 0.00000000 0.00000000 0.00000000
Neuron 520 3 0.93750000 1 1.00000000 0.00000000 0.00000000 0.00000000
Neuron 531 3 0.37500000 1 1.00000000 0.00000000 0.00000000 0.00000000
Neuron 563 3 0.12500000 1 1.00000000 0.00000000 0.00000000 0.00000000
Neuron 582 3 0.75000000 1 1.00000000 0.00000000 0.00000000 0.00000000
Neuron 599 3 0.62500000 1 1.00000000 0.00000000 0.00000000 0.00000000
Neuron 643 3 0.81250000 1 1.00000000 0.00000000 0.00000000 0.00000000
Neuron 674 3 0.50000000 1 1.00000000 0.00000000 0.00000000 0.00000000
Neuron 692 3 0.78125000 1 1.00000000 0.00000000 0.00000000 0.00000000
Neuron 707 3 0.87500000 1 1.00000000 0.00000000 0.00000000 0.00000000
Neuron 729 3 0.93750000 1 1.00000000 0.00000000 0.00000000 0.00000000
Neuron 771 3 0.37500000 1 1.00000000 0.00000000 0.00000000 0.00000000
Neuron 778 3 0.37500000 1 1.00000000 0.00000000 0.00000000 0.00000000
Link 2 10 2 0 -1.00371869
Link 3 10 3 0 -1.79050821
Link 4 10 4 0 1.70234369
Link 5 10 5 0 0.38000458
Link 6 10 6 0 3.10964583
Link 7 10 7 0 0.94033280
Link 9 10 9 0 -0.26505778
Link 1 11 10 0 3.95126694
Link 3 11 12 0 1.81449513
Link 4 11 13 0 1.73527095
Link 8 11 17 0 1.55169764
Link 9 11 18 0 0.13664660
Link 1 12 19 0 5.19552460
Link 3 12 21 0 -1.70898425
Link 4 12 22 0 4.01779011
Link 5 12 23 0 -0.83667566
Link 6 12 24 0 1.94576813
Link 8 12 26 0 1.21682714
Link 9 12 27 0 -0.11739976
Link 1 13 28 0 -0.76075441
Link 2 13 29 0 2.19847345
Link 3 13 30 0 -1.17142160
Link 4 13 31 0 -2.46469147
Link 5 13 32 0 2.01248090
Link 6 13 33 0 -1.01003614
Link 7 13 34 0 -2.45850865
Link 8 13 35 0 -3.65716429
Link 1 14 37 0 -4.30582976
Link 2 14 38 0 -2.02081804
Link 3 14 39 0 -0.74530956
Link 4 14 40 0 -1.00772043
Link 5 14 41 0 0.62950962
Link 6 14 42 0 4.38949239
Link 7 14 43 0 -0.23911062
Link 1 15 46 0 0.95482069
Link 4 15 49 0 -0.90406728
Link 5 15 50 0 0.29766178
Link 6 15 51 0 0.62311073
Link 7 15 52 0 -0.76169761
Link 8 15 53 0 -2.66081497
Link 9 15 54 0 1.26187926
Link 1 16 55 0 3.33690641
Link 2 16 56 0 1.48031094
Link 3 16 57 0 -1.53374155
Link 5 16 59 0 -1.17261318
Link 6 16 60 0 -0.99441660
Link 7 16 61 0 1.21433653
Link 9 16 63 0 0.44898420
Link 26 12 96 0 -0.80771842
Link 30 11 108 0 2.13335581
Link 14 14 109 1 -1.94370107
Link 7 40 142 0 -1.30717380
Link 7 41 145 0 1.79373712
Link 7 42 148 0 -0.74237146
Link 1 46 162 0 -0.03066150
Link 8 48 168 0 1.36396533
Link 48 14 169 0 0.15238237
Link 16 16 170 1 -3.90039484
Link 2 49 172 0 -0.61698067
Link 49 15 173 0 -1.66976666
Link 51 16 179 0 0.40640138
Link 8 40 192 0 4.17341217
Link 2 56 198 0 2.91743607
Link 56 11 199 0 -4.22606853
Link 3 67 259 0 3.49636905
Link 67 15 260 0 0.08038186
Link 40 77 334 0 1.00000000
Link 77 10 335 0 -1.95427547
Link 41 78 338 0 3.94980067
Link 78 12 339 0 0.23974077
Link 39 11 351 0 -1.09757738
Link 8 80 354 0 -1.95909797
Link 1 49 388 0 3.07377030
Link 88 11 427 0 1.65837460
Link 95 30 489 0 0.42131714
Link 4 46 549 0 -5.54655271
Link 3 49 657 0 -2.37901938
Link 14 49 795 1 2.48506547
Link 40 14 871 0 0.32915316
Link 42 154 988 0 0.69495855
Link 154 88 989 0 1.44016133
Link 46 163 1052 0 1.66447880
Link 163 10 1053 0 4.45273375
Link 4 174 1112 0 1.38655895
Link 174 51 1113 0 2.12333050
Link 80 198 1278 0 -4.47522105
Link 198 10 1279 0 -1.76732779
Link 211 26 1399 0 0.99383408
Link 7 216 1452 0 3.61021409
Link 216 39 1453 0 0.33014814
Link 71 225 1514 0 0.71791751
Link 5 239 1616 0 -0.87845426
Link 239 71 1617 0 1.13639144
Link 165 241 1629 0 0.22153687
Link 241 14 1630 0 0.44027817
Link 3 298 2028 0 1.63712754
Link 46 51 2335 0 1.47908139
Link 5 369 2515 0 -1.00288820
Link 39 30 2569 0 -0.94064295
Link 8 408 2765 0 0.56847912
Link 408 26 2766 0 -2.58862298
Link 12 41 2798 1 1.06401247
Link 225 430 2942 1 1.00000000
Link 430 40 2943 1 2.78322002
Link 51 41 3022 0 3.40687839
Link 446 95 3056 0 0.14535126
Link 298 298 3108 1 -0.72232028
Link 298 46 3159 0 4.48762067
Link 56 46 3471 0 2.41837562
Link 78 46 3515 1 0.23371669
Link 6 503 3541 0 -0.58804740
Link 503 446 3542 0 -0.90467672
Link 403 520 3653 0 1.81634508
Link 520 11 3654 0 -1.77387220
Link 30 51 3708 0 0.73573063
Link 298 531 3721 0 -0.07102651
Link 531 30 3722 0 0.79812289
Link 446 446 3827 1 -3.46991035
Link 2 563 3955 0 0.91647350
Link 563 211 3956 0 0.82166574
Link 582 40 4095 1 -0.85811409
Link 67 26 4115 0 -3.26579028
Link 16 80 4167 1 1.98662450
Link 39 599 4239 0 0.70079032
Link 599 165 4240 0 0.74398733
Link 643 403 4540 0 4.19570685
Link 42 582 4616 0 1.45768912
Link 51 674 4815 1 1.26240487
Link 674 51 4816 1 -1.86971064
Link 225 692 4930 0 0.61609859
Link 692 643 4931 0 -1.76117521
Link 707 582 5049 1 -1.63751231
Link 403 71 5210 1 -1.49224835
Link 16 729 5255 1 0.81954336
Link 729 707 5256 1 1.43502765
Link 9 369 5361 0 -4.75346666
Link 7 46 5439 0 -2.86715233
Link 369 771 5590 0 0.68448012
Link 771 80 5591 0 -2.04056938
Link 3 778 5663 0 1.06081091
Link 778 165 5664 0 -2.10121689
Link 163 599 5710 1 -0.59025939
Link 9 582 5810 0 -1.50415133
Link 211 95 6002 0 -1.12995227
Link 14 67 6160 1 4.19408932
Link 3 643 6204 0 2.00939295
Link 10 211 6277 1 -0.31353985
GenomeEnd

