GenomeStart 102340
Neuron 1 1 0.00000000 1 0.00000000 0.00000000 0.00000000 0.00000000
Neuron 2 1 0.00000000 1 0.00000000 0.00000000 0.00000000 0.00000000
Neuron 3 1 0.00000000 1 0.00000000 0.00000000 0.00000000 0.00000000
Neuron 4 1 0.00000000 1 0.00000000 0.00000000 0.00000000 0.00000000
Neuron 5 1 0.00000000 1 0.00000000 0.00000000 0.00000000 0.00000000
Neuron 6 1 0.00000000 1 0.00000000 0.00000000 0.00000000 0.00000000
Neuron 7 1 0.00000000 1 0.00000000 0.00000000 0.00000000 0.00000000
Neuron 8 1 0.00000000 1 0.00000000 0.00000000 0.00000000 0.00000000
Neuron 9 2 0.00000000 1 0.00000000 0.00000000 0.00000000 0.00000000
Neuron 10 4 1.00000000 0 1.00000000 0.00000000 0.00000000 0.00000000
Neuron 11 4 1.00000000 0 1.00000000 0.00000000 0.00000000 0.00000000
Neuron 12 4 1.00000000 0 1.00000000 0.00000000 0.00000000 0.00000000
Neuron 13 4 1.00000000 0 1.00000000 0.00000000 0.00000000 0.00000000
Neuron 14 4 1.00000000 0 1.00000000 0.00000000 0.00000000 0.00000000
Neuron 15 4 1.00000000 0 1.00000000 0.00000000 0.00000000 0.00000000
Neuron 16 4 1.00000000 0 1.00000000 0.00000000 0.00000000 0.00000000
Neuron 17 3 0.50000000 1 1.00000000 0.00000000 0.00000000 0.00000000
Neuron 18 3 0.50000000 1 1.00000000 0.00000000 0.00000000 0.00000000
Neuron 19 3 0.50000000 1 1.00000000 0.00000000 0.00000000 0.00000000
Neuron 20 3 0.50000000 1 1.00000000 0.00000000 0.00000000 0.00000000
Neuron 21 3 0.50000000 1 1.00000000 0.00000000 0.00000000 0.00000000
Neuron 23 3 0.50000000 1 1.00000000 0.00000000 0.00000000 0.00000000
Neuron 24 3 0.50000000 1 1.00000000 0.00000000 0.00000000 0.00000000
Neuron 25 3 0.50000000 1 1.00000000 0.00000000 0.00000000 0.00000000
Neuron 27 3 0.50000000 1 1.00000000 0.00000000 0.00000000 0.00000000
Neuron 29 3 0.50000000 1 1.00000000 0.00000000 0.00000000 0.00000000
Neuron 30 3 0.50000000 1 1.00000000 0.00000000 0.00000000 0.00000000
Neuron 31 3 0.50000000 1 1.00000000 0.00000000 0.00000000 0.00000000
Neuron 33 3 0.50000000 1 1.00000000 0.00000000 0.00000000 0.00000000
Neuron 39 3 0.50000000 1 1.00000000 0.00000000 0.00000000 0.00000000
Neuron 41 3 0.50000000 1 1.00000000 0.00000000 0.00000000 0.00000000
Neuron 43 3 0.50000000 1 1.00000000 0.00000000 0.00000000 0.00000000
Neuron 46 3 0.50000000 1 1.00000000 0.00000000 0.00000000 0.00000000
Neuron 47 3 0.50000000 1 1.00000000 0.00000000 0.00000000 0.00000000
Neuron 48 3 0.50000000 1 1.00000000 0.00000000 0.00000000 0.00000000
Neuron 50 3 0.50000000 1 1.00000000 0.00000000 0.00000000 0.00000000
Neuron 51 3 0.50000000 1 1.00000000 0.00000000 0.00000000 0.00000000
Neuron 52 3 0.50000000 1 1.00000000 0.00000000 0.00000000 0.00000000
Neuron 53 3 0.50000000 1 1.00000000 0.00000000 0.00000000 0.00000000
Neuron 55 3 0.50000000 1 1.00000000 0.00000000 0.00000000 0.00000000
Neuron 56 3 0.50000000 1 1.00000000 0.00000000 0.00000000 0.00000000
Neuron 60 3 0.50000000 1 1.00000000 0.00000000 0.00000000 0.00000000
Neuron 61 3 0.50000000 1 1.00000000 0.00000000 0.00000000 0.00000000
Neuron 62 3 0.50000000 1 1.00000000 0.00000000 0.00000000 0.00000000
Neuron 64 3 0.50000000 1 1.00000000 0.00000000 0.00000000 0.00000000
Neuron 67 3 0.75000000 1 1.00000000 0.00000000 0.00000000 0.00000000
Neuron 68 3 0.50000000 1 1.00000000 0.00000000 0.00000000 0.00000000
Neuron 69 3 0.50000000 1 1.00000000 0.00000000 0.00000000 0.00000000
Neuron 74 3 0.25000000 1 1.00000000 0.00000000 0.00000000 0.00000000
Neuron 78 3 0.50000000 1 1.00000000 0.00000000 0.00000000 0.00000000
Neuron 79 3 0.50000000 1 1.00000000 0.00000000 0.00000000 0.00000000
Neuron 84 3 0.75000000 1 1.00000000 0.00000000 0.00000000 0.00000000
Neuron 87 3 0.50000000 1 1.00000000 0.00000000 0.00000000 0.00000000
Neuron 88 3 0.75000000 1 1.00000000 0.00000000 0.00000000 0.00000000
Neuron 91 3 0.75000000 1 1.00000000 0.00000000 0.00000000 0.00000000
Neuron 94 3 0.25000000 1 1.00000000 0.00000000 0.00000000 0.00000000
Neuron 97 3 0.75000000 1 1.00000000 0.00000000 0.00000000 0.00000000
Neuron 102 3 0.25000000 1 1.00000000 0.00000000 0.00000000 0.00000000
Neuron 103 3 0.25000000 1 1.00000000 0.00000000 0.00000000 0.00000000
Neuron 105 3 0.75000000 1 1.00000000 0.00000000 0.00000000 0.00000000
Neuron 111 3 0.75000000 1 1.00000000 0.00000000 0.00000000 0.00000000
Neuron 116 3 0.25000000 1 1.00000000 0.00000000 0.00000000 0.00000000
Neuron 136 3 0.75000000 1 1.00000000 0.00000000 0.00000000 0.00000000
Neuron 137 3 0.25000000 1 1.00000000 0.00000000 0.00000000 0.00000000
Neuron 138 3 0.75000000 1 1.00000000 0.00000000 0.00000000 0.00000000
Neuron 139 3 0.25000000 1 1.00000000 0.00000000 0.00000000 0.00000000
Neuron 141 3 0.25000000 1 1.00000000 0.00000000 0.00000000 0.00000000
Neuron 151 3 0.25000000 1 1.00000000 0.00000000 0.00000000 0.00000000
Neuron 164 3 0.25000000 1 1.00000000 0.00000000 0.00000000 0.00000000
Neuron 173 3 0.25000000 1 1.00000000 0.00000000 0.00000000 0.00000000
Neuron 175 3 0.75000000 1 1.00000000 0.00000000 0.00000000 0.00000000
Neuron 181 3 0.25000000 1 1.00000000 0.00000000 0.00000000 0.00000000
Neuron 192 3 0.75000000 1 1.00000000 0.00000000 0.00000000 0.00000000
Neuron 199 3 0.75000000 1 1.00000000 0.00000000 0.00000000 0.00000000
Neuron 211 3 0.75000000 1 1.00000000 0.00000000 0.00000000 0.00000000
Neuron 216 3 0.37500000 1 1.00000000 0.00000000 0.00000000 0.00000000
Neuron 218 3 0.50000000 1 1.00000000 0.00000000 0.00000000 0.00000000
Neuron 225 3 0.62500000 1 1.00000000 0.00000000 0.00000000 0.00000000
Neuron 226 3 0.25000000 1 1.00000000 0.00000000 0.00000000 0.00000000
Neuron 235 3 0.75000000 1 1.00000000 0.00000000 0.00000000 0.00000000
Neuron 243 3 0.75000000 1 1.00000000 0.00000000 0.00000000 0.00000000
Neuron 247 3 0.50000000 1 1.00000000 0.00000000 0.00000000 0.00000000
Neuron 252 3 0.25000000 1 1.00000000 0.00000000 0.00000000 0.00000000
Neuron 258 3 0.87500000 1 1.00000000 0.00000000 0.00000000 0.00000000
Neuron 262 3 0.25000000 1 1.00000000 0.00000000 0.00000000 0.00000000
Neuron 263 3 0.25000000 1 1.00000000 0.00000000 0.00000000 0.00000000
Neuron 266 3 0.75000000 1 1.00000000 0.00000000 0.00000000 0.00000000
Neuron 271 3 0.75000000 1 1.00000000 0.00000000 0.00000000 0.00000000
Neuron 291 3 0.37500000 1 1.00000000 0.00000000 0.00000000 0.00000000
Neuron 299 3 0.75000000 1 1.00000000 0.00000000 0.00000000 0.00000000
Neuron 301 3 0.75000000 1 1.00000000 0.00000000 0.00000000 0.00000000
Neuron 312 3 0.87500000 1 1.00000000 0.00000000 0.00000000 0.00000000
Neuron 313 3 0.37500000 1 1.00000000 0.00000000 0.00000000 0.00000000
Neuron 329 3 0.93750000 1 1.00000000 0.00000000 0.00000000 0.00000000
Neuron 330 3 0.62500000 1 1.00000000 0.00000000 0.00000000 0.00000000
Neuron 345 3 0.25000000 1 1.00000000 0.00000000 0.00000000 0.00000000
Neuron 357 3 0.12500000 1 1.00000000 0.00000000 0.00000000 0.00000000
Neuron 364 3 0.75000000 1 1.00000000 0.00000000 0.00000000 0.00000000
Neuron 383 3 0.37500000 1 1.00000000 0.00000000 0.00000000 0.00000000
Neuron 394 3 0.50000000 1 1.00000000 0.00000000 0.00000000 0.00000000
Neuron 408 3 0.75000000 1 1.00000000 0.00000000 0.00000000 0.00000000
Neuron 433 3 0.50000000 1 1.00000000 0.00000000 0.00000000 0.00000000
Neuron 442 3 0.25000000 1 1.00000000 0.00000000 0.00000000 0.00000000
Neuron 444 3 0.87500000 1 1.00000000 0.00000000 0.00000000 0.00000000
Neuron 446 3 0.62500000 1 1.00000000 0.00000000 0.00000000 0.00000000
Neuron 448 3 0.37500000 1 1.00000000 0.00000000 0.00000000 0.00000000
Neuron 456 3 0.37500000 1 1.00000000 0.00000000 0.00000000 0.00000000
Neuron 459 3 0.87500000 1 1.00000000 0.00000000 0.00000000 0.00000000
Neuron 466 3 0.25000000 1 1.00000000 0.00000000 0.00000000 0.00000000
Neuron 481 3 0.87500000 1 1.00000000 0.00000000 0.00000000 0.00000000
Neuron 493 3 0.25000000 1 1.00000000 0.00000000 0.00000000 0.00000000
Neuron 499 3 0.75000000 1 1.00000000 0.00000000 0.00000000 0.00000000
Neuron 500 3 0.50000000 1 1.00000000 0.00000000 0.00000000 0.00000000
Neuron 502 3 0.87500000 1 1.00000000 0.00000000 0.00000000 0.00000000
Neuron 508 3 0.37500000 1 1.00000000 0.00000000 0.00000000 0.00000000
Neuron 517 3 0.75000000 1 1.00000000 0.00000000 0.00000000 0.00000000
Neuron 521 3 0.50000000 1 1.00000000 0.00000000 0.00000000 0.00000000
Neuron 539 3 0.37500000 1 1.00000000 0.00000000 0.00000000 0.00000000
Neuron 541 3 0.62500000 1 1.00000000 0.00000000 0.00000000 0.00000000
Neuron 548 3 0.37500000 1 1.00000000 0.00000000 0.00000000 0.00000000
Neuron 564 3 0.50000000 1 1.00000000 0.00000000 0.00000000 0.00000000
Neuron 568 3 0.25000000 1 1.00000000 0.00000000 0.00000000 0.00000000
Neuron 576 3 0.25000000 1 1.00000000 0.00000000 0.00000000 0.00000000
Neuron 580 3 0.12500000 1 1.00000000 0.00000000 0.00000000 0.00000000
Neuron 584 3 0.50000000 1 1.00000000 0.00000000 0.00000000 0.00000000
Neuron 593 3 0.50000000 1 1.00000000 0.00000000 0.00000000 0.00000000
Neuron 594 3 0.12500000 1 1.00000000 0.00000000 0.00000000 0.00000000
Neuron 603 3 0.93750000 1 1.00000000 0.00000000 0.00000000 0.00000000
Neuron 617 3 0.62500000 1 1.00000000 0.00000000 0.00000000 0.00000000
Neuron 620 3 0.87500000 1 1.00000000 0.00000000 0.00000000 0.00000000
Neuron 621 3 0.50000000 1 1.00000000 0.00000000 0.00000000 0.00000000
Neuron 623 3 0.37500000 1 1.00000000 0.00000000 0.00000000 0.00000000
Neuron 636 3 0.37500000 1 1.00000000 0.00000000 0.00000000 0.00000000
Neuron 638 3 0.37500000 1 1.00000000 0.00000000 0.00000000 0.00000000
Neuron 639 3 0.12500000 1 1.00000000 0.00000000 0.00000000 0.00000000
Neuron 643 3 0.50000000 1 1.00000000 0.00000000 0.00000000 0.00000000
Neuron 646 3 0.62500000 1 1.00000000 0.00000000 0.00000000 0.00000000
Neuron 650 3 0.25000000 1 1.00000000 0.00000000 0.00000000 0.00000000
Neuron 670 3 0.75000000 1 1.00000000 0.00000000 0.00000000 0.00000000
Neuron 679 3 0.62500000 1 1.00000000 0.00000000 0.00000000 0.00000000
Neuron 682 3 0.62500000 1 1.00000000 0.00000000 0.00000000 0.00000000
Neuron 685 3 0.25000000 1 1.00000000 0.00000000 0.00000000 0.00000000
Neuron 690 3 0.12500000 1 1.00000000 0.00000000 0.00000000 0.00000000
Neuron 708 3 0.93750000 1 1.00000000 0.00000000 0.00000000 0.00000000
Neuron 712 3 0.37500000 1 1.00000000 0.00000000 0.00000000 0.00000000
Neuron 715 3 0.37500000 1 1.00000000 0.00000000 0.00000000 0.00000000
Neuron 720 3 0.12500000 1 1.00000000 0.00000000 0.00000000 0.00000000
Neuron 731 3 0.37500000 1 1.00000000 0.00000000 0.00000000 0.00000000
Neuron 739 3 0.56250000 1 1.00000000 0.00000000 0.00000000 0.00000000
Neuron 745 3 0.62500000 1 1.00000000 0.00000000 0.00000000 0.00000000
Neuron 746 3 0.81250000 1 1.00000000 0.00000000 0.00000000 0.00000000
Neuron 754 3 0.56250000 1 1.00000000 0.00000000 0.00000000 0.00000000
Neuron 757 3 0.50000000 1 1.00000000 0.00000000 0.00000000 0.00000000
Neuron 761 3 0.43750000 1 1.00000000 0.00000000 0.00000000 0.00000000
Neuron 766 3 0.37500000 1 1.00000000 0.00000000 0.00000000 0.00000000
Neuron 767 3 0.50000000 1 1.00000000 0.00000000 0.00000000 0.00000000
Neuron 768 3 0.62500000 1 1.00000000 0.00000000 0.00000000 0.00000000
Neuron 780 3 0.50000000 1 1.00000000 0.00000000 0.00000000 0.00000000
Neuron 782 3 0.56250000 1 1.00000000 0.00000000 0.00000000 0.00000000
Neuron 787 3 0.50000000 1 1.00000000 0.00000000 0.00000000 0.00000000
Neuron 788 3 0.50000000 1 1.00000000 0.00000000 0.00000000 0.00000000
Neuron 794 3 0.93750000 1 1.00000000 0.00000000 0.00000000 0.00000000
Neuron 796 3 0.56250000 1 1.00000000 0.00000000 0.00000000 0.00000000
Neuron 801 3 0.62500000 1 1.00000000 0.00000000 0.00000000 0.00000000
Neuron 819 3 0.65625000 1 1.00000000 0.00000000 0.00000000 0.00000000
Neuron 822 3 0.68750000 1 1.00000000 0.00000000 0.00000000 0.00000000
Neuron 830 3 0.37500000 1 1.00000000 0.00000000 0.00000000 0.00000000
Neuron 852 3 0.50000000 1 1.00000000 0.00000000 0.00000000 0.00000000
Neuron 859 3 0.43750000 1 1.00000000 0.00000000 0.00000000 0.00000000
Neuron 867 3 0.18750000 1 1.00000000 0.00000000 0.00000000 0.00000000
Neuron 887 3 0.50000000 1 1.00000000 0.00000000 0.00000000 0.00000000
Neuron 890 3 0.50000000 1 1.00000000 0.00000000 0.00000000 0.00000000
Neuron 897 3 0.75000000 1 1.00000000 0.00000000 0.00000000 0.00000000
Neuron 899 3 0.50000000 1 1.00000000 0.00000000 0.00000000 0.00000000
Neuron 902 3 0.62500000 1 1.00000000 0.00000000 0.00000000 0.00000000
Neuron 910 3 0.50000000 1 1.00000000 0.00000000 0.00000000 0.00000000
Neuron 915 3 0.50000000 1 1.00000000 0.00000000 0.00000000 0.00000000
Neuron 917 3 0.50000000 1 1.00000000 0.00000000 0.00000000 0.00000000
Neuron 918 3 0.50000000 1 1.00000000 0.00000000 0.00000000 0.00000000
Neuron 926 3 0.75000000 1 1.00000000 0.00000000 0.00000000 0.00000000
Neuron 938 3 0.25000000 1 1.00000000 0.00000000 0.00000000 0.00000000
Neuron 940 3 0.75000000 1 1.00000000 0.00000000 0.00000000 0.00000000
Neuron 962 3 0.68750000 1 1.00000000 0.00000000 0.00000000 0.00000000
Neuron 975 3 0.37500000 1 1.00000000 0.00000000 0.00000000 0.00000000
Neuron 979 3 0.56250000 1 1.00000000 0.00000000 0.00000000 0.00000000
Neuron 986 3 0.50000000 1 1.00000000 0.00000000 0.00000000 0.00000000
Neuron 1003 3 0.50000000 1 1.00000000 0.00000000 0.00000000 0.00000000
Neuron 1004 3 0.18750000 1 1.00000000 0.00000000 0.00000000 0.00000000
Neuron 1044 3 0.75000000 1 1.00000000 0.00000000 0.00000000 0.00000000
Neuron 1047 3 0.50000000 1 1.00000000 0.00000000 0.00000000 0.00000000
Neuron 1060 3 0.50000000 1 1.00000000 0.00000000 0.00000000 0.00000000
Neuron 1106 3 0.75000000 1 1.00000000 0.00000000 0.00000000 0.00000000
Neuron 1119 3 0.06250000 1 1.00000000 0.00000000 0.00000000 0.00000000
Neuron 1122 3 0.12500000 1 1.00000000 0.00000000 0.00000000 0.00000000
Neuron 1127 3 0.50000000 1 1.00000000 0.00000000 0.00000000 0.00000000
Neuron 1136 3 0.50000000 1 1.00000000 0.00000000 0.00000000 0.00000000
Neuron 1141 3 0.37500000 1 1.00000000 0.00000000 0.00000000 0.00000000
Neuron 1221 3 0.87500000 1 1.00000000 0.00000000 0.00000000 0.00000000
Neuron 1229 3 0.50000000 1 1.00000000 0.00000000 0.00000000 0.00000000
Neuron 1230 3 0.62500000 1 1.00000000 0.00000000 0.00000000 0.00000000
Neuron 1235 3 0.50000000 1 1.00000000 0.00000000 0.00000000 0.00000000
Neuron 1259 3 0.50000000 1 1.00000000 0.00000000 0.00000000 0.00000000
Neuron 1271 3 0.56250000 1 1.00000000 0.00000000 0.00000000 0.00000000
Neuron 1344 3 0.50000000 1 1.00000000 0.00000000 0.00000000 0.00000000
Neuron 1347 3 0.25000000 1 1.00000000 0.00000000 0.00000000 0.00000000
Neuron 1395 3 0.50000000 1 1.00000000 0.00000000 0.00000000 0.00000000
Neuron 1413 3 0.37500000 1 1.00000000 0.00000000 0.00000000 0.00000000
Neuron 1416 3 0.18750000 1 1.00000000 0.00000000 0.00000000 0.00000000
Neuron 1470 3 0.68750000 1 1.00000000 0.00000000 0.00000000 0.00000000
Neuron 1520 3 0.56250000 1 1.00000000 0.00000000 0.00000000 0.00000000
Neuron 1532 3 0.43750000 1 1.00000000 0.00000000 0.00000000 0.00000000
Neuron 1536 3 0.65625000 1 1.00000000 0.00000000 0.00000000 0.00000000
Neuron 1752 3 0.62500000 1 1.00000000 0.00000000 0.00000000 0.00000000
Neuron 1773 3 0.37500000 1 1.00000000 0.00000000 0.00000000 0.00000000
Neuron 1800 3 0.54687500 1 1.00000000 0.00000000 0.00000000 0.00000000
Neuron 1909 3 0.46875000 1 1.00000000 0.00000000 0.00000000 0.00000000
Neuron 1993 3 0.62500000 1 1.00000000 0.00000000 0.00000000 0.00000000
Neuron 2005 3 0.56250000 1 1.00000000 0.00000000 0.00000000 0.00000000
Link 1 10 1 0 1.33824803
Link 2 10 2 0 -1.59941782
Link 5 10 5 0 -0.63146150
Link 6 10 6 0 0.35069770
Link 7 10 7 0 4.10263044
Link 8 10 8 0 1.12252830
Link 9 10 9 0 -1.91492007
Link 1 11 10 0 -2.22777712
Link 2 11 11 0 1.13688034
Link 3 11 12 0 -4.46802183
Link 4 11 13 0 -3.68081750
Link 5 11 14 0 1.30377200
Link 6 11 15 0 -0.38605462
Link 7 11 16 0 3.00478301
Link 8 11 17 0 -1.42423096
Link 9 11 18 0 0.01836257
Link 2 12 20 0 -0.22581347
Link 3 12 21 0 2.89538376
Link 4 12 22 0 -1.14810218
Link 5 12 23 0 -2.79009204
Link 6 12 24 0 -3.73118038
Link 7 12 25 0 -4.54965715
Link 9 12 27 0 -2.16924023
Link 1 13 28 0 -1.19960028
Link 2 13 29 0 1.77390110
Link 4 13 31 0 -0.55673992
Link 7 13 34 0 -0.25434250
Link 8 13 35 0 1.32640848
Link 9 13 36 0 3.30927033
Link 3 14 39 0 -0.85534007
Link 5 14 41 0 0.08587417
Link 6 14 42 0 -0.62998209
Link 9 14 45 0 -1.67532003
Link 1 15 46 0 3.24562589
Link 2 15 47 0 -2.62666012
Link 3 15 48 0 -2.17169554
Link 4 15 49 0 1.90300386
Link 5 15 50 0 -2.39925256
Link 6 15 51 0 -0.52313658
Link 7 15 52 0 -1.92575713
Link 8 15 53 0 -3.51879666
Link 9 15 54 0 -0.71872466
Link 1 16 55 0 2.19591086
Link 2 16 56 0 1.59720249
Link 3 16 57 0 -0.98807403
Link 5 16 59 0 0.83500224
Link 6 16 60 0 -5.11527026
Link 7 16 61 0 -1.41618265
Link 9 16 63 0 -0.22410312
Link 3 17 65 0 -2.88553995
Link 17 10 66 0 -2.71015402
Link 8 18 68 0 3.67853483
Link 18 14 69 0 1.72617562
Link 19 11 72 0 0.71863289
Link 2 23 84 0 4.96767359
Link 1 24 87 0 1.62563674
Link 2 25 90 0 0.88994009
Link 8 29 103 0 -2.91812074
Link 29 12 104 0 -6.13390783
Link 4 30 106 0 2.62530855
Link 3 31 109 0 -2.11053894
Link 6 33 115 0 -0.94039032
Link 33 14 116 0 -3.40970826
Link 2 39 133 0 -0.69258571
Link 39 15 134 0 0.07335118
Link 6 41 139 0 0.60135401
Link 41 16 140 0 2.76228381
Link 6 43 146 0 2.92906870
Link 43 12 147 0 1.45454596
Link 48 14 162 0 1.86567250
Link 8 50 168 0 -2.03812343
Link 2 51 172 0 -3.60862094
Link 1 52 175 0 1.11431874
Link 52 12 176 0 -0.50290121
Link 5 53 179 0 -1.29990632
Link 8 55 185 0 0.01742433
Link 8 56 188 0 4.12712895
Link 56 13 189 0 -0.25125126
Link 6 61 225 0 -1.19254102
Link 61 13 226 0 0.98101980
Link 2 62 234 0 0.12096625
Link 62 12 235 0 1.46226459
Link 4 64 243 0 2.34717363
Link 64 10 244 0 4.88452966
Link 21 67 264 0 1.16898460
Link 67 15 265 0 1.35934260
Link 11 23 270 1 -1.84712893
Link 68 10 275 0 1.20920482
Link 7 69 285 0 3.82064376
Link 51 61 323 0 0.58125530
Link 8 74 334 0 -1.58911994
Link 78 10 354 0 -1.89749362
Link 79 11 365 0 3.77211562
Link 9 21 406 0 0.06347532
Link 51 84 425 0 4.58952996
Link 84 14 426 0 -0.07940201
Link 87 15 458 0 -2.66913112
Link 20 88 466 0 0.43080808
Link 88 16 467 0 -2.02389966
Link 41 12 470 0 -0.53907994
Link 50 10 476 0 -1.84592340
Link 50 91 513 0 -1.02553902
Link 91 16 514 0 -0.57584983
Link 94 41 533 0 1.54288508
Link 3 61 534 0 -3.56871141
Link 52 16 556 0 -0.47232452
Link 102 20 587 0 -1.79751300
Link 4 103 595 0 1.72150448
Link 103 87 596 0 -2.57114014
Link 9 31 601 0 0.75732293
Link 2 17 617 0 3.08011986
Link 7 51 618 0 -0.08136162
Link 60 105 631 0 2.95651728
Link 105 12 632 0 0.33263092
Link 61 111 676 0 -1.46487971
Link 111 13 677 0 -2.17233531
Link 3 116 708 0 -1.66596914
Link 10 61 755 1 1.91859280
Link 8 31 792 0 -2.25564799
Link 3 137 872 0 4.45685530
Link 2 139 883 0 0.30361452
Link 7 141 892 0 0.79901716
Link 141 21 893 0 -0.78469837
Link 46 69 926 0 2.30397356
Link 3 151 966 0 -3.06246474
Link 6 164 1057 0 -0.01268877
Link 164 61 1058 0 1.70271547
Link 6 173 1110 0 -3.47047448
Link 173 27 1111 0 2.22354977
Link 46 175 1117 0 -0.45575041
Link 175 13 1118 0 2.57383609
Link 17 13 1127 0 -2.10161548
Link 7 19 1139 0 3.98023231
Link 2 181 1157 0 -3.41548970
Link 181 68 1158 0 3.81619686
Link 27 192 1279 0 2.03056205
Link 192 10 1280 0 -0.10012559
Link 55 13 1296 0 5.18076874
Link 62 62 1330 1 1.54241750
Link 48 199 1353 0 -2.75810156
Link 211 15 1409 0 -2.34562554
Link 137 216 1454 0 1.10352038
Link 216 60 1455 0 5.14328864
Link 24 225 1512 0 2.91686691
Link 225 136 1513 0 -3.21955236
Link 7 226 1515 0 -2.49101127
Link 226 79 1516 0 0.89082458
Link 69 235 1580 0 0.05279188
Link 50 79 1608 0 -0.23609517
Link 31 243 1637 0 1.97445556
Link 243 14 1638 0 1.02435784
Link 62 47 1650 0 0.02577512
Link 47 46 1684 0 1.81947185
Link 8 247 1687 0 1.66497009
Link 247 14 1688 0 -4.20708086
Link 2 252 1717 0 -1.20713027
Link 136 258 1749 0 -2.05572448
Link 8 262 1777 0 -3.12883913
Link 7 263 1789 0 2.04458080
Link 5 226 1809 0 2.02030467
Link 53 266 1813 0 0.56294439
Link 266 10 1814 0 0.01649497
Link 9 199 1828 0 3.84943060
Link 271 12 1865 0 -0.22752356
Link 51 24 1883 0 -2.42044506
Link 211 17 1909 1 3.77424448
Link 262 291 1976 0 0.41342730
Link 291 78 1977 0 -1.85220557
Link 47 299 2018 0 -4.35059854
Link 299 13 2019 0 2.99733743
Link 30 301 2034 0 -3.62516069
Link 301 14 2035 0 1.81686291
Link 199 312 2110 0 -2.50516257
Link 312 14 2111 0 -1.14850221
Link 151 313 2117 0 4.23472714
Link 312 329 2201 0 4.12190025
Link 329 14 2202 0 1.00603134
Link 330 138 2209 0 -2.07398430
Link 1 345 2308 0 -0.22856495
Link 345 48 2309 0 0.21546358
Link 6 357 2394 0 -1.38229019
Link 357 94 2395 0 0.34154919
Link 61 53 2409 0 -0.27873580
Link 25 364 2456 0 -0.32864281
Link 364 16 2457 0 -1.46278204
Link 263 383 2566 0 -0.84217374
Link 383 69 2567 0 0.32087575
Link 5 394 2633 0 0.64449298
Link 394 13 2634 0 0.15379839
Link 27 33 2695 0 0.85669821
Link 408 10 2729 0 -2.97974313
Link 13 199 2731 1 2.17159929
Link 7 433 2896 0 -3.95049885
Link 433 14 2897 0 1.58709529
Link 78 61 2967 0 -2.40546706
Link 2 442 2981 0 0.02496215
Link 442 23 2982 0 1.38017621
Link 235 444 3000 0 -2.28949387
Link 31 446 3013 0 -0.86109525
Link 446 211 3014 0 1.51569532
Link 74 448 3024 0 -1.66149379
Link 448 50 3025 0 1.12434111
Link 252 456 3061 0 2.06111309
Link 456 51 3062 0 -0.63693694
Link 13 459 3083 1 4.32750165
Link 52 13 3100 0 -1.13792480
Link 3 466 3152 0 0.37517989
Link 23 68 3177 0 1.12221016
Link 6 263 3202 0 2.67388300
Link 243 481 3245 0 1.30400717
Link 21 11 3275 0 -2.69262975
Link 14 20 3292 1 -0.87262041
Link 7 493 3333 0 4.20461784
Link 493 61 3334 0 2.04416572
Link 52 499 3375 0 -1.20563975
Link 499 16 3376 0 -2.55837021
Link 218 500 3405 0 0.51522504
Link 500 51 3406 0 -2.90806128
Link 138 502 3422 0 0.61476439
Link 502 12 3423 0 2.90546596
Link 102 508 3478 0 -0.67259264
Link 508 20 3479 0 -2.85677189
Link 21 517 3558 0 -3.64708645
Link 517 13 3559 0 1.31246973
Link 312 312 3592 1 0.76104170
Link 68 521 3594 0 -0.44642164
Link 521 53 3595 0 1.39528791
Link 24 19 3625 0 -0.23929166
Link 4 27 3680 0 4.05128022
Link 141 539 3726 0 0.91126352
Link 539 21 3727 0 0.58570713
Link 14 541 3733 1 -2.09857291
Link 541 263 3734 1 1.48346425
Link 41 53 3738 0 2.38646970
Link 466 548 3819 0 -2.19314808
Link 548 24 3820 0 3.01961677
Link 1 102 3821 0 -2.50199306
Link 564 218 3918 0 -1.85284582
Link 3 576 4006 0 1.82828405
Link 576 51 4007 0 -0.32270806
Link 580 173 4070 0 1.26698048
Link 30 383 4074 1 0.79369126
Link 51 593 4182 0 0.33318723
Link 593 47 4183 0 -2.25972209
Link 7 594 4192 0 0.17182041
Link 568 568 4218 1 -0.82424755
Link 102 51 4251 0 -0.57172968
Link 258 603 4284 0 -2.08717622
Link 603 13 4285 0 0.21370823
Link 493 211 4380 0 2.23685406
Link 69 617 4399 0 2.42194079
Link 139 139 4438 1 -1.30606354
Link 11 620 4442 1 -0.02848473
Link 620 91 4443 1 1.16630738
Link 621 61 4446 0 1.82304288
Link 4 623 4458 0 -0.76556566
Link 11 138 4460 1 -1.83380822
Link 141 33 4465 0 5.87940686
Link 493 636 4558 0 3.51260765
Link 636 61 4559 0 -0.97101635
Link 3 638 4579 0 -1.66233444
Link 3 639 4582 0 2.21463464
Link 639 568 4583 0 0.35777148
Link 69 643 4641 0 5.35121551
Link 78 646 4657 0 -2.31235226
Link 646 235 4658 0 1.86815615
Link 17 60 4669 0 -1.45144910
Link 1 521 4677 0 -1.54903110
Link 46 47 4695 0 -3.80026730
Link 1 650 4706 0 -0.54071233
Link 650 25 4707 0 2.31825568
Link 617 61 4782 1 2.29474151
Link 226 620 4849 0 2.37186314
Link 13 670 4893 1 -2.13234645
Link 670 46 4894 1 -2.88557520
Link 43 61 4934 0 -3.79844955
Link 679 271 4951 0 -3.04109114
Link 21 682 4981 0 0.64710777
Link 682 67 4982 0 4.05357549
Link 650 312 4983 0 1.69622716
Link 25 79 5000 0 3.07483306
Link 3 685 5018 0 0.87406219
Link 19 541 5039 0 -1.23341584
Link 27 517 5041 0 1.45581891
Link 4 690 5066 0 0.95777416
Link 690 102 5067 0 2.09861859
Link 24 258 5095 0 4.95567090
Link 621 679 5217 0 -1.47073958
Link 481 708 5219 0 4.98257303
Link 708 14 5220 0 -3.96063515
Link 226 712 5243 0 -2.90396157
Link 712 61 5244 0 4.18504102
Link 568 715 5279 0 1.88223555
Link 715 69 5280 0 -1.13880416
Link 51 52 5307 0 -1.98958141
Link 192 67 5313 0 0.61723236
Link 4 731 5385 0 -0.79130862
Link 7 517 5395 0 2.10965189
Link 638 739 5438 0 1.41692844
Link 739 192 5439 0 -1.61142442
Link 50 745 5470 0 -3.14566266
Link 745 408 5471 0 -2.42585489
Link 459 746 5474 1 -2.05798080
Link 746 199 5475 1 1.44179775
Link 24 754 5535 0 -3.69941362
Link 754 330 5536 0 -2.06105560
Link 4 757 5551 0 2.96312985
Link 757 10 5552 0 1.09917549
Link 313 761 5575 0 1.56963989
Link 761 19 5576 0 1.05426593
Link 41 225 5577 0 -0.17738755
Link 766 192 5608 0 4.70183514
Link 767 621 5612 0 1.96670522
Link 768 56 5616 1 -2.25767699
Link 18 31 5642 0 -1.80514420
Link 780 51 5667 1 -2.66209285
Link 623 782 5689 0 1.49568470
Link 31 787 5732 0 -2.94518598
Link 787 47 5733 0 0.43386087
Link 173 48 5745 0 3.67662080
Link 55 48 5755 0 6.12812205
Link 788 780 5759 1 -0.85227204
Link 17 18 5789 0 -0.80293440
Link 31 12 5798 0 -0.72479485
Link 68 782 5801 0 1.23692910
Link 444 794 5803 0 -4.08092818
Link 794 14 5804 0 -2.02927833
Link 21 796 5813 0 2.59213772
Link 796 679 5814 0 0.02764710
Link 116 266 5837 0 -3.96466467
Link 313 12 5854 0 -0.83087468
Link 25 801 5860 0 -0.55112041
Link 801 364 5861 0 0.16252026
Link 138 444 5981 0 -3.12349717
Link 782 819 6001 0 1.14059677
Link 819 266 6002 0 -0.63496532
Link 617 822 6020 0 0.73850800
Link 822 211 6021 0 -2.51972983
Link 685 830 6086 0 2.30368326
Link 508 175 6094 0 2.54930544
Link 173 617 6102 0 1.40696615
Link 299 638 6122 1 -1.60725426
Link 61 31 6180 0 0.76471172
Link 584 243 6206 0 -0.90925790
Link 1 23 6213 0 1.91515701
Link 780 852 6258 0 -0.35588339
Link 852 53 6259 0 3.46625723
Link 8 859 6338 0 -2.79436523
Link 499 50 6395 1 -1.69534883
Link 594 867 6401 0 -4.23233006
Link 867 493 6402 0 1.30404964
Link 225 235 6510 0 0.98669569
Link 25 243 6511 0 1.54356920
Link 50 887 6563 0 -2.88044501
Link 887 584 6564 0 -3.58840378
Link 23 890 6580 0 0.49416272
Link 890 564 6581 0 -0.00881894
Link 508 67 6609 0 -0.38940559
Link 50 897 6639 0 1.00000000
Link 897 16 6640 0 0.22287893
Link 19 899 6656 0 2.89917982
Link 48 902 6682 0 1.22121908
Link 902 175 6683 0 -1.19298276
Link 141 299 6738 0 -2.14576450
Link 61 910 6761 0 1.52740670
Link 910 60 6762 0 3.47470303
Link 643 915 6803 0 -0.82079808
Link 915 767 6804 0 -0.87104903
Link 899 917 6829 0 0.96970895
Link 917 47 6830 0 3.34067228
Link 69 258 6856 0 -2.55654817
Link 47 926 6909 0 1.00000000
Link 926 13 6910 0 3.34587719
Link 199 18 6914 1 -1.13023112
Link 15 580 6977 1 -2.83049641
Link 3 938 7036 0 -1.30356084
Link 938 47 7037 0 0.04543379
Link 79 940 7046 0 1.22825435
Link 940 15 7047 0 0.75228365
Link 313 313 7111 1 0.49908825
Link 12 746 7187 1 2.35845397
Link 899 164 7234 1 1.66448682
Link 271 962 7243 1 -4.49622961
Link 962 768 7244 1 0.16788064
Link 88 136 7259 0 -0.38619276
Link 69 975 7314 1 -0.38590326
Link 975 252 7315 1 -2.02958429
Link 46 541 7339 0 -1.79592585
Link 433 979 7355 0 -4.70388114
Link 979 902 7356 0 2.30663021
Link 69 137 7365 1 2.84010336
Link 52 459 7376 0 -2.80159950
Link 917 670 7453 0 -3.83490960
Link 918 986 7460 0 -1.29273571
Link 780 646 7501 0 3.22853934
Link 580 64 7527 0 -2.80192783
Link 25 25 7577 1 1.24724638
Link 3 1003 7605 0 4.42508434
Link 1003 10 7606 0 0.45470841
Link 720 1004 7614 0 -0.13907875
Link 1004 151 7615 0 3.89163205
Link 56 33 7663 0 -1.91779956
Link 517 299 7778 0 1.56137389
Link 69 1044 7959 0 -2.54281985
Link 1044 14 7960 0 -1.41630038
Link 584 1047 7970 0 0.20474585
Link 1047 918 7971 0 0.33427627
Link 31 1060 8039 0 -1.02036737
Link 1060 51 8040 0 0.29997960
Link 47 74 8094 1 3.53402125
Link 541 621 8261 1 4.55904844
Link 192 576 8331 1 -2.84482166
Link 1106 12 8418 0 -0.47196502
Link 87 899 8425 0 0.60722692
Link 638 444 8489 0 -1.27051887
Link 6 1119 8505 0 -3.27012403
Link 1119 720 8506 0 0.31408196
Link 8 1122 8528 0 0.36942642
Link 1122 685 8529 0 -0.95596212
Link 986 1127 8581 0 -0.78844262
Link 1127 79 8582 0 -0.47814753
Link 225 1136 8669 1 3.86201215
Link 1136 383 8670 1 0.95416988
Link 266 499 8758 0 -2.32462365
Link 1141 623 8780 0 -5.06350877
Link 670 444 8826 0 -1.91580411
Link 299 620 9001 0 -0.64792729
Link 890 890 9070 1 -1.24031539
Link 102 173 9269 0 0.91797657
Link 97 1221 9587 0 -0.82512139
Link 1221 12 9588 0 -0.22847574
Link 46 27 9666 0 0.91465793
Link 623 745 9686 0 -1.72710001
Link 69 1229 9695 0 -0.71356122
Link 1229 621 9696 0 4.00391512
Link 53 1230 9702 0 1.24349735
Link 1230 97 9703 0 -3.09263534
Link 62 1235 9792 0 -0.19414213
Link 51 1259 10002 1 4.42334124
Link 1259 788 10003 1 -0.46379026
Link 41 1271 10111 0 -1.08348931
Link 1271 446 10112 0 0.54484414
Link 796 91 10148 0 -4.55654558
Link 199 61 10298 1 0.89085461
Link 459 266 10400 1 -1.24075016
Link 105 638 10438 1 1.20386843
Link 746 621 10514 1 1.59138444
Link 685 211 10735 0 -2.15744241
Link 15 584 10795 1 -0.87566358
Link 8 1344 10924 0 1.05778002
Link 1344 12 10925 0 0.70689787
Link 1 1347 10974 0 4.04138281
Link 1347 25 10975 0 0.89137057
Link 18 940 11056 0 -1.57537410
Link 48 56 11084 0 2.36029068
Link 603 94 11203 1 1.60987062
Link 830 830 11340 1 -5.21689425
Link 636 39 11378 0 0.84425099
Link 1235 1395 11465 0 -1.59911239
Link 1395 50 11466 0 -5.06101795
Link 580 11 11491 0 -0.36966325
Link 383 1413 11603 0 -3.05360360
Link 3 1416 11628 0 -0.98890236
Link 1416 766 11629 0 -1.27301035
Link 136 91 11668 0 -3.18065733
Link 1122 638 11826 0 0.95651816
Link 139 408 11882 0 -1.79880151
Link 8 564 11929 0 1.37391255
Link 915 1044 12012 0 -1.47299264
Link 11 1470 12158 1 1.55245307
Link 1470 638 12159 1 -0.66868947
Link 643 720 12163 1 3.94090749
Link 564 819 12296 0 2.08809860
Link 548 830 12458 0 -1.51856580
Link 1520 301 12614 0 0.06790688
Link 830 1532 12721 0 0.73844074
Link 1532 69 12722 0 0.52844093
Link 1536 312 12776 0 -1.45190888
Link 918 51 13400 0 -0.53966482
Link 225 218 13770 1 -0.03061027
Link 754 87 13836 1 -0.36743962
Link 48 33 13840 0 0.12203355
Link 830 682 14351 0 -1.15717530
Link 623 620 14405 0 -2.75848942
Link 79 87 14607 0 -1.11528638
Link 62 564 14723 0 -2.22522706
Link 79 1752 14758 0 -2.41817852
Link 1752 1106 14759 0 -0.92388220
Link 1413 1773 14915 0 1.60916745
Link 1773 1141 14916 0 -0.10350014
Link 986 21 14951 0 -0.93712735
Link 859 1800 15207 0 1.45763469
Link 1800 1536 15208 0 -3.31525283
Link 218 1413 15242 1 -0.86100230
Link 780 1773 15279 1 -0.31620917
Link 5 1127 15766 0 -5.41496423
Link 493 291 15920 0 -1.48463962
Link 568 938 15934 0 -0.74249025
Link 650 1003 15947 0 1.22772349
Link 766 41 15982 0 2.72211032
Link 1106 761 16177 1 0.94730880
Link 731 1909 16412 0 1.04521283
Link 1909 1520 16413 0 -0.01619664
Link 521 712 16651 1 0.93488945
Link 986 394 16956 0 2.19957009
Link 69 917 17190 0 3.68754379
Link 60 1993 17248 0 1.00000000
Link 1993 1106 17249 0 -1.90729504
Link 216 979 17357 0 -3.31247103
Link 23 2005 17382 0 1.00000000
Link 2005 1230 17383 0 4.49845024
GenomeEnd

