GenomeStart 54334
Neuron 1 1 0.00000000 1 0.00000000 0.00000000 0.00000000 0.00000000
Neuron 2 1 0.00000000 1 0.00000000 0.00000000 0.00000000 0.00000000
Neuron 3 1 0.00000000 1 0.00000000 0.00000000 0.00000000 0.00000000
Neuron 4 1 0.00000000 1 0.00000000 0.00000000 0.00000000 0.00000000
Neuron 5 1 0.00000000 1 0.00000000 0.00000000 0.00000000 0.00000000
Neuron 6 1 0.00000000 1 0.00000000 0.00000000 0.00000000 0.00000000
Neuron 7 1 0.00000000 1 0.00000000 0.00000000 0.00000000 0.00000000
Neuron 8 1 0.00000000 1 0.00000000 0.00000000 0.00000000 0.00000000
Neuron 9 2 0.00000000 1 0.00000000 0.00000000 0.00000000 0.00000000
Neuron 10 4 1.00000000 0 1.00000000 0.00000000 0.00000000 0.00000000
Neuron 11 4 1.00000000 0 1.00000000 0.00000000 0.00000000 0.00000000
Neuron 12 4 1.00000000 0 1.00000000 0.00000000 0.00000000 0.00000000
Neuron 13 4 1.00000000 0 1.00000000 0.00000000 0.00000000 0.00000000
Neuron 14 4 1.00000000 0 1.00000000 0.00000000 0.00000000 0.00000000
Neuron 15 4 1.00000000 0 1.00000000 0.00000000 0.00000000 0.00000000
Neuron 16 4 1.00000000 0 1.00000000 0.00000000 0.00000000 0.00000000
Neuron 19 3 0.50000000 1 1.00000000 0.00000000 0.00000000 0.00000000
Neuron 20 3 0.50000000 1 1.00000000 0.00000000 0.00000000 0.00000000
Neuron 23 3 0.50000000 1 1.00000000 0.00000000 0.00000000 0.00000000
Neuron 24 3 0.50000000 1 1.00000000 0.00000000 0.00000000 0.00000000
Neuron 30 3 0.50000000 1 1.00000000 0.00000000 0.00000000 0.00000000
Neuron 39 3 0.50000000 1 1.00000000 0.00000000 0.00000000 0.00000000
Neuron 41 3 0.50000000 1 1.00000000 0.00000000 0.00000000 0.00000000
Neuron 43 3 0.50000000 1 1.00000000 0.00000000 0.00000000 0.00000000
Neuron 46 3 0.50000000 1 1.00000000 0.00000000 0.00000000 0.00000000
Neuron 47 3 0.50000000 1 1.00000000 0.00000000 0.00000000 0.00000000
Neuron 48 3 0.50000000 1 1.00000000 0.00000000 0.00000000 0.00000000
Neuron 50 3 0.50000000 1 1.00000000 0.00000000 0.00000000 0.00000000
Neuron 51 3 0.50000000 1 1.00000000 0.00000000 0.00000000 0.00000000
Neuron 53 3 0.50000000 1 1.00000000 0.00000000 0.00000000 0.00000000
Neuron 55 3 0.50000000 1 1.00000000 0.00000000 0.00000000 0.00000000
Neuron 61 3 0.50000000 1 1.00000000 0.00000000 0.00000000 0.00000000
Neuron 62 3 0.50000000 1 1.00000000 0.00000000 0.00000000 0.00000000
Neuron 68 3 0.50000000 1 1.00000000 0.00000000 0.00000000 0.00000000
Neuron 69 3 0.50000000 1 1.00000000 0.00000000 0.00000000 0.00000000
Neuron 74 3 0.25000000 1 1.00000000 0.00000000 0.00000000 0.00000000
Neuron 78 3 0.50000000 1 1.00000000 0.00000000 0.00000000 0.00000000
Neuron 87 3 0.50000000 1 1.00000000 0.00000000 0.00000000 0.00000000
Neuron 88 3 0.75000000 1 1.00000000 0.00000000 0.00000000 0.00000000
Neuron 94 3 0.25000000 1 1.00000000 0.00000000 0.00000000 0.00000000
Neuron 97 3 0.75000000 1 1.00000000 0.00000000 0.00000000 0.00000000
Neuron 102 3 0.25000000 1 1.00000000 0.00000000 0.00000000 0.00000000
Neuron 116 3 0.25000000 1 1.00000000 0.00000000 0.00000000 0.00000000
Neuron 136 3 0.75000000 1 1.00000000 0.00000000 0.00000000 0.00000000
Neuron 138 3 0.75000000 1 1.00000000 0.00000000 0.00000000 0.00000000
Neuron 151 3 0.25000000 1 1.00000000 0.00000000 0.00000000 0.00000000
Neuron 164 3 0.25000000 1 1.00000000 0.00000000 0.00000000 0.00000000
Neuron 175 3 0.75000000 1 1.00000000 0.00000000 0.00000000 0.00000000
Neuron 218 3 0.50000000 1 1.00000000 0.00000000 0.00000000 0.00000000
Neuron 225 3 0.62500000 1 1.00000000 0.00000000 0.00000000 0.00000000
Neuron 235 3 0.75000000 1 1.00000000 0.00000000 0.00000000 0.00000000
Neuron 252 3 0.25000000 1 1.00000000 0.00000000 0.00000000 0.00000000
Neuron 258 3 0.87500000 1 1.00000000 0.00000000 0.00000000 0.00000000
Neuron 262 3 0.25000000 1 1.00000000 0.00000000 0.00000000 0.00000000
Neuron 263 3 0.25000000 1 1.00000000 0.00000000 0.00000000 0.00000000
Neuron 266 3 0.75000000 1 1.00000000 0.00000000 0.00000000 0.00000000
Neuron 291 3 0.37500000 1 1.00000000 0.00000000 0.00000000 0.00000000
Neuron 299 3 0.75000000 1 1.00000000 0.00000000 0.00000000 0.00000000
Neuron 301 3 0.75000000 1 1.00000000 0.00000000 0.00000000 0.00000000
Neuron 313 3 0.37500000 1 1.00000000 0.00000000 0.00000000 0.00000000
Neuron 330 3 0.62500000 1 1.00000000 0.00000000 0.00000000 0.00000000
Neuron 357 3 0.12500000 1 1.00000000 0.00000000 0.00000000 0.00000000
Neuron 383 3 0.37500000 1 1.00000000 0.00000000 0.00000000 0.00000000
Neuron 413 3 0.31250000 1 1.00000000 0.00000000 0.00000000 0.00000000
Neuron 433 3 0.50000000 1 1.00000000 0.00000000 0.00000000 0.00000000
Neuron 442 3 0.25000000 1 1.00000000 0.00000000 0.00000000 0.00000000
Neuron 444 3 0.87500000 1 1.00000000 0.00000000 0.00000000 0.00000000
Neuron 466 3 0.25000000 1 1.00000000 0.00000000 0.00000000 0.00000000
Neuron 500 3 0.50000000 1 1.00000000 0.00000000 0.00000000 0.00000000
Neuron 508 3 0.37500000 1 1.00000000 0.00000000 0.00000000 0.00000000
Neuron 521 3 0.50000000 1 1.00000000 0.00000000 0.00000000 0.00000000
Neuron 541 3 0.62500000 1 1.00000000 0.00000000 0.00000000 0.00000000
Neuron 552 3 0.68750000 1 1.00000000 0.00000000 0.00000000 0.00000000
Neuron 564 3 0.50000000 1 1.00000000 0.00000000 0.00000000 0.00000000
Neuron 576 3 0.25000000 1 1.00000000 0.00000000 0.00000000 0.00000000
Neuron 603 3 0.93750000 1 1.00000000 0.00000000 0.00000000 0.00000000
Neuron 623 3 0.37500000 1 1.00000000 0.00000000 0.00000000 0.00000000
Neuron 646 3 0.62500000 1 1.00000000 0.00000000 0.00000000 0.00000000
Neuron 670 3 0.75000000 1 1.00000000 0.00000000 0.00000000 0.00000000
Neuron 680 3 0.31250000 1 1.00000000 0.00000000 0.00000000 0.00000000
Neuron 701 3 0.50000000 1 1.00000000 0.00000000 0.00000000 0.00000000
Neuron 720 3 0.12500000 1 1.00000000 0.00000000 0.00000000 0.00000000
Neuron 754 3 0.56250000 1 1.00000000 0.00000000 0.00000000 0.00000000
Neuron 780 3 0.50000000 1 1.00000000 0.00000000 0.00000000 0.00000000
Neuron 782 3 0.56250000 1 1.00000000 0.00000000 0.00000000 0.00000000
Neuron 788 3 0.50000000 1 1.00000000 0.00000000 0.00000000 0.00000000
Neuron 819 3 0.65625000 1 1.00000000 0.00000000 0.00000000 0.00000000
Neuron 874 3 0.62500000 1 1.00000000 0.00000000 0.00000000 0.00000000
Neuron 890 3 0.50000000 1 1.00000000 0.00000000 0.00000000 0.00000000
Neuron 899 3 0.50000000 1 1.00000000 0.00000000 0.00000000 0.00000000
Neuron 902 3 0.62500000 1 1.00000000 0.00000000 0.00000000 0.00000000
Neuron 917 3 0.50000000 1 1.00000000 0.00000000 0.00000000 0.00000000
Neuron 951 3 0.56250000 1 1.00000000 0.00000000 0.00000000 0.00000000
Neuron 1004 3 0.18750000 1 1.00000000 0.00000000 0.00000000 0.00000000
Neuron 1112 3 0.65625000 1 1.00000000 0.00000000 0.00000000 0.00000000
Link 1 10 1 0 2.05407881
Link 3 10 3 0 4.68899531
Link 4 10 4 0 -1.39178519
Link 5 10 5 0 -4.26402183
Link 6 10 6 0 1.21853498
Link 7 10 7 0 2.32899151
Link 9 10 9 0 1.17937483
Link 1 11 10 0 5.90408164
Link 2 11 11 0 -0.41359938
Link 4 11 13 0 -0.33948588
Link 6 11 15 0 0.12434192
Link 7 11 16 0 -2.90096109
Link 8 11 17 0 -0.25725390
Link 3 12 21 0 3.34637914
Link 4 12 22 0 1.82765896
Link 7 12 25 0 1.62400285
Link 8 12 26 0 3.14983691
Link 9 12 27 0 0.34808193
Link 4 13 31 0 1.04045057
Link 7 13 34 0 0.49246434
Link 8 13 35 0 -0.30947861
Link 9 13 36 0 -1.66634170
Link 5 14 41 0 0.00234246
Link 6 14 42 0 0.29024923
Link 8 14 44 0 1.94550588
Link 9 14 45 0 -0.24716818
Link 3 15 48 0 1.60891371
Link 5 15 50 0 1.64717007
Link 6 15 51 0 -0.79685673
Link 7 15 52 0 -0.92828070
Link 9 15 54 0 -0.02827736
Link 1 16 55 0 3.19436396
Link 2 16 56 0 -1.95026951
Link 3 16 57 0 -0.52997337
Link 5 16 59 0 0.38620740
Link 7 16 61 0 -2.90624568
Link 9 16 63 0 -1.71892208
Link 19 11 72 0 3.52312036
Link 23 13 85 0 -0.04997323
Link 1 24 87 0 -2.20628581
Link 4 30 106 0 -3.12317747
Link 2 39 133 0 0.60016494
Link 39 15 134 0 1.09727097
Link 41 16 140 0 -0.29749336
Link 6 43 146 0 0.04103616
Link 43 12 147 0 0.95927488
Link 1 48 161 0 0.62078080
Link 48 14 162 0 0.36209446
Link 50 16 169 0 -0.34093139
Link 51 14 173 0 -2.21483381
Link 5 53 179 0 -2.64950970
Link 8 55 185 0 -0.07450847
Link 55 15 186 0 -4.06309769
Link 61 13 226 0 -2.00734652
Link 2 62 234 0 1.47121665
Link 62 12 235 0 -0.02348207
Link 11 23 270 1 0.31273451
Link 2 68 274 0 3.71597857
Link 68 10 275 0 -3.02356017
Link 51 61 323 0 2.00198766
Link 8 74 334 0 -1.20125840
Link 74 50 335 0 -1.76239359
Link 78 10 354 0 0.74999907
Link 4 87 457 0 0.59635114
Link 87 15 458 0 0.98404896
Link 20 88 466 0 0.40925611
Link 88 16 467 0 0.51796843
Link 94 41 533 0 2.01825259
Link 3 61 534 0 -1.97786426
Link 53 97 554 0 0.11551702
Link 97 12 555 0 -0.72511703
Link 4 102 586 0 0.60411369
Link 102 20 587 0 -3.61010296
Link 3 116 708 0 2.28484018
Link 116 47 709 0 -0.00273815
Link 138 12 881 0 -1.63556425
Link 3 151 966 0 1.03154156
Link 6 164 1057 0 2.39979394
Link 164 61 1058 0 -1.24658310
Link 46 175 1117 0 2.00050480
Link 175 13 1118 0 1.10213797
Link 7 19 1139 0 -5.03831830
Link 55 13 1296 0 2.04297566
Link 62 62 1330 1 -1.00830760
Link 24 225 1512 0 2.19373647
Link 69 235 1580 0 -1.77473005
Link 62 47 1650 0 -0.09496095
Link 47 46 1684 0 0.55270017
Link 2 252 1717 0 0.28868406
Link 252 51 1718 0 0.58625692
Link 136 258 1749 0 2.04955812
Link 8 262 1777 0 1.03592910
Link 7 263 1789 0 0.29789541
Link 53 266 1813 0 -0.64538804
Link 266 10 1814 0 -1.19438723
Link 51 24 1883 0 -3.19362542
Link 262 291 1976 0 1.53583421
Link 291 78 1977 0 0.08526455
Link 47 299 2018 0 0.46501726
Link 299 13 2019 0 -0.27898394
Link 30 301 2034 0 0.87056824
Link 301 14 2035 0 2.15217992
Link 313 19 2118 0 -1.36231472
Link 330 138 2209 0 4.46452687
Link 6 357 2394 0 1.49558355
Link 357 94 2395 0 0.33940429
Link 61 53 2409 0 -1.42590064
Link 51 47 2423 0 -2.56153876
Link 383 69 2567 0 1.67425741
Link 263 413 2757 0 0.19886503
Link 413 383 2758 0 2.29132578
Link 7 433 2896 0 -1.28815633
Link 433 14 2897 0 1.41384350
Link 78 61 2967 0 -1.56561241
Link 2 442 2981 0 1.66506064
Link 442 23 2982 0 1.04396385
Link 235 444 3000 0 0.75010606
Link 444 14 3001 0 -1.89972805
Link 3 466 3152 0 3.73304927
Link 466 24 3153 0 0.31933333
Link 23 68 3177 0 0.54258413
Link 6 263 3202 0 1.75751215
Link 14 20 3292 1 -4.13333592
Link 218 500 3405 0 1.34591586
Link 500 51 3406 0 1.52932462
Link 102 508 3478 0 -0.67682498
Link 508 20 3479 0 -0.97131085
Link 521 53 3595 0 -0.56059281
Link 24 19 3625 0 3.04793592
Link 14 541 3733 1 3.27969040
Link 541 263 3734 1 -1.78561854
Link 41 53 3738 0 -1.53403872
Link 1 102 3821 0 -4.08812645
Link 552 136 3849 0 0.31631973
Link 564 218 3918 0 -0.30660802
Link 5 383 3984 0 -8.18047655
Link 3 576 4006 0 -0.52571633
Link 576 51 4007 0 1.82185399
Link 30 383 4074 1 1.64952456
Link 258 603 4284 0 0.89181092
Link 603 13 4285 0 2.85971077
Link 4 623 4458 0 2.88855960
Link 11 138 4460 1 -1.67856269
Link 78 646 4657 0 3.05856604
Link 646 235 4658 0 -1.11104832
Link 1 521 4677 0 1.94351664
Link 13 670 4893 1 0.94037946
Link 43 61 4934 0 -0.82729419
Link 151 680 4969 0 1.75592272
Link 680 313 4970 0 -0.48920672
Link 19 541 5039 0 2.99474134
Link 24 258 5095 0 3.46795123
Link 225 383 5096 1 0.06879046
Link 68 701 5162 0 0.59048383
Link 701 521 5163 0 3.10347480
Link 4 301 5164 0 -2.54286033
Link 6 720 5323 0 1.50077579
Link 24 754 5535 0 -0.23617031
Link 754 330 5536 0 1.10823373
Link 41 225 5577 0 -1.47502153
Link 780 51 5667 1 3.87110927
Link 623 782 5689 0 0.73070302
Link 55 48 5755 0 -0.84311622
Link 51 788 5758 1 1.45641838
Link 788 780 5759 1 0.76102074
Link 68 782 5801 0 1.81436822
Link 116 266 5837 0 -0.12682898
Link 313 12 5854 0 -0.10713497
Link 780 53 5915 0 1.21758384
Link 138 444 5981 0 -1.73564893
Link 782 819 6001 0 1.01502321
Link 819 266 6002 0 -5.61227721
Link 508 175 6094 0 1.55869613
Link 1 23 6213 0 4.12077136
Link 670 874 6455 1 0.32591580
Link 225 235 6510 0 -1.19656122
Link 23 890 6580 0 2.56034246
Link 890 564 6581 0 3.09360030
Link 19 899 6656 0 0.99734324
Link 48 902 6682 0 0.64913969
Link 902 175 6683 0 1.14459293
Link 899 917 6829 0 1.44149201
Link 917 47 6830 0 3.70783398
Link 69 258 6856 0 0.18351922
Link 69 252 7029 1 -3.23790587
Link 313 313 7111 1 2.09342860
Link 874 951 7136 1 0.89649406
Link 951 46 7137 1 -0.36315818
Link 433 902 7146 0 1.19998105
Link 899 164 7234 1 -1.06921372
Link 88 136 7259 0 1.19453744
Link 46 541 7339 0 -1.36920919
Link 383 623 7402 0 0.29367845
Link 917 670 7453 0 3.77259605
Link 720 1004 7614 0 0.67675843
Link 1004 151 7615 0 -2.01629603
Link 258 258 8078 1 0.47646633
Link 61 175 8234 0 -0.19827782
Link 603 151 8337 1 -1.47262946
Link 225 1112 8466 0 0.89832546
Link 1112 552 8467 0 1.44882565
Link 7 175 8572 0 -0.80923843
Link 1 43 8654 0 0.29041108
Link 433 500 8829 0 -1.61939448
GenomeEnd

