GenomeStart 80574
Neuron 1 1 0.00000000 1 0.00000000 0.00000000 0.00000000 0.00000000
Neuron 2 1 0.00000000 1 0.00000000 0.00000000 0.00000000 0.00000000
Neuron 3 1 0.00000000 1 0.00000000 0.00000000 0.00000000 0.00000000
Neuron 4 1 0.00000000 1 0.00000000 0.00000000 0.00000000 0.00000000
Neuron 5 1 0.00000000 1 0.00000000 0.00000000 0.00000000 0.00000000
Neuron 6 1 0.00000000 1 0.00000000 0.00000000 0.00000000 0.00000000
Neuron 7 1 0.00000000 1 0.00000000 0.00000000 0.00000000 0.00000000
Neuron 8 1 0.00000000 1 0.00000000 0.00000000 0.00000000 0.00000000
Neuron 9 2 0.00000000 1 0.00000000 0.00000000 0.00000000 0.00000000
Neuron 10 4 1.00000000 0 1.00000000 0.00000000 0.00000000 0.00000000
Neuron 11 4 1.00000000 0 1.00000000 0.00000000 0.00000000 0.00000000
Neuron 12 4 1.00000000 0 1.00000000 0.00000000 0.00000000 0.00000000
Neuron 13 4 1.00000000 0 1.00000000 0.00000000 0.00000000 0.00000000
Neuron 14 4 1.00000000 0 1.00000000 0.00000000 0.00000000 0.00000000
Neuron 15 4 1.00000000 0 1.00000000 0.00000000 0.00000000 0.00000000
Neuron 16 4 1.00000000 0 1.00000000 0.00000000 0.00000000 0.00000000
Neuron 17 3 0.50000000 1 1.00000000 0.00000000 0.00000000 0.00000000
Neuron 19 3 0.50000000 1 1.00000000 0.00000000 0.00000000 0.00000000
Neuron 21 3 0.50000000 1 1.00000000 0.00000000 0.00000000 0.00000000
Neuron 25 3 0.50000000 1 1.00000000 0.00000000 0.00000000 0.00000000
Neuron 27 3 0.50000000 1 1.00000000 0.00000000 0.00000000 0.00000000
Neuron 29 3 0.50000000 1 1.00000000 0.00000000 0.00000000 0.00000000
Neuron 31 3 0.50000000 1 1.00000000 0.00000000 0.00000000 0.00000000
Neuron 33 3 0.50000000 1 1.00000000 0.00000000 0.00000000 0.00000000
Neuron 34 3 0.50000000 1 1.00000000 0.00000000 0.00000000 0.00000000
Neuron 36 3 0.50000000 1 1.00000000 0.00000000 0.00000000 0.00000000
Neuron 37 3 0.50000000 1 1.00000000 0.00000000 0.00000000 0.00000000
Neuron 45 3 0.50000000 1 1.00000000 0.00000000 0.00000000 0.00000000
Neuron 48 3 0.50000000 1 1.00000000 0.00000000 0.00000000 0.00000000
Neuron 49 3 0.50000000 1 1.00000000 0.00000000 0.00000000 0.00000000
Neuron 50 3 0.50000000 1 1.00000000 0.00000000 0.00000000 0.00000000
Neuron 51 3 0.50000000 1 1.00000000 0.00000000 0.00000000 0.00000000
Neuron 52 3 0.50000000 1 1.00000000 0.00000000 0.00000000 0.00000000
Neuron 53 3 0.50000000 1 1.00000000 0.00000000 0.00000000 0.00000000
Neuron 56 3 0.50000000 1 1.00000000 0.00000000 0.00000000 0.00000000
Neuron 59 3 0.50000000 1 1.00000000 0.00000000 0.00000000 0.00000000
Neuron 60 3 0.50000000 1 1.00000000 0.00000000 0.00000000 0.00000000
Neuron 61 3 0.50000000 1 1.00000000 0.00000000 0.00000000 0.00000000
Neuron 67 3 0.75000000 1 1.00000000 0.00000000 0.00000000 0.00000000
Neuron 69 3 0.50000000 1 1.00000000 0.00000000 0.00000000 0.00000000
Neuron 71 3 0.50000000 1 1.00000000 0.00000000 0.00000000 0.00000000
Neuron 78 3 0.50000000 1 1.00000000 0.00000000 0.00000000 0.00000000
Neuron 79 3 0.50000000 1 1.00000000 0.00000000 0.00000000 0.00000000
Neuron 84 3 0.75000000 1 1.00000000 0.00000000 0.00000000 0.00000000
Neuron 87 3 0.50000000 1 1.00000000 0.00000000 0.00000000 0.00000000
Neuron 91 3 0.75000000 1 1.00000000 0.00000000 0.00000000 0.00000000
Neuron 111 3 0.75000000 1 1.00000000 0.00000000 0.00000000 0.00000000
Neuron 121 3 0.50000000 1 1.00000000 0.00000000 0.00000000 0.00000000
Neuron 134 3 0.75000000 1 1.00000000 0.00000000 0.00000000 0.00000000
Neuron 137 3 0.25000000 1 1.00000000 0.00000000 0.00000000 0.00000000
Neuron 141 3 0.25000000 1 1.00000000 0.00000000 0.00000000 0.00000000
Neuron 173 3 0.25000000 1 1.00000000 0.00000000 0.00000000 0.00000000
Neuron 192 3 0.75000000 1 1.00000000 0.00000000 0.00000000 0.00000000
Neuron 199 3 0.75000000 1 1.00000000 0.00000000 0.00000000 0.00000000
Neuron 211 3 0.75000000 1 1.00000000 0.00000000 0.00000000 0.00000000
Neuron 226 3 0.25000000 1 1.00000000 0.00000000 0.00000000 0.00000000
Neuron 235 3 0.75000000 1 1.00000000 0.00000000 0.00000000 0.00000000
Neuron 243 3 0.75000000 1 1.00000000 0.00000000 0.00000000 0.00000000
Neuron 252 3 0.25000000 1 1.00000000 0.00000000 0.00000000 0.00000000
Neuron 263 3 0.25000000 1 1.00000000 0.00000000 0.00000000 0.00000000
Neuron 271 3 0.75000000 1 1.00000000 0.00000000 0.00000000 0.00000000
Neuron 312 3 0.87500000 1 1.00000000 0.00000000 0.00000000 0.00000000
Neuron 329 3 0.93750000 1 1.00000000 0.00000000 0.00000000 0.00000000
Neuron 336 3 0.37500000 1 1.00000000 0.00000000 0.00000000 0.00000000
Neuron 345 3 0.25000000 1 1.00000000 0.00000000 0.00000000 0.00000000
Neuron 350 3 0.31250000 1 1.00000000 0.00000000 0.00000000 0.00000000
Neuron 364 3 0.75000000 1 1.00000000 0.00000000 0.00000000 0.00000000
Neuron 456 3 0.37500000 1 1.00000000 0.00000000 0.00000000 0.00000000
Neuron 470 3 0.62500000 1 1.00000000 0.00000000 0.00000000 0.00000000
Neuron 482 3 0.25000000 1 1.00000000 0.00000000 0.00000000 0.00000000
Neuron 493 3 0.25000000 1 1.00000000 0.00000000 0.00000000 0.00000000
Neuron 503 3 0.62500000 1 1.00000000 0.00000000 0.00000000 0.00000000
Neuron 511 3 0.62500000 1 1.00000000 0.00000000 0.00000000 0.00000000
Neuron 517 3 0.75000000 1 1.00000000 0.00000000 0.00000000 0.00000000
Neuron 522 3 0.75000000 1 1.00000000 0.00000000 0.00000000 0.00000000
Neuron 556 3 0.87500000 1 1.00000000 0.00000000 0.00000000 0.00000000
Neuron 580 3 0.12500000 1 1.00000000 0.00000000 0.00000000 0.00000000
Neuron 600 3 0.25000000 1 1.00000000 0.00000000 0.00000000 0.00000000
Neuron 644 3 0.50000000 1 1.00000000 0.00000000 0.00000000 0.00000000
Neuron 650 3 0.25000000 1 1.00000000 0.00000000 0.00000000 0.00000000
Neuron 653 3 0.87500000 1 1.00000000 0.00000000 0.00000000 0.00000000
Neuron 663 3 0.56250000 1 1.00000000 0.00000000 0.00000000 0.00000000
Neuron 672 3 0.37500000 1 1.00000000 0.00000000 0.00000000 0.00000000
Neuron 679 3 0.62500000 1 1.00000000 0.00000000 0.00000000 0.00000000
Neuron 682 3 0.62500000 1 1.00000000 0.00000000 0.00000000 0.00000000
Neuron 686 3 0.62500000 1 1.00000000 0.00000000 0.00000000 0.00000000
Neuron 719 3 0.59375000 1 1.00000000 0.00000000 0.00000000 0.00000000
Neuron 734 3 0.62500000 1 1.00000000 0.00000000 0.00000000 0.00000000
Neuron 758 3 0.18750000 1 1.00000000 0.00000000 0.00000000 0.00000000
Neuron 765 3 0.53125000 1 1.00000000 0.00000000 0.00000000 0.00000000
Neuron 786 3 0.56250000 1 1.00000000 0.00000000 0.00000000 0.00000000
Neuron 793 3 0.06250000 1 1.00000000 0.00000000 0.00000000 0.00000000
Neuron 802 3 0.28125000 1 1.00000000 0.00000000 0.00000000 0.00000000
Neuron 805 3 0.93750000 1 1.00000000 0.00000000 0.00000000 0.00000000
Neuron 806 3 0.68750000 1 1.00000000 0.00000000 0.00000000 0.00000000
Neuron 847 3 0.37500000 1 1.00000000 0.00000000 0.00000000 0.00000000
Neuron 848 3 0.43750000 1 1.00000000 0.00000000 0.00000000 0.00000000
Neuron 864 3 0.59375000 1 1.00000000 0.00000000 0.00000000 0.00000000
Neuron 914 3 0.43750000 1 1.00000000 0.00000000 0.00000000 0.00000000
Neuron 936 3 0.40625000 1 1.00000000 0.00000000 0.00000000 0.00000000
Neuron 958 3 0.62500000 1 1.00000000 0.00000000 0.00000000 0.00000000
Neuron 1013 3 0.03125000 1 1.00000000 0.00000000 0.00000000 0.00000000
Neuron 1021 3 0.32812500 1 1.00000000 0.00000000 0.00000000 0.00000000
Neuron 1023 3 0.37500000 1 1.00000000 0.00000000 0.00000000 0.00000000
Neuron 1024 3 0.40625000 1 1.00000000 0.00000000 0.00000000 0.00000000
Neuron 1055 3 0.71875000 1 1.00000000 0.00000000 0.00000000 0.00000000
Neuron 1078 3 0.37500000 1 1.00000000 0.00000000 0.00000000 0.00000000
Neuron 1086 3 0.39062500 1 1.00000000 0.00000000 0.00000000 0.00000000
Neuron 1094 3 0.62500000 1 1.00000000 0.00000000 0.00000000 0.00000000
Neuron 1144 3 0.18750000 1 1.00000000 0.00000000 0.00000000 0.00000000
Neuron 1147 3 0.43750000 1 1.00000000 0.00000000 0.00000000 0.00000000
Neuron 1159 3 0.39843750 1 1.00000000 0.00000000 0.00000000 0.00000000
Neuron 1204 3 0.39062500 1 1.00000000 0.00000000 0.00000000 0.00000000
Neuron 1214 3 0.43750000 1 1.00000000 0.00000000 0.00000000 0.00000000
Neuron 1236 3 0.39843750 1 1.00000000 0.00000000 0.00000000 0.00000000
Neuron 1249 3 0.40625000 1 1.00000000 0.00000000 0.00000000 0.00000000
Neuron 1290 3 0.39453125 1 1.00000000 0.00000000 0.00000000 0.00000000
Neuron 1307 3 0.46875000 1 1.00000000 0.00000000 0.00000000 0.00000000
Neuron 1334 3 0.59375000 1 1.00000000 0.00000000 0.00000000 0.00000000
Link 1 10 1 0 1.76568988
Link 2 10 2 0 0.14224898
Link 4 10 4 0 -0.30370202
Link 5 10 5 0 0.27195580
Link 9 10 9 0 -1.77236126
Link 2 11 11 0 0.78297083
Link 5 11 14 0 -2.59682739
Link 6 11 15 0 1.45778014
Link 9 11 18 0 -2.55740467
Link 2 12 20 0 2.88900530
Link 4 12 22 0 -1.76508008
Link 6 12 24 0 -0.51260107
Link 7 12 25 0 0.38807970
Link 9 12 27 0 -1.83593270
Link 1 13 28 0 -3.23940733
Link 2 13 29 0 1.45112686
Link 3 13 30 0 -2.99690204
Link 4 13 31 0 1.42187472
Link 7 13 34 0 -1.09794042
Link 9 13 36 0 -3.23084082
Link 3 14 39 0 3.13242332
Link 4 14 40 0 -1.17892219
Link 8 14 44 0 1.02267498
Link 1 15 46 0 -3.93417424
Link 2 15 47 0 1.05155216
Link 8 15 53 0 -0.63575043
Link 9 15 54 0 -1.95672889
Link 1 16 55 0 -1.07838168
Link 4 16 58 0 2.89340453
Link 5 16 59 0 0.46077345
Link 6 16 60 0 -0.28048153
Link 3 17 65 0 -0.47783380
Link 17 10 66 0 1.19136803
Link 3 19 71 0 -0.40131651
Link 19 11 72 0 -0.99774888
Link 8 29 103 0 -1.73971553
Link 29 12 104 0 2.30896048
Link 3 31 109 0 -4.02933026
Link 6 33 115 0 -0.36756232
Link 33 14 116 0 -4.11984813
Link 7 34 118 0 -2.44085452
Link 34 10 119 0 1.85915197
Link 1 36 124 0 0.91125637
Link 36 11 125 0 -3.44605528
Link 3 37 127 0 1.51730444
Link 37 16 128 0 1.20981376
Link 7 45 152 0 0.02868749
Link 45 16 153 0 -0.04239142
Link 5 49 164 0 0.29586102
Link 8 50 168 0 3.50376781
Link 1 52 175 0 1.62559109
Link 52 12 176 0 -1.85337491
Link 5 53 179 0 -3.11439801
Link 53 12 180 0 -4.50504701
Link 8 56 188 0 3.53825109
Link 56 13 189 0 2.26532936
Link 8 59 216 0 -0.94515856
Link 59 11 217 0 0.95524724
Link 60 12 221 0 -1.81001996
Link 6 61 225 0 -0.25669205
Link 67 15 265 0 0.78691047
Link 5 71 305 0 -2.21260978
Link 71 15 306 0 0.67227343
Link 8 78 353 0 0.78875623
Link 78 10 354 0 -0.56982093
Link 79 11 365 0 3.57839194
Link 9 21 406 0 -0.31872330
Link 51 84 425 0 -0.63403003
Link 84 14 426 0 0.14514817
Link 4 87 457 0 0.53975787
Link 87 15 458 0 -0.03267673
Link 50 10 476 0 -1.33276878
Link 50 91 513 0 -5.29097932
Link 91 16 514 0 0.30950678
Link 52 16 556 0 -1.40766662
Link 9 31 601 0 -2.05305547
Link 2 17 617 0 1.57709521
Link 6 121 753 0 1.07197743
Link 121 15 754 0 2.63874804
Link 8 31 792 0 -1.39298796
Link 49 134 855 0 1.05838681
Link 134 14 856 0 5.12823152
Link 3 137 872 0 -0.32658730
Link 137 60 873 0 0.26291311
Link 7 141 892 0 -1.58168263
Link 141 21 893 0 -2.15349666
Link 173 27 1111 0 -0.24609487
Link 192 10 1280 0 -0.94826793
Link 31 211 1408 0 2.30142135
Link 211 15 1409 0 -2.78969455
Link 7 226 1515 0 -2.07966341
Link 69 235 1580 0 0.12687858
Link 235 14 1581 0 -2.37825481
Link 50 79 1608 0 -0.47898728
Link 243 14 1638 0 -2.49764500
Link 71 48 1708 0 -1.35612624
Link 2 252 1717 0 0.00489000
Link 7 263 1789 0 1.31287129
Link 263 69 1790 0 0.30518786
Link 5 226 1809 0 -4.28302848
Link 9 199 1828 0 -0.89522531
Link 211 10 1845 0 1.75007456
Link 211 17 1909 1 -1.69138111
Link 33 34 2104 0 1.58546425
Link 199 312 2110 0 -0.47307358
Link 312 329 2201 0 -0.56087674
Link 329 14 2202 0 0.13399929
Link 336 79 2264 0 -3.80750957
Link 1 345 2308 0 1.65484026
Link 345 48 2309 0 0.59812293
Link 350 336 2351 0 0.80218926
Link 25 364 2456 0 -2.90027454
Link 364 16 2457 0 -0.18077045
Link 3 25 2516 0 1.38815051
Link 13 199 2731 1 0.75083897
Link 33 33 2939 1 -0.34980217
Link 252 456 3061 0 1.08528274
Link 456 51 3062 0 0.24588459
Link 470 192 3172 0 -1.24619794
Link 3 192 3217 0 0.92080578
Link 2 482 3250 0 0.68145951
Link 482 25 3251 0 0.60270814
Link 7 493 3333 0 1.50006495
Link 493 61 3334 0 -2.46956131
Link 69 61 3336 0 -2.23290755
Link 31 503 3435 0 1.74208456
Link 503 243 3436 0 1.20537538
Link 511 199 3504 0 0.05102210
Link 21 517 3558 0 -0.98984307
Link 517 13 3559 0 0.80432864
Link 17 522 3616 0 -0.39848575
Link 522 13 3617 0 2.31606284
Link 25 199 3809 0 -0.46575141
Link 271 556 3871 0 -3.13844736
Link 91 11 4110 0 0.68580829
Link 21 21 4135 1 3.41060642
Link 4 600 4256 0 1.79296599
Link 16 271 4327 1 1.08762398
Link 173 312 4346 0 0.62672967
Link 199 199 4421 1 0.31671438
Link 226 644 4645 0 2.60803562
Link 644 199 4646 0 -0.07401790
Link 1 650 4706 0 1.25544683
Link 111 653 4735 0 -0.22695129
Link 653 13 4736 0 -0.98292187
Link 517 517 4784 1 -3.04018017
Link 650 672 4904 0 -3.09806646
Link 21 679 4950 0 2.00244418
Link 21 682 4981 0 0.47000646
Link 682 67 4982 0 -0.04324621
Link 61 686 5021 0 3.92546052
Link 686 111 5022 0 3.56137220
Link 15 511 5053 1 -1.46495451
Link 226 600 5103 0 2.77243276
Link 663 719 5310 0 1.15539607
Link 719 470 5311 0 -0.32965371
Link 734 51 5411 1 4.29966357
Link 21 235 5452 0 -0.59107065
Link 580 758 5557 0 0.51447544
Link 758 173 5558 0 0.49446930
Link 27 765 5604 0 0.65469533
Link 765 663 5605 0 2.17489790
Link 1 734 5668 0 3.22298144
Link 48 786 5717 0 -1.25107980
Link 243 211 5727 0 -0.27887147
Link 793 580 5795 0 -1.44589259
Link 226 802 5868 0 -0.31693064
Link 802 350 5869 0 -0.68557566
Link 56 14 5876 0 -4.25371643
Link 9 137 5885 0 -2.81629232
Link 556 805 5896 0 3.60717613
Link 805 12 5897 0 0.81123122
Link 679 806 5900 0 -0.78605914
Link 806 271 5901 0 -1.37900583
Link 91 271 6016 0 2.61660675
Link 650 137 6120 0 1.21020623
Link 600 847 6225 0 0.99912955
Link 848 25 6229 0 -0.91124729
Link 734 350 6284 1 -2.20482458
Link 786 864 6383 0 -1.81390317
Link 864 511 6384 0 0.43465536
Link 672 15 6744 0 3.90381539
Link 847 53 6764 0 -1.83804182
Link 914 27 6795 0 -1.22649837
Link 10 60 6810 1 -1.76303288
Link 864 336 6864 1 5.45253498
Link 345 847 6978 0 2.23635249
Link 936 914 7014 0 -2.70254607
Link 192 958 7215 1 0.59665858
Link 958 17 7216 1 -1.86749038
Link 252 27 7217 0 -2.55312800
Link 51 470 7698 0 0.69182315
Link 6 1013 7705 0 0.49468808
Link 1013 793 7706 0 2.51102823
Link 650 1021 7762 0 1.23111005
Link 1021 936 7763 0 -0.29379242
Link 51 848 7766 1 -1.39699584
Link 226 1023 7780 0 -1.63644357
Link 1023 69 7781 0 -3.40140194
Link 1024 848 7784 0 2.21193122
Link 329 1055 8014 1 3.76831514
Link 1055 25 8015 1 0.59914070
Link 1078 137 8170 1 2.15230288
Link 847 1086 8213 0 -2.29409754
Link 111 1094 8275 1 1.38169684
Link 1094 69 8276 1 0.84892424
Link 192 56 8546 1 2.60366576
Link 56 503 8718 0 0.70479816
Link 29 470 8732 0 -1.05107175
Link 580 1144 8801 0 1.25348436
Link 1144 650 8802 0 1.51769309
Link 503 1147 8822 1 0.78034203
Link 1147 345 8823 1 0.43450283
Link 470 580 8878 1 0.03974137
Link 1086 1159 9027 0 -1.58285748
Link 1159 936 9028 0 -1.59587214
Link 271 672 9297 1 2.22135401
Link 672 1204 9439 0 3.01994881
Link 503 91 9457 0 2.06431223
Link 56 48 9553 0 3.38521599
Link 914 1144 9600 1 -0.36060500
Link 1236 1024 9796 0 -3.38278763
Link 470 61 9814 1 0.90230696
Link 91 600 9864 1 2.02724241
Link 1214 1249 9890 1 -3.70963537
Link 1249 1078 9891 1 -0.03983726
Link 679 29 10053 1 1.03783268
Link 1204 1290 10330 0 1.87504789
Link 1290 1236 10331 0 0.53332248
Link 79 16 10444 0 1.84027119
Link 1086 1236 10480 0 2.09396226
Link 25 1307 10532 1 -1.18796705
Link 1307 1214 10533 1 1.38941208
Link 329 1334 10822 1 3.34120259
Link 1334 600 10823 1 1.57011816
Link 470 470 10833 1 -4.03497620
Link 329 914 10917 1 -1.06813981
Link 29 864 10947 0 -0.80312654
Link 2 1147 10987 0 -0.33131543
Link 12 503 11067 1 3.81507990
Link 806 653 11105 0 -1.47525308
Link 5 734 11110 0 -2.05355630
Link 29 1024 11127 1 0.73344479
Link 600 793 11389 1 -1.82003243
Link 51 802 11541 1 -2.65072339
Link 650 517 11564 0 1.49575295
Link 650 111 11663 0 -0.14042606
Link 173 1204 11760 0 1.21042096
Link 78 69 11950 0 -2.33228511
Link 14 734 11986 1 2.30925841
Link 734 1094 12050 0 -5.18473668
Link 69 848 12166 1 3.78601684
Link 5 580 12229 0 -3.71833525
Link 1144 958 12415 0 0.53778217
Link 556 235 12527 1 2.82267054
Link 672 34 12728 0 2.41348198
Link 958 25 12824 1 -1.04776435
Link 56 84 13356 0 -2.86424368
GenomeEnd

