GenomeStart 108940
Neuron 1 1 0.00000000 1 0.00000000 0.00000000 0.00000000 0.00000000
Neuron 2 1 0.00000000 1 0.00000000 0.00000000 0.00000000 0.00000000
Neuron 3 1 0.00000000 1 0.00000000 0.00000000 0.00000000 0.00000000
Neuron 4 1 0.00000000 1 0.00000000 0.00000000 0.00000000 0.00000000
Neuron 5 1 0.00000000 1 0.00000000 0.00000000 0.00000000 0.00000000
Neuron 6 1 0.00000000 1 0.00000000 0.00000000 0.00000000 0.00000000
Neuron 7 1 0.00000000 1 0.00000000 0.00000000 0.00000000 0.00000000
Neuron 8 1 0.00000000 1 0.00000000 0.00000000 0.00000000 0.00000000
Neuron 9 2 0.00000000 1 0.00000000 0.00000000 0.00000000 0.00000000
Neuron 10 4 1.00000000 0 1.00000000 0.00000000 0.00000000 0.00000000
Neuron 11 4 1.00000000 0 1.00000000 0.00000000 0.00000000 0.00000000
Neuron 12 4 1.00000000 0 1.00000000 0.00000000 0.00000000 0.00000000
Neuron 13 4 1.00000000 0 1.00000000 0.00000000 0.00000000 0.00000000
Neuron 14 4 1.00000000 0 1.00000000 0.00000000 0.00000000 0.00000000
Neuron 15 4 1.00000000 0 1.00000000 0.00000000 0.00000000 0.00000000
Neuron 16 4 1.00000000 0 1.00000000 0.00000000 0.00000000 0.00000000
Neuron 17 3 0.50000000 1 1.00000000 0.00000000 0.00000000 0.00000000
Neuron 18 3 0.50000000 1 1.00000000 0.00000000 0.00000000 0.00000000
Neuron 21 3 0.50000000 1 1.00000000 0.00000000 0.00000000 0.00000000
Neuron 22 3 0.50000000 1 1.00000000 0.00000000 0.00000000 0.00000000
Neuron 23 3 0.50000000 1 1.00000000 0.00000000 0.00000000 0.00000000
Neuron 25 3 0.50000000 1 1.00000000 0.00000000 0.00000000 0.00000000
Neuron 26 3 0.50000000 1 1.00000000 0.00000000 0.00000000 0.00000000
Neuron 27 3 0.50000000 1 1.00000000 0.00000000 0.00000000 0.00000000
Neuron 28 3 0.50000000 1 1.00000000 0.00000000 0.00000000 0.00000000
Neuron 29 3 0.50000000 1 1.00000000 0.00000000 0.00000000 0.00000000
Neuron 30 3 0.50000000 1 1.00000000 0.00000000 0.00000000 0.00000000
Neuron 31 3 0.50000000 1 1.00000000 0.00000000 0.00000000 0.00000000
Neuron 32 3 0.50000000 1 1.00000000 0.00000000 0.00000000 0.00000000
Neuron 33 3 0.50000000 1 1.00000000 0.00000000 0.00000000 0.00000000
Neuron 34 3 0.50000000 1 1.00000000 0.00000000 0.00000000 0.00000000
Neuron 35 3 0.50000000 1 1.00000000 0.00000000 0.00000000 0.00000000
Neuron 36 3 0.50000000 1 1.00000000 0.00000000 0.00000000 0.00000000
Neuron 37 3 0.50000000 1 1.00000000 0.00000000 0.00000000 0.00000000
Neuron 38 3 0.50000000 1 1.00000000 0.00000000 0.00000000 0.00000000
Neuron 40 3 0.50000000 1 1.00000000 0.00000000 0.00000000 0.00000000
Neuron 41 3 0.50000000 1 1.00000000 0.00000000 0.00000000 0.00000000
Neuron 42 3 0.50000000 1 1.00000000 0.00000000 0.00000000 0.00000000
Neuron 43 3 0.50000000 1 1.00000000 0.00000000 0.00000000 0.00000000
Neuron 44 3 0.50000000 1 1.00000000 0.00000000 0.00000000 0.00000000
Neuron 45 3 0.50000000 1 1.00000000 0.00000000 0.00000000 0.00000000
Neuron 46 3 0.50000000 1 1.00000000 0.00000000 0.00000000 0.00000000
Neuron 47 3 0.50000000 1 1.00000000 0.00000000 0.00000000 0.00000000
Neuron 48 3 0.50000000 1 1.00000000 0.00000000 0.00000000 0.00000000
Neuron 49 3 0.50000000 1 1.00000000 0.00000000 0.00000000 0.00000000
Neuron 50 3 0.50000000 1 1.00000000 0.00000000 0.00000000 0.00000000
Neuron 51 3 0.50000000 1 1.00000000 0.00000000 0.00000000 0.00000000
Neuron 53 3 0.50000000 1 1.00000000 0.00000000 0.00000000 0.00000000
Neuron 54 3 0.50000000 1 1.00000000 0.00000000 0.00000000 0.00000000
Neuron 55 3 0.50000000 1 1.00000000 0.00000000 0.00000000 0.00000000
Neuron 56 3 0.50000000 1 1.00000000 0.00000000 0.00000000 0.00000000
Neuron 57 3 0.50000000 1 1.00000000 0.00000000 0.00000000 0.00000000
Neuron 58 3 0.50000000 1 1.00000000 0.00000000 0.00000000 0.00000000
Neuron 59 3 0.50000000 1 1.00000000 0.00000000 0.00000000 0.00000000
Neuron 62 3 0.50000000 1 1.00000000 0.00000000 0.00000000 0.00000000
Neuron 63 3 0.50000000 1 1.00000000 0.00000000 0.00000000 0.00000000
Neuron 64 3 0.75000000 1 1.00000000 0.00000000 0.00000000 0.00000000
Neuron 65 3 0.50000000 1 1.00000000 0.00000000 0.00000000 0.00000000
Neuron 66 3 0.50000000 1 1.00000000 0.00000000 0.00000000 0.00000000
Neuron 67 3 0.50000000 1 1.00000000 0.00000000 0.00000000 0.00000000
Neuron 70 3 0.50000000 1 1.00000000 0.00000000 0.00000000 0.00000000
Neuron 72 3 0.50000000 1 1.00000000 0.00000000 0.00000000 0.00000000
Neuron 73 3 0.50000000 1 1.00000000 0.00000000 0.00000000 0.00000000
Neuron 74 3 0.50000000 1 1.00000000 0.00000000 0.00000000 0.00000000
Neuron 75 3 0.75000000 1 1.00000000 0.00000000 0.00000000 0.00000000
Neuron 78 3 0.50000000 1 1.00000000 0.00000000 0.00000000 0.00000000
Neuron 80 3 0.87500000 1 1.00000000 0.00000000 0.00000000 0.00000000
Neuron 83 3 0.75000000 1 1.00000000 0.00000000 0.00000000 0.00000000
Neuron 84 3 0.75000000 1 1.00000000 0.00000000 0.00000000 0.00000000
Neuron 88 3 0.25000000 1 1.00000000 0.00000000 0.00000000 0.00000000
Neuron 89 3 0.75000000 1 1.00000000 0.00000000 0.00000000 0.00000000
Neuron 90 3 0.75000000 1 1.00000000 0.00000000 0.00000000 0.00000000
Neuron 91 3 0.75000000 1 1.00000000 0.00000000 0.00000000 0.00000000
Neuron 93 3 0.75000000 1 1.00000000 0.00000000 0.00000000 0.00000000
Neuron 98 3 0.25000000 1 1.00000000 0.00000000 0.00000000 0.00000000
Neuron 99 3 0.81250000 1 1.00000000 0.00000000 0.00000000 0.00000000
Neuron 103 3 0.25000000 1 1.00000000 0.00000000 0.00000000 0.00000000
Neuron 112 3 0.50000000 1 1.00000000 0.00000000 0.00000000 0.00000000
Neuron 116 3 0.75000000 1 1.00000000 0.00000000 0.00000000 0.00000000
Neuron 119 3 0.25000000 1 1.00000000 0.00000000 0.00000000 0.00000000
Neuron 123 3 0.50000000 1 1.00000000 0.00000000 0.00000000 0.00000000
Neuron 125 3 0.75000000 1 1.00000000 0.00000000 0.00000000 0.00000000
Neuron 130 3 0.75000000 1 1.00000000 0.00000000 0.00000000 0.00000000
Neuron 132 3 0.75000000 1 1.00000000 0.00000000 0.00000000 0.00000000
Neuron 135 3 0.75000000 1 1.00000000 0.00000000 0.00000000 0.00000000
Neuron 137 3 0.25000000 1 1.00000000 0.00000000 0.00000000 0.00000000
Neuron 141 3 0.75000000 1 1.00000000 0.00000000 0.00000000 0.00000000
Neuron 142 3 0.50000000 1 1.00000000 0.00000000 0.00000000 0.00000000
Neuron 143 3 0.62500000 1 1.00000000 0.00000000 0.00000000 0.00000000
Neuron 147 3 0.25000000 1 1.00000000 0.00000000 0.00000000 0.00000000
Neuron 148 3 0.75000000 1 1.00000000 0.00000000 0.00000000 0.00000000
Neuron 150 3 0.75000000 1 1.00000000 0.00000000 0.00000000 0.00000000
Neuron 151 3 0.50000000 1 1.00000000 0.00000000 0.00000000 0.00000000
Neuron 152 3 0.75000000 1 1.00000000 0.00000000 0.00000000 0.00000000
Neuron 154 3 0.75000000 1 1.00000000 0.00000000 0.00000000 0.00000000
Neuron 157 3 0.25000000 1 1.00000000 0.00000000 0.00000000 0.00000000
Neuron 158 3 0.75000000 1 1.00000000 0.00000000 0.00000000 0.00000000
Neuron 162 3 0.25000000 1 1.00000000 0.00000000 0.00000000 0.00000000
Neuron 166 3 0.75000000 1 1.00000000 0.00000000 0.00000000 0.00000000
Neuron 169 3 0.75000000 1 1.00000000 0.00000000 0.00000000 0.00000000
Neuron 170 3 0.75000000 1 1.00000000 0.00000000 0.00000000 0.00000000
Neuron 174 3 0.75000000 1 1.00000000 0.00000000 0.00000000 0.00000000
Neuron 180 3 0.50000000 1 1.00000000 0.00000000 0.00000000 0.00000000
Neuron 181 3 0.75000000 1 1.00000000 0.00000000 0.00000000 0.00000000
Neuron 186 3 0.68750000 1 1.00000000 0.00000000 0.00000000 0.00000000
Neuron 188 3 0.75000000 1 1.00000000 0.00000000 0.00000000 0.00000000
Neuron 195 3 0.50000000 1 1.00000000 0.00000000 0.00000000 0.00000000
Neuron 196 3 0.87500000 1 1.00000000 0.00000000 0.00000000 0.00000000
Neuron 198 3 0.50000000 1 1.00000000 0.00000000 0.00000000 0.00000000
Neuron 203 3 0.75000000 1 1.00000000 0.00000000 0.00000000 0.00000000
Neuron 204 3 0.25000000 1 1.00000000 0.00000000 0.00000000 0.00000000
Neuron 205 3 0.87500000 1 1.00000000 0.00000000 0.00000000 0.00000000
Neuron 206 3 0.50000000 1 1.00000000 0.00000000 0.00000000 0.00000000
Neuron 207 3 0.75000000 1 1.00000000 0.00000000 0.00000000 0.00000000
Neuron 210 3 0.62500000 1 1.00000000 0.00000000 0.00000000 0.00000000
Neuron 213 3 0.12500000 1 1.00000000 0.00000000 0.00000000 0.00000000
Neuron 216 3 0.25000000 1 1.00000000 0.00000000 0.00000000 0.00000000
Neuron 218 3 0.25000000 1 1.00000000 0.00000000 0.00000000 0.00000000
Neuron 223 3 0.50000000 1 1.00000000 0.00000000 0.00000000 0.00000000
Neuron 228 3 0.12500000 1 1.00000000 0.00000000 0.00000000 0.00000000
Neuron 236 3 0.25000000 1 1.00000000 0.00000000 0.00000000 0.00000000
Neuron 238 3 0.87500000 1 1.00000000 0.00000000 0.00000000 0.00000000
Neuron 241 3 0.50000000 1 1.00000000 0.00000000 0.00000000 0.00000000
Neuron 243 3 0.75000000 1 1.00000000 0.00000000 0.00000000 0.00000000
Neuron 247 3 0.93750000 1 1.00000000 0.00000000 0.00000000 0.00000000
Neuron 253 3 0.50000000 1 1.00000000 0.00000000 0.00000000 0.00000000
Neuron 261 3 0.50000000 1 1.00000000 0.00000000 0.00000000 0.00000000
Neuron 262 3 0.50000000 1 1.00000000 0.00000000 0.00000000 0.00000000
Neuron 267 3 0.50000000 1 1.00000000 0.00000000 0.00000000 0.00000000
Neuron 269 3 0.62500000 1 1.00000000 0.00000000 0.00000000 0.00000000
Neuron 271 3 0.50000000 1 1.00000000 0.00000000 0.00000000 0.00000000
Neuron 280 3 0.87500000 1 1.00000000 0.00000000 0.00000000 0.00000000
Neuron 291 3 0.75000000 1 1.00000000 0.00000000 0.00000000 0.00000000
Neuron 294 3 0.50000000 1 1.00000000 0.00000000 0.00000000 0.00000000
Neuron 295 3 0.25000000 1 1.00000000 0.00000000 0.00000000 0.00000000
Neuron 299 3 0.62500000 1 1.00000000 0.00000000 0.00000000 0.00000000
Neuron 301 3 0.56250000 1 1.00000000 0.00000000 0.00000000 0.00000000
Neuron 308 3 0.81250000 1 1.00000000 0.00000000 0.00000000 0.00000000
Neuron 322 3 0.25000000 1 1.00000000 0.00000000 0.00000000 0.00000000
Neuron 328 3 0.50000000 1 1.00000000 0.00000000 0.00000000 0.00000000
Neuron 330 3 0.50000000 1 1.00000000 0.00000000 0.00000000 0.00000000
Neuron 337 3 0.25000000 1 1.00000000 0.00000000 0.00000000 0.00000000
Neuron 345 3 0.50000000 1 1.00000000 0.00000000 0.00000000 0.00000000
Neuron 348 3 0.25000000 1 1.00000000 0.00000000 0.00000000 0.00000000
Neuron 349 3 0.62500000 1 1.00000000 0.00000000 0.00000000 0.00000000
Neuron 351 3 0.62500000 1 1.00000000 0.00000000 0.00000000 0.00000000
Neuron 355 3 0.37500000 1 1.00000000 0.00000000 0.00000000 0.00000000
Neuron 377 3 0.25000000 1 1.00000000 0.00000000 0.00000000 0.00000000
Neuron 378 3 0.37500000 1 1.00000000 0.00000000 0.00000000 0.00000000
Neuron 380 3 0.93750000 1 1.00000000 0.00000000 0.00000000 0.00000000
Neuron 387 3 0.62500000 1 1.00000000 0.00000000 0.00000000 0.00000000
Neuron 389 3 0.81250000 1 1.00000000 0.00000000 0.00000000 0.00000000
Neuron 391 3 0.37500000 1 1.00000000 0.00000000 0.00000000 0.00000000
Neuron 394 3 0.75000000 1 1.00000000 0.00000000 0.00000000 0.00000000
Neuron 398 3 0.75000000 1 1.00000000 0.00000000 0.00000000 0.00000000
Neuron 399 3 0.25000000 1 1.00000000 0.00000000 0.00000000 0.00000000
Neuron 403 3 0.75000000 1 1.00000000 0.00000000 0.00000000 0.00000000
Neuron 404 3 0.43750000 1 1.00000000 0.00000000 0.00000000 0.00000000
Neuron 405 3 0.87500000 1 1.00000000 0.00000000 0.00000000 0.00000000
Neuron 406 3 0.25000000 1 1.00000000 0.00000000 0.00000000 0.00000000
Neuron 407 3 0.50000000 1 1.00000000 0.00000000 0.00000000 0.00000000
Neuron 409 3 0.25000000 1 1.00000000 0.00000000 0.00000000 0.00000000
Neuron 413 3 0.50000000 1 1.00000000 0.00000000 0.00000000 0.00000000
Neuron 420 3 0.93750000 1 1.00000000 0.00000000 0.00000000 0.00000000
Neuron 428 3 0.50000000 1 1.00000000 0.00000000 0.00000000 0.00000000
Neuron 430 3 0.50000000 1 1.00000000 0.00000000 0.00000000 0.00000000
Neuron 458 3 0.87500000 1 1.00000000 0.00000000 0.00000000 0.00000000
Neuron 459 3 0.50000000 1 1.00000000 0.00000000 0.00000000 0.00000000
Neuron 460 3 0.31250000 1 1.00000000 0.00000000 0.00000000 0.00000000
Neuron 463 3 0.78125000 1 1.00000000 0.00000000 0.00000000 0.00000000
Neuron 466 3 0.59375000 1 1.00000000 0.00000000 0.00000000 0.00000000
Neuron 477 3 0.12500000 1 1.00000000 0.00000000 0.00000000 0.00000000
Neuron 480 3 0.50000000 1 1.00000000 0.00000000 0.00000000 0.00000000
Neuron 490 3 0.96875000 1 1.00000000 0.00000000 0.00000000 0.00000000
Neuron 510 3 0.56250000 1 1.00000000 0.00000000 0.00000000 0.00000000
Neuron 521 3 0.25000000 1 1.00000000 0.00000000 0.00000000 0.00000000
Neuron 531 3 0.43750000 1 1.00000000 0.00000000 0.00000000 0.00000000
Neuron 533 3 0.75000000 1 1.00000000 0.00000000 0.00000000 0.00000000
Neuron 542 3 0.62500000 1 1.00000000 0.00000000 0.00000000 0.00000000
Neuron 552 3 0.62500000 1 1.00000000 0.00000000 0.00000000 0.00000000
Neuron 559 3 0.50000000 1 1.00000000 0.00000000 0.00000000 0.00000000
Neuron 577 3 0.25000000 1 1.00000000 0.00000000 0.00000000 0.00000000
Neuron 610 3 0.87500000 1 1.00000000 0.00000000 0.00000000 0.00000000
Neuron 622 3 0.34375000 1 1.00000000 0.00000000 0.00000000 0.00000000
Neuron 634 3 0.62500000 1 1.00000000 0.00000000 0.00000000 0.00000000
Neuron 652 3 0.68750000 1 1.00000000 0.00000000 0.00000000 0.00000000
Neuron 657 3 0.53125000 1 1.00000000 0.00000000 0.00000000 0.00000000
Neuron 663 3 0.12500000 1 1.00000000 0.00000000 0.00000000 0.00000000
Neuron 665 3 0.32812500 1 1.00000000 0.00000000 0.00000000 0.00000000
Neuron 667 3 0.50000000 1 1.00000000 0.00000000 0.00000000 0.00000000
Neuron 669 3 0.50000000 1 1.00000000 0.00000000 0.00000000 0.00000000
Neuron 682 3 0.50000000 1 1.00000000 0.00000000 0.00000000 0.00000000
Neuron 709 3 0.12500000 1 1.00000000 0.00000000 0.00000000 0.00000000
Neuron 710 3 0.62500000 1 1.00000000 0.00000000 0.00000000 0.00000000
Neuron 721 3 0.18750000 1 1.00000000 0.00000000 0.00000000 0.00000000
Neuron 730 3 0.31250000 1 1.00000000 0.00000000 0.00000000 0.00000000
Neuron 735 3 0.65625000 1 1.00000000 0.00000000 0.00000000 0.00000000
Neuron 749 3 0.37500000 1 1.00000000 0.00000000 0.00000000 0.00000000
Neuron 762 3 0.50000000 1 1.00000000 0.00000000 0.00000000 0.00000000
Neuron 767 3 0.87500000 1 1.00000000 0.00000000 0.00000000 0.00000000
Neuron 769 3 0.53125000 1 1.00000000 0.00000000 0.00000000 0.00000000
Neuron 777 3 0.62500000 1 1.00000000 0.00000000 0.00000000 0.00000000
Neuron 785 3 0.87500000 1 1.00000000 0.00000000 0.00000000 0.00000000
Neuron 794 3 0.75000000 1 1.00000000 0.00000000 0.00000000 0.00000000
Neuron 796 3 0.37500000 1 1.00000000 0.00000000 0.00000000 0.00000000
Neuron 799 3 0.50000000 1 1.00000000 0.00000000 0.00000000 0.00000000
Neuron 805 3 0.75000000 1 1.00000000 0.00000000 0.00000000 0.00000000
Neuron 808 3 0.54687500 1 1.00000000 0.00000000 0.00000000 0.00000000
Neuron 814 3 0.65625000 1 1.00000000 0.00000000 0.00000000 0.00000000
Neuron 833 3 0.50000000 1 1.00000000 0.00000000 0.00000000 0.00000000
Neuron 840 3 0.75000000 1 1.00000000 0.00000000 0.00000000 0.00000000
Neuron 852 3 0.62500000 1 1.00000000 0.00000000 0.00000000 0.00000000
Neuron 1070 3 0.50000000 1 1.00000000 0.00000000 0.00000000 0.00000000
Neuron 1075 3 0.62500000 1 1.00000000 0.00000000 0.00000000 0.00000000
Neuron 1130 3 0.06250000 1 1.00000000 0.00000000 0.00000000 0.00000000
Neuron 1134 3 0.12500000 1 1.00000000 0.00000000 0.00000000 0.00000000
Neuron 1147 3 0.50000000 1 1.00000000 0.00000000 0.00000000 0.00000000
Neuron 1180 3 0.65625000 1 1.00000000 0.00000000 0.00000000 0.00000000
Neuron 1292 3 0.50000000 1 1.00000000 0.00000000 0.00000000 0.00000000
Link 1 10 1 0 1.35998389
Link 2 10 2 0 0.92204251
Link 3 10 3 0 0.76924437
Link 4 10 4 0 -0.78194902
Link 5 10 5 0 -0.61016230
Link 6 10 6 0 -1.71517987
Link 7 10 7 0 0.15028012
Link 8 10 8 0 -2.34310201
Link 9 10 9 0 -0.96662317
Link 1 11 10 0 1.68815850
Link 2 11 11 0 -2.14882799
Link 3 11 12 0 1.47480353
Link 4 11 13 0 0.41353745
Link 5 11 14 0 0.79033317
Link 6 11 15 0 0.52713374
Link 7 11 16 0 2.51957432
Link 8 11 17 0 -1.04062102
Link 9 11 18 0 0.94402352
Link 1 12 19 0 -0.66075405
Link 2 12 20 0 -2.36580220
Link 3 12 21 0 -2.60751166
Link 4 12 22 0 1.59423380
Link 5 12 23 0 0.44079733
Link 6 12 24 0 -0.24401069
Link 7 12 25 0 0.75099285
Link 9 12 27 0 -0.94070048
Link 1 13 28 0 2.59523002
Link 2 13 29 0 -0.14876572
Link 3 13 30 0 1.42379766
Link 4 13 31 0 -0.59580702
Link 5 13 32 0 0.12630638
Link 6 13 33 0 0.09489062
Link 7 13 34 0 -0.89315730
Link 8 13 35 0 0.82299920
Link 9 13 36 0 0.67959080
Link 1 14 37 0 0.99540605
Link 2 14 38 0 -1.33067637
Link 3 14 39 0 -0.28123959
Link 4 14 40 0 0.32644469
Link 5 14 41 0 -0.62631518
Link 6 14 42 0 -0.60567012
Link 8 14 44 0 0.82978108
Link 9 14 45 0 -0.48448462
Link 1 15 46 0 0.78956235
Link 2 15 47 0 0.21197483
Link 3 15 48 0 -0.54916837
Link 4 15 49 0 -0.20745065
Link 5 15 50 0 0.52218113
Link 6 15 51 0 -1.50670979
Link 7 15 52 0 0.14345782
Link 8 15 53 0 0.07257636
Link 9 15 54 0 -0.53159497
Link 1 16 55 0 0.12490338
Link 2 16 56 0 -0.83972324
Link 3 16 57 0 0.06549065
Link 4 16 58 0 -0.93851510
Link 5 16 59 0 0.11286429
Link 6 16 60 0 0.68394881
Link 7 16 61 0 2.25772433
Link 8 16 62 0 0.09998668
Link 9 16 63 0 -1.05236980
Link 2 17 66 0 0.87094207
Link 17 13 67 0 0.31500046
Link 2 18 69 0 1.76016043
Link 18 10 70 0 0.49596114
Link 5 21 78 0 1.37106173
Link 21 12 79 0 -0.99841799
Link 7 22 81 0 -1.54483482
Link 22 14 82 0 0.06290925
Link 3 23 84 0 0.81405310
Link 23 11 85 0 -1.37204596
Link 3 25 90 0 1.71884696
Link 25 14 91 0 -0.52905688
Link 4 26 93 0 0.29468376
Link 26 11 94 0 -1.19780509
Link 4 27 96 0 0.00618764
Link 27 10 97 0 0.35330498
Link 6 28 99 0 -1.05640146
Link 28 16 100 0 0.98401322
Link 8 29 102 0 1.05383975
Link 29 15 103 0 1.34692158
Link 6 30 105 0 1.36392475
Link 30 12 106 0 -0.04276338
Link 6 31 108 0 2.33345054
Link 31 14 109 0 -3.46793923
Link 2 32 111 0 0.56694887
Link 32 11 112 0 0.69597473
Link 1 33 114 0 0.52745623
Link 33 15 115 0 -0.86780186
Link 2 34 117 0 1.63885510
Link 34 14 118 0 -1.87458758
Link 5 35 120 0 0.67251842
Link 35 14 121 0 1.13943338
Link 5 36 123 0 -0.37030037
Link 36 15 124 0 -0.01519337
Link 5 37 127 0 1.24435852
Link 37 10 128 0 -4.04299072
Link 2 38 130 0 -0.32203652
Link 4 40 136 0 0.38685511
Link 40 14 137 0 2.59417868
Link 4 41 139 0 2.04034945
Link 7 42 142 0 -1.65058562
Link 42 10 143 0 -4.04722618
Link 10 10 145 1 0.29639151
Link 3 43 147 0 -1.01923143
Link 43 10 148 0 0.82784273
Link 3 44 150 0 1.21162595
Link 44 12 151 0 1.43455124
Link 1 45 153 0 -0.88258508
Link 45 12 154 0 -1.52698266
Link 46 16 159 0 -1.50863082
Link 1 47 166 0 0.70296045
Link 47 13 167 0 -0.41056531
Link 48 11 172 0 -1.10052137
Link 7 49 176 0 -1.23274239
Link 3 50 180 0 2.51644296
Link 50 13 181 0 1.48777255
Link 1 51 183 0 2.49585942
Link 51 10 184 0 1.24312960
Link 6 53 189 0 3.60343073
Link 53 13 190 0 -1.29644517
Link 3 54 193 0 -0.31996223
Link 54 15 194 0 -0.75048199
Link 40 11 196 0 -1.35166751
Link 12 12 199 1 3.08650926
Link 7 40 200 0 1.70726735
Link 8 55 202 0 2.21595363
Link 55 12 203 0 1.51519343
Link 16 16 205 1 -3.14286560
Link 9 36 206 0 0.34255314
Link 6 56 211 0 1.67382597
Link 56 10 212 0 0.62790557
Link 4 57 221 0 0.37082652
Link 57 15 222 0 -0.91339622
Link 5 58 228 0 1.35176224
Link 5 59 231 0 0.20799301
Link 59 13 232 0 1.31937387
Link 1 62 242 0 -1.30556783
Link 62 16 243 0 3.11292743
Link 1 63 246 0 -2.59927239
Link 63 14 247 0 0.70712387
Link 40 16 249 0 1.93943019
Link 43 64 253 0 -0.59701648
Link 64 10 254 0 0.68875140
Link 7 65 256 0 2.23311417
Link 5 66 262 0 0.00052697
Link 66 16 263 0 0.74459061
Link 7 67 265 0 -0.59180369
Link 67 12 266 0 -0.43937699
Link 3 70 282 0 -0.80526374
Link 70 16 283 0 -0.95399729
Link 9 42 294 0 -5.53187024
Link 1 72 299 0 -1.36507058
Link 72 11 300 0 2.28613819
Link 51 11 309 0 1.50592957
Link 51 15 310 0 -0.01577999
Link 4 74 314 0 0.22785416
Link 74 12 315 0 1.47526342
Link 13 40 320 1 2.01938035
Link 40 75 323 0 1.34431361
Link 10 36 339 1 3.80128156
Link 6 78 348 0 -0.27674431
Link 78 15 349 0 2.96800810
Link 80 15 383 0 -1.35651305
Link 1 44 386 0 2.34466164
Link 36 83 409 0 3.39512013
Link 83 15 410 0 -1.57781802
Link 84 14 420 0 0.46871511
Link 11 66 449 1 0.07226877
Link 1 88 452 0 1.21966490
Link 88 45 453 0 -1.88333022
Link 2 41 478 0 -0.34629354
Link 46 90 485 0 -0.40889939
Link 90 16 486 0 -0.82698517
Link 13 67 487 1 0.58840753
Link 91 14 490 0 0.52430821
Link 8 45 492 0 -0.60494019
Link 44 93 497 0 1.66643089
Link 93 12 498 0 2.32615510
Link 6 59 545 0 0.09740302
Link 4 22 546 0 5.37231687
Link 98 44 552 0 0.62501145
Link 11 55 553 1 0.78084008
Link 46 55 554 0 0.52388494
Link 75 99 557 0 -0.15131422
Link 99 80 558 0 3.09498004
Link 11 67 565 1 1.33762179
Link 14 51 571 1 2.67146644
Link 5 63 596 0 -3.56171469
Link 3 103 599 0 0.58646612
Link 72 45 631 0 -0.21898135
Link 28 11 633 0 1.59501036
Link 36 74 644 0 0.04379201
Link 41 14 648 0 -1.72674514
Link 47 112 666 0 -1.28344634
Link 35 116 707 0 1.51008004
Link 116 14 708 0 -2.01520684
Link 16 50 735 1 0.44578926
Link 7 119 747 0 -0.49425305
Link 119 67 748 0 1.66516479
Link 112 123 776 0 1.85471054
Link 123 57 777 0 3.27291488
Link 30 125 804 0 0.53896824
Link 125 12 805 0 2.01900022
Link 50 31 806 0 0.31662040
Link 58 130 828 0 1.24244579
Link 132 13 840 0 1.06739532
Link 44 44 841 1 -0.15813543
Link 28 13 849 0 2.40034997
Link 40 135 864 0 0.35211250
Link 135 11 865 0 -0.06323367
Link 6 137 872 0 2.48970574
Link 137 31 873 0 4.06639217
Link 45 141 889 0 3.36550362
Link 141 12 890 0 -1.69698878
Link 13 45 892 1 4.41629963
Link 47 142 898 0 0.46279773
Link 40 143 909 0 1.09864612
Link 143 91 910 0 1.50504283
Link 45 83 923 0 2.49976470
Link 99 12 928 0 -1.87690663
Link 2 147 939 0 1.53818192
Link 147 17 940 0 1.74389429
Link 148 14 949 0 0.87967062
Link 65 150 956 0 3.12485681
Link 151 44 966 0 2.66455754
Link 74 152 973 0 -0.27460592
Link 152 12 974 0 2.49364520
Link 130 15 986 0 1.14053126
Link 13 154 995 1 -1.83815083
Link 154 67 996 1 0.76336019
Link 6 157 1013 0 1.23620650
Link 157 42 1014 0 -0.49753583
Link 41 158 1017 0 1.58235024
Link 5 162 1046 0 1.16414012
Link 162 59 1047 0 1.81455023
Link 166 16 1068 0 -0.02919476
Link 22 158 1070 0 0.77216457
Link 15 40 1082 1 -0.85450534
Link 11 169 1093 1 1.87821423
Link 169 67 1094 1 0.57468971
Link 59 158 1095 0 -0.71310027
Link 16 170 1100 1 -0.98788145
Link 170 31 1101 1 0.47845199
Link 72 174 1121 0 0.16226399
Link 174 11 1122 0 0.91162112
Link 180 45 1153 0 2.50400167
Link 181 10 1157 0 0.36172261
Link 186 91 1189 0 0.92603636
Link 15 188 1195 1 1.67665888
Link 188 40 1196 1 0.39424619
Link 195 13 1234 0 -0.01566271
Link 83 196 1252 0 -2.46341727
Link 196 15 1253 0 2.75916139
Link 7 198 1264 0 0.27634367
Link 198 12 1265 0 1.70327047
Link 49 203 1298 0 1.06837395
Link 203 11 1299 0 -0.75817231
Link 204 28 1310 0 2.23524242
Link 130 205 1316 0 0.71843257
Link 205 11 1317 0 1.92252457
Link 3 206 1326 0 0.30920426
Link 54 207 1333 0 0.25261169
Link 207 15 1334 0 2.19068578
Link 58 210 1360 0 -0.72295569
Link 210 130 1361 0 -0.42847096
Link 13 33 1363 1 -0.08544675
Link 2 213 1390 0 1.81000841
Link 213 147 1391 0 0.21426853
Link 44 11 1396 0 -3.09146929
Link 7 216 1409 0 0.55567275
Link 216 22 1410 0 -1.57246263
Link 8 218 1418 0 0.89739271
Link 218 48 1419 0 0.98713893
Link 8 223 1451 0 1.12427478
Link 223 11 1452 0 -0.50651489
Link 1 228 1476 0 1.02768555
Link 7 236 1532 0 1.00458967
Link 236 73 1533 0 -1.33246935
Link 238 13 1553 0 0.05923284
Link 22 241 1569 0 0.80580434
Link 73 11 1597 0 3.95563456
Link 14 243 1599 1 -1.09211560
Link 243 51 1600 1 -2.57310901
Link 80 247 1625 0 0.64673613
Link 247 14 1626 0 -1.49947704
Link 14 22 1668 1 -1.29114867
Link 45 63 1669 0 2.36903930
Link 151 253 1683 1 -0.30790932
Link 253 44 1684 1 -0.57786660
Link 4 261 1732 0 0.27844929
Link 261 14 1733 0 -0.61763044
Link 44 262 1737 1 1.87916345
Link 40 205 1761 0 2.59679779
Link 5 267 1768 0 0.67113613
Link 267 11 1769 0 2.91549057
Link 40 130 1777 0 -2.80653351
Link 38 269 1799 0 0.52327341
Link 269 89 1800 0 1.12068932
Link 31 51 1808 0 0.19087965
Link 6 271 1816 0 2.65047661
Link 271 14 1817 0 -1.49242659
Link 21 21 1833 1 -2.04799398
Link 9 28 1845 0 0.44268041
Link 238 15 1862 0 0.35140572
Link 262 67 1876 0 -1.24137184
Link 53 12 1912 0 3.20071752
Link 73 291 1948 0 0.73811584
Link 291 16 1949 0 0.09155515
Link 6 294 1959 0 -3.97559210
Link 4 295 1967 0 -0.04623173
Link 10 280 1978 1 3.92993002
Link 47 299 2003 0 1.90974426
Link 299 132 2004 0 0.42724318
Link 44 67 2008 0 -0.15801519
Link 30 83 2012 0 -0.52158343
Link 5 28 2014 0 -2.95449194
Link 40 301 2023 0 1.26469049
Link 301 143 2024 0 1.73357545
Link 308 238 2075 0 1.71457998
Link 13 280 2087 1 -1.65173259
Link 34 74 2133 0 3.27707872
Link 54 55 2168 0 -3.14157876
Link 7 322 2180 0 -0.33671613
Link 322 198 2181 0 0.49025581
Link 150 162 2195 1 -2.76020316
Link 30 328 2215 0 0.22686528
Link 328 72 2216 0 -0.08800317
Link 1 330 2223 0 0.71317384
Link 330 10 2224 0 0.47580569
Link 4 337 2256 0 0.47386829
Link 8 345 2301 0 0.77085489
Link 345 12 2302 0 1.21675310
Link 1 348 2325 0 0.15654558
Link 348 55 2326 0 -4.52707175
Link 188 349 2328 1 2.38311464
Link 349 50 2329 1 0.50770982
Link 9 50 2330 0 2.63341267
Link 28 351 2339 0 0.58159014
Link 351 166 2340 0 1.55058365
Link 295 70 2358 0 -0.26213535
Link 337 355 2371 0 -0.42396632
Link 15 89 2406 1 -5.87244765
Link 9 170 2520 0 -1.05248377
Link 6 377 2528 0 -1.02729872
Link 377 271 2529 0 -0.33026188
Link 295 378 2531 0 1.09295856
Link 378 46 2532 0 0.28045494
Link 280 380 2558 0 1.11901020
Link 380 13 2559 0 0.59352552
Link 195 51 2585 0 -2.03358024
Link 31 387 2623 0 0.92122131
Link 387 84 2624 0 3.13490463
Link 158 389 2633 0 3.80593842
Link 389 280 2634 0 0.18553264
Link 40 394 2678 0 1.10014506
Link 394 14 2679 0 -3.69173330
Link 13 398 2712 1 0.49131513
Link 398 47 2713 1 2.58068533
Link 6 399 2716 0 2.19772124
Link 399 31 2717 0 -2.46889350
Link 132 75 2725 0 1.12362445
Link 238 57 2726 1 0.80723961
Link 15 403 2741 1 0.98463012
Link 403 253 2742 1 -0.40997778
Link 355 404 2748 0 0.80294573
Link 404 74 2749 0 -4.49355781
Link 241 150 2752 0 1.69642186
Link 207 405 2755 0 1.34961790
Link 405 15 2756 0 0.09920958
Link 2 406 2765 0 0.57906068
Link 406 195 2766 0 1.32052395
Link 151 407 2769 1 0.95687956
Link 407 253 2770 1 0.18830503
Link 2 409 2782 0 0.98269761
Link 409 17 2783 0 2.56073729
Link 11 73 2806 1 -1.06536518
Link 123 413 2825 0 1.71534776
Link 413 57 2826 0 -0.78209224
Link 67 48 2843 0 0.54859185
Link 17 63 2888 0 2.94290922
Link 4 188 2908 0 2.97972996
Link 7 428 2925 0 1.21868627
Link 428 14 2926 0 -2.67921325
Link 241 430 2936 0 1.54511843
Link 430 59 2937 0 -2.22518712
Link 10 337 2945 1 -1.44198278
Link 17 188 2948 0 0.66312096
Link 162 14 3023 0 -0.84182435
Link 22 41 3086 0 1.41969660
Link 21 152 3104 0 -3.95789574
Link 89 458 3117 0 -1.32370959
Link 458 12 3118 0 1.35100919
Link 31 459 3120 0 1.09750739
Link 459 54 3121 0 -2.42894074
Link 51 404 3128 1 1.08540309
Link 58 55 3131 0 -1.85368730
Link 348 460 3134 0 2.48991073
Link 337 21 3153 0 -1.21410656
Link 63 48 3158 0 -0.23325243
Link 38 253 3163 0 1.09089178
Link 150 463 3168 0 1.94048412
Link 463 308 3169 0 0.91671301
Link 162 466 3187 0 0.81766848
Link 466 380 3188 0 0.08029226
Link 63 280 3253 0 -0.17498774
Link 294 44 3278 0 0.47567081
Link 477 399 3299 0 0.97252652
Link 5 480 3316 0 1.31310569
Link 162 348 3368 0 3.28385674
Link 420 490 3391 0 -5.01412244
Link 490 13 3392 0 -0.48994690
Link 4 150 3393 0 -0.28876442
Link 280 430 3519 1 -0.75575146
Link 42 510 3526 0 -0.39852370
Link 510 299 3527 0 0.84442791
Link 207 420 3543 0 0.06394256
Link 65 238 3568 0 -1.30163789
Link 73 130 3630 0 1.06101897
Link 8 521 3660 0 0.37115882
Link 521 267 3661 0 -1.44775819
Link 391 531 3732 0 0.80337545
Link 531 55 3733 0 -4.10149065
Link 294 533 3755 0 -2.19296755
Link 40 542 3794 0 -0.89646048
Link 542 91 3795 0 3.29820196
Link 40 112 3859 0 -4.44922196
Link 351 47 3864 1 0.92698216
Link 162 430 3900 0 4.19088916
Link 37 552 3905 0 0.16562041
Link 552 181 3906 0 0.25817231
Link 295 132 3914 0 0.70701470
Link 40 559 3962 0 -2.46272831
Link 63 91 3964 0 2.82235109
Link 12 37 4040 1 0.04865263
Link 17 99 4044 0 1.22093564
Link 152 23 4047 1 -1.42495528
Link 73 44 4062 0 -2.06335608
Link 577 40 4077 0 -0.76050633
Link 5 119 4131 0 1.74193816
Link 294 16 4183 0 0.73103651
Link 46 34 4251 0 -0.39464711
Link 4 73 4252 0 -1.21323695
Link 147 143 4300 0 0.87103376
Link 5 151 4319 0 1.00003256
Link 152 610 4328 0 1.15191257
Link 610 12 4329 0 1.79719630
Link 337 13 4363 0 -0.45631486
Link 67 74 4372 0 0.25297103
Link 622 391 4432 0 2.34678866
Link 394 634 4538 1 1.91749873
Link 634 47 4539 1 0.28677057
Link 337 12 4566 0 0.47398706
Link 294 74 4569 0 -0.02375525
Link 58 80 4656 0 0.33156155
Link 337 262 4699 0 1.18310953
Link 542 652 4712 0 1.39263467
Link 652 91 4713 0 0.89363767
Link 27 74 4743 0 3.24489695
Link 420 84 4757 1 1.51889198
Link 40 657 4761 0 0.10043229
Link 657 301 4762 0 -2.53234277
Link 337 16 4809 0 0.71671760
Link 3 663 4818 0 1.55326423
Link 663 98 4819 0 0.02150064
Link 460 665 4835 0 0.55420688
Link 665 622 4836 0 0.82257233
Link 4 280 4847 0 0.51508540
Link 262 667 4862 1 1.02104784
Link 667 151 4863 1 -1.23527338
Link 216 669 4900 0 1.33723810
Link 74 57 4953 0 -0.63055864
Link 533 135 4977 0 1.90897886
Link 142 682 5021 0 0.34547109
Link 2 162 5041 0 -0.59176249
Link 59 43 5068 0 2.79668298
Link 43 31 5100 0 -0.76224823
Link 70 301 5163 0 -4.04245256
Link 74 391 5176 1 0.84062692
Link 7 709 5245 0 0.64595203
Link 709 577 5246 0 1.34202479
Link 17 50 5256 0 0.02029333
Link 21 710 5275 0 1.89872585
Link 710 154 5276 0 -0.14953589
Link 228 721 5357 0 -0.15031384
Link 721 88 5358 0 3.50918609
Link 7 730 5439 0 -1.19731565
Link 730 210 5440 0 3.47627197
Link 337 710 5446 0 -0.26182647
Link 143 735 5487 0 0.94547114
Link 735 186 5488 0 2.49611501
Link 103 749 5604 0 0.90285901
Link 749 70 5605 0 0.28758303
Link 294 72 5666 0 2.44775127
Link 147 57 5700 0 -1.61217428
Link 459 762 5738 0 0.93350742
Link 762 54 5739 0 -2.44879402
Link 533 767 5783 0 -0.41380170
Link 767 12 5784 0 1.91992660
Link 70 769 5796 0 3.08279043
Link 91 58 5806 1 2.02061964
Link 294 15 5823 0 -4.15174763
Link 63 777 5859 0 1.17752769
Link 777 148 5860 0 -0.17035050
Link 47 84 5900 0 -1.73709162
Link 47 170 5907 0 0.19231497
Link 7 123 5909 0 1.34650090
Link 116 785 5925 0 1.36998762
Link 785 14 5926 0 -0.17948795
Link 480 794 6002 0 0.95301775
Link 794 12 6003 0 -0.64371737
Link 4 796 6027 0 0.87784464
Link 796 207 6028 0 4.68772868
Link 533 799 6050 1 1.07284666
Link 799 204 6051 1 0.81091369
Link 78 805 6079 0 0.94333839
Link 805 12 6080 0 -1.74823201
Link 769 808 6115 0 0.72662864
Link 808 301 6116 0 -5.12487401
Link 394 814 6196 1 0.26763636
Link 814 301 6197 1 -0.73843200
Link 18 271 6209 0 -2.63859026
Link 730 355 6323 0 4.42577819
Link 29 241 6343 0 1.57552627
Link 7 833 6380 0 1.07358851
Link 833 14 6381 0 0.78504566
Link 66 198 6415 0 -1.98665318
Link 206 840 6419 0 0.92874181
Link 840 12 6420 0 -1.00240959
Link 669 852 6520 0 1.13695926
Link 852 207 6521 0 2.80619689
Link 253 404 7309 1 1.23034805
Link 351 280 7352 0 -0.57736987
Link 119 657 7581 0 -1.49929705
Link 387 47 7812 1 1.31420495
Link 154 533 7821 0 1.69267396
Link 407 407 7993 1 -1.84006720
Link 40 66 8257 0 0.21613803
Link 682 1070 8525 0 1.11150106
Link 1070 112 8526 0 -3.04847345
Link 394 58 8570 1 -1.08381302
Link 169 238 8594 0 -0.65555194
Link 40 1075 8604 0 1.05105306
Link 1075 91 8605 0 1.32616018
Link 73 116 8623 0 2.12384076
Link 57 533 8797 0 -4.01631361
Link 216 43 8908 0 0.58187490
Link 6 1130 9100 0 0.99540024
Link 1130 477 9101 0 -2.82957273
Link 6 1134 9141 0 1.66499698
Link 1134 204 9142 0 -1.65028324
Link 30 299 9150 0 0.21657960
Link 280 29 9197 1 0.15911331
Link 36 166 9235 0 -5.07429286
Link 51 1147 9278 0 0.86800279
Link 1147 180 9279 0 0.97077196
Link 36 657 9291 0 -1.70281734
Link 840 65 9438 1 -0.42510885
Link 377 57 9525 0 2.32517480
Link 652 152 9582 0 -1.03380210
Link 143 1180 9591 0 1.00000000
Link 1180 186 9592 0 0.96541758
Link 15 119 9916 1 -0.18311878
Link 480 299 10155 0 -0.12926357
Link 213 355 10187 0 0.40984892
Link 83 207 10360 0 0.28662425
Link 833 10 10460 0 0.15795425
Link 35 32 10477 0 2.15672383
Link 559 1292 10696 0 0.94033207
Link 1292 30 10697 0 -3.12664156
Link 21 805 10720 0 3.50640328
Link 533 22 10890 1 -2.15754162
Link 238 83 10997 1 -0.97798207
Link 1134 38 11008 0 0.31111837
Link 480 852 11275 0 -0.25475192
Link 66 99 11448 0 2.00512974
GenomeEnd

