GenomeStart 43592
Neuron 1 1 0.00000000 1 0.00000000 0.00000000 0.00000000 0.00000000
Neuron 2 1 0.00000000 1 0.00000000 0.00000000 0.00000000 0.00000000
Neuron 3 1 0.00000000 1 0.00000000 0.00000000 0.00000000 0.00000000
Neuron 4 1 0.00000000 1 0.00000000 0.00000000 0.00000000 0.00000000
Neuron 5 1 0.00000000 1 0.00000000 0.00000000 0.00000000 0.00000000
Neuron 6 1 0.00000000 1 0.00000000 0.00000000 0.00000000 0.00000000
Neuron 7 1 0.00000000 1 0.00000000 0.00000000 0.00000000 0.00000000
Neuron 8 1 0.00000000 1 0.00000000 0.00000000 0.00000000 0.00000000
Neuron 9 2 0.00000000 1 0.00000000 0.00000000 0.00000000 0.00000000
Neuron 10 4 1.00000000 0 1.00000000 0.00000000 0.00000000 0.00000000
Neuron 11 4 1.00000000 0 1.00000000 0.00000000 0.00000000 0.00000000
Neuron 12 4 1.00000000 0 1.00000000 0.00000000 0.00000000 0.00000000
Neuron 13 4 1.00000000 0 1.00000000 0.00000000 0.00000000 0.00000000
Neuron 14 4 1.00000000 0 1.00000000 0.00000000 0.00000000 0.00000000
Neuron 15 4 1.00000000 0 1.00000000 0.00000000 0.00000000 0.00000000
Neuron 16 4 1.00000000 0 1.00000000 0.00000000 0.00000000 0.00000000
Neuron 18 3 0.50000000 1 1.00000000 0.00000000 0.00000000 0.00000000
Neuron 20 3 0.50000000 1 1.00000000 0.00000000 0.00000000 0.00000000
Neuron 22 3 0.50000000 1 1.00000000 0.00000000 0.00000000 0.00000000
Neuron 23 3 0.50000000 1 1.00000000 0.00000000 0.00000000 0.00000000
Neuron 41 3 0.50000000 1 1.00000000 0.00000000 0.00000000 0.00000000
Neuron 42 3 0.50000000 1 1.00000000 0.00000000 0.00000000 0.00000000
Neuron 43 3 0.50000000 1 1.00000000 0.00000000 0.00000000 0.00000000
Neuron 45 3 0.50000000 1 1.00000000 0.00000000 0.00000000 0.00000000
Neuron 47 3 0.50000000 1 1.00000000 0.00000000 0.00000000 0.00000000
Neuron 48 3 0.50000000 1 1.00000000 0.00000000 0.00000000 0.00000000
Neuron 51 3 0.50000000 1 1.00000000 0.00000000 0.00000000 0.00000000
Neuron 53 3 0.75000000 1 1.00000000 0.00000000 0.00000000 0.00000000
Neuron 54 3 0.50000000 1 1.00000000 0.00000000 0.00000000 0.00000000
Neuron 58 3 0.50000000 1 1.00000000 0.00000000 0.00000000 0.00000000
Neuron 61 3 0.50000000 1 1.00000000 0.00000000 0.00000000 0.00000000
Neuron 70 3 0.50000000 1 1.00000000 0.00000000 0.00000000 0.00000000
Neuron 74 3 0.50000000 1 1.00000000 0.00000000 0.00000000 0.00000000
Neuron 75 3 0.50000000 1 1.00000000 0.00000000 0.00000000 0.00000000
Neuron 96 3 0.50000000 1 1.00000000 0.00000000 0.00000000 0.00000000
Neuron 128 3 0.25000000 1 1.00000000 0.00000000 0.00000000 0.00000000
Neuron 129 3 0.75000000 1 1.00000000 0.00000000 0.00000000 0.00000000
Neuron 137 3 0.25000000 1 1.00000000 0.00000000 0.00000000 0.00000000
Neuron 153 3 0.75000000 1 1.00000000 0.00000000 0.00000000 0.00000000
Neuron 154 3 0.25000000 1 1.00000000 0.00000000 0.00000000 0.00000000
Neuron 190 3 0.25000000 1 1.00000000 0.00000000 0.00000000 0.00000000
Neuron 195 3 0.75000000 1 1.00000000 0.00000000 0.00000000 0.00000000
Neuron 199 3 0.25000000 1 1.00000000 0.00000000 0.00000000 0.00000000
Neuron 206 3 0.25000000 1 1.00000000 0.00000000 0.00000000 0.00000000
Neuron 211 3 0.37500000 1 1.00000000 0.00000000 0.00000000 0.00000000
Neuron 222 3 0.25000000 1 1.00000000 0.00000000 0.00000000 0.00000000
Neuron 232 3 0.75000000 1 1.00000000 0.00000000 0.00000000 0.00000000
Neuron 238 3 1.00000000 1 1.00000000 0.00000000 0.00000000 0.00000000
Neuron 249 3 1.00000000 1 1.00000000 0.00000000 0.00000000 0.00000000
Neuron 396 3 0.75000000 1 1.00000000 0.00000000 0.00000000 0.00000000
Neuron 403 3 0.37500000 1 1.00000000 0.00000000 0.00000000 0.00000000
Neuron 416 3 0.12500000 1 1.00000000 0.00000000 0.00000000 0.00000000
Neuron 450 3 0.87500000 1 1.00000000 0.00000000 0.00000000 0.00000000
Neuron 464 3 0.87500000 1 1.00000000 0.00000000 0.00000000 0.00000000
Neuron 482 3 0.62500000 1 1.00000000 0.00000000 0.00000000 0.00000000
Neuron 490 3 0.87500000 1 1.00000000 0.00000000 0.00000000 0.00000000
Neuron 505 3 0.12500000 1 1.00000000 0.00000000 0.00000000 0.00000000
Neuron 510 3 0.18750000 1 1.00000000 0.00000000 0.00000000 0.00000000
Neuron 533 3 0.50000000 1 1.00000000 0.00000000 0.00000000 0.00000000
Neuron 597 3 0.37500000 1 1.00000000 0.00000000 0.00000000 0.00000000
Neuron 604 3 0.93750000 1 1.00000000 0.00000000 0.00000000 0.00000000
Neuron 630 3 0.75000000 1 1.00000000 0.00000000 0.00000000 0.00000000
Neuron 632 3 0.87500000 1 1.00000000 0.00000000 0.00000000 0.00000000
Neuron 638 3 0.75000000 1 1.00000000 0.00000000 0.00000000 0.00000000
Neuron 648 3 0.25000000 1 1.00000000 0.00000000 0.00000000 0.00000000
Neuron 674 3 0.25000000 1 1.00000000 0.00000000 0.00000000 0.00000000
Neuron 676 3 0.25000000 1 1.00000000 0.00000000 0.00000000 0.00000000
Neuron 749 3 0.93750000 1 1.00000000 0.00000000 0.00000000 0.00000000
Neuron 767 3 0.31250000 1 1.00000000 0.00000000 0.00000000 0.00000000
Neuron 797 3 0.87500000 1 1.00000000 0.00000000 0.00000000 0.00000000
Neuron 910 3 0.37500000 1 1.00000000 0.00000000 0.00000000 0.00000000
Link 1 10 1 0 3.84749653
Link 4 10 4 0 -4.87321248
Link 8 10 8 0 -1.40699343
Link 9 10 9 0 -1.75702860
Link 1 11 10 0 2.11883445
Link 4 11 13 0 1.01274430
Link 5 11 14 0 0.41019879
Link 6 11 15 0 0.54985548
Link 7 11 16 0 0.12633472
Link 8 11 17 0 -1.74400356
Link 9 11 18 0 1.52533170
Link 1 12 19 0 4.23375831
Link 2 12 20 0 0.32402474
Link 3 12 21 0 -2.99554903
Link 9 12 27 0 -1.47786350
Link 1 13 28 0 0.27757637
Link 2 13 29 0 -2.90939392
Link 4 13 31 0 -1.77148160
Link 5 13 32 0 0.42998578
Link 6 13 33 0 2.70915031
Link 8 13 35 0 -1.59819971
Link 1 14 37 0 0.72517856
Link 2 14 38 0 -0.48127550
Link 3 14 39 0 -2.98242032
Link 4 14 40 0 -0.51498587
Link 7 14 43 0 3.72054399
Link 9 14 45 0 -0.54721796
Link 1 15 46 0 -1.87377461
Link 3 15 48 0 1.56424614
Link 4 15 49 0 -0.01758177
Link 5 15 50 0 0.64993037
Link 6 15 51 0 0.42580875
Link 7 15 52 0 0.18596160
Link 8 15 53 0 -2.14393779
Link 9 15 54 0 0.90321385
Link 2 16 56 0 -0.03507650
Link 3 16 57 0 2.92912484
Link 5 16 59 0 0.52814312
Link 6 16 60 0 0.10021766
Link 7 16 61 0 -2.75240627
Link 8 16 62 0 0.22092843
Link 9 16 63 0 0.26676777
Link 18 10 69 0 0.22586148
Link 6 20 74 0 1.80136093
Link 20 12 75 0 1.87312337
Link 2 22 80 0 -0.91574338
Link 22 15 81 0 -1.26252902
Link 23 12 84 0 -2.62655970
Link 3 41 139 0 1.84248224
Link 41 11 140 0 -0.00563972
Link 1 42 142 0 0.22198230
Link 42 16 143 0 1.55991561
Link 3 43 145 0 4.23463884
Link 43 13 146 0 -2.72242450
Link 5 45 151 0 0.86691664
Link 45 14 152 0 -4.01912509
Link 7 47 157 0 3.32221867
Link 47 12 158 0 1.71036044
Link 6 48 161 0 1.19310738
Link 8 51 170 0 0.90640829
Link 51 12 171 0 0.91713034
Link 13 13 177 1 0.06826519
Link 53 10 182 0 1.13803277
Link 5 58 211 0 -1.56667567
Link 58 12 212 0 1.29839424
Link 7 61 225 0 -2.04025286
Link 70 10 286 0 -1.80653265
Link 74 14 321 0 0.89668661
Link 75 14 324 0 0.00400089
Link 2 47 388 0 2.59701545
Link 9 45 452 0 2.65787032
Link 3 96 494 0 -0.29710400
Link 96 10 495 0 1.47569727
Link 9 48 538 0 -3.06062121
Link 61 129 806 0 1.28268041
Link 129 13 807 0 2.13254832
Link 4 137 886 0 -0.34752584
Link 7 137 910 0 -1.55297892
Link 14 45 994 1 2.49709930
Link 54 153 1039 0 0.72164228
Link 154 75 1044 0 1.25715929
Link 7 153 1238 0 1.58491576
Link 8 190 1285 0 2.53535013
Link 190 74 1286 0 -3.32264978
Link 195 48 1330 1 -1.50654270
Link 4 199 1346 0 1.00000000
Link 199 23 1347 0 1.24777327
Link 2 206 1390 0 1.56652176
Link 206 18 1391 0 4.59775622
Link 137 211 1429 0 2.56309808
Link 211 54 1430 0 -0.04748199
Link 5 222 1505 0 1.72429243
Link 222 48 1506 0 1.00898329
Link 48 232 1564 0 -1.72189021
Link 232 11 1565 0 -0.47440684
Link 238 11 1604 1 -1.44239950
Link 48 153 1614 0 -1.36928390
Link 2 74 1664 0 3.81046323
Link 11 249 1710 1 0.52455637
Link 249 238 1711 1 2.37195191
Link 18 48 1739 0 2.27269076
Link 61 18 2130 0 5.96110745
Link 232 48 2285 1 2.19137854
Link 54 15 2512 0 0.90302583
Link 15 396 2701 1 1.30088381
Link 396 54 2702 1 -0.97778766
Link 128 403 2756 0 1.28276817
Link 403 48 2757 0 2.94228216
Link 6 74 2774 0 -2.16333942
Link 4 416 2846 0 -0.03802994
Link 13 232 2873 1 -1.74076342
Link 153 450 3080 0 2.66886162
Link 14 43 3327 1 0.97653476
Link 48 482 3405 0 1.00000000
Link 482 53 3406 0 0.12475044
Link 15 490 3466 1 0.83098519
Link 490 195 3467 1 3.56198942
Link 6 505 3606 0 0.33367654
Link 505 154 3607 0 1.89776063
Link 416 510 3639 0 0.24985911
Link 510 128 3640 0 1.11973284
Link 238 53 3641 1 -0.21132767
Link 58 43 3680 0 1.66661903
Link 16 58 3886 1 0.28019684
Link 232 464 4042 0 -2.25865837
Link 9 416 4124 0 -2.53856587
Link 42 43 4341 0 1.30880304
Link 8 597 4347 0 1.02348276
Link 597 53 4348 0 -2.26687421
Link 450 604 4408 0 0.59373884
Link 604 16 4409 0 -1.40012939
Link 403 18 4539 0 2.74245051
Link 211 450 4595 0 4.24706642
Link 74 630 4621 0 0.13620765
Link 630 13 4622 0 1.68158503
Link 464 632 4643 1 0.91741774
Link 632 464 4644 1 2.02551751
Link 533 638 4680 0 -0.88088367
Link 638 238 4681 0 0.61297767
Link 2 648 4750 0 -2.15485455
Link 648 533 4751 0 1.77517887
Link 638 75 4806 1 -0.15708080
Link 4 674 4928 0 2.23484574
Link 674 42 4929 0 -1.94461982
Link 211 676 4945 1 0.70410928
Link 676 505 4946 1 1.92847109
Link 638 70 5379 1 4.16886863
Link 6 53 5401 0 0.72267387
Link 464 749 5511 0 0.50446715
Link 749 14 5512 0 -2.80897262
Link 505 767 5666 0 3.37448422
Link 767 61 5667 0 2.91111444
Link 22 47 5788 0 0.64685334
Link 232 797 5855 0 0.43597216
Link 797 13 5856 0 3.72624219
Link 47 597 6065 1 0.78903538
Link 18 51 6340 0 1.28065359
Link 45 53 6396 0 -0.36723669
Link 416 153 6629 0 -2.02139724
Link 54 232 6649 0 1.94167876
Link 128 910 6723 0 0.79487663
Link 910 47 6724 0 -0.43599020
Link 154 195 6859 0 0.46985448
GenomeEnd

