GenomeStart 10596
Neuron 1 1 0.00000000 1 0.00000000 0.00000000 0.00000000 0.00000000
Neuron 2 1 0.00000000 1 0.00000000 0.00000000 0.00000000 0.00000000
Neuron 3 1 0.00000000 1 0.00000000 0.00000000 0.00000000 0.00000000
Neuron 4 1 0.00000000 1 0.00000000 0.00000000 0.00000000 0.00000000
Neuron 5 1 0.00000000 1 0.00000000 0.00000000 0.00000000 0.00000000
Neuron 6 1 0.00000000 1 0.00000000 0.00000000 0.00000000 0.00000000
Neuron 7 1 0.00000000 1 0.00000000 0.00000000 0.00000000 0.00000000
Neuron 8 1 0.00000000 1 0.00000000 0.00000000 0.00000000 0.00000000
Neuron 9 2 0.00000000 1 0.00000000 0.00000000 0.00000000 0.00000000
Neuron 10 4 1.00000000 0 1.00000000 0.00000000 0.00000000 0.00000000
Neuron 11 4 1.00000000 0 1.00000000 0.00000000 0.00000000 0.00000000
Neuron 12 4 1.00000000 0 1.00000000 0.00000000 0.00000000 0.00000000
Neuron 13 4 1.00000000 0 1.00000000 0.00000000 0.00000000 0.00000000
Neuron 14 4 1.00000000 0 1.00000000 0.00000000 0.00000000 0.00000000
Neuron 15 4 1.00000000 0 1.00000000 0.00000000 0.00000000 0.00000000
Neuron 16 4 1.00000000 0 1.00000000 0.00000000 0.00000000 0.00000000
Neuron 18 3 0.50000000 1 1.00000000 0.00000000 0.00000000 0.00000000
Neuron 48 3 0.50000000 1 1.00000000 0.00000000 0.00000000 0.00000000
Neuron 54 3 0.50000000 1 1.00000000 0.00000000 0.00000000 0.00000000
Neuron 74 3 0.50000000 1 1.00000000 0.00000000 0.00000000 0.00000000
Neuron 137 3 0.25000000 1 1.00000000 0.00000000 0.00000000 0.00000000
Neuron 153 3 0.75000000 1 1.00000000 0.00000000 0.00000000 0.00000000
Neuron 195 3 0.75000000 1 1.00000000 0.00000000 0.00000000 0.00000000
Link 1 10 1 0 3.75028012
Link 3 10 3 0 1.17263797
Link 4 10 4 0 -1.50996008
Link 5 10 5 0 0.45610551
Link 8 10 8 0 1.47261434
Link 9 10 9 0 0.17668653
Link 1 11 10 0 1.11619748
Link 3 11 12 0 -2.06344293
Link 4 11 13 0 1.57094944
Link 5 11 14 0 -0.64541390
Link 6 11 15 0 0.58550812
Link 7 11 16 0 -1.29782655
Link 8 11 17 0 -2.27315476
Link 9 11 18 0 0.03778507
Link 1 12 19 0 3.30745501
Link 2 12 20 0 0.19092664
Link 3 12 21 0 -0.11751802
Link 4 12 22 0 -1.22740645
Link 5 12 23 0 -0.86564604
Link 6 12 24 0 1.36816668
Link 7 12 25 0 -0.35066653
Link 8 12 26 0 0.96455540
Link 9 12 27 0 -1.10354551
Link 1 13 28 0 1.54623950
Link 2 13 29 0 -0.95523538
Link 3 13 30 0 3.35969151
Link 4 13 31 0 -0.90014302
Link 5 13 32 0 -1.93668942
Link 6 13 33 0 4.95798231
Link 7 13 34 0 -1.58851947
Link 8 13 35 0 -0.69603171
Link 9 13 36 0 -0.16947570
Link 1 14 37 0 0.96395647
Link 2 14 38 0 0.09165774
Link 3 14 39 0 0.86018374
Link 4 14 40 0 -1.97471855
Link 5 14 41 0 -1.37847043
Link 6 14 42 0 0.16363004
Link 7 14 43 0 -0.62396915
Link 9 14 45 0 1.51761489
Link 1 15 46 0 0.99475116
Link 2 15 47 0 -2.11997517
Link 3 15 48 0 -0.34288897
Link 4 15 49 0 -0.57899049
Link 5 15 50 0 0.31591246
Link 6 15 51 0 0.75135676
Link 7 15 52 0 0.21595418
Link 8 15 53 0 -2.84052487
Link 9 15 54 0 1.65995258
Link 1 16 55 0 1.61663147
Link 2 16 56 0 -0.92557491
Link 3 16 57 0 -0.90878687
Link 5 16 59 0 0.29499751
Link 6 16 60 0 -1.04595532
Link 7 16 61 0 -1.60930341
Link 8 16 62 0 -0.00085308
Link 9 16 63 0 0.33412060
Link 2 18 68 0 1.17697331
Link 18 10 69 0 0.96346394
Link 6 48 161 0 1.40321681
Link 48 10 162 0 0.64515082
Link 5 48 288 0 2.67682317
Link 8 74 320 0 1.00000000
Link 74 14 321 0 -0.45102208
Link 4 48 333 0 1.26699034
Link 9 48 538 0 -1.17926502
Link 4 137 886 0 0.25013933
Link 137 54 887 0 -0.21241175
Link 7 137 910 0 -1.56829406
Link 48 11 977 0 -0.47396222
Link 54 153 1039 0 -1.48869511
Link 153 16 1040 0 -2.67702501
Link 7 153 1238 0 3.62701178
Link 48 16 1265 0 1.33831962
Link 15 195 1329 1 1.00000000
Link 195 48 1330 1 0.84335088
GenomeEnd

