GenomeStart 39420
Neuron 1 1 0.00000000 1 0.00000000 0.00000000 0.00000000 0.00000000
Neuron 2 1 0.00000000 1 0.00000000 0.00000000 0.00000000 0.00000000
Neuron 3 1 0.00000000 1 0.00000000 0.00000000 0.00000000 0.00000000
Neuron 4 1 0.00000000 1 0.00000000 0.00000000 0.00000000 0.00000000
Neuron 5 1 0.00000000 1 0.00000000 0.00000000 0.00000000 0.00000000
Neuron 6 1 0.00000000 1 0.00000000 0.00000000 0.00000000 0.00000000
Neuron 7 1 0.00000000 1 0.00000000 0.00000000 0.00000000 0.00000000
Neuron 8 1 0.00000000 1 0.00000000 0.00000000 0.00000000 0.00000000
Neuron 9 2 0.00000000 1 0.00000000 0.00000000 0.00000000 0.00000000
Neuron 10 4 1.00000000 0 1.00000000 0.00000000 0.00000000 0.00000000
Neuron 11 4 1.00000000 0 1.00000000 0.00000000 0.00000000 0.00000000
Neuron 12 4 1.00000000 0 1.00000000 0.00000000 0.00000000 0.00000000
Neuron 13 4 1.00000000 0 1.00000000 0.00000000 0.00000000 0.00000000
Neuron 14 4 1.00000000 0 1.00000000 0.00000000 0.00000000 0.00000000
Neuron 15 4 1.00000000 0 1.00000000 0.00000000 0.00000000 0.00000000
Neuron 16 4 1.00000000 0 1.00000000 0.00000000 0.00000000 0.00000000
Neuron 18 3 0.50000000 1 1.00000000 0.00000000 0.00000000 0.00000000
Neuron 20 3 0.50000000 1 1.00000000 0.00000000 0.00000000 0.00000000
Neuron 22 3 0.50000000 1 1.00000000 0.00000000 0.00000000 0.00000000
Neuron 23 3 0.50000000 1 1.00000000 0.00000000 0.00000000 0.00000000
Neuron 42 3 0.50000000 1 1.00000000 0.00000000 0.00000000 0.00000000
Neuron 43 3 0.50000000 1 1.00000000 0.00000000 0.00000000 0.00000000
Neuron 45 3 0.50000000 1 1.00000000 0.00000000 0.00000000 0.00000000
Neuron 47 3 0.50000000 1 1.00000000 0.00000000 0.00000000 0.00000000
Neuron 48 3 0.50000000 1 1.00000000 0.00000000 0.00000000 0.00000000
Neuron 51 3 0.50000000 1 1.00000000 0.00000000 0.00000000 0.00000000
Neuron 53 3 0.75000000 1 1.00000000 0.00000000 0.00000000 0.00000000
Neuron 54 3 0.50000000 1 1.00000000 0.00000000 0.00000000 0.00000000
Neuron 58 3 0.50000000 1 1.00000000 0.00000000 0.00000000 0.00000000
Neuron 61 3 0.50000000 1 1.00000000 0.00000000 0.00000000 0.00000000
Neuron 70 3 0.50000000 1 1.00000000 0.00000000 0.00000000 0.00000000
Neuron 74 3 0.50000000 1 1.00000000 0.00000000 0.00000000 0.00000000
Neuron 75 3 0.50000000 1 1.00000000 0.00000000 0.00000000 0.00000000
Neuron 96 3 0.50000000 1 1.00000000 0.00000000 0.00000000 0.00000000
Neuron 128 3 0.25000000 1 1.00000000 0.00000000 0.00000000 0.00000000
Neuron 137 3 0.25000000 1 1.00000000 0.00000000 0.00000000 0.00000000
Neuron 153 3 0.75000000 1 1.00000000 0.00000000 0.00000000 0.00000000
Neuron 154 3 0.25000000 1 1.00000000 0.00000000 0.00000000 0.00000000
Neuron 190 3 0.25000000 1 1.00000000 0.00000000 0.00000000 0.00000000
Neuron 195 3 0.75000000 1 1.00000000 0.00000000 0.00000000 0.00000000
Neuron 206 3 0.25000000 1 1.00000000 0.00000000 0.00000000 0.00000000
Neuron 211 3 0.37500000 1 1.00000000 0.00000000 0.00000000 0.00000000
Neuron 222 3 0.25000000 1 1.00000000 0.00000000 0.00000000 0.00000000
Neuron 232 3 0.75000000 1 1.00000000 0.00000000 0.00000000 0.00000000
Neuron 238 3 1.00000000 1 1.00000000 0.00000000 0.00000000 0.00000000
Neuron 396 3 0.75000000 1 1.00000000 0.00000000 0.00000000 0.00000000
Neuron 403 3 0.37500000 1 1.00000000 0.00000000 0.00000000 0.00000000
Neuron 416 3 0.12500000 1 1.00000000 0.00000000 0.00000000 0.00000000
Neuron 450 3 0.87500000 1 1.00000000 0.00000000 0.00000000 0.00000000
Neuron 464 3 0.87500000 1 1.00000000 0.00000000 0.00000000 0.00000000
Neuron 505 3 0.12500000 1 1.00000000 0.00000000 0.00000000 0.00000000
Neuron 510 3 0.18750000 1 1.00000000 0.00000000 0.00000000 0.00000000
Neuron 533 3 0.50000000 1 1.00000000 0.00000000 0.00000000 0.00000000
Neuron 597 3 0.37500000 1 1.00000000 0.00000000 0.00000000 0.00000000
Neuron 604 3 0.93750000 1 1.00000000 0.00000000 0.00000000 0.00000000
Neuron 630 3 0.75000000 1 1.00000000 0.00000000 0.00000000 0.00000000
Neuron 638 3 0.75000000 1 1.00000000 0.00000000 0.00000000 0.00000000
Neuron 648 3 0.25000000 1 1.00000000 0.00000000 0.00000000 0.00000000
Neuron 674 3 0.25000000 1 1.00000000 0.00000000 0.00000000 0.00000000
Neuron 676 3 0.25000000 1 1.00000000 0.00000000 0.00000000 0.00000000
Neuron 749 3 0.93750000 1 1.00000000 0.00000000 0.00000000 0.00000000
Neuron 767 3 0.31250000 1 1.00000000 0.00000000 0.00000000 0.00000000
Neuron 797 3 0.87500000 1 1.00000000 0.00000000 0.00000000 0.00000000
Link 1 10 1 0 4.48697629
Link 4 10 4 0 -4.69393299
Link 8 10 8 0 -0.89915322
Link 9 10 9 0 -1.96216720
Link 1 11 10 0 2.14149152
Link 3 11 12 0 -0.72540577
Link 4 11 13 0 1.12499619
Link 5 11 14 0 0.20926494
Link 6 11 15 0 1.22514867
Link 7 11 16 0 -0.96586119
Link 8 11 17 0 -1.86809432
Link 9 11 18 0 1.38887412
Link 1 12 19 0 3.73051195
Link 2 12 20 0 0.61957759
Link 3 12 21 0 -3.22805315
Link 9 12 27 0 -1.71281862
Link 1 13 28 0 0.01556150
Link 2 13 29 0 -2.93036082
Link 4 13 31 0 -0.76136083
Link 5 13 32 0 0.06634711
Link 6 13 33 0 3.07291816
Link 8 13 35 0 -1.09755223
Link 1 14 37 0 0.49850265
Link 2 14 38 0 -1.54538372
Link 3 14 39 0 -1.58008801
Link 4 14 40 0 -0.79540388
Link 7 14 43 0 4.03680819
Link 9 14 45 0 -0.62888752
Link 1 15 46 0 -1.57750078
Link 3 15 48 0 1.29365330
Link 4 15 49 0 -0.75630038
Link 5 15 50 0 0.67762400
Link 6 15 51 0 0.81072074
Link 7 15 52 0 -0.33267483
Link 8 15 53 0 -2.84407630
Link 9 15 54 0 0.27912397
Link 2 16 56 0 0.14613400
Link 3 16 57 0 3.06854857
Link 5 16 59 0 -0.24387706
Link 6 16 60 0 -0.18717912
Link 7 16 61 0 -2.42177268
Link 8 16 62 0 0.85508918
Link 9 16 63 0 -0.06261640
Link 18 10 69 0 0.34914134
Link 6 20 74 0 1.88603771
Link 20 12 75 0 1.80630277
Link 2 22 80 0 -0.45706165
Link 22 15 81 0 -1.58993450
Link 4 23 83 0 2.19332680
Link 23 12 84 0 -2.31443630
Link 1 42 142 0 -0.40967898
Link 42 16 143 0 0.90136202
Link 3 43 145 0 3.57918422
Link 43 13 146 0 -3.12071539
Link 5 45 151 0 0.53705969
Link 45 14 152 0 -3.38640417
Link 7 47 157 0 1.49024565
Link 47 12 158 0 1.28554289
Link 6 48 161 0 0.30509047
Link 8 51 170 0 0.31610933
Link 51 12 171 0 1.32637104
Link 13 13 177 1 0.59905106
Link 48 53 181 0 0.78376662
Link 53 10 182 0 0.90127087
Link 5 58 211 0 -1.51892696
Link 58 12 212 0 1.22382365
Link 7 61 225 0 -2.11154359
Link 61 13 226 0 1.61901791
Link 70 10 286 0 -1.70622912
Link 74 14 321 0 0.25465971
Link 75 14 324 0 0.28842681
Link 9 45 452 0 2.48434847
Link 3 96 494 0 -0.08521814
Link 96 10 495 0 0.88332229
Link 9 48 538 0 -2.89829060
Link 4 137 886 0 -1.12333176
Link 7 137 910 0 -1.53799837
Link 14 45 994 1 2.50923177
Link 54 153 1039 0 0.96916739
Link 154 75 1044 0 1.75915758
Link 7 153 1238 0 1.44066869
Link 48 16 1265 0 0.77593174
Link 8 190 1285 0 1.07395945
Link 190 74 1286 0 -2.58330570
Link 15 195 1329 1 2.36136043
Link 195 48 1330 1 -0.37045968
Link 2 206 1390 0 1.09734949
Link 206 18 1391 0 5.24775185
Link 137 211 1429 0 2.58996250
Link 211 54 1430 0 0.29824645
Link 5 222 1505 0 1.59311607
Link 222 48 1506 0 0.98379113
Link 48 232 1564 0 -1.03185373
Link 232 11 1565 0 0.17484598
Link 11 238 1603 1 2.40485727
Link 238 11 1604 1 -1.76518427
Link 48 153 1614 0 -1.47904912
Link 2 74 1664 0 4.02180176
Link 18 48 1739 0 2.08162811
Link 61 18 2130 0 5.09059995
Link 232 48 2285 1 2.23051846
Link 54 15 2512 0 0.79731455
Link 15 396 2701 1 1.82315737
Link 396 54 2702 1 -0.81955787
Link 128 403 2756 0 1.23391713
Link 403 48 2757 0 2.73511887
Link 6 74 2774 0 -2.08040175
Link 4 416 2846 0 0.49296791
Link 13 232 2873 1 -2.48309076
Link 153 450 3080 0 2.46846485
Link 14 43 3327 1 1.40392188
Link 6 505 3606 0 0.75212230
Link 505 154 3607 0 1.72729057
Link 416 510 3639 0 0.92895249
Link 510 128 3640 0 0.86184841
Link 238 53 3641 1 0.08188881
Link 58 43 3680 0 1.75777511
Link 16 58 3886 1 0.11651063
Link 464 464 3923 1 1.58577131
Link 232 464 4042 0 -2.81567689
Link 9 416 4124 0 -2.29752995
Link 42 43 4341 0 1.10131255
Link 8 597 4347 0 0.39907944
Link 597 53 4348 0 -1.56816269
Link 450 604 4408 0 1.97298101
Link 604 16 4409 0 -1.09542776
Link 211 450 4595 0 4.22638424
Link 74 630 4621 0 1.01985862
Link 630 13 4622 0 2.54984881
Link 533 638 4680 0 -0.76781660
Link 638 238 4681 0 -0.25843640
Link 2 648 4750 0 -1.69564684
Link 648 533 4751 0 1.25691317
Link 638 75 4806 1 -0.33037944
Link 4 674 4928 0 1.26146770
Link 674 42 4929 0 -1.26486974
Link 211 676 4945 1 0.09353242
Link 676 505 4946 1 1.80950280
Link 638 70 5379 1 4.79949399
Link 6 53 5401 0 0.06741333
Link 464 749 5511 0 0.39595473
Link 749 14 5512 0 -2.11694928
Link 505 767 5666 0 1.66744541
Link 767 61 5667 0 2.46001120
Link 22 47 5788 0 0.89221003
Link 232 797 5855 0 1.00000000
Link 797 13 5856 0 4.00852496
Link 47 597 6065 1 1.03412697
GenomeEnd

