GenomeStart 70041
Neuron 1 1 0.00000000 1 0.00000000 0.00000000 0.00000000 0.00000000
Neuron 2 1 0.00000000 1 0.00000000 0.00000000 0.00000000 0.00000000
Neuron 3 1 0.00000000 1 0.00000000 0.00000000 0.00000000 0.00000000
Neuron 4 1 0.00000000 1 0.00000000 0.00000000 0.00000000 0.00000000
Neuron 5 1 0.00000000 1 0.00000000 0.00000000 0.00000000 0.00000000
Neuron 6 1 0.00000000 1 0.00000000 0.00000000 0.00000000 0.00000000
Neuron 7 1 0.00000000 1 0.00000000 0.00000000 0.00000000 0.00000000
Neuron 8 1 0.00000000 1 0.00000000 0.00000000 0.00000000 0.00000000
Neuron 9 2 0.00000000 1 0.00000000 0.00000000 0.00000000 0.00000000
Neuron 10 4 1.00000000 0 1.00000000 0.00000000 0.00000000 0.00000000
Neuron 11 4 1.00000000 0 1.00000000 0.00000000 0.00000000 0.00000000
Neuron 12 4 1.00000000 0 1.00000000 0.00000000 0.00000000 0.00000000
Neuron 13 4 1.00000000 0 1.00000000 0.00000000 0.00000000 0.00000000
Neuron 14 4 1.00000000 0 1.00000000 0.00000000 0.00000000 0.00000000
Neuron 15 4 1.00000000 0 1.00000000 0.00000000 0.00000000 0.00000000
Neuron 16 4 1.00000000 0 1.00000000 0.00000000 0.00000000 0.00000000
Neuron 18 3 0.50000000 1 1.00000000 0.00000000 0.00000000 0.00000000
Neuron 19 3 0.50000000 1 1.00000000 0.00000000 0.00000000 0.00000000
Neuron 20 3 0.50000000 1 1.00000000 0.00000000 0.00000000 0.00000000
Neuron 22 3 0.50000000 1 1.00000000 0.00000000 0.00000000 0.00000000
Neuron 23 3 0.50000000 1 1.00000000 0.00000000 0.00000000 0.00000000
Neuron 32 3 0.50000000 1 1.00000000 0.00000000 0.00000000 0.00000000
Neuron 41 3 0.50000000 1 1.00000000 0.00000000 0.00000000 0.00000000
Neuron 42 3 0.50000000 1 1.00000000 0.00000000 0.00000000 0.00000000
Neuron 43 3 0.50000000 1 1.00000000 0.00000000 0.00000000 0.00000000
Neuron 45 3 0.50000000 1 1.00000000 0.00000000 0.00000000 0.00000000
Neuron 47 3 0.50000000 1 1.00000000 0.00000000 0.00000000 0.00000000
Neuron 48 3 0.50000000 1 1.00000000 0.00000000 0.00000000 0.00000000
Neuron 51 3 0.50000000 1 1.00000000 0.00000000 0.00000000 0.00000000
Neuron 53 3 0.75000000 1 1.00000000 0.00000000 0.00000000 0.00000000
Neuron 54 3 0.50000000 1 1.00000000 0.00000000 0.00000000 0.00000000
Neuron 55 3 0.50000000 1 1.00000000 0.00000000 0.00000000 0.00000000
Neuron 57 3 0.50000000 1 1.00000000 0.00000000 0.00000000 0.00000000
Neuron 58 3 0.50000000 1 1.00000000 0.00000000 0.00000000 0.00000000
Neuron 61 3 0.50000000 1 1.00000000 0.00000000 0.00000000 0.00000000
Neuron 62 3 0.50000000 1 1.00000000 0.00000000 0.00000000 0.00000000
Neuron 69 3 0.50000000 1 1.00000000 0.00000000 0.00000000 0.00000000
Neuron 70 3 0.50000000 1 1.00000000 0.00000000 0.00000000 0.00000000
Neuron 72 3 0.50000000 1 1.00000000 0.00000000 0.00000000 0.00000000
Neuron 73 3 0.50000000 1 1.00000000 0.00000000 0.00000000 0.00000000
Neuron 74 3 0.50000000 1 1.00000000 0.00000000 0.00000000 0.00000000
Neuron 75 3 0.50000000 1 1.00000000 0.00000000 0.00000000 0.00000000
Neuron 86 3 0.50000000 1 1.00000000 0.00000000 0.00000000 0.00000000
Neuron 87 3 0.25000000 1 1.00000000 0.00000000 0.00000000 0.00000000
Neuron 96 3 0.50000000 1 1.00000000 0.00000000 0.00000000 0.00000000
Neuron 102 3 0.75000000 1 1.00000000 0.00000000 0.00000000 0.00000000
Neuron 108 3 0.75000000 1 1.00000000 0.00000000 0.00000000 0.00000000
Neuron 127 3 1.00000000 1 1.00000000 0.00000000 0.00000000 0.00000000
Neuron 128 3 0.25000000 1 1.00000000 0.00000000 0.00000000 0.00000000
Neuron 129 3 0.75000000 1 1.00000000 0.00000000 0.00000000 0.00000000
Neuron 137 3 0.25000000 1 1.00000000 0.00000000 0.00000000 0.00000000
Neuron 153 3 0.75000000 1 1.00000000 0.00000000 0.00000000 0.00000000
Neuron 154 3 0.25000000 1 1.00000000 0.00000000 0.00000000 0.00000000
Neuron 161 3 0.75000000 1 1.00000000 0.00000000 0.00000000 0.00000000
Neuron 190 3 0.25000000 1 1.00000000 0.00000000 0.00000000 0.00000000
Neuron 195 3 0.75000000 1 1.00000000 0.00000000 0.00000000 0.00000000
Neuron 199 3 0.25000000 1 1.00000000 0.00000000 0.00000000 0.00000000
Neuron 206 3 0.25000000 1 1.00000000 0.00000000 0.00000000 0.00000000
Neuron 211 3 0.37500000 1 1.00000000 0.00000000 0.00000000 0.00000000
Neuron 216 3 0.62500000 1 1.00000000 0.00000000 0.00000000 0.00000000
Neuron 220 3 0.12500000 1 1.00000000 0.00000000 0.00000000 0.00000000
Neuron 221 3 0.25000000 1 1.00000000 0.00000000 0.00000000 0.00000000
Neuron 222 3 0.25000000 1 1.00000000 0.00000000 0.00000000 0.00000000
Neuron 232 3 0.75000000 1 1.00000000 0.00000000 0.00000000 0.00000000
Neuron 238 3 1.00000000 1 1.00000000 0.00000000 0.00000000 0.00000000
Neuron 272 3 0.12500000 1 1.00000000 0.00000000 0.00000000 0.00000000
Neuron 287 3 0.75000000 1 1.00000000 0.00000000 0.00000000 0.00000000
Neuron 396 3 0.75000000 1 1.00000000 0.00000000 0.00000000 0.00000000
Neuron 403 3 0.37500000 1 1.00000000 0.00000000 0.00000000 0.00000000
Neuron 406 3 0.62500000 1 1.00000000 0.00000000 0.00000000 0.00000000
Neuron 416 3 0.12500000 1 1.00000000 0.00000000 0.00000000 0.00000000
Neuron 432 3 0.25000000 1 1.00000000 0.00000000 0.00000000 0.00000000
Neuron 450 3 0.87500000 1 1.00000000 0.00000000 0.00000000 0.00000000
Neuron 452 3 0.37500000 1 1.00000000 0.00000000 0.00000000 0.00000000
Neuron 464 3 0.87500000 1 1.00000000 0.00000000 0.00000000 0.00000000
Neuron 487 3 0.87500000 1 1.00000000 0.00000000 0.00000000 0.00000000
Neuron 490 3 0.87500000 1 1.00000000 0.00000000 0.00000000 0.00000000
Neuron 501 3 0.37500000 1 1.00000000 0.00000000 0.00000000 0.00000000
Neuron 505 3 0.12500000 1 1.00000000 0.00000000 0.00000000 0.00000000
Neuron 510 3 0.18750000 1 1.00000000 0.00000000 0.00000000 0.00000000
Neuron 517 3 0.75000000 1 1.00000000 0.00000000 0.00000000 0.00000000
Neuron 533 3 0.50000000 1 1.00000000 0.00000000 0.00000000 0.00000000
Neuron 536 3 0.87500000 1 1.00000000 0.00000000 0.00000000 0.00000000
Neuron 604 3 0.93750000 1 1.00000000 0.00000000 0.00000000 0.00000000
Neuron 638 3 0.75000000 1 1.00000000 0.00000000 0.00000000 0.00000000
Neuron 648 3 0.25000000 1 1.00000000 0.00000000 0.00000000 0.00000000
Neuron 674 3 0.25000000 1 1.00000000 0.00000000 0.00000000 0.00000000
Neuron 676 3 0.25000000 1 1.00000000 0.00000000 0.00000000 0.00000000
Neuron 720 3 0.87500000 1 1.00000000 0.00000000 0.00000000 0.00000000
Neuron 727 3 0.62500000 1 1.00000000 0.00000000 0.00000000 0.00000000
Neuron 752 3 0.62500000 1 1.00000000 0.00000000 0.00000000 0.00000000
Neuron 763 3 0.75000000 1 1.00000000 0.00000000 0.00000000 0.00000000
Neuron 783 3 0.75000000 1 1.00000000 0.00000000 0.00000000 0.00000000
Neuron 785 3 0.37500000 1 1.00000000 0.00000000 0.00000000 0.00000000
Neuron 812 3 0.75000000 1 1.00000000 0.00000000 0.00000000 0.00000000
Neuron 848 3 0.43750000 1 1.00000000 0.00000000 0.00000000 0.00000000
Neuron 853 3 0.62500000 1 1.00000000 0.00000000 0.00000000 0.00000000
Neuron 886 3 0.81250000 1 1.00000000 0.00000000 0.00000000 0.00000000
Neuron 917 3 0.68750000 1 1.00000000 0.00000000 0.00000000 0.00000000
Neuron 920 3 0.37500000 1 1.00000000 0.00000000 0.00000000 0.00000000
Neuron 952 3 1.00000000 1 1.00000000 0.00000000 0.00000000 0.00000000
Neuron 980 3 1.00000000 1 1.00000000 0.00000000 0.00000000 0.00000000
Neuron 986 3 0.46875000 1 1.00000000 0.00000000 0.00000000 0.00000000
Neuron 991 3 0.34375000 1 1.00000000 0.00000000 0.00000000 0.00000000
Neuron 1017 3 0.50000000 1 1.00000000 0.00000000 0.00000000 0.00000000
Neuron 1025 3 0.46875000 1 1.00000000 0.00000000 0.00000000 0.00000000
Neuron 1041 3 0.31250000 1 1.00000000 0.00000000 0.00000000 0.00000000
Neuron 1233 3 0.87500000 1 1.00000000 0.00000000 0.00000000 0.00000000
Neuron 1250 3 0.81250000 1 1.00000000 0.00000000 0.00000000 0.00000000
Neuron 1339 3 0.56250000 1 1.00000000 0.00000000 0.00000000 0.00000000
Neuron 1363 3 1.00000000 1 1.00000000 0.00000000 0.00000000 0.00000000
Link 9 10 9 0 -2.71482722
Link 1 11 10 0 3.06432174
Link 5 11 14 0 2.76165914
Link 6 11 15 0 0.54414024
Link 7 11 16 0 -3.07637947
Link 8 11 17 0 0.18943598
Link 9 11 18 0 -0.46714928
Link 1 12 19 0 3.38599053
Link 2 12 20 0 1.14206706
Link 3 12 21 0 -0.05114574
Link 9 12 27 0 -0.49616926
Link 2 13 29 0 0.16735284
Link 4 13 31 0 1.09869604
Link 5 13 32 0 2.80133305
Link 6 13 33 0 2.26591065
Link 1 14 37 0 5.94809879
Link 2 14 38 0 0.90401553
Link 4 14 40 0 2.22253185
Link 9 14 45 0 0.51503286
Link 1 15 46 0 -2.70726656
Link 3 15 48 0 0.99143750
Link 4 15 49 0 0.73173232
Link 5 15 50 0 0.24293586
Link 8 15 53 0 2.85448827
Link 9 15 54 0 2.88447377
Link 2 16 56 0 2.49734920
Link 3 16 57 0 1.32892445
Link 5 16 59 0 0.92759668
Link 6 16 60 0 -2.45470857
Link 7 16 61 0 -2.30094713
Link 8 16 62 0 1.00405505
Link 9 16 63 0 0.91674027
Link 18 10 69 0 0.48711033
Link 8 19 71 0 0.83258352
Link 19 13 72 0 -0.50372153
Link 6 20 74 0 -1.05270630
Link 20 12 75 0 2.00967604
Link 2 22 80 0 -0.45952485
Link 22 15 81 0 -2.60213226
Link 23 12 84 0 1.81208857
Link 3 32 111 0 1.27682322
Link 3 41 139 0 0.17610828
Link 41 11 140 0 -1.40918238
Link 1 42 142 0 2.65077618
Link 42 16 143 0 -0.80187253
Link 3 43 145 0 2.37890571
Link 43 13 146 0 0.59580619
Link 5 45 151 0 -3.32898114
Link 45 14 152 0 -2.27673361
Link 47 12 158 0 -0.69734177
Link 8 51 170 0 -0.55932663
Link 51 12 171 0 2.00183782
Link 13 13 177 1 0.03336336
Link 48 53 181 0 -0.34965395
Link 53 10 182 0 -3.12549914
Link 4 55 191 0 0.37802335
Link 55 10 192 0 1.23258141
Link 7 57 200 0 0.08531689
Link 5 58 211 0 -2.20092048
Link 58 12 212 0 0.71425091
Link 7 61 225 0 1.14671596
Link 6 62 237 0 -3.89030485
Link 62 15 238 0 3.74363059
Link 7 69 281 0 2.43648481
Link 69 15 282 0 1.01856141
Link 5 70 285 0 -0.36324428
Link 3 72 313 0 0.12004920
Link 72 14 314 0 1.15935139
Link 1 73 317 0 1.29714791
Link 73 10 318 0 3.09658907
Link 74 14 321 0 3.38737820
Link 75 14 324 0 0.11190924
Link 1 86 416 0 1.00000000
Link 86 13 417 0 0.31035903
Link 7 87 430 0 -3.39936043
Link 87 47 431 0 0.45409019
Link 9 45 452 0 -2.04581935
Link 9 48 538 0 -3.78102250
Link 70 102 554 0 -0.66932705
Link 102 10 555 0 1.81112216
Link 32 108 584 0 -4.46406185
Link 51 51 666 1 -1.92869951
Link 9 42 712 0 1.60924506
Link 13 127 791 1 1.30054456
Link 129 13 807 0 -1.62393857
Link 8 32 1006 0 2.45490225
Link 153 16 1040 0 0.07006577
Link 96 161 1101 0 -1.71754749
Link 161 10 1102 0 -0.24974808
Link 48 16 1265 0 1.12377350
Link 8 190 1285 0 -0.62464558
Link 190 74 1286 0 -3.53117160
Link 195 48 1330 1 -2.12072815
Link 4 199 1346 0 1.50168531
Link 199 23 1347 0 1.00214357
Link 137 211 1429 0 3.02896331
Link 211 54 1430 0 0.30215179
Link 54 216 1470 0 1.30728108
Link 216 153 1471 0 -0.69741442
Link 7 220 1491 0 0.94189028
Link 220 137 1492 0 0.57979088
Link 3 221 1498 0 -0.76604257
Link 221 96 1499 0 0.35486284
Link 5 222 1505 0 2.41732621
Link 222 48 1506 0 0.73869226
Link 48 232 1564 0 -0.40364200
Link 11 238 1603 1 -3.27489981
Link 238 11 1604 1 2.67182580
Link 48 153 1614 0 -0.29808261
Link 18 48 1739 0 -0.21327051
Link 195 195 1797 1 4.07300119
Link 18 14 1798 0 -0.42707812
Link 2 272 1866 0 0.69729875
Link 272 206 1867 0 -1.45632314
Link 57 287 1958 0 -0.45696166
Link 287 14 1959 0 0.41737490
Link 61 18 2130 0 1.14024004
Link 74 13 2174 0 -1.03126222
Link 8 53 2251 0 1.37805794
Link 15 396 2701 1 2.32271161
Link 128 403 2756 0 0.21047799
Link 403 48 2757 0 -0.45838730
Link 6 74 2774 0 2.44525342
Link 232 406 2776 1 -0.00773026
Link 406 48 2777 1 -4.73312412
Link 4 416 2846 0 -2.66685993
Link 2 432 2946 0 -1.82319039
Link 432 74 2947 0 -3.96923216
Link 153 450 3080 0 3.61851096
Link 154 452 3104 0 0.34745180
Link 464 14 3189 0 2.80932123
Link 232 487 3451 0 -0.99612654
Link 487 11 3452 0 0.76622539
Link 15 490 3466 1 3.91074374
Link 490 195 3467 1 0.47720358
Link 190 13 3480 0 0.97991219
Link 7 501 3576 0 1.63475653
Link 501 153 3577 0 -3.00761400
Link 505 154 3607 0 -0.16244539
Link 416 510 3639 0 -2.12357583
Link 510 128 3640 0 -1.52481016
Link 58 43 3680 0 0.36575426
Link 54 517 3683 0 1.93499343
Link 517 15 3684 0 -1.78106645
Link 238 536 3815 1 -0.81001246
Link 536 53 3816 1 0.28247718
Link 16 58 3886 1 1.14651256
Link 464 464 3923 1 -0.70106595
Link 9 416 4124 0 -0.40230434
Link 416 13 4243 0 2.57039482
Link 42 43 4341 0 2.15429860
Link 450 604 4408 0 -2.22061667
Link 604 16 4409 0 -0.21597407
Link 533 638 4680 0 2.68541608
Link 638 238 4681 0 -0.13218955
Link 2 648 4750 0 1.78930809
Link 648 533 4751 0 -1.89575448
Link 638 75 4806 1 2.15508488
Link 211 676 4945 1 1.71834002
Link 676 505 4946 1 0.61860604
Link 13 720 5259 1 -0.03616537
Link 720 232 5260 1 -1.95510452
Link 5 23 5282 0 0.51449787
Link 222 22 5301 0 2.50226006
Link 61 727 5319 0 0.84130739
Link 727 129 5320 0 3.57262775
Link 222 15 5430 0 -1.75023422
Link 505 676 5458 0 3.76962107
Link 638 638 5529 1 0.18152548
Link 211 752 5549 0 0.65483009
Link 763 638 5635 0 4.13230878
Link 53 783 5747 0 -0.29842866
Link 783 763 5748 0 -1.04912199
Link 785 18 5759 0 -0.68019995
Link 45 232 5845 0 1.90154260
Link 752 812 5942 0 2.52432451
Link 812 450 5943 0 -2.67049814
Link 222 533 6010 0 0.02119498
Link 206 54 6070 0 0.11028937
Link 676 674 6071 0 3.74975825
Link 452 848 6250 0 -0.97202200
Link 396 853 6273 1 1.24671281
Link 853 54 6274 1 -1.72147891
Link 22 54 6437 0 1.58239823
Link 232 886 6537 0 1.58981587
Link 886 464 6538 0 -1.34253286
Link 58 917 6764 0 2.29934292
Link 917 464 6765 0 2.64306006
Link 674 920 6793 0 1.57740518
Link 920 42 6794 0 -0.71793515
Link 42 75 6818 0 -0.34920776
Link 127 952 7092 1 2.46606188
Link 952 980 7365 1 4.09928213
Link 980 13 7366 1 -2.32435765
Link 4 986 7399 0 1.06137446
Link 986 604 7400 0 -0.85143795
Link 510 991 7458 0 2.02009354
Link 991 42 7459 0 1.58195427
Link 75 199 7608 1 -3.28362549
Link 154 1017 7719 0 -1.33259641
Link 1017 53 7720 0 -1.94081505
Link 137 396 7738 0 -1.42194585
Link 848 1025 7817 0 -4.44710040
Link 1025 75 7818 0 0.28667635
Link 206 1041 8013 0 -0.65662001
Link 1041 785 8014 0 0.55017352
Link 452 42 8058 0 1.25885711
Link 416 154 8425 0 0.89333391
Link 1017 517 8467 0 1.60017080
Link 7 991 8506 0 -3.30102580
Link 70 752 8760 0 -1.34867406
Link 648 58 9142 0 2.35473422
Link 980 648 9599 1 0.50151092
Link 604 127 9654 0 -0.24240561
Link 1233 15 9898 0 0.20588441
Link 108 1250 10026 0 2.04792849
Link 1250 1233 10027 0 1.39252019
Link 47 517 10244 0 2.70405557
Link 920 108 10259 0 -0.74745787
Link 108 396 10426 0 -2.64066668
Link 61 517 10488 0 0.77014524
Link 108 980 10582 0 3.33190500
Link 43 19 10604 0 -3.54085495
Link 763 1339 10881 1 0.73764957
Link 1339 785 10882 1 1.73894511
Link 42 416 10913 1 -3.74887921
Link 952 464 11060 1 -1.39082809
Link 11 1363 11085 1 1.00000000
Link 1363 11 11086 1 0.26913469
Link 604 986 11153 1 -1.55396849
Link 45 917 11166 0 -2.07233840
Link 4 1363 11188 0 2.02907461
Link 22 23 11249 0 -0.47865219
GenomeEnd

