GenomeStart 56680
Neuron 1 1 0.00000000 1 0.00000000 0.00000000 0.00000000 0.00000000
Neuron 2 1 0.00000000 1 0.00000000 0.00000000 0.00000000 0.00000000
Neuron 3 1 0.00000000 1 0.00000000 0.00000000 0.00000000 0.00000000
Neuron 4 1 0.00000000 1 0.00000000 0.00000000 0.00000000 0.00000000
Neuron 5 1 0.00000000 1 0.00000000 0.00000000 0.00000000 0.00000000
Neuron 6 1 0.00000000 1 0.00000000 0.00000000 0.00000000 0.00000000
Neuron 7 1 0.00000000 1 0.00000000 0.00000000 0.00000000 0.00000000
Neuron 8 1 0.00000000 1 0.00000000 0.00000000 0.00000000 0.00000000
Neuron 9 2 0.00000000 1 0.00000000 0.00000000 0.00000000 0.00000000
Neuron 10 4 1.00000000 0 1.00000000 0.00000000 0.00000000 0.00000000
Neuron 11 4 1.00000000 0 1.00000000 0.00000000 0.00000000 0.00000000
Neuron 12 4 1.00000000 0 1.00000000 0.00000000 0.00000000 0.00000000
Neuron 13 4 1.00000000 0 1.00000000 0.00000000 0.00000000 0.00000000
Neuron 14 4 1.00000000 0 1.00000000 0.00000000 0.00000000 0.00000000
Neuron 15 4 1.00000000 0 1.00000000 0.00000000 0.00000000 0.00000000
Neuron 16 4 1.00000000 0 1.00000000 0.00000000 0.00000000 0.00000000
Neuron 18 3 0.50000000 1 1.00000000 0.00000000 0.00000000 0.00000000
Neuron 20 3 0.50000000 1 1.00000000 0.00000000 0.00000000 0.00000000
Neuron 21 3 0.50000000 1 1.00000000 0.00000000 0.00000000 0.00000000
Neuron 22 3 0.50000000 1 1.00000000 0.00000000 0.00000000 0.00000000
Neuron 23 3 0.50000000 1 1.00000000 0.00000000 0.00000000 0.00000000
Neuron 33 3 0.50000000 1 1.00000000 0.00000000 0.00000000 0.00000000
Neuron 39 3 0.50000000 1 1.00000000 0.00000000 0.00000000 0.00000000
Neuron 42 3 0.50000000 1 1.00000000 0.00000000 0.00000000 0.00000000
Neuron 43 3 0.50000000 1 1.00000000 0.00000000 0.00000000 0.00000000
Neuron 45 3 0.50000000 1 1.00000000 0.00000000 0.00000000 0.00000000
Neuron 47 3 0.50000000 1 1.00000000 0.00000000 0.00000000 0.00000000
Neuron 48 3 0.50000000 1 1.00000000 0.00000000 0.00000000 0.00000000
Neuron 51 3 0.50000000 1 1.00000000 0.00000000 0.00000000 0.00000000
Neuron 53 3 0.75000000 1 1.00000000 0.00000000 0.00000000 0.00000000
Neuron 54 3 0.50000000 1 1.00000000 0.00000000 0.00000000 0.00000000
Neuron 56 3 0.50000000 1 1.00000000 0.00000000 0.00000000 0.00000000
Neuron 58 3 0.50000000 1 1.00000000 0.00000000 0.00000000 0.00000000
Neuron 61 3 0.50000000 1 1.00000000 0.00000000 0.00000000 0.00000000
Neuron 70 3 0.50000000 1 1.00000000 0.00000000 0.00000000 0.00000000
Neuron 71 3 0.50000000 1 1.00000000 0.00000000 0.00000000 0.00000000
Neuron 72 3 0.50000000 1 1.00000000 0.00000000 0.00000000 0.00000000
Neuron 74 3 0.50000000 1 1.00000000 0.00000000 0.00000000 0.00000000
Neuron 75 3 0.50000000 1 1.00000000 0.00000000 0.00000000 0.00000000
Neuron 78 3 0.75000000 1 1.00000000 0.00000000 0.00000000 0.00000000
Neuron 87 3 0.25000000 1 1.00000000 0.00000000 0.00000000 0.00000000
Neuron 92 3 0.25000000 1 1.00000000 0.00000000 0.00000000 0.00000000
Neuron 96 3 0.50000000 1 1.00000000 0.00000000 0.00000000 0.00000000
Neuron 107 3 0.75000000 1 1.00000000 0.00000000 0.00000000 0.00000000
Neuron 128 3 0.25000000 1 1.00000000 0.00000000 0.00000000 0.00000000
Neuron 131 3 0.25000000 1 1.00000000 0.00000000 0.00000000 0.00000000
Neuron 137 3 0.25000000 1 1.00000000 0.00000000 0.00000000 0.00000000
Neuron 148 3 0.25000000 1 1.00000000 0.00000000 0.00000000 0.00000000
Neuron 153 3 0.75000000 1 1.00000000 0.00000000 0.00000000 0.00000000
Neuron 154 3 0.25000000 1 1.00000000 0.00000000 0.00000000 0.00000000
Neuron 158 3 0.37500000 1 1.00000000 0.00000000 0.00000000 0.00000000
Neuron 190 3 0.25000000 1 1.00000000 0.00000000 0.00000000 0.00000000
Neuron 195 3 0.75000000 1 1.00000000 0.00000000 0.00000000 0.00000000
Neuron 199 3 0.25000000 1 1.00000000 0.00000000 0.00000000 0.00000000
Neuron 206 3 0.25000000 1 1.00000000 0.00000000 0.00000000 0.00000000
Neuron 211 3 0.37500000 1 1.00000000 0.00000000 0.00000000 0.00000000
Neuron 216 3 0.62500000 1 1.00000000 0.00000000 0.00000000 0.00000000
Neuron 222 3 0.25000000 1 1.00000000 0.00000000 0.00000000 0.00000000
Neuron 232 3 0.75000000 1 1.00000000 0.00000000 0.00000000 0.00000000
Neuron 238 3 1.00000000 1 1.00000000 0.00000000 0.00000000 0.00000000
Neuron 249 3 1.00000000 1 1.00000000 0.00000000 0.00000000 0.00000000
Neuron 271 3 0.25000000 1 1.00000000 0.00000000 0.00000000 0.00000000
Neuron 316 3 0.25000000 1 1.00000000 0.00000000 0.00000000 0.00000000
Neuron 332 3 0.75000000 1 1.00000000 0.00000000 0.00000000 0.00000000
Neuron 396 3 0.75000000 1 1.00000000 0.00000000 0.00000000 0.00000000
Neuron 403 3 0.37500000 1 1.00000000 0.00000000 0.00000000 0.00000000
Neuron 406 3 0.62500000 1 1.00000000 0.00000000 0.00000000 0.00000000
Neuron 416 3 0.12500000 1 1.00000000 0.00000000 0.00000000 0.00000000
Neuron 432 3 0.25000000 1 1.00000000 0.00000000 0.00000000 0.00000000
Neuron 450 3 0.87500000 1 1.00000000 0.00000000 0.00000000 0.00000000
Neuron 452 3 0.37500000 1 1.00000000 0.00000000 0.00000000 0.00000000
Neuron 464 3 0.87500000 1 1.00000000 0.00000000 0.00000000 0.00000000
Neuron 505 3 0.12500000 1 1.00000000 0.00000000 0.00000000 0.00000000
Neuron 510 3 0.18750000 1 1.00000000 0.00000000 0.00000000 0.00000000
Neuron 533 3 0.50000000 1 1.00000000 0.00000000 0.00000000 0.00000000
Neuron 536 3 0.87500000 1 1.00000000 0.00000000 0.00000000 0.00000000
Neuron 538 3 0.75000000 1 1.00000000 0.00000000 0.00000000 0.00000000
Neuron 556 3 0.50000000 1 1.00000000 0.00000000 0.00000000 0.00000000
Neuron 604 3 0.93750000 1 1.00000000 0.00000000 0.00000000 0.00000000
Neuron 638 3 0.75000000 1 1.00000000 0.00000000 0.00000000 0.00000000
Neuron 648 3 0.25000000 1 1.00000000 0.00000000 0.00000000 0.00000000
Neuron 674 3 0.25000000 1 1.00000000 0.00000000 0.00000000 0.00000000
Neuron 676 3 0.25000000 1 1.00000000 0.00000000 0.00000000 0.00000000
Neuron 763 3 0.75000000 1 1.00000000 0.00000000 0.00000000 0.00000000
Neuron 772 3 0.87500000 1 1.00000000 0.00000000 0.00000000 0.00000000
Neuron 783 3 0.75000000 1 1.00000000 0.00000000 0.00000000 0.00000000
Neuron 807 3 0.96875000 1 1.00000000 0.00000000 0.00000000 0.00000000
Neuron 834 3 0.12500000 1 1.00000000 0.00000000 0.00000000 0.00000000
Neuron 850 3 0.12500000 1 1.00000000 0.00000000 0.00000000 0.00000000
Neuron 872 3 0.87500000 1 1.00000000 0.00000000 0.00000000 0.00000000
Neuron 885 3 0.12500000 1 1.00000000 0.00000000 0.00000000 0.00000000
Neuron 906 3 0.62500000 1 1.00000000 0.00000000 0.00000000 0.00000000
Neuron 933 3 0.06250000 1 1.00000000 0.00000000 0.00000000 0.00000000
Neuron 1022 3 0.25000000 1 1.00000000 0.00000000 0.00000000 0.00000000
Neuron 1045 3 0.06250000 1 1.00000000 0.00000000 0.00000000 0.00000000
Neuron 1057 3 0.31250000 1 1.00000000 0.00000000 0.00000000 0.00000000
Neuron 1058 3 0.75000000 1 1.00000000 0.00000000 0.00000000 0.00000000
Neuron 1096 3 0.09375000 1 1.00000000 0.00000000 0.00000000 0.00000000
Neuron 1113 3 0.34375000 1 1.00000000 0.00000000 0.00000000 0.00000000
Link 1 10 1 0 1.88870092
Link 4 10 4 0 1.02097754
Link 8 10 8 0 0.72213203
Link 9 10 9 0 -0.51446027
Link 1 11 10 0 1.48902680
Link 3 11 12 0 -1.94056956
Link 4 11 13 0 -0.91819714
Link 5 11 14 0 0.25438911
Link 6 11 15 0 0.27381549
Link 7 11 16 0 0.66983407
Link 8 11 17 0 -1.47097249
Link 9 11 18 0 -0.30914140
Link 1 12 19 0 1.55079596
Link 3 12 21 0 -2.72624110
Link 9 12 27 0 0.61099780
Link 1 13 28 0 3.52476458
Link 2 13 29 0 3.81578101
Link 5 13 32 0 -2.03859249
Link 6 13 33 0 -0.88709606
Link 8 13 35 0 0.15840526
Link 2 14 38 0 1.20617679
Link 4 14 40 0 0.43546068
Link 7 14 43 0 0.71336910
Link 9 14 45 0 0.60555654
Link 1 15 46 0 -1.15696102
Link 3 15 48 0 -0.02738231
Link 4 15 49 0 -2.65788019
Link 5 15 50 0 -0.34293574
Link 6 15 51 0 1.17709683
Link 7 15 52 0 -2.14841717
Link 8 15 53 0 -1.90492810
Link 9 15 54 0 -0.96731509
Link 8 16 62 0 0.11089365
Link 9 16 63 0 1.93545172
Link 18 10 69 0 -2.39811738
Link 6 20 74 0 -2.42959365
Link 2 21 77 0 0.91228600
Link 21 12 78 0 -1.17518875
Link 22 15 81 0 -0.99768026
Link 23 12 84 0 1.02304644
Link 6 33 114 0 2.29585252
Link 33 16 115 0 1.87624390
Link 39 16 134 0 -1.48032495
Link 1 42 142 0 -0.67779271
Link 42 16 143 0 1.63650643
Link 5 45 151 0 0.13543877
Link 47 12 158 0 0.11277550
Link 51 12 171 0 -0.32783890
Link 13 13 177 1 -1.76065324
Link 48 53 181 0 -1.33512335
Link 53 10 182 0 1.01895453
Link 56 16 195 0 -1.30745554
Link 5 58 211 0 -1.35887292
Link 58 12 212 0 -2.25102221
Link 7 61 225 0 2.28920006
Link 61 13 226 0 0.33687308
Link 5 70 285 0 0.37307965
Link 70 10 286 0 -1.46378944
Link 2 71 297 0 0.55378742
Link 71 16 298 0 -1.04827016
Link 3 72 313 0 -1.53462244
Link 72 14 314 0 -1.06910714
Link 74 14 321 0 0.77536487
Link 75 14 324 0 -1.17585044
Link 45 78 367 0 0.89703335
Link 78 14 368 0 0.20598221
Link 7 87 430 0 -1.93919128
Link 9 45 452 0 -0.22473365
Link 7 92 475 0 0.57772507
Link 92 39 476 0 -0.08382535
Link 3 96 494 0 0.08174426
Link 96 10 495 0 3.77032376
Link 9 48 538 0 1.27479244
Link 20 107 581 0 -0.03500648
Link 107 12 582 0 1.83516421
Link 9 42 712 0 -1.60247722
Link 6 131 834 0 -4.93201592
Link 131 48 835 0 1.08257464
Link 4 137 886 0 3.22424551
Link 7 137 910 0 0.79828341
Link 8 148 986 0 -2.08676956
Link 148 51 987 0 -0.30738176
Link 158 47 1084 0 1.73088937
Link 7 153 1238 0 -2.51844082
Link 8 190 1285 0 1.09903596
Link 190 74 1286 0 -1.38841242
Link 15 195 1329 1 1.83358479
Link 195 48 1330 1 -0.42971779
Link 199 23 1347 0 -1.36443186
Link 2 206 1390 0 -1.09789169
Link 206 18 1391 0 0.40826734
Link 137 211 1429 0 1.47085922
Link 54 216 1470 0 1.00000000
Link 216 153 1471 0 -0.50370253
Link 5 222 1505 0 -1.17062918
Link 222 48 1506 0 -0.16658193
Link 48 232 1564 0 0.39577380
Link 232 11 1565 0 1.76544798
Link 238 11 1604 1 -1.25078426
Link 48 153 1614 0 -2.20412316
Link 11 249 1710 1 0.65036477
Link 249 238 1711 1 -1.03864705
Link 18 48 1739 0 -0.89942044
Link 271 43 1861 0 2.53939599
Link 2 316 2145 0 -1.70497038
Link 316 22 2146 0 0.93849225
Link 74 13 2174 0 0.99709909
Link 8 53 2251 0 0.88477372
Link 43 332 2256 0 0.21777550
Link 332 13 2257 0 -0.33361189
Link 54 15 2512 0 -2.11884392
Link 15 396 2701 1 -1.89372252
Link 396 54 2702 1 -2.97686215
Link 128 403 2756 0 -0.42901743
Link 403 48 2757 0 1.76887724
Link 6 74 2774 0 -0.26465165
Link 232 406 2776 1 -1.77746161
Link 406 48 2777 1 -1.82574476
Link 4 416 2846 0 -0.06548195
Link 13 232 2873 1 -0.79967114
Link 2 432 2946 0 0.48727724
Link 432 74 2947 0 -0.40055994
Link 153 450 3080 0 -0.49724025
Link 154 452 3104 0 0.28585513
Link 452 75 3105 0 0.97842482
Link 464 14 3189 0 -1.29597032
Link 505 154 3607 0 -0.41060549
Link 416 510 3639 0 -0.14891029
Link 510 128 3640 0 -2.88968723
Link 58 43 3680 0 1.02994638
Link 238 536 3815 1 -0.81479152
Link 536 53 3816 1 0.81543729
Link 16 58 3886 1 -0.55757694
Link 464 464 3923 1 -0.83339216
Link 61 556 3964 0 2.28737606
Link 556 18 3965 0 0.57616693
Link 232 464 4042 0 -1.84315502
Link 9 416 4124 0 2.90577584
Link 42 43 4341 0 0.11168183
Link 450 604 4408 0 0.07441997
Link 416 61 4472 0 -1.55411071
Link 211 450 4595 0 -1.18869071
Link 533 638 4680 0 -3.57736444
Link 2 648 4750 0 -0.36534762
Link 648 533 4751 0 1.93508246
Link 638 75 4806 1 0.74150290
Link 674 42 4929 0 -0.67930312
Link 211 676 4945 1 -1.76164805
Link 676 505 4946 1 -0.62122053
Link 222 22 5301 0 1.78684396
Link 8 396 5400 0 -1.30037065
Link 222 15 5430 0 3.46605410
Link 763 638 5635 0 0.89585561
Link 638 772 5695 0 -0.39325718
Link 772 238 5696 0 1.33096868
Link 53 783 5747 0 2.10092022
Link 783 763 5748 0 -0.90388190
Link 45 232 5845 0 -1.34893668
Link 604 807 5913 0 0.52091817
Link 807 16 5914 0 -2.38227895
Link 222 533 6010 0 -1.20468024
Link 190 604 6069 0 -0.74041058
Link 206 54 6070 0 -3.04054095
Link 4 834 6113 0 0.31562325
Link 834 674 6114 0 2.54219896
Link 96 536 6227 0 1.44286671
Link 850 199 6257 0 -1.30028094
Link 70 14 6360 0 0.88179012
Link 538 872 6413 0 -1.20419375
Link 872 16 6414 0 -1.08026599
Link 885 271 6534 0 1.38826886
Link 96 54 6560 0 -1.97400447
Link 5 452 6576 0 -0.87847265
Link 7 533 6683 0 2.43058903
Link 48 906 6707 0 0.25581834
Link 906 538 6708 0 -0.33756442
Link 4 933 6957 0 -1.61275031
Link 933 850 6958 0 -0.06679561
Link 43 18 7187 0 -0.57031410
Link 933 763 7465 0 -0.68375457
Link 403 56 7501 0 1.94789719
Link 2 1022 7770 0 2.58408232
Link 1022 23 7771 0 -1.81872921
Link 23 39 7883 0 -1.53686488
Link 18 834 8028 1 1.75906310
Link 3 1045 8052 0 0.78014403
Link 232 332 8133 0 -0.01839256
Link 53 772 8169 0 2.40818672
Link 87 1057 8171 0 0.97859067
Link 75 1058 8174 0 0.97539258
Link 1058 13 8175 0 -1.88338486
Link 20 238 8555 0 -1.35788524
Link 1045 1096 8580 0 1.80095329
Link 1096 885 8581 0 -3.11589500
Link 18 464 8612 0 1.25799389
Link 772 14 8628 0 0.33214196
Link 56 61 8683 0 -1.81633000
Link 1057 1113 8703 0 0.53056273
Link 1113 158 8704 0 1.34775297
Link 885 211 8729 0 0.91437857
Link 78 53 8784 0 1.02580721
Link 56 22 8949 0 2.73525369
Link 906 536 9120 0 -0.34782278
GenomeEnd

