GenomeStart 6822
Neuron 1 1 0.00000000 1 0.00000000 0.00000000 0.00000000 0.00000000
Neuron 2 1 0.00000000 1 0.00000000 0.00000000 0.00000000 0.00000000
Neuron 3 1 0.00000000 1 0.00000000 0.00000000 0.00000000 0.00000000
Neuron 4 1 0.00000000 1 0.00000000 0.00000000 0.00000000 0.00000000
Neuron 5 1 0.00000000 1 0.00000000 0.00000000 0.00000000 0.00000000
Neuron 6 1 0.00000000 1 0.00000000 0.00000000 0.00000000 0.00000000
Neuron 7 1 0.00000000 1 0.00000000 0.00000000 0.00000000 0.00000000
Neuron 8 1 0.00000000 1 0.00000000 0.00000000 0.00000000 0.00000000
Neuron 9 2 0.00000000 1 0.00000000 0.00000000 0.00000000 0.00000000
Neuron 10 4 1.00000000 0 1.00000000 0.00000000 0.00000000 0.00000000
Neuron 11 4 1.00000000 0 1.00000000 0.00000000 0.00000000 0.00000000
Neuron 12 4 1.00000000 0 1.00000000 0.00000000 0.00000000 0.00000000
Neuron 13 4 1.00000000 0 1.00000000 0.00000000 0.00000000 0.00000000
Neuron 14 4 1.00000000 0 1.00000000 0.00000000 0.00000000 0.00000000
Neuron 15 4 1.00000000 0 1.00000000 0.00000000 0.00000000 0.00000000
Neuron 16 4 1.00000000 0 1.00000000 0.00000000 0.00000000 0.00000000
Neuron 23 3 0.50000000 1 1.00000000 0.00000000 0.00000000 0.00000000
Neuron 37 3 0.50000000 1 1.00000000 0.00000000 0.00000000 0.00000000
Neuron 45 3 0.50000000 1 1.00000000 0.00000000 0.00000000 0.00000000
Neuron 56 3 0.50000000 1 1.00000000 0.00000000 0.00000000 0.00000000
Neuron 118 3 0.75000000 1 1.00000000 0.00000000 0.00000000 0.00000000
Link 1 10 1 0 1.91888462
Link 2 10 2 0 -0.41734712
Link 3 10 3 0 0.66100096
Link 4 10 4 0 -2.33199708
Link 5 10 5 0 -4.19797575
Link 6 10 6 0 -2.76197723
Link 7 10 7 0 -2.20163011
Link 8 10 8 0 -1.22078846
Link 9 10 9 0 -0.36922912
Link 1 11 10 0 1.45862848
Link 2 11 11 0 -0.43602407
Link 3 11 12 0 3.13737500
Link 4 11 13 0 0.34032731
Link 5 11 14 0 0.47309842
Link 6 11 15 0 -2.41818190
Link 7 11 16 0 -3.55950364
Link 8 11 17 0 2.76896797
Link 9 11 18 0 -1.36891300
Link 1 12 19 0 3.89918097
Link 2 12 20 0 0.72542351
Link 3 12 21 0 0.99499791
Link 5 12 23 0 -2.85214826
Link 6 12 24 0 1.67453368
Link 7 12 25 0 3.35181453
Link 8 12 26 0 -0.32636161
Link 9 12 27 0 1.41032921
Link 1 13 28 0 0.83770463
Link 2 13 29 0 -0.89422030
Link 3 13 30 0 -1.92050875
Link 4 13 31 0 0.29523206
Link 5 13 32 0 1.52822795
Link 6 13 33 0 -3.30902496
Link 7 13 34 0 0.08855930
Link 8 13 35 0 1.41667112
Link 9 13 36 0 1.05668486
Link 1 14 37 0 -0.06293857
Link 3 14 39 0 -2.31072527
Link 4 14 40 0 -1.97350230
Link 6 14 42 0 0.26488927
Link 7 14 43 0 1.34125834
Link 8 14 44 0 1.76293826
Link 9 14 45 0 -1.06547466
Link 1 15 46 0 0.98073725
Link 2 15 47 0 1.76986760
Link 3 15 48 0 1.64569074
Link 4 15 49 0 -1.39959613
Link 5 15 50 0 -0.87547565
Link 6 15 51 0 1.58645953
Link 7 15 52 0 1.17296568
Link 8 15 53 0 -4.42381200
Link 9 15 54 0 -0.61508430
Link 1 16 55 0 -0.75190078
Link 2 16 56 0 0.62439257
Link 4 16 58 0 -2.55271846
Link 5 16 59 0 0.56901652
Link 6 16 60 0 1.27127198
Link 7 16 61 0 3.95795629
Link 8 16 62 0 3.41568335
Link 9 16 63 0 -0.34889092
Link 4 23 83 0 2.80267624
Link 23 12 84 0 1.51675569
Link 2 37 127 0 2.95180193
Link 37 14 128 0 -2.10090803
Link 5 45 151 0 0.45849017
Link 45 14 152 0 0.79817750
Link 3 56 194 0 -1.94171202
Link 8 23 276 0 -2.19553022
Link 56 118 715 0 1.00000000
Link 118 16 716 0 2.12238479
Link 23 15 818 0 -3.53106950
Link 45 23 931 0 -2.82566020
GenomeEnd

