GenomeStart 34755
Neuron 1 1 0.00000000 1 0.00000000 0.00000000 0.00000000 0.00000000
Neuron 2 1 0.00000000 1 0.00000000 0.00000000 0.00000000 0.00000000
Neuron 3 1 0.00000000 1 0.00000000 0.00000000 0.00000000 0.00000000
Neuron 4 1 0.00000000 1 0.00000000 0.00000000 0.00000000 0.00000000
Neuron 5 1 0.00000000 1 0.00000000 0.00000000 0.00000000 0.00000000
Neuron 6 1 0.00000000 1 0.00000000 0.00000000 0.00000000 0.00000000
Neuron 7 1 0.00000000 1 0.00000000 0.00000000 0.00000000 0.00000000
Neuron 8 1 0.00000000 1 0.00000000 0.00000000 0.00000000 0.00000000
Neuron 9 2 0.00000000 1 0.00000000 0.00000000 0.00000000 0.00000000
Neuron 10 4 1.00000000 0 1.00000000 0.00000000 0.00000000 0.00000000
Neuron 11 4 1.00000000 0 1.00000000 0.00000000 0.00000000 0.00000000
Neuron 12 4 1.00000000 0 1.00000000 0.00000000 0.00000000 0.00000000
Neuron 13 4 1.00000000 0 1.00000000 0.00000000 0.00000000 0.00000000
Neuron 14 4 1.00000000 0 1.00000000 0.00000000 0.00000000 0.00000000
Neuron 15 4 1.00000000 0 1.00000000 0.00000000 0.00000000 0.00000000
Neuron 16 4 1.00000000 0 1.00000000 0.00000000 0.00000000 0.00000000
Neuron 17 3 0.50000000 1 1.00000000 0.00000000 0.00000000 0.00000000
Neuron 19 3 0.50000000 1 1.00000000 0.00000000 0.00000000 0.00000000
Neuron 22 3 0.50000000 1 1.00000000 0.00000000 0.00000000 0.00000000
Neuron 23 3 0.50000000 1 1.00000000 0.00000000 0.00000000 0.00000000
Neuron 30 3 0.50000000 1 1.00000000 0.00000000 0.00000000 0.00000000
Neuron 32 3 0.50000000 1 1.00000000 0.00000000 0.00000000 0.00000000
Neuron 34 3 0.50000000 1 1.00000000 0.00000000 0.00000000 0.00000000
Neuron 40 3 0.50000000 1 1.00000000 0.00000000 0.00000000 0.00000000
Neuron 41 3 0.50000000 1 1.00000000 0.00000000 0.00000000 0.00000000
Neuron 42 3 0.50000000 1 1.00000000 0.00000000 0.00000000 0.00000000
Neuron 44 3 0.50000000 1 1.00000000 0.00000000 0.00000000 0.00000000
Neuron 46 3 0.50000000 1 1.00000000 0.00000000 0.00000000 0.00000000
Neuron 50 3 0.50000000 1 1.00000000 0.00000000 0.00000000 0.00000000
Neuron 55 3 0.50000000 1 1.00000000 0.00000000 0.00000000 0.00000000
Neuron 57 3 0.50000000 1 1.00000000 0.00000000 0.00000000 0.00000000
Neuron 61 3 0.50000000 1 1.00000000 0.00000000 0.00000000 0.00000000
Neuron 64 3 0.50000000 1 1.00000000 0.00000000 0.00000000 0.00000000
Neuron 68 3 0.50000000 1 1.00000000 0.00000000 0.00000000 0.00000000
Neuron 70 3 0.25000000 1 1.00000000 0.00000000 0.00000000 0.00000000
Neuron 81 3 0.50000000 1 1.00000000 0.00000000 0.00000000 0.00000000
Neuron 85 3 0.75000000 1 1.00000000 0.00000000 0.00000000 0.00000000
Neuron 98 3 0.25000000 1 1.00000000 0.00000000 0.00000000 0.00000000
Neuron 113 3 0.75000000 1 1.00000000 0.00000000 0.00000000 0.00000000
Neuron 129 3 0.75000000 1 1.00000000 0.00000000 0.00000000 0.00000000
Neuron 142 3 0.75000000 1 1.00000000 0.00000000 0.00000000 0.00000000
Neuron 147 3 0.25000000 1 1.00000000 0.00000000 0.00000000 0.00000000
Neuron 156 3 0.75000000 1 1.00000000 0.00000000 0.00000000 0.00000000
Neuron 165 3 0.25000000 1 1.00000000 0.00000000 0.00000000 0.00000000
Neuron 177 3 0.62500000 1 1.00000000 0.00000000 0.00000000 0.00000000
Neuron 187 3 0.75000000 1 1.00000000 0.00000000 0.00000000 0.00000000
Neuron 212 3 0.25000000 1 1.00000000 0.00000000 0.00000000 0.00000000
Neuron 226 3 0.25000000 1 1.00000000 0.00000000 0.00000000 0.00000000
Neuron 234 3 0.25000000 1 1.00000000 0.00000000 0.00000000 0.00000000
Neuron 239 3 0.75000000 1 1.00000000 0.00000000 0.00000000 0.00000000
Neuron 251 3 0.87500000 1 1.00000000 0.00000000 0.00000000 0.00000000
Neuron 282 3 0.37500000 1 1.00000000 0.00000000 0.00000000 0.00000000
Neuron 310 3 0.75000000 1 1.00000000 0.00000000 0.00000000 0.00000000
Neuron 377 3 0.50000000 1 1.00000000 0.00000000 0.00000000 0.00000000
Neuron 426 3 0.62500000 1 1.00000000 0.00000000 0.00000000 0.00000000
Neuron 430 3 0.25000000 1 1.00000000 0.00000000 0.00000000 0.00000000
Neuron 454 3 0.50000000 1 1.00000000 0.00000000 0.00000000 0.00000000
Neuron 494 3 1.00000000 1 1.00000000 0.00000000 0.00000000 0.00000000
Neuron 625 3 0.62500000 1 1.00000000 0.00000000 0.00000000 0.00000000
Neuron 707 3 0.50000000 1 1.00000000 0.00000000 0.00000000 0.00000000
Link 1 10 1 0 -0.99388949
Link 6 10 6 0 2.49068970
Link 9 10 9 0 0.43293686
Link 1 11 10 0 -1.94922748
Link 2 11 11 0 1.97086512
Link 4 11 13 0 5.50964558
Link 5 11 14 0 0.52339737
Link 7 11 16 0 0.56610830
Link 9 11 18 0 0.82238341
Link 1 12 19 0 -3.54317621
Link 2 12 20 0 1.62050494
Link 4 12 22 0 2.44415928
Link 6 12 24 0 -1.07166029
Link 7 12 25 0 2.13335046
Link 8 12 26 0 -0.61601963
Link 9 12 27 0 -0.54811451
Link 1 13 28 0 -2.14825055
Link 3 13 30 0 -0.37034849
Link 6 13 33 0 -1.38816471
Link 3 14 39 0 -0.42311399
Link 4 14 40 0 2.60130370
Link 6 14 42 0 0.61733800
Link 8 14 44 0 -0.85103227
Link 9 14 45 0 -2.21015812
Link 1 15 46 0 1.42248436
Link 2 15 47 0 0.27169028
Link 3 15 48 0 -0.26628765
Link 6 15 51 0 -0.92937474
Link 7 15 52 0 1.00689988
Link 8 15 53 0 -1.84444483
Link 9 15 54 0 1.17034890
Link 1 16 55 0 0.33537690
Link 2 16 56 0 0.14557502
Link 3 16 57 0 -0.15196575
Link 4 16 58 0 0.26078603
Link 5 16 59 0 -0.00023744
Link 7 16 61 0 1.90815869
Link 8 16 62 0 -3.51394661
Link 9 16 63 0 -0.11749440
Link 4 17 65 0 -1.14848698
Link 2 19 71 0 0.06751957
Link 19 10 72 0 0.83175139
Link 6 22 80 0 0.76853048
Link 22 16 81 0 -0.71224130
Link 23 11 84 0 -1.52339993
Link 30 14 106 0 -1.67344399
Link 8 32 111 0 -0.03851577
Link 34 12 119 0 0.95291207
Link 41 14 142 0 -0.96903531
Link 8 42 144 0 0.24820157
Link 42 11 145 0 -0.28012780
Link 3 44 150 0 1.00000000
Link 44 11 151 0 -0.50977311
Link 5 46 156 0 0.24451435
Link 46 12 157 0 -1.37553308
Link 5 50 171 0 -0.46653274
Link 2 55 193 0 0.38373090
Link 55 11 194 0 0.27889818
Link 5 57 202 0 0.10811856
Link 7 61 219 0 2.51425327
Link 61 13 220 0 0.69887996
Link 7 64 237 0 -0.37019794
Link 7 55 249 0 -0.47897138
Link 5 55 250 0 -0.74351067
Link 1 70 307 0 1.86727011
Link 70 41 308 0 2.91331120
Link 2 81 399 0 0.90478285
Link 81 13 400 0 -2.50659423
Link 16 85 430 1 2.95694499
Link 6 98 520 0 0.40292996
Link 98 23 521 0 0.41892372
Link 13 55 582 1 0.30632325
Link 113 15 641 0 -0.20295894
Link 50 129 790 0 -0.22626396
Link 129 14 791 0 2.66207197
Link 32 142 854 0 0.00454367
Link 142 13 855 0 -1.35444433
Link 19 57 882 0 3.03495334
Link 7 147 884 0 1.32476590
Link 147 68 885 0 -0.59778980
Link 57 156 931 0 1.68582285
Link 156 15 932 0 0.54220471
Link 32 14 970 0 1.12500788
Link 2 165 1005 0 1.20276400
Link 165 30 1006 0 -0.73718767
Link 85 177 1131 1 -0.10242154
Link 177 68 1132 1 1.50817081
Link 40 187 1190 0 0.08121599
Link 4 212 1339 0 1.80687714
Link 212 40 1340 0 0.71757266
Link 3 226 1447 0 -1.47632287
Link 226 34 1448 0 0.99469920
Link 4 234 1505 0 -3.25971372
Link 68 239 1535 0 1.80378762
Link 239 10 1536 0 -1.26302173
Link 187 251 1600 0 -1.00667946
Link 251 13 1601 0 1.36768347
Link 19 55 1661 0 -0.33742305
Link 234 282 1813 0 -0.91987066
Link 282 55 1814 0 -1.07561280
Link 64 310 1970 0 0.68730432
Link 310 14 1971 0 -0.22675414
Link 1 98 2201 0 1.12778246
Link 34 377 2465 0 1.08269792
Link 377 81 2466 0 -1.47087628
Link 40 19 2520 0 -0.80417261
Link 4 282 2538 0 -1.84147816
Link 129 129 2564 1 0.27603065
Link 17 40 2643 0 0.14842759
Link 34 15 2755 0 2.61457024
Link 17 426 2801 0 -0.27652791
Link 426 113 2802 0 0.82251389
Link 129 17 2822 1 -1.19383169
Link 8 430 2838 0 -1.24521464
Link 430 40 2839 0 1.23154615
Link 32 454 3037 0 1.65530614
Link 454 19 3038 0 0.42717043
Link 34 310 3086 0 0.23865527
Link 32 15 3151 0 -1.24411548
Link 129 32 3288 1 -0.85062178
Link 15 494 3341 1 0.72722725
Link 494 15 3342 1 -2.43681743
Link 85 14 3454 0 0.40224647
Link 30 30 3785 1 4.07685491
Link 165 426 3842 0 -1.06978572
Link 177 70 3881 1 -0.94050258
Link 494 282 3904 1 1.26239629
Link 16 251 3932 1 1.30815975
Link 251 454 4233 1 -0.00969467
Link 5 494 4368 0 -2.11132793
Link 19 70 4462 1 -0.87814973
Link 85 625 4509 1 -1.53005754
Link 625 64 4510 1 -0.81756072
Link 57 23 4546 0 -0.96136341
Link 234 226 4848 0 -2.78968662
Link 1 234 4988 0 -0.26330032
Link 625 625 5186 1 3.74227262
Link 19 707 5206 1 1.00000000
Link 707 19 5207 1 4.53022104
Link 5 147 5254 0 2.62491345
GenomeEnd

