GenomeStart 68968
Neuron 1 1 0.00000000 1 0.00000000 0.00000000 0.00000000 0.00000000
Neuron 2 1 0.00000000 1 0.00000000 0.00000000 0.00000000 0.00000000
Neuron 3 1 0.00000000 1 0.00000000 0.00000000 0.00000000 0.00000000
Neuron 4 1 0.00000000 1 0.00000000 0.00000000 0.00000000 0.00000000
Neuron 5 1 0.00000000 1 0.00000000 0.00000000 0.00000000 0.00000000
Neuron 6 1 0.00000000 1 0.00000000 0.00000000 0.00000000 0.00000000
Neuron 7 1 0.00000000 1 0.00000000 0.00000000 0.00000000 0.00000000
Neuron 8 1 0.00000000 1 0.00000000 0.00000000 0.00000000 0.00000000
Neuron 9 2 0.00000000 1 0.00000000 0.00000000 0.00000000 0.00000000
Neuron 10 4 1.00000000 0 1.00000000 0.00000000 0.00000000 0.00000000
Neuron 11 4 1.00000000 0 1.00000000 0.00000000 0.00000000 0.00000000
Neuron 12 4 1.00000000 0 1.00000000 0.00000000 0.00000000 0.00000000
Neuron 13 4 1.00000000 0 1.00000000 0.00000000 0.00000000 0.00000000
Neuron 14 4 1.00000000 0 1.00000000 0.00000000 0.00000000 0.00000000
Neuron 15 4 1.00000000 0 1.00000000 0.00000000 0.00000000 0.00000000
Neuron 16 4 1.00000000 0 1.00000000 0.00000000 0.00000000 0.00000000
Neuron 17 3 0.50000000 1 1.00000000 0.00000000 0.00000000 0.00000000
Neuron 19 3 0.50000000 1 1.00000000 0.00000000 0.00000000 0.00000000
Neuron 22 3 0.50000000 1 1.00000000 0.00000000 0.00000000 0.00000000
Neuron 23 3 0.50000000 1 1.00000000 0.00000000 0.00000000 0.00000000
Neuron 26 3 0.50000000 1 1.00000000 0.00000000 0.00000000 0.00000000
Neuron 29 3 0.50000000 1 1.00000000 0.00000000 0.00000000 0.00000000
Neuron 30 3 0.50000000 1 1.00000000 0.00000000 0.00000000 0.00000000
Neuron 31 3 0.50000000 1 1.00000000 0.00000000 0.00000000 0.00000000
Neuron 32 3 0.50000000 1 1.00000000 0.00000000 0.00000000 0.00000000
Neuron 33 3 0.50000000 1 1.00000000 0.00000000 0.00000000 0.00000000
Neuron 34 3 0.50000000 1 1.00000000 0.00000000 0.00000000 0.00000000
Neuron 35 3 0.50000000 1 1.00000000 0.00000000 0.00000000 0.00000000
Neuron 36 3 0.50000000 1 1.00000000 0.00000000 0.00000000 0.00000000
Neuron 38 3 0.50000000 1 1.00000000 0.00000000 0.00000000 0.00000000
Neuron 39 3 0.50000000 1 1.00000000 0.00000000 0.00000000 0.00000000
Neuron 40 3 0.50000000 1 1.00000000 0.00000000 0.00000000 0.00000000
Neuron 41 3 0.50000000 1 1.00000000 0.00000000 0.00000000 0.00000000
Neuron 42 3 0.50000000 1 1.00000000 0.00000000 0.00000000 0.00000000
Neuron 43 3 0.50000000 1 1.00000000 0.00000000 0.00000000 0.00000000
Neuron 44 3 0.50000000 1 1.00000000 0.00000000 0.00000000 0.00000000
Neuron 45 3 0.50000000 1 1.00000000 0.00000000 0.00000000 0.00000000
Neuron 46 3 0.50000000 1 1.00000000 0.00000000 0.00000000 0.00000000
Neuron 48 3 0.50000000 1 1.00000000 0.00000000 0.00000000 0.00000000
Neuron 50 3 0.50000000 1 1.00000000 0.00000000 0.00000000 0.00000000
Neuron 53 3 0.50000000 1 1.00000000 0.00000000 0.00000000 0.00000000
Neuron 55 3 0.50000000 1 1.00000000 0.00000000 0.00000000 0.00000000
Neuron 56 3 0.50000000 1 1.00000000 0.00000000 0.00000000 0.00000000
Neuron 57 3 0.50000000 1 1.00000000 0.00000000 0.00000000 0.00000000
Neuron 58 3 0.50000000 1 1.00000000 0.00000000 0.00000000 0.00000000
Neuron 61 3 0.50000000 1 1.00000000 0.00000000 0.00000000 0.00000000
Neuron 64 3 0.50000000 1 1.00000000 0.00000000 0.00000000 0.00000000
Neuron 65 3 0.75000000 1 1.00000000 0.00000000 0.00000000 0.00000000
Neuron 68 3 0.50000000 1 1.00000000 0.00000000 0.00000000 0.00000000
Neuron 69 3 0.75000000 1 1.00000000 0.00000000 0.00000000 0.00000000
Neuron 70 3 0.25000000 1 1.00000000 0.00000000 0.00000000 0.00000000
Neuron 71 3 0.50000000 1 1.00000000 0.00000000 0.00000000 0.00000000
Neuron 72 3 0.75000000 1 1.00000000 0.00000000 0.00000000 0.00000000
Neuron 76 3 0.50000000 1 1.00000000 0.00000000 0.00000000 0.00000000
Neuron 81 3 0.50000000 1 1.00000000 0.00000000 0.00000000 0.00000000
Neuron 85 3 0.75000000 1 1.00000000 0.00000000 0.00000000 0.00000000
Neuron 88 3 0.75000000 1 1.00000000 0.00000000 0.00000000 0.00000000
Neuron 90 3 0.25000000 1 1.00000000 0.00000000 0.00000000 0.00000000
Neuron 91 3 0.25000000 1 1.00000000 0.00000000 0.00000000 0.00000000
Neuron 98 3 0.25000000 1 1.00000000 0.00000000 0.00000000 0.00000000
Neuron 104 3 0.25000000 1 1.00000000 0.00000000 0.00000000 0.00000000
Neuron 113 3 0.75000000 1 1.00000000 0.00000000 0.00000000 0.00000000
Neuron 119 3 0.50000000 1 1.00000000 0.00000000 0.00000000 0.00000000
Neuron 129 3 0.75000000 1 1.00000000 0.00000000 0.00000000 0.00000000
Neuron 130 3 0.75000000 1 1.00000000 0.00000000 0.00000000 0.00000000
Neuron 132 3 0.25000000 1 1.00000000 0.00000000 0.00000000 0.00000000
Neuron 138 3 0.75000000 1 1.00000000 0.00000000 0.00000000 0.00000000
Neuron 139 3 0.25000000 1 1.00000000 0.00000000 0.00000000 0.00000000
Neuron 141 3 0.75000000 1 1.00000000 0.00000000 0.00000000 0.00000000
Neuron 145 3 0.25000000 1 1.00000000 0.00000000 0.00000000 0.00000000
Neuron 147 3 0.25000000 1 1.00000000 0.00000000 0.00000000 0.00000000
Neuron 156 3 0.75000000 1 1.00000000 0.00000000 0.00000000 0.00000000
Neuron 161 3 0.37500000 1 1.00000000 0.00000000 0.00000000 0.00000000
Neuron 165 3 0.25000000 1 1.00000000 0.00000000 0.00000000 0.00000000
Neuron 168 3 0.75000000 1 1.00000000 0.00000000 0.00000000 0.00000000
Neuron 175 3 0.25000000 1 1.00000000 0.00000000 0.00000000 0.00000000
Neuron 177 3 0.62500000 1 1.00000000 0.00000000 0.00000000 0.00000000
Neuron 178 3 0.75000000 1 1.00000000 0.00000000 0.00000000 0.00000000
Neuron 180 3 0.50000000 1 1.00000000 0.00000000 0.00000000 0.00000000
Neuron 183 3 0.75000000 1 1.00000000 0.00000000 0.00000000 0.00000000
Neuron 187 3 0.75000000 1 1.00000000 0.00000000 0.00000000 0.00000000
Neuron 207 3 0.75000000 1 1.00000000 0.00000000 0.00000000 0.00000000
Neuron 212 3 0.25000000 1 1.00000000 0.00000000 0.00000000 0.00000000
Neuron 214 3 0.25000000 1 1.00000000 0.00000000 0.00000000 0.00000000
Neuron 221 3 0.37500000 1 1.00000000 0.00000000 0.00000000 0.00000000
Neuron 226 3 0.25000000 1 1.00000000 0.00000000 0.00000000 0.00000000
Neuron 229 3 0.37500000 1 1.00000000 0.00000000 0.00000000 0.00000000
Neuron 231 3 0.25000000 1 1.00000000 0.00000000 0.00000000 0.00000000
Neuron 232 3 0.75000000 1 1.00000000 0.00000000 0.00000000 0.00000000
Neuron 234 3 0.25000000 1 1.00000000 0.00000000 0.00000000 0.00000000
Neuron 235 3 0.25000000 1 1.00000000 0.00000000 0.00000000 0.00000000
Neuron 239 3 0.75000000 1 1.00000000 0.00000000 0.00000000 0.00000000
Neuron 249 3 0.12500000 1 1.00000000 0.00000000 0.00000000 0.00000000
Neuron 251 3 0.87500000 1 1.00000000 0.00000000 0.00000000 0.00000000
Neuron 282 3 0.37500000 1 1.00000000 0.00000000 0.00000000 0.00000000
Neuron 291 3 0.25000000 1 1.00000000 0.00000000 0.00000000 0.00000000
Neuron 297 3 0.50000000 1 1.00000000 0.00000000 0.00000000 0.00000000
Neuron 301 3 0.50000000 1 1.00000000 0.00000000 0.00000000 0.00000000
Neuron 310 3 0.75000000 1 1.00000000 0.00000000 0.00000000 0.00000000
Neuron 338 3 0.25000000 1 1.00000000 0.00000000 0.00000000 0.00000000
Neuron 351 3 0.37500000 1 1.00000000 0.00000000 0.00000000 0.00000000
Neuron 372 3 0.87500000 1 1.00000000 0.00000000 0.00000000 0.00000000
Neuron 377 3 0.50000000 1 1.00000000 0.00000000 0.00000000 0.00000000
Neuron 393 3 0.37500000 1 1.00000000 0.00000000 0.00000000 0.00000000
Neuron 413 3 0.75000000 1 1.00000000 0.00000000 0.00000000 0.00000000
Neuron 422 3 0.87500000 1 1.00000000 0.00000000 0.00000000 0.00000000
Neuron 426 3 0.62500000 1 1.00000000 0.00000000 0.00000000 0.00000000
Neuron 430 3 0.25000000 1 1.00000000 0.00000000 0.00000000 0.00000000
Neuron 435 3 0.31250000 1 1.00000000 0.00000000 0.00000000 0.00000000
Neuron 436 3 0.87500000 1 1.00000000 0.00000000 0.00000000 0.00000000
Neuron 440 3 0.62500000 1 1.00000000 0.00000000 0.00000000 0.00000000
Neuron 447 3 0.18750000 1 1.00000000 0.00000000 0.00000000 0.00000000
Neuron 454 3 0.50000000 1 1.00000000 0.00000000 0.00000000 0.00000000
Neuron 476 3 0.12500000 1 1.00000000 0.00000000 0.00000000 0.00000000
Neuron 477 3 0.75000000 1 1.00000000 0.00000000 0.00000000 0.00000000
Neuron 494 3 1.00000000 1 1.00000000 0.00000000 0.00000000 0.00000000
Neuron 514 3 0.25000000 1 1.00000000 0.00000000 0.00000000 0.00000000
Neuron 519 3 1.00000000 1 1.00000000 0.00000000 0.00000000 0.00000000
Neuron 524 3 0.62500000 1 1.00000000 0.00000000 0.00000000 0.00000000
Neuron 535 3 0.50000000 1 1.00000000 0.00000000 0.00000000 0.00000000
Neuron 539 3 0.75000000 1 1.00000000 0.00000000 0.00000000 0.00000000
Neuron 540 3 0.62500000 1 1.00000000 0.00000000 0.00000000 0.00000000
Neuron 549 3 0.62500000 1 1.00000000 0.00000000 0.00000000 0.00000000
Neuron 558 3 0.50000000 1 1.00000000 0.00000000 0.00000000 0.00000000
Neuron 564 3 0.28125000 1 1.00000000 0.00000000 0.00000000 0.00000000
Neuron 569 3 0.25000000 1 1.00000000 0.00000000 0.00000000 0.00000000
Neuron 575 3 0.18750000 1 1.00000000 0.00000000 0.00000000 0.00000000
Neuron 589 3 0.93750000 1 1.00000000 0.00000000 0.00000000 0.00000000
Neuron 605 3 0.21875000 1 1.00000000 0.00000000 0.00000000 0.00000000
Neuron 609 3 0.43750000 1 1.00000000 0.00000000 0.00000000 0.00000000
Neuron 611 3 0.50000000 1 1.00000000 0.00000000 0.00000000 0.00000000
Neuron 619 3 0.93750000 1 1.00000000 0.00000000 0.00000000 0.00000000
Neuron 625 3 0.62500000 1 1.00000000 0.00000000 0.00000000 0.00000000
Neuron 630 3 0.50000000 1 1.00000000 0.00000000 0.00000000 0.00000000
Neuron 631 3 0.62500000 1 1.00000000 0.00000000 0.00000000 0.00000000
Neuron 637 3 0.50000000 1 1.00000000 0.00000000 0.00000000 0.00000000
Neuron 638 3 0.43750000 1 1.00000000 0.00000000 0.00000000 0.00000000
Neuron 645 3 0.12500000 1 1.00000000 0.00000000 0.00000000 0.00000000
Neuron 659 3 0.17187500 1 1.00000000 0.00000000 0.00000000 0.00000000
Neuron 681 3 0.68750000 1 1.00000000 0.00000000 0.00000000 0.00000000
Neuron 687 3 0.50000000 1 1.00000000 0.00000000 0.00000000 0.00000000
Neuron 698 3 0.25000000 1 1.00000000 0.00000000 0.00000000 0.00000000
Neuron 712 3 0.68750000 1 1.00000000 0.00000000 0.00000000 0.00000000
Neuron 732 3 0.50000000 1 1.00000000 0.00000000 0.00000000 0.00000000
Neuron 736 3 0.68750000 1 1.00000000 0.00000000 0.00000000 0.00000000
Neuron 745 3 0.75000000 1 1.00000000 0.00000000 0.00000000 0.00000000
Neuron 796 3 0.50000000 1 1.00000000 0.00000000 0.00000000 0.00000000
Neuron 826 3 0.26562500 1 1.00000000 0.00000000 0.00000000 0.00000000
Neuron 882 3 0.62500000 1 1.00000000 0.00000000 0.00000000 0.00000000
Neuron 896 3 0.12500000 1 1.00000000 0.00000000 0.00000000 0.00000000
Neuron 917 3 0.62500000 1 1.00000000 0.00000000 0.00000000 0.00000000
Neuron 991 3 0.50000000 1 1.00000000 0.00000000 0.00000000 0.00000000
Neuron 993 3 0.56250000 1 1.00000000 0.00000000 0.00000000 0.00000000
Neuron 1009 3 0.71875000 1 1.00000000 0.00000000 0.00000000 0.00000000
Neuron 1021 3 0.06250000 1 1.00000000 0.00000000 0.00000000 0.00000000
Neuron 1043 3 0.62500000 1 1.00000000 0.00000000 0.00000000 0.00000000
Neuron 1093 3 0.56250000 1 1.00000000 0.00000000 0.00000000 0.00000000
Neuron 1110 3 0.43750000 1 1.00000000 0.00000000 0.00000000 0.00000000
Neuron 1154 3 0.31250000 1 1.00000000 0.00000000 0.00000000 0.00000000
Neuron 1155 3 0.50000000 1 1.00000000 0.00000000 0.00000000 0.00000000
Neuron 1198 3 0.25000000 1 1.00000000 0.00000000 0.00000000 0.00000000
Neuron 1227 3 0.82812500 1 1.00000000 0.00000000 0.00000000 0.00000000
Link 1 10 1 0 -2.37720381
Link 2 10 2 0 2.05185205
Link 3 10 3 0 1.30689930
Link 4 10 4 0 -0.01236802
Link 6 10 6 0 0.22076436
Link 8 10 8 0 -3.07971312
Link 1 11 10 0 -3.04151920
Link 2 11 11 0 1.86102824
Link 3 11 12 0 0.51267897
Link 4 11 13 0 1.57068012
Link 5 11 14 0 -0.59880574
Link 6 11 15 0 -0.23719537
Link 7 11 16 0 -0.18634575
Link 9 11 18 0 -1.39930488
Link 1 12 19 0 -1.28736993
Link 3 12 21 0 1.25958858
Link 4 12 22 0 -0.84069819
Link 5 12 23 0 1.77204339
Link 6 12 24 0 -5.32837108
Link 8 12 26 0 0.14831252
Link 9 12 27 0 1.69491946
Link 1 13 28 0 -1.58555788
Link 3 13 30 0 -0.32559906
Link 4 13 31 0 -2.13142442
Link 6 13 33 0 0.52664765
Link 9 13 36 0 2.78760770
Link 3 14 39 0 0.75507293
Link 4 14 40 0 1.29686067
Link 6 14 42 0 3.39836398
Link 8 14 44 0 1.36959402
Link 9 14 45 0 0.81840554
Link 1 15 46 0 -2.00418368
Link 2 15 47 0 -0.02033408
Link 4 15 49 0 -2.42004787
Link 5 15 50 0 0.11479103
Link 7 15 52 0 1.83924709
Link 9 15 54 0 -0.34023741
Link 1 16 55 0 -2.00811359
Link 2 16 56 0 -0.58308869
Link 3 16 57 0 -1.24457832
Link 4 16 58 0 -0.44596794
Link 5 16 59 0 -0.31357483
Link 7 16 61 0 -2.55146463
Link 8 16 62 0 -0.36892444
Link 9 16 63 0 0.94444566
Link 6 22 80 0 0.88252915
Link 22 16 81 0 1.60005792
Link 5 26 93 0 -1.54958428
Link 8 29 102 0 1.89788365
Link 2 30 105 0 -0.97443536
Link 30 14 106 0 -1.08012118
Link 31 13 109 0 -1.78213261
Link 32 13 112 0 0.26994723
Link 6 33 115 0 0.92732290
Link 33 13 116 0 -0.34509663
Link 34 12 119 0 3.60467554
Link 5 35 121 0 1.40661330
Link 35 13 122 0 -1.30377280
Link 4 36 126 0 3.13696430
Link 36 14 127 0 -4.85172706
Link 2 38 132 0 0.58823006
Link 6 39 135 0 -1.97619923
Link 41 14 142 0 2.03737888
Link 8 42 144 0 1.00621279
Link 42 11 145 0 0.62456473
Link 43 15 148 0 -1.50929604
Link 45 16 154 0 1.78834990
Link 5 46 156 0 2.59017459
Link 46 12 157 0 1.65806705
Link 2 48 162 0 -1.20845059
Link 7 53 186 0 -1.88782400
Link 2 55 193 0 0.95692601
Link 55 11 194 0 0.67907416
Link 7 56 197 0 -0.92847079
Link 56 16 198 0 -0.87986957
Link 5 57 202 0 1.78185911
Link 6 58 208 0 -1.79902805
Link 61 13 220 0 2.33197730
Link 14 14 233 1 -0.63614159
Link 7 64 237 0 -4.54111861
Link 23 65 244 0 1.79211244
Link 65 11 245 0 0.21122237
Link 5 55 250 0 2.43560295
Link 15 38 261 1 4.10066355
Link 7 68 286 0 -0.11021691
Link 68 10 287 0 0.40729697
Link 38 69 290 0 4.77389848
Link 70 41 308 0 -0.75203921
Link 41 72 327 0 0.72618814
Link 72 14 328 0 -0.12647928
Link 76 14 351 0 1.77941979
Link 38 56 379 0 0.62272237
Link 2 81 399 0 0.16974133
Link 81 13 400 0 -1.92673159
Link 16 85 430 1 2.11833091
Link 29 88 448 0 -0.36845497
Link 88 15 449 0 -2.07624405
Link 3 90 459 0 1.06443244
Link 4 91 463 0 1.20982177
Link 91 17 464 0 -0.07927382
Link 6 98 520 0 1.69296603
Link 13 55 582 1 1.82129525
Link 8 104 601 0 1.73290835
Link 104 32 602 0 1.14286743
Link 113 15 641 0 1.48798309
Link 2 119 693 0 2.68366010
Link 129 14 791 0 2.32104463
Link 130 11 796 0 -4.05714916
Link 3 132 801 0 3.09535450
Link 132 43 802 0 -3.88320503
Link 44 138 832 0 1.58268377
Link 138 11 833 0 2.07767769
Link 2 139 835 0 0.34716568
Link 139 19 836 0 -2.52925300
Link 9 38 844 0 0.60402928
Link 39 141 847 0 1.66052582
Link 141 15 848 0 3.37187311
Link 4 145 867 0 3.21416918
Link 145 45 868 0 -0.02166905
Link 19 57 882 0 1.94371103
Link 7 147 884 0 -1.71253207
Link 147 68 885 0 -0.66075368
Link 57 156 931 0 2.24008557
Link 156 15 932 0 -0.32161975
Link 32 14 970 0 -1.75904109
Link 90 161 986 0 -1.58046916
Link 161 31 987 0 -0.28931406
Link 165 30 1006 0 -1.60857953
Link 119 168 1037 0 1.31568698
Link 168 12 1038 0 -1.46596450
Link 8 48 1064 0 -0.20523014
Link 68 68 1084 1 -4.34763814
Link 8 175 1110 0 0.90702107
Link 175 76 1111 0 2.67654485
Link 85 177 1131 1 -0.55902583
Link 177 68 1132 1 -0.89314773
Link 53 178 1135 0 2.47610727
Link 178 12 1136 0 -4.30062870
Link 2 180 1145 0 0.41201535
Link 180 11 1146 0 -0.06744462
Link 29 56 1156 0 0.80342547
Link 19 183 1174 0 2.65234581
Link 183 10 1175 0 1.01812439
Link 40 187 1190 0 0.54994052
Link 8 38 1271 0 3.01565847
Link 48 207 1299 0 1.74451720
Link 207 16 1300 0 -0.39508012
Link 10 32 1308 1 -1.54088032
Link 4 212 1339 0 1.83264249
Link 212 40 1340 0 -1.14845366
Link 3 214 1351 0 -0.32501673
Link 214 44 1352 0 -1.82369840
Link 5 71 1358 0 -2.93252419
Link 98 221 1402 0 0.61763632
Link 221 23 1403 0 -1.34455399
Link 10 68 1425 1 -1.83459462
Link 3 226 1447 0 1.55644034
Link 226 34 1448 0 0.65897454
Link 70 229 1466 0 -1.99974323
Link 229 41 1467 0 -0.19172493
Link 9 71 1475 0 2.31337774
Link 5 231 1477 0 1.43987491
Link 231 50 1478 0 -2.31997987
Link 58 232 1485 0 1.36454412
Link 232 14 1486 0 -2.24730393
Link 44 56 1490 0 -3.70182694
Link 4 234 1505 0 -2.58868972
Link 239 10 1536 0 -0.98902325
Link 1 249 1588 0 0.62798976
Link 249 70 1589 0 2.13177059
Link 187 251 1600 0 1.18505478
Link 251 13 1601 0 -2.18328188
Link 8 69 1708 0 -1.58674120
Link 234 282 1813 0 -1.01579112
Link 282 55 1814 0 3.20305611
Link 16 48 1827 1 -2.31747477
Link 7 291 1853 0 1.28572536
Link 291 61 1854 0 0.60049871
Link 19 297 1884 0 0.83887271
Link 297 55 1885 0 -2.18420914
Link 8 301 1910 0 1.82680538
Link 301 13 1911 0 -0.21539112
Link 310 14 1971 0 0.73614035
Link 8 338 2165 0 1.65471284
Link 338 68 2166 0 0.13576624
Link 1 98 2201 0 0.69807471
Link 31 351 2254 1 1.44662929
Link 71 31 2288 0 -0.10225405
Link 11 50 2323 1 2.09285827
Link 69 372 2424 0 -1.20897610
Link 372 12 2425 0 0.01139521
Link 377 81 2466 0 1.90764873
Link 12 30 2517 1 1.10817047
Link 40 19 2520 0 -0.95821290
Link 129 129 2564 1 2.55681231
Link 393 71 2567 0 0.35296006
Link 26 413 2685 0 0.23817093
Link 413 10 2686 0 -0.37187824
Link 44 26 2687 0 2.01777542
Link 129 422 2777 0 -1.61066131
Link 17 426 2801 0 -3.98842616
Link 426 113 2802 0 4.02017082
Link 8 430 2838 0 -2.54613923
Link 430 40 2839 0 2.27455122
Link 435 393 2885 0 0.45982609
Link 69 436 2888 0 1.65568195
Link 436 15 2889 0 -0.81405926
Link 64 440 2909 0 1.77304230
Link 440 310 2910 0 1.97449368
Link 30 68 2927 0 3.26776925
Link 38 338 2934 1 0.44040526
Link 435 14 2972 0 -1.42826745
Link 4 447 2984 0 3.61095081
Link 447 282 2985 0 -1.95814792
Link 50 11 2990 0 -1.59746051
Link 214 214 3012 1 0.33991600
Link 34 310 3086 0 1.43646814
Link 11 338 3108 1 0.43477974
Link 69 13 3154 0 -1.18077288
Link 4 476 3191 0 -1.06828574
Link 34 477 3196 0 4.17188904
Link 477 15 3197 0 -2.05558786
Link 129 32 3288 1 1.20705198
Link 35 48 3291 0 -0.58576850
Link 15 494 3341 1 0.38717788
Link 175 23 3433 0 3.89012363
Link 85 14 3454 0 -2.91438600
Link 5 514 3496 0 1.55476445
Link 494 519 3528 1 -0.52815264
Link 519 15 3529 1 -0.39532372
Link 129 524 3565 1 1.82040967
Link 524 17 3566 1 1.07558535
Link 17 535 3645 0 -1.63658971
Link 535 40 3646 0 -4.02113353
Link 35 539 3673 0 0.54852470
Link 539 16 3674 0 0.17327841
Link 540 129 3685 0 3.16363390
Link 17 22 3706 0 2.92640248
Link 56 69 3774 0 -1.47437188
Link 30 30 3785 1 -0.17967279
Link 71 549 3793 0 1.07041765
Link 549 130 3794 0 -1.04840172
Link 393 48 3799 0 2.33002611
Link 38 476 3858 1 -4.76340053
Link 558 15 3867 0 0.56835861
Link 564 435 3897 0 2.43335939
Link 494 282 3904 1 -0.07382001
Link 5 569 3927 0 -1.10560252
Link 569 32 3928 0 2.16300083
Link 476 575 3984 0 -5.68593158
Link 575 235 3985 0 0.97726024
Link 422 589 4105 0 1.63217507
Link 589 14 4106 0 -0.37702715
Link 589 16 4185 0 -2.33296742
Link 605 435 4245 0 2.47794250
Link 165 609 4286 0 0.16028633
Link 609 426 4287 0 1.17601471
Link 23 50 4305 0 -2.24661223
Link 454 611 4315 0 3.55078906
Link 611 19 4316 0 -0.69644761
Link 234 41 4363 0 -1.09676779
Link 16 619 4415 1 2.01262918
Link 619 251 4416 1 -1.60596211
Link 71 41 4453 0 -3.29969206
Link 4 129 4496 0 1.13783773
Link 85 625 4509 1 1.56043817
Link 625 64 4510 1 -0.95078943
Link 5 630 4532 0 -1.18980125
Link 630 494 4533 0 1.70148922
Link 631 239 4545 0 0.95046824
Link 32 637 4587 0 1.03490609
Link 637 454 4588 0 -0.92445433
Link 177 638 4594 1 -1.01843388
Link 638 70 4595 1 4.14790324
Link 645 165 4693 0 -0.82117069
Link 575 435 4702 0 1.51121589
Link 76 68 4716 0 1.23986886
Link 40 40 4724 1 -0.35108781
Link 476 659 4813 0 -0.42783705
Link 659 605 4814 0 -1.64884616
Link 68 130 4837 0 0.05179431
Link 251 681 5026 1 -0.19650197
Link 681 454 5027 1 2.56580151
Link 7 687 5077 0 3.31078014
Link 687 12 5078 0 -0.50447201
Link 698 55 5146 0 1.34339468
Link 130 129 5212 0 1.84038277
Link 251 712 5268 1 -0.48912474
Link 712 61 5269 1 1.73688353
Link 235 26 5385 0 1.95728449
Link 32 736 5456 0 -1.34059032
Link 736 251 5457 0 -2.15774509
Link 147 31 5497 0 1.69748508
Link 745 14 5527 0 2.38298109
Link 72 10 5548 0 2.77034339
Link 130 130 5784 1 0.17180201
Link 61 235 5787 1 -1.06727486
Link 569 44 5832 0 1.42561724
Link 226 76 5902 0 -0.09170522
Link 310 569 5975 1 0.95426023
Link 39 796 6036 0 2.20832406
Link 796 61 6037 0 0.01703375
Link 31 64 6210 0 -1.86257751
Link 235 826 6282 0 1.73056805
Link 826 564 6283 0 -0.88277848
Link 494 796 6517 1 -0.24761294
Link 454 882 6747 0 -0.34289624
Link 882 113 6748 0 -0.05292655
Link 645 38 6765 0 -4.47607757
Link 234 15 6860 0 -1.37716475
Link 58 422 6880 0 2.73444587
Link 7 896 6915 0 0.52973249
Link 896 698 6916 0 1.01081575
Link 64 917 7083 0 2.38579167
Link 917 745 7084 0 -0.12233578
Link 611 35 7189 0 0.93341523
Link 564 422 7273 0 -0.38075210
Link 19 239 7292 0 5.88687017
Link 113 539 7310 0 -4.11819835
Link 177 494 7470 0 0.59394122
Link 71 687 7517 0 -1.45015957
Link 72 645 7763 1 -0.81949661
Link 291 435 7801 0 2.39760941
Link 31 991 7838 0 0.36830400
Link 991 732 7839 0 2.40736492
Link 68 993 7851 0 0.65557258
Link 993 631 7852 0 0.83164278
Link 43 1009 8040 0 0.22344366
Link 161 422 8085 0 0.05533179
Link 2 1021 8108 0 1.23780300
Link 1021 645 8109 0 2.52845466
Link 58 1043 8362 0 -0.99377345
Link 1043 129 8363 0 -2.86703768
Link 630 48 8617 0 -0.82243865
Link 611 372 8689 0 1.36665129
Link 991 36 8705 0 -0.79372972
Link 619 338 8725 1 -1.42814838
Link 338 535 8744 0 1.28583569
Link 50 1093 8807 0 1.93215661
Link 1093 540 8808 0 1.74797661
Link 177 156 8916 0 3.67483896
Link 645 46 8931 0 0.26629144
Link 393 1110 8959 0 0.31018880
Link 1110 377 8960 0 1.67454364
Link 514 15 8984 0 -0.47901785
Link 540 15 9239 0 -0.09738153
Link 351 1154 9285 1 0.85448069
Link 1154 235 9286 1 0.41056962
Link 732 1155 9292 0 1.36698048
Link 1155 29 9293 0 -1.94602569
Link 826 33 9437 0 0.61318209
Link 71 796 9550 0 0.09856865
Link 8 1198 9693 0 1.05500923
Link 1198 558 9694 0 1.26395064
Link 712 129 9711 0 0.68263647
Link 58 732 9858 0 -2.27343004
Link 44 249 9890 1 -0.41238228
Link 1009 1227 9993 0 1.35804222
Link 1227 589 9994 0 3.64845097
Link 39 1155 10155 0 1.80695146
Link 147 168 10422 0 0.00499445
Link 71 991 10513 0 -1.64748386
Link 514 130 10685 0 0.88713162
GenomeEnd

