GenomeStart 96628
Neuron 1 1 0.00000000 1 0.00000000 0.00000000 0.00000000 0.00000000
Neuron 2 1 0.00000000 1 0.00000000 0.00000000 0.00000000 0.00000000
Neuron 3 1 0.00000000 1 0.00000000 0.00000000 0.00000000 0.00000000
Neuron 4 1 0.00000000 1 0.00000000 0.00000000 0.00000000 0.00000000
Neuron 5 1 0.00000000 1 0.00000000 0.00000000 0.00000000 0.00000000
Neuron 6 1 0.00000000 1 0.00000000 0.00000000 0.00000000 0.00000000
Neuron 7 1 0.00000000 1 0.00000000 0.00000000 0.00000000 0.00000000
Neuron 8 1 0.00000000 1 0.00000000 0.00000000 0.00000000 0.00000000
Neuron 9 2 0.00000000 1 0.00000000 0.00000000 0.00000000 0.00000000
Neuron 10 4 1.00000000 0 1.00000000 0.00000000 0.00000000 0.00000000
Neuron 11 4 1.00000000 0 1.00000000 0.00000000 0.00000000 0.00000000
Neuron 12 4 1.00000000 0 1.00000000 0.00000000 0.00000000 0.00000000
Neuron 13 4 1.00000000 0 1.00000000 0.00000000 0.00000000 0.00000000
Neuron 14 4 1.00000000 0 1.00000000 0.00000000 0.00000000 0.00000000
Neuron 15 4 1.00000000 0 1.00000000 0.00000000 0.00000000 0.00000000
Neuron 16 4 1.00000000 0 1.00000000 0.00000000 0.00000000 0.00000000
Neuron 17 3 0.50000000 1 1.00000000 0.00000000 0.00000000 0.00000000
Neuron 18 3 0.50000000 1 1.00000000 0.00000000 0.00000000 0.00000000
Neuron 19 3 0.50000000 1 1.00000000 0.00000000 0.00000000 0.00000000
Neuron 22 3 0.50000000 1 1.00000000 0.00000000 0.00000000 0.00000000
Neuron 23 3 0.50000000 1 1.00000000 0.00000000 0.00000000 0.00000000
Neuron 26 3 0.50000000 1 1.00000000 0.00000000 0.00000000 0.00000000
Neuron 29 3 0.50000000 1 1.00000000 0.00000000 0.00000000 0.00000000
Neuron 30 3 0.50000000 1 1.00000000 0.00000000 0.00000000 0.00000000
Neuron 31 3 0.50000000 1 1.00000000 0.00000000 0.00000000 0.00000000
Neuron 32 3 0.50000000 1 1.00000000 0.00000000 0.00000000 0.00000000
Neuron 33 3 0.50000000 1 1.00000000 0.00000000 0.00000000 0.00000000
Neuron 34 3 0.50000000 1 1.00000000 0.00000000 0.00000000 0.00000000
Neuron 35 3 0.50000000 1 1.00000000 0.00000000 0.00000000 0.00000000
Neuron 36 3 0.50000000 1 1.00000000 0.00000000 0.00000000 0.00000000
Neuron 38 3 0.50000000 1 1.00000000 0.00000000 0.00000000 0.00000000
Neuron 39 3 0.50000000 1 1.00000000 0.00000000 0.00000000 0.00000000
Neuron 40 3 0.50000000 1 1.00000000 0.00000000 0.00000000 0.00000000
Neuron 41 3 0.50000000 1 1.00000000 0.00000000 0.00000000 0.00000000
Neuron 42 3 0.50000000 1 1.00000000 0.00000000 0.00000000 0.00000000
Neuron 43 3 0.50000000 1 1.00000000 0.00000000 0.00000000 0.00000000
Neuron 44 3 0.50000000 1 1.00000000 0.00000000 0.00000000 0.00000000
Neuron 45 3 0.50000000 1 1.00000000 0.00000000 0.00000000 0.00000000
Neuron 46 3 0.50000000 1 1.00000000 0.00000000 0.00000000 0.00000000
Neuron 48 3 0.50000000 1 1.00000000 0.00000000 0.00000000 0.00000000
Neuron 50 3 0.50000000 1 1.00000000 0.00000000 0.00000000 0.00000000
Neuron 53 3 0.50000000 1 1.00000000 0.00000000 0.00000000 0.00000000
Neuron 54 3 0.50000000 1 1.00000000 0.00000000 0.00000000 0.00000000
Neuron 55 3 0.50000000 1 1.00000000 0.00000000 0.00000000 0.00000000
Neuron 56 3 0.50000000 1 1.00000000 0.00000000 0.00000000 0.00000000
Neuron 57 3 0.50000000 1 1.00000000 0.00000000 0.00000000 0.00000000
Neuron 58 3 0.50000000 1 1.00000000 0.00000000 0.00000000 0.00000000
Neuron 59 3 0.50000000 1 1.00000000 0.00000000 0.00000000 0.00000000
Neuron 60 3 0.50000000 1 1.00000000 0.00000000 0.00000000 0.00000000
Neuron 61 3 0.50000000 1 1.00000000 0.00000000 0.00000000 0.00000000
Neuron 64 3 0.50000000 1 1.00000000 0.00000000 0.00000000 0.00000000
Neuron 65 3 0.75000000 1 1.00000000 0.00000000 0.00000000 0.00000000
Neuron 68 3 0.50000000 1 1.00000000 0.00000000 0.00000000 0.00000000
Neuron 69 3 0.75000000 1 1.00000000 0.00000000 0.00000000 0.00000000
Neuron 70 3 0.25000000 1 1.00000000 0.00000000 0.00000000 0.00000000
Neuron 71 3 0.50000000 1 1.00000000 0.00000000 0.00000000 0.00000000
Neuron 72 3 0.75000000 1 1.00000000 0.00000000 0.00000000 0.00000000
Neuron 75 3 0.50000000 1 1.00000000 0.00000000 0.00000000 0.00000000
Neuron 76 3 0.50000000 1 1.00000000 0.00000000 0.00000000 0.00000000
Neuron 81 3 0.50000000 1 1.00000000 0.00000000 0.00000000 0.00000000
Neuron 85 3 0.75000000 1 1.00000000 0.00000000 0.00000000 0.00000000
Neuron 88 3 0.75000000 1 1.00000000 0.00000000 0.00000000 0.00000000
Neuron 90 3 0.25000000 1 1.00000000 0.00000000 0.00000000 0.00000000
Neuron 91 3 0.25000000 1 1.00000000 0.00000000 0.00000000 0.00000000
Neuron 95 3 0.75000000 1 1.00000000 0.00000000 0.00000000 0.00000000
Neuron 98 3 0.25000000 1 1.00000000 0.00000000 0.00000000 0.00000000
Neuron 100 3 0.50000000 1 1.00000000 0.00000000 0.00000000 0.00000000
Neuron 104 3 0.25000000 1 1.00000000 0.00000000 0.00000000 0.00000000
Neuron 108 3 0.75000000 1 1.00000000 0.00000000 0.00000000 0.00000000
Neuron 113 3 0.75000000 1 1.00000000 0.00000000 0.00000000 0.00000000
Neuron 118 3 0.25000000 1 1.00000000 0.00000000 0.00000000 0.00000000
Neuron 119 3 0.50000000 1 1.00000000 0.00000000 0.00000000 0.00000000
Neuron 121 3 0.25000000 1 1.00000000 0.00000000 0.00000000 0.00000000
Neuron 129 3 0.75000000 1 1.00000000 0.00000000 0.00000000 0.00000000
Neuron 130 3 0.75000000 1 1.00000000 0.00000000 0.00000000 0.00000000
Neuron 131 3 0.62500000 1 1.00000000 0.00000000 0.00000000 0.00000000
Neuron 132 3 0.25000000 1 1.00000000 0.00000000 0.00000000 0.00000000
Neuron 138 3 0.75000000 1 1.00000000 0.00000000 0.00000000 0.00000000
Neuron 142 3 0.75000000 1 1.00000000 0.00000000 0.00000000 0.00000000
Neuron 145 3 0.25000000 1 1.00000000 0.00000000 0.00000000 0.00000000
Neuron 147 3 0.25000000 1 1.00000000 0.00000000 0.00000000 0.00000000
Neuron 153 3 0.62500000 1 1.00000000 0.00000000 0.00000000 0.00000000
Neuron 156 3 0.75000000 1 1.00000000 0.00000000 0.00000000 0.00000000
Neuron 158 3 0.25000000 1 1.00000000 0.00000000 0.00000000 0.00000000
Neuron 161 3 0.37500000 1 1.00000000 0.00000000 0.00000000 0.00000000
Neuron 165 3 0.25000000 1 1.00000000 0.00000000 0.00000000 0.00000000
Neuron 175 3 0.25000000 1 1.00000000 0.00000000 0.00000000 0.00000000
Neuron 177 3 0.62500000 1 1.00000000 0.00000000 0.00000000 0.00000000
Neuron 180 3 0.50000000 1 1.00000000 0.00000000 0.00000000 0.00000000
Neuron 183 3 0.75000000 1 1.00000000 0.00000000 0.00000000 0.00000000
Neuron 187 3 0.75000000 1 1.00000000 0.00000000 0.00000000 0.00000000
Neuron 193 3 0.75000000 1 1.00000000 0.00000000 0.00000000 0.00000000
Neuron 207 3 0.75000000 1 1.00000000 0.00000000 0.00000000 0.00000000
Neuron 212 3 0.25000000 1 1.00000000 0.00000000 0.00000000 0.00000000
Neuron 214 3 0.25000000 1 1.00000000 0.00000000 0.00000000 0.00000000
Neuron 221 3 0.37500000 1 1.00000000 0.00000000 0.00000000 0.00000000
Neuron 226 3 0.25000000 1 1.00000000 0.00000000 0.00000000 0.00000000
Neuron 229 3 0.37500000 1 1.00000000 0.00000000 0.00000000 0.00000000
Neuron 231 3 0.25000000 1 1.00000000 0.00000000 0.00000000 0.00000000
Neuron 232 3 0.75000000 1 1.00000000 0.00000000 0.00000000 0.00000000
Neuron 234 3 0.25000000 1 1.00000000 0.00000000 0.00000000 0.00000000
Neuron 235 3 0.25000000 1 1.00000000 0.00000000 0.00000000 0.00000000
Neuron 239 3 0.75000000 1 1.00000000 0.00000000 0.00000000 0.00000000
Neuron 245 3 0.25000000 1 1.00000000 0.00000000 0.00000000 0.00000000
Neuron 249 3 0.12500000 1 1.00000000 0.00000000 0.00000000 0.00000000
Neuron 251 3 0.87500000 1 1.00000000 0.00000000 0.00000000 0.00000000
Neuron 278 3 0.75000000 1 1.00000000 0.00000000 0.00000000 0.00000000
Neuron 282 3 0.37500000 1 1.00000000 0.00000000 0.00000000 0.00000000
Neuron 288 3 0.87500000 1 1.00000000 0.00000000 0.00000000 0.00000000
Neuron 291 3 0.25000000 1 1.00000000 0.00000000 0.00000000 0.00000000
Neuron 297 3 0.50000000 1 1.00000000 0.00000000 0.00000000 0.00000000
Neuron 310 3 0.75000000 1 1.00000000 0.00000000 0.00000000 0.00000000
Neuron 312 3 0.50000000 1 1.00000000 0.00000000 0.00000000 0.00000000
Neuron 320 3 0.56250000 1 1.00000000 0.00000000 0.00000000 0.00000000
Neuron 338 3 0.25000000 1 1.00000000 0.00000000 0.00000000 0.00000000
Neuron 340 3 0.75000000 1 1.00000000 0.00000000 0.00000000 0.00000000
Neuron 342 3 0.62500000 1 1.00000000 0.00000000 0.00000000 0.00000000
Neuron 351 3 0.37500000 1 1.00000000 0.00000000 0.00000000 0.00000000
Neuron 365 3 0.50000000 1 1.00000000 0.00000000 0.00000000 0.00000000
Neuron 372 3 0.87500000 1 1.00000000 0.00000000 0.00000000 0.00000000
Neuron 377 3 0.50000000 1 1.00000000 0.00000000 0.00000000 0.00000000
Neuron 378 3 0.62500000 1 1.00000000 0.00000000 0.00000000 0.00000000
Neuron 392 3 0.43750000 1 1.00000000 0.00000000 0.00000000 0.00000000
Neuron 393 3 0.37500000 1 1.00000000 0.00000000 0.00000000 0.00000000
Neuron 410 3 0.12500000 1 1.00000000 0.00000000 0.00000000 0.00000000
Neuron 413 3 0.75000000 1 1.00000000 0.00000000 0.00000000 0.00000000
Neuron 422 3 0.87500000 1 1.00000000 0.00000000 0.00000000 0.00000000
Neuron 426 3 0.62500000 1 1.00000000 0.00000000 0.00000000 0.00000000
Neuron 429 3 0.37500000 1 1.00000000 0.00000000 0.00000000 0.00000000
Neuron 430 3 0.25000000 1 1.00000000 0.00000000 0.00000000 0.00000000
Neuron 433 3 0.75000000 1 1.00000000 0.00000000 0.00000000 0.00000000
Neuron 435 3 0.31250000 1 1.00000000 0.00000000 0.00000000 0.00000000
Neuron 436 3 0.87500000 1 1.00000000 0.00000000 0.00000000 0.00000000
Neuron 440 3 0.62500000 1 1.00000000 0.00000000 0.00000000 0.00000000
Neuron 442 3 0.50000000 1 1.00000000 0.00000000 0.00000000 0.00000000
Neuron 444 3 0.12500000 1 1.00000000 0.00000000 0.00000000 0.00000000
Neuron 447 3 0.18750000 1 1.00000000 0.00000000 0.00000000 0.00000000
Neuron 454 3 0.50000000 1 1.00000000 0.00000000 0.00000000 0.00000000
Neuron 458 3 0.34375000 1 1.00000000 0.00000000 0.00000000 0.00000000
Neuron 466 3 0.12500000 1 1.00000000 0.00000000 0.00000000 0.00000000
Neuron 474 3 0.87500000 1 1.00000000 0.00000000 0.00000000 0.00000000
Neuron 476 3 0.12500000 1 1.00000000 0.00000000 0.00000000 0.00000000
Neuron 477 3 0.75000000 1 1.00000000 0.00000000 0.00000000 0.00000000
Neuron 478 3 0.56250000 1 1.00000000 0.00000000 0.00000000 0.00000000
Neuron 482 3 0.37500000 1 1.00000000 0.00000000 0.00000000 0.00000000
Neuron 494 3 1.00000000 1 1.00000000 0.00000000 0.00000000 0.00000000
Neuron 510 3 0.50000000 1 1.00000000 0.00000000 0.00000000 0.00000000
Neuron 514 3 0.25000000 1 1.00000000 0.00000000 0.00000000 0.00000000
Neuron 519 3 1.00000000 1 1.00000000 0.00000000 0.00000000 0.00000000
Neuron 524 3 0.62500000 1 1.00000000 0.00000000 0.00000000 0.00000000
Neuron 525 3 0.62500000 1 1.00000000 0.00000000 0.00000000 0.00000000
Neuron 530 3 0.12500000 1 1.00000000 0.00000000 0.00000000 0.00000000
Neuron 535 3 0.50000000 1 1.00000000 0.00000000 0.00000000 0.00000000
Neuron 539 3 0.75000000 1 1.00000000 0.00000000 0.00000000 0.00000000
Neuron 540 3 0.62500000 1 1.00000000 0.00000000 0.00000000 0.00000000
Neuron 544 3 0.87500000 1 1.00000000 0.00000000 0.00000000 0.00000000
Neuron 545 3 0.31250000 1 1.00000000 0.00000000 0.00000000 0.00000000
Neuron 548 3 0.37500000 1 1.00000000 0.00000000 0.00000000 0.00000000
Neuron 549 3 0.62500000 1 1.00000000 0.00000000 0.00000000 0.00000000
Neuron 558 3 0.50000000 1 1.00000000 0.00000000 0.00000000 0.00000000
Neuron 564 3 0.28125000 1 1.00000000 0.00000000 0.00000000 0.00000000
Neuron 569 3 0.25000000 1 1.00000000 0.00000000 0.00000000 0.00000000
Neuron 575 3 0.18750000 1 1.00000000 0.00000000 0.00000000 0.00000000
Neuron 578 3 0.25000000 1 1.00000000 0.00000000 0.00000000 0.00000000
Neuron 584 3 0.81250000 1 1.00000000 0.00000000 0.00000000 0.00000000
Neuron 589 3 0.93750000 1 1.00000000 0.00000000 0.00000000 0.00000000
Neuron 598 3 0.25000000 1 1.00000000 0.00000000 0.00000000 0.00000000
Neuron 602 3 0.75000000 1 1.00000000 0.00000000 0.00000000 0.00000000
Neuron 605 3 0.21875000 1 1.00000000 0.00000000 0.00000000 0.00000000
Neuron 609 3 0.43750000 1 1.00000000 0.00000000 0.00000000 0.00000000
Neuron 611 3 0.50000000 1 1.00000000 0.00000000 0.00000000 0.00000000
Neuron 614 3 0.37500000 1 1.00000000 0.00000000 0.00000000 0.00000000
Neuron 619 3 0.93750000 1 1.00000000 0.00000000 0.00000000 0.00000000
Neuron 620 3 0.12500000 1 1.00000000 0.00000000 0.00000000 0.00000000
Neuron 624 3 0.15625000 1 1.00000000 0.00000000 0.00000000 0.00000000
Neuron 630 3 0.50000000 1 1.00000000 0.00000000 0.00000000 0.00000000
Neuron 631 3 0.62500000 1 1.00000000 0.00000000 0.00000000 0.00000000
Neuron 632 3 0.90625000 1 1.00000000 0.00000000 0.00000000 0.00000000
Neuron 638 3 0.43750000 1 1.00000000 0.00000000 0.00000000 0.00000000
Neuron 645 3 0.12500000 1 1.00000000 0.00000000 0.00000000 0.00000000
Neuron 646 3 0.62500000 1 1.00000000 0.00000000 0.00000000 0.00000000
Neuron 649 3 0.50000000 1 1.00000000 0.00000000 0.00000000 0.00000000
Neuron 657 3 0.43750000 1 1.00000000 0.00000000 0.00000000 0.00000000
Neuron 659 3 0.17187500 1 1.00000000 0.00000000 0.00000000 0.00000000
Neuron 661 3 0.18750000 1 1.00000000 0.00000000 0.00000000 0.00000000
Neuron 671 3 0.81250000 1 1.00000000 0.00000000 0.00000000 0.00000000
Neuron 672 3 0.62500000 1 1.00000000 0.00000000 0.00000000 0.00000000
Neuron 681 3 0.68750000 1 1.00000000 0.00000000 0.00000000 0.00000000
Neuron 683 3 0.25000000 1 1.00000000 0.00000000 0.00000000 0.00000000
Neuron 687 3 0.50000000 1 1.00000000 0.00000000 0.00000000 0.00000000
Neuron 694 3 0.87500000 1 1.00000000 0.00000000 0.00000000 0.00000000
Neuron 697 3 0.21875000 1 1.00000000 0.00000000 0.00000000 0.00000000
Neuron 706 3 0.96875000 1 1.00000000 0.00000000 0.00000000 0.00000000
Neuron 708 3 0.06250000 1 1.00000000 0.00000000 0.00000000 0.00000000
Neuron 712 3 0.68750000 1 1.00000000 0.00000000 0.00000000 0.00000000
Neuron 721 3 0.50000000 1 1.00000000 0.00000000 0.00000000 0.00000000
Neuron 722 3 0.87500000 1 1.00000000 0.00000000 0.00000000 0.00000000
Neuron 732 3 0.50000000 1 1.00000000 0.00000000 0.00000000 0.00000000
Neuron 733 3 0.31250000 1 1.00000000 0.00000000 0.00000000 0.00000000
Neuron 736 3 0.68750000 1 1.00000000 0.00000000 0.00000000 0.00000000
Neuron 739 3 0.56250000 1 1.00000000 0.00000000 0.00000000 0.00000000
Neuron 745 3 0.75000000 1 1.00000000 0.00000000 0.00000000 0.00000000
Neuron 754 3 0.50000000 1 1.00000000 0.00000000 0.00000000 0.00000000
Neuron 783 3 0.12500000 1 1.00000000 0.00000000 0.00000000 0.00000000
Neuron 788 3 0.18750000 1 1.00000000 0.00000000 0.00000000 0.00000000
Neuron 796 3 0.50000000 1 1.00000000 0.00000000 0.00000000 0.00000000
Neuron 798 3 0.95312500 1 1.00000000 0.00000000 0.00000000 0.00000000
Neuron 804 3 0.78125000 1 1.00000000 0.00000000 0.00000000 0.00000000
Neuron 806 3 0.98437500 1 1.00000000 0.00000000 0.00000000 0.00000000
Neuron 817 3 0.50000000 1 1.00000000 0.00000000 0.00000000 0.00000000
Neuron 820 3 0.43750000 1 1.00000000 0.00000000 0.00000000 0.00000000
Neuron 826 3 0.26562500 1 1.00000000 0.00000000 0.00000000 0.00000000
Neuron 853 3 0.50000000 1 1.00000000 0.00000000 0.00000000 0.00000000
Neuron 871 3 0.50000000 1 1.00000000 0.00000000 0.00000000 0.00000000
Neuron 874 3 0.12500000 1 1.00000000 0.00000000 0.00000000 0.00000000
Neuron 875 3 0.37500000 1 1.00000000 0.00000000 0.00000000 0.00000000
Neuron 881 3 0.03125000 1 1.00000000 0.00000000 0.00000000 0.00000000
Neuron 882 3 0.62500000 1 1.00000000 0.00000000 0.00000000 0.00000000
Neuron 888 3 0.21875000 1 1.00000000 0.00000000 0.00000000 0.00000000
Neuron 917 3 0.62500000 1 1.00000000 0.00000000 0.00000000 0.00000000
Neuron 920 3 0.43750000 1 1.00000000 0.00000000 0.00000000 0.00000000
Neuron 932 3 0.37500000 1 1.00000000 0.00000000 0.00000000 0.00000000
Neuron 939 3 0.50000000 1 1.00000000 0.00000000 0.00000000 0.00000000
Neuron 948 3 0.68750000 1 1.00000000 0.00000000 0.00000000 0.00000000
Neuron 951 3 0.81250000 1 1.00000000 0.00000000 0.00000000 0.00000000
Neuron 952 3 0.79687500 1 1.00000000 0.00000000 0.00000000 0.00000000
Neuron 957 3 0.35937500 1 1.00000000 0.00000000 0.00000000 0.00000000
Neuron 969 3 0.37500000 1 1.00000000 0.00000000 0.00000000 0.00000000
Neuron 972 3 0.37500000 1 1.00000000 0.00000000 0.00000000 0.00000000
Neuron 973 3 0.99218750 1 1.00000000 0.00000000 0.00000000 0.00000000
Neuron 981 3 0.75000000 1 1.00000000 0.00000000 0.00000000 0.00000000
Neuron 985 3 0.62500000 1 1.00000000 0.00000000 0.00000000 0.00000000
Neuron 990 3 1.00000000 1 1.00000000 0.00000000 0.00000000 0.00000000
Neuron 991 3 0.50000000 1 1.00000000 0.00000000 0.00000000 0.00000000
Neuron 996 3 0.75000000 1 1.00000000 0.00000000 0.00000000 0.00000000
Neuron 999 3 0.56250000 1 1.00000000 0.00000000 0.00000000 0.00000000
Neuron 1002 3 0.50000000 1 1.00000000 0.00000000 0.00000000 0.00000000
Neuron 1009 3 0.71875000 1 1.00000000 0.00000000 0.00000000 0.00000000
Neuron 1021 3 0.06250000 1 1.00000000 0.00000000 0.00000000 0.00000000
Neuron 1027 3 0.87500000 1 1.00000000 0.00000000 0.00000000 0.00000000
Neuron 1043 3 0.62500000 1 1.00000000 0.00000000 0.00000000 0.00000000
Neuron 1058 3 0.50000000 1 1.00000000 0.00000000 0.00000000 0.00000000
Neuron 1077 3 0.20312500 1 1.00000000 0.00000000 0.00000000 0.00000000
Neuron 1109 3 0.78125000 1 1.00000000 0.00000000 0.00000000 0.00000000
Neuron 1110 3 0.43750000 1 1.00000000 0.00000000 0.00000000 0.00000000
Neuron 1139 3 0.50000000 1 1.00000000 0.00000000 0.00000000 0.00000000
Neuron 1141 3 0.03125000 1 1.00000000 0.00000000 0.00000000 0.00000000
Neuron 1155 3 0.50000000 1 1.00000000 0.00000000 0.00000000 0.00000000
Neuron 1180 3 0.81250000 1 1.00000000 0.00000000 0.00000000 0.00000000
Neuron 1188 3 0.59375000 1 1.00000000 0.00000000 0.00000000 0.00000000
Neuron 1197 3 0.34375000 1 1.00000000 0.00000000 0.00000000 0.00000000
Neuron 1216 3 0.59375000 1 1.00000000 0.00000000 0.00000000 0.00000000
Neuron 1220 3 0.59375000 1 1.00000000 0.00000000 0.00000000 0.00000000
Neuron 1237 3 0.78125000 1 1.00000000 0.00000000 0.00000000 0.00000000
Neuron 1243 3 0.68750000 1 1.00000000 0.00000000 0.00000000 0.00000000
Neuron 1252 3 0.43750000 1 1.00000000 0.00000000 0.00000000 0.00000000
Neuron 1266 3 0.50000000 1 1.00000000 0.00000000 0.00000000 0.00000000
Neuron 1269 3 0.71875000 1 1.00000000 0.00000000 0.00000000 0.00000000
Neuron 1300 3 0.51562500 1 1.00000000 0.00000000 0.00000000 0.00000000
Neuron 1379 3 0.50000000 1 1.00000000 0.00000000 0.00000000 0.00000000
Neuron 1449 3 0.25000000 1 1.00000000 0.00000000 0.00000000 0.00000000
Neuron 1491 3 0.71875000 1 1.00000000 0.00000000 0.00000000 0.00000000
Neuron 1502 3 0.82812500 1 1.00000000 0.00000000 0.00000000 0.00000000
Neuron 1519 3 0.50000000 1 1.00000000 0.00000000 0.00000000 0.00000000
Neuron 1525 3 0.37500000 1 1.00000000 0.00000000 0.00000000 0.00000000
Neuron 1576 3 0.75000000 1 1.00000000 0.00000000 0.00000000 0.00000000
Neuron 1592 3 0.12500000 1 1.00000000 0.00000000 0.00000000 0.00000000
Neuron 1705 3 0.46875000 1 1.00000000 0.00000000 0.00000000 0.00000000
Neuron 1717 3 0.43750000 1 1.00000000 0.00000000 0.00000000 0.00000000
Neuron 1726 3 0.34375000 1 1.00000000 0.00000000 0.00000000 0.00000000
Neuron 1798 3 0.62500000 1 1.00000000 0.00000000 0.00000000 0.00000000
Link 1 10 1 0 -1.38676165
Link 2 10 2 0 -1.55384855
Link 3 10 3 0 0.77112821
Link 6 10 6 0 -1.23570587
Link 8 10 8 0 -1.64640464
Link 9 10 9 0 1.41812804
Link 1 11 10 0 -2.83887665
Link 2 11 11 0 3.77884213
Link 3 11 12 0 1.30813581
Link 4 11 13 0 2.49276036
Link 5 11 14 0 3.16549582
Link 6 11 15 0 0.09192322
Link 7 11 16 0 -2.17232569
Link 8 11 17 0 1.56917397
Link 9 11 18 0 -1.24756589
Link 1 12 19 0 -2.43367079
Link 4 12 22 0 1.19235261
Link 5 12 23 0 -2.83560596
Link 6 12 24 0 -0.85654999
Link 7 12 25 0 -0.38692927
Link 8 12 26 0 -0.08423551
Link 9 12 27 0 0.75780962
Link 1 13 28 0 -3.68584529
Link 3 13 30 0 0.98849075
Link 4 13 31 0 1.30198036
Link 6 13 33 0 1.33067763
Link 9 13 36 0 1.25017606
Link 3 14 39 0 0.06219812
Link 6 14 42 0 -0.96589387
Link 8 14 44 0 -1.39509459
Link 9 14 45 0 -0.95229716
Link 1 15 46 0 -4.28187034
Link 2 15 47 0 0.36431353
Link 3 15 48 0 0.91852324
Link 4 15 49 0 -6.72859777
Link 5 15 50 0 0.81149621
Link 6 15 51 0 -0.01581563
Link 7 15 52 0 2.35648151
Link 8 15 53 0 -0.76275447
Link 9 15 54 0 -1.68612586
Link 1 16 55 0 -1.09080857
Link 2 16 56 0 1.55399099
Link 3 16 57 0 -1.33890391
Link 5 16 59 0 -0.25695373
Link 7 16 61 0 1.66617366
Link 8 16 62 0 -0.95539478
Link 9 16 63 0 -1.25676877
Link 4 17 65 0 -0.73949823
Link 6 18 68 0 1.53437792
Link 18 12 69 0 -0.25623179
Link 2 19 71 0 -4.03327276
Link 19 10 72 0 1.31092552
Link 6 22 80 0 -0.21428208
Link 22 16 81 0 1.84873455
Link 23 11 84 0 -0.86749407
Link 5 26 93 0 -1.48791676
Link 8 29 102 0 -1.80699536
Link 30 14 106 0 -0.65100015
Link 31 13 109 0 -1.95429298
Link 8 32 111 0 1.16880649
Link 32 13 112 0 0.91809446
Link 6 33 115 0 2.67599661
Link 33 13 116 0 5.10376920
Link 34 12 119 0 0.68492821
Link 5 35 121 0 -1.56415624
Link 35 13 122 0 -2.22868788
Link 13 13 124 1 -3.15495140
Link 4 36 126 0 -0.94238320
Link 36 14 127 0 1.27752358
Link 2 38 132 0 -1.49134725
Link 38 12 133 0 -2.26124924
Link 6 39 135 0 0.92945147
Link 39 15 136 0 3.78268171
Link 41 14 142 0 0.55943477
Link 8 42 144 0 0.10689368
Link 42 11 145 0 2.03687242
Link 43 15 148 0 1.73812462
Link 45 16 154 0 0.90322403
Link 5 46 156 0 -0.23166664
Link 46 12 157 0 0.81263207
Link 2 48 162 0 -2.07295545
Link 5 50 171 0 4.09145823
Link 7 53 186 0 1.72290029
Link 53 12 187 0 -0.64450706
Link 3 54 189 0 -2.26154775
Link 2 55 193 0 0.05419379
Link 55 11 194 0 0.70149965
Link 7 56 197 0 -2.64778257
Link 56 16 198 0 -0.60519534
Link 5 57 202 0 -0.21368598
Link 6 58 208 0 -0.54517958
Link 58 14 209 0 -0.82398988
Link 4 59 211 0 0.85761102
Link 59 12 212 0 1.24204271
Link 4 60 214 0 1.22123117
Link 60 10 215 0 -1.23990484
Link 7 61 219 0 -1.02763667
Link 61 13 220 0 -1.78105243
Link 14 14 233 1 1.08582482
Link 7 64 237 0 3.32610388
Link 2 23 241 0 3.48941606
Link 23 65 244 0 0.60127260
Link 65 11 245 0 -0.24957534
Link 7 55 249 0 1.01694204
Link 5 55 250 0 -2.33601992
Link 15 38 261 1 0.47750580
Link 7 68 286 0 -3.87074663
Link 68 10 287 0 -0.21213089
Link 1 70 307 0 1.43975205
Link 70 41 308 0 3.40842898
Link 41 72 327 0 1.45759592
Link 72 14 328 0 0.09702612
Link 75 10 344 0 0.27773389
Link 76 14 351 0 -1.21646477
Link 38 56 379 0 1.13932039
Link 2 81 399 0 2.37397171
Link 81 13 400 0 -0.14076382
Link 16 85 430 1 1.85135675
Link 88 15 449 0 -2.01819097
Link 3 90 459 0 0.03672461
Link 4 91 463 0 1.18270040
Link 91 17 464 0 -2.08151137
Link 95 14 500 0 2.79192785
Link 98 23 521 0 3.57848663
Link 8 100 551 0 2.69080394
Link 100 12 552 0 1.33352158
Link 13 55 582 1 1.42524595
Link 8 104 601 0 0.06965501
Link 113 15 641 0 2.20261950
Link 7 118 682 0 -2.37725018
Link 118 64 683 0 -2.25223450
Link 2 119 693 0 0.86348642
Link 119 12 694 0 0.42638463
Link 2 121 700 0 1.39040768
Link 121 81 701 0 1.60278567
Link 50 129 790 0 1.71206279
Link 129 14 791 0 2.80702882
Link 130 11 796 0 0.03482088
Link 29 131 798 0 -1.09935657
Link 131 88 799 0 -2.34196938
Link 3 132 801 0 1.65640072
Link 132 43 802 0 0.08370247
Link 44 138 832 0 1.77739600
Link 138 11 833 0 1.92326973
Link 9 38 844 0 -1.40713883
Link 4 145 867 0 2.90896776
Link 19 57 882 0 0.72924515
Link 7 147 884 0 -0.79506003
Link 147 68 885 0 0.09043328
Link 57 156 931 0 2.91232264
Link 156 15 932 0 1.12181900
Link 1 158 946 0 1.00888278
Link 158 75 947 0 -0.40142166
Link 32 14 970 0 1.58810223
Link 90 161 986 0 -3.11290501
Link 161 31 987 0 -1.69185569
Link 2 165 1005 0 -0.87527416
Link 165 30 1006 0 -0.29800202
Link 8 175 1110 0 -0.82563915
Link 175 76 1111 0 2.83908057
Link 85 177 1131 1 -1.02689314
Link 177 68 1132 1 0.11646509
Link 2 180 1145 0 1.38940547
Link 29 56 1156 0 3.10230366
Link 19 183 1174 0 -1.38147602
Link 183 10 1175 0 -1.13734875
Link 40 187 1190 0 0.57241379
Link 31 193 1223 0 -2.04175550
Link 193 13 1224 0 -1.38156258
Link 48 207 1299 0 2.37881029
Link 207 16 1300 0 2.65243373
Link 10 32 1308 1 -2.01999443
Link 4 212 1339 0 1.93484589
Link 212 40 1340 0 0.87017632
Link 3 214 1351 0 -1.28617467
Link 214 44 1352 0 -0.72972204
Link 5 71 1358 0 1.30923087
Link 98 221 1402 0 0.23064213
Link 221 23 1403 0 -1.82990927
Link 10 68 1425 1 -3.41594721
Link 3 226 1447 0 -0.44751649
Link 226 34 1448 0 -0.48848517
Link 70 229 1466 0 2.22670789
Link 9 71 1475 0 -0.74530817
Link 231 50 1478 0 0.37063203
Link 58 232 1485 0 0.98323972
Link 232 14 1486 0 -1.33198328
Link 44 56 1490 0 -2.73907187
Link 4 234 1505 0 0.08746021
Link 239 10 1536 0 -0.02009732
Link 5 245 1563 0 -0.72073568
Link 249 70 1589 0 0.50488799
Link 187 251 1600 0 0.15659564
Link 251 13 1601 0 -0.48706343
Link 8 69 1708 0 -2.40082982
Link 61 278 1796 0 -3.07963922
Link 278 13 1797 0 3.55456294
Link 282 55 1814 0 3.83248866
Link 16 48 1827 1 3.94850737
Link 288 11 1845 0 0.21602522
Link 291 61 1854 0 2.96454472
Link 19 297 1884 0 2.23740611
Link 297 55 1885 0 -1.32669242
Link 310 14 1971 0 0.36619079
Link 3 312 1981 0 -0.44927055
Link 312 12 1982 0 0.27343061
Link 55 320 2046 0 -0.17261989
Link 320 153 2047 0 -0.02728529
Link 8 338 2165 0 1.38524945
Link 34 340 2176 0 0.74343217
Link 340 12 2177 0 0.80549082
Link 57 342 2186 0 -0.90066188
Link 342 156 2187 0 -0.36045537
Link 1 98 2201 0 1.29806641
Link 351 235 2255 1 -0.70345730
Link 71 31 2288 0 -0.00544140
Link 11 50 2323 1 2.96533104
Link 4 365 2352 0 0.95816466
Link 365 16 2353 0 0.08808304
Link 372 12 2425 0 0.00032818
Link 377 81 2466 0 -0.30427432
Link 54 378 2475 0 2.22784041
Link 378 95 2476 0 2.23248807
Link 12 30 2517 1 -0.80190116
Link 40 19 2520 0 1.85935812
Link 4 282 2538 0 -1.79320927
Link 282 392 2561 0 2.55665305
Link 392 55 2562 0 -3.03607124
Link 129 129 2564 1 0.54472086
Link 393 71 2567 0 1.06886098
Link 6 410 2666 0 1.44026187
Link 410 98 2667 0 -1.47928217
Link 26 413 2685 0 -1.77010417
Link 413 10 2686 0 -0.77027575
Link 44 26 2687 0 2.40408916
Link 34 15 2755 0 -3.12744997
Link 129 422 2777 0 -0.12607200
Link 17 426 2801 0 -1.21851894
Link 426 113 2802 0 3.21630702
Link 129 17 2822 1 2.10966075
Link 429 68 2827 0 0.21653704
Link 8 430 2838 0 -3.78396492
Link 430 40 2839 0 -2.25842064
Link 129 433 2865 1 0.65347715
Link 433 129 2866 1 1.86761121
Link 69 436 2888 0 1.06637279
Link 436 15 2889 0 -3.57485373
Link 64 440 2909 0 0.96390314
Link 440 310 2910 0 0.26590560
Link 30 68 2927 0 -0.59124343
Link 40 442 2930 0 1.93987172
Link 442 19 2931 0 1.97075500
Link 38 338 2934 1 0.48675044
Link 3 444 2959 0 -1.56848859
Link 435 14 2972 0 1.24799032
Link 4 447 2984 0 2.68086281
Link 447 282 2985 0 -1.35166106
Link 50 11 2990 0 -3.20182147
Link 435 458 3062 0 0.08256347
Link 34 310 3086 0 -2.25667034
Link 11 338 3108 1 0.75142676
Link 7 466 3131 0 3.28153691
Link 466 291 3132 0 -1.39682875
Link 69 13 3154 0 -1.45449413
Link 310 474 3180 0 -0.21400432
Link 474 14 3181 0 1.76782638
Link 4 476 3191 0 0.87308111
Link 34 477 3196 0 3.02808995
Link 477 15 3197 0 0.72404902
Link 177 478 3200 1 2.68334890
Link 478 68 3201 1 1.92680413
Link 338 482 3234 0 0.11910130
Link 482 68 3235 0 -2.66817280
Link 129 32 3288 1 -0.00111291
Link 35 48 3291 0 0.95877906
Link 15 494 3341 1 3.57806123
Link 494 15 3342 1 -0.64341718
Link 175 23 3433 0 3.99828330
Link 85 14 3454 0 -1.66965200
Link 68 510 3465 1 1.05179139
Link 510 68 3466 1 0.09781834
Link 5 514 3496 0 1.57042290
Link 514 56 3497 0 1.52131498
Link 494 519 3528 1 -1.70790751
Link 129 524 3565 1 -2.00947005
Link 524 17 3566 1 1.26629373
Link 34 525 3569 0 0.22736746
Link 8 530 3611 0 1.41711050
Link 17 535 3645 0 -0.54899365
Link 535 40 3646 0 0.46646037
Link 35 539 3673 0 1.55554169
Link 539 16 3674 0 -0.47751837
Link 50 540 3684 0 2.75376447
Link 540 129 3685 0 3.01934835
Link 239 544 3734 0 -0.32073045
Link 544 10 3735 0 1.89521480
Link 234 545 3738 0 0.60657135
Link 545 282 3739 0 0.32203395
Link 165 548 3766 0 -0.09502095
Link 548 30 3767 0 2.36060137
Link 56 69 3774 0 -3.51505192
Link 30 30 3785 1 -0.46979594
Link 71 549 3793 0 -0.14258503
Link 549 130 3794 0 -1.34866330
Link 393 48 3799 0 1.39467652
Link 38 476 3858 1 -1.68270362
Link 8 558 3866 0 2.35381429
Link 558 15 3867 0 -0.62683272
Link 177 70 3881 1 1.08471820
Link 564 435 3897 0 0.19828172
Link 494 282 3904 1 1.47856465
Link 5 569 3927 0 -0.55669689
Link 98 98 3967 1 1.63080246
Link 575 235 3985 0 0.80257517
Link 578 36 4000 0 0.85433106
Link 584 251 4061 0 1.97502733
Link 589 14 4106 0 -0.93657766
Link 214 598 4168 1 1.75295180
Link 598 214 4169 1 -0.42590888
Link 589 16 4185 0 -0.63792817
Link 251 454 4233 1 1.81443703
Link 605 435 4245 0 0.09034300
Link 85 64 4254 1 -0.42942749
Link 165 609 4286 0 0.39898272
Link 609 426 4287 0 -2.71901791
Link 454 611 4315 0 1.38454750
Link 611 19 4316 0 -0.76024491
Link 245 614 4345 0 -0.53087978
Link 614 55 4346 0 2.49912285
Link 16 619 4415 1 -1.82358566
Link 619 251 4416 1 -0.87817152
Link 5 620 4422 0 1.10368239
Link 620 231 4423 0 -0.12049794
Link 71 41 4453 0 -3.67336800
Link 129 64 4460 1 -1.18364530
Link 476 624 4482 0 0.67156396
Link 624 575 4483 0 -4.15753504
Link 4 129 4496 0 -2.30651699
Link 5 630 4532 0 2.33931823
Link 630 494 4533 0 0.59504649
Link 68 631 4544 0 0.24745163
Link 631 239 4545 0 0.21240305
Link 422 632 4555 0 1.86641295
Link 632 589 4556 0 2.35085385
Link 177 638 4594 1 0.11917999
Link 638 70 4595 1 5.87314154
Link 645 165 4693 0 -3.23357705
Link 129 646 4697 1 0.23062562
Link 575 435 4702 0 1.71656267
Link 76 68 4716 0 -0.78973353
Link 649 377 4727 0 -0.03046190
Link 229 657 4772 0 1.10276686
Link 657 41 4773 0 1.41002400
Link 476 659 4813 0 -1.26697115
Link 659 605 4814 0 -0.61845352
Link 530 661 4824 0 -2.73784880
Link 68 130 4837 0 0.12709014
Link 13 430 4846 1 4.03028198
Link 180 30 4896 0 2.23819856
Link 69 671 4938 0 0.68942132
Link 671 372 4939 0 -0.60201070
Link 32 672 4942 0 0.32366364
Link 672 142 4943 0 0.35219164
Link 113 619 4944 0 -1.62431513
Link 57 282 5002 1 1.62021801
Link 251 681 5026 1 -0.78162001
Link 681 454 5027 1 2.18553077
Link 2 129 5033 0 0.31141815
Link 2 683 5053 0 -0.58116775
Link 683 30 5054 0 -0.10446786
Link 7 687 5077 0 2.18623372
Link 687 12 5078 0 -5.12282761
Link 694 14 5122 0 -0.07448793
Link 19 619 5133 0 0.46428531
Link 697 430 5140 0 0.84271412
Link 226 113 5143 0 1.64827035
Link 17 251 5167 0 -0.47679475
Link 130 129 5212 0 0.15630342
Link 708 249 5232 0 -1.50443949
Link 98 548 5272 0 -0.14628424
Link 249 706 5273 0 1.05118517
Link 611 721 5339 0 -0.57026459
Link 721 19 5340 0 -1.01078223
Link 142 722 5351 0 2.12189692
Link 722 13 5352 0 -1.27884496
Link 235 26 5385 0 -0.22284789
Link 147 733 5412 0 1.48053187
Link 32 736 5456 0 -0.98634027
Link 736 251 5457 0 0.24743109
Link 530 251 5458 0 -1.88983409
Link 64 739 5479 0 0.69021724
Link 147 31 5497 0 -0.61879798
Link 745 14 5527 0 1.78936992
Link 72 10 5548 0 -1.46278452
Link 11 108 5582 1 -0.04128844
Link 754 14 5612 0 -0.69823525
Link 32 17 5629 0 -0.46429112
Link 130 130 5784 1 -0.15648169
Link 61 235 5787 1 -1.37323150
Link 569 44 5832 0 3.90967332
Link 544 108 5870 1 1.45070205
Link 226 76 5902 0 -2.68139633
Link 5 783 5904 0 2.75648735
Link 783 226 5905 0 1.09441861
Link 444 788 5968 0 -0.29003315
Link 788 226 5969 0 1.70784333
Link 39 796 6036 0 1.57920161
Link 796 61 6037 0 0.20332532
Link 706 798 6052 1 2.17306260
Link 798 619 6053 1 1.00958764
Link 187 804 6092 0 0.03971025
Link 806 706 6111 1 -0.21408323
Link 31 64 6210 0 -1.05003955
Link 31 820 6229 1 -3.05137735
Link 820 351 6230 1 1.03581857
Link 235 826 6282 0 1.14183934
Link 826 564 6283 0 -0.39362688
Link 649 57 6381 0 -0.96286201
Link 34 853 6466 0 0.81484268
Link 853 649 6467 0 -1.43052945
Link 17 57 6566 0 1.39127834
Link 59 98 6592 1 -4.13923951
Link 310 871 6624 1 3.32944111
Link 871 569 6625 1 3.11661804
Link 23 619 6663 0 -2.63874215
Link 4 874 6693 0 -0.26235814
Link 874 578 6694 0 -0.71008573
Link 104 875 6697 0 0.57913842
Link 875 32 6698 0 -1.08180624
Link 1 881 6741 0 -0.92541124
Link 881 708 6742 0 2.30807957
Link 454 882 6747 0 0.28017273
Link 882 113 6748 0 0.04589906
Link 645 38 6765 0 2.07480557
Link 708 888 6830 0 0.72799028
Link 888 429 6831 0 -0.03783879
Link 234 15 6860 0 1.16303209
Link 58 422 6880 0 1.21451278
Link 64 917 7083 0 2.23982109
Link 917 745 7084 0 0.05073258
Link 249 920 7104 0 2.92749268
Link 920 113 7105 0 1.22759302
Link 611 35 7189 0 -1.67832850
Link 569 932 7232 0 2.40466904
Link 932 32 7233 0 0.76216881
Link 564 422 7273 0 0.65106134
Link 19 239 7292 0 1.80642140
Link 113 539 7310 0 -0.79576276
Link 40 939 7326 1 -0.24348684
Link 939 40 7327 1 -4.76356201
Link 153 948 7401 0 -1.89545797
Link 948 108 7402 0 -1.65856407
Link 951 288 7455 0 -4.20897034
Link 952 584 7462 0 0.54142917
Link 458 957 7506 0 0.72105526
Link 957 393 7507 0 1.16540527
Link 71 687 7517 0 0.32505963
Link 951 614 7646 1 -2.98351474
Link 145 969 7650 0 1.28883563
Link 969 45 7651 0 0.34944351
Link 972 212 7684 1 0.53704550
Link 16 973 7690 1 0.71379663
Link 973 806 7691 1 1.66236907
Link 433 61 7758 1 -0.21936624
Link 72 645 7763 1 -1.28085406
Link 22 981 7765 0 0.73033832
Link 981 14 7766 0 0.65878813
Link 291 435 7801 0 -2.69960092
Link 32 985 7809 0 1.93710758
Link 985 602 7810 0 -4.90081764
Link 519 990 7833 1 1.18173666
Link 990 15 7834 1 0.08953624
Link 31 991 7838 0 0.31888240
Link 991 732 7839 0 -0.75387912
Link 494 996 7910 1 0.90588260
Link 996 796 7911 1 1.97003524
Link 646 999 7949 1 -0.63206355
Link 999 32 7950 1 1.74538860
Link 23 1002 7986 0 -1.09134355
Link 1002 50 7987 0 0.04888529
Link 43 1009 8040 0 -1.06014496
Link 1009 589 8041 0 7.23403317
Link 161 422 8085 0 0.24898015
Link 1021 645 8109 0 2.67037359
Link 602 108 8113 0 0.27689693
Link 602 1027 8160 0 1.93691265
Link 1027 14 8161 0 0.44838811
Link 65 55 8170 1 -0.87473368
Link 54 187 8212 0 1.04591813
Link 108 19 8215 1 -1.40217448
Link 10 649 8278 1 -0.26845852
Link 40 454 8355 0 0.43444916
Link 58 1043 8362 0 -2.81125852
Link 1043 129 8363 0 2.25306588
Link 30 1058 8534 0 -0.71422287
Link 1058 61 8535 0 -3.17837908
Link 3 525 8556 0 0.88410459
Link 630 48 8617 0 2.56754904
Link 661 1077 8656 0 -1.92740261
Link 1077 697 8657 0 2.27445954
Link 611 372 8689 0 1.38119921
Link 338 535 8744 0 -2.49238647
Link 177 156 8916 0 2.34097506
Link 645 46 8931 0 2.64586956
Link 108 1109 8954 0 -1.74730150
Link 1109 951 8955 0 1.04704633
Link 393 1110 8959 0 1.15933694
Link 1110 377 8960 0 3.21693114
Link 514 15 8984 0 0.33441561
Link 121 193 9004 0 -0.26750876
Link 251 806 9033 0 2.75265843
Link 535 1139 9196 0 0.03685190
Link 1139 41 9197 0 2.52286623
Link 2 1141 9202 0 0.61392224
Link 1141 1021 9203 0 0.18631828
Link 540 15 9239 0 -0.29730352
Link 22 61 9258 0 -3.74825950
Link 732 1155 9292 0 1.03733456
Link 1155 29 9293 0 -0.11303275
Link 826 33 9437 0 1.40955050
Link 113 952 9455 0 0.34260301
Link 85 1180 9526 0 -0.12316783
Link 1180 694 9527 0 0.54922241
Link 71 796 9550 0 0.03255026
Link 619 1188 9597 1 0.24865224
Link 1188 338 9598 1 -0.97877929
Link 6 90 9651 0 0.93725126
Link 539 539 9673 1 -2.03313506
Link 733 1197 9686 0 2.15431796
Link 1197 429 9687 0 0.52304843
Link 121 430 9810 0 -0.80983326
Link 712 1216 9856 1 0.55155781
Link 1216 61 9857 1 0.31226376
Link 706 706 9866 1 1.39827074
Link 436 11 9868 0 0.42626870
Link 393 88 9889 0 -2.48831417
Link 338 232 9905 0 0.73498558
Link 739 1220 9922 0 0.86209403
Link 1220 440 9923 0 0.49149044
Link 29 671 9936 0 -1.91005170
Link 351 519 9950 0 -0.66206906
Link 187 43 9975 1 1.31278777
Link 54 113 10017 0 -1.30336146
Link 177 477 10030 0 -2.37007730
Link 1009 558 10069 1 -1.58187770
Link 44 638 10085 1 -0.53202506
Link 187 433 10095 0 0.52337189
Link 1237 712 10101 1 0.68235196
Link 1 232 10156 0 -2.95041332
Link 525 1243 10168 0 -0.07834063
Link 41 1252 10243 1 -0.00502036
Link 1252 972 10244 1 0.88420537
Link 31 1266 10388 0 3.47311261
Link 1266 817 10389 0 -0.77937082
Link 920 1269 10406 0 0.06078647
Link 1269 16 10407 0 -1.17461585
Link 5 817 10414 0 -0.08068799
Link 50 85 10530 0 -2.29879971
Link 68 291 10660 1 0.34260895
Link 804 1300 10736 1 -3.63859724
Link 1300 231 10737 1 0.25551977
Link 530 1077 10915 0 -1.13494880
Link 30 36 11012 0 3.75757116
Link 435 165 11103 1 -4.12792439
Link 156 85 11126 0 0.35467162
Link 430 108 11469 0 3.27576714
Link 605 81 11486 0 -0.70573279
Link 817 1379 11572 0 0.46376430
Link 1379 454 11573 0 -2.71431346
Link 392 804 11933 0 -2.10366296
Link 410 282 12087 0 -1.70253472
Link 4 1449 12226 0 1.00000000
Link 1449 754 12227 0 2.73714724
Link 392 138 12438 0 1.40010036
Link 796 871 12500 0 -1.70129063
Link 1243 1491 12643 0 -0.27587009
Link 1491 310 12644 0 -2.09721035
Link 90 435 12667 0 -3.01403056
Link 251 1502 12731 1 1.28896083
Link 1502 1237 12732 1 1.43353020
Link 1266 745 12773 0 4.20590490
Link 145 1519 12898 0 0.17577572
Link 108 378 12951 1 0.87015972
Link 649 153 13015 0 -2.43439753
Link 3 1525 13017 0 0.44729197
Link 1525 207 13018 0 -3.22333952
Link 38 1220 13195 0 -0.35083232
Link 951 29 13289 1 -0.14811356
Link 10 874 13523 1 -1.71782062
Link 477 1576 13552 1 1.65782481
Link 1576 477 13553 1 0.13829316
Link 1197 477 13581 0 -1.36375511
Link 214 619 13606 0 1.02603217
Link 6 1592 13741 0 0.10311536
Link 1592 98 13742 0 0.34903887
Link 312 999 13897 0 -1.29855147
Link 70 598 13913 0 2.80270661
Link 142 806 14008 0 2.96501066
Link 671 706 14131 0 0.26542081
Link 56 619 14271 0 0.17972528
Link 229 1300 14306 0 1.19305544
Link 611 23 14358 0 1.42369672
Link 804 132 14563 1 -1.10913893
Link 393 917 14678 0 -0.70675492
Link 1139 1705 14718 1 0.70636072
Link 1705 920 14719 1 -0.66238232
Link 351 1717 14836 0 0.32483891
Link 1717 26 14837 0 -2.69611772
Link 447 1726 14906 0 1.00000000
Link 1726 64 14907 0 2.36717569
Link 697 42 14912 0 1.91994818
Link 90 1220 14956 0 -0.38857263
Link 1519 187 14978 0 -1.21036344
Link 33 393 15096 1 1.99825765
Link 874 649 15123 0 0.46493460
Link 4 338 15167 0 -0.23966948
Link 589 440 15233 1 -2.78375685
Link 990 564 15269 1 0.14760415
Link 165 1491 15414 0 -2.88309069
Link 631 736 15567 0 0.41981288
Link 1519 1798 15711 0 0.99349482
Link 1798 69 15712 0 -1.55158609
GenomeEnd

