GenomeStart 85463
Neuron 1 1 0.00000000 1 0.00000000 0.00000000 0.00000000 0.00000000
Neuron 2 1 0.00000000 1 0.00000000 0.00000000 0.00000000 0.00000000
Neuron 3 1 0.00000000 1 0.00000000 0.00000000 0.00000000 0.00000000
Neuron 4 1 0.00000000 1 0.00000000 0.00000000 0.00000000 0.00000000
Neuron 5 1 0.00000000 1 0.00000000 0.00000000 0.00000000 0.00000000
Neuron 6 1 0.00000000 1 0.00000000 0.00000000 0.00000000 0.00000000
Neuron 7 1 0.00000000 1 0.00000000 0.00000000 0.00000000 0.00000000
Neuron 8 1 0.00000000 1 0.00000000 0.00000000 0.00000000 0.00000000
Neuron 9 2 0.00000000 1 0.00000000 0.00000000 0.00000000 0.00000000
Neuron 10 4 1.00000000 0 1.00000000 0.00000000 0.00000000 0.00000000
Neuron 11 4 1.00000000 0 1.00000000 0.00000000 0.00000000 0.00000000
Neuron 12 4 1.00000000 0 1.00000000 0.00000000 0.00000000 0.00000000
Neuron 13 4 1.00000000 0 1.00000000 0.00000000 0.00000000 0.00000000
Neuron 14 4 1.00000000 0 1.00000000 0.00000000 0.00000000 0.00000000
Neuron 15 4 1.00000000 0 1.00000000 0.00000000 0.00000000 0.00000000
Neuron 16 4 1.00000000 0 1.00000000 0.00000000 0.00000000 0.00000000
Neuron 17 3 0.50000000 1 1.00000000 0.00000000 0.00000000 0.00000000
Neuron 18 3 0.50000000 1 1.00000000 0.00000000 0.00000000 0.00000000
Neuron 19 3 0.50000000 1 1.00000000 0.00000000 0.00000000 0.00000000
Neuron 22 3 0.50000000 1 1.00000000 0.00000000 0.00000000 0.00000000
Neuron 23 3 0.50000000 1 1.00000000 0.00000000 0.00000000 0.00000000
Neuron 26 3 0.50000000 1 1.00000000 0.00000000 0.00000000 0.00000000
Neuron 29 3 0.50000000 1 1.00000000 0.00000000 0.00000000 0.00000000
Neuron 30 3 0.50000000 1 1.00000000 0.00000000 0.00000000 0.00000000
Neuron 31 3 0.50000000 1 1.00000000 0.00000000 0.00000000 0.00000000
Neuron 32 3 0.50000000 1 1.00000000 0.00000000 0.00000000 0.00000000
Neuron 33 3 0.50000000 1 1.00000000 0.00000000 0.00000000 0.00000000
Neuron 34 3 0.50000000 1 1.00000000 0.00000000 0.00000000 0.00000000
Neuron 35 3 0.50000000 1 1.00000000 0.00000000 0.00000000 0.00000000
Neuron 36 3 0.50000000 1 1.00000000 0.00000000 0.00000000 0.00000000
Neuron 38 3 0.50000000 1 1.00000000 0.00000000 0.00000000 0.00000000
Neuron 39 3 0.50000000 1 1.00000000 0.00000000 0.00000000 0.00000000
Neuron 40 3 0.50000000 1 1.00000000 0.00000000 0.00000000 0.00000000
Neuron 41 3 0.50000000 1 1.00000000 0.00000000 0.00000000 0.00000000
Neuron 42 3 0.50000000 1 1.00000000 0.00000000 0.00000000 0.00000000
Neuron 43 3 0.50000000 1 1.00000000 0.00000000 0.00000000 0.00000000
Neuron 44 3 0.50000000 1 1.00000000 0.00000000 0.00000000 0.00000000
Neuron 45 3 0.50000000 1 1.00000000 0.00000000 0.00000000 0.00000000
Neuron 46 3 0.50000000 1 1.00000000 0.00000000 0.00000000 0.00000000
Neuron 48 3 0.50000000 1 1.00000000 0.00000000 0.00000000 0.00000000
Neuron 50 3 0.50000000 1 1.00000000 0.00000000 0.00000000 0.00000000
Neuron 53 3 0.50000000 1 1.00000000 0.00000000 0.00000000 0.00000000
Neuron 54 3 0.50000000 1 1.00000000 0.00000000 0.00000000 0.00000000
Neuron 55 3 0.50000000 1 1.00000000 0.00000000 0.00000000 0.00000000
Neuron 56 3 0.50000000 1 1.00000000 0.00000000 0.00000000 0.00000000
Neuron 57 3 0.50000000 1 1.00000000 0.00000000 0.00000000 0.00000000
Neuron 58 3 0.50000000 1 1.00000000 0.00000000 0.00000000 0.00000000
Neuron 59 3 0.50000000 1 1.00000000 0.00000000 0.00000000 0.00000000
Neuron 60 3 0.50000000 1 1.00000000 0.00000000 0.00000000 0.00000000
Neuron 61 3 0.50000000 1 1.00000000 0.00000000 0.00000000 0.00000000
Neuron 64 3 0.50000000 1 1.00000000 0.00000000 0.00000000 0.00000000
Neuron 65 3 0.75000000 1 1.00000000 0.00000000 0.00000000 0.00000000
Neuron 68 3 0.50000000 1 1.00000000 0.00000000 0.00000000 0.00000000
Neuron 69 3 0.75000000 1 1.00000000 0.00000000 0.00000000 0.00000000
Neuron 70 3 0.25000000 1 1.00000000 0.00000000 0.00000000 0.00000000
Neuron 71 3 0.50000000 1 1.00000000 0.00000000 0.00000000 0.00000000
Neuron 72 3 0.75000000 1 1.00000000 0.00000000 0.00000000 0.00000000
Neuron 75 3 0.50000000 1 1.00000000 0.00000000 0.00000000 0.00000000
Neuron 76 3 0.50000000 1 1.00000000 0.00000000 0.00000000 0.00000000
Neuron 81 3 0.50000000 1 1.00000000 0.00000000 0.00000000 0.00000000
Neuron 85 3 0.75000000 1 1.00000000 0.00000000 0.00000000 0.00000000
Neuron 88 3 0.75000000 1 1.00000000 0.00000000 0.00000000 0.00000000
Neuron 90 3 0.25000000 1 1.00000000 0.00000000 0.00000000 0.00000000
Neuron 91 3 0.25000000 1 1.00000000 0.00000000 0.00000000 0.00000000
Neuron 95 3 0.75000000 1 1.00000000 0.00000000 0.00000000 0.00000000
Neuron 98 3 0.25000000 1 1.00000000 0.00000000 0.00000000 0.00000000
Neuron 100 3 0.50000000 1 1.00000000 0.00000000 0.00000000 0.00000000
Neuron 104 3 0.25000000 1 1.00000000 0.00000000 0.00000000 0.00000000
Neuron 108 3 0.75000000 1 1.00000000 0.00000000 0.00000000 0.00000000
Neuron 113 3 0.75000000 1 1.00000000 0.00000000 0.00000000 0.00000000
Neuron 118 3 0.25000000 1 1.00000000 0.00000000 0.00000000 0.00000000
Neuron 119 3 0.50000000 1 1.00000000 0.00000000 0.00000000 0.00000000
Neuron 121 3 0.25000000 1 1.00000000 0.00000000 0.00000000 0.00000000
Neuron 129 3 0.75000000 1 1.00000000 0.00000000 0.00000000 0.00000000
Neuron 130 3 0.75000000 1 1.00000000 0.00000000 0.00000000 0.00000000
Neuron 131 3 0.62500000 1 1.00000000 0.00000000 0.00000000 0.00000000
Neuron 132 3 0.25000000 1 1.00000000 0.00000000 0.00000000 0.00000000
Neuron 135 3 0.75000000 1 1.00000000 0.00000000 0.00000000 0.00000000
Neuron 138 3 0.75000000 1 1.00000000 0.00000000 0.00000000 0.00000000
Neuron 142 3 0.75000000 1 1.00000000 0.00000000 0.00000000 0.00000000
Neuron 145 3 0.25000000 1 1.00000000 0.00000000 0.00000000 0.00000000
Neuron 147 3 0.25000000 1 1.00000000 0.00000000 0.00000000 0.00000000
Neuron 153 3 0.62500000 1 1.00000000 0.00000000 0.00000000 0.00000000
Neuron 156 3 0.75000000 1 1.00000000 0.00000000 0.00000000 0.00000000
Neuron 161 3 0.37500000 1 1.00000000 0.00000000 0.00000000 0.00000000
Neuron 165 3 0.25000000 1 1.00000000 0.00000000 0.00000000 0.00000000
Neuron 175 3 0.25000000 1 1.00000000 0.00000000 0.00000000 0.00000000
Neuron 177 3 0.62500000 1 1.00000000 0.00000000 0.00000000 0.00000000
Neuron 180 3 0.50000000 1 1.00000000 0.00000000 0.00000000 0.00000000
Neuron 183 3 0.75000000 1 1.00000000 0.00000000 0.00000000 0.00000000
Neuron 187 3 0.75000000 1 1.00000000 0.00000000 0.00000000 0.00000000
Neuron 193 3 0.75000000 1 1.00000000 0.00000000 0.00000000 0.00000000
Neuron 207 3 0.75000000 1 1.00000000 0.00000000 0.00000000 0.00000000
Neuron 212 3 0.25000000 1 1.00000000 0.00000000 0.00000000 0.00000000
Neuron 214 3 0.25000000 1 1.00000000 0.00000000 0.00000000 0.00000000
Neuron 221 3 0.37500000 1 1.00000000 0.00000000 0.00000000 0.00000000
Neuron 226 3 0.25000000 1 1.00000000 0.00000000 0.00000000 0.00000000
Neuron 229 3 0.37500000 1 1.00000000 0.00000000 0.00000000 0.00000000
Neuron 231 3 0.25000000 1 1.00000000 0.00000000 0.00000000 0.00000000
Neuron 232 3 0.75000000 1 1.00000000 0.00000000 0.00000000 0.00000000
Neuron 234 3 0.25000000 1 1.00000000 0.00000000 0.00000000 0.00000000
Neuron 235 3 0.25000000 1 1.00000000 0.00000000 0.00000000 0.00000000
Neuron 239 3 0.75000000 1 1.00000000 0.00000000 0.00000000 0.00000000
Neuron 245 3 0.25000000 1 1.00000000 0.00000000 0.00000000 0.00000000
Neuron 249 3 0.12500000 1 1.00000000 0.00000000 0.00000000 0.00000000
Neuron 251 3 0.87500000 1 1.00000000 0.00000000 0.00000000 0.00000000
Neuron 278 3 0.75000000 1 1.00000000 0.00000000 0.00000000 0.00000000
Neuron 282 3 0.37500000 1 1.00000000 0.00000000 0.00000000 0.00000000
Neuron 288 3 0.87500000 1 1.00000000 0.00000000 0.00000000 0.00000000
Neuron 291 3 0.25000000 1 1.00000000 0.00000000 0.00000000 0.00000000
Neuron 297 3 0.50000000 1 1.00000000 0.00000000 0.00000000 0.00000000
Neuron 310 3 0.75000000 1 1.00000000 0.00000000 0.00000000 0.00000000
Neuron 312 3 0.50000000 1 1.00000000 0.00000000 0.00000000 0.00000000
Neuron 320 3 0.56250000 1 1.00000000 0.00000000 0.00000000 0.00000000
Neuron 338 3 0.25000000 1 1.00000000 0.00000000 0.00000000 0.00000000
Neuron 340 3 0.75000000 1 1.00000000 0.00000000 0.00000000 0.00000000
Neuron 342 3 0.62500000 1 1.00000000 0.00000000 0.00000000 0.00000000
Neuron 351 3 0.37500000 1 1.00000000 0.00000000 0.00000000 0.00000000
Neuron 372 3 0.87500000 1 1.00000000 0.00000000 0.00000000 0.00000000
Neuron 377 3 0.50000000 1 1.00000000 0.00000000 0.00000000 0.00000000
Neuron 378 3 0.62500000 1 1.00000000 0.00000000 0.00000000 0.00000000
Neuron 392 3 0.43750000 1 1.00000000 0.00000000 0.00000000 0.00000000
Neuron 393 3 0.37500000 1 1.00000000 0.00000000 0.00000000 0.00000000
Neuron 410 3 0.12500000 1 1.00000000 0.00000000 0.00000000 0.00000000
Neuron 413 3 0.75000000 1 1.00000000 0.00000000 0.00000000 0.00000000
Neuron 422 3 0.87500000 1 1.00000000 0.00000000 0.00000000 0.00000000
Neuron 426 3 0.62500000 1 1.00000000 0.00000000 0.00000000 0.00000000
Neuron 429 3 0.37500000 1 1.00000000 0.00000000 0.00000000 0.00000000
Neuron 430 3 0.25000000 1 1.00000000 0.00000000 0.00000000 0.00000000
Neuron 433 3 0.75000000 1 1.00000000 0.00000000 0.00000000 0.00000000
Neuron 435 3 0.31250000 1 1.00000000 0.00000000 0.00000000 0.00000000
Neuron 436 3 0.87500000 1 1.00000000 0.00000000 0.00000000 0.00000000
Neuron 440 3 0.62500000 1 1.00000000 0.00000000 0.00000000 0.00000000
Neuron 442 3 0.50000000 1 1.00000000 0.00000000 0.00000000 0.00000000
Neuron 444 3 0.12500000 1 1.00000000 0.00000000 0.00000000 0.00000000
Neuron 447 3 0.18750000 1 1.00000000 0.00000000 0.00000000 0.00000000
Neuron 454 3 0.50000000 1 1.00000000 0.00000000 0.00000000 0.00000000
Neuron 457 3 0.75000000 1 1.00000000 0.00000000 0.00000000 0.00000000
Neuron 458 3 0.34375000 1 1.00000000 0.00000000 0.00000000 0.00000000
Neuron 466 3 0.12500000 1 1.00000000 0.00000000 0.00000000 0.00000000
Neuron 474 3 0.87500000 1 1.00000000 0.00000000 0.00000000 0.00000000
Neuron 476 3 0.12500000 1 1.00000000 0.00000000 0.00000000 0.00000000
Neuron 477 3 0.75000000 1 1.00000000 0.00000000 0.00000000 0.00000000
Neuron 478 3 0.56250000 1 1.00000000 0.00000000 0.00000000 0.00000000
Neuron 482 3 0.37500000 1 1.00000000 0.00000000 0.00000000 0.00000000
Neuron 494 3 1.00000000 1 1.00000000 0.00000000 0.00000000 0.00000000
Neuron 514 3 0.25000000 1 1.00000000 0.00000000 0.00000000 0.00000000
Neuron 519 3 1.00000000 1 1.00000000 0.00000000 0.00000000 0.00000000
Neuron 524 3 0.62500000 1 1.00000000 0.00000000 0.00000000 0.00000000
Neuron 525 3 0.62500000 1 1.00000000 0.00000000 0.00000000 0.00000000
Neuron 530 3 0.12500000 1 1.00000000 0.00000000 0.00000000 0.00000000
Neuron 535 3 0.50000000 1 1.00000000 0.00000000 0.00000000 0.00000000
Neuron 539 3 0.75000000 1 1.00000000 0.00000000 0.00000000 0.00000000
Neuron 540 3 0.62500000 1 1.00000000 0.00000000 0.00000000 0.00000000
Neuron 544 3 0.87500000 1 1.00000000 0.00000000 0.00000000 0.00000000
Neuron 548 3 0.37500000 1 1.00000000 0.00000000 0.00000000 0.00000000
Neuron 549 3 0.62500000 1 1.00000000 0.00000000 0.00000000 0.00000000
Neuron 558 3 0.50000000 1 1.00000000 0.00000000 0.00000000 0.00000000
Neuron 563 3 0.56250000 1 1.00000000 0.00000000 0.00000000 0.00000000
Neuron 564 3 0.28125000 1 1.00000000 0.00000000 0.00000000 0.00000000
Neuron 569 3 0.25000000 1 1.00000000 0.00000000 0.00000000 0.00000000
Neuron 575 3 0.18750000 1 1.00000000 0.00000000 0.00000000 0.00000000
Neuron 578 3 0.25000000 1 1.00000000 0.00000000 0.00000000 0.00000000
Neuron 584 3 0.81250000 1 1.00000000 0.00000000 0.00000000 0.00000000
Neuron 589 3 0.93750000 1 1.00000000 0.00000000 0.00000000 0.00000000
Neuron 598 3 0.25000000 1 1.00000000 0.00000000 0.00000000 0.00000000
Neuron 602 3 0.75000000 1 1.00000000 0.00000000 0.00000000 0.00000000
Neuron 605 3 0.21875000 1 1.00000000 0.00000000 0.00000000 0.00000000
Neuron 609 3 0.43750000 1 1.00000000 0.00000000 0.00000000 0.00000000
Neuron 611 3 0.50000000 1 1.00000000 0.00000000 0.00000000 0.00000000
Neuron 614 3 0.37500000 1 1.00000000 0.00000000 0.00000000 0.00000000
Neuron 619 3 0.93750000 1 1.00000000 0.00000000 0.00000000 0.00000000
Neuron 630 3 0.50000000 1 1.00000000 0.00000000 0.00000000 0.00000000
Neuron 631 3 0.62500000 1 1.00000000 0.00000000 0.00000000 0.00000000
Neuron 632 3 0.90625000 1 1.00000000 0.00000000 0.00000000 0.00000000
Neuron 638 3 0.43750000 1 1.00000000 0.00000000 0.00000000 0.00000000
Neuron 645 3 0.12500000 1 1.00000000 0.00000000 0.00000000 0.00000000
Neuron 646 3 0.62500000 1 1.00000000 0.00000000 0.00000000 0.00000000
Neuron 649 3 0.50000000 1 1.00000000 0.00000000 0.00000000 0.00000000
Neuron 659 3 0.17187500 1 1.00000000 0.00000000 0.00000000 0.00000000
Neuron 661 3 0.18750000 1 1.00000000 0.00000000 0.00000000 0.00000000
Neuron 671 3 0.81250000 1 1.00000000 0.00000000 0.00000000 0.00000000
Neuron 672 3 0.62500000 1 1.00000000 0.00000000 0.00000000 0.00000000
Neuron 681 3 0.68750000 1 1.00000000 0.00000000 0.00000000 0.00000000
Neuron 687 3 0.50000000 1 1.00000000 0.00000000 0.00000000 0.00000000
Neuron 694 3 0.87500000 1 1.00000000 0.00000000 0.00000000 0.00000000
Neuron 697 3 0.21875000 1 1.00000000 0.00000000 0.00000000 0.00000000
Neuron 706 3 0.96875000 1 1.00000000 0.00000000 0.00000000 0.00000000
Neuron 708 3 0.06250000 1 1.00000000 0.00000000 0.00000000 0.00000000
Neuron 712 3 0.68750000 1 1.00000000 0.00000000 0.00000000 0.00000000
Neuron 721 3 0.50000000 1 1.00000000 0.00000000 0.00000000 0.00000000
Neuron 722 3 0.87500000 1 1.00000000 0.00000000 0.00000000 0.00000000
Neuron 732 3 0.50000000 1 1.00000000 0.00000000 0.00000000 0.00000000
Neuron 733 3 0.31250000 1 1.00000000 0.00000000 0.00000000 0.00000000
Neuron 736 3 0.68750000 1 1.00000000 0.00000000 0.00000000 0.00000000
Neuron 739 3 0.56250000 1 1.00000000 0.00000000 0.00000000 0.00000000
Neuron 745 3 0.75000000 1 1.00000000 0.00000000 0.00000000 0.00000000
Neuron 754 3 0.50000000 1 1.00000000 0.00000000 0.00000000 0.00000000
Neuron 755 3 0.81250000 1 1.00000000 0.00000000 0.00000000 0.00000000
Neuron 783 3 0.12500000 1 1.00000000 0.00000000 0.00000000 0.00000000
Neuron 788 3 0.18750000 1 1.00000000 0.00000000 0.00000000 0.00000000
Neuron 796 3 0.50000000 1 1.00000000 0.00000000 0.00000000 0.00000000
Neuron 798 3 0.95312500 1 1.00000000 0.00000000 0.00000000 0.00000000
Neuron 804 3 0.78125000 1 1.00000000 0.00000000 0.00000000 0.00000000
Neuron 806 3 0.98437500 1 1.00000000 0.00000000 0.00000000 0.00000000
Neuron 817 3 0.50000000 1 1.00000000 0.00000000 0.00000000 0.00000000
Neuron 820 3 0.43750000 1 1.00000000 0.00000000 0.00000000 0.00000000
Neuron 826 3 0.26562500 1 1.00000000 0.00000000 0.00000000 0.00000000
Neuron 853 3 0.50000000 1 1.00000000 0.00000000 0.00000000 0.00000000
Neuron 871 3 0.50000000 1 1.00000000 0.00000000 0.00000000 0.00000000
Neuron 881 3 0.03125000 1 1.00000000 0.00000000 0.00000000 0.00000000
Neuron 882 3 0.62500000 1 1.00000000 0.00000000 0.00000000 0.00000000
Neuron 888 3 0.21875000 1 1.00000000 0.00000000 0.00000000 0.00000000
Neuron 906 3 0.71875000 1 1.00000000 0.00000000 0.00000000 0.00000000
Neuron 917 3 0.62500000 1 1.00000000 0.00000000 0.00000000 0.00000000
Neuron 920 3 0.43750000 1 1.00000000 0.00000000 0.00000000 0.00000000
Neuron 932 3 0.37500000 1 1.00000000 0.00000000 0.00000000 0.00000000
Neuron 948 3 0.68750000 1 1.00000000 0.00000000 0.00000000 0.00000000
Neuron 951 3 0.81250000 1 1.00000000 0.00000000 0.00000000 0.00000000
Neuron 952 3 0.79687500 1 1.00000000 0.00000000 0.00000000 0.00000000
Neuron 972 3 0.37500000 1 1.00000000 0.00000000 0.00000000 0.00000000
Neuron 981 3 0.75000000 1 1.00000000 0.00000000 0.00000000 0.00000000
Neuron 990 3 1.00000000 1 1.00000000 0.00000000 0.00000000 0.00000000
Neuron 991 3 0.50000000 1 1.00000000 0.00000000 0.00000000 0.00000000
Neuron 996 3 0.75000000 1 1.00000000 0.00000000 0.00000000 0.00000000
Neuron 999 3 0.56250000 1 1.00000000 0.00000000 0.00000000 0.00000000
Neuron 1009 3 0.71875000 1 1.00000000 0.00000000 0.00000000 0.00000000
Neuron 1021 3 0.06250000 1 1.00000000 0.00000000 0.00000000 0.00000000
Neuron 1027 3 0.87500000 1 1.00000000 0.00000000 0.00000000 0.00000000
Neuron 1043 3 0.62500000 1 1.00000000 0.00000000 0.00000000 0.00000000
Neuron 1058 3 0.50000000 1 1.00000000 0.00000000 0.00000000 0.00000000
Neuron 1077 3 0.20312500 1 1.00000000 0.00000000 0.00000000 0.00000000
Neuron 1109 3 0.78125000 1 1.00000000 0.00000000 0.00000000 0.00000000
Neuron 1110 3 0.43750000 1 1.00000000 0.00000000 0.00000000 0.00000000
Neuron 1139 3 0.50000000 1 1.00000000 0.00000000 0.00000000 0.00000000
Neuron 1155 3 0.50000000 1 1.00000000 0.00000000 0.00000000 0.00000000
Neuron 1188 3 0.59375000 1 1.00000000 0.00000000 0.00000000 0.00000000
Neuron 1197 3 0.34375000 1 1.00000000 0.00000000 0.00000000 0.00000000
Neuron 1220 3 0.59375000 1 1.00000000 0.00000000 0.00000000 0.00000000
Neuron 1237 3 0.78125000 1 1.00000000 0.00000000 0.00000000 0.00000000
Neuron 1243 3 0.68750000 1 1.00000000 0.00000000 0.00000000 0.00000000
Neuron 1266 3 0.50000000 1 1.00000000 0.00000000 0.00000000 0.00000000
Neuron 1269 3 0.71875000 1 1.00000000 0.00000000 0.00000000 0.00000000
Neuron 1300 3 0.51562500 1 1.00000000 0.00000000 0.00000000 0.00000000
Neuron 1379 3 0.50000000 1 1.00000000 0.00000000 0.00000000 0.00000000
Neuron 1459 3 0.25000000 1 1.00000000 0.00000000 0.00000000 0.00000000
Neuron 1502 3 0.82812500 1 1.00000000 0.00000000 0.00000000 0.00000000
Link 1 10 1 0 -0.84996906
Link 2 10 2 0 -2.27885352
Link 3 10 3 0 1.14629600
Link 6 10 6 0 0.10059062
Link 8 10 8 0 -3.63025588
Link 9 10 9 0 1.81778176
Link 1 11 10 0 -2.44124344
Link 2 11 11 0 3.37035697
Link 3 11 12 0 1.27827456
Link 4 11 13 0 2.30262861
Link 5 11 14 0 1.88179889
Link 6 11 15 0 0.03354438
Link 7 11 16 0 -0.76987793
Link 8 11 17 0 -0.51404316
Link 9 11 18 0 1.34770453
Link 1 12 19 0 -3.24515145
Link 4 12 22 0 2.37791856
Link 5 12 23 0 -2.85978193
Link 6 12 24 0 -1.58472772
Link 7 12 25 0 -0.51782274
Link 8 12 26 0 -0.53465251
Link 9 12 27 0 1.43755075
Link 1 13 28 0 -3.54141899
Link 3 13 30 0 3.07865248
Link 4 13 31 0 -0.22320038
Link 6 13 33 0 -1.16102252
Link 8 13 35 0 -0.31403331
Link 9 13 36 0 2.23279964
Link 3 14 39 0 0.19201226
Link 6 14 42 0 0.99539978
Link 8 14 44 0 1.18739831
Link 9 14 45 0 -1.47658866
Link 1 15 46 0 -4.98295683
Link 2 15 47 0 -1.07815395
Link 3 15 48 0 -0.51719042
Link 4 15 49 0 -6.80367032
Link 5 15 50 0 1.23903893
Link 6 15 51 0 -1.58555711
Link 7 15 52 0 -0.10237305
Link 8 15 53 0 0.32035196
Link 9 15 54 0 -0.47012509
Link 1 16 55 0 -1.91794044
Link 2 16 56 0 -0.43414853
Link 3 16 57 0 -2.43070150
Link 4 16 58 0 -0.49092194
Link 5 16 59 0 -0.77446209
Link 7 16 61 0 -0.17145497
Link 8 16 62 0 -0.42925644
Link 9 16 63 0 -0.76083194
Link 4 17 65 0 0.80907709
Link 6 18 68 0 -0.61592104
Link 18 12 69 0 0.02659710
Link 2 19 71 0 -4.75608866
Link 19 10 72 0 1.03742966
Link 6 22 80 0 -0.07877566
Link 22 16 81 0 1.46420832
Link 23 11 84 0 -3.14032117
Link 5 26 93 0 0.58657135
Link 8 29 102 0 -2.70059346
Link 2 30 105 0 1.74701923
Link 30 14 106 0 -1.60689247
Link 31 13 109 0 -1.62602146
Link 8 32 111 0 -0.82481083
Link 32 13 112 0 0.92647222
Link 6 33 115 0 2.39573827
Link 33 13 116 0 3.12572928
Link 34 12 119 0 1.08372785
Link 5 35 121 0 0.05159059
Link 35 13 122 0 -1.79060201
Link 13 13 124 1 -0.18961671
Link 4 36 126 0 -2.02933571
Link 36 14 127 0 0.00195570
Link 2 38 132 0 -0.62318701
Link 38 12 133 0 -2.52503432
Link 6 39 135 0 1.58432108
Link 39 15 136 0 6.06910134
Link 41 14 142 0 0.24432398
Link 8 42 144 0 -0.57372124
Link 42 11 145 0 0.58433379
Link 43 15 148 0 2.80657085
Link 45 16 154 0 1.17205817
Link 5 46 156 0 0.22572636
Link 46 12 157 0 -1.93420549
Link 2 48 162 0 -1.13474238
Link 5 50 171 0 3.09763455
Link 7 53 186 0 -0.60177353
Link 53 12 187 0 0.72246301
Link 3 54 189 0 -2.48245154
Link 2 55 193 0 -0.03210458
Link 55 11 194 0 2.00289874
Link 7 56 197 0 -2.21741559
Link 56 16 198 0 -2.17419591
Link 5 57 202 0 -2.17020239
Link 6 58 208 0 0.21558343
Link 58 14 209 0 -1.13734618
Link 4 59 211 0 1.19942943
Link 59 12 212 0 2.94282555
Link 4 60 214 0 1.56779081
Link 7 61 219 0 -1.16241283
Link 61 13 220 0 -2.04358897
Link 14 14 233 1 0.69740355
Link 7 64 237 0 3.91218543
Link 2 23 241 0 3.96999506
Link 23 65 244 0 2.55787266
Link 65 11 245 0 0.77401364
Link 7 55 249 0 1.48591737
Link 5 55 250 0 -1.79896700
Link 15 38 261 1 -0.33821289
Link 7 68 286 0 -2.94753564
Link 68 10 287 0 -0.05764198
Link 1 70 307 0 0.31233686
Link 70 41 308 0 1.27698980
Link 41 72 327 0 1.15092841
Link 72 14 328 0 -0.61349294
Link 1 75 343 0 -1.59075663
Link 75 10 344 0 0.86053856
Link 76 14 351 0 1.28835992
Link 38 56 379 0 1.55714493
Link 2 81 399 0 2.64493464
Link 81 13 400 0 -0.95125233
Link 16 85 430 1 2.90645942
Link 88 15 449 0 -3.25477380
Link 3 90 459 0 0.11067122
Link 4 91 463 0 0.37326771
Link 91 17 464 0 -1.96511141
Link 95 14 500 0 2.19852713
Link 6 98 520 0 0.15359261
Link 98 23 521 0 1.25012383
Link 8 100 551 0 2.49866829
Link 100 12 552 0 0.95368527
Link 13 55 582 1 0.02995668
Link 8 104 601 0 -0.26462235
Link 104 32 602 0 -1.99480967
Link 113 15 641 0 1.79297560
Link 7 118 682 0 0.68203612
Link 118 64 683 0 -3.20451983
Link 2 119 693 0 0.29297082
Link 119 12 694 0 -0.30626204
Link 2 121 700 0 0.22104535
Link 121 81 701 0 0.39587551
Link 50 129 790 0 1.42675483
Link 129 14 791 0 -0.61186215
Link 130 11 796 0 -0.71625578
Link 29 131 798 0 -1.49471193
Link 131 88 799 0 -2.93741790
Link 3 132 801 0 0.87366836
Link 132 43 802 0 -0.59493664
Link 60 135 818 0 0.05434279
Link 135 10 819 0 -2.84952031
Link 44 138 832 0 1.39399394
Link 138 11 833 0 0.46980492
Link 9 38 844 0 0.46494789
Link 4 145 867 0 4.11533842
Link 145 45 868 0 -0.20461904
Link 19 57 882 0 0.85506001
Link 7 147 884 0 -1.86780174
Link 147 68 885 0 0.20457288
Link 57 156 931 0 1.50949831
Link 156 15 932 0 0.07435932
Link 32 14 970 0 1.65198429
Link 90 161 986 0 -2.31130336
Link 161 31 987 0 0.89636338
Link 2 165 1005 0 0.76810771
Link 165 30 1006 0 -0.96137228
Link 68 68 1084 1 -0.38243392
Link 8 175 1110 0 -1.79486026
Link 175 76 1111 0 3.68460013
Link 85 177 1131 1 0.71638102
Link 177 68 1132 1 -0.49288635
Link 2 180 1145 0 1.48128069
Link 29 56 1156 0 2.45928656
Link 19 183 1174 0 -0.92726312
Link 183 10 1175 0 -1.42625861
Link 40 187 1190 0 -0.48009635
Link 31 193 1223 0 -1.23310112
Link 193 13 1224 0 -4.03245789
Link 8 38 1271 0 1.35931951
Link 48 207 1299 0 3.38677150
Link 207 16 1300 0 1.50949789
Link 10 32 1308 1 -2.52729009
Link 4 212 1339 0 3.14817207
Link 212 40 1340 0 -0.02729861
Link 3 214 1351 0 -1.18007547
Link 214 44 1352 0 -1.79295048
Link 5 71 1358 0 0.06192853
Link 98 221 1402 0 -0.85619953
Link 221 23 1403 0 -0.07756229
Link 10 68 1425 1 -4.01972575
Link 3 226 1447 0 -1.85795630
Link 226 34 1448 0 0.66865603
Link 70 229 1466 0 0.96180312
Link 229 41 1467 0 1.31415363
Link 9 71 1475 0 -1.84305202
Link 5 231 1477 0 -0.95246563
Link 231 50 1478 0 0.69849045
Link 58 232 1485 0 3.75482063
Link 232 14 1486 0 -0.43746049
Link 44 56 1490 0 -4.10683196
Link 4 234 1505 0 1.07121710
Link 239 10 1536 0 0.13658590
Link 5 245 1563 0 -0.70900831
Link 249 70 1589 0 -0.70258948
Link 187 251 1600 0 -0.13519877
Link 251 13 1601 0 0.20356387
Link 8 69 1708 0 -0.90494563
Link 61 278 1796 0 -2.97458950
Link 278 13 1797 0 2.40265566
Link 234 282 1813 0 0.53515515
Link 282 55 1814 0 4.02348794
Link 16 48 1827 1 0.59132899
Link 288 11 1845 0 2.30522507
Link 291 61 1854 0 1.08499407
Link 19 297 1884 0 1.88784971
Link 297 55 1885 0 0.33926466
Link 310 14 1971 0 2.19811083
Link 3 312 1981 0 0.08168549
Link 312 12 1982 0 0.44404487
Link 55 320 2046 0 -2.51729338
Link 320 153 2047 0 -1.32057700
Link 8 338 2165 0 2.79656823
Link 34 340 2176 0 0.66156778
Link 340 12 2177 0 1.53017019
Link 57 342 2186 0 -1.60315925
Link 342 156 2187 0 -0.12256867
Link 1 98 2201 0 1.21294718
Link 351 235 2255 1 -0.47546825
Link 71 31 2288 0 1.10453167
Link 11 50 2323 1 2.68594522
Link 372 12 2425 0 -0.98719076
Link 377 81 2466 0 -1.56350989
Link 54 378 2475 0 1.83681950
Link 378 95 2476 0 1.68521771
Link 12 30 2517 1 0.95211649
Link 40 19 2520 0 2.21113463
Link 4 282 2538 0 -1.11954792
Link 282 392 2561 0 -0.61442655
Link 392 55 2562 0 -2.84925653
Link 129 129 2564 1 1.35238231
Link 393 71 2567 0 1.31199311
Link 6 410 2666 0 -0.66162120
Link 410 98 2667 0 -2.79604552
Link 26 413 2685 0 0.34754801
Link 413 10 2686 0 -0.64764845
Link 44 26 2687 0 0.96164274
Link 34 15 2755 0 -1.67693351
Link 129 422 2777 0 -0.02878725
Link 426 113 2802 0 2.10535047
Link 129 17 2822 1 3.22735126
Link 429 68 2827 0 -0.61613633
Link 8 430 2838 0 -1.75502972
Link 430 40 2839 0 -3.15621708
Link 433 129 2866 1 3.32860794
Link 69 436 2888 0 0.55927811
Link 436 15 2889 0 -2.64779805
Link 64 440 2909 0 -0.59061819
Link 440 310 2910 0 -1.58840099
Link 30 68 2927 0 0.18657749
Link 40 442 2930 0 2.63198789
Link 442 19 2931 0 1.80163579
Link 38 338 2934 1 -1.96631573
Link 3 444 2959 0 -1.35434527
Link 435 14 2972 0 -0.95323069
Link 4 447 2984 0 2.64165125
Link 447 282 2985 0 -0.64324071
Link 50 11 2990 0 -2.10351357
Link 32 454 3037 0 -0.75374803
Link 129 457 3056 1 0.90989329
Link 457 433 3057 1 -1.83216928
Link 435 458 3062 0 1.45371218
Link 458 393 3063 0 2.73706065
Link 34 310 3086 0 -1.82470026
Link 11 338 3108 1 -0.63146085
Link 7 466 3131 0 4.26234295
Link 466 291 3132 0 0.26631715
Link 69 13 3154 0 -0.89379298
Link 310 474 3180 0 -1.02270920
Link 474 14 3181 0 1.41258088
Link 4 476 3191 0 1.29518488
Link 34 477 3196 0 2.86376851
Link 477 15 3197 0 -0.79196284
Link 177 478 3200 1 2.15989798
Link 478 68 3201 1 2.64730175
Link 338 482 3234 0 1.12097131
Link 482 68 3235 0 -1.85641283
Link 129 32 3288 1 -0.71688826
Link 35 48 3291 0 2.68944387
Link 15 494 3341 1 2.61318965
Link 494 15 3342 1 2.35587461
Link 175 23 3433 0 4.21277178
Link 85 14 3454 0 -1.85716054
Link 5 514 3496 0 1.41819598
Link 514 56 3497 0 2.15541620
Link 494 519 3528 1 -1.81816002
Link 129 524 3565 1 -1.41170551
Link 524 17 3566 1 2.30787683
Link 34 525 3569 0 0.30291245
Link 8 530 3611 0 -0.25735027
Link 17 535 3645 0 0.00431939
Link 535 40 3646 0 -0.08203667
Link 35 539 3673 0 1.28542313
Link 539 16 3674 0 -0.47531111
Link 50 540 3684 0 3.95171688
Link 540 129 3685 0 3.62208399
Link 544 10 3735 0 1.50351400
Link 165 548 3766 0 0.19685143
Link 548 30 3767 0 3.08719857
Link 56 69 3774 0 -3.41826595
Link 30 30 3785 1 -2.89186346
Link 71 549 3793 0 -0.27309065
Link 549 130 3794 0 -0.19622225
Link 393 48 3799 0 1.96114250
Link 38 476 3858 1 -1.65865308
Link 8 558 3866 0 1.90040231
Link 558 15 3867 0 0.11116004
Link 177 70 3881 1 1.17017986
Link 17 563 3890 0 1.10860844
Link 563 426 3891 0 -0.66750547
Link 564 435 3897 0 -1.54472572
Link 494 282 3904 1 1.20856030
Link 5 569 3927 0 -0.63485016
Link 98 98 3967 1 -1.83089216
Link 476 575 3984 0 -4.30082212
Link 575 235 3985 0 0.82141025
Link 4 578 3999 0 0.80251502
Link 578 36 4000 0 1.37018669
Link 584 251 4061 0 3.85216765
Link 589 14 4106 0 1.41124596
Link 214 598 4168 1 2.31254505
Link 598 214 4169 1 0.85783761
Link 589 16 4185 0 -0.79735997
Link 32 602 4215 0 -3.32395906
Link 251 454 4233 1 -0.33084497
Link 605 435 4245 0 -0.04819034
Link 85 64 4254 1 0.48672124
Link 165 609 4286 0 1.56085476
Link 609 426 4287 0 -0.73005351
Link 239 129 4303 0 1.24291370
Link 23 50 4305 0 2.70770023
Link 454 611 4315 0 0.86887114
Link 611 19 4316 0 0.52919297
Link 245 614 4345 0 1.36172344
Link 614 55 4346 0 2.70947828
Link 16 619 4415 1 -0.87909310
Link 619 251 4416 1 -2.48930710
Link 71 41 4453 0 -4.73217888
Link 129 64 4460 1 0.66090361
Link 430 54 4492 0 -0.08600879
Link 4 129 4496 0 -1.17998136
Link 5 630 4532 0 1.99512692
Link 630 494 4533 0 0.39935095
Link 68 631 4544 0 -1.15606536
Link 631 239 4545 0 -1.06148170
Link 422 632 4555 0 1.21031305
Link 632 589 4556 0 1.31240254
Link 177 638 4594 1 1.52356253
Link 638 70 4595 1 5.05966146
Link 645 165 4693 0 -1.08537905
Link 129 646 4697 1 -0.89024413
Link 575 435 4702 0 1.44421848
Link 76 68 4716 0 -1.23052028
Link 40 40 4724 1 -4.12365250
Link 649 377 4727 0 -1.27975073
Link 476 659 4813 0 -4.39702082
Link 659 605 4814 0 -0.21475058
Link 530 661 4824 0 -2.13457608
Link 68 130 4837 0 -0.18436401
Link 13 430 4846 1 2.98054979
Link 180 30 4896 0 2.28843453
Link 69 671 4938 0 -0.70258063
Link 671 372 4939 0 0.22171469
Link 32 672 4942 0 -1.74664248
Link 672 142 4943 0 0.64537110
Link 113 619 4944 0 0.64632927
Link 57 282 5002 1 1.37983964
Link 251 681 5026 1 0.13122933
Link 681 454 5027 1 3.29393628
Link 2 129 5033 0 -0.13374882
Link 7 687 5077 0 3.17968419
Link 687 12 5078 0 -2.16941881
Link 85 694 5121 0 0.82644038
Link 694 14 5122 0 -0.29919303
Link 697 430 5140 0 0.51136651
Link 226 113 5143 0 1.85962592
Link 17 251 5167 0 -2.66670175
Link 130 129 5212 0 0.57259124
Link 708 249 5232 0 -2.19523371
Link 712 61 5269 1 -3.49424360
Link 98 548 5272 0 -1.93752905
Link 249 706 5273 0 -0.17171380
Link 611 721 5339 0 -0.39585004
Link 721 19 5340 0 -1.13349257
Link 142 722 5351 0 3.34221041
Link 722 13 5352 0 -2.19452831
Link 235 26 5385 0 -0.76843073
Link 147 733 5412 0 1.62916425
Link 32 736 5456 0 -0.68783599
Link 736 251 5457 0 2.34003055
Link 530 251 5458 0 -1.48738518
Link 64 739 5479 0 0.89643489
Link 147 31 5497 0 -0.08613807
Link 745 14 5527 0 2.16805594
Link 72 10 5548 0 -2.21058141
Link 11 108 5582 1 1.38318195
Link 4 754 5611 0 0.92399020
Link 754 14 5612 0 -0.87513350
Link 239 755 5616 0 1.74798099
Link 755 544 5617 0 0.07299141
Link 32 17 5629 0 -1.94951377
Link 130 130 5784 1 -1.93596479
Link 61 235 5787 1 -1.87443828
Link 569 44 5832 0 3.75753135
Link 544 108 5870 1 1.87347470
Link 226 76 5902 0 -1.72816528
Link 5 783 5904 0 2.37983624
Link 783 226 5905 0 -0.14953280
Link 444 788 5968 0 -0.79880739
Link 788 226 5969 0 1.97576132
Link 39 796 6036 0 0.15056880
Link 796 61 6037 0 -0.95908281
Link 706 798 6052 1 1.99095463
Link 798 619 6053 1 -0.20681248
Link 187 804 6092 0 0.05403250
Link 16 806 6110 1 0.06647371
Link 806 706 6111 1 -2.72187626
Link 31 64 6210 0 -3.70285348
Link 31 820 6229 1 -1.32823277
Link 820 351 6230 1 1.35315148
Link 235 826 6282 0 2.54263218
Link 826 564 6283 0 -0.33200967
Link 649 57 6381 0 -3.01888423
Link 34 853 6466 0 1.87728651
Link 853 649 6467 0 -1.54229269
Link 17 57 6566 0 2.20800185
Link 59 98 6592 1 -6.04122275
Link 310 871 6624 1 1.99291046
Link 871 569 6625 1 2.15332305
Link 1 881 6741 0 -0.76493721
Link 881 708 6742 0 1.73314785
Link 454 882 6747 0 0.65242551
Link 882 113 6748 0 0.84354949
Link 645 38 6765 0 1.67489193
Link 708 888 6830 0 0.61900839
Link 888 429 6831 0 0.54175061
Link 234 15 6860 0 1.01951928
Link 58 422 6880 0 0.89767226
Link 23 906 7020 0 0.92932778
Link 906 619 7021 0 -1.81494680
Link 64 917 7083 0 1.31593310
Link 917 745 7084 0 -1.43149664
Link 249 920 7104 0 1.65024949
Link 920 113 7105 0 1.32198930
Link 611 35 7189 0 -0.63080861
Link 569 932 7232 0 1.08915731
Link 932 32 7233 0 0.14231292
Link 564 422 7273 0 -0.78613714
Link 19 239 7292 0 1.31762419
Link 113 539 7310 0 -1.51088526
Link 31 31 7335 1 -0.43075761
Link 153 948 7401 0 0.05645063
Link 948 108 7402 0 -0.02551837
Link 951 288 7455 0 -5.40431927
Link 952 584 7462 0 -2.58632551
Link 71 687 7517 0 -1.61643255
Link 951 614 7646 1 -3.32270345
Link 41 972 7683 1 2.44124222
Link 972 212 7684 1 2.53236085
Link 433 61 7758 1 -0.96950091
Link 72 645 7763 1 -3.24772804
Link 22 981 7765 0 0.12957477
Link 981 14 7766 0 0.97864650
Link 291 435 7801 0 -1.56469999
Link 519 990 7833 1 0.13306388
Link 990 15 7834 1 -0.18677048
Link 31 991 7838 0 1.50037878
Link 991 732 7839 0 -3.04563771
Link 494 996 7910 1 -0.49541479
Link 996 796 7911 1 0.80293154
Link 646 999 7949 1 0.28335989
Link 999 32 7950 1 1.14722306
Link 43 1009 8040 0 -1.00625302
Link 1009 589 8041 0 7.62287103
Link 161 422 8085 0 -0.62859800
Link 2 1021 8108 0 0.91761973
Link 1021 645 8109 0 3.25858070
Link 602 108 8113 0 1.07783423
Link 602 1027 8160 0 0.87483830
Link 1027 14 8161 0 -0.22845792
Link 65 55 8170 1 -2.31945178
Link 108 19 8215 1 -1.01627583
Link 10 649 8278 1 1.02745184
Link 40 454 8355 0 0.89876358
Link 58 1043 8362 0 -2.48779755
Link 1043 129 8363 0 2.16934156
Link 30 1058 8534 0 -0.51152911
Link 1058 61 8535 0 -2.27373105
Link 3 525 8556 0 0.07089792
Link 630 48 8617 0 2.01529370
Link 661 1077 8656 0 -2.35672948
Link 1077 697 8657 0 4.41363705
Link 611 372 8689 0 0.60205711
Link 338 535 8744 0 -0.37642059
Link 177 156 8916 0 1.39122707
Link 645 46 8931 0 0.94595558
Link 108 1109 8954 0 0.47946557
Link 1109 951 8955 0 0.52541067
Link 393 1110 8959 0 -0.73944940
Link 1110 377 8960 0 4.78138499
Link 514 15 8984 0 0.47481354
Link 121 193 9004 0 1.50701659
Link 251 806 9033 0 2.10695393
Link 477 477 9086 1 -0.68089626
Link 535 1139 9196 0 -0.13677515
Link 1139 41 9197 0 1.52027136
Link 540 15 9239 0 0.22282072
Link 22 61 9258 0 -3.07728510
Link 732 1155 9292 0 3.58052817
Link 1155 29 9293 0 -1.45779207
Link 826 33 9437 0 -0.00794939
Link 113 952 9455 0 0.19296749
Link 71 796 9550 0 -0.54633641
Link 619 1188 9597 1 0.75599149
Link 1188 338 9598 1 -0.48131595
Link 6 90 9651 0 2.34770511
Link 539 539 9673 1 -1.14399956
Link 733 1197 9686 0 3.14431449
Link 1197 429 9687 0 -0.72705883
Link 121 430 9810 0 -0.68732095
Link 436 11 9868 0 1.34278492
Link 393 88 9889 0 -1.44524053
Link 338 232 9905 0 -0.53357637
Link 739 1220 9922 0 2.32263103
Link 1220 440 9923 0 -1.17822430
Link 29 671 9936 0 -2.32262161
Link 351 519 9950 0 -0.50072397
Link 187 43 9975 1 2.11174225
Link 54 113 10017 0 -0.52755555
Link 177 477 10030 0 -1.38865742
Link 1009 558 10069 1 -1.76793063
Link 44 638 10085 1 -0.05094610
Link 187 433 10095 0 -0.54773206
Link 1237 712 10101 1 1.99271802
Link 1 232 10156 0 -2.10967853
Link 525 1243 10168 0 0.41185040
Link 1243 310 10169 0 -4.54955063
Link 31 1266 10388 0 3.19982402
Link 1266 817 10389 0 -0.50516888
Link 920 1269 10406 0 0.62827990
Link 1269 16 10407 0 -1.88320007
Link 50 85 10530 0 -2.73113905
Link 68 291 10660 1 1.38824123
Link 804 1300 10736 1 -1.67221717
Link 1300 231 10737 1 1.11972126
Link 530 1077 10915 0 -1.81057649
Link 145 69 10967 0 -1.72837074
Link 30 36 11012 0 2.78614959
Link 435 165 11103 1 -3.56822840
Link 156 85 11126 0 2.81407183
Link 430 108 11469 0 5.17041037
Link 605 81 11486 0 -1.29619552
Link 817 1379 11572 0 -0.99596807
Link 1379 454 11573 0 -2.31197348
Link 392 804 11933 0 -1.82972205
Link 410 282 12087 0 -0.80834211
Link 5 1459 12299 0 1.71289081
Link 1459 817 12300 0 -3.05640430
Link 392 138 12438 0 1.52527689
Link 796 871 12500 0 -2.51897458
Link 3 207 12641 0 -3.33362069
Link 90 435 12667 0 -1.76316670
Link 251 1502 12731 1 1.31270738
Link 1502 1237 12732 1 1.59696981
Link 1266 745 12773 0 4.08514825
Link 377 739 12816 0 -1.10571266
Link 440 882 12843 0 -3.67372212
Link 70 951 13116 0 -1.36856320
Link 100 39 13185 0 -1.81029092
Link 43 871 13261 0 1.30862816
Link 64 549 13332 0 4.42221110
Link 694 477 13447 1 1.27998414
Link 226 535 13517 0 -0.23035232
Link 783 458 13570 0 1.82104813
Link 76 1027 13574 0 -1.51984018
Link 1 310 13614 0 -2.09596389
Link 1027 193 13673 1 3.63656040
Link 183 65 13688 0 4.00952782
GenomeEnd

