GenomeStart 119114
Neuron 1 1 0.00000000 1 0.00000000 0.00000000 0.00000000 0.00000000
Neuron 2 1 0.00000000 1 0.00000000 0.00000000 0.00000000 0.00000000
Neuron 3 1 0.00000000 1 0.00000000 0.00000000 0.00000000 0.00000000
Neuron 4 1 0.00000000 1 0.00000000 0.00000000 0.00000000 0.00000000
Neuron 5 1 0.00000000 1 0.00000000 0.00000000 0.00000000 0.00000000
Neuron 6 1 0.00000000 1 0.00000000 0.00000000 0.00000000 0.00000000
Neuron 7 1 0.00000000 1 0.00000000 0.00000000 0.00000000 0.00000000
Neuron 8 1 0.00000000 1 0.00000000 0.00000000 0.00000000 0.00000000
Neuron 9 2 0.00000000 1 0.00000000 0.00000000 0.00000000 0.00000000
Neuron 10 4 1.00000000 0 1.00000000 0.00000000 0.00000000 0.00000000
Neuron 11 4 1.00000000 0 1.00000000 0.00000000 0.00000000 0.00000000
Neuron 12 4 1.00000000 0 1.00000000 0.00000000 0.00000000 0.00000000
Neuron 13 4 1.00000000 0 1.00000000 0.00000000 0.00000000 0.00000000
Neuron 14 4 1.00000000 0 1.00000000 0.00000000 0.00000000 0.00000000
Neuron 15 4 1.00000000 0 1.00000000 0.00000000 0.00000000 0.00000000
Neuron 16 4 1.00000000 0 1.00000000 0.00000000 0.00000000 0.00000000
Neuron 18 3 0.50000000 1 1.00000000 0.00000000 0.00000000 0.00000000
Neuron 20 3 0.50000000 1 1.00000000 0.00000000 0.00000000 0.00000000
Neuron 21 3 0.50000000 1 1.00000000 0.00000000 0.00000000 0.00000000
Neuron 26 3 0.50000000 1 1.00000000 0.00000000 0.00000000 0.00000000
Neuron 29 3 0.50000000 1 1.00000000 0.00000000 0.00000000 0.00000000
Neuron 30 3 0.50000000 1 1.00000000 0.00000000 0.00000000 0.00000000
Neuron 31 3 0.50000000 1 1.00000000 0.00000000 0.00000000 0.00000000
Neuron 33 3 0.50000000 1 1.00000000 0.00000000 0.00000000 0.00000000
Neuron 34 3 0.50000000 1 1.00000000 0.00000000 0.00000000 0.00000000
Neuron 35 3 0.50000000 1 1.00000000 0.00000000 0.00000000 0.00000000
Neuron 37 3 0.50000000 1 1.00000000 0.00000000 0.00000000 0.00000000
Neuron 40 3 0.50000000 1 1.00000000 0.00000000 0.00000000 0.00000000
Neuron 46 3 0.50000000 1 1.00000000 0.00000000 0.00000000 0.00000000
Neuron 48 3 0.50000000 1 1.00000000 0.00000000 0.00000000 0.00000000
Neuron 50 3 0.50000000 1 1.00000000 0.00000000 0.00000000 0.00000000
Neuron 51 3 0.50000000 1 1.00000000 0.00000000 0.00000000 0.00000000
Neuron 53 3 0.50000000 1 1.00000000 0.00000000 0.00000000 0.00000000
Neuron 54 3 0.50000000 1 1.00000000 0.00000000 0.00000000 0.00000000
Neuron 66 3 0.50000000 1 1.00000000 0.00000000 0.00000000 0.00000000
Neuron 67 3 0.50000000 1 1.00000000 0.00000000 0.00000000 0.00000000
Neuron 70 3 0.25000000 1 1.00000000 0.00000000 0.00000000 0.00000000
Neuron 74 3 0.50000000 1 1.00000000 0.00000000 0.00000000 0.00000000
Neuron 78 3 0.75000000 1 1.00000000 0.00000000 0.00000000 0.00000000
Neuron 79 3 0.75000000 1 1.00000000 0.00000000 0.00000000 0.00000000
Neuron 83 3 0.75000000 1 1.00000000 0.00000000 0.00000000 0.00000000
Neuron 85 3 0.25000000 1 1.00000000 0.00000000 0.00000000 0.00000000
Neuron 88 3 0.50000000 1 1.00000000 0.00000000 0.00000000 0.00000000
Neuron 90 3 0.75000000 1 1.00000000 0.00000000 0.00000000 0.00000000
Neuron 91 3 0.75000000 1 1.00000000 0.00000000 0.00000000 0.00000000
Neuron 93 3 0.50000000 1 1.00000000 0.00000000 0.00000000 0.00000000
Neuron 95 3 0.25000000 1 1.00000000 0.00000000 0.00000000 0.00000000
Neuron 101 3 0.75000000 1 1.00000000 0.00000000 0.00000000 0.00000000
Neuron 104 3 0.25000000 1 1.00000000 0.00000000 0.00000000 0.00000000
Neuron 105 3 0.75000000 1 1.00000000 0.00000000 0.00000000 0.00000000
Neuron 109 3 0.87500000 1 1.00000000 0.00000000 0.00000000 0.00000000
Neuron 110 3 0.25000000 1 1.00000000 0.00000000 0.00000000 0.00000000
Neuron 111 3 0.87500000 1 1.00000000 0.00000000 0.00000000 0.00000000
Neuron 113 3 0.75000000 1 1.00000000 0.00000000 0.00000000 0.00000000
Neuron 116 3 0.25000000 1 1.00000000 0.00000000 0.00000000 0.00000000
Neuron 119 3 0.62500000 1 1.00000000 0.00000000 0.00000000 0.00000000
Neuron 122 3 0.25000000 1 1.00000000 0.00000000 0.00000000 0.00000000
Neuron 128 3 0.75000000 1 1.00000000 0.00000000 0.00000000 0.00000000
Neuron 137 3 0.50000000 1 1.00000000 0.00000000 0.00000000 0.00000000
Neuron 154 3 0.25000000 1 1.00000000 0.00000000 0.00000000 0.00000000
Neuron 162 3 0.25000000 1 1.00000000 0.00000000 0.00000000 0.00000000
Neuron 169 3 0.12500000 1 1.00000000 0.00000000 0.00000000 0.00000000
Neuron 170 3 0.75000000 1 1.00000000 0.00000000 0.00000000 0.00000000
Neuron 184 3 0.75000000 1 1.00000000 0.00000000 0.00000000 0.00000000
Neuron 185 3 0.25000000 1 1.00000000 0.00000000 0.00000000 0.00000000
Neuron 196 3 0.25000000 1 1.00000000 0.00000000 0.00000000 0.00000000
Neuron 210 3 0.75000000 1 1.00000000 0.00000000 0.00000000 0.00000000
Neuron 218 3 0.25000000 1 1.00000000 0.00000000 0.00000000 0.00000000
Neuron 223 3 0.25000000 1 1.00000000 0.00000000 0.00000000 0.00000000
Neuron 226 3 0.62500000 1 1.00000000 0.00000000 0.00000000 0.00000000
Neuron 251 3 0.25000000 1 1.00000000 0.00000000 0.00000000 0.00000000
Neuron 252 3 0.12500000 1 1.00000000 0.00000000 0.00000000 0.00000000
Neuron 260 3 0.87500000 1 1.00000000 0.00000000 0.00000000 0.00000000
Neuron 262 3 0.75000000 1 1.00000000 0.00000000 0.00000000 0.00000000
Neuron 268 3 0.37500000 1 1.00000000 0.00000000 0.00000000 0.00000000
Neuron 271 3 0.50000000 1 1.00000000 0.00000000 0.00000000 0.00000000
Neuron 273 3 0.50000000 1 1.00000000 0.00000000 0.00000000 0.00000000
Neuron 279 3 0.75000000 1 1.00000000 0.00000000 0.00000000 0.00000000
Neuron 282 3 0.50000000 1 1.00000000 0.00000000 0.00000000 0.00000000
Neuron 290 3 0.25000000 1 1.00000000 0.00000000 0.00000000 0.00000000
Neuron 296 3 0.25000000 1 1.00000000 0.00000000 0.00000000 0.00000000
Neuron 300 3 0.37500000 1 1.00000000 0.00000000 0.00000000 0.00000000
Neuron 309 3 0.50000000 1 1.00000000 0.00000000 0.00000000 0.00000000
Neuron 316 3 0.62500000 1 1.00000000 0.00000000 0.00000000 0.00000000
Neuron 322 3 0.75000000 1 1.00000000 0.00000000 0.00000000 0.00000000
Neuron 328 3 0.25000000 1 1.00000000 0.00000000 0.00000000 0.00000000
Neuron 334 3 0.75000000 1 1.00000000 0.00000000 0.00000000 0.00000000
Neuron 344 3 0.87500000 1 1.00000000 0.00000000 0.00000000 0.00000000
Neuron 347 3 0.87500000 1 1.00000000 0.00000000 0.00000000 0.00000000
Neuron 370 3 0.25000000 1 1.00000000 0.00000000 0.00000000 0.00000000
Neuron 375 3 0.43750000 1 1.00000000 0.00000000 0.00000000 0.00000000
Neuron 386 3 0.87500000 1 1.00000000 0.00000000 0.00000000 0.00000000
Neuron 401 3 0.87500000 1 1.00000000 0.00000000 0.00000000 0.00000000
Neuron 403 3 0.50000000 1 1.00000000 0.00000000 0.00000000 0.00000000
Neuron 408 3 0.87500000 1 1.00000000 0.00000000 0.00000000 0.00000000
Neuron 412 3 0.50000000 1 1.00000000 0.00000000 0.00000000 0.00000000
Neuron 416 3 0.50000000 1 1.00000000 0.00000000 0.00000000 0.00000000
Neuron 424 3 0.50000000 1 1.00000000 0.00000000 0.00000000 0.00000000
Neuron 436 3 0.50000000 1 1.00000000 0.00000000 0.00000000 0.00000000
Neuron 467 3 0.87500000 1 1.00000000 0.00000000 0.00000000 0.00000000
Neuron 479 3 0.62500000 1 1.00000000 0.00000000 0.00000000 0.00000000
Neuron 482 3 0.50000000 1 1.00000000 0.00000000 0.00000000 0.00000000
Neuron 508 3 0.62500000 1 1.00000000 0.00000000 0.00000000 0.00000000
Neuron 529 3 0.62500000 1 1.00000000 0.00000000 0.00000000 0.00000000
Neuron 537 3 0.62500000 1 1.00000000 0.00000000 0.00000000 0.00000000
Neuron 551 3 0.81250000 1 1.00000000 0.00000000 0.00000000 0.00000000
Neuron 555 3 0.62500000 1 1.00000000 0.00000000 0.00000000 0.00000000
Neuron 574 3 0.62500000 1 1.00000000 0.00000000 0.00000000 0.00000000
Neuron 580 3 0.62500000 1 1.00000000 0.00000000 0.00000000 0.00000000
Neuron 597 3 0.50000000 1 1.00000000 0.00000000 0.00000000 0.00000000
Neuron 617 3 0.31250000 1 1.00000000 0.00000000 0.00000000 0.00000000
Neuron 665 3 0.37500000 1 1.00000000 0.00000000 0.00000000 0.00000000
Neuron 675 3 0.93750000 1 1.00000000 0.00000000 0.00000000 0.00000000
Neuron 678 3 0.50000000 1 1.00000000 0.00000000 0.00000000 0.00000000
Neuron 684 3 0.68750000 1 1.00000000 0.00000000 0.00000000 0.00000000
Neuron 694 3 0.59375000 1 1.00000000 0.00000000 0.00000000 0.00000000
Neuron 710 3 0.87500000 1 1.00000000 0.00000000 0.00000000 0.00000000
Neuron 712 3 0.54687500 1 1.00000000 0.00000000 0.00000000 0.00000000
Neuron 737 3 0.12500000 1 1.00000000 0.00000000 0.00000000 0.00000000
Neuron 747 3 0.75000000 1 1.00000000 0.00000000 0.00000000 0.00000000
Neuron 825 3 0.75000000 1 1.00000000 0.00000000 0.00000000 0.00000000
Neuron 943 3 0.50000000 1 1.00000000 0.00000000 0.00000000 0.00000000
Neuron 1125 3 0.12500000 1 1.00000000 0.00000000 0.00000000 0.00000000
Neuron 1153 3 0.56250000 1 1.00000000 0.00000000 0.00000000 0.00000000
Neuron 1173 3 0.56250000 1 1.00000000 0.00000000 0.00000000 0.00000000
Neuron 1214 3 0.75000000 1 1.00000000 0.00000000 0.00000000 0.00000000
Neuron 1225 3 0.52343750 1 1.00000000 0.00000000 0.00000000 0.00000000
Neuron 1251 3 0.62500000 1 1.00000000 0.00000000 0.00000000 0.00000000
Neuron 1302 3 0.75000000 1 1.00000000 0.00000000 0.00000000 0.00000000
Neuron 1332 3 0.50000000 1 1.00000000 0.00000000 0.00000000 0.00000000
Neuron 1362 3 0.75000000 1 1.00000000 0.00000000 0.00000000 0.00000000
Neuron 1378 3 0.27343750 1 1.00000000 0.00000000 0.00000000 0.00000000
Neuron 1392 3 0.37500000 1 1.00000000 0.00000000 0.00000000 0.00000000
Neuron 1405 3 0.62500000 1 1.00000000 0.00000000 0.00000000 0.00000000
Neuron 1463 3 0.12500000 1 1.00000000 0.00000000 0.00000000 0.00000000
Neuron 1464 3 0.12500000 1 1.00000000 0.00000000 0.00000000 0.00000000
Neuron 1493 3 0.68750000 1 1.00000000 0.00000000 0.00000000 0.00000000
Neuron 1518 3 0.18750000 1 1.00000000 0.00000000 0.00000000 0.00000000
Neuron 1532 3 0.51171875 1 1.00000000 0.00000000 0.00000000 0.00000000
Neuron 1563 3 0.56250000 1 1.00000000 0.00000000 0.00000000 0.00000000
Neuron 1564 3 0.43750000 1 1.00000000 0.00000000 0.00000000 0.00000000
Neuron 1623 3 0.43750000 1 1.00000000 0.00000000 0.00000000 0.00000000
Neuron 1632 3 0.18750000 1 1.00000000 0.00000000 0.00000000 0.00000000
Neuron 1657 3 0.25000000 1 1.00000000 0.00000000 0.00000000 0.00000000
Neuron 1693 3 0.65625000 1 1.00000000 0.00000000 0.00000000 0.00000000
Neuron 1727 3 0.50000000 1 1.00000000 0.00000000 0.00000000 0.00000000
Neuron 1738 3 0.50000000 1 1.00000000 0.00000000 0.00000000 0.00000000
Neuron 1766 3 0.50000000 1 1.00000000 0.00000000 0.00000000 0.00000000
Neuron 1785 3 0.75000000 1 1.00000000 0.00000000 0.00000000 0.00000000
Neuron 1948 3 0.25000000 1 1.00000000 0.00000000 0.00000000 0.00000000
Neuron 2082 3 0.25000000 1 1.00000000 0.00000000 0.00000000 0.00000000
Neuron 2105 3 0.46875000 1 1.00000000 0.00000000 0.00000000 0.00000000
Neuron 2128 3 0.62500000 1 1.00000000 0.00000000 0.00000000 0.00000000
Neuron 2186 3 0.21875000 1 1.00000000 0.00000000 0.00000000 0.00000000
Neuron 2187 3 0.38671875 1 1.00000000 0.00000000 0.00000000 0.00000000
Neuron 2243 3 0.09375000 1 1.00000000 0.00000000 0.00000000 0.00000000
Neuron 2250 3 0.45312500 1 1.00000000 0.00000000 0.00000000 0.00000000
Neuron 2255 3 0.51171875 1 1.00000000 0.00000000 0.00000000 0.00000000
Neuron 2283 3 0.53125000 1 1.00000000 0.00000000 0.00000000 0.00000000
Neuron 2338 3 0.56250000 1 1.00000000 0.00000000 0.00000000 0.00000000
Neuron 2373 3 0.50000000 1 1.00000000 0.00000000 0.00000000 0.00000000
Neuron 2408 3 0.59375000 1 1.00000000 0.00000000 0.00000000 0.00000000
Neuron 2413 3 0.31835938 1 1.00000000 0.00000000 0.00000000 0.00000000
Link 1 10 1 0 0.23550756
Link 3 10 3 0 2.39535789
Link 4 10 4 0 4.08529809
Link 5 10 5 0 -1.99665679
Link 6 10 6 0 5.24675398
Link 8 10 8 0 0.46136352
Link 9 10 9 0 -3.43237254
Link 1 11 10 0 2.76261933
Link 4 11 13 0 3.56077640
Link 5 11 14 0 1.00425807
Link 6 11 15 0 1.27664786
Link 7 11 16 0 -1.99868569
Link 8 11 17 0 -4.72380797
Link 9 11 18 0 -0.23790614
Link 1 12 19 0 4.48428211
Link 2 12 20 0 1.57289521
Link 4 12 22 0 1.72754708
Link 5 12 23 0 4.11885245
Link 6 12 24 0 1.79994162
Link 7 12 25 0 -3.24836147
Link 9 12 27 0 1.24153531
Link 1 13 28 0 -1.68979271
Link 3 13 30 0 2.19299621
Link 4 13 31 0 -0.68819669
Link 5 13 32 0 3.22019025
Link 6 13 33 0 -0.49788445
Link 7 13 34 0 4.31841808
Link 8 13 35 0 -0.27416061
Link 9 13 36 0 1.54195068
Link 1 14 37 0 -0.50956562
Link 2 14 38 0 6.77780344
Link 3 14 39 0 -4.38083722
Link 6 14 42 0 -5.13903658
Link 8 14 44 0 0.92072453
Link 1 15 46 0 -0.87214502
Link 2 15 47 0 -0.60318041
Link 4 15 49 0 0.94418024
Link 5 15 50 0 -1.99251778
Link 7 15 52 0 -3.84075098
Link 8 15 53 0 0.63669517
Link 9 15 54 0 3.96198311
Link 3 16 57 0 0.52605844
Link 4 16 58 0 1.49739500
Link 8 16 62 0 0.00863220
Link 9 16 63 0 0.11639542
Link 6 18 68 0 -2.84278175
Link 18 13 69 0 0.05235341
Link 7 20 74 0 0.99079886
Link 4 29 101 0 0.87088217
Link 29 14 102 0 0.07765360
Link 2 30 104 0 0.68563406
Link 30 11 105 0 -0.99724401
Link 31 16 108 0 2.94154311
Link 2 33 113 0 0.77830799
Link 2 35 119 0 1.40291892
Link 35 13 120 0 0.94251087
Link 8 37 125 0 0.53814394
Link 40 11 137 0 0.50449199
Link 16 16 158 1 -5.95077450
Link 7 48 166 0 1.01327795
Link 48 16 167 0 -0.62427800
Link 3 50 172 0 0.96301764
Link 50 15 173 0 0.02866059
Link 6 51 176 0 1.51506717
Link 51 16 177 0 0.38686393
Link 7 54 194 0 -0.38415705
Link 54 11 195 0 -1.23440968
Link 4 66 268 0 4.30545780
Link 12 18 276 1 -3.13162239
Link 70 31 288 0 0.29051130
Link 2 54 325 0 2.12593903
Link 54 14 326 0 -3.03646108
Link 13 13 341 1 -1.35641845
Link 4 78 347 0 2.41506340
Link 2 18 360 0 -0.25032504
Link 79 15 368 0 0.26705187
Link 18 83 393 0 0.91877686
Link 5 85 407 0 2.44428380
Link 90 16 440 0 -0.74652194
Link 91 13 443 0 0.98811983
Link 1 93 458 0 2.21543725
Link 93 16 459 0 3.12166020
Link 78 37 466 1 1.09098091
Link 8 95 475 0 1.26709697
Link 95 18 476 0 2.86818634
Link 37 37 519 1 1.86226866
Link 6 54 520 0 -3.24563495
Link 21 101 552 0 -0.04455936
Link 4 104 571 0 1.00000000
Link 104 46 572 0 1.86369853
Link 66 105 578 0 2.06042222
Link 16 109 603 1 1.05062310
Link 109 78 604 1 -0.57242718
Link 7 110 608 0 0.64501079
Link 110 37 609 0 -1.66287275
Link 12 111 621 1 1.76494816
Link 111 78 622 1 0.03120330
Link 66 13 634 0 -2.07831184
Link 33 113 637 0 1.46715391
Link 15 34 666 1 -3.18261143
Link 78 119 679 1 1.41004384
Link 119 18 680 1 0.71209158
Link 18 21 682 0 -1.21919117
Link 6 122 695 0 0.60215299
Link 37 128 753 0 1.75998020
Link 13 67 764 1 2.04952949
Link 54 137 822 0 1.14702724
Link 9 66 914 0 -1.97274986
Link 116 18 923 0 -2.66046075
Link 154 21 967 0 4.38385384
Link 162 67 1016 0 -0.02222427
Link 34 93 1027 0 1.37184684
Link 9 46 1065 0 1.02512563
Link 3 169 1079 0 1.00000000
Link 169 116 1080 0 2.28521503
Link 74 170 1087 0 0.81405542
Link 170 12 1088 0 0.75846007
Link 54 21 1095 0 -0.45574068
Link 10 184 1187 1 -0.17562298
Link 184 46 1188 1 -1.47832887
Link 15 53 1193 1 1.61740694
Link 185 88 1197 0 -0.02268268
Link 5 196 1288 0 1.10185241
Link 196 26 1289 0 0.81342997
Link 34 210 1371 0 1.00000000
Link 210 16 1372 0 -1.54410074
Link 7 218 1413 0 0.94862531
Link 218 37 1414 0 1.63790519
Link 223 74 1441 0 1.70470967
Link 226 90 1465 0 1.43059033
Link 5 78 1550 0 0.96717881
Link 5 252 1647 0 1.62216815
Link 252 70 1648 0 1.71571300
Link 21 67 1689 0 -0.39214208
Link 113 260 1721 0 0.69453783
Link 260 16 1722 0 -1.19135113
Link 268 154 1790 1 -0.46382504
Link 88 271 1807 0 1.14098287
Link 271 67 1808 0 3.90287233
Link 21 279 1858 0 -0.04728776
Link 279 15 1859 0 0.58147007
Link 282 273 1875 0 1.25593143
Link 7 290 1922 0 2.26551052
Link 290 18 1923 0 -0.51282421
Link 4 296 1952 0 -0.27009658
Link 296 53 1953 0 -0.90462657
Link 300 66 1970 0 -0.31676206
Link 26 26 1987 1 0.15041257
Link 67 309 2040 0 0.33416287
Link 316 78 2082 0 1.92075943
Link 322 54 2127 1 -1.22173886
Link 40 40 2138 1 3.86212822
Link 1 328 2163 0 0.76267470
Link 328 34 2164 0 3.71098973
Link 16 334 2206 1 1.00000000
Link 334 53 2207 1 0.50599322
Link 116 309 2221 0 1.48953105
Link 6 37 2272 0 -0.83166452
Link 67 31 2287 0 3.33798671
Link 83 344 2295 0 1.06483561
Link 344 13 2296 0 -1.57729236
Link 101 347 2309 0 0.63517929
Link 3 370 2465 0 2.87297950
Link 370 40 2466 0 1.85549393
Link 18 375 2488 1 0.79781544
Link 375 268 2489 1 1.82443919
Link 105 386 2570 0 0.34693241
Link 386 12 2571 0 -1.45833911
Link 14 401 2682 1 1.62543894
Link 401 322 2683 1 0.04304181
Link 5 403 2698 0 1.05264797
Link 403 14 2699 0 1.50671042
Link 408 14 2739 0 -0.62119633
Link 2 412 2758 0 0.37344089
Link 412 11 2759 0 0.57815684
Link 3 416 2789 0 1.15119686
Link 416 11 2790 0 -0.82023898
Link 273 424 2861 0 0.95035283
Link 424 66 2862 0 -1.73855870
Link 110 67 2896 0 -0.43120362
Link 128 12 2920 0 0.48463689
Link 18 436 2955 0 1.00000000
Link 436 282 2956 0 1.03212726
Link 262 467 3206 0 0.99882748
Link 467 15 3207 0 -0.36454297
Link 262 154 3230 1 0.03012781
Link 79 479 3283 1 0.97456774
Link 479 31 3284 1 1.24154871
Link 482 93 3312 1 1.32271568
Link 271 18 3337 0 -1.30580059
Link 53 508 3477 0 1.26430520
Link 508 91 3478 0 1.40115766
Link 300 67 3585 0 -5.09365745
Link 128 529 3626 1 1.66476126
Link 529 416 3627 1 -2.67795883
Link 46 537 3678 0 -0.10530089
Link 537 79 3679 0 1.08502979
Link 296 322 3697 0 4.38639692
Link 128 551 3791 0 1.01935750
Link 551 408 3792 0 1.17593361
Link 15 555 3825 1 0.74759346
Link 555 110 3826 1 2.08210447
Link 26 574 3967 0 -0.57102153
Link 574 262 3968 0 2.93954038
Link 31 18 4011 0 -0.34091691
Link 67 580 4022 0 1.11169235
Link 580 105 4023 0 1.60597890
Link 137 597 4156 0 0.66550294
Link 597 67 4157 0 0.38389385
Link 154 53 4168 0 3.01816803
Link 15 37 4227 1 -3.57974359
Link 122 617 4323 0 0.88875534
Link 617 300 4324 0 2.95767933
Link 3 537 4637 0 2.06278729
Link 85 665 4675 0 1.55480865
Link 347 675 4742 0 1.18675344
Link 675 14 4743 0 -0.70699065
Link 309 678 4752 0 0.90090462
Link 684 408 4784 0 -0.79519862
Link 694 684 4847 0 0.27302879
Link 13 710 4960 1 0.89132041
Link 710 322 4961 1 0.66781432
Link 712 694 4975 0 1.87997081
Link 5 737 5159 0 1.68356551
Link 737 251 5160 0 2.42041156
Link 18 408 5199 0 2.77234666
Link 101 747 5233 0 1.85943543
Link 747 322 5234 0 4.24765182
Link 271 408 5659 0 0.69703877
Link 20 18 5671 0 1.35768769
Link 403 184 5673 0 -3.35773794
Link 154 20 5786 0 -0.36144685
Link 79 825 5808 0 1.99450089
Link 825 78 5809 0 0.12991805
Link 12 279 6048 1 2.78066570
Link 67 110 6073 1 -2.59108762
Link 251 113 6499 0 0.01794798
Link 271 14 6607 0 1.33707189
Link 79 79 6656 1 -4.22351818
Link 33 943 6658 0 1.14206155
Link 943 37 6659 0 4.35022088
Link 2 91 6683 0 -0.55260359
Link 34 479 6852 0 0.74586523
Link 296 14 7438 0 1.03996890
Link 53 113 7566 0 -1.12042838
Link 85 282 7587 0 0.39097877
Link 529 408 7854 0 -1.41880233
Link 1 1125 8096 0 0.42376581
Link 137 105 8104 0 4.73200593
Link 18 1153 8284 0 0.23215231
Link 1153 316 8285 0 0.44659564
Link 300 529 8349 0 4.11020798
Link 300 1173 8457 0 1.38576187
Link 1173 79 8458 0 -0.10560732
Link 1214 262 8767 0 -0.44621273
Link 1225 712 8842 0 0.26180929
Link 268 684 8962 0 -0.81890045
Link 290 46 8985 0 -0.47522675
Link 40 1251 9112 0 0.77789240
Link 83 694 9306 1 -0.92678832
Link 290 271 9355 0 -2.27162026
Link 1302 1214 9454 0 -0.09095036
Link 678 1332 9692 0 1.24516467
Link 1332 88 9693 0 -2.20983457
Link 66 279 9790 0 2.66337848
Link 279 1362 9904 0 0.98388052
Link 1362 184 9905 0 3.55006782
Link 5 1378 10029 0 1.40990504
Link 1378 712 10030 0 0.57918103
Link 370 1392 10141 0 1.43967573
Link 1392 26 10142 0 -0.46911768
Link 1405 747 10224 0 4.62415782
Link 747 83 10445 0 0.71790937
Link 5 1463 10679 0 0.74950402
Link 1463 162 10680 0 0.15230577
Link 8 1464 10693 0 1.66880959
Link 1464 223 10694 0 0.54824051
Link 154 370 10808 0 -1.80402655
Link 1493 101 10955 0 0.52898719
Link 7 1463 10982 0 0.64435222
Link 110 110 11043 1 3.36669384
Link 1125 1518 11224 0 1.13727422
Link 79 424 11308 1 -3.35166160
Link 46 1532 11344 0 0.93037394
Link 1532 1225 11345 0 0.65656733
Link 309 113 11415 0 -2.78338664
Link 1563 1405 11608 0 1.34641934
Link 665 1564 11610 0 1.14282417
Link 74 401 11797 0 -2.71338900
Link 3 403 12007 0 3.39208502
Link 9 137 12023 0 -0.75523456
Link 375 93 12055 0 2.73766899
Link 370 1623 12119 0 0.60743903
Link 1623 479 12120 0 -2.89532194
Link 1632 268 12184 0 0.93316522
Link 316 154 12223 1 2.34048507
Link 1493 408 12307 0 2.21004765
Link 122 1657 12409 0 0.31230217
Link 1657 185 12410 0 -0.78663844
Link 1225 344 12438 0 -0.54348457
Link 271 479 12484 0 -2.76998811
Link 1251 1693 12642 0 1.00000000
Link 1693 1493 12643 0 -0.64957513
Link 128 31 12689 1 4.79655544
Link 412 316 12826 0 0.88016005
Link 101 18 12882 1 1.02589940
Link 93 1727 12991 1 0.63075800
Link 1727 482 12992 1 0.79160271
Link 116 1738 13061 0 0.88584061
Link 74 1766 13309 0 0.99590493
Link 1766 137 13310 0 1.53080189
Link 31 412 13451 0 2.08629316
Link 105 1785 13474 0 1.44552645
Link 1785 1302 13475 0 1.02829965
Link 403 344 13607 0 -0.91410260
Link 1623 30 13906 0 1.08298236
Link 1225 83 13962 0 -2.05923729
Link 1153 347 14122 0 3.85303851
Link 375 747 14233 0 2.25994701
Link 401 33 14406 1 2.40850092
Link 678 252 14747 1 0.24138584
Link 70 1948 14830 0 0.36554183
Link 1948 85 14831 0 -0.67650382
Link 271 1632 14884 1 -3.88295984
Link 1405 1125 15137 1 -0.15147992
Link 1518 88 15709 0 -3.58615367
Link 1623 1251 15923 0 -4.99177327
Link 8 2082 16040 0 0.98607788
Link 2082 412 16041 0 -1.20589211
Link 347 196 16165 1 -2.13454481
Link 2105 21 16221 0 1.68092748
Link 2 1727 16266 0 -1.11683284
Link 424 79 16364 0 -1.59690184
Link 401 1214 16465 1 2.97356875
Link 1738 2128 16517 0 1.01038153
Link 2128 78 16518 0 -2.67581972
Link 271 154 16614 1 1.40328164
Link 14 1518 16793 1 -0.85650785
Link 1518 2186 16933 0 0.88240372
Link 2186 185 16934 0 0.75187624
Link 2187 1225 16939 0 1.24052915
Link 2 401 16966 0 0.72688330
Link 1362 1632 16987 1 2.33157735
Link 1362 170 17216 0 -1.07819451
Link 268 93 17292 0 -1.08870239
Link 5 2243 17478 0 0.94518242
Link 2243 1632 17479 0 0.93602399
Link 1564 2250 17529 0 1.03653914
Link 2250 2105 17530 0 0.99225455
Link 34 2255 17559 0 1.00000000
Link 2255 1225 17560 0 1.17923728
Link 88 2283 17767 0 1.02054153
Link 2283 1563 17768 0 0.85452285
Link 50 710 17992 0 -1.20219639
Link 1332 1302 18035 0 -4.77044407
Link 218 66 18098 0 -0.31506967
Link 1463 1518 18276 0 -2.09934803
Link 29 712 18297 0 0.46151356
Link 67 2338 18314 0 1.00000000
Link 2338 226 18315 0 0.96571374
Link 185 260 18459 0 1.00315380
Link 5 1493 18478 0 -1.26937289
Link 1332 2373 18586 0 1.00000000
Link 2373 35 18587 0 -1.54552712
Link 1332 40 18816 0 3.61700204
Link 2187 109 18862 0 0.28386988
Link 154 119 18886 0 2.65324061
Link 694 2408 18920 1 1.00000000
Link 2408 694 18921 1 1.72350899
Link 162 2413 18949 0 1.00000000
Link 2413 2187 18950 0 1.00458498
Link 290 1251 19079 0 1.75372623
GenomeEnd

